\data\
ngram 1=110
ngram 2=1225
ngram 3=4685
ngram 4=10434
ngram 5=15811

\1-grams:
-2.843493	<unk>	0
0	<s>	-0.274723
-2.0735574	</s>	0
-1.461371	e	-0.8932488
-1.635715	s	-0.7184684
-1.6843058	p	-0.68402857
-1.4932864	a	-0.95007706
-1.6061007	n	-0.60736436
-2.03347	y	-0.4123493
-1.3221593	#	-0.982889
-1.6513156	|	-0.5547867
-1.5651524	o	-0.84439707
-1.8016485	m	-0.66396403
-1.7200094	b	-0.61216164
-1.6206555	r	-0.67059964
-1.635715	t	-0.7016047
-1.635715	l	-0.6471503
-1.9629352	v	-0.6199598
-1.5920179	i	-0.9822111
-1.6843058	d	-0.6107192
-1.5920179	.	-0.60821545
-1.8247039	g	-0.5723339
-1.6513156	c	-0.82483983
-1.6206555	u	-0.8136915
-1.8748472	h	-0.45272034
-2.0735574	é	-0.37989116
-1.7589135	f	-0.6446404
-1.8490523	z	-0.6577761
-1.931545	ó	-0.72358257
-2.7089107	è	-0.20627116
-2.7089107	(	-0.20627116
-2.3604822	á	-0.42891526
-1.7797556	]	-0.6970291
-1.8247039	)	-0.80071145
-2.117725	í	-0.4603362
-1.7390261	1	-0.48780835
-1.9022715	5	-0.40856716
-1.931545	0	-0.49726623
-2.2859519	x	-0.4734367
-1.6206555	'	-0.49880582
-2.222358	<	-0.4389315
-2.2859519	/	-0.20627116
-2.3604822	>	-0.22060625
-2.2859519	[	-0.27309114
-1.7200094	2	-0.41142792
-2.0735574	9	-0.3932145
-1.8748472	k	-0.42504883
-2.7513616	²	-0.20627116
-1.6674975	,	-1.2027798
-2.166898	;	-0.56387025
-2.0735574	q	-0.85059726
-1.8490523	=	-0.45949858
-1.9022715	"	-0.38755277
-1.9022715	4	-0.31944758
-2.4505079	%	-0.3182504
-1.8247039	3	-0.37952492
-1.9967722	7	-0.38289246
-2.0735574	6	-0.33642542
-2.0735574	8	-0.3691456
-1.8748472	-	-0.2969448
-1.9629352	:	-0.4945938
-2.2859519	w	-0.38777897
-1.9967722	_	-0.37716317
-2.7513616	ë	-0.20627116
-2.7513616	р	-0.20627116
-2.7089107	е	-0.20627116
-2.7513616	п	-0.20627116
-2.7513616	у	-0.20627116
-2.7513616	б	-0.20627116
-2.7513616	л	-0.20627116
-2.7089107	и	-0.20627116
-2.7186632	к	-0.2776304
-2.7513616	а	-0.20627116
-2.7186632	о	-0.20627116
-2.7513616	с	-0.20627116
-2.7513616	в	-0.20627116
-2.7513616	ú	-0.20627116
-2.4505079	&	-0.47038603
-2.7513616	•	-0.20627116
-2.7186632	ñ	-0.37347597
-2.7513616	€	-0.20627116
-2.3604822	j	-0.2586616
-2.7089107	ü	-0.2586616
-2.7513616	ừ	-0.20627116
-2.7513616	*	-0.20627116
-2.7513616	π	-0.20627116
-2.7089107	ρ	-0.20627116
-2.7513616	ό	-0.20627116
-2.7513616	«	-0.20627116
-2.7089107	»	-0.20627116
-2.7513616	κ	-0.20627116
-2.7513616	ά	-0.20627116
-2.7513616	υ	-0.20627116
-2.7513616	ο	-0.20627116
-2.7513616	ν	-0.20627116
-2.7513616	ậ	-0.20627116
-2.7513616	â	-0.20627116
-2.7089107	°	-0.20627116
-2.7089107	′	-0.3182504
-2.7513616	$	-0.20627116
-2.7513616	+	-0.20627116
-2.5642095	—	-0.24048679
-2.7089107	ä	-0.20627116
-2.7513616	ʼ	-0.20627116
-2.7089107	н	-0.20627116
-2.7513616	м	-0.20627116
-2.7513616	ш	-0.20627116
-2.7513616	!	-0.20627116
-2.7186632	ª	-0.4474114
-2.7089107	’	-0.29342547

\2-grams:
-2.1160982	s </s>	0
-2.420092	a </s>	0
-2.3629718	n </s>	0
-2.5756812	o </s>	0
-2.4149811	r </s>	0
-2.3256981	l </s>	0
-2.671327	i </s>	0
-2.4581816	u </s>	0
-1.6251067	: </s>	0
-0.4164178	ừ </s>	0
-0.71154016	н </s>	0
-1.3608395	<s> e	-0.18698469
-2.100766	e e	-0.18698469
-1.0575302	s e	-0.3334759
-0.9300388	p e	-0.36378804
-2.1718845	a e	-0.18698469
-1.3029327	n e	-0.30789983
-1.0020573	y e	-0.24278629
-1.363563	# e	-0.5794605
-1.2296875	| e	-0.28691846
-2.194203	o e	-0.18698469
-0.8374177	m e	-0.45754874
-1.0769645	b e	-0.34966654
-0.9189758	r e	-0.46450973
-0.8517953	t e	-0.45762706
-0.9237206	l e	-0.38968167
-0.6410233	v e	-0.3136556
-1.303433	i e	-0.43899664
-0.86086905	d e	-0.4376338
-1.4147253	g e	-0.25029397
-1.2563257	c e	-0.271017
-1.0966749	u e	-0.3675591
-0.80464876	h e	-0.24425356
-1.1946167	é e	-0.18698469
-0.7545476	f e	-0.33617827
-0.6637708	z e	-0.45096272
-1.3936142	( e	-0.18698469
-1.7532631	1 e	-0.18698469
-1.6144998	5 e	-0.18698469
-0.64602125	x e	-0.34088713
-1.3348709	' e	-0.26075238
-1.3205326	> e	-0.18698469
-1.5081697	[ e	-0.18698469
-1.3114696	k e	-0.18698469
-1.6360341	= e	-0.18698469
-1.5854331	" e	-0.18698469
-1.5286769	4 e	-0.18698469
-1.0875012	- e	-0.2736285
-0.8415998	w e	-0.18698469
-1.1572464	_ e	-0.2736285
-0.8270685	j e	-0.18698469
-0.5547508	ü e	-0.18698469
-1.081539	— e	-0.18698469
-1.0305603	’ e	-0.18698469
-1.4260132	<s> s	-0.18698469
-1.0271713	e s	-0.5554608
-2.046235	p s	-0.18698469
-1.2017606	a s	-0.54265404
-1.4552599	n s	-0.33321464
-1.6973972	y s	-0.18698469
-1.3003854	# s	-0.7088828
-1.4468327	| s	-0.2469072
-1.0051348	o s	-0.514986
-1.5747838	b s	-0.25029397
-1.6825004	r s	-0.25350308
-1.7213341	t s	-0.18698469
-1.7075102	l s	-0.22814943
-1.1864873	i s	-0.4707102
-1.0562294	. s	-0.59303534
-1.9236392	g s	-0.18698469
-1.0753663	u s	-0.35545984
-0.7060817	é s	-0.35364607
-0.69157964	è s	-0.18698469
-1.477649	( s	-0.18698469
-0.69564545	á s	-0.23687223
-0.7290519	í s	-0.2289265
-1.9247591	' s	-0.18698469
-1.297306	< s	-0.18698469
-1.2487345	/ s	-0.18698469
-1.3879842	> s	-0.18698469
-1.7177961	= s	-0.18698469
-1.3343588	- s	-0.18698469
-0.69157964	ë s	-0.18698469
-1.4413489	<s> p	-0.18698469
-1.5841161	e p	-0.26180992
-1.486598	s p	-0.2715022
-1.7302608	a p	-0.35364607
-1.7184	y p	-0.18698469
-1.3387983	# p	-0.82509774
-1.3462243	| p	-0.303863
-1.7443795	o p	-0.26127833
-1.4751288	m p	-0.3496665
-2.037988	b p	-0.18698469
-1.9986033	r p	-0.18698469
-1.7333682	i p	-0.2478722
-1.2682593	. p	-0.4169441
-2.2006238	c p	-0.18698469
-1.5868845	u p	-0.26127833
-1.4979855	( p	-0.18698469
-1.423004	5 p	-0.3244333
-1.3996254	0 p	-0.29200536
-1.6309144	x p	-0.18698469
-1.9540887	' p	-0.18698469
-1.6264694	[ p	-0.18698469
-1.7845302	2 p	-0.18698469
-1.7375153	= p	-0.18698469
-1.63744	- p	-0.18698469
-0.9174193	_ p	-0.32608846
-1.2316256	j p	-0.18698469
-1.7599316	e a	-0.23632823
-1.281988	s a	-0.41523364
-0.93191695	p a	-0.33088237
-1.9336736	a a	-0.29324317
-1.0711389	n a	-0.3838557
-1.0062121	y a	-0.25285935
-1.5074072	# a	-0.53418887
-1.3165557	| a	-0.26768216
-2.2186797	o a	-0.18698469
-0.8390063	m a	-0.41208526
-0.7979245	b a	-0.39898032
-1.0577189	r a	-0.47122276
-1.0204148	t a	-0.5027717
-0.85066676	l a	-0.5107331
-0.69857424	v a	-0.28863746
-1.3056669	i a	-0.44587362
-1.0596713	d a	-0.37875834
-0.75897294	g a	-0.34793788
-0.9106212	c a	-0.44476283
-1.4066608	u a	-0.283065
-0.74393535	h a	-0.23209266
-1.5031328	é a	-0.18698469
-1.080332	f a	-0.26631424
-0.7859123	z a	-0.31679568
-1.4103031	( a	-0.18698469
-0.72187126	í a	-0.36681834
-1.2520846	x a	-0.18698469
-1.3422247	' a	-0.263609
-1.2077291	/ a	-0.18698469
-1.3341306	> a	-0.18698469
-1.52684	[ a	-0.18698469
-1.6807837	2 a	-0.18698469
-0.94663113	k a	-0.3244333
-1.3408258	" a	-0.18698469
-1.5404204	- a	-0.18698469
-1.3649404	_ a	-0.18698469
-0.30461496	ñ a	-0.21398985
-0.8310236	j a	-0.18698469
-0.40005028	ʼ a	-0.18698469
-0.64952624	’ a	-0.18698469
-1.0839887	<s> n	-0.3244333
-1.0756748	e n	-0.61566377
-2.0302083	p n	-0.18698469
-1.2198529	a n	-0.59767044
-1.754481	n n	-0.24840918
-1.6839392	y n	-0.18698469
-1.4646065	# n	-0.64835393
-1.3353941	| n	-0.28271973
-1.2750591	o n	-0.40790865
-1.8053354	m n	-0.18698469
-1.9931316	b n	-0.18698469
-1.5763118	r n	-0.2565346
-2.1109624	t n	-0.18698469
-1.1433775	i n	-0.46722865
-1.6503081	g n	-0.25029397
-0.96883124	u n	-0.40677577
-1.7458153	h n	-0.18698469
-0.8244495	é n	-0.23632823
-0.87930393	ó n	-0.21500112
-1.4646019	( n	-0.18698469
-0.51978457	á n	-0.26945752
-1.2533416	í n	-0.18698469
-1.6909957	' n	-0.18698469
-1.5882109	[ n	-0.18698469
-1.658319	" n	-0.18698469
-1.6002533	- n	-0.18698469
-1.0264833	_ n	-0.25029397
-0.40506417	ú n	-0.18698469
-0.22604948	& n	-0.4169441
-0.40506417	â n	-0.18698469
-0.6894174	ä n	-0.18698469
-1.7486904	e y	-0.37027475
-2.21343	p y	-0.18698469
-2.0416343	a y	-0.26014137
-1.861073	n y	-0.21748677
-1.8307309	# y	-0.39503878
-2.3957338	r y	-0.18698469
-2.331427	t y	-0.18698469
-2.3091073	l y	-0.18698469
-2.3381965	c y	-0.18698469
-1.5241216	u y	-0.27966812
-1.9035729	h y	-0.18698469
-1.7625613	- y	-0.18698469
-1.2225406	e #	-0.4622318
-1.0453204	s #	-0.5548806
-1.8520299	p #	-0.18698469
-1.1159028	a #	-0.73353386
-1.1145449	n #	-0.4506199
-0.9805456	y #	-0.23687223
-2.1534512	# #	-0.18698469
-1.0335412	| #	-0.5442015
-1.0800242	o #	-0.69760007
-1.5312742	m #	-0.18698469
-1.6396947	b #	-0.18698469
-1.4340055	r #	-0.30489442
-1.2134053	t #	-0.3520032
-1.2597954	l #	-0.26435837
-1.3856188	i #	-0.262118
-1.5091525	d #	-0.25029397
-0.44302398	. #	-0.44249535
-1.1409627	g #	-0.24840918
-1.797714	c #	-0.18698469
-1.3810455	u #	-0.24630313
-1.375397	h #	-0.18698469
-1.4217869	é #	-0.18698469
-1.5722357	f #	-0.18698469
-1.0134523	z #	-0.20707951
-0.21139507	ó #	-0.34549314
-0.9149721	á #	-0.2736285
-0.40632793	) #	-0.28519157
-0.82493466	í #	-0.2857835
-1.1861742	1 #	-0.18698469
-1.3163055	5 #	-0.18698469
-1.6640528	0 #	-0.18698469
-0.84355134	x #	-0.18698469
-1.7064763	' #	-0.18698469
-1.0779966	2 #	-0.25029397
-1.3248049	9 #	-0.3244333
-0.8142115	k #	-0.23687223
-0.8078556	² #	-0.18698469
-0.033253346	, #	-0.5399262
-0.22882876	; #	-0.25457805
-1.1350518	= #	-0.18698469
-0.5249847	" #	-0.27889585
-1.2317514	4 #	-0.18698469
-0.7076708	% #	-0.18698469
-1.0394379	3 #	-0.18698469
-1.040131	7 #	-0.18698469
-1.1156199	6 #	-0.18698469
-0.79631007	8 #	-0.18698469
-1.436035	- #	-0.18698469
-0.29131094	: #	-0.26132646
-1.1754692	w #	-0.18698469
-1.5116426	_ #	-0.18698469
-0.38965178	а #	-0.18698469
-0.90608484	о #	-0.18698469
-1.1336298	j #	-0.18698469
-0.8078556	» #	-0.18698469
-0.2657405	′ #	-0.18698469
-0.38965178	$ #	-0.18698469
-1.0438812	— #	-0.18698469
-0.18041353	ª #	-0.29200536
-1.4310652	<s> |	-0.18698469
-1.8101119	s |	-0.2736285
-1.7260075	a |	-0.22814943
-1.9319656	n |	-0.18698469
-1.2222143	# |	-0.5089422
-1.999895	| |	-0.18698469
-2.1442378	o |	-0.23687223
-2.019486	b |	-0.18698469
-1.9837699	r |	-0.2736285
-1.9140068	t |	-0.25029397
-1.8933872	l |	-0.18698469
-1.7997385	d |	-0.18698469
-1.4533905	g |	-0.21748677
-1.0086772	) |	-0.18698469
-1.3984046	1 |	-0.29200536
-1.1949624	5 |	-0.29200536
-1.3939992	0 |	-0.29200536
-1.6208426	x |	-0.18698469
-1.9343174	' |	-0.18698469
-1.1322496	2 |	-0.4169441
-1.715703	9 |	-0.18698469
-1.6786262	" |	-0.18698469
-1.6246308	4 |	-0.18698469
-0.7354848	% |	-0.18698469
-1.4602602	3 |	-0.3244333
-1.0931573	7 |	-0.26327518
-0.78395414	6 |	-0.4169441
-0.99393517	8 |	-0.29200536
-1.6960948	e o	-0.22345684
-1.2898448	s o	-0.30892757
-0.7947878	p o	-0.44120777
-2.3880632	a o	-0.18698469
-1.0773717	n o	-0.36622682
-0.8082471	y o	-0.3087126
-1.5752088	# o	-0.4915092
-1.7453167	| o	-0.25029397
-2.1037574	o o	-0.2736285
-1.02545	m o	-0.33636612
-1.0863701	b o	-0.35241
-1.0629371	r o	-0.3224337
-0.9055807	t o	-0.42996296
-0.9887685	l o	-0.46696484
-1.05603	v o	-0.18698469
-1.3405834	i o	-0.44416684
-1.0656935	d o	-0.331432
-0.9497199	g o	-0.33930665
-0.8068303	c o	-0.40465805
-1.9920447	u o	-0.18698469
-1.2467971	h o	-0.25029397
-1.176408	f o	-0.31442767
-1.1254116	z o	-0.36018518
-1.4457378	( o	-0.18698469
-1.2467878	í o	-0.2736285
-1.0313869	x o	-0.24840918
-1.4965643	' o	-0.23221959
-1.5667758	[ o	-0.18698469
-0.83648765	k o	-0.23632823
-1.6389191	" o	-0.18698469
-1.3861303	_ o	-0.3244333
-0.97453076	ñ o	-0.18698469
-1.205761	j o	-0.18698469
-0.65438277	’ o	-0.18698469
-1.3091226	e m	-0.39243177
-1.4992524	s m	-0.26768216
-1.3162327	a m	-0.43936735
-2.211137	n m	-0.18698469
-1.4765942	# m	-0.7691266
-1.3595872	| m	-0.26014137
-1.3552315	o m	-0.36569417
-1.4891229	m m	-0.25029397
-1.6088911	r m	-0.32104197
-1.946508	l m	-0.26014137
-1.2644763	i m	-0.46516883
-2.1163282	d m	-0.18698469
-1.2231615	u m	-0.32188734
-2.0270882	f m	-0.18698469
-1.5417596	( m	-0.18698469
-2.0194552	' m	-0.18698469
-1.6773273	[ m	-0.18698469
-1.379274	k m	-0.3244333
-1.7587636	_ m	-0.18698469
-1.0917143	& m	-0.18698469
-1.4518821	<s> b	-0.18698469
-1.5342575	e b	-0.400773
-2.0139675	s b	-0.2736285
-1.3935697	a b	-0.45637548
-1.962992	n b	-0.18698469
-1.447265	# b	-0.5659207
-1.8040978	| b	-0.3244333
-1.4325278	o b	-0.24930878
-1.3661917	m b	-0.2704165
-1.8387464	r b	-0.2736285
-2.1478045	l b	-0.18698469
-1.3487511	i b	-0.41296178
-1.3119392	u b	-0.2998633
-1.9656472	z b	-0.18698469
-1.6236511	í b	-0.18698469
-1.9748034	' b	-0.18698469
-0.35309404	< b	-0.36018518
-1.4148601	> b	-0.18698469
-1.6427692	[ b	-0.18698469
-1.7072695	" b	-0.18698469
-1.3541229	- b	-0.18698469
-1.5669372	: b	-0.18698469
-1.7258958	_ b	-0.18698469
-1.1309624	— b	-0.18698469
-1.1524829	e r	-0.48659635
-2.1688793	s r	-0.18698469
-0.9822515	p r	-0.4599803
-1.1647754	a r	-0.48326272
-2.0879974	n r	-0.18698469
-1.6906161	y r	-0.18698469
-1.4656827	# r	-0.46202523
-1.3375387	| r	-0.2857835
-1.0217738	o r	-0.4678879
-0.9875557	b r	-0.38137448
-1.8084959	r r	-0.29772407
-1.1942643	t r	-0.50775325
-1.2577381	i r	-0.3540184
-1.2583616	d r	-0.22345684
-1.0166057	g r	-0.34863874
-1.2054622	c r	-0.29892763
-1.1748798	u r	-0.2741775
-1.7528338	h r	-0.18698469
-1.225792	é r	-0.18698469
-0.95065856	f r	-0.4302581
-1.6785029	ó r	-0.18698469
-1.4710765	( r	-0.18698469
-1.915407	' r	-0.18698469
-1.2947547	< r	-0.18698469
-1.382803	> r	-0.18698469
-1.5955979	[ r	-0.18698469
-1.6568155	k r	-0.18698469
-1.6649832	" r	-0.18698469
-1.6074402	- r	-0.18698469
-1.6808342	_ r	-0.18698469
-1.4260132	<s> t	-0.18698469
-1.2725016	e t	-0.43569624
-1.249199	s t	-0.38967955
-1.7869556	p t	-0.18698469
-1.2017606	a t	-0.61207867
-1.5360799	n t	-0.32625526
-1.4188234	# t	-0.77329266
-1.4468327	| t	-0.2469072
-1.3450079	o t	-0.42640415
-2.0575442	m t	-0.18698469
-2.0105221	b t	-0.18698469
-1.5820565	r t	-0.27873924
-1.9082634	t t	-0.18698469
-1.5674598	l t	-0.26127833
-1.1864873	i t	-0.5874084
-1.7942942	d t	-0.18698469
-1.3445178	c t	-0.28829992
-1.3604523	u t	-0.3551051
-1.4750061	h t	-0.18698469
-1.5582856	é t	-0.18698469
-1.9562243	f t	-0.18698469
-1.477649	( t	-0.18698469
-1.5985708	í t	-0.18698469
-1.6158929	x t	-0.18698469
-1.9247591	' t	-0.18698469
-1.6031125	[ t	-0.18698469
-1.3773384	" t	-0.3244333
-1.4046142	_ t	-0.3244333
-0.40618628	ậ t	-0.18698469
-1.1970221	e l	-0.47434366
-1.6684871	s l	-0.36018518
-1.2250601	p l	-0.37810883
-1.2211746	a l	-0.52932227
-1.6973972	y l	-0.18698469
-1.3555794	# l	-0.660048
-1.2538248	| l	-0.28271973
-1.3096604	o l	-0.3671618
-2.0575442	m l	-0.18698469
-1.2274642	b l	-0.33551267
-1.9765389	r l	-0.2736285
-1.7213341	t l	-0.18698469
-1.4617289	l l	-0.31968382
-1.7944477	v l	-0.18698469
-1.2852954	i l	-0.37459108
-1.9206731	. l	-0.18698469
-1.6588771	g l	-0.18698469
-1.1016363	c l	-0.4604514
-1.2583219	u l	-0.34407818
-1.4750061	h l	-0.18698469
-1.5582856	é l	-0.18698469
-1.29836	f l	-0.23687223
-1.9310473	z l	-0.18698469
-0.69157964	è l	-0.18698469
-1.477649	( l	-0.18698469
-1.9247591	' l	-0.18698469
-1.6031125	[ l	-0.18698469
-1.351468	k l	-0.18698469
-1.6147482	- l	-0.18698469
-1.8336623	e v	-0.26768216
-2.3684812	s v	-0.18698469
-1.9202306	a v	-0.2736285
-2.0519068	n v	-0.3244333
-2.0476947	# v	-0.32567412
-2.1664248	| v	-0.18698469
-1.7795584	o v	-0.26014137
-2.3596234	r v	-0.18698469
-2.2777133	l v	-0.18698469
-1.9652131	i v	-0.23687223
-2.1904495	d v	-0.18698469
-2.0964339	' v	-0.18698469
-1.4741836	> v	-0.18698469
-1.7349408	[ v	-0.18698469
-1.4112005	<s> i	-0.18698469
-1.3283541	e i	-0.35494602
-1.1647272	s i	-0.35660052
-1.084668	p i	-0.29654062
-1.562235	a i	-0.26768216
-1.1464642	n i	-0.41244334
-1.6773635	y i	-0.18698469
-1.4635329	# i	-0.56221426
-1.3332602	| i	-0.22814943
-1.8272847	o i	-0.25029397
-0.9440243	m i	-0.33670583
-0.94242823	b i	-0.29864445
-1.038265	r i	-0.40240154
-1.1013598	t i	-0.3694577
-1.0588534	l i	-0.36803055
-0.7019866	v i	-0.2771314
-2.4070022	i i	-0.18698469
-0.9011421	d i	-0.33362556
-1.9003905	g i	-0.18698469
-1.0996293	c i	-0.36012098
-1.5744463	u i	-0.23666811
-1.0943933	h i	-0.21748677
-0.7595997	f i	-0.337371
-0.74515593	z i	-0.37064
-0.8665975	x i	-0.26768216
-1.5036762	' i	-0.26014137
-1.5809478	[ i	-0.18698469
-1.322918	- i	-0.3244333
-0.42409003	w i	-0.23687223
-1.666796	_ i	-0.18698469
-0.96406895	ü i	-0.18698469
-0.6883403	* i	-0.18698469
-1.402655	e d	-0.41232795
-1.3364666	a d	-0.45529485
-1.4628186	n d	-0.34235132
-1.3387983	# d	-0.798496
-1.7916878	| d	-0.18698469
-1.5300502	o d	-0.28325343
-1.507785	r d	-0.33022192
-1.719907	l d	-0.25029397
-1.2874378	i d	-0.49034572
-1.8108362	d d	-0.18698469
-1.924438	c d	-0.18698469
-1.4993608	u d	-0.24186073
-1.6846298	f d	-0.18698469
-1.9514748	z d	-0.18698469
-1.4979855	( d	-0.18698469
-1.9540887	' d	-0.18698469
-1.260624	/ d	-0.18698469
-1.4039094	> d	-0.18698469
-1.6264694	[ d	-0.18698469
-1.7375153	= d	-0.18698469
-1.3461089	- d	-0.3244333
-1.5586413	: d	-0.18698469
-1.4160944	_ d	-0.3244333
-0.40787488	• d	-0.18698469
-1.125487	— d	-0.18698469
-0.69484335	ä d	-0.18698469
-1.7006216	e .	-0.3838687
-1.3450698	s .	-0.42258415
-1.5207391	a .	-0.66188055
-1.9030088	n .	-0.3244333
-1.6773635	y .	-0.18698469
-1.4679985	o .	-0.5479372
-2.0319874	m .	-0.18698469
-1.6717044	r .	-0.26327518
-1.7103442	t .	-0.25029397
-2.0661592	l .	-0.18698469
-2.2142832	i .	-0.18698469
-1.449015	d .	-0.25029397
-1.9003905	g .	-0.18698469
-1.8984752	c .	-0.2736285
-1.5425361	é .	-0.18698469
-1.9349588	f .	-0.18698469
-1.672158	ó .	-0.18698469
-0.8834037	) .	-0.5138541
-1.236809	1 .	-0.26014137
-1.0283631	5 .	-0.26327518
-1.0309204	0 .	-0.43936643
-1.8972857	' .	-0.18698469
-1.3726223	> .	-0.18698469
-1.4813927	2 .	-0.3244333
-1.4154019	9 .	-0.18698469
-1.6448902	k .	-0.18698469
-0.8478926	² .	-0.18698469
-1.6517556	" .	-0.18698469
-1.3179945	4 .	-0.3244333
-1.4435091	3 .	-0.22814943
-1.6091005	7 .	-0.18698469
-1.4990704	6 .	-0.18698469
-1.5964693	e g	-0.27483714
-2.2957442	s g	-0.18698469
-2.136659	p g	-0.18698469
-1.6296135	a g	-0.29366693
-1.5672587	n g	-0.23657547
-1.6708727	# g	-0.4838909
-1.7645527	o g	-0.39303523
-1.8253819	b g	-0.3244333
-1.7205577	r g	-0.2857835
-1.7502882	l g	-0.18698469
-1.8509519	v g	-0.18698469
-1.4629622	i g	-0.36049595
-1.7159954	u g	-0.25029397
-1.5495043	( g	-0.18698469
-2.0313745	' g	-0.18698469
-1.6864142	[ g	-0.18698469
-1.7289921	k g	-0.18698469
-1.7873391	= g	-0.18698469
-1.7673844	_ g	-0.18698469
-1.4310652	<s> c	-0.18698469
-1.3649668	e c	-0.33206326
-1.2978462	s c	-0.28906637
-1.7914724	p c	-0.3244333
-1.3613298	a c	-0.4655972
-1.539099	n c	-0.3109239
-1.3011224	# c	-0.77237475
-1.1836692	| c	-0.2990669
-1.2779356	o c	-0.34366137
-1.7761483	b c	-0.18698469
-1.5849575	r c	-0.32514188
-2.1391559	t c	-0.18698469
-1.7116033	l c	-0.18698469
-1.2860084	i c	-0.5726568
-1.7997385	d c	-0.2736285
-1.6417617	. c	-0.3244333
-1.9316738	g c	-0.18698469
-1.3456925	c c	-0.32608846
-1.2159406	u c	-0.343106
-1.9377502	z c	-0.18698469
-1.4843227	( c	-0.18698469
-1.9343174	' c	-0.18698469
-1.2526616	/ c	-0.18698469
-1.3932279	> c	-0.18698469
-1.6107594	[ c	-0.18698469
-1.6786262	" c	-0.18698469
-1.1216404	- c	-0.2736285
-1.0312527	_ c	-0.3244333
-1.4364332	e u	-0.31616756
-1.3480814	s u	-0.2741187
-1.0864553	p u	-0.33382902
-1.5233855	a u	-0.32856268
-1.326421	n u	-0.27438354
-1.1803951	y u	-0.18698469
-1.7378651	# u	-0.42880175
-1.7678837	| u	-0.18698469
-2.1303208	o u	-0.18698469
-1.2676346	m u	-0.25292936
-1.2260046	b u	-0.27362856
-1.4298831	r u	-0.23209266
-1.0638753	t u	-0.34907565
-1.189965	l u	-0.26166806
-1.7891814	v u	-0.18698469
-1.5944877	i u	-0.28243464
-1.1240028	d u	-0.25457805
-0.8977324	g u	-0.3679885
-1.0568476	c u	-0.36010948
-2.2318187	u u	-0.18698469
-1.2557145	h u	-0.23687223
-1.6693528	f u	-0.18698469
-1.9244462	z u	-0.18698469
-1.4710765	( u	-0.18698469
-1.3676772	' u	-0.3496665
-1.5955979	[ u	-0.18698469
-0.08049738	q u	-0.4599803
-1.2436022	w u	-0.18698469
-1.2185007	j u	-0.18698469
-0.6904972	« u	-0.18698469
-2.5253425	e h	-0.18698469
-2.3233948	s h	-0.18698469
-2.361456	a h	-0.18698469
-2.256097	n h	-0.18698469
-1.8794674	# h	-0.30791673
-1.8505579	| h	-0.18698469
-2.4739978	o h	-0.18698469
-2.178134	m h	-0.18698469
-2.3105307	r h	-0.18698469
-1.7683054	t h	-0.18698469
-2.5781143	i h	-0.18698469
-2.0315242	g h	-0.18698469
-0.98677677	c h	-0.46879292
-1.5610877	' h	-0.2736285
-1.7051793	[ h	-0.18698469
-1.7435086	k h	-0.18698469
-1.713635	- h	-0.18698469
-2.4187958	s é	-0.18698469
-2.225595	p é	-0.18698469
-2.0825653	n é	-0.18698469
-2.7874706	# é	-0.18698469
-1.390053	m é	-0.26768216
-1.637678	b é	-0.18698469
-1.9125574	r é	-0.2736285
-1.9755628	i é	-0.26327518
-1.9045663	d é	-0.18698469
-2.136588	u é	-0.18698469
-1.0035955	ü é	-0.18698469
-0.8605372	<s> f	-0.29200536
-1.8096147	e f	-0.24898823
-2.0282	s f	-0.18698469
-1.9999294	a f	-0.22814943
-1.8017328	n f	-0.26014137
-1.5009786	# f	-0.590362
-1.6171153	| f	-0.25029397
-1.6700203	o f	-0.25673607
-2.1237688	m f	-0.18698469
-1.7087862	r f	-0.25029397
-1.9326065	l f	-0.18698469
-1.8289883	i f	-0.43936643
-2.0614552	u f	-0.18698469
-1.191129	f f	-0.27362856
-1.6341034	í f	-0.18698469
-1.9965558	' f	-0.18698469
-1.4260943	> f	-0.18698469
-1.6597046	[ f	-0.18698469
-1.7652826	= f	-0.18698469
-1.4022812	" f	-0.3244333
-1.5753947	: f	-0.18698469
-1.4318892	_ f	-0.18698469
-1.598263	e z	-0.36681834
-1.7047155	s z	-0.18698469
-1.8394291	p z	-0.3244333
-1.4305342	a z	-0.653033
-1.5705034	n z	-0.3078886
-1.5649861	# z	-0.6227069
-1.8436086	| z	-0.18698469
-1.5440254	o z	-0.3386251
-1.7245536	r z	-0.23632823
-2.249054	t z	-0.18698469
-1.4240712	i z	-0.45847714
-2.1396575	d z	-0.18698469
-1.5133365	u z	-0.22814943
-2.04363	' z	-0.18698469
-1.6956955	[ z	-0.18698469
-1.7974288	9 z	-0.18698469
-1.7949474	= z	-0.18698469
-1.754122	" z	-0.18698469
-2.0820417	s ó	-0.3244333
-1.8549134	p ó	-0.3244333
-2.0421503	n ó	-0.3244333
-1.4548755	y ó	-0.3244333
-1.6647638	m ó	-0.2736285
-2.1568186	b ó	-0.18698469
-1.7367663	r ó	-0.26327518
-1.6164186	t ó	-0.26327518
-1.7686536	l ó	-0.26327518
-1.3901888	i ó	-0.7090117
-1.7241199	g ó	-0.18698469
-2.3048282	c ó	-0.18698469
-1.8745313	h ó	-0.18698469
-1.6819303	z ó	-0.3244333
-1.6909177	x ó	-0.18698469
-1.9597379	v è	-0.18698469
-2.3705986	d è	-0.18698469
-1.4446775	# (	-0.43116334
-2.1462526	0 (	-0.18698469
-1.5236436	m á	-0.26327518
-2.1839924	r á	-0.3244333
-2.0645134	t á	-0.18698469
-1.5184866	l á	-0.36018518
-2.164796	i á	-0.29200536
-1.9409171	d á	-0.18698469
-1.5847027	s ]	-0.5138541
-1.7410802	a ]	-0.65998214
-1.6668228	n ]	-0.4169441
-1.7586927	o ]	-0.5138541
-2.134111	m ]	-0.18698469
-2.0380676	r ]	-0.3244333
-2.2130706	t ]	-0.18698469
-2.1828666	l ]	-0.18698469
-2.5255075	i ]	-0.18698469
-2.2449195	c ]	-0.18698469
-1.8216959	h ]	-0.18698469
-2.0186188	f ]	-0.18698469
-0.15217003	] ]	-0.5529493
-1.4190891	1 ]	-0.29200536
-1.7623546	5 ]	-0.18698469
-1.5298086	2 ]	-0.3244333
-1.2302153	9 ]	-0.29200536
-1.677876	4 ]	-0.18698469
-1.7917887	3 ]	-0.18698469
-1.6802795	7 ]	-0.18698469
-1.2052999	6 ]	-0.3244333
-2.4959657	e )	-0.18698469
-1.851419	s )	-0.29200536
-2.0120258	a )	-0.23687223
-2.2256126	n )	-0.18698469
-1.8740191	o )	-0.25029397
-2.2806373	r )	-0.18698469
-1.9694326	t )	-0.18698469
-2.2079196	l )	-0.18698469
-2.0003507	. )	-0.18698469
-1.7692654	] )	-0.18698469
-1.9475601	0 )	-0.18698469
-2.0313745	' )	-0.18698469
-1.4435097	> )	-0.18698469
-1.7289921	k )	-0.18698469
-1.7459538	" )	-0.18698469
-1.6945748	7 )	-0.18698469
-1.5718699	6 )	-0.18698469
-1.6125432	8 )	-0.18698469
-0.8685707	» )	-0.18698469
-2.4369519	s í	-0.18698469
-2.7225833	a í	-0.18698469
-2.0932856	n í	-0.18698469
-2.2678804	m í	-0.18698469
-1.40801	r í	-0.36018518
-1.5109102	t í	-0.24840918
-1.9115971	d í	-0.2736285
-2.1441095	u í	-0.25029397
-1.9240723	h í	-0.18698469
-2.1223347	f í	-0.18698469
-2.4425762	e 1	-0.18698469
-2.1703978	n 1	-0.18698469
-1.6640137	# 1	-0.3095131
-1.613042	| 1	-0.2736285
-2.0673087	b 1	-0.18698469
-1.6613466	. 1	-0.18698469
-1.5193212	( 1	-0.18698469
-1.6282014	1 1	-0.18698469
-1.7466301	5 1	-0.18698469
-1.6249698	0 1	-0.18698469
-1.9855434	' 1	-0.18698469
-1.6511544	[ 1	-0.18698469
-1.5205948	2 1	-0.18698469
-1.2253706	9 1	-0.18698469
-0.67751	= 1	-0.55996
-1.6619855	4 1	-0.18698469
-1.102071	3 1	-0.18698469
-1.3369665	7 1	-0.18698469
-1.5481433	6 1	-0.18698469
-1.5883901	8 1	-0.18698469
-1.1336437	- 1	-0.29324317
-1.7338824	_ 1	-0.18698469
-0.69813174	+ 1	-0.18698469
-2.2721813	n 5	-0.18698469
-2.1464393	# 5	-0.25029397
-2.1445677	b 5	-0.18698469
-2.1643114	d 5	-0.18698469
-2.027413	. 5	-0.18698469
-0.9806016	1 5	-0.26631424
-1.8043535	5 5	-0.18698469
-1.6596162	0 5	-0.18698469
-2.0692298	' 5	-0.18698469
-1.3212334	2 5	-0.18698469
-1.8157961	9 5	-0.18698469
-1.4571426	= 5	-0.18698469
-1.1395075	4 5	-0.18698469
-1.2816646	3 5	-0.18698469
-1.5905561	6 5	-0.18698469
-1.2610365	8 5	-0.18698469
-2.5568511	e 0	-0.18698469
-2.7053275	# 0	-0.18698469
-1.4554496	. 0	-0.2736285
-2.0721056	f 0	-0.18698469
-1.0587208	1 0	-0.21924986
-0.83742404	5 0	-0.21591328
-0.9748865	0 0	-0.23687223
-1.3072352	/ 0	-0.18698469
-0.7999109	2 0	-0.27460936
-1.2450819	9 0	-0.18698469
-0.97217214	4 0	-0.18698469
-1.1173073	3 0	-0.18698469
-0.94562924	7 0	-0.18698469
-0.97089183	6 0	-0.2736285
-1.6381192	8 0	-0.18698469
-1.7615875	e x	-0.3078886
-1.6476809	p x	-0.30468747
-2.464101	a x	-0.18698469
-2.6596892	o x	-0.18698469
-2.3128562	m x	-0.18698469
-1.7731128	i x	-0.29803726
-1.7513709	u x	-0.26327518
-1.0862799	<s> '	-0.3244333
-1.786829	e '	-0.5138541
-1.3480814	s '	-0.3995481
-1.6113571	a '	-0.7691266
-1.2747996	n '	-0.5479372
-1.6906161	y '	-0.18698469
-1.5194345	# '	-0.9909753
-1.9805713	| '	-0.18698469
-1.5232277	o '	-0.61545765
-2.0488572	m '	-0.18698469
-1.8084959	r '	-0.29200536
-2.1201584	t '	-0.18698469
-1.7034553	l '	-0.22345684
-1.7891814	v '	-0.18698469
-1.8095018	i '	-0.5138541
-1.2583616	d '	-0.26127833
-1.6341685	. '	-0.3244333
-1.9157505	g '	-0.18698469
-2.1681771	c '	-0.18698469
-1.225792	é '	-0.3244333
-1.9244462	z '	-0.18698469
-1.4710765	( '	-0.18698469
-1.7254922	] '	-0.18698469
-0.44837964	' '	-0.5158463
-1.1219087	k '	-0.29200536
-1.6074402	- '	-0.18698469
-1.184525	: '	-0.3244333
-0.6904972	ë '	-0.18698469
-0.9609106	о '	-0.18698469
-0.6904972	« '	-0.18698469
-2.4282238	n <	-0.18698469
-2.2634907	| <	-0.18698469
-2.6371152	o <	-0.18698469
-2.379651	l <	-0.18698469
-1.81795	] <	-0.18698469
-2.0779302	1 <	-0.18698469
-2.0743852	0 <	-0.18698469
-1.930973	3 <	-0.18698469
-2.1271312	n /	-0.18698469
-1.9847416	# /	-0.59303534
-2.2696977	b /	-0.18698469
-2.5018358	r /	-0.18698469
-0.93064725	< /	-0.18698469
-1.9825788	2 /	-0.18698469
-1.7919103	7 /	-0.18698469
-2.736398	e >	-0.18698469
-2.2921262	p >	-0.18698469
-2.526564	r >	-0.18698469
-2.1614082	g >	-0.18698469
-1.3494835	/ >	-0.18698469
-1.8664101	" >	-0.18698469
-2.2820082	| [	-0.18698469
-1.6551399	( [	-0.18698469
-1.6040653	' [	-0.29200536
-1.1117065	> [	-0.3244333
-0.7771097	[ [	-0.26967588
-1.8177075	- [	-0.18698469
-0.7161032	* [	-0.18698469
-2.1576252	n 2	-0.18698469
-1.7329882	y 2	-0.18698469
-2.1069574	# 2	-0.25029397
-1.4608824	| 2	-0.25029397
-2.0573134	b 2	-0.18698469
-2.1798418	t 2	-0.18698469
-1.4335651	. 2	-0.22814943
-1.5120922	( 2	-0.18698469
-1.8994474	1 2	-0.18698469
-1.2037218	5 2	-0.18698469
-1.2474376	0 2	-0.18698469
-1.9748034	' 2	-0.18698469
-1.2687352	/ 2	-0.18698469
-1.6427692	[ 2	-0.18698469
-1.5160601	2 2	-0.18698469
-1.446326	9 2	-0.18698469
-1.7511771	= 2	-0.18698469
-1.6542531	4 2	-0.18698469
-1.2595949	3 2	-0.18698469
-1.6596819	7 2	-0.18698469
-1.5669372	: 2	-0.18698469
-1.7258958	_ 2	-0.18698469
-0.69703287	° 2	-0.18698469
-0.69703287	+ 2	-0.18698469
-2.3629718	n 9	-0.18698469
-1.8420352	y 9	-0.18698469
-2.325953	# 9	-0.2736285
-2.2122517	| 9	-0.18698469
-2.209601	b 9	-0.18698469
-1.4504595	1 9	-0.22814943
-2.0359669	0 9	-0.18698469
-1.9327254	2 9	-0.18698469
-0.96015686	9 9	-0.18698469
-1.1513816	4 9	-0.18698469
-1.5396816	3 9	-0.18698469
-2.5253425	e k	-0.18698469
-2.3233948	s k	-0.18698469
-2.5959878	a k	-0.18698469
-2.256097	n k	-0.18698469
-1.7882905	y k	-0.18698469
-1.7649058	# k	-0.6612152
-2.1249754	| k	-0.18698469
-2.2299478	o k	-0.18698469
-2.3105307	r k	-0.18698469
-2.1091413	i k	-0.18698469
-2.0315242	g k	-0.18698469
-1.9665468	c k	-0.18698469
-2.373239	u k	-0.18698469
-2.0192442	z k	-0.18698469
-2.0562413	' k	-0.18698469
-1.2983799	/ k	-0.18698469
-1.4540887	; k	-0.18698469
-2.3842866	m ²	-0.18698469
-1.7952342	e ,	-0.5138541
-1.2991942	s ,	-0.7691266
-1.3906267	a ,	-0.9909753
-1.6430907	n ,	-0.4169441
-1.347259	o ,	-0.8940654
-1.9911233	r ,	-0.3244333
-1.7288183	t ,	-0.29200536
-1.8996828	l ,	-0.3244333
-1.805252	d ,	-0.3244333
-1.9398599	g ,	-0.18698469
-2.0311754	u ,	-0.3244333
-1.7745968	h ,	-0.18698469
-1.5691117	é ,	-0.18698469
-1.9445583	z ,	-0.18698469
-1.3077508	ó ,	-0.3244333
-0.64411783	) ,	-0.71797407
-1.9440905	' ,	-0.18698469
-1.7762393	2 ,	-0.18698469
-0.8557296	² ,	-0.18698469
-1.1605418	" ,	-0.29200536
-1.7400362	3 ,	-0.18698469
-1.640017	7 ,	-0.18698469
-0.4073113	€ ,	-0.18698469
-0.4073113	ό ,	-0.18698469
-0.8557296	» ,	-0.18698469
-0.4073113	ν ,	-0.18698469
-0.73164237	— ,	-0.3244333
-2.6679668	e ;	-0.18698469
-2.250998	p ;	-0.18698469
-2.21725	a ;	-0.29200536
-2.615657	o ;	-0.18698469
-2.2823608	m ;	-0.18698469
-2.360912	l ;	-0.18698469
-2.1331174	f ;	-0.18698469
-1.8132915	] ;	-0.18698469
-1.8770039	) ;	-0.18698469
-2.1193588	e q	-0.29200536
-2.4187958	s q	-0.18698469
-2.702078	a q	-0.18698469
-2.0825653	n q	-0.3244333
-1.9707284	# q	-0.5063132
-2.5756812	o q	-0.18698469
-2.1297185	r q	-0.3244333
-2.3256981	l q	-0.18698469
-2.671327	i q	-0.18698469
-2.0711176	z q	-0.18698469
-1.6170009	( q	-0.18698469
-2.2741048	e =	-0.3244333
-1.7047155	s =	-0.26327518
-2.352409	a =	-0.18698469
-2.01413	n =	-0.18698469
-1.8766823	# =	-0.4169441
-2.4591453	o =	-0.18698469
-2.295327	r =	-0.18698469
-1.8473107	h =	-0.18698469
-1.9581213	1 =	-0.18698469
-1.7870635	5 =	-0.18698469
-0.85011876	0 =	-0.7691266
-1.5440068	2 =	-0.3244333
-0.9190895	= =	-0.29416665
-1.3705138	4 =	-0.3244333
-1.8201777	3 =	-0.18698469
-0.81990874	7 =	-0.32608846
-1.2132359	6 =	-0.3244333
-1.6187974	8 =	-0.18698469
-2.540811	e "	-0.18698469
-1.8661098	s "	-0.25029397
-2.1679149	p "	-0.18698469
-2.611966	a "	-0.18698469
-2.1464393	# "	-0.18698469
-2.2386482	o "	-0.2736285
-2.2484367	l "	-0.18698469
-2.1643114	d "	-0.18698469
-2.0274708	z "	-0.18698469
-1.9795837	1 "	-0.18698469
-1.8043535	5 "	-0.18698469
-1.428905	0 "	-0.29200536
-1.8157961	9 "	-0.18698469
-1.0457978	; "	-0.3244333
-0.92113733	= "	-0.21748677
-0.74674857	% "	-0.3244333
-2.540811	e 4	-0.18698469
-2.2721813	n 4	-0.18698469
-2.6870089	# 4	-0.18698469
-2.1445677	b 4	-0.18698469
-1.6903396	. 4	-0.18698469
-1.2698604	1 4	-0.25029397
-1.8043535	5 4	-0.18698469
-1.6596162	0 4	-0.18698469
-2.0692298	' 4	-0.18698469
-1.3212334	2 4	-0.18698469
-1.0745244	9 4	-0.18698469
-1.8300786	, 4	-0.18698469
-1.4571426	= 4	-0.18698469
-1.7709343	" 4	-0.18698469
-1.7203487	4 4	-0.18698469
-1.84019	3 4	-0.18698469
-1.5077219	5 %	-0.18698469
-1.720346	0 %	-0.3244333
-1.9705895	3 %	-0.18698469
-1.666902	6 %	-0.18698469
-1.7095432	8 %	-0.18698469
-2.2256126	n 3	-0.18698469
-2.2675705	# 3	-0.18698469
-1.475402	| 3	-0.18698469
-2.1097617	b 3	-0.18698469
-1.6776762	. 3	-0.18698469
-1.6482501	1 3	-0.18698469
-1.2149255	5 3	-0.25029397
-1.9475601	0 3	-0.18698469
-2.0313745	' 3	-0.18698469
-1.4435097	> 3	-0.18698469
-1.6864142	[ 3	-0.18698469
-1.312677	2 3	-0.18698469
-1.7885286	9 3	-0.18698469
-1.7873391	= 3	-0.18698469
-1.7459538	" 3	-0.18698469
-1.1096224	3 3	-0.18698469
-1.6955101	- 3	-0.18698469
-1.7673844	_ 3	-0.18698469
-0.70255536	° 3	-0.18698469
-2.32435	n 7	-0.18698469
-2.1824086	b 7	-0.18698469
-2.204133	d 7	-0.18698469
-0.98392224	1 7	-0.21398985
-1.2287631	5 7	-0.18698469
-1.4380882	0 7	-0.25029397
-1.9097925	2 7	-0.18698469
-1.4927968	9 7	-0.18698469
-1.7479808	4 7	-0.18698469
-1.8720517	3 7	-0.18698469
-1.7405213	7 7	-0.18698469
-1.0169488	8 7	-0.25029397
-1.752325	- 7	-0.18698469
-2.3629718	n 6	-0.18698469
-2.7874706	# 6	-0.18698469
-2.209601	b 6	-0.18698469
-2.0766392	. 6	-0.18698469
-1.6913579	1 6	-0.18698469
-1.2741715	0 6	-0.25029397
-1.2552835	9 6	-0.18698469
-1.3993646	4 6	-0.18698469
-1.3770331	7 6	-0.18698469
-1.623606	6 6	-0.18698469
-1.6652961	8 6	-0.18698469
-2.3629718	n 8	-0.18698469
-2.5305326	# 8	-0.18698469
-2.209601	b 8	-0.18698469
-1.4504595	1 8	-0.22202444
-2.0359669	0 8	-0.18698469
-1.9327254	2 8	-0.18698469
-1.5018075	9 8	-0.18698469
-1.7674298	4 8	-0.18698469
-1.5396816	3 8	-0.18698469
-1.7569845	7 8	-0.18698469
-1.0201116	8 8	-0.18698469
-2.5253425	e -	-0.18698469
-2.1572444	p -	-0.18698469
-2.0202813	a -	-0.18698469
-2.0232706	n -	-0.3244333
-2.6694317	# -	-0.18698469
-2.1249754	| -	-0.18698469
-1.8816773	o -	-0.18698469
-1.876927	r -	-0.25673607
-2.261743	t -	-0.18698469
-2.2345068	l -	-0.18698469
-2.1518095	d -	-0.18698469
-1.1625717	. -	-0.5138541
-1.7777208	] -	-0.18698469
-1.9680325	0 -	-0.18698469
-1.8065153	9 -	-0.18698469
-1.7435086	k -	-0.18698469
-1.7115154	4 -	-0.18698469
-2.5735064	e :	-0.18698469
-1.8761872	s :	-0.29200536
-2.6458015	a :	-0.18698469
-2.306255	n :	-0.18698469
-2.0476947	# :	-0.27535614
-2.048181	o :	-0.29200536
-2.214352	m :	-0.18698469
-2.1001375	r :	-0.3244333
-2.0035841	t :	-0.3244333
-1.9911007	l :	-0.3244333
-1.884132	d :	-0.3244333
-1.7907208	] :	-0.18698469
-2.0964339	' :	-0.18698469
-1.6109749	: :	-0.18698469
-2.3583784	# w	-0.2736285
-2.6596892	o w	-0.18698469
-2.1478586	g w	-0.18698469
-1.344581	/ w	-0.18698469
-1.8135171	[ w	-0.18698469
-1.8177075	- w	-0.18698469
-0.4187246	! w	-0.18698469
-2.107586	e _	-0.18698469
-2.098736	s _	-0.18698469
-2.663762	a _	-0.18698469
-1.8547605	n _	-0.18698469
-1.616925	o _	-0.18698469
-2.1824086	b _	-0.18698469
-2.1097755	r _	-0.18698469
-2.2931266	l _	-0.18698469
-1.3813114	á _	-0.18698469
-2.0139074	1 _	-0.18698469
-1.9097925	2 _	-0.18698469
-1.7479808	4 _	-0.18698469
-1.8720517	3 _	-0.18698469
-1.96147	v ë	-0.18698469
-3.0280015	# р	-0.18698469
-0.42101282	р е	-0.18698469
-0.7206531	н е	-0.18698469
-0.72091156	е п	-0.18698469
-0.42114246	п у	-0.18698469
-0.42114246	у б	-0.18698469
-0.42114246	б л	-0.18698469
-0.42101282	л и	-0.18698469
-0.42101282	ш и	-0.18698469
-3.021373	# к	-0.18698469
-2.2872357	' к	-0.18698469
-0.72071475	и к	-0.18698469
-0.8963167	к а	-0.18698469
-0.45929468	к о	-0.3244333
-0.42104372	с о	-0.18698469
-0.42104372	в о	-0.18698469
-1.0194309	о с	-0.18698469
-1.0194309	о в	-0.18698469
-2.3842866	m ú	-0.18698469
-2.7618344	e &	-0.18698469
-2.8427625	a &	-0.18698469
-2.950083	# &	-0.18698469
-2.1214273	1 &	-0.18698469
-1.9705895	3 &	-0.18698469
-1.4949687	; •	-0.18698469
-2.817666	e ñ	-0.18698469
-1.7824261	a ñ	-0.4169441
-2.6057224	u ñ	-0.18698469
-1.6988207	( €	-0.18698469
-2.237386	a j	-0.2736285
-2.3668778	# j	-0.2736285
-2.7679677	i j	-0.18698469
-1.4784956	. j	-0.29200536
-1.7282388	í j	-0.18698469
-1.8259996	[ j	-0.18698469
-1.5264611	g ü	-0.25029397
-1.497804	q ü	-0.18698469
-2.4983997	t ừ	-0.18698469
-2.2204432	# *	-0.36018518
-3.0280015	# π	-0.18698469
-0.42101282	π ρ	-0.18698469
-0.42101282	ά ρ	-0.18698469
-0.72091156	ρ ό	-0.18698469
-2.3949735	# «	-0.2736285
-2.4934764	t »	-0.18698469
-2.2860792	' »	-0.18698469
-3.0280015	# κ	-0.18698469
-0.42114246	κ ά	-0.18698469
-0.72091156	ρ υ	-0.18698469
-0.42114246	υ ο	-0.18698469
-0.42114246	ο ν	-0.18698469
-1.96147	v ậ	-0.18698469
-2.0067086	h â	-0.18698469
-2.0381072	2 °	-0.18698469
-1.9983777	3 °	-0.18698469
-2.1521797	1 ′	-0.18698469
-1.8546697	4 ′	-0.18698469
-2.5956516	s $	-0.18698469
-1.8428639	] +	-0.18698469
-2.9842668	# —	-0.18698469
-2.7354398	o —	-0.18698469
-2.5806923	r —	-0.18698469
-2.3517048	d —	-0.18698469
-2.4934764	t ä	-0.18698469
-2.4865098	l ä	-0.18698469
-2.0067086	h ʼ	-0.18698469
-3.019318	# н	-0.18698469
-0.7206531	и н	-0.18698469
-0.72091156	е м	-0.18698469
-0.42114246	м ш	-0.18698469
-2.0962873	# !	-0.5138541
-2.153051	1 ª	-0.18698469
-2.0389059	2 ª	-0.18698469
-1.9991622	3 ª	-0.18698469
-2.4865098	l ’	-0.18698469
-2.3705986	d ’	-0.18698469

\3-grams:
-2.1157472	a s </s>	0
-2.1468608	o s </s>	0
-2.1418688	n a </s>	0
-2.274888	t a </s>	0
-0.45263636	â n </s>	0
-1.6887311	t o </s>	0
-2.2536767	o r </s>	0
-0.7495923	k l </s>	0
-2.1691883	r i </s>	0
-1.7560654	a u </s>	0
-0.72047573	] : </s>	0
-0.22251822	t ừ </s>	0
-0.32223955	и н </s>	0
-1.8729852	s e e	-0.13906384
-1.9442934	l e e	-0.13906384
-1.2607919	e s e	-0.18233997
-0.39062306	p s e	-0.13906384
-1.3182743	a s e	-0.21378872
-1.1137348	n s e	-0.13906384
-0.8851142	# s e	-0.33307225
-1.0726606	| s e	-0.13906384
-1.3853438	o s e	-0.13906384
-0.8642768	b s e	-0.13906384
-0.9581859	l s e	-0.13906384
-1.407965	i s e	-0.13906384
-0.63475066	( s e	-0.13906384
-0.99274534	í s e	-0.13906384
-0.63475066	' s e	-0.13906384
-0.39062306	= s e	-0.13906384
-0.63475066	- s e	-0.13906388
-1.0574249	e p e	-0.13906384
-0.77529764	s p e	-0.18233997
-0.8033168	a p e	-0.13906384
-0.85709524	# p e	-0.6288033
-0.7036195	o p e	-0.16952913
-0.8938356	m p e	-0.25660053
-0.7855767	r p e	-0.13906384
-1.0391631	i p e	-0.13906384
-0.7036195	u p e	-0.21378872
-0.59980214	' p e	-0.13906384
-0.9440325	_ p e	-0.13906384
-1.8331921	g a e	-0.13906384
-1.0016398	h a e	-0.13906384
-1.1791081	e n e	-0.19921091
-1.3912284	a n e	-0.13906384
-0.41769466	y n e	-0.13906384
-1.3790231	# n e	-0.13906384
-0.94863695	o n e	-0.16952913
-1.1261883	i n e	-0.20229384
-0.9376548	g n e	-0.13906384
-0.41769466	- n e	-0.13906384
-0.8085732	e y e	-0.13906384
-0.6881863	a y e	-0.13906384
-0.35036784	# y e	-0.44906926
-1.0402691	u y e	-0.13906384
-1.2043127	e # e	-0.28918892
-1.2418447	s # e	-0.25071263
-1.2261912	a # e	-0.3642409
-1.2280557	n # e	-0.31848338
-1.0219877	y # e	-0.13906384
-1.318083	o # e	-0.34433958
-0.93700397	m # e	-0.13906384
-1.103128	r # e	-0.19386803
-1.3023874	t # e	-0.21378872
-1.2627968	. # e	-0.24948934
-1.0631638	u # e	-0.13906388
-1.0082523	h # e	-0.13906384
-1.2515831	z # e	-0.13906384
-1.0768989	ó # e	-0.24948934
-1.2487063	) # e	-0.25660053
-0.93700397	1 # e	-0.13906384
-1.3319746	' # e	-0.13906384
-1.1497447	, # e	-0.37086052
-1.2737197	; # e	-0.13906384
-1.0632038	= # e	-0.13906384
-1.4235013	: # e	-0.13906384
-0.9116797	a | e	-0.13906384
-1.2614963	# | e	-0.23086329
-0.91873777	t | e	-0.13906384
-0.8098724	d | e	-0.13906384
-0.9654483	% | e	-0.13906384
-0.9222644	7 | e	-0.13906384
-2.051619	c o e	-0.13906384
-1.026933	e m e	-0.25660053
-0.8911519	s m e	-0.13906384
-0.5501374	a m e	-0.445784
-0.675405	n m e	-0.13906384
-0.96861875	# m e	-0.2866015
-0.6378339	| m e	-0.13906384
-0.9523538	o m e	-0.13906384
-0.46239755	m m e	-0.25660053
-0.80372965	r m e	-0.13906384
-0.88652885	l m e	-0.13906384
-0.887897	i m e	-0.20603122
-0.5435195	u m e	-0.22224212
-0.3522421	( m e	-0.13906384
-0.675405	' m e	-0.13906384
-0.56950605	[ m e	-0.13906384
-0.40293252	s b e	-0.13906384
-1.1065927	a b e	-0.13906388
-0.76681995	n b e	-0.13906384
-0.63958484	# b e	-0.3317522
-0.8999841	m b e	-0.13906384
-0.98752	r b e	-0.13906384
-0.72943485	i b e	-0.27096742
-0.39329195	z b e	-0.13906384
-1.2677009	e r e	-0.21378872
-0.3683559	s r e	-0.13906384
-0.60938823	p r e	-0.1760584
-1.3628321	a r e	-0.13906384
-0.4214755	# r e	-0.38383576
-0.7122748	| r e	-0.13906388
-1.2686676	o r e	-0.13906384
-0.6670666	b r e	-0.1760584
-0.7117151	r r e	-0.18742578
-0.76741445	t r e	-0.17866467
-1.1680586	i r e	-0.13906384
-0.59243584	d r e	-0.21378872
-0.8486175	g r e	-0.13906384
-0.78043187	c r e	-0.21378872
-0.88323116	u r e	-0.21378872
-0.535216	f r e	-0.20229384
-0.5964098	' r e	-0.13906384
-0.3683559	< r e	-0.13906384
-0.3683559	> r e	-0.13906384
-0.5964098	[ r e	-0.13906384
-0.3683559	k r e	-0.13906384
-0.3683559	" r e	-0.13906384
-0.35526112	<s> t e	-0.13906384
-1.0111114	e t e	-0.13906384
-0.87892604	s t e	-0.21138702
-1.0527568	a t e	-0.18233997
-0.7658049	n t e	-0.20229384
-0.7653453	# t e	-0.4995469
-0.9774814	o t e	-0.13906384
-0.35526112	b t e	-0.13906384
-0.72815454	r t e	-0.18245047
-0.57449627	t t e	-0.13906384
-0.96304554	l t e	-0.13906384
-1.0511187	i t e	-0.19386803
-0.57449627	d t e	-0.13906384
-0.9819988	c t e	-0.13906384
-0.57449627	( t e	-0.13906384
-0.57449627	x t e	-0.13906384
-0.74734235	' t e	-0.13906384
-0.35526112	[ t e	-0.13906384
-0.22703573	_ t e	-0.13906384
-0.7354264	e l e	-0.21940601
-0.8613399	p l e	-0.18233997
-1.0407932	a l e	-0.19990703
-0.3692202	y l e	-0.13906384
-1.1106838	# l e	-0.16560206
-0.5129782	| l e	-0.21378872
-0.8916962	o l e	-0.13906384
-0.75098145	b l e	-0.22410254
-0.7119419	t l e	-0.13906384
-0.69400245	l l e	-0.19178613
-0.9714497	i l e	-0.23086329
-0.597872	g l e	-0.13906384
-1.1509771	u l e	-0.13906384
-0.8568034	f l e	-0.13906384
-0.3692202	[ l e	-0.13906384
-0.597872	k l e	-0.13906384
-0.7610202	e v e	-0.13906384
-0.74466944	a v e	-0.13906384
-0.19756171	n v e	-0.13906388
-0.3803507	# v e	-0.23086329
-0.57641566	| v e	-0.13906384
-0.7556398	o v e	-0.13906384
-0.6937133	i v e	-0.13906384
-0.57641566	' v e	-0.13906384
-0.30238864	[ v e	-0.13906384
-1.444261	e i e	-0.13906384
-1.519912	s i e	-0.13906384
-1.109336	p i e	-0.13906384
-1.4119925	n i e	-0.13906384
-1.1435642	m i e	-0.20603122
-0.90623134	b i e	-0.20933893
-1.2109455	r i e	-0.17482108
-1.3193213	t i e	-0.19178613
-1.3547025	l i e	-0.13906384
-1.3400412	v i e	-0.13906384
-1.5239786	d i e	-0.13906384
-1.2708992	c i e	-0.13906388
-1.0240517	u i e	-0.13906384
-1.2441463	z i e	-0.13906384
-0.25980425	- i e	-0.25660053
-0.8180151	e d e	-0.13906388
-1.2275287	a d e	-0.13906384
-0.6418181	n d e	-0.17125802
-0.6469641	# d e	-0.42741683
-0.7519569	| d e	-0.13906384
-0.528461	o d e	-0.18254256
-0.7713519	r d e	-0.13906384
-0.4678413	l d e	-0.13906384
-0.63243407	i d e	-0.19271018
-0.64630395	u d e	-0.13906388
-0.5775902	( d e	-0.13906384
-0.5775902	' d e	-0.13906388
-0.22804633	_ d e	-0.13906384
-0.3571261	• d e	-0.13906384
-1.2666055	n g e	-0.13906384
-1.1865792	# g e	-0.25660053
-0.948917	' g e	-0.13906384
-1.1979971	e c e	-0.25660053
-1.2671843	a c e	-0.13906388
-1.1189032	# c e	-0.40028495
-0.8622525	o c e	-0.18233997
-0.67580855	b c e	-0.13906384
-1.2907043	r c e	-0.13906388
-1.327743	u c e	-0.13906384
-1.2274585	e u e	-0.13906384
-0.5172429	p u e	-0.25105956
-0.8718089	n u e	-0.21378872
-1.1449633	m u e	-0.13906384
-0.7970532	b u e	-0.25660053
-1.103966	r u e	-0.13906384
-0.80681086	l u e	-0.20603122
-0.39589524	v u e	-0.13906384
-1.13257	d u e	-0.13906384
-0.569461	g u e	-0.18254256
-0.90976936	c u e	-0.22224212
-0.9572345	f u e	-0.13906384
-0.7301762	' u e	-0.25660053
-0.6349149	q u e	-0.20229384
-0.78285134	# h e	-0.21378872
-0.5577259	| h e	-0.13906384
-0.5577259	r h e	-0.13906384
-0.66042745	t h e	-0.13906384
-0.34506094	i h e	-0.13906384
-0.549508	c h e	-0.3268776
-0.66042745	k h e	-0.13906384
-0.66462797	n é e	-0.13906384
-0.66462797	d é e	-0.13906384
-0.6733549	e f e	-0.21378872
-0.53859955	s f e	-0.13906384
-0.7894876	a f e	-0.13906384
-0.83371055	n f e	-0.13906384
-0.89354247	# f e	-0.22593597
-0.8502692	o f e	-0.13906384
-0.33324027	m f e	-0.13906384
-0.72966313	r f e	-0.13906384
-0.9125947	i f e	-0.13906384
-0.53859955	u f e	-0.13906384
-0.6764212	f f e	-0.13906388
-0.6363377	' f e	-0.13906384
-0.7238203	e z e	-0.13906384
-0.6411707	s z e	-0.13906384
-0.95810986	a z e	-0.21378872
-0.65036607	n z e	-0.13906388
-0.52248496	# z e	-0.49410474
-0.5004065	| z e	-0.13906384
-0.67282164	o z e	-0.13906388
-0.73477703	r z e	-0.13906384
-0.8831969	i z e	-0.13906384
-0.729171	u z e	-0.13906384
-0.6411707	' z e	-0.13906384
-0.3090462	[ z e	-0.13906384
-0.3090462	" z e	-0.13906384
-1.0100161	# ( e	-0.22224212
-1.2580144	. 1 e	-0.13906384
-0.43694365	. 5 e	-0.13906384
-0.4140044	e x e	-0.21378872
-0.63013047	a x e	-0.13906384
-0.57920885	o x e	-0.13906384
-0.30387262	m x e	-0.13906384
-0.6445308	i x e	-0.20933893
-0.30949178	u x e	-0.13906388
-1.322518	s ' e	-0.13906384
-1.1464267	l ' e	-0.13906384
-0.91713953	d ' e	-0.16560206
-1.6434234	' ' e	-0.13906388
-1.1260343	/ > e	-0.13906384
-1.5947461	[ [ e	-0.13906388
-1.3407124	# k e	-0.13906384
-0.41841108	g k e	-0.13906384
-1.3304201	= = e	-0.13906384
-1.2173907	# " e	-0.13906384
-0.43286383	e 4 e	-0.13906384
-0.39469635	p - e	-0.13906384
-0.90966856	o - e	-0.13906384
-0.39469635	k - e	-0.13906384
-0.35312843	[ w e	-0.13906384
-0.35312843	- w e	-0.13906384
-0.98475105	n _ e	-0.13906384
-1.0750098	o _ e	-0.13906384
-0.40327862	4 _ e	-0.13906384
-0.35001972	i j e	-0.13906384
-0.35001972	[ j e	-0.13906384
-0.376984	g ü e	-0.13906388
-0.27483046	q ü e	-0.13906384
-0.76827097	# — e	-0.13906384
-0.7515036	d ’ e	-0.13906384
-0.3862431	<s> e s	-0.13906384
-0.95017695	s e s	-0.23041049
-1.053119	p e s	-0.25660053
-1.0898422	n e s	-0.25660053
-1.0334811	y e s	-0.13906384
-0.6410759	# e s	-0.55248153
-0.44723225	| e s	-0.18233997
-0.87040675	m e s	-0.21378872
-0.95109105	b e s	-0.21378872
-0.957944	r e s	-0.24130183
-1.0079206	t e s	-0.18254256
-0.62849367	l e s	-0.18703736
-1.1394632	v e s	-0.13906384
-1.3547707	i e s	-0.13906384
-0.9259023	d e s	-0.1754869
-0.9351412	c e s	-0.21378872
-0.80711627	u e s	-0.28918892
-0.8904109	h e s	-0.13906384
-0.62709546	é e s	-0.13906384
-1.0180035	f e s	-0.21378872
-0.73504007	z e s	-0.19178613
-0.7503418	( e s	-0.13906384
-1.1793242	x e s	-0.13906384
-0.64234406	' e s	-0.19178613
-0.3970212	- e s	-0.13906384
-0.3970212	_ e s	-0.13906384
-0.8281738	ü e s	-0.13906384
-0.62709546	’ e s	-0.13906384
-1.5218747	i p s	-0.13906384
-1.0233024	e a s	-0.13906384
-1.0237252	s a s	-0.35580203
-1.2130654	p a s	-0.13906384
-1.0086083	n a s	-0.31848338
-1.0568569	y a s	-0.25660053
-1.2415463	# a s	-0.2744921
-1.1325281	m a s	-0.19178613
-1.271476	b a s	-0.19386803
-0.96867245	r a s	-0.30572948
-1.0184282	t a s	-0.44453725
-1.0008434	l a s	-0.29681706
-1.2273772	v a s	-0.13906384
-1.3079505	i a s	-0.18233997
-0.9018016	d a s	-0.19178613
-0.84218013	g a s	-0.3029412
-1.0896139	c a s	-0.19271018
-1.2730571	u a s	-0.13906384
-1.1402701	z a s	-0.21378872
-1.2305646	í a s	-0.13906384
-0.80279756	x a s	-0.13906384
-1.0422561	' a s	-0.19386803
-1.1120188	ñ a s	-0.13906384
-0.89171326	’ a s	-0.13906384
-1.139435	e n s	-0.21138702
-1.0842927	a n s	-0.30098072
-1.4481868	o n s	-0.13906384
-1.0633404	i n s	-0.20229384
-1.5811381	u n s	-0.13906384
-0.95761186	í n s	-0.13906384
-1.252619	n y s	-0.13906384
-1.2662206	e # s	-0.241856
-1.2277559	s # s	-0.2783104
-1.275547	a # s	-0.38767132
-1.286118	n # s	-0.37140214
-1.1672387	o # s	-0.4327296
-1.229394	r # s	-0.18233997
-1.2768872	t # s	-0.25660053
-1.3786154	l # s	-0.13906384
-1.1434481	d # s	-0.13906384
-1.4612159	. # s	-0.19178613
-1.1730568	g # s	-0.13906384
-1.3099917	u # s	-0.13906384
-0.9891685	h # s	-0.13906384
-1.2201307	z # s	-0.13906384
-1.165492	ó # s	-0.20603122
-1.4288448	) # s	-0.13906384
-0.9891685	x # s	-0.13906384
-1.2926943	' # s	-0.13906388
-0.41747835	² # s	-0.13906384
-1.3815155	, # s	-0.22410254
-0.9371597	; # s	-0.13906384
-1.1025414	" # s	-0.13906384
-0.6830246	% # s	-0.13906384
-0.92075443	3 # s	-0.13906384
-0.8263135	7 # s	-0.13906384
-0.9632078	a | s	-0.13906384
-1.2357577	# | s	-0.2106691
-1.0305532	) | s	-0.13906384
-1.1741323	x | s	-0.13906384
-0.9879793	e o s	-0.13906384
-0.969554	s o s	-0.23041049
-0.6139653	p o s	-0.31700248
-0.8735412	n o s	-0.26816803
-0.5947312	y o s	-0.35580203
-1.3612148	# o s	-0.13906384
-0.7927214	m o s	-0.23773363
-0.7598995	b o s	-0.18233997
-1.020278	r o s	-0.17482108
-0.92274106	t o s	-0.290123
-0.68906945	l o s	-0.44906926
-0.9422226	v o s	-0.13906384
-0.73861843	i o s	-0.3029412
-1.0145302	d o s	-0.23086329
-0.5707826	g o s	-0.18254256
-0.8590195	c o s	-0.20813324
-1.0615644	f o s	-0.13906384
-0.62128466	( o s	-0.13906384
-0.7714811	í o s	-0.13906384
-0.76266414	x o s	-0.13906384
-0.8368364	' o s	-0.13906388
-0.5198477	k o s	-0.20603122
-0.62128466	" o s	-0.13906384
-0.62128466	ñ o s	-0.13906384
-0.62128466	j o s	-0.13906384
-0.742641	’ o s	-0.13906384
-1.6784172	a b s	-0.13906384
-0.87314427	n b s	-0.13906384
-1.5459281	o b s	-0.13906384
-1.2885307	e r s	-0.2106691
-1.4766417	a r s	-0.17482108
-1.7009716	o r s	-0.19386803
-1.569423	u r s	-0.13906384
-1.2719529	n t s	-0.19990703
-1.3745558	l t s	-0.13906384
-1.4988137	u t s	-0.13906384
-1.4650205	e l s	-0.25660053
-1.2104363	a l s	-0.24948934
-1.6628771	i l s	-0.13906384
-1.3691738	e i s	-0.13906384
-0.9538194	s i s	-0.3029412
-1.1493915	n i s	-0.19178613
-0.997462	# i s	-0.38710395
-1.014128	| i s	-0.13906384
-0.5233228	o i s	-0.13906384
-1.1866837	m i s	-0.21378872
-1.1267875	b i s	-0.21378872
-1.2953373	r i s	-0.21378872
-1.1385698	t i s	-0.18233997
-0.9029734	l i s	-0.28918892
-0.93565613	v i s	-0.23086329
-1.1046122	d i s	-0.3029412
-1.2197001	c i s	-0.13906384
-1.2246869	u i s	-0.13906384
-0.97787297	h i s	-0.21378872
-1.4405969	z i s	-0.13906384
-1.0668366	' i s	-0.13906384
-0.40653044	_ i s	-0.13906384
-0.40653044	ü i s	-0.13906384
-1.1662893	s . s	-0.13906384
-0.39044073	y . s	-0.13906384
-1.222836	o . s	-0.13906384
-0.6344308	m . s	-0.13906384
-0.863808	t . s	-0.13906384
-0.76011145	i . s	-0.13906384
-1.4120736	n g s	-0.13906384
-0.9892595	e u s	-0.13906388
-1.1927538	s u s	-0.13906384
-1.1811937	p u s	-0.13906384
-0.6151701	a u s	-0.24948934
-0.956744	n u s	-0.13906384
-1.0127826	# u s	-0.13906384
-1.1315391	m u s	-0.13906384
-1.0775663	b u s	-0.13906384
-1.0911419	r u s	-0.13906384
-0.947798	l u s	-0.13906388
-1.1210333	i u s	-0.13906384
-1.3081888	c u s	-0.13906384
-0.92556554	h u s	-0.13906384
-0.9470549	f u s	-0.13906384
-1.0576987	' u s	-0.13906384
-0.50029427	m é s	-0.24097593
-0.34141305	r é s	-0.13906388
-0.7104722	i é s	-0.13906384
-0.51878357	d é s	-0.13906388
-0.51878357	u é s	-0.13906384
-0.31685427	d è s	-0.13906384
-1.2362021	# ( s	-0.20603122
-0.7046913	m á s	-0.13906384
-0.5143447	t á s	-0.13906384
-0.23534772	l á s	-0.19386803
-0.3268168	a í s	-0.13906388
-0.93400705	r í s	-0.13906384
-0.8410385	t í s	-0.13906384
-0.6655452	d í s	-0.13906384
-0.7159473	u í s	-0.13906384
-1.9117768	' ' s	-0.21378872
-0.41721535	1 < s	-0.13906384
-0.6745025	< / s	-0.13906384
-1.1527971	/ > s	-0.13906384
-1.3495657	= = s	-0.13906384
-0.42026943	| - s	-0.13906384
-0.6794337	r - s	-0.23086329
-0.51259875	v ë s	-0.13906384
-1.6613947	s e p	-0.13906384
-1.9285232	# e p	-0.13906384
-1.2021915	r e p	-0.31848338
-1.8045301	t e p	-0.13906384
-1.7268162	l e p	-0.13906384
-1.4292337	d e p	-0.19386803
-1.4458154	c e p	-0.13906384
-1.2597696	z e p	-0.13906384
-1.1921695	e s p	-0.20813324
-1.5884924	a s p	-0.13906384
-1.5653378	n s p	-0.13906384
-1.2720042	| s p	-0.13906384
-0.97555727	b s p	-0.13906384
-1.2948015	i s p	-0.13906388
-1.7657632	s a p	-0.13906384
-1.6587746	# a p	-0.23086329
-1.4368109	m a p	-0.20603122
-2.0015962	t a p	-0.13906384
-1.6104546	c a p	-0.19386803
-1.3694721	h a p	-0.13906384
-1.6271281	' a p	-0.13906384
-0.44095385	h y p	-0.13906384
-1.278104	e # p	-0.22410254
-1.2923012	s # p	-0.32015717
-1.3506153	a # p	-0.48915148
-1.298909	n # p	-0.24079335
-1.2374207	o # p	-0.49431613
-1.0962493	r # p	-0.20229384
-1.1438339	t # p	-0.13906388
-1.4032499	l # p	-0.13906384
-1.0944272	i # p	-0.19386803
-1.1580861	d # p	-0.13906384
-1.1755201	. # p	-0.26733088
-1.3318492	u # p	-0.13906384
-0.8344119	f # p	-0.13906384
-1.2395281	z # p	-0.13906384
-1.3198273	ó # p	-0.18254256
-0.42570138	á # p	-0.13906384
-1.1478858	) # p	-0.13906388
-1.3168352	' # p	-0.13906384
-1.1002805	, # p	-0.3596127
-0.94611496	; # p	-0.13906384
-1.0549849	= # p	-0.13906384
-1.380819	" # p	-0.13906384
-1.4077617	: # p	-0.13906384
-1.253369	a | p	-0.13906384
-0.80762196	# | p	-0.49443856
-0.62597024	o | p	-0.13906384
-0.4261806	r | p	-0.13906384
-1.0032068	% | p	-0.13906384
-1.4274971	r o p	-0.17482108
-1.5819706	t o p	-0.13906384
-1.8710831	c o p	-0.13906384
-1.4011269	' o p	-0.13906384
-1.1626507	k o p	-0.13906384
-0.8887966	e m p	-0.27096742
-1.2851233	a m p	-0.21378872
-1.583549	o m p	-0.13906384
-0.8079375	i m p	-0.21940601
-1.7301065	o b p	-0.13906384
-1.7457677	e r p	-0.13906388
-2.1145053	o r p	-0.13906384
-1.5993997	r i p	-0.13906388
-1.5681951	t i p	-0.13906388
-1.5114866	l i p	-0.25660053
-1.2793167	c i p	-0.18233997
-1.4870521	u i p	-0.13906384
-1.359643	z i p	-0.25660053
-0.7040195	e . p	-0.25660053
-1.2567842	s . p	-0.13906384
-0.92899436	t . p	-0.13906384
-0.41464886	6 . p	-0.13906384
-1.4905491	| c p	-0.13906384
-0.8212788	s u p	-0.25660053
-0.9552657	r u p	-0.13906388
-1.5822659	t u p	-0.13906384
-1.3108151	c u p	-0.13906384
-1.0707102	h u p	-0.13906384
-1.240445	# ( p	-0.23041049
-0.8502775	2 5 p	-0.13906384
-0.7001193	8 5 p	-0.13906384
-0.76678455	5 0 p	-0.23086329
-1.3333199	0 0 p	-0.13906384
-0.8606379	6 0 p	-0.13906384
-1.2976974	e x p	-0.13906384
-1.8117505	' ' p	-0.20603122
-1.4087902	[ [ p	-0.25660053
-0.44306433	: 2 p	-0.13906384
-1.3537805	= = p	-0.13906384
-1.0708281	o - p	-0.13906384
-0.8279786	e _ p	-0.13906384
-0.8634719	n _ p	-0.13906384
-0.5959277	b _ p	-0.13906384
-0.5959277	l _ p	-0.13906384
-0.3680707	á _ p	-0.13906384
-0.2844568	. j p	-0.23086329
-1.7500007	s e a	-0.13906384
-0.89307535	a e a	-0.13906384
-1.7294481	r e a	-0.13906384
-1.6703169	z e a	-0.13906384
-0.7299648	j e a	-0.13906384
-1.1567281	e s a	-0.19271018
-1.4211309	a s a	-0.19386803
-1.2179104	n s a	-0.13906388
-1.0311971	# s a	-0.22509685
-0.7534088	| s a	-0.13906388
-1.1974076	o s a	-0.19271018
-1.0226415	r s a	-0.13906384
-1.2356313	u s a	-0.25660053
-0.6800858	' s a	-0.13906384
-0.79071563	e p a	-0.23086329
-0.7760005	s p a	-0.19386803
-0.39939386	a p a	-0.18233997
-0.8189873	# p a	-0.44855863
-0.74356806	| p a	-0.18233997
-1.0181975	o p a	-0.13906384
-1.1119393	m p a	-0.13906384
-0.78645116	r p a	-0.13906384
-0.7670177	i p a	-0.19386803
-0.7965034	u p a	-0.13906388
-0.6003721	= p a	-0.13906384
-0.66469705	a a a	-0.21378872
-2.134539	# a a	-0.13906384
-1.8278036	d a a	-0.13906384
-1.9951051	c a a	-0.13906384
-1.1266105	e n a	-0.19271018
-1.0778955	a n a	-0.18254256
-0.782903	n n a	-0.13906384
-0.70884424	# n a	-0.23405035
-0.83234906	o n a	-0.21965231
-0.6380537	m n a	-0.13906384
-0.3925027	b n a	-0.13906384
-0.84556663	r n a	-0.16560206
-0.86404943	i n a	-0.2503719
-0.5074899	g n a	-0.13906384
-1.0669225	u n a	-0.18233997
-0.90252924	' n a	-0.13906384
-0.6380537	[ n a	-0.13906384
-0.5074899	_ n a	-0.25660053
-0.5102756	e y a	-0.19386803
-0.9824067	a y a	-0.13906384
-0.71827894	n y a	-0.17822263
-0.77284586	u y a	-0.19386803
-1.3221825	e # a	-0.19386803
-1.3287793	s # a	-0.23163708
-1.3401022	a # a	-0.26934546
-1.2610327	n # a	-0.18546584
-0.7096634	# # a	-0.13906384
-1.2986324	o # a	-0.26591003
-1.3992213	r # a	-0.13906384
-1.4467375	t # a	-0.13906388
-1.5018202	l # a	-0.13906384
-1.5571637	. # a	-0.16257198
-1.3146883	z # a	-0.13906384
-1.4746779	ó # a	-0.13906384
-1.4131318	' # a	-0.13906388
-1.3577572	, # a	-0.21799485
-1.5082753	: # a	-0.13906384
-0.82979167	n | a	-0.13906384
-1.2885659	# | a	-0.23041049
-0.9942383	) | a	-0.13906384
-1.1243777	x | a	-0.13906384
-0.9942383	% | a	-0.13906384
-0.74750334	j o a	-0.13906384
-0.75868636	e m a	-0.20933893
-0.6409797	s m a	-0.13906384
-1.0344834	a m a	-0.18233997
-0.6761155	n m a	-0.13906384
-0.8403126	# m a	-0.2616868
-0.6383844	| m a	-0.25660053
-0.7494987	o m a	-0.20229384
-0.77243215	m m a	-0.13906384
-0.4458533	r m a	-0.18233997
-0.6383844	l m a	-0.13906384
-0.64580977	i m a	-0.20603122
-0.8702464	u m a	-0.13906384
-0.57006276	[ m a	-0.13906384
-0.35257956	_ m a	-0.13906384
-0.35257956	& m a	-0.13906384
-0.36870626	e b a	-0.3821225
-0.69588494	s b a	-0.13906384
-0.5665552	a b a	-0.22509685
-0.5619232	# b a	-0.4013043
-0.22063589	| b a	-0.13906384
-0.88547575	o b a	-0.13906384
-0.94942343	m b a	-0.13906384
-0.58465886	r b a	-0.18233997
-0.5552379	l b a	-0.13906384
-0.7419919	i b a	-0.26516348
-0.9399703	u b a	-0.13906384
-0.34353453	í b a	-0.13906384
-0.5552379	[ b a	-0.13906384
-0.34353453	" b a	-0.13906384
-0.34353453	_ b a	-0.13906384
-0.843935	e r a	-0.4184711
-1.2929479	p r a	-0.13906384
-1.0073183	a r a	-0.25707763
-0.634797	n r a	-0.13906384
-1.134253	# r a	-0.21378872
-0.7522736	| r a	-0.13906384
-1.074141	o r a	-0.21378872
-0.60350496	b r a	-0.19386803
-0.7505268	r r a	-0.20756139
-0.7010095	t r a	-0.21955591
-1.0002743	i r a	-0.18233997
-0.4837633	g r a	-0.16560206
-0.826126	c r a	-0.13906384
-1.0249871	u r a	-0.17482108
-0.4209475	f r a	-0.19178613
-0.39064947	_ r a	-0.13906384
-0.62502027	e t a	-0.18233992
-0.94424254	s t a	-0.2118363
-0.6253369	p t a	-0.13906384
-0.5767485	a t a	-0.51225376
-0.8235662	n t a	-0.18233992
-0.8285643	# t a	-0.5035815
-0.90656143	| t a	-0.13906384
-0.5864197	o t a	-0.20571047
-0.78733766	r t a	-0.16016307
-0.7310083	l t a	-0.17482108
-0.5376653	i t a	-0.32521144
-1.0919046	c t a	-0.13906384
-0.94968474	u t a	-0.13906384
-0.9497184	e l a	-0.17482108
-0.2555197	s l a	-0.13906384
-0.45830518	p l a	-0.20933893
-1.1130533	a l a	-0.16257198
-0.83929354	# l a	-0.19990703
-0.6038608	| l a	-0.13906384
-0.77224505	o l a	-0.18233997
-0.35502702	m l a	-0.13906384
-0.7269727	b l a	-0.19386803
-0.3706599	r l a	-0.13906384
-0.68128693	t l a	-0.13906384
-0.6721103	l l a	-0.21378872
-0.7145893	i l a	-0.13906384
-0.4839495	c l a	-0.21940601
-0.55806977	u l a	-0.21138702
-0.5741085	h l a	-0.13906384
-0.81897306	f l a	-0.13906384
-0.35502702	( l a	-0.13906384
-0.5741085	- l a	-0.13906384
-0.49775612	e v a	-0.13906388
-0.54971987	a v a	-0.13906384
-0.85917616	# v a	-0.13906384
-0.6077167	| v a	-0.13906384
-0.5844854	o v a	-0.21378872
-0.51559657	r v a	-0.13906384
-0.31876197	l v a	-0.13906384
-0.73049873	i v a	-0.13906384
-1.3295472	s i a	-0.13906388
-1.0069312	p i a	-0.13906384
-1.1880851	n i a	-0.19178613
-1.2375772	m i a	-0.19386803
-1.1750417	b i a	-0.21378872
-1.0208036	r i a	-0.26483145
-1.5608302	t i a	-0.13906384
-1.5405511	l i a	-0.13906388
-1.3413237	v i a	-0.13906384
-1.041169	d i a	-0.18742578
-1.015963	c i a	-0.18742578
-1.2962692	u i a	-0.13906384
-1.2852808	h i a	-0.13906384
-1.3855034	f i a	-0.13906384
-0.88585865	z i a	-0.24079335
-0.5339202	e d a	-0.3074813
-0.69584924	a d a	-0.29681706
-1.0268039	n d a	-0.20229384
-1.1387147	# d a	-0.23405035
-1.112347	o d a	-0.13906384
-0.5398567	r d a	-0.18254256
-0.59992063	i d a	-0.40439132
-0.8091407	u d a	-0.13906388
-0.39092216	[ d a	-0.13906384
-0.62094724	e g a	-0.18254256
-0.77071863	a g a	-0.13906384
-0.7061765	n g a	-0.13906388
-0.9601405	# g a	-0.17482108
-0.919207	o g a	-0.13906384
-0.65410614	r g a	-0.13906388
-0.6385236	l g a	-0.13906384
-0.5394984	i g a	-0.26733088
-0.44248766	u g a	-0.13906384
-0.54034406	( g a	-0.13906384
-0.69742465	' g a	-0.13906384
-0.33432665	[ g a	-0.13906384
-0.96004695	e c a	-0.13906384
-0.902914	s c a	-0.21378872
-1.0409508	a c a	-0.13906384
-0.78268695	n c a	-0.23041049
-0.67904484	# c a	-0.37432957
-0.5728184	| c a	-0.19386803
-0.6709244	o c a	-0.13906384
-0.8752221	r c a	-0.21378872
-0.7764165	l c a	-0.13906384
-0.55859137	i c a	-0.34637335
-0.93445945	c c a	-0.13906384
-0.67770815	u c a	-0.19386803
-0.7066646	' c a	-0.13906384
-0.7764165	[ c a	-0.13906384
-0.49306428	_ c a	-0.13906384
-1.394787	s u a	-0.13906384
-1.1038206	t u a	-0.19386803
-1.2926917	d u a	-0.13906384
-0.8335022	g u a	-0.18233997
-1.1576668	c u a	-0.16952913
-1.466309	q u a	-0.13906384
-0.6980746	j u a	-0.13906384
-0.33060083	s h a	-0.13906384
-0.67546827	# h a	-0.23086329
-0.5343721	| h a	-0.13906384
-0.33060083	m h a	-0.13906384
-0.5343721	r h a	-0.13906384
-0.892825	c h a	-0.19386803
-0.34983134	' h a	-0.25660053
-0.33060083	[ h a	-0.13906384
-0.8631918	b é a	-0.13906384
-0.2741453	<s> f a	-0.23086329
-0.96876395	a f a	-0.13906384
-0.75607574	# f a	-0.23670094
-1.0469686	o f a	-0.13906384
-0.5088883	r f a	-0.25660053
-0.79262674	f f a	-0.13906384
-0.7798155	e z a	-0.13906384
-1.244313	a z a	-0.13906384
-0.9228258	n z a	-0.13906384
-0.6159295	# z a	-0.53189325
-0.9914821	o z a	-0.13906384
-0.81441325	r z a	-0.13906384
-0.5343945	i z a	-0.23264681
-0.8093268	u z a	-0.13906384
-0.7124191	' z a	-0.13906384
-0.34076196	= z a	-0.13906384
-1.6801795	# ( a	-0.13906384
-0.3249564	m í a	-0.13906384
-0.48196816	r í a	-0.27096742
-0.34499398	d í a	-0.13906384
-0.43211	u í a	-0.19386803
-0.3249564	f í a	-0.13906384
-0.9071126	a x a	-0.13906384
-1.2589488	i x a	-0.13906384
-1.3253517	s ' a	-0.13906384
-1.1492604	l ' a	-0.13906384
-1.2462533	d ' a	-0.13906384
-1.5866632	' ' a	-0.21378872
-0.6671134	n / a	-0.13906384
-1.131632	/ > a	-0.13906384
-1.2782785	[ [ a	-0.13906384
-0.4396073	y 2 a	-0.13906384
-0.60477835	o k a	-0.13906384
-0.84319085	i k a	-0.13906384
-0.3732863	z k a	-0.13906384
-0.72094434	' k a	-0.13906384
-1.1343503	# " a	-0.13906384
-1.1464208	= " a	-0.13906384
-1.0520669	o - a	-0.13906384
-1.008647	e _ a	-0.13906384
-0.6925406	b _ a	-0.13906384
-0.17246832	e ñ a	-0.13906384
-0.20521492	a ñ a	-0.18742578
-0.17246832	u ñ a	-0.13906384
-0.36713076	a j a	-0.13906384
-0.35087395	í j a	-0.13906384
-0.21563393	h ʼ a	-0.13906384
-0.493991	l ’ a	-0.13906384
-0.5811592	d ’ a	-0.13906388
-0.78753066	s e n	-0.24381717
-1.0747296	p e n	-0.13906384
-1.0443345	n e n	-0.18233997
-1.060956	y e n	-0.13906384
-0.7360037	# e n	-0.40061218
-0.5117606	m e n	-0.29824975
-0.80938256	b e n	-0.18233997
-0.9715839	r e n	-0.21012086
-0.72337353	t e n	-0.2058021
-1.1649444	l e n	-0.18233997
-0.5120011	v e n	-0.13906384
-0.66678107	i e n	-0.32299843
-0.72021556	d e n	-0.25695035
-0.8639412	c e n	-0.23086329
-0.8191425	u e n	-0.18254256
-1.1375108	h e n	-0.13906384
-1.0392345	f e n	-0.21378872
-0.74341214	z e n	-0.18254256
-0.766409	( e n	-0.13906384
-0.69274354	x e n	-0.20603122
-1.14828	' e n	-0.13906384
-0.766409	[ e n	-0.13906384
-0.39311802	= e n	-0.13906384
-0.39311802	— e n	-0.13906384
-0.63913727	’ e n	-0.13906384
-0.20712006	. p n	-0.35580203
-0.5532601	e a n	-0.21378872
-0.9126821	s a n	-0.19178613
-1.4118675	p a n	-0.13906388
-1.3779885	n a n	-0.13906388
-1.29102	y a n	-0.13906384
-0.9933892	# a n	-0.2959485
-1.0834316	| a n	-0.13906384
-0.9480453	m a n	-0.20720088
-0.7014148	b a n	-0.27096742
-0.9721874	r a n	-0.21813232
-1.0794847	t a n	-0.23846765
-0.89134467	l a n	-0.30956075
-1.2371572	v a n	-0.13906384
-0.8030449	i a n	-0.1978847
-1.1729115	d a n	-0.13906388
-1.206666	g a n	-0.13906384
-0.941829	c a n	-0.21378872
-0.9288783	u a n	-0.24097593
-1.1477506	z a n	-0.13906384
-1.3343639	' a n	-0.13906384
-0.9619432	[ a n	-0.13906384
-0.80741966	" a n	-0.13906384
-1.7850355	a n n	-0.13906384
-1.5160279	i n n	-0.13906388
-1.7123579	u n n	-0.13906384
-1.3964059	# y n	-0.13906384
-1.637683	e # n	-0.13906384
-1.4708716	s # n	-0.2106691
-1.4127474	a # n	-0.37350976
-1.5758927	n # n	-0.20933893
-1.2930877	o # n	-0.29848665
-0.85723174	b # n	-0.13906384
-1.5996702	r # n	-0.13906384
-1.1759953	t # n	-0.13906384
-0.821491	d # n	-0.13906384
-1.5393261	. # n	-0.19386803
-1.0895507	u # n	-0.13906384
-0.85723174	f # n	-0.13906384
-1.658303	ó # n	-0.13906384
-1.2111408	í # n	-0.13906384
-1.3902098	' # n	-0.13906384
-1.6702186	, # n	-0.19178613
-1.4492433	" # n	-0.13906384
-0.4254791	s | n	-0.13906384
-1.5953486	# | n	-0.25660053
-0.99998254	b | n	-0.13906384
-0.99998254	) | n	-0.13906384
-0.99998254	% | n	-0.13906384
-1.3973299	s o n	-0.13906384
-1.0565616	p o n	-0.19386803
-1.2963879	n o n	-0.21378872
-1.5409282	# o n	-0.13906384
-0.9716316	m o n	-0.16952913
-1.3381797	r o n	-0.13906388
-1.5816675	t o n	-0.13906384
-1.0211207	l o n	-0.19386803
-0.77963024	i o n	-0.23930214
-1.2143996	d o n	-0.13906384
-1.1139344	g o n	-0.13906384
-0.91961193	c o n	-0.2060216
-0.7237647	f o n	-0.19386803
-0.28662562	z o n	-0.19178613
-1.7446388	e m n	-0.13906384
-1.7350311	o m n	-0.13906384
-1.4899642	m b n	-0.13906384
-1.4770794	e r n	-0.24538304
-1.6982114	a r n	-0.19386803
-1.5695876	o r n	-0.20603122
-1.0922682	u r n	-0.21378872
-0.7163137	é r n	-0.13906384
-1.446972	e t n	-0.21378872
-1.0434223	e i n	-0.21378872
-1.0438398	s i n	-0.18233997
-1.2691611	p i n	-0.13906384
-0.9431502	a i n	-0.13906384
-0.70987624	# i n	-0.2526818
-0.99647	| i n	-0.13906384
-0.89327574	o i n	-0.13906384
-0.73979294	m i n	-0.19178613
-1.3359715	b i n	-0.13906384
-1.0592481	r i n	-0.18233997
-1.3024435	t i n	-0.13906384
-1.0733178	l i n	-0.19386803
-0.75668037	v i n	-0.19386803
-1.2066525	d i n	-0.19386803
-1.1199347	c i n	-0.19386803
-1.196898	u i n	-0.13906384
-1.1842214	h i n	-0.13906384
-0.66633326	f i n	-0.24097593
-1.4072542	z i n	-0.13906384
-0.7216097	' i n	-0.13906388
-0.78688	[ i n	-0.13906384
-0.9522096	w i n	-0.13906384
-1.4169343	a g n	-0.13906384
-1.2227796	i g n	-0.13906384
-1.1399053	e u n	-0.13906384
-1.1158255	s u n	-0.13906384
-1.1150688	p u n	-0.13906384
-0.9104535	n u n	-0.25660053
-0.7293942	y u n	-0.13906384
-0.35231414	# u n	-0.49281612
-0.6112302	| u n	-0.13906384
-0.80323076	o u n	-0.13906384
-0.76201916	m u n	-0.20603122
-0.7590536	b u n	-0.25660053
-0.9011249	l u n	-0.19386803
-0.9938015	g u n	-0.21378872
-0.5642115	h u n	-0.13906384
-0.892245	f u n	-0.13906384
-0.37706083	z u n	-0.13906384
-0.37706083	( u n	-0.13906384
-0.3972107	' u n	-0.25660053
-0.37706083	[ u n	-0.13906384
-0.37706083	« u n	-0.13906384
-1.8080963	c h n	-0.13906384
-0.6359431	m é n	-0.25660053
-0.6695511	b é n	-0.13906384
-0.7068564	r é n	-0.13906384
-0.34791234	i é n	-0.19178613
-0.7283118	m ó n	-0.13906384
-0.7973033	l ó n	-0.13906384
-0.58337903	i ó n	-0.23200606
-0.58374584	g ó n	-0.13906384
-1.7168963	# ( n	-0.13906384
-0.27415404	m á n	-0.18254256
-0.43020016	t á n	-0.13906388
-0.69506955	l á n	-0.13906384
-0.19128554	i á n	-0.23086329
-0.6752974	n í n	-0.13906384
-0.82846147	t í n	-0.19386803
-1.358428	o ' n	-0.13906384
-1.8286338	' ' n	-0.13906384
-1.2959888	[ [ n	-0.21378872
-1.2364981	# " n	-0.13906384
-0.43631852	e - n	-0.13906384
-0.75010514	s _ n	-0.13906384
-0.3861408	a _ n	-0.13906384
-0.9998219	o _ n	-0.13906384
-0.3861408	1 _ n	-0.13906384
-0.21775877	m ú n	-0.13906384
-0.13301362	e & n	-0.13906384
-0.13301362	# & n	-0.13906384
-0.13301362	1 & n	-0.13906384
-0.13301362	3 & n	-0.13906384
-0.21775877	h â n	-0.13906384
-0.31626	l ä n	-0.13906384
-1.6267117	p e y	-0.13906384
-1.7822739	m e y	-0.13906388
-1.235894	b e y	-0.13906388
-1.7258203	r e y	-0.21378872
-1.4657322	d e y	-0.19178613
-1.714147	u e y	-0.13906384
-1.84139	# p y	-0.25660053
-2.0270183	n a y	-0.13906384
-1.8391985	# a y	-0.25660053
-1.978198	m a y	-0.13906384
-1.6449302	r a y	-0.13906388
-1.5012953	a n y	-0.19271018
-1.897175	o n y	-0.13906384
-1.7473524	u n y	-0.13906384
-1.9402454	s # y	-0.25660053
-1.7968072	a # y	-0.18233997
-2.009092	o # y	-0.23086329
-2.0333214	. # y	-0.13906384
-1.538293	u # y	-0.13906384
-1.8812962	ó # y	-0.13906384
-1.5526356	' # y	-0.13906384
-2.1553657	, # y	-0.13906384
-1.7667077	a r y	-0.21378872
-1.4711682	s t y	-0.25660053
-1.6395955	l l y	-0.13906384
-2.2974267	# c y	-0.13906384
-1.4516199	s u y	-0.13906384
-1.3068496	r u y	-0.13906384
-1.553344	t u y	-0.13906384
-1.1923617	l u y	-0.19386803
-1.3391385	d u y	-0.13906384
-1.109262	f u y	-0.13906384
-0.90915865	' h y	-0.13906384
-1.0057102	a - y	-0.13906384
-1.1637528	s e #	-0.18233997
-1.1321712	p e #	-0.13906384
-0.9516917	n e #	-0.17125802
-0.8204735	y e #	-0.21378872
-1.3621271	b e #	-0.13906384
-1.2984533	r e #	-0.18033133
-1.3899505	t e #	-0.19386803
-1.4873451	l e #	-0.13906384
-1.1954683	i e #	-0.16560206
-1.0589246	d e #	-0.18245047
-1.0093316	c e #	-0.13906384
-1.2162385	u e #	-0.16952913
-1.228232	h e #	-0.13906384
-0.6698486	é e #	-0.13906384
-0.71694154	x e #	-0.13906384
-0.6698486	j e #	-0.13906384
-0.8982223	ü e #	-0.13906384
-0.7471327	e s #	-0.2241774
-0.52466375	a s #	-0.47407758
-0.7920121	n s #	-0.21464966
-0.38889298	y s #	-0.13906384
-0.53133565	o s #	-0.4906146
-0.84760106	r s #	-0.13906388
-0.96436673	t s #	-0.13906384
-0.6407602	l s #	-0.15657458
-1.2297245	i s #	-0.13906388
-0.80867183	u s #	-0.20756139
-0.41256297	é s #	-0.17737968
-0.38889298	è s #	-0.13906384
-0.5805253	á s #	-0.21378872
-0.98649377	í s #	-0.13906384
-0.38889298	ë s #	-0.13906384
-0.44491982	c p #	-0.13906384
-0.89097834	s a #	-0.16257198
-1.0955815	p a #	-0.13906384
-0.6029756	a a #	-0.13906388
-1.0575753	n a #	-0.21354105
-0.9347756	y a #	-0.20756695
-0.9243829	m a #	-0.20585299
-0.90552616	b a #	-0.20697786
-1.0052956	r a #	-0.2525625
-0.95106745	t a #	-0.2927328
-0.982784	l a #	-0.16929673
-0.9195348	v a #	-0.13906388
-0.7413564	i a #	-0.28332978
-0.79673463	d a #	-0.1969533
-0.8239516	g a #	-0.1978847
-0.9861627	c a #	-0.19859764
-0.99218833	u a #	-0.13906384
-1.1153218	h a #	-0.13906388
-0.91210055	f a #	-0.13906384
-0.6662232	z a #	-0.20229384
-0.45814025	í a #	-0.17286393
-0.7788404	x a #	-0.13906384
-1.2581437	' a #	-0.13906384
-0.3983376	/ a #	-0.13906384
-0.5237552	k a #	-0.13906384
-1.0672371	ñ a #	-0.13906384
-0.7788404	j a #	-0.13906384
-0.86249256	’ a #	-0.13906384
-0.8475207	e n #	-0.3254419
-0.98184645	a n #	-0.22796763
-1.0849824	n n #	-0.13906384
-1.2173611	o n #	-0.17482111
-1.1286819	r n #	-0.13906388
-1.3591558	i n #	-0.13906384
-0.5386076	é n #	-0.15520224
-0.9061858	ó n #	-0.15820199
-0.7254845	á n #	-0.16952913
-0.8619995	í n #	-0.13906384
-0.9211374	' n #	-0.13906384
-0.6480758	ú n #	-0.13906388
-0.9688694	a y #	-0.13906384
-0.9701571	n y #	-0.13906384
-0.6145411	r y #	-0.13906384
-0.37898868	l y #	-0.13906384
-1.1276352	x # #	-0.13906384
-1.2493496	" # #	-0.25660053
-0.2702224	1 | #	-0.21378872
-0.2702224	5 | #	-0.23086329
-0.2702224	0 | #	-0.23086329
-0.18537444	2 | #	-0.19386803
-0.3871839	9 | #	-0.13906384
-0.24405918	3 | #	-0.25660053
-0.37922552	7 | #	-0.23086329
-0.18537444	6 | #	-0.35580203
-0.2702224	8 | #	-0.21378872
-0.6584139	s o #	-0.2252508
-1.2265865	p o #	-0.13906388
-0.89597285	n o #	-0.19306612
-0.7871947	y o #	-0.16952913
-1.0590535	m o #	-0.2169362
-1.0346167	b o #	-0.25660053
-0.8332396	r o #	-0.21618721
-0.7715753	t o #	-0.3237281
-0.5820791	l o #	-0.20275597
-0.98274744	v o #	-0.13906388
-0.75222075	i o #	-0.19537237
-0.7147565	d o #	-0.18462865
-1.0423896	g o #	-0.21378872
-1.109915	c o #	-0.18859005
-0.6401683	u o #	-0.13906384
-0.6401683	( o #	-0.13906384
-0.40327662	í o #	-0.18233997
-0.6775541	x o #	-0.13906384
-1.1085773	' o #	-0.13906384
-0.6401683	ñ o #	-0.13906388
-0.7677916	’ o #	-0.13906384
-1.6956234	a m #	-0.13906384
-1.6702435	i m #	-0.13906384
-1.0979874	u m #	-0.25660053
-1.6793997	i b #	-0.13906384
-1.332753	u b #	-0.13906384
-1.1152555	e r #	-0.20101923
-0.8351464	a r #	-0.28823945
-1.173741	o r #	-0.18560255
-1.4954356	b r #	-0.13906384
-0.79367864	i r #	-0.20229384
-1.4499876	u r #	-0.13906384
-1.0018526	e t #	-0.13906384
-1.503203	a t #	-0.15402943
-1.1345229	n t #	-0.17737968
-0.40935612	m t #	-0.13906384
-1.3273109	i t #	-0.16257198
-1.012459	u t #	-0.13906384
-0.8953872	h t #	-0.13906384
-0.40935612	ậ t #	-0.13906384
-1.3359166	e l #	-0.13906384
-0.9474274	a l #	-0.26267132
-0.9967642	o l #	-0.21378872
-1.3287022	l l #	-0.13906384
-1.4357795	i l #	-0.13906384
-0.67639923	h l #	-0.13906384
-0.4138711	é l #	-0.13906384
-1.2198856	e i #	-0.13906384
-1.3648896	s i #	-0.13906384
-1.6497817	n i #	-0.13906384
-1.5130808	b i #	-0.13906384
-1.466857	r i #	-0.19386803
-1.6209302	t i #	-0.13906384
-1.5979215	l i #	-0.13906384
-0.4241175	i i #	-0.13906384
-1.3198279	d i #	-0.18233997
-1.5442489	c i #	-0.13906384
-1.3297045	h i #	-0.13906384
-1.5840052	z i #	-0.13906384
-1.568092	n d #	-0.13906384
-0.9793818	l d #	-0.13906384
-0.4318238	/ d #	-0.13906384
-0.25150946	e . #	-0.13906384
-0.2342437	s . #	-0.19153777
-0.09318714	a . #	-0.24422257
-0.15673453	n . #	-0.13906388
-0.12554516	o . #	-0.22234318
-0.3879138	m . #	-0.13906384
-0.24889103	r . #	-0.19386803
-0.33186078	t . #	-0.13906384
-0.2333897	l . #	-0.13906384
-0.4546508	i . #	-0.13906384
-0.33186078	d . #	-0.13906384
-0.2333897	g . #	-0.13906384
-0.2653273	c . #	-0.13906384
-0.2333897	é . #	-0.13906384
-0.2333897	f . #	-0.13906384
-0.2333897	ó . #	-0.13906384
-0.094668515	) . #	-0.19386803
-0.2333897	' . #	-0.13906384
-0.2333897	> . #	-0.13906384
-0.2333897	k . #	-0.13906384
-0.2333897	² . #	-0.13906384
-0.2333897	" . #	-0.13906384
-0.6538059	p g #	-0.13906384
-1.196059	a g #	-0.13906384
-1.1323663	n g #	-0.13906384
-0.7721373	r g #	-0.13906388
-0.6538059	v g #	-0.13906384
-1.4844446	n c #	-0.13906384
-0.9027395	d c #	-0.13906384
-1.086236	e u #	-0.25660053
-1.3354317	p u #	-0.13906384
-1.0641592	a u #	-0.13906384
-1.3567984	n u #	-0.13906384
-0.9411962	o u #	-0.13906384
-1.2145314	b u #	-0.13906384
-1.2715868	i u #	-0.13906384
-1.3689568	c h #	-0.13906388
-0.8416151	k h #	-0.13906384
-0.69996935	u é #	-0.13906384
-1.3767056	e f #	-0.13906384
-0.7159464	l f #	-0.13906384
-1.1339179	e z #	-0.13906384
-1.3753817	a z #	-0.13906384
-0.90165466	o z #	-0.13906388
-1.2827687	i z #	-0.13906384
-0.93689173	u z #	-0.13906384
-0.38417652	9 z #	-0.13906384
-0.087555945	s ó #	-0.13906384
-0.087555945	p ó #	-0.13906384
-0.087555945	n ó #	-0.17482108
-0.087555945	y ó #	-0.17482108
-0.16867836	m ó #	-0.13906384
-0.12526163	b ó #	-0.13906384
-0.15344898	r ó #	-0.13906388
-0.15344898	t ó #	-0.13906384
-0.15344898	l ó #	-0.20603122
-0.17322066	i ó #	-0.2586408
-0.24069566	g ó #	-0.13906384
-0.24069566	c ó #	-0.13906384
-0.12526163	h ó #	-0.13906384
-0.087555945	z ó #	-0.13906384
-0.12526163	x ó #	-0.13906384
-0.23369591	r á #	-0.13906384
-0.5951673	d á #	-0.13906384
-0.16128014	s ) #	-0.21378872
-0.35862777	a ) #	-0.13906384
-0.3665213	n ) #	-0.13906384
-0.31551373	o ) #	-0.13906384
-0.3665213	t ) #	-0.13906384
-0.2182921	. ) #	-0.13906384
-0.4298048	] ) #	-0.13906388
-0.4298048	' ) #	-0.13906384
-0.2182921	> ) #	-0.13906384
-0.2182921	" ) #	-0.13906384
-0.2182921	7 ) #	-0.13906384
-0.2182921	8 ) #	-0.13906384
-0.2182921	» ) #	-0.13906384
-0.34955633	s í #	-0.13906384
-0.56508565	n í #	-0.13906384
-0.6062001	t í #	-0.13906384
-0.7655914	u í #	-0.13906384
-0.40649664	n 1 #	-0.13906384
-0.40649664	b 1 #	-0.13906384
-0.6629953	1 1 #	-0.13906384
-0.40649664	+ 1 #	-0.13906384
-0.41881126	n 5 #	-0.13906384
-0.41881126	b 5 #	-0.13906384
-1.0823549	0 0 #	-0.13906384
-0.4379654	p x #	-0.21378872
-0.67814046	o x #	-0.13906384
-1.0039682	i x #	-0.13906384
-0.7807932	u x #	-0.13906384
-0.87685275	' ' #	-0.34277767
-0.39343083	n 2 #	-0.13906384
-0.39343083	b 2 #	-0.13906384
-0.39343083	t 2 #	-0.13906384
-0.39343083	+ 2 #	-0.13906384
-0.4195047	n 9 #	-0.13906384
-0.4195047	b 9 #	-0.13906384
-0.56122255	e k #	-0.13906384
-0.34720042	n k #	-0.13906384
-0.56122255	r k #	-0.13906384
-0.77033246	i k #	-0.13906384
-0.6648617	c k #	-0.13906384
-0.66192025	m ² #	-0.13906384
-0.009917679	e , #	-0.13906384
-0.0054818434	s , #	-0.22990331
-0.003280775	a , #	-0.26475483
-0.012432869	n , #	-0.21378872
-0.004104895	o , #	-0.26422954
-0.015437533	r , #	-0.13906384
-0.016657583	t , #	-0.19386803
-0.015437533	l , #	-0.13906388
-0.015437533	d , #	-0.13906384
-0.02132802	g , #	-0.13906384
-0.015437533	u , #	-0.13906384
-0.02132802	h , #	-0.13906384
-0.02132802	é , #	-0.13906384
-0.02132802	z , #	-0.13906384
-0.015437533	ó , #	-0.13906384
-0.006171945	) , #	-0.15520224
-0.02132802	' , #	-0.13906384
-0.02132802	² , #	-0.13906384
-0.016657583	" , #	-0.21378872
-0.02132802	3 , #	-0.13906384
-0.02132802	7 , #	-0.13906384
-0.02132802	€ , #	-0.13906384
-0.02132802	ό , #	-0.13906384
-0.02132802	» , #	-0.13906384
-0.02132802	ν , #	-0.13906384
-0.015437533	— , #	-0.25660053
-0.13446996	e ; #	-0.13906384
-0.3006064	p ; #	-0.13906384
-0.10186911	a ; #	-0.13906384
-0.13446996	o ; #	-0.13906384
-0.25274688	m ; #	-0.13906384
-0.13446996	l ; #	-0.13906384
-0.13446996	] ; #	-0.13906384
-0.13446996	) ; #	-0.13906384
-0.6525475	a = #	-0.13906384
-0.40067765	o = #	-0.13906384
-0.54657334	= = #	-0.13906384
-0.5930606	s " #	-0.13906384
-0.29258585	o " #	-0.13906384
-0.26444134	l " #	-0.13906384
-0.26444134	d " #	-0.13906384
-0.26444134	1 " #	-0.13906384
-0.26444134	5 " #	-0.13906384
-0.19252585	0 " #	-0.21378872
-0.26444134	9 " #	-0.13906384
-0.1754355	; " #	-0.19386803
-0.1754355	% " #	-0.13906388
-0.41119388	n 4 #	-0.13906384
-0.41119388	b 4 #	-0.13906384
-0.32120973	6 % #	-0.13906384
-0.32120973	8 % #	-0.13906384
-0.38804445	n 3 #	-0.13906384
-0.38804445	b 3 #	-0.13906384
-0.38804445	[ 3 #	-0.13906384
-0.8882642	2 3 #	-0.13906384
-0.3881449	n 7 #	-0.13906384
-0.3881449	b 7 #	-0.13906384
-1.0242236	1 7 #	-0.13906384
-0.39830232	n 6 #	-0.13906384
-0.39830232	b 6 #	-0.13906384
-0.3431653	n 8 #	-0.13906384
-0.3431653	b 8 #	-0.13906384
-0.83611023	1 8 #	-0.13906384
-0.55463696	3 8 #	-0.13906384
-0.15185778	. - #	-0.23405035
-0.16603702	e : #	-0.13906384
-0.124633536	s : #	-0.13906384
-0.16603702	a : #	-0.13906384
-0.124633536	o : #	-0.13906388
-0.114369415	r : #	-0.13906384
-0.114369415	t : #	-0.13906388
-0.114369415	l : #	-0.13906384
-0.114369415	d : #	-0.13906384
-0.29468644	] : #	-0.13906388
-0.16603702	' : #	-0.13906384
-0.40532792	o w #	-0.13906384
-1.0458286	e _ #	-0.13906384
-0.21118195	к а #	-0.13906384
-0.592381	в о #	-0.13906384
-0.8075254	a j #	-0.13906384
-0.55890393	' » #	-0.13906384
-0.15338995	1 ′ #	-0.13906384
-0.15338995	4 ′ #	-0.13906384
-0.21118195	s $ #	-0.13906384
-0.38868627	o — #	-0.13906384
-0.10846803	1 ª #	-0.13906384
-0.10846803	2 ª #	-0.13906384
-0.10846803	3 ª #	-0.13906384
-2.0640593	e s |	-0.13906384
-2.021232	o s |	-0.13906384
-1.7330232	u s |	-0.13906384
-1.8726484	n a |	-0.13906384
-1.1998211	y a |	-0.13906384
-1.8454789	m a |	-0.13906384
-1.9990947	t a |	-0.13906384
-1.8969333	c a |	-0.13906384
-1.3683821	h a |	-0.13906384
-1.6372287	z a |	-0.13906388
-0.9525884	á n |	-0.13906384
-1.0219749	í n |	-0.13906384
-1.2397349	e # |	-0.16952913
-1.3191613	s # |	-0.17866467
-0.41024724	p # |	-0.13906384
-1.3625584	a # |	-0.22462866
-1.2577031	n # |	-0.19386803
-0.61041033	y # |	-0.13906384
-1.4839736	o # |	-0.22593597
-1.2422316	t # |	-0.13906388
-1.0277814	l # |	-0.13906388
-0.9583148	i # |	-0.13906388
-0.7055274	g # |	-0.19386803
-1.2629701	u # |	-0.13906384
-0.80801237	f # |	-0.13906384
-1.1868296	) # |	-0.13906388
-1.1262338	í # |	-0.13906384
-0.8981217	1 # |	-0.13906384
-0.66978914	5 # |	-0.13906384
-0.9627894	x # |	-0.13906384
-1.2411686	' # |	-0.13906384
-0.5275291	2 # |	-0.13906388
-0.2559942	9 # |	-0.13906384
-0.61041033	k # |	-0.13906384
-1.6984111	, # |	-0.13906384
-0.8097601	" # |	-0.20456599
-0.66978914	4 # |	-0.13906384
-0.8981217	3 # |	-0.13906384
-0.80801237	7 # |	-0.13906384
-0.66978914	6 # |	-0.13906384
-0.8981217	8 # |	-0.13906384
-0.41024724	w # |	-0.13906384
-0.44812265	' | |	-0.13906384
-1.2624702	v o |	-0.13906384
-1.5298009	c o |	-0.13906384
-1.4942925	m b |	-0.13906384
-2.1442704	a r |	-0.13906384
-2.107847	o r |	-0.13906384
-1.0205108	h t |	-0.13906384
-0.446393	f t |	-0.13906384
-1.8381035	a l |	-0.13906384
-1.7246646	i l |	-0.13906384
-1.6961437	e d |	-0.13906384
-1.3972366	o d |	-0.13906384
-0.7037461	p g |	-0.13906384
-1.2821358	n g |	-0.13906388
-0.7037461	v g |	-0.13906388
-0.8969395	a ) |	-0.13906384
-0.8460442	o ) |	-0.13906384
-0.6222334	t ) |	-0.13906384
-0.6222334	l ) |	-0.13906384
-0.69701576	0 1 |	-0.13906384
-0.9452332	3 1 |	-0.13906384
-0.42501357	6 1 |	-0.13906384
-0.6646943	0 5 |	-0.13906384
-0.8010235	4 5 |	-0.13906384
-0.8010235	3 5 |	-0.13906384
-1.2195375	2 0 |	-0.13906384
-0.9442204	9 0 |	-0.13906384
-0.42470762	8 0 |	-0.13906384
-0.65293765	p x |	-0.13906384
-2.1928442	' ' |	-0.13906384
-0.86835146	5 2 |	-0.13906384
-0.86835146	0 2 |	-0.13906384
-0.7836671	3 2 |	-0.13906384
-0.40034086	7 2 |	-0.13906384
-1.32334	9 9 |	-0.13906384
-0.43952662	p " |	-0.13906384
-1.1323054	9 4 |	-0.13906384
-0.5309612	5 % |	-0.13906384
-0.21229608	0 % |	-0.13906384
-1.0338622	2 3 |	-0.13906384
-0.95864075	3 3 |	-0.13906384
-0.7792622	1 7 |	-0.13906384
-0.39543813	2 7 |	-0.13906384
-0.39543813	4 7 |	-0.13906384
-0.44912073	0 6 |	-0.25660053
-0.5499909	4 6 |	-0.13906384
-0.5499909	7 6 |	-0.13906384
-0.3403044	6 6 |	-0.13906384
-0.3811396	2 8 |	-0.13906384
-0.3811396	4 8 |	-0.13906384
-0.7386292	8 8 |	-0.13906384
-1.6661494	n e o	-0.13906384
-1.270879	t e o	-0.35580203
-1.786649	l e o	-0.13906384
-1.8554064	d e o	-0.13906384
-1.0053499	g e o	-0.13906384
-1.4381664	h e o	-0.13906388
-1.2433645	e s o	-0.24948934
-1.4242165	a s o	-0.21378872
-1.4451035	n s o	-0.13906384
-1.1093893	# s o	-0.2817328
-1.1993697	o s o	-0.1760584
-0.5346966	b s o	-0.13906384
-1.0250385	r s o	-0.18233997
-1.0523349	l s o	-0.13906384
-1.5716845	i s o	-0.13906384
-0.34281626	<s> p o	-0.13906384
-0.7312311	e p o	-0.13906388
-0.79312056	s p o	-0.13906388
-0.34281626	y p o	-0.13906384
-0.76693594	# p o	-0.46267915
-0.77628314	| p o	-0.13906384
-0.73620486	o p o	-0.13906388
-0.60550267	m p o	-0.17125802
-0.7172687	r p o	-0.13906384
-0.9369171	i p o	-0.13906384
-0.73620486	u p o	-0.13906384
-0.65580004	( p o	-0.13906384
-0.34281626	x p o	-0.13906384
-0.34281626	- p o	-0.13906384
-0.3123621	_ p o	-0.20603122
-2.2184393	r a o	-0.13906384
-0.2472783	<s> n o	-0.25660053
-1.3495389	e n o	-0.18233997
-1.0239319	a n o	-0.18703736
-1.0649865	n n o	-0.13906384
-0.5550726	# n o	-0.5581076
-0.5400153	| n o	-0.21378872
-1.074997	o n o	-0.24948934
-0.8476106	r n o	-0.17482108
-0.6395405	t n o	-0.13906384
-1.27563	i n o	-0.13906388
-1.3439696	u n o	-0.13906384
-0.3933468	( n o	-0.13906384
-0.90526664	' n o	-0.13906384
-0.8713183	_ n o	-0.13906384
-0.7465252	e y o	-0.19386803
-0.6274895	a y o	-0.13906384
-0.86019135	n y o	-0.13906384
-1.0249155	# y o	-0.13906384
-0.55904746	r y o	-0.13906384
-0.7019893	u y o	-0.13906388
-1.6056114	e # o	-0.21378872
-1.4993951	s # o	-0.25707763
-1.4290543	a # o	-0.3821225
-1.6230636	n # o	-0.21378872
-1.6682029	o # o	-0.18233997
-1.6713061	r # o	-0.13906388
-1.7186682	t # o	-0.13906384
-1.4820567	i # o	-0.13906384
-1.3404393	z # o	-0.13906384
-1.7332537	ó # o	-0.13906384
-0.9798364	1 # o	-0.13906384
-1.5693378	, # o	-0.23041049
-1.5441799	: # o	-0.13906384
-1.5009623	# | o	-0.19178613
-0.8989787	r | o	-0.13906384
-1.9743733	r o o	-0.13906384
-1.6529187	c o o	-0.21378872
-1.0597079	e m o	-0.19178613
-0.5838525	s m o	-0.16952913
-0.9956463	a m o	-0.19386803
-0.74974936	n m o	-0.13906384
-0.641251	# m o	-0.4294204
-0.99230516	| m o	-0.13906384
-0.9103976	o m o	-0.19386803
-1.1296864	r m o	-0.13906384
-1.1787245	i m o	-0.13906384
-0.74974936	' m o	-0.13906384
-0.8844787	e b o	-0.13906384
-1.1100897	a b o	-0.13906388
-1.083668	# b o	-0.19386803
-0.804273	m b o	-0.19386803
-0.9915718	r b o	-0.13906384
-1.1677258	i b o	-0.13906384
-0.6416584	' b o	-0.13906384
-0.6416584	- b o	-0.13906384
-1.2013552	e r o	-0.27096742
-0.45385972	p r o	-0.22933407
-1.4922341	a r o	-0.13906384
-0.6360724	n r o	-0.13906384
-1.1363934	# r o	-0.19386803
-0.8037664	o r o	-0.6831525
-0.97519475	b r o	-0.13906384
-0.7518169	r r o	-0.13906384
-0.7017188	t r o	-0.21894123
-1.2768451	i r o	-0.13906384
-1.0202483	d r o	-0.13906384
-1.1680181	g r o	-0.13906384
-0.7205271	c r o	-0.13906388
-1.0275533	u r o	-0.13906384
-1.1732328	f r o	-0.13906384
-0.6360724	' r o	-0.13906384
-0.91110104	e t o	-0.3029412
-0.9014537	s t o	-0.22224212
-0.6183289	a t o	-0.51791734
-0.9865894	n t o	-0.20364916
-0.8612471	# t o	-0.34283182
-0.8527577	| t o	-0.13906384
-0.65760607	o t o	-0.18254256
-0.834536	r t o	-0.21378872
-0.59222174	t t o	-0.13906384
-0.7857461	l t o	-0.19386803
-0.5266229	i t o	-0.5031375
-0.70445174	c t o	-0.25660053
-0.90298057	u t o	-0.13906384
-0.59222174	( t o	-0.13906384
-0.36587384	í t o	-0.13906384
-0.77400315	' t o	-0.13906384
-0.23275995	" t o	-0.13906384
-1.2067513	e l o	-0.13906384
-0.883821	p l o	-0.18233997
-1.1822664	a l o	-0.21378872
-1.3528656	# l o	-0.21378872
-0.735883	o l o	-0.18254256
-0.86934894	b l o	-0.25660053
-0.7663253	r l o	-0.13906384
-0.8679476	l l o	-0.19805968
-0.38031623	v l o	-0.13906384
-1.0767844	i l o	-0.13906384
-0.6168271	g l o	-0.13906384
-0.72164285	c l o	-0.24097593
-0.78511447	u l o	-0.25660053
-0.38031623	è l o	-0.13906384
-1.0112902	e v o	-0.13906384
-1.007601	o v o	-0.13906384
-0.91752326	i v o	-0.13906384
-0.6343817	d v o	-0.13906384
-1.5464964	s i o	-0.13906384
-1.1209961	p i o	-0.13906388
-1.1981003	n i o	-0.22509685
-1.4856467	m i o	-0.13906384
-1.275562	b i o	-0.21378872
-1.0277522	r i o	-0.19608209
-0.9967889	t i o	-0.28830856
-1.2883213	l i o	-0.13906384
-1.3013114	d i o	-0.13906388
-0.42075938	g i o	-0.13906384
-1.0235425	c i o	-0.20603122
-1.3157371	u i o	-0.13906384
-1.3051281	h i o	-0.13906388
-0.98279446	z i o	-0.2817328
-1.0361911	e d o	-0.13906388
-0.69675726	a d o	-0.39590612
-0.88436913	n d o	-0.18703736
-1.0673978	# d o	-0.26733088
-0.8436015	| d o	-0.13906384
-1.1158783	o d o	-0.13906384
-1.1859124	r d o	-0.13906388
-1.105503	i d o	-0.21378872
-1.0744857	u d o	-0.13906384
-0.68512756	e g o	-0.13906388
-0.60733485	a g o	-0.19386803
-0.79392725	# g o	-0.19178613
-1.0204608	o g o	-0.13906384
-0.7219312	r g o	-0.13906388
-0.7785822	i g o	-0.13906384
-0.8223032	u g o	-0.13906384
-0.37382108	= g o	-0.13906384
-0.34555227	<s> c o	-0.13906384
-0.90282965	e c o	-0.21378872
-0.7784046	s c o	-0.13906384
-1.0531259	a c o	-0.13906384
-0.81979704	n c o	-0.13906384
-0.69294053	# c o	-0.5519524
-0.7797175	| c o	-0.21378872
-0.92608505	o c o	-0.25660053
-0.8268983	r c o	-0.13906384
-0.6667093	i c o	-0.31915212
-0.34555227	g c o	-0.13906384
-1.0330589	u c o	-0.13906384
-0.55852795	( c o	-0.13906384
-0.66144365	' c o	-0.13906384
-0.34555227	/ c o	-0.13906384
-0.7237768	[ c o	-0.13906384
-0.34555227	" c o	-0.13906384
-0.36260116	- c o	-0.13906384
-0.47232997	_ c o	-0.13906384
-1.718147	t u o	-0.13906384
-1.1875572	f u o	-0.13906384
-0.67416614	a h o	-0.13906384
-0.8231714	# h o	-0.21378872
-1.5420513	c h o	-0.13906384
-0.92625207	e f o	-0.13906384
-0.72827655	n f o	-0.25660053
-0.76669616	# f o	-0.50706124
-0.65669286	o f o	-0.21378872
-0.25352734	" f o	-0.13906384
-0.8659178	s z o	-0.13906384
-1.1206506	n z o	-0.13906384
-1.4715699	# z o	-0.13906384
-0.6504659	| z o	-0.13906384
-0.8659178	' z o	-0.13906384
-1.2292216	# ( o	-0.20603122
-0.56611955	r í o	-0.24097593
-1.1496823	t í o	-0.13906384
-1.0723368	e x o	-0.13906384
-0.8299022	a x o	-0.13906384
-0.62576413	i x o	-0.19271018
-1.2021469	l ' o	-0.13906388
-0.9463727	d ' o	-0.16952913
-1.7364819	' ' o	-0.13906388
-1.632287	[ [ o	-0.13906384
-0.108662814	# k o	-0.5582137
-0.3520441	| k o	-0.13906384
-0.56917953	o k o	-0.13906384
-0.7832847	i k o	-0.13906384
-0.6749884	' k o	-0.13906384
-1.2316419	# " o	-0.13906384
-1.0146074	e _ o	-0.13906384
-0.8436363	s _ o	-0.13906384
-0.64943624	a ñ o	-0.25660053
-0.41569102	# j o	-0.13906384
-0.49619126	l ’ o	-0.13906384
-0.58385	d ’ o	-0.13906384
-0.684384	e e m	-0.13906384
-1.4882503	s e m	-0.13906384
-1.2274185	n e m	-0.13906384
-1.5567683	# e m	-0.13906384
-1.5622061	m e m	-0.13906384
-1.1507133	r e m	-0.18254256
-1.1959591	t e m	-0.25660053
-0.99709773	l e m	-0.28918892
-1.2231737	i e m	-0.21378872
-1.3408092	d e m	-0.17482108
-1.3966051	f e m	-0.13906384
-0.41821542	1 e m	-0.13906384
-0.41821542	5 e m	-0.13906384
-0.9197814	x e m	-0.13906388
-1.2847306	' e m	-0.13906384
-1.8815563	e s m	-0.13906384
-1.8372407	a s m	-0.13906384
-1.8395346	o s m	-0.13906384
-0.9810522	i s m	-0.3821225
-1.5911748	u s m	-0.13906384
-1.0538938	á s m	-0.13906384
-1.5443369	s a m	-0.13906384
-1.4796757	p a m	-0.13906384
-1.360174	n a m	-0.13906388
-1.5860789	# a m	-0.13906388
-1.5902345	m a m	-0.13906384
-1.5417985	b a m	-0.13906384
-1.3077985	r a m	-0.13906384
-1.2519959	t a m	-0.20933893
-1.2907614	l a m	-0.17482108
-1.4385456	i a m	-0.25660053
-1.5202848	d a m	-0.13906384
-1.2460296	g a m	-0.13906384
-1.3743984	c a m	-0.18233997
-1.2211471	h a m	-0.13906384
-0.97018015	f a m	-0.25660053
-0.8297231	x a m	-0.13906384
-0.99413836	[ a m	-0.13906384
-0.8343486	ñ a m	-0.13906384
-2.1008384	i n m	-0.13906388
-1.1568408	e # m	-0.19990703
-1.2109258	s # m	-0.33406606
-1.239799	a # m	-0.52842426
-1.3388547	n # m	-0.24538304
-1.2215757	o # m	-0.41834092
-1.6077417	r # m	-0.13906384
-1.6550694	t # m	-0.13906384
-1.4849994	l # m	-0.13906384
-1.2042193	d # m	-0.13906384
-1.5444256	. # m	-0.21378872
-1.3740957	ó # m	-0.17482108
-1.1892449	) # m	-0.21378872
-0.70636845	0 # m	-0.13906384
-1.281088	, # m	-0.26129344
-0.70636845	% # m	-0.13906384
-1.0377843	- # m	-0.13906384
-1.4910903	: # m	-0.13906384
-1.5377021	# | m	-0.13906388
-0.69179666	| | m	-0.13906384
-1.0209346	o | m	-0.13906384
-1.007108	b | m	-0.13906384
-1.007108	) | m	-0.13906384
-1.5901109	p o m	-0.13906384
-0.78808236	n o m	-0.24856694
-1.5868115	# o m	-0.13906384
-0.85350084	o o m	-0.13906384
-1.3027726	r o m	-0.21378872
-1.4450436	t o m	-0.13906384
-1.4002206	i o m	-0.13906384
-1.1474413	d o m	-0.20603122
-0.8696933	c o m	-0.24339557
-0.94976276	h o m	-0.13906384
-1.2595646	' o m	-0.13906384
-0.69118553	" o m	-0.13906384
-1.6056001	e m m	-0.13906384
-1.6727387	a m m	-0.13906384
-1.591232	o m m	-0.13906384
-1.649844	i m m	-0.13906384
-1.2026544	e r m	-0.21940601
-1.7120888	a r m	-0.13906384
-1.8980473	o r m	-0.13906388
-1.5939958	i r m	-0.13906384
-0.43669987	h r m	-0.13906384
-1.1589637	a l m	-0.33096036
-1.2577548	u l m	-0.13906384
-1.4200547	e i m	-0.13906384
-1.3099144	s i m	-0.13906388
-1.2647614	a i m	-0.13906384
-1.5603462	n i m	-0.13906384
-0.72068244	# i m	-0.50706124
-0.6828257	| i m	-0.25660053
-1.4278172	b i m	-0.13906384
-1.4048102	r i m	-0.13906388
-1.30163	t i m	-0.13906388
-1.0056405	l i m	-0.19178613
-1.3172259	v i m	-0.13906384
-1.4936486	d i m	-0.13906384
-1.2609878	h i m	-0.13906384
-1.4989325	z i m	-0.13906384
-0.7454097	x i m	-0.25660053
-0.7441686	' i m	-0.25660053
-0.8182193	[ i m	-0.13906384
-1.4489049	a d m	-0.25660053
-1.0443529	s u m	-0.13906384
-1.3568009	a u m	-0.13906384
-0.9080394	n u m	-0.23086329
-1.3550526	# u m	-0.13906384
-1.1748402	r u m	-0.13906384
-1.3834822	t u m	-0.13906384
-1.3129255	l u m	-0.13906384
-0.89655113	i u m	-0.19386803
-0.94208235	c u m	-0.19386803
-0.4103421	u u m	-0.13906384
-0.9803003	h u m	-0.13906384
-0.7422445	_ f m	-0.13906384
-1.7664461	# ( m	-0.13906384
-1.9377137	' ' m	-0.13906388
-1.4247034	[ [ m	-0.13906384
-0.42366374	/ k m	-0.13906384
-0.42366374	; k m	-0.13906384
-1.1571507	n _ m	-0.13906384
-0.39524966	a & m	-0.13906384
-1.5842865	n e b	-0.13906384
-1.1509925	# e b	-0.44906926
-1.4004506	r e b	-0.25660053
-1.4390186	l e b	-0.13906384
-1.7627196	d e b	-0.13906384
-1.3222219	u e b	-0.13906384
-1.3804688	h e b	-0.13906384
-1.5090803	f e b	-0.13906384
-1.07834	x e b	-0.25660053
-1.8044204	e s b	-0.13906384
-1.4050168	u s b	-0.25660053
-1.087482	e a b	-0.13906384
-1.593008	s a b	-0.13906384
-1.4727602	n a b	-0.25660053
-1.3972411	y a b	-0.13906384
-1.2942926	# a b	-0.23405035
-1.592125	b a b	-0.13906384
-1.4784383	r a b	-0.19386803
-1.5232803	t a b	-0.19386803
-1.3118769	l a b	-0.18233997
-1.6812315	i a b	-0.13906384
-1.3282535	d a b	-0.25660053
-1.490148	c a b	-0.13906388
-1.2558486	h a b	-0.13906384
-0.9878292	f a b	-0.25660053
-1.4500669	' a b	-0.13906384
-1.8840954	e n b	-0.13906384
-0.20670196	& n b	-0.35580203
-1.553784	e # b	-0.21378872
-1.4658978	s # b	-0.3029412
-1.4546863	a # b	-0.33067134
-1.5678679	n # b	-0.21378872
-1.5536586	o # b	-0.33406606
-1.3749918	r # b	-0.13906384
-1.6351837	t # b	-0.13906384
-1.468487	l # b	-0.13906384
-1.5318056	. # b	-0.21378872
-1.3890251	u # b	-0.13906384
-1.030661	h # b	-0.13906384
-1.4484833	ó # b	-0.13906384
-1.1812007	) # b	-0.23041049
-1.3806245	' # b	-0.13906384
-1.4271631	, # b	-0.21378872
-1.0887256	= # b	-0.13906384
-1.4403498	" # b	-0.13906384
-0.92700815	: # b	-0.19386803
-2.0682254	# | b	-0.13906384
-1.1019925	o | b	-0.13906384
-1.493089	s o b	-0.13906384
-1.0864847	p o b	-0.1907763
-1.6003097	n o b	-0.13906384
-0.79354775	# o b	-0.32749027
-0.9656945	| o b	-0.13906384
-1.54231	m o b	-0.13906384
-1.4581554	b o b	-0.13906384
-1.41774	r o b	-0.19386803
-1.679662	c o b	-0.13906384
-1.2941899	' o b	-0.13906384
-0.77889025	e m b	-0.21378872
-1.3556376	a m b	-0.13906384
-0.69718516	o m b	-0.28918892
-1.3125138	i m b	-0.13906384
-1.3729072	u m b	-0.13906384
-1.8166618	e r b	-0.23041049
-1.6870915	a r b	-0.21378872
-1.7502931	o r b	-0.25660053
-1.891348	a l b	-0.13906384
-0.4213926	<s> i b	-0.13906384
-1.2622299	s i b	-0.21378872
-1.3966	p i b	-0.13906384
-1.3513981	n i b	-0.13906388
-1.2366588	# i b	-0.19386803
-1.2790786	b i b	-0.13906384
-1.37033	r i b	-0.19386803
-1.5935583	t i b	-0.13906384
-1.5718374	l i b	-0.13906384
-1.1600134	d i b	-0.19178613
-1.5207042	c i b	-0.13906384
-1.3201909	u i b	-0.13906384
-1.5588675	z i b	-0.13906384
-1.1298048	x i b	-0.13906384
-1.3553255	e u b	-0.13906384
-0.98478687	p u b	-0.25660053
-1.3206813	n u b	-0.13906384
-0.95881474	# u b	-0.23086329
-1.4388566	t u b	-0.13906384
-1.3706428	l u b	-0.13906384
-1.2495996	d u b	-0.13906384
-1.4055029	g u b	-0.13906384
-1.4714233	c u b	-0.13906384
-1.1890404	u z b	-0.13906384
-1.3432893	r í b	-0.13906384
-1.8162174	' ' b	-0.20603122
-0.19504438	n < b	-0.13906384
-0.19504438	| < b	-0.13906384
-0.19504438	o < b	-0.13906384
-0.19504438	l < b	-0.13906384
-0.33416155	] < b	-0.13906384
-0.4261312	g > b	-0.13906384
-1.6781986	[ [ b	-0.13906384
-1.2547486	= " b	-0.13906384
-0.2618591	n - b	-0.25660053
-1.1660278	r - b	-0.13906384
-0.7154641	n : b	-0.13906384
-1.1516306	n _ b	-0.13906384
-0.78329164	# — b	-0.13906384
-0.88937926	s e r	-0.22224212
-0.55435175	p e r	-0.18546584
-1.3343747	n e r	-0.13906388
-0.8035835	y e r	-0.13906384
-1.6295764	# e r	-0.13906384
-1.0125645	m e r	-0.18233997
-0.70634246	b e r	-0.18742578
-1.5471399	r e r	-0.13906388
-0.7344182	t e r	-0.24008517
-1.2743106	l e r	-0.19386803
-0.8322431	v e r	-0.19386803
-0.67689043	i e r	-0.18742578
-0.8304893	d e r	-0.23356844
-0.5190271	g e r	-0.25660053
-1.224905	c e r	-0.13906384
-0.83620256	u e r	-0.16560206
-1.1864183	h e r	-0.13906384
-0.59195614	f e r	-0.1675608
-1.3965187	z e r	-0.13906384
-1.2562363	x e r	-0.13906384
-1.1965096	' e r	-0.13906384
-2.207215	e s r	-0.13906384
-0.8956069	e p r	-0.13906384
-1.0908326	a p r	-0.13906384
-0.78883916	# p r	-0.569476
-0.58929753	| p r	-0.20603122
-1.1453509	m p r	-0.13906384
-0.80913866	r p r	-0.13906384
-0.7343731	( p r	-0.13906384
-0.6150179	' p r	-0.13906384
-0.37926582	[ p r	-0.13906384
-0.9686992	_ p r	-0.13906384
-1.248933	s a r	-0.25660053
-0.70409703	p a r	-0.24948934
-0.9985023	n a r	-0.34718084
-1.2539972	y a r	-0.13906384
-1.1536124	# a r	-0.22241056
-0.8668969	m a r	-0.17822263
-1.0267731	b a r	-0.20229384
-1.1588442	r a r	-0.18254256
-1.0663302	t a r	-0.32299843
-1.141959	l a r	-0.17866467
-0.93493515	v a r	-0.13906384
-1.290641	i a r	-0.13906384
-1.1514177	d a r	-0.13906388
-1.0987563	g a r	-0.13906388
-0.93085116	c a r	-0.2058021
-0.86717314	h a r	-0.13906388
-0.40413457	é a r	-0.13906384
-1.1940117	f a r	-0.13906384
-1.037471	z a r	-0.21378872
-1.0279226	' a r	-0.18233997
-0.94135696	[ a r	-0.13906384
-0.52939284	k a r	-0.13906384
-0.6587408	- a r	-0.13906384
-1.0932472	ñ a r	-0.13906384
-0.7928951	j a r	-0.13906388
-1.7820385	e n r	-0.21378872
-0.4399702	p y r	-0.13906384
-1.4194604	e # r	-0.35580203
-1.4711757	s # r	-0.19990703
-1.3002154	a # r	-0.50093704
-1.439777	n # r	-0.3029412
-1.293233	o # r	-0.6453639
-0.95974594	m # r	-0.13906384
-1.2914845	r # r	-0.23086329
-1.3390368	t # r	-0.21378872
-1.2043167	l # r	-0.21378872
-1.2036872	. # r	-0.23405035
-1.3980622	u # r	-0.13906384
-1.0351768	h # r	-0.13906384
-1.4567227	ó # r	-0.25660053
-1.3907989	' # r	-0.13906384
-1.5352591	, # r	-0.3029412
-1.4497894	" # r	-0.13906384
-0.42934322	о # r	-0.13906384
-1.2491997	a | r	-0.13906384
-1.1438544	# | r	-0.3074813
-0.83415526	l | r	-0.13906384
-1.1451446	g | r	-0.13906384
-1.1330187	x | r	-0.13906384
-0.6190329	e o r	-0.13906384
-0.9770021	s o r	-0.13906384
-0.7998021	p o r	-0.27096742
-0.38543665	a o r	-0.13906384
-1.099246	n o r	-0.13906384
-0.7718655	y o r	-0.13906384
-0.6085585	# o r	-0.2852183
-0.4995391	| o r	-0.13906384
-0.39634395	o o r	-0.13906384
-1.1028074	m o r	-0.21378872
-0.64820015	b o r	-0.23041049
-0.71632826	t o r	-0.3132712
-1.105993	l o r	-0.13906384
-1.0442883	i o r	-0.23405035
-0.8878622	d o r	-0.16952913
-0.9319318	g o r	-0.13906384
-1.192735	c o r	-0.13906384
-0.6256922	u o r	-0.13906384
-0.4995391	h o r	-0.13906388
-0.49432296	f o r	-0.20603122
-0.95284665	z o r	-0.13906384
-1.0336119	x o r	-0.13906384
-0.7493489	' o r	-0.13906384
-0.38543665	[ o r	-0.13906384
-0.74847907	’ o r	-0.13906384
-0.95444536	e b r	-0.13906384
-1.070935	a b r	-0.20603122
-1.0546962	# b r	-0.18233997
-0.9414151	o b r	-0.23086329
-0.865919	m b r	-0.23041049
-1.2854438	i b r	-0.13906384
-0.70236593	u b r	-0.13906388
-0.26873195	< b r	-0.20603122
-0.61649185	[ b r	-0.13906384
-0.38012174	— b r	-0.13906384
-1.3031731	e r r	-0.26733088
-1.068469	a r r	-0.40028495
-1.4510499	o r r	-0.18233997
-1.2492306	e t r	-0.23041049
-0.7918971	s t r	-0.258892
-0.9954013	a t r	-0.20603122
-1.1268915	n t r	-0.20229384
-0.6869853	# t r	-0.5742494
-0.883692	l t r	-0.13906384
-0.40736297	é t r	-0.13906384
-0.6645603	x t r	-0.13906384
-0.88931245	' t r	-0.13906384
-1.4157848	e i r	-0.13906384
-1.4863459	s i r	-0.13906384
-1.094039	p i r	-0.13906384
-0.8705741	a i r	-0.23086329
-1.555185	n i r	-0.13906384
-1.4605813	# i r	-0.13906384
-1.2180699	m i r	-0.25660053
-1.4228725	b i r	-0.13906384
-1.5559521	r i r	-0.13906384
-1.5235306	t i r	-0.13906384
-1.3347955	d i r	-0.13906384
-1.4595666	c i r	-0.13906384
-1.268426	u i r	-0.13906384
-1.2569243	h i r	-0.13906384
-1.0926098	f i r	-0.13906384
-1.3080367	z i r	-0.13906384
-1.0951464	' i r	-0.13906384
-1.2821265	a d r	-0.13906384
-1.4198169	n d r	-0.13906384
-1.8736693	# d r	-0.13906384
-0.92642605	l d r	-0.13906384
-0.8167889	d d r	-0.13906384
-0.25777397	- d r	-0.13906384
-0.79072905	a g r	-0.13906388
-1.057357	n g r	-0.13906384
-0.7185665	# g r	-0.34718084
-0.27210328	o g r	-0.3029412
-1.2319137	i g r	-0.13906384
-0.38465646	k g r	-0.13906384
-0.38465646	_ g r	-0.13906384
-1.3819555	e c r	-0.13906384
-0.9266253	s c r	-0.20603122
-1.2771819	# c r	-0.24097593
-1.355139	o c r	-0.13906384
-0.8928884	l c r	-0.13906384
-1.6054802	i c r	-0.13906384
-0.8928884	[ c r	-0.13906384
-0.8244931	- c r	-0.13906384
-0.7508322	e u r	-0.20603122
-1.2596434	s u r	-0.13906384
-1.325366	a u r	-0.13906384
-1.2410349	n u r	-0.13906384
-0.8829727	o u r	-0.13906384
-0.8166059	b u r	-0.25660053
-0.52368045	t u r	-0.33820975
-1.279843	l u r	-0.13906384
-0.8841662	i u r	-0.13906384
-0.90341985	d u r	-0.13906388
-1.1754647	c u r	-0.13906388
-0.66077065	j u r	-0.13906384
-0.44209152	e h r	-0.13906384
-0.41060457	p é r	-0.13906384
-0.80890584	b é r	-0.13906384
-1.0454757	e f r	-0.13906384
-0.6059662	s f r	-0.13906384
-0.90462554	a f r	-0.13906384
-0.95263076	n f r	-0.13906384
-0.9532862	# f r	-0.19178613
-0.8226963	| f r	-0.13906384
-0.97567266	o f r	-0.13906384
-0.7224972	' f r	-0.13906384
-1.0048192	t ó r	-0.13906384
-1.7211745	# ( r	-0.13906384
-1.9089882	' ' r	-0.21378872
-0.41699618	0 < r	-0.13906384
-1.1508298	/ > r	-0.13906384
-1.3984965	[ [ r	-0.13906384
-0.8829135	' k r	-0.13906384
-1.238129	# " r	-0.13906384
-1.241068	r - r	-0.13906384
-1.2804245	o _ r	-0.13906384
-1.4622629	s e t	-0.13906384
-1.4088532	p e t	-0.13906384
-0.8200734	a e t	-0.13906384
-0.96432275	n e t	-0.19386803
-1.539326	# e t	-0.21378872
-1.1468495	| e t	-0.13906384
-1.0399015	m e t	-0.25660053
-1.4435107	r e t	-0.18233997
-1.5983194	t e t	-0.13906384
-1.101412	l e t	-0.23041049
-1.0459507	i e t	-0.18233997
-1.2969403	c e t	-0.13906384
-1.4613376	u e t	-0.13906384
-0.8686408	h e t	-0.13906384
-1.4670677	z e t	-0.13906384
-0.9810182	' e t	-0.25660053
-0.74002975	e s t	-0.4509496
-1.1527703	a s t	-0.27096742
-1.2044766	n s t	-0.13906384
-1.315021	# s t	-0.3029412
-1.1889272	o s t	-0.21378872
-1.0379918	l s t	-0.13906384
-0.48278016	i s t	-0.3309743
-0.97007143	u s t	-0.23041049
-0.61431754	í s t	-0.23086329
-0.67458296	- s t	-0.13906384
-1.4913217	e p t	-0.13906384
-1.3898389	u p t	-0.13906384
-0.8186525	s a t	-0.3029412
-1.1317486	p a t	-0.13906388
-1.0086083	n a t	-0.31801346
-1.2790287	y a t	-0.13906384
-1.1638315	# a t	-0.33791417
-1.1325281	m a t	-0.21568498
-1.271476	b a t	-0.13906384
-1.0261952	r a t	-0.3668875
-1.0184282	t a t	-0.41980496
-0.94114953	l a t	-0.20813324
-0.94581485	v a t	-0.13906384
-1.1713957	i a t	-0.19178613
-0.9018016	d a t	-0.19990703
-1.1986961	g a t	-0.21378872
-1.3236994	c a t	-0.22224212
-1.0238485	u a t	-0.13906384
-1.2150527	f a t	-0.13906384
-1.1402701	z a t	-0.21378872
-0.40815297	( a t	-0.13906384
-1.1265229	' a t	-0.13906384
-0.80279756	" a t	-0.13906384
-1.1120188	ñ a t	-0.13906384
-0.89171326	’ a t	-0.13906384
-0.8230306	e n t	-0.3962692
-0.9395061	a n t	-0.26348498
-1.2020144	o n t	-0.16560206
-0.9291036	i n t	-0.22509685
-1.001884	u n t	-0.19386803
-1.2168982	e # t	-0.20229384
-1.3109978	s # t	-0.2817519
-1.20576	a # t	-0.53891486
-1.2417257	n # t	-0.2966971
-1.2866098	o # t	-0.39024308
-1.2753683	r # t	-0.16952913
-1.1650879	t # t	-0.13906384
-1.4520109	l # t	-0.13906388
-1.5191019	. # t	-0.21378872
-0.42639452	é # t	-0.13906384
-1.2772144	z # t	-0.13906384
-1.2012169	ó # t	-0.21378872
-1.2698689	) # t	-0.21378872
-1.0233995	x # t	-0.13906384
