\data\
ngram 1=116
ngram 2=1212
ngram 3=4140
ngram 4=7592
ngram 5=9754

\1-grams:
-2.9395874	<unk>	0
0	<s>	-0.3353833
-2.1969004	</s>	0
-1.9796313	'	-0.3981178
-1.6409919	м	-0.67615193
-1.5308104	н	-0.7442711
-2.0152435	ю	-0.32325587
-1.7470033	т	-0.71494275
-1.6569592	а	-0.86569357
-1.2593639	#	-0.89219815
-2.0966425	ў	-0.43376577
-1.8116151	і	-0.6155804
-1.6735361	р	-0.59205556
-2.1438847	ё	-0.34088075
-1.9467194	х	-0.47814634
-1.6569592	в	-0.75747913
-1.7274389	о	-0.6150165
-1.7889929	б	-0.4853028
-1.6409919	л	-0.69952583
-1.6107173	с	-0.64531815
-1.7470033	ц	-0.6036713
-2.4112222	ь	-0.2975749
-1.916127	|	-0.41989934
-1.7274389	е	-0.57042396
-1.6409919	к	-0.76756144
-2.0540388	й	-0.44256288
-1.8607348	п	-0.58265793
-1.916127	ы	-0.5236534
-2.6518211	(	-0.25480968
-1.7674909	д	-0.5559555
-1.7470033	з	-0.47529858
-1.8116151	я	-0.5058143
-2.0540388	]	-0.51147455
-2.0966425	)	-0.58681333
-1.5071385	.	-0.57079804
-2.0540388	ж	-0.4557696
-1.8607348	ш	-0.51158017
-1.8354808	ч	-0.60867935
-1.7674909	у	-0.5129446
-2.6518211	²	-0.25069612
-1.9796313	э	-0.410451
-1.7674909	г	-0.5820036
-2.8169343	³	-0.25069612
-2.6518211	/	-0.25069612
-2.8169343	‰	-0.25069612
-1.5963362	,	-1.023693
-1.7889929	-	-0.28045163
-1.6107173	i	-0.4811316
-2.4112222	:	-0.44068527
-2.0966425	и	-0.37059602
-2.0152435	ф	-0.40606683
-2.3274772	1	-0.25540054
-2.4112222	8	-0.30142102
-2.1438847	t	-0.3366751
-1.9467194	r	-0.34268603
-1.916127	o	-0.3072203
-2.7389007	x	-0.25069612
-2.0152435	l	-0.36663967
-1.9467194	s	-0.37534374
-2.4112222	2	-0.30671185
-2.3274772	0	-0.29272905
-2.515069	z	-0.25069612
-1.916127	a	-0.34519675
-2.1438847	p	-0.2993019
-2.515069	9	-0.25618955
-2.7389007	7	-0.25069612
-2.0966425	m	-0.36253512
-2.1969004	"	-0.32007173
-1.8875483	e	-0.30862293
-2.1438847	n	-0.32795924
-2.1969004	d	-0.32333186
-2.1969004	h	-0.29272905
-2.2572997	u	-0.32328576
-2.6518211	’	-0.34377527
-2.1969004	[	-0.37629512
-2.8169343	«	-0.25069612
-2.2572997	»	-0.5137658
-2.8169343	;	-0.25069612
-2.0966425	c	-0.33661875
-2.3274772	5	-0.26015648
-2.7389007	6	-0.25069612
-2.8169343	*	-0.25069612
-1.916127	=	-0.3963276
-2.515069	b	-0.31048256
-2.1438847	g	-0.32978618
-2.2572997	f	-0.260635
-2.7389007	_	-0.25069612
-2.2572997	v	-0.35886383
-2.7389007	j	-0.26175344
-2.3274772	3	-0.25540054
-2.8169343	4	-0.25069612
-2.8169343	+	-0.25069612
-2.8169343	„	-0.25069612
-2.8169343	”	-0.25069612
-2.7389007	<	-0.25069612
-2.7389007	>	-0.25069612
-2.8169343	&	-0.25069612
-2.4112222	y	-0.37742934
-2.6518211	w	-0.25069612
-2.7389007	k	-0.25069612
-2.7389007	!	-0.25069612
-2.7389007	ي	-0.25069612
-2.8169343	و	-0.25069612
-2.8169343	ن	-0.25069612
-2.8169343	ف	-0.25069612
-2.8169343	ر	-0.25069612
-2.8169343	س	-0.25069612
-2.8169343	ا	-0.25069612
-2.8169343	ل	-0.25069612
-2.8169343	뮤	-0.25069612
-2.8169343	직	-0.25069612
-2.8169343	?	-0.25069612
-2.8169343	№	-0.25069612
-2.8169343	á	-0.25069612
-2.8169343	í	-0.25069612
-2.8169343	ý	-0.25069612

\2-grams:
-2.664113	а </s>	0
-2.3086066	і </s>	0
-1.6182256	ь </s>	0
-1.9690119	я </s>	0
-1.762171	. </s>	0
-1.8415074	= </s>	0
-0.35445285	직 </s>	0
-0.35445285	ý </s>	0
-0.5532565	<s> '	-0.39563468
-0.48382944	' '	-0.28386912
-1.9566346	м '	-0.16847797
-2.0184152	а '	-0.39563468
-2.078282	# '	-0.4925447
-2.127587	в '	-0.16847797
-1.925841	б '	-0.16847797
-2.0829268	д '	-0.16847797
-1.989058	з '	-0.16847797
-2.12803	я '	-0.16847797
-1.4680191	) '	-0.16847797
-1.5389137	m '	-0.16847797
-1.6616889	n '	-0.16847797
-1.5954783	' м	-0.16847797
-1.4531803	ю м	-0.16847797
-1.4204769	а м	-0.44183475
-1.4898999	# м	-0.50326145
-1.2406822	і м	-0.26382703
-1.3953316	р м	-0.25520316
-1.063155	ё м	-0.16847797
-2.0169303	в м	-0.16847797
-1.3773367	о м	-0.16847797
-2.0806634	с м	-0.16847797
-1.2572486	ь м	-0.16847797
-1.1299353	| м	-0.23562217
-1.4332719	е м	-0.20637418
-2.1162362	к м	-0.16847797
-1.4712064	й м	-0.16847797
-1.2367755	ы м	-0.35171303
-1.9317265	д м	-0.16847797
-1.6616153	з м	-0.2266391
-1.6236416	я м	-0.16847797
-1.446321	. м	-0.24789612
-1.7309849	ш м	-0.16847797
-1.3479143	у м	-0.41889036
-1.3288014	э м	-0.16847797
-1.8763607	г м	-0.16847797
-1.3596349	- м	-0.16847797
-1.4378892	i м	-0.22688249
-1.122146	« м	-0.16847797
-1.6771705	= м	-0.16847797
-1.5525173	' н	-0.16847797
-1.4862354	м н	-0.16847797
-1.5166357	н н	-0.26889938
-1.1865865	ю н	-0.24789612
-1.2418659	т н	-0.35412067
-1.2699183	а н	-0.4195824
-1.4323716	# н	-0.58072305
-1.0586959	ў н	-0.30619922
-1.0854973	і н	-0.3419932
-1.4847189	р н	-0.2938116
-1.2723469	ё н	-0.16847797
-1.4603448	х н	-0.2938116
-1.0841783	о н	-0.22677432
-1.5635556	б н	-0.16847797
-1.3916141	с н	-0.22123632
-1.2318798	ь н	-0.19658564
-1.1154755	| н	-0.35897636
-1.1460804	е н	-0.27917236
-2.0565517	к н	-0.16847797
-0.9401763	й н	-0.23464394
-1.8007333	п н	-0.16847797
-1.3487415	ы н	-0.24083383
-1.1062508	д н	-0.2650313
-1.0813379	з н	-0.35412067
-1.13391	я н	-0.24418326
-1.813973	. н	-0.16847797
-0.82634056	ж н	-0.2427991
-1.4779944	ш н	-0.2938116
-0.9653973	ч н	-0.39987817
-1.5733688	у н	-0.16847797
-0.8651073	э н	-0.22057973
-1.5147619	- н	-0.16847797
-1.2238996	i н	-0.23464394
-0.88893	и н	-0.16847797
-1.2954779	" н	-0.16847797
-0.34189534	„ н	-0.16847797
-1.6967306	' ю	-0.16847797
-2.2039738	м ю	-0.16847797
-2.3914564	н ю	-0.16847797
-1.6707677	а ю	-0.4310025
-2.5292726	# ю	-0.2938116
-1.9876993	л ю	-0.16847797
-2.2742925	с ю	-0.16847797
-1.5892247	ь ю	-0.16847797
-1.7920775	ы ю	-0.2797951
-1.4843961	( ю	-0.16847797
-1.5124326	у ю	-0.3397091
-1.1670309	« ю	-0.16847797
-1.6371036	н т	-0.27268234
-1.483191	ю т	-0.16847797
-1.3950171	а т	-0.39537826
-1.5829465	# т	-0.45484775
-1.595855	ў т	-0.16847797
-1.3886021	і т	-0.2591464
-1.8855152	р т	-0.20637418
-1.2739049	х т	-0.2938116
-1.8770732	о т	-0.16847794
-0.86020625	с т	-0.4854789
-1.7724977	ц т	-0.2938116
-1.524209	ь т	-0.16847797
-1.763183	| т	-0.16847797
-1.7178292	е т	-0.20937891
-1.3600458	к т	-0.30296814
-1.5819093	ы т	-0.16847797
-1.4274967	( т	-0.16847797
-1.4980215	я т	-0.23562217
-1.2878777	ш т	-0.2266391
-2.0032275	у т	-0.16847797
-0.9578333	э т	-0.28579643
-1.3431736	i т	-0.2591464
-0.92954	м а	-0.32756856
-0.82162905	н а	-0.4984067
-0.7051589	т а	-0.34878758
-2.2418506	а а	-0.16847797
-1.3259261	# а	-0.55558205
-0.7734768	р а	-0.3947168
-0.8674987	х а	-0.21977858
-0.66038847	в а	-0.3624074
-1.0064229	б а	-0.24789608
-0.780535	л а	-0.3515527
-1.1708385	с а	-0.24497622
-1.0800049	ц а	-0.24789612
-1.8709359	е а	-0.16847797
-0.68456566	к а	-0.43394187
-0.72979903	п а	-0.2797186
-1.1566489	( а	-0.16847797
-0.8256374	д а	-0.303847
-0.8031114	з а	-0.2680835
-1.4434257	] а	-0.16847797
-0.73612845	ж а	-0.20075376
-0.88023293	ш а	-0.19995113
-0.5927768	ч а	-0.283407
-1.9510838	у а	-0.16847797
-1.5443853	э а	-0.16847797
-0.69554526	г а	-0.328129
-0.5686952	ф а	-0.20075376
-1.4901936	[ а	-0.16847797
-1.4173938	' #	-0.16847797
-0.97740567	м #	-0.2874845
-1.5264814	н #	-0.20998907
-0.74748224	ю #	-0.19658564
-1.2060137	т #	-0.21436706
-1.2206535	а #	-0.5138955
-0.74857634	ў #	-0.33492276
-1.0538988	і #	-0.36710775
-1.2392211	р #	-0.21658656
-1.186544	ё #	-0.2266391
-0.69744253	х #	-0.30311325
-1.3974764	о #	-0.22673269
-1.5777985	б #	-0.16847797
-1.346075	л #	-0.23562217
-1.3337154	с #	-0.23080805
-1.7069871	ц #	-0.16847797
-0.79959357	ь #	-0.22299354
-1.503481	| #	-0.16847797
-0.98756707	е #	-0.3689835
-1.2325854	к #	-0.26923808
-0.6833293	й #	-0.24619044
-1.0821763	ы #	-0.34171134
-1.5765485	д #	-0.20637418
-1.118629	з #	-0.20637418
-0.95853305	я #	-0.33781514
-0.4516618	) #	-0.20075376
-0.2848289	. #	-0.5683098
-0.9169243	ж #	-0.16847797
-1.3857157	ш #	-0.16847797
-1.4799944	ч #	-0.16847797
-0.836632	у #	-0.26415262
-0.751818	² #	-0.16847797
-1.3832408	э #	-0.16847797
-1.5267569	г #	-0.16847797
-0.751818	/ #	-0.16847797
-0.061440542	, #	-0.43075576
-0.8481736	i #	-0.28134426
-0.24432865	: #	-0.16847797
-1.2783399	и #	-0.16847797
-1.355873	r #	-0.16847797
-1.1710641	l #	-0.16847797
-0.7615874	s #	-0.16847797
-1.1432455	0 #	-0.16847797
-0.92587674	z #	-0.16847797
-0.81472576	a #	-0.19337119
-1.2593454	p #	-0.16847797
-0.751818	7 #	-0.16847797
-0.7530067	m #	-0.16847797
-0.5927571	" #	-0.2266391
-0.841053	e #	-0.16847797
-0.88077617	n #	-0.16847797
-0.95968544	d #	-0.16847797
-0.40698904	» #	-0.19658564
-0.32840326	; #	-0.16847797
-1.335019	c #	-0.16847797
-0.79160047	5 #	-0.16847797
-0.6017503	6 #	-0.16847797
-0.9086225	= #	-0.30606374
-0.98980165	g #	-0.2266391
-0.9131219	f #	-0.16847797
-0.79070663	3 #	-0.2938116
-0.32840326	4 #	-0.16847797
-0.38113612	y #	-0.16847797
-0.8522047	k #	-0.16847797
-0.6017503	! #	-0.16847797
-0.32840326	ل #	-0.16847797
-0.32840326	í #	-0.16847797
-1.3203607	а ў	-0.45770758
-1.5437237	# ў	-0.49813664
-1.4148779	і ў	-0.35897636
-1.3602337	ё ў	-0.2938116
-1.0610636	о ў	-0.31746507
-2.0137203	е ў	-0.16847797
-1.8055818	ы ў	-0.26568413
-1.32125	я ў	-0.22057973
-2.161974	у ў	-0.16847797
-2.1390514	i ў	-0.16847797
-1.6495062	' і	-0.16847797
-0.9347082	м і	-0.29726171
-0.9914805	н і	-0.39719838
-2.315994	а і	-0.16847797
-1.4101434	# і	-0.5827471
-1.7646586	і і	-0.26568413
-1.1000353	х і	-0.2427991
-0.99122024	в і	-0.26393238
-1.64341	б і	-0.16847797
-0.9590399	л і	-0.2913405
-1.3510977	с і	-0.16847797
-1.2635688	ц і	-0.19669919
-2.1110394	е і	-0.16847797
-0.9523345	к і	-0.3794414
-1.036322	п і	-0.20405066
-1.7478683	ы і	-0.2591464
-1.3237075	з і	-0.18701287
-1.0799365	г і	-0.23464394
-1.3201042	ф і	-0.2266391
-1.2540925	т р	-0.29392615
-1.2326667	а р	-0.43124634
-1.4927472	# р	-0.61037457
-1.3614814	ў р	-0.2427991
-1.5802996	і р	-0.39563468
-0.8887663	ё р	-0.16847797
-1.7234224	х р	-0.16847797
-1.0453396	о р	-0.22267048
-1.2232949	б р	-0.3397091
-1.9443724	с р	-0.16847797
-1.732684	| р	-0.16847797
-1.1597819	е р	-0.3141894
-1.2777148	к р	-0.2939516
-0.73030216	п р	-0.5493618
-1.3018742	ы р	-0.22123632
-1.5650555	д р	-0.24789612
-1.85869	з р	-0.16847797
-1.3734466	я р	-0.20637418
-1.8817198	. р	-0.16847797
-1.616636	у р	-0.19658564
-1.5492905	э р	-0.21436706
-0.99410194	г р	-0.48099515
-1.5949374	i р	-0.27069595
-1.2999983	ф р	-0.16847797
-1.4948766	[ р	-0.16847797
-1.6910728	= р	-0.16847797
-2.2105176	н ё	-0.16847797
-2.209867	а ё	-0.16847797
-2.3778617	# ё	-0.16847797
-1.6256745	в ё	-0.16847797
-2.00909	л ё	-0.16847797
-2.0865905	с ё	-0.16847797
-2.112676	ц ё	-0.16847797
-2.2618115	ы ё	-0.16847797
-2.0385592	з ё	-0.16847797
-1.4757842	а х	-0.39436495
-2.0728164	# х	-0.22688249
-1.6218717	і х	-0.39563468
-1.945862	р х	-0.16847797
-1.8065279	х х	-0.16847797
-1.6537751	с х	-0.2266391
-1.471486	е х	-0.21658656
-1.4049213	ы х	-0.31852338
-1.406366	я х	-0.26568413
-1.9800338	. х	-0.16847797
-1.8942332	у х	-0.16847797
-1.856124	э х	-0.16847797
-1.8724961	i х	-0.16847797
-1.5554047	[ х	-0.16847797
-1.2673343	<s> в	-0.16847797
-2.2013335	н в	-0.16847797
-1.4669064	т в	-0.26755682
-1.3889977	а в	-0.49988648
-1.3808349	# в	-0.58653843
-1.7678953	ў в	-0.16847797
-1.4662687	і в	-0.26568413
-2.015038	р в	-0.16847797
-1.0650496	ё в	-0.16847797
-1.0000192	о в	-0.4649338
-1.8057477	б в	-0.16847797
-1.2741522	с в	-0.30871975
-1.9425654	ц в	-0.16847797
-1.4950206	ь в	-0.16847797
-1.3008667	| в	-0.16847797
-1.6933739	е в	-0.24789612
-1.7279147	к в	-0.2427991
-1.4559509	ы в	-0.22677432
-1.4016185	( в	-0.16847797
-1.7610099	д в	-0.2266391
-1.1867511	з в	-0.20637418
-1.4807708	я в	-0.21436706
-1.8744494	. в	-0.16847797
-1.9510838	у в	-0.16847797
-1.1654441	э в	-0.2938116
-1.8834759	г в	-0.16847797
-1.4901936	[ в	-0.16847797
-1.3979886	м о	-0.22677432
-1.54513	н о	-0.20405066
-1.1798044	т о	-0.26151404
-2.4920666	# о	-0.16847797
-2.1016726	і о	-0.16847797
-1.2400739	р о	-0.2937964
-0.96838593	х о	-0.2591464
-1.1136332	в о	-0.24585007
-1.0112075	б о	-0.2938116
-1.1864513	л о	-0.24661624
-1.9663198	с о	-0.16847797
-1.7672439	ц о	-0.2938116
-2.0639217	е о	-0.16847797
-1.1080395	к о	-0.24910767
-1.1288885	п о	-0.21436706
-1.4119464	д о	-0.22677432
-1.3137133	з о	-0.35897636
-1.6420416	ж о	-0.16847797
-1.285742	ш о	-0.16847797
-1.6166351	ч о	-0.16847797
-0.93038386	г о	-0.3729466
-0.5885372	и о	-0.26568413
-1.0612326	ф о	-0.24789612
-1.715033	а б	-0.23720683
-1.3692087	# б	-0.5736733
-1.8257182	ў б	-0.16847797
-1.958128	і б	-0.16847797
-2.087134	р б	-0.16847797
-1.8903778	о б	-0.16847797
-1.7792753	| б	-0.16847797
-2.098772	е б	-0.16847797
-1.5029602	й б	-0.16847797
-1.9268813	ы б	-0.16847797
-1.4382958	( б	-0.16847797
-2.005798	д б	-0.16847797
-1.7080337	з б	-0.16847797
-1.8592114	я б	-0.2938116
-1.6588707	ж б	-0.16847797
-1.6448293	у б	-0.16847797
-1.7999281	э б	-0.16847797
-1.6262605	- б	-0.16847797
-1.0287025	: б	-0.16847797
-1.5240871	[ б	-0.16847797
-2.1911883	н л	-0.16847797
-1.6304848	т л	-0.22688249
-1.302364	а л	-0.57895076
-1.674651	# л	-0.32963514
-1.3554556	ў л	-0.16847797
-1.3031077	і л	-0.21436706
-2.0056503	р л	-0.16847797
-1.5302659	ё л	-0.16847797
-1.1483163	о л	-0.33425537
-1.0052348	б л	-0.2338846
-2.0679152	л л	-0.16847797
-1.4955248	с л	-0.23821826
-1.346099	е л	-0.2836436
-1.2105148	к л	-0.28579643
-1.6896883	й л	-0.16847797
-1.4160938	п л	-0.2266391
-1.4528956	ы л	-0.22677432
-1.755302	д л	-0.16847797
-1.8417004	з л	-0.16847797
-1.2810049	я л	-0.2266391
-1.8672986	. л	-0.16847797
-1.5053725	ш л	-0.16847797
-1.8251055	ч л	-0.16847797
-1.1865164	у л	-0.27253184
-1.5395348	э л	-0.2938116
-1.2856753	г л	-0.16847797
-1.5857223	i л	-0.24789612
-1.4092251	и л	-0.16847797
-1.5843331	' с	-0.16847797
-1.8536645	м с	-0.16847797
-1.5295551	н с	-0.3811018
-1.3551996	а с	-0.4069947
-1.2901373	# с	-0.60557467
-0.97492754	ў с	-0.24585007
-1.2376698	і с	-0.29879183
-1.6514131	р с	-0.16847797
-1.519321	ё с	-0.16847797
-1.209284	о с	-0.21977858
-1.5900948	б с	-0.16847797
-1.7438107	с с	-0.16847797
-1.4784051	ь с	-0.16847797
-1.0062151	| с	-0.20075376
-1.2082493	е с	-0.25348482
-1.7182119	к с	-0.20637418
-1.2408887	й с	-0.2427991
-1.3633568	ы с	-0.19337119
-1.9150268	д с	-0.16847797
-1.4707401	я с	-0.21436706
-1.605138	ж с	-0.16847797
-1.1831498	у с	-0.18701287
-1.1593719	э с	-0.16847797
-1.8624706	г с	-0.16847797
-0.7960282	/ с	-0.16847797
-1.351119	- с	-0.16847797
-1.7502562	i с	-0.2938116
-1.5293629	ф с	-0.16847797
-1.4764404	[ с	-0.16847797
-1.116848	« с	-0.16847797
-1.750289	н ц	-0.21658656
-1.224845	ю ц	-0.16847797
-2.0851908	т ц	-0.16847797
-1.5035126	а ц	-0.32709613
-1.6878787	# ц	-0.42592314
-1.5937196	і ц	-0.20637418
-1.6855878	р ц	-0.24789612
-2.0653622	о ц	-0.16847797
-1.8449348	б ц	-0.16847797
-1.4205264	с ц	-0.27210745
-1.1634582	ц ц	-0.42592314
-1.2845234	е ц	-0.24585007
-1.9619117	к ц	-0.2938116
-1.8927063	п ц	-0.16847797
-1.5819093	ы ц	-0.2591464
-1.8433353	я ц	-0.16847797
-1.6475792	ж ц	-0.16847797
-1.8302212	у ц	-0.16847797
-1.7827035	э ц	-0.16847797
-1.6106544	- ц	-0.16847797
-1.4578009	i ц	-0.16847797
-1.4333844	и ц	-0.16847797
-1.6875145	н ь	-0.20637418
-1.2754148	л ь	-0.37760174
-2.1281056	с ь	-0.16847797
-1.0354208	ц ь	-0.52238786
-2.0944374	з ь	-0.16847797
-1.3057475	<s> |	-0.16847797
-2.3461916	н |	-0.16847797
-2.164798	а |	-0.20075376
-1.6646178	# |	-0.2836069
-2.199753	і |	-0.16847797
-2.1471093	р |	-0.16847797
-1.6090437	ё |	-0.16847797
-1.3019215	ь |	-0.16847797
-1.9666445	е |	-0.16847797
-1.9747666	ы |	-0.2938116
-2.0989945	я |	-0.16847797
-2.0886722	у |	-0.16847797
-1.667921	- |	-0.16847797
-1.4581146	t |	-0.16847797
-1.7063054	e |	-0.16847797
-1.6246607	' е	-0.16847797
-1.1621485	м е	-0.27614826
-1.0893131	н е	-0.31677327
-1.8662994	т е	-0.16847797
-1.5926816	а е	-0.3559349
-1.8811909	# е	-0.3125281
-1.7427559	х е	-0.16847797
-0.988772	в е	-0.26055932
-2.0553708	о е	-0.16847797
-0.9329918	б е	-0.33155394
-0.9564424	л е	-0.2645383
-1.4183961	с е	-0.23926805
-1.1621597	ц е	-0.23464394
-2.1581862	к е	-0.16847797
-1.0322671	п е	-0.25336486
-1.7244899	ы е	-0.2266391
-1.3137133	з е	-0.18844712
-1.8356096	я е	-0.16847797
-1.6420416	ж е	-0.16847797
-1.9922858	у е	-0.16847797
-1.4678494	г е	-0.2266391
-1.3085014	ф е	-0.2266391
-0.350942	’ е	-0.16847797
-1.5339483	н к	-0.28724277
-1.464887	т к	-0.21436706
-1.3878037	а к	-0.3374133
-1.360695	# к	-0.58492696
-1.5657002	ў к	-0.20637418
-1.4637352	і к	-0.28197178
-1.5077057	р к	-0.26197243
-1.4916774	о к	-0.21436706
-1.8885972	л к	-0.2938116
-0.92935413	с к	-0.5736497
-1.3681463	ц к	-0.30296814
-1.4894111	ь к	-0.16847797
-1.7182018	| к	-0.16847797
-1.4332719	е к	-0.22688249
-1.6896883	й к	-0.16847797
-1.36834	ы к	-0.30296814
-1.755302	д к	-0.16847797
-1.8417004	з к	-0.16847797
-1.4774015	я к	-0.19658564
-1.446321	. к	-0.16847797
-1.5053725	ш к	-0.16847797
-1.5987604	ч к	-0.2266391
-1.2597605	у к	-0.21977858
-1.3288014	э к	-0.24789612
-1.3596349	- к	-0.2938116
-1.3278004	i к	-0.20637418
-1.4855607	[ к	-0.16847797
-1.6771705	= к	-0.16847797
-1.5209788	а й	-0.36003894
-2.709627	# й	-0.16847797
-1.6329178	і й	-0.2427991
-1.0965432	ё й	-0.27069595
-1.540139	о й	-0.16847797
-1.305425	е й	-0.22677432
-1.7987771	ы й	-0.2266391
-1.7119415	я й	-0.22688249
-2.1462903	у й	-0.16847797
-1.6304133	э й	-0.16847797
-2.1230495	i й	-0.16847797
-1.2991047	<s> п	-0.16847797
-1.5325897	м п	-0.16847797
-1.6594783	а п	-0.36684126
-1.3357643	# п	-0.74599814
-2.1221168	р п	-0.16847797
-1.5243802	с п	-0.2514589
-1.1506376	| п	-0.26568413
-1.9309244	п п	-0.16847797
-2.12789	ы п	-0.16847797
-1.4550152	( п	-0.16847797
-2.037192	д п	-0.16847797
-1.88417	я п	-0.16847797
-1.282341	у п	-0.22677432
-1.1704909	- п	-0.2266391
-1.1524997	« п	-0.16847797
-1.7598088	= п	-0.16847797
-0.6439424	> п	-0.16847797
-1.4133656	м ы	-0.20937891
-1.0418934	н ы	-0.5791328
-1.0626538	т ы	-0.24528125
-0.95510197	р ы	-0.3227695
-1.2006334	в ы	-0.23931251
-1.4248015	б ы	-0.24789612
-1.3410838	л ы	-0.20637418
-2.0309262	с ы	-0.16847797
-0.75620824	ц ы	-0.3794414
-1.6946875	п ы	-0.16847797
-1.0671406	д ы	-0.22326234
-1.3339369	з ы	-0.16847797
-0.97445333	ж ы	-0.20637418
-0.8903998	ш ы	-0.25892794
-0.6350984	ч ы	-0.32069695
-1.3478907	<s> (	-0.16847797
-1.7661333	' (	-0.16847797
-1.8893923	# (	-0.23323278
-2.1000342	н д	-0.21436706
-1.4884007	ю д	-0.16847797
-1.4295698	а д	-0.39763886
-1.3681352	# д	-0.58492696
-1.376922	ў д	-0.24789612
-1.9503133	і д	-0.16847797
-2.0760725	р д	-0.16847797
-1.2988584	о д	-0.29702985
-1.8532151	б д	-0.16847797
-2.1308446	л д	-0.16847797
-1.1429948	| д	-0.26568413
-1.566631	е д	-0.26737088
-1.7360219	ы д	-0.24789612
-1.4328626	( д	-0.16847797
-1.7969289	д д	-0.2938116
-1.486464	з д	-0.16847797
-1.5015554	я д	-0.20637418
-1.4813596	у д	-0.23562217
-1.7912304	э д	-0.16847797
-1.5190802	[ д	-0.16847797
-1.7279099	= д	-0.16847797
-1.2829291	<s> з	-0.16847797
-1.6307402	' з	-0.16847797
-2.2559516	н з	-0.16847797
-1.224845	ю з	-0.16847797
-1.5466713	а з	-0.25379598
-1.4066149	# з	-0.47279733
-1.8083972	ў з	-0.16847797
-1.5937196	і з	-0.24497622
-1.8770732	о з	-0.24789612
-2.1212769	л з	-0.16847797
-1.763183	| з	-0.16847797
-1.9082873	е з	-0.16847797
-1.7302177	ы з	-0.2266391
-1.4274967	( з	-0.16847797
-0.9070443	д з	-0.4306274
-2.010381	я з	-0.16847797
-1.9120837	. з	-0.16847797
-1.6352267	у з	-0.16847797
-1.7827035	э з	-0.16847797
-1.6106544	- з	-0.16847797
-1.9775637	i з	-0.16847797
-1.138439	« з	-0.16847797
-1.6495062	' я	-0.16847797
-1.405609	м я	-0.24789612
-1.3091753	н я	-0.23636338
-1.6550435	а я	-0.39358547
-1.5295031	# я	-0.45869744
-1.1982777	і я	-0.24621242
-0.93982095	в я	-0.2836436
-1.8971862	о я	-0.16847797
-1.1908718	л я	-0.20798954
-1.5189892	с я	-0.19995113
-1.0886751	ц я	-0.22677432
-2.1110394	е я	-0.16847797
-1.6765217	п я	-0.16847797
-1.1984259	ы я	-0.36282697
-1.714201	з я	-0.16847797
-2.0461693	я я	-0.16847797
-1.6288233	i я	-0.2266391
-1.1683172	и я	-0.16847797
-0.9331824	’ я	-0.16847797
-2.6013017	а ]	-0.16847797
-1.970845	р ]	-0.2938116
-2.2240942	е ]	-0.16847797
-2.2242656	ы ]	-0.16847797
-2.0131037	з ]	-0.16847797
-1.9388518	я ]	-0.2938116
-0.28457028	] ]	-0.29392615
-2.1462903	у ]	-0.16847797
-2.0167725	г ]	-0.16847797
-1.1735212	8 ]	-0.16847797
-1.1706831	5 ]	-0.16847797
-1.7112234	' )	-0.16847797
-2.4244864	н )	-0.16847797
-2.6212463	а )	-0.16847797
-2.3059154	с )	-0.16847797
-1.8055818	ы )	-0.16847797
-2.1755831	я )	-0.16847797
-1.4989042	] )	-0.16847797
-1.7511766	. )	-0.24789612
-0.8219423	² )	-0.16847797
-1.3193415	0 )	-0.16847797
-1.2087651	м .	-0.4310025
-1.6957314	н .	-0.21436706
-1.330257	т .	-0.30296814
-1.6150284	а .	-0.482155
-1.5196744	ў .	-0.24789612
-1.2859987	і .	-0.48583716
-1.6197325	р .	-0.24789612
-1.4535199	х .	-0.2938116
-1.3906217	в .	-0.2427991
-1.394754	л .	-0.41889036
-1.4708588	с .	-0.4925447
-1.864089	ц .	-0.16847797
-1.2257626	ь .	-0.2938116
-1.325231	е .	-0.57172596
-1.5404946	к .	-0.39563468
-1.2232349	й .	-0.27069595
-1.7890509	п .	-0.16847797
-1.646567	ы .	-0.27069595
-1.8539933	д .	-0.16847797
-1.765489	з .	-0.16847797
-1.2601596	я .	-0.57172596
-0.45934182	) .	-0.57172596
-1.675323	ш .	-0.16847797
-1.5650772	ч .	-0.24789612
-1.4281178	у .	-0.39563468
-0.78608054	² .	-0.16847797
-1.4283736	г .	-0.2266391
-0.34101215	‰ .	-0.16847797
-1.4066066	i .	-0.39563468
-1.0375916	ф .	-0.27069595
-1.1068435	8 .	-0.16847797
-1.586657	a .	-0.16847797
-1.3662732	p .	-0.16847797
-1.288758	" .	-0.16847797
-0.5460378	» .	-0.39563468
-0.8284487	5 .	-0.16847797
-1.0973009	3 .	-0.16847797
-0.34101215	” .	-0.16847797
-2.4076574	н ж	-0.16847797
-2.0287232	а ж	-0.22688249
-1.9252781	# ж	-0.30296814
-1.6572449	ў ж	-0.16847797
-2.2585828	і ж	-0.16847797
-2.2018726	р ж	-0.16847797
-1.955875	о ж	-0.16847797
-1.6036893	е ж	-0.21658656
-1.3171946	д ж	-0.24789612
-1.9208992	у ж	-0.16847797
-2.1230495	i ж	-0.16847797
-2.3184404	н ш	-0.16847797
-1.5098883	ю ш	-0.16847797
-2.497733	а ш	-0.16847797
-1.7891397	# ш	-0.2514589
-1.3896823	ў ш	-0.24789612
-1.9824532	і ш	-0.16847797
-1.7083985	р ш	-0.26568413
-1.6919993	о ш	-0.16847797
-1.5555013	ь ш	-0.16847797
-1.5665127	| ш	-0.24789612
-1.7437441	е ш	-0.2427991
-1.271201	й ш	-0.2266391
-1.9549745	ы ш	-0.16847797
-2.037192	д ш	-0.16847797
-1.5159857	я ш	-0.39563468
-2.0624971	у ш	-0.16847797
-1.6507744	- ш	-0.16847797
-2.125133	н ч	-0.16847797
-0.9825481	ю ч	-0.24789612
-1.6572553	а ч	-0.36647683
-1.6969265	# ч	-0.4886194
-1.843759	ў ч	-0.16847797
-1.4897598	і ч	-0.2591464
-1.9146413	р ч	-0.2266391
-1.904103	о ч	-0.16847797
-1.5615193	| ч	-0.2938116
-1.9406686	е ч	-0.16847797
-1.5112752	й ч	-0.2938116
-1.5986173	ы ч	-0.2427991
-2.0264733	д ч	-0.16847797
-1.8756901	я ч	-0.21436706
-0.6294282	ш ч	-0.3549667
-1.3731377	у ч	-0.3415253
-1.5906652	э ч	-0.16847797
-1.6338874	i ч	-0.16847797
-1.1643485	м у	-0.22677432
-1.3065516	н у	-0.32488987
-0.9615418	т у	-0.28288728
-1.6170844	# у	-0.33561242
-1.3193226	р у	-0.22677432
-1.5152663	х у	-0.2938116
-1.1947093	в у	-0.2266391
-1.1096805	б у	-0.28375387
-1.4260519	л у	-0.21436706
-1.7862803	с у	-0.20637418
-1.992215	ц у	-0.16847797
-1.023246	к у	-0.34243366
-1.6677159	п у	-0.16847797
-1.4328626	( у	-0.16847797
-1.4171212	д у	-0.16847797
-1.9043208	з у	-0.16847797
-1.9200184	. у	-0.16847797
-1.397564	ж у	-0.16847797
-1.8684883	ч у	-0.16847797
-1.174224	г у	-0.21977858
-1.6183873	- у	-0.16847797
-2.32912	м ²	-0.16847797
-2.9564478	# ²	-0.16847797
-1.5963324	m ²	-0.16847797
-1.7206622	м э	-0.16847797
-1.190383	т э	-0.240274
-2.078282	# э	-0.21436706
-0.99441206	р э	-0.26197243
-1.9807968	л э	-0.16847797
-1.4005775	ц э	-0.2427991
-2.192954	е э	-0.16847797
-1.2159032	д э	-0.2835333
-1.7008771	ж э	-0.16847797
-1.2141868	ч э	-0.2938116
-2.1165264	у э	-0.16847797
-1.9976956	г э	-0.16847797
-1.3813045	" э	-0.16847797
-1.2861164	<s> г	-0.16847797
-1.6369059	' г	-0.16847797
-1.7539375	н г	-0.16847797
-1.4295698	а г	-0.40746215
-1.3875092	# г	-0.49881026
-1.6010908	ў г	-0.2938116
-2.1241953	і г	-0.16847797
-2.0760725	р г	-0.16847797
-1.2988584	о г	-0.24789608
-1.0188372	| г	-0.26755682
-1.916159	е г	-0.2938116
-1.7364258	й г	-0.16847797
-1.7360219	ы г	-0.16847797
-1.4328626	( г	-0.16847797
-1.6578555	я г	-0.16847797
-1.5746843	э г	-0.16847797
-1.1595039	- г	-0.2938116
-1.9889504	i г	-0.16847797
-1.3494918	" г	-0.16847797
-1.5190802	[ г	-0.16847797
-1.7279099	= г	-0.16847797
-2.3431146	м ³	-0.16847797
-1.5239819	] /	-0.16847797
-0.35673398	³ /	-0.16847797
-0.8313903	/ /	-0.16847797
-2.9934864	# ‰	-0.16847797
-1.5788659	' ,	-0.16847797
-1.4979624	м ,	-0.39563468
-2.0255175	н ,	-0.2938116
-1.4389184	ю ,	-0.16847797
-1.8274693	т ,	-0.2938116
-1.6293454	а ,	-0.6966647
-1.5513731	ў ,	-0.2938116
-1.4562225	і ,	-0.4925447
-1.9786463	р ,	-0.16847797
-1.6929977	х ,	-0.16847797
-1.9827734	о ,	-0.16847797
-2.043507	л ,	-0.16847797
-1.9123627	ц ,	-0.16847797
-1.2475609	ь ,	-0.2938116
-1.4255029	е ,	-0.4925447
-1.9141817	к ,	-0.2938116
-1.068024	й ,	-0.39563468
-1.5465127	ы ,	-0.39563468
-1.9069118	д ,	-0.16847797
-1.4674473	я ,	-0.39563468
-1.4215343	) ,	-0.16847797
-1.6499523	. ,	-0.2938116
-1.8077624	ч ,	-0.16847797
-1.4492565	у ,	-0.39563468
-1.5722562	i ,	-0.27069595
-1.1231718	8 ,	-0.16847797
-1.1240563	2 ,	-0.16847797
-1.3127466	" ,	-0.16847797
-1.2872108	» ,	-0.16847797
-1.1150895	3 ,	-0.16847797
-0.63170964	> ,	-0.16847797
-2.1082404	н -	-0.16847797
-1.7876413	а -	-0.26197243
-2.087134	р -	-0.16847797
-1.5770319	ё -	-0.16847797
-2.1406279	л -	-0.16847797
-2.166775	с -	-0.16847797
-2.0339093	я -	-0.16847797
-1.8750553	ч -	-0.16847797
-2.0259743	у -	-0.16847797
-1.3954735	- -	-0.16847797
-0.99899876	0 -	-0.2938116
-1.7168145	a -	-0.16847797
-1.6637006	e -	-0.16847797
-1.6107122	n -	-0.16847797
-1.2828236	h -	-0.16847797
-1.5471076	c -	-0.16847797
-1.1452004	5 -	-0.16847797
-0.72370017	= -	-0.6966647
-0.6412919	! -	-0.16847797
-0.34902656	? -	-0.16847797
-1.5843331	' i	-0.16847797
-1.293894	м i	-0.22677432
-1.2518324	н i	-0.25348482
-2.2170146	а i	-0.16847797
-1.8573993	# i	-0.22677432
-1.403117	в i	-0.16847797
-1.5900948	б i	-0.16847797
-1.3181531	л i	-0.23195927
-1.4904783	с i	-0.16847797
-1.7321457	ц i	-0.16847797
-1.1523331	к i	-0.29976097
-1.8377934	п i	-0.16847797
-1.8445277	ы i	-0.2938116
-1.6507465	з i	-0.16847797
-1.6542734	. i	-0.16847797
-1.4489801	г i	-0.16847797
-1.3227946	i i	-0.2735364
-0.7109719	t i	-0.2266391
-1.5199873	r i	-0.16847797
-1.2650478	l i	-0.16847797
-1.5548859	s i	-0.16847797
-1.6397592	a i	-0.16847797
-1.5892919	e i	-0.16847797
-1.5469227	n i	-0.16847797
-0.7679395	d i	-0.16847797
-0.98115045	h i	-0.16847797
-1.2590607	c i	-0.16847797
-1.0701588	b i	-0.16847797
-0.5840753	v i	-0.16847797
-0.7960282	w i	-0.16847797
-2.73757	а :	-0.16847797
-2.3651516	і :	-0.16847797
-2.348315	ы :	-0.16847797
-2.071836	. :	-0.16847797
-2.2293174	i :	-0.16847797
-2.200158	н и	-0.16847797
-2.2167149	р и	-0.16847797
-1.9565456	б и	-0.16847797
-2.001842	л и	-0.16847797
-2.0768034	с и	-0.16847797
-2.1012585	ц и	-0.16847797
-1.9907985	п и	-0.16847797
-1.4861522	и и	-0.16847797
-1.3474028	ф и	-0.16847797
-1.1729823	« и	-0.16847797
-1.9588739	н ф	-0.16847797
-2.1867483	а ф	-0.24497622
-1.8584772	# ф	-0.2591464
-2.2431116	і ф	-0.16847797
-2.187521	р ф	-0.16847797
-2.180411	о ф	-0.16847797
-2.2742925	с ф	-0.16847797
-1.8503652	| ф	-0.16847797
-2.2082453	е ф	-0.16847797
-2.2066438	ы ф	-0.16847797
-2.1311533	у ф	-0.16847797
-1.5663667	[ ф	-0.16847797
-2.6342072	# 1	-0.16847797
-1.9125401	| 1	-0.16847797
-1.5224966	( 1	-0.16847797
-1.8358686	, 1	-0.16847797
-1.1853248	1 1	-0.16847797
-1.6010176	[ 1	-0.16847797
-2.8804166	# 8	-0.16847797
-1.1883849	1 8	-0.16847797
-0.5989741	8 8	-0.16847797
-1.1235284	9 8	-0.16847797
-1.1883849	3 8	-0.16847797
-2.5785782	# t	-0.16847797
-2.1556659	i t	-0.16847797
-1.1948632	o t	-0.16847797
-0.9469914	s t	-0.16847797
-1.8211455	a t	-0.16847797
-1.7636471	e t	-0.16847797
-1.6937519	n t	-0.16847797
-1.398405	u t	-0.16847797
-1.1826849	y t	-0.16847797
-2.181299	# r	-0.16847797
-1.1771482	t r	-0.16847797
-1.616123	r r	-0.16847797
-1.684127	o r	-0.16847797
-1.5235114	a r	-0.2938116
-1.2203444	e r	-0.16847797
-1.3776113	u r	-0.16847797
-1.7853713	= r	-0.16847797
-1.104444	b r	-0.16847797
-1.0866513	g r	-0.16847797
-1.300513	f r	-0.16847797
-0.6466091	< r	-0.16847797
-0.9355905	k r	-0.16847797
-0.3517312	á r	-0.16847797
-1.4822474	i o	-0.2427991
-0.9129948	t o	-0.16847797
-1.0885754	r o	-0.16847797
-1.4238329	o o	-0.16847797
-0.6457184	x o	-0.16847797
-1.3098164	l o	-0.16847797
-1.6448619	s o	-0.16847797
-1.1968458	p o	-0.2938116
-0.98958945	m o	-0.16847797
-0.783165	d o	-0.24789612
-0.7421452	h o	-0.24789612
-1.5772173	c o	-0.16847797
-1.374449	g o	-0.16847797
-0.6457184	_ o	-0.16847797
-0.8153174	w o	-0.16847797
-1.5463065	( x	-0.16847797
-1.7952838	o x	-0.16847797
-1.6655786	i l	-0.24789612
-1.4381266	o l	-0.16847797
-1.0583285	l l	-0.16847797
-1.6653317	s l	-0.16847797
-1.0308982	z l	-0.16847797
-1.2871093	a l	-0.16847797
-1.4752531	e l	-0.2938116
-1.3858097	u l	-0.16847797
-1.5963391	c l	-0.16847797
-1.803289	= l	-0.16847797
-0.5284017	b l	-0.24789612
-1.3084407	f l	-0.16847797
-2.4992607	# s	-0.16847797
-1.9800338	. s	-0.16847797
-1.6547558	i s	-0.16847797
-1.4628801	t s	-0.16847797
-1.616123	r s	-0.16847797
-1.4285454	o s	-0.16847797
-1.5893269	l s	-0.16847797
-1.381512	s s	-0.16847797
-1.2808847	a s	-0.16847797
-1.4803672	p s	-0.16847797
-1.7153518	e s	-0.16847797
-1.3906548	n s	-0.16847797
-0.62995654	u s	-0.16847797
-1.5834982	c s	-0.16847797
-2.8804166	# 2	-0.16847797
-1.7655684	- 2	-0.16847797
-1.189997	2 2	-0.16847797
-1.5782666	= 2	-0.16847797
-0.35582006	+ 2	-0.16847797
-2.0606234	. 0	-0.16847797
-1.8358686	, 0	-0.16847797
-1.1870766	8 0	-0.16847797
-0.59831285	2 0	-0.24789612
-0.75131834	0 0	-0.16847797
-0.82731605	7 0	-0.16847797
-2.2573018	# z	-0.39563468
-1.0485326	z z	-0.16847797
-1.8783584	a z	-0.16847797
-1.5902367	m z	-0.16847797
-2.6244206	# a	-0.16847797
-1.4194739	- a	-0.16847797
-2.064357	i a	-0.16847797
-0.9029913	r a	-0.16847797
-0.635724	l a	-0.20075376
-1.1245464	s a	-0.16847797
-1.0244656	z a	-0.16847797
-1.4749641	p a	-0.16847797
-0.98958945	m a	-0.16847797
-1.7063054	e a	-0.16847797
-1.1368772	n a	-0.16847797
-1.0082057	h a	-0.16847797
-0.73492825	c a	-0.22688249
-1.10222	b a	-0.16847797
-0.50428057	j a	-0.2938116
-2.21764	# p	-0.16847797
-1.756639	. p	-0.2938116
-2.1556659	i p	-0.16847797
-1.6511232	r p	-0.16847797
-1.4529066	o p	-0.16847797
-1.5514007	a p	-0.16847797
-1.5084395	p p	-0.16847797
-1.5609789	m p	-0.16847797
-1.4913241	e p	-0.16847797
-1.5359776	( 9	-0.16847797
-0.87599176	1 9	-0.16847797
-1.1261766	9 9	-0.16847797
-1.8834164	= 9	-0.16847797
-2.9773376	# 7	-0.16847797
-0.81176114	9 7	-0.16847797
-2.004255	# m	-0.21658656
-1.7140061	- m	-0.16847797
-1.9093075	i m	-0.16847797
-1.6438938	r m	-0.16847797
-1.7196822	o m	-0.16847797
-1.6139464	l m	-0.16847797
-1.5456777	a m	-0.16847797
-0.9972477	m m	-0.24789612
-1.4859006	e m	-0.16847797
-0.35354376	& m	-0.16847797
-2.225288	# "	-0.16847797
-1.9472743	ў "	-0.16847797
-2.281876	ы "	-0.16847797
-1.5059228	] "	-0.16847797
-1.4956055	и "	-0.16847797
-1.832001	a "	-0.16847797
-1.7739857	e "	-0.16847797
-1.5622232	= "	-0.16847797
-2.605497	# e	-0.16847797
-1.453401	t e	-0.16847797
-0.9016913	r e	-0.2266391
-1.3066838	l e	-0.16847797
-1.3743031	s e	-0.16847797
-1.0223424	z e	-0.16847797
-0.93625176	p e	-0.16847797
-1.4547102	e e	-0.16847797
-1.3824532	n e	-0.16847797
-1.04701	d e	-0.16847797
-1.2970644	h e	-0.16847797
-1.3031902	c e	-0.16847797
-1.7681636	= e	-0.16847797
-1.0825763	g e	-0.2938116
-1.0041226	f e	-0.16847797
-0.5925841	v e	-0.16847797
-2.008918	# n	-0.30296814
-1.3784755	i n	-0.21436706
-1.1948632	o n	-0.16847797
-1.2966167	a n	-0.16847797
-1.5084395	p n	-0.16847797
-1.4913241	e n	-0.16847797
-1.3637202	d n	-0.16847797
-1.0967345	u n	-0.16847797
-0.8232795	w n	-0.16847797
-1.7262166	' d	-0.16847797
-2.5963411	# d	-0.2938116
-1.890811	| d	-0.16847797
-1.1976385	o d	-0.24789612
-1.5572	a d	-0.16847797
-1.7739857	e d	-0.16847797
-1.15334	n d	-0.24789612
-1.1849793	y d	-0.16847797
-2.7866797	# h	-0.16847797
-1.492626	t h	-0.16847797
-1.6942182	s h	-0.16847797
-1.2171236	p h	-0.16847797
-1.7021517	n h	-0.16847797
-1.3305786	c h	-0.2938116
-0.63441867	g h	-0.2427991
-0.94612426	k h	-0.16847797
-2.8157341	# u	-0.16847797
-1.1948774	t u	-0.16847797
-1.3717283	r u	-0.16847797
-1.463047	o u	-0.16847797
-0.9504606	p u	-0.16847797
-1.7845767	e u	-0.16847797
-0.82619345	j u	-0.16847797
-2.32912	м ’	-0.16847797
-2.3378274	р ’	-0.16847797
-2.1253264	з ’	-0.16847797
-1.2146666	( [	-0.2938116
-1.762171	. [	-0.2938116
-1.7339026	- [	-0.16847797
-1.4024398	" [	-0.16847797
-0.51534975	[ [	-0.18555865
-1.1790164	« [	-0.16847797
-0.35445285	* [	-0.16847797
-1.5622232	= [	-0.2938116
-1.7812419	# «	-0.29378694
-2.458204	а »	-0.16847797
-2.358137	с »	-0.16847797
-2.293997	е »	-0.16847797
-1.8483821	й »	-0.16847797
-1.8266597	ы »	-0.24789612
-1.5094751	] »	-0.16847797
-0.652896	6 »	-0.16847797
-1.9079868	х ;	-0.16847797
-2.2101245	# c	-0.2266391
-1.676678	i c	-0.16847797
-1.6438938	r c	-0.16847797
-1.1921055	o c	-0.16847797
-1.1347213	s c	-0.16847797
-1.2934244	a c	-0.16847797
-1.5553566	m c	-0.16847797
-1.7535489	e c	-0.16847797
-1.6855116	n c	-0.16847797
-1.6095713	c c	-0.16847797
-1.8358686	, 5	-0.16847797
-1.1853248	1 5	-0.16847797
-1.0252867	0 5	-0.16847797
-1.1208962	9 5	-0.16847797
-0.82731605	7 5	-0.16847797
-1.6010176	[ 5	-0.16847797
-1.1961024	1 6	-0.16847797
-1.3488607	0 6	-0.16847797
-2.9934864	# *	-0.16847797
-2.3461916	н =	-0.16847797
-1.8028747	а =	-0.2760068
-2.3166108	# =	-0.27069595
-2.199753	і =	-0.16847797
-1.9065145	б =	-0.16847797
-2.2307966	с =	-0.16847797
-2.1638985	е =	-0.16847797
-2.2350771	к =	-0.16847797
-2.1577005	ы =	-0.16847797
-1.8360885	д =	-0.16847797
-1.966274	з =	-0.16847797
-2.0989945	я =	-0.16847797
-1.8856964	у =	-0.2266391
-1.9794216	г =	-0.16847797
-1.1014661	= =	-0.20075376
-2.43646	# b	-0.16847797
-1.6891934	r b	-0.16847797
-1.8783584	a b	-0.16847797
-1.4202446	u b	-0.16847797
-2.100859	# g	-0.26568413
-1.7238404	- g	-0.16847797
-1.8211455	a g	-0.16847797
-1.3981297	" g	-0.16847797
-1.1509496	n g	-0.24789612
-1.8316329	= g	-0.16847797
-0.65109044	_ g	-0.16847797
-1.181816	v g	-0.16847797
-0.9443508	k g	-0.16847797
-1.7442033	- f	-0.16847797
-1.463047	o f	-0.16847797
-1.4067932	" f	-0.16847797
-1.5023783	e f	-0.16847797
-1.4070095	u f	-0.16847797
-1.8516116	= f	-0.16847797
-1.0223658	f f	-0.16847797
-1.4271247	g _	-0.16847797
-1.3481698	f _	-0.16847797
-1.7339118	' v	-0.16847797
-2.8157341	# v	-0.16847797
-2.1909323	i v	-0.16847797
-1.6659533	r v	-0.16847797
-0.652896	x v	-0.16847797
-1.7017503	s v	-0.16847797
-1.3309238	h v	-0.16847797
-2.7094202	# j	-0.16847797
-1.7952838	o j	-0.16847797
-1.1853248	1 3	-0.16847797
-0.87395537	2 3	-0.16847797
-1.1208962	9 3	-0.16847797
-1.1855142	5 3	-0.16847797
-1.1853248	3 3	-0.16847797
-0.35536385	№ 3	-0.16847797
-1.1972406	3 4	-0.16847797
-1.90431	= +	-0.16847797
-2.9934864	# „	-0.16847797
-2.3100028	у ”	-0.16847797
-1.7702577	' <	-0.16847797
-1.5257962	] <	-0.16847797
-1.7937369	- >	-0.16847797
-1.3481698	f >	-0.16847797
-1.5928005	a &	-0.2938116
-1.6813077	r y	-0.16847797
-1.3424505	l y	-0.16847797
-1.8662969	a y	-0.16847797
-1.806566	e y	-0.16847797
-1.6445309	c y	-0.16847797
-1.7899053	o w	-0.16847797
-1.7332572	s w	-0.16847797
-1.1966372	y w	-0.16847797
-1.4269753	u k	-0.16847797
-1.0750906	c k	-0.16847797
-1.8356078	e !	-0.16847797
-0.65697783	< !	-0.16847797
-2.9773376	# ي	-0.16847797
-0.35695857	ن ي	-0.16847797
-0.65731007	ي و	-0.16847797
-0.357125	و ن	-0.16847797
-0.65731007	ي ف	-0.16847797
-0.357125	ف ر	-0.16847797
-0.357125	ر س	-0.16847797
-0.357125	س ا	-0.16847797
-0.357125	ا ل	-0.16847797
-2.9934864	# 뮤	-0.16847797
-0.357125	뮤 직	-0.16847797
-2.3969977	к ?	-0.16847797
-2.9934864	# №	-0.16847797
-1.7548827	n á	-0.16847797
-1.7548827	n í	-0.16847797
-1.7548827	n ý	-0.16847797

\3-grams:
-2.4326315	н а </s>	0
-1.8551161	к і </s>	0
-0.75174856	з ь </s>	0
-1.5365065	а я </s>	0
-0.48302883	я я </s>	0
-0.9319923	ў . </s>	0
-0.76320297	ш . </s>	0
-1.2595779	= = </s>	0
-0.20655362	뮤 직 </s>	0
-0.20655362	n ý </s>	0
-0.13676076	<s> ' '	-0.368838
-0.43139982	' ' '	-0.14421615
-0.4162827	м ' '	-0.09977339
-0.13676076	а ' '	-0.368838
-0.105746195	# ' '	-0.23283163
-0.26421812	д ' '	-0.09977339
-0.26421812	я ' '	-0.09977339
-0.26421812	) ' '	-0.09977339
-0.26421812	m ' '	-0.09977339
-0.26421812	n ' '	-0.09977339
-1.9267344	а м '	-0.09977339
-1.0560958	я м '	-0.09977339
-2.2184448	н а '	-0.09977339
-2.0112963	т а '	-0.09977339
-2.1070058	к а '	-0.09977339
-1.8401909	ч а '	-0.09977339
-1.2272669	' # '	-0.09977339
-1.71066	ў # '	-0.20140101
-1.761822	я # '	-0.20140101
-1.0688409	g # '	-0.09977339
-0.77874947	f # '	-0.09977339
-0.4859826	р в '	-0.09977339
-1.6067152	а б '	-0.09977339
-1.2311589	я д '	-0.09977339
-1.4074717	# з '	-0.24389929
-1.5382248	і я '	-0.09977339
-0.88513774	ы ) '	-0.09977339
-0.74379325	& m '	-0.09977339
-1.101856	o n '	-0.09977339
-1.237358	' ' м	-0.09977339
-0.46162695	« ю м	-0.09977339
-1.6010517	н а м	-0.09977339
-0.9650015	т а м	-0.24429417
-1.5874088	# а м	-0.16481838
-1.0831103	р а м	-0.22591555
-1.4459692	в а м	-0.09977339
-1.3324602	л а м	-0.16481838
-1.0561802	с а м	-0.14762127
-0.98549396	ц а м	-0.16481838
-1.1394494	к а м	-0.17124462
-1.5531178	п а м	-0.09977339
-1.5821358	д а м	-0.09977339
-1.2736001	з а м	-0.09977339
-1.5593474	г а м	-0.09977339
-1.3222289	м # м	-0.09977339
-1.3081324	н # м	-0.09977339
-1.3794961	а # м	-0.16481838
-1.5146271	ў # м	-0.09977339
-1.4785291	і # м	-0.14762127
-1.3329943	р # м	-0.09977339
-1.6171807	х # м	-0.09977339
-1.1887693	л # м	-0.09977339
-1.4169906	ь # м	-0.09977339
-1.2805717	е # м	-0.09977339
-1.5031716	к # м	-0.09977339
-1.3403329	й # м	-0.09977339
-1.4677237	ы # м	-0.14762127
-1.322127	я # м	-0.16588482
-1.2256898	. # м	-0.2112865
-1.552864	, # м	-0.09977339
-1.5098447	i # м	-0.09977339
-1.4987886	н і м	-0.09977339
-0.8351686	а і м	-0.09977339
-1.0791221	# і м	-0.09977339
-1.3929455	л і м	-0.09977339
-1.1661453	с і м	-0.09977339
-1.2189789	к і м	-0.16481838
-1.192827	з і м	-0.09977339
-1.1327428	г і м	-0.09977339
-1.5006818	а р м	-0.16481838
-1.3416531	о р м	-0.09977339
-1.4273202	е р м	-0.09977339
-1.2723784	ы р м	-0.09977339
-1.051231	э р м	-0.09977339
-0.7802989	н ё м	-0.09977339
-0.6586939	л ё м	-0.09977339
-0.6586939	с ё м	-0.09977339
-2.0495002	# в м	-0.09977339
-1.1777554	н о м	-0.09977339
-1.4360979	р о м	-0.09977339
-1.4010764	к о м	-0.09977339
-1.2383904	п о м	-0.09977339
-1.217461	д о м	-0.09977339
-1.5026808	е с м	-0.09977339
-1.125336	л ь м	-0.09977339
-0.8395252	с ь м	-0.09977339
-1.0332289	а | м	-0.09977339
-0.979433	# | м	-0.09977339
-0.4296373	р | м	-0.09977339
-1.0433749	- | м	-0.09977339
-1.5395734	н е м	-0.09977339
-1.4238431	а е м	-0.09977339
-0.46021992	х е м	-0.09977339
-1.2145147	л е м	-0.09977339
-0.99026036	ы е м	-0.09977339
-1.2037578	# к м	-0.18040667
-1.5110842	а й м	-0.09977339
-1.0593141	о й м	-0.09977339
-1.0876095	м ы м	-0.09977339
-1.3353509	н ы м	-0.20314264
-1.0412681	т ы м	-0.24389929
-1.227709	р ы м	-0.14762127
-1.1382127	в ы м	-0.20140101
-1.0475174	л ы м	-0.09977339
-1.1418834	ш ы м	-0.09977339
-0.9088171	ч ы м	-0.20314264
-1.9590431	а д м	-0.09977339
-1.5364999	а з м	-0.09977339
-1.1633072	# з м	-0.1790838
-1.5821841	н я м	-0.09977339
-1.2946669	с я м	-0.09977339
-1.2851157	з я м	-0.09977339
-1.323148	а . м	-0.09977339
-0.9963471	в . м	-0.09977339
-1.1724384	л . м	-0.09977339
-1.0652673	# ш м	-0.20140101
-1.3184214	н у м	-0.09977339
-1.4036644	т у м	-0.09977339
-1.20514	р у м	-0.09977339
-1.2722156	в у м	-0.09977339
-1.2021389	г у м	-0.09977339
-1.0123152	т э м	-0.09977339
-1.3949772	р э м	-0.09977339
-1.1527343	д э м	-0.09977339
-1.977981	# г м	-0.09977339
-1.2746525	а - м	-0.09977339
-0.4544652	л - м	-0.09977339
-1.3265351	н i м	-0.09977339
-0.75386274	# i м	-0.16481838
-1.1874461	с i м	-0.09977339
-1.34591	к i м	-0.09977339
-1.1998966	# « м	-0.09977339
-1.2278214	= = м	-0.09977339
-1.5347543	' ' н	-0.09977339
-0.7377453	' м н	-0.09977339
-1.7812134	# м н	-0.09977339
-1.3898977	і м н	-0.09977339
-1.0632137	о м н	-0.09977339
-0.92553127	а н н	-0.45124513
-1.589113	і н н	-0.09977339
-1.0206367	о н н	-0.24389929
-1.0067065	е н н	-0.18040667
-1.4516956	ы н н	-0.09977339
-0.8028229	э н н	-0.20314264
-0.2800866	# ю н	-0.09977339
-0.43688223	( ю н	-0.09977339
-1.2352992	а т н	-0.20140101
-1.0495573	р т н	-0.09977339
-1.0715606	о т н	-0.09977339
-1.0898317	е т н	-0.09977339
-0.92350674	ы т н	-0.09977339
-0.7090254	i т н	-0.09977339
-0.94114053	м а н	-0.12646644
-1.5810822	н а н	-0.09977339
-1.3219882	т а н	-0.12646644
-0.8427751	а а н	-0.09977339
-1.199261	# а н	-0.12646644
-1.0509803	р а н	-0.12858936
-0.84884214	х а н	-0.09977339
-1.0741212	в а н	-0.18040667
-1.3484582	л а н	-0.09977339
-1.3384881	с а н	-0.09977339
-1.4829898	к а н	-0.12646644
-1.2006973	п а н	-0.09977339
-1.3095436	д а н	-0.20140101
-1.1228814	з а н	-0.09977339
-0.75871533	ж а н	-0.16481838
-0.8937466	ч а н	-0.20227094
-1.0100998	г а н	-0.13762066
-0.44613445	[ а н	-0.09977339
-1.5815938	м # н	-0.09977339
-1.2838655	н # н	-0.09977339
-1.3605623	ю # н	-0.09977339
-1.1878991	а # н	-0.52742785
-1.6537951	ў # н	-0.09977339
-1.042155	і # н	-0.38452667
-1.5779724	х # н	-0.09977339
-1.0971816	ь # н	-0.09977339
-1.6780757	е # н	-0.09977339
-1.4703264	к # н	-0.09977339
-1.3162824	й # н	-0.16481838
-1.4418954	ы # н	-0.24389929
-1.5164957	я # н	-0.16481838
-1.3483598	. # н	-0.32653472
-0.9769302	ч # н	-0.09977339
-0.9769302	э # н	-0.09977339
-1.6019486	, # н	-0.09977339
-1.4773932	i # н	-0.09977339
-1.0487671	s # н	-0.09977339
-0.8950004	а ў н	-0.20227094
-1.4225986	# ў н	-0.09977339
-0.7072668	о ў н	-0.17367919
-0.95198023	ы ў н	-0.09977339
-1.0720003	я ў н	-0.09977339
-0.6011208	м і н	-0.16481838
-0.78807116	а і н	-0.09977339
-0.75570154	# і н	-0.38452667
-0.8412794	в і н	-0.20140101
-0.78807116	б і н	-0.09977339
-0.9049822	л і н	-0.09977339
-0.7181388	ц і н	-0.14762127
-1.3354461	к і н	-0.09977339
-1.0384247	п і н	-0.09977339
-0.8686048	з і н	-0.09977339
-0.765375	ф і н	-0.20140101
-1.7548639	а р н	-0.09977339
-0.9493047	о р н	-0.14762127
-1.471696	е р н	-0.09977339
-1.2145048	у р н	-0.09977339
-0.84339005	а ё н	-0.09977339
-0.84339005	# ё н	-0.09977339
-0.73452735	р х н	-0.09977339
-0.46211874	э х н	-0.09977339
-0.80101466	м о н	-0.09977339
-1.2426542	р о н	-0.09977339
-0.9660115	л о н	-0.09977339
-0.9355601	к о н	-0.09977339
-1.0838556	п о н	-0.09977339
-0.42315817	ж о н	-0.09977339
-0.6642153	ч о н	-0.09977339
-0.6173877	и о н	-0.09977339
-0.81323636	ф о н	-0.09977339
-1.4725679	а б н	-0.09977339
-0.9006128	о б н	-0.09977339
-1.1165544	а с н	-0.2025613
-1.8557698	# с н	-0.09977339
-1.3628538	і с н	-0.09977339
-0.8582421	е с н	-0.13762066
-1.209507	ы с н	-0.09977339
-1.0502003	я с н	-0.09977339
-1.0455421	н ь н	-0.09977339
-0.5109719	л ь н	-0.19235072
-0.42765284	<s> | н	-0.09977339
-1.0258793	а | н	-0.09977339
-0.8131139	# | н	-0.20314264
-1.0352781	- | н	-0.09977339
-0.96900153	м е н	-0.09977339
-1.083921	н е н	-0.09977339
-1.0012786	в е н	-0.09977339
-1.0140007	л е н	-0.13107927
-0.85542357	с е н	-0.09977339
-1.0871915	ц е н	-0.09977339
-0.91435885	п е н	-0.09977339
-1.1595438	з е н	-0.09977339
-0.9108811	г е н	-0.09977339
-1.7024378	# к н	-0.09977339
-1.1793319	а й н	-0.09977339
-0.751209	е й н	-0.09977339
-0.5031867	ы й н	-0.16481838
-0.3985821	у й н	-0.09977339
-0.3985821	i й н	-0.09977339
-2.1169732	# п н	-0.09977339
-1.1211493	р ы н	-0.13762066
-1.4125009	в ы н	-0.09977339
-1.0892907	д ы н	-0.09977339
-1.089139	ж ы н	-0.09977339
-1.187942	ш ы н	-0.09977339
-0.93156683	ч ы н	-0.21910793
-1.2319183	а д н	-0.20140101
-1.4211323	# д н	-0.09977339
-0.42946804	ў д н	-0.09977339
-0.8431823	о д н	-0.13107927
-1.0835638	е д н	-0.09977339
-1.038831	у д н	-0.09977339
-0.6698027	э д н	-0.09977339
-0.922778	а з н	-0.16481838
-1.1965714	# з н	-0.16481838
-0.786644	ў з н	-0.09977339
-0.8123743	о з н	-0.09977339
-0.91877276	у з н	-0.09977339
-0.4227364	i з н	-0.09977339
-0.68742645	м я н	-0.09977339
-1.2596518	н я н	-0.09977339
-0.95483255	# я н	-0.368838
-1.1777711	і я н	-0.09977339
-0.96470976	в я н	-0.09977339
-1.1533941	л я н	-0.09977339
-1.1006725	ц я н	-0.09977339
-1.0472127	ы я н	-0.09977339
-0.4789197	д . н	-0.09977339
-0.81594825	а ж н	-0.09977339
-0.58174527	і ж н	-0.09977339
-0.58174527	о ж н	-0.09977339
-0.49146688	е ж н	-0.14762127
-0.37392288	i ж н	-0.09977339
-0.73673916	а ш н	-0.09977339
-0.88688946	о ш н	-0.09977339
-1.1468725	а ч н	-0.09977339
-0.5352975	і ч н	-0.20314264
-0.63033116	о ч н	-0.09977339
-0.63033116	е ч н	-0.09977339
-0.38744164	ы ч н	-0.22014365
-0.74315333	i ч н	-0.09977339
-1.5465478	# у н	-0.09977339
-1.245406	к у н	-0.09977339
-1.2854352	г у н	-0.09977339
-0.8277297	т э н	-0.09977339
-1.0494074	р э н	-0.09977339
-0.5963136	л э н	-0.09977339
-0.37072206	ц э н	-0.16481838
-0.38441062	д э н	-0.20314264
-0.5963136	ж э н	-0.09977339
-0.5014612	ч э н	-0.20140101
-0.46561706	р - н	-0.09977339
-0.7211648	м i н	-0.16481838
-0.69618356	а i н	-0.09977339
-0.83960587	# i н	-0.09977339
-0.979538	в i н	-0.09977339
-1.2090033	л i н	-0.09977339
-0.69618356	ц i н	-0.09977339
-0.38810557	р и н	-0.09977339
-0.7104135	ф и н	-0.09977339
-0.38810557	« и н	-0.09977339
-0.94026566	# " н	-0.09977339
-0.20044757	# „ н	-0.09977339
-0.4747184	в ' ю	-0.09977339
-2.0826483	# м ю	-0.09977339
-1.1735148	м н ю	-0.09977339
-1.7328271	м а ю	-0.09977339
-1.9213618	р а ю	-0.09977339
-1.8623154	в а ю	-0.09977339
-1.5614159	с а ю	-0.09977339
-1.7156547	п а ю	-0.09977339
-1.7469106	д а ю	-0.09977339
-1.2263801	ж а ю	-0.09977339
-1.6867656	ч а ю	-0.09977339
-2.490071	а # ю	-0.09977339
-2.2393706	я # ю	-0.09977339
-2.102452	а л ю	-0.09977339
-0.9409057	к л ю	-0.09977339
-1.2449121	к с ю	-0.09977339
-1.1573849	н ь ю	-0.09977339
-1.8243686	р ы ю	-0.09977339
-1.7294087	ц ы ю	-0.09977339
-1.5604072	д ы ю	-0.09977339
-1.4427062	# ( ю	-0.09977339
-0.41964442	н у ю	-0.54492927
-1.4935244	т у ю	-0.09977339
-1.3464861	в у ю	-0.09977339
-0.91125524	к у ю	-0.20314264
-1.2266337	# « ю	-0.09977339
-1.6377776	а н т	-0.09977339
-1.6497113	і н т	-0.09977339
-1.2210648	е н т	-0.14762127
-1.3728924	я н т	-0.09977339
-0.9500006	э н т	-0.09977339
-0.46363753	н ю т	-0.09977339
-1.3485646	м а т	-0.09977339
-1.3806691	т а т	-0.14762127
-1.3144932	# а т	-0.30005264
-1.2845994	р а т	-0.25958794
-1.2218157	х а т	-0.09977339
-1.6586199	в а т	-0.09977339
-1.3230336	л а т	-0.09977339
-1.7186524	к а т	-0.09977339
-1.3398106	п а т	-0.09977339
-1.3731338	д а т	-0.09977339
-1.488918	з а т	-0.09977339
-1.2083449	ч а т	-0.16481838
-0.9677545	э а т	-0.09977339
-1.3123621	г а т	-0.09977339
-1.3178403	т # т	-0.09977339
-1.5963502	а # т	-0.18040667
-1.7648344	ў # т	-0.09977339
-1.8045249	і # т	-0.09977339
-1.6769854	х # т	-0.09977339
-1.092029	с # т	-0.09977339
-1.4615777	ь # т	-0.09977339
-1.5681677	е # т	-0.20140101
-1.6242949	й # т	-0.09977339
-1.5926006	ы # т	-0.09977339
-1.5077565	я # т	-0.09977339
-1.584375	. # т	-0.09977339
-1.3563974	у # т	-0.09977339
-1.4297171	, # т	-0.14762127
-1.432594	а ў т	-0.09977339
-1.4113901	# ў т	-0.20140101
-1.4446111	м і т	-0.09977339
-1.6009141	н і т	-0.09977339
-0.9840008	х і т	-0.09977339
-1.495075	л і т	-0.09977339
-1.2444353	с і т	-0.09977339
-1.2727444	з і т	-0.09977339
-1.2054777	а р т	-0.13107927
-1.6165905	е р т	-0.09977339
-1.0182984	# х т	-0.09977339
-1.0659394	е х т	-0.09977339
-1.2126267	ы х т	-0.09977339
-1.2710924	р о т	-0.09977339
-1.1613139	л о т	-0.09977339
-0.5945165	' с т	-0.09977339
-0.5945165	м с т	-0.09977339
-0.73549026	н с т	-0.14762127
-0.69058627	а с т	-0.25958794
-0.59210056	# с т	-0.5364136
-0.7528696	ў с т	-0.09977339
-0.41677815	і с т	-0.1558015
-0.8320946	р с т	-0.09977339
-0.71573126	о с т	-0.09977339
-0.6972584	с с т	-0.09977339
-0.876675	| с т	-0.09977339
-0.7988639	е с т	-0.09977339
-0.79786354	й с т	-0.09977339
-0.70411885	ы с т	-0.14762127
-0.5945165	д с т	-0.09977339
-0.8281832	я с т	-0.09977339
-0.9337005	у с т	-0.09977339
-0.8015703	э с т	-0.09977339
-0.5945165	- с т	-0.09977339
-0.25044712	i с т	-0.16481838
-1.7020266	а ц т	-0.09977339
-1.1932158	і ц т	-0.09977339
-1.5307641	л ь т	-0.09977339
-1.6145685	# | т	-0.09977339
-1.2269332	м е т	-0.09977339
-1.2736006	в е т	-0.13762066
-1.6232041	л е т	-0.09977339
-1.317293	а к т	-0.20140101
-1.041188	о к т	-0.09977339
-0.51686466	е к т	-0.16481838
-1.2081743	ы к т	-0.09977339
-1.2073256	у к т	-0.09977339
-0.7246033	э к т	-0.16481838
-1.5484481	т ы т	-0.09977339
-1.4584117	р ы т	-0.20140101
-0.74826765	п ы т	-0.09977339
-1.1556911	ж ы т	-0.09977339
-1.4115688	# ( т	-0.09977339
-1.2498719	н я т	-0.09977339
-1.4034057	в я т	-0.09977339
-0.9916617	п я т	-0.09977339
-1.2419994	з я т	-0.09977339
-0.98080784	# ш т	-0.09977339
-0.8472622	о ш т	-0.09977339
-0.44792908	- ш т	-0.09977339
-1.2649066	т у т	-0.16481838
-0.7400611	м э т	-0.09977339
-0.8741846	т э т	-0.16481838
-0.8808256	# э т	-0.09977339
-1.1255267	р э т	-0.09977339
-0.40196848	у э т	-0.09977339
-0.40196848	г э т	-0.09977339
-1.2031093	м i т	-0.09977339
-1.0218453	в i т	-0.09977339
-0.96442705	л i т	-0.09977339
-1.304959	к i т	-0.09977339
-0.8602254	c i т	-0.09977339
-0.9022491	а м а	-0.16481838
-0.6554871	# м а	-0.20074743
-1.0603101	і м а	-0.09977339
-0.48007733	р м а	-0.13762066
-0.94195217	| м а	-0.09977339
-0.8971585	е м а	-0.09977339
-0.6187623	й м а	-0.09977339
-1.1016872	ы м а	-0.09977339
-0.823387	з м а	-0.09977339
-0.39648795	ш м а	-0.09977339
-0.21461505	у м а	-0.1790838
-0.84132135	э м а	-0.09977339
-0.6187623	- м а	-0.09977339
-0.3727903	' н а	-0.09977339
-0.7433401	н н а	-0.16481838
-0.71582186	ю н а	-0.09977339
-0.35305673	т н а	-0.13762066
-0.7133366	а н а	-0.1952294
-0.4134369	# н а	-0.31462303
-0.80565405	ў н а	-0.13762066
-0.5713905	і н а	-0.1599399
-0.6188277	р н а	-0.14762127
-0.8071687	ё н а	-0.09977339
-0.8414029	о н а	-0.09977339
-0.5799191	б н а	-0.09977339
-0.6633404	с н а	-0.1790838
-0.86618793	ь н а	-0.09977339
-0.33296007	| н а	-0.1790838
-0.8952787	е н а	-0.09977339
-0.5820593	й н а	-0.09977339
-0.7853985	ы н а	-0.12646644
-0.78578544	д н а	-0.09977339
-0.35305673	з н а	-0.14203693
-0.6727697	я н а	-0.13762066
-0.58477896	ж н а	-0.16481838
-0.30172923	ч н а	-0.22113742
-0.7382853	у н а	-0.09977339
-0.91047364	э н а	-0.09977339
-0.3727903	- н а	-0.09977339
-0.6762282	i н а	-0.09977339
-0.67884654	и н а	-0.09977339
-0.3727903	„ н а	-0.09977339
-0.6913104	н т а	-0.16481838
-0.34168822	ю т а	-0.09977339
-0.69797426	а т а	-0.16552903
-0.47734243	# т а	-0.38225046
-0.6180685	ў т а	-0.09977339
-0.5647298	і т а	-0.09977339
-0.54292583	р т а	-0.09977339
-0.46086445	х т а	-0.20140101
-0.745437	о т а	-0.09977339
-0.482291	с т а	-0.24447097
-0.49412918	е т а	-0.09977339
-0.40112022	к т а	-0.18040667
-0.6692673	ы т а	-0.09977339
-0.34168822	( т а	-0.09977339
-0.59333736	я т а	-0.09977339
-0.70467436	ш т а	-0.09977339
-0.5308512	у т а	-0.09977339
-0.43435884	э т а	-0.13107927
-0.46790805	i т а	-0.09977339
-2.2446043	р а а	-0.09977339
-1.7920024	в а а	-0.09977339
-1.257456	м # а	-0.09977339
-1.2340032	н # а	-0.09977339
-1.0386839	ю # а	-0.09977339
-1.0834693	а # а	-0.20799401
-1.1210878	ў # а	-0.15785761
-1.09008	і # а	-0.12039124
-0.8397387	р # а	-0.09977339
-0.56252235	ё # а	-0.09977339
-1.5012376	х # а	-0.09977339
-1.277811	о # а	-0.09977339
-1.1344279	л # а	-0.09977339
-1.0301205	с # а	-0.09977339
-1.3702729	е # а	-0.16481838
-1.4047213	к # а	-0.09977339
-1.447134	й # а	-0.09977339
-1.3891013	ы # а	-0.099773355
-1.2506387	д # а	-0.09977339
-0.71392643	з # а	-0.09977339
-1.1665428	я # а	-0.13107927
-1.0212282	. # а	-0.15535462
-1.168351	у # а	-0.09977339
-1.0997292	, # а	-0.14271131
-1.1710088	i # а	-0.09977339
-1.1806175	a # а	-0.09977339
-0.9649558	" # а	-0.09977339
-0.6734125	т р а	-0.14203693
-0.654448	а р а	-0.14359988
-0.3291871	# р а	-0.39623493
-0.35242853	ў р а	-0.09977339
-0.17677507	і р а	-0.13762066
-0.36066973	х р а	-0.09977339
-0.7129675	о р а	-0.14762127
-0.25542995	б р а	-0.13107927
-0.4187925	е р а	-0.11514432
-0.4542727	к р а	-0.09977339
-0.4681166	п р а	-0.16983855
-0.8845359	ы р а	-0.09977339
-0.8004111	я р а	-0.09977339
-0.6381937	у р а	-0.09977339
-0.77690065	э р а	-0.09977339
-0.22562431	г р а	-0.14271131
-0.25636712	i р а	-0.09977339
-0.5605545	ф р а	-0.09977339
-0.36066973	[ р а	-0.09977339
-1.1547136	а х а	-0.09977339
-0.4451911	# х а	-0.09977339
-0.5026395	е х а	-0.16481838
-0.9961666	ы х а	-0.09977339
-0.70064294	у х а	-0.09977339
-0.59718585	i х а	-0.09977339
-0.53464323	т в а	-0.14203693
-0.42623383	а в а	-0.2832519
-0.5776348	# в а	-0.2253597
-0.3280492	ў в а	-0.09977339
-0.5014068	і в а	-0.09977339
-0.5926456	ё в а	-0.09977339
-0.42102838	о в а	-0.18289554
-0.6867737	с в а	-0.09977339
-0.3280492	ь в а	-0.09977339
-0.34557268	е в а	-0.09977339
-0.32528305	к в а	-0.09977339
-0.5462557	ы в а	-0.16481838
-0.4253673	д в а	-0.09977339
-0.5231989	з в а	-0.09977339
-0.48138702	я в а	-0.09977339
-0.3280492	у в а	-0.09977339
-0.44741455	э в а	-0.09977339
-0.3280492	г в а	-0.09977339
-0.95198756	а б а	-0.09977339
-1.2794167	# б а	-0.09977339
-0.75937384	ы б а	-0.09977339
-0.41072848	( б а	-0.09977339
-0.41072848	ж б а	-0.09977339
-0.75937384	у б а	-0.09977339
-0.42411572	т л а	-0.1790838
-0.6750843	а л а	-0.24485253
-0.6915169	# л а	-0.20140101
-0.65829194	ў л а	-0.09977339
-0.7000467	і л а	-0.09977339
-0.36250967	р л а	-0.09977339
-0.5634734	ё л а	-0.09977339
-0.62671006	о л а	-0.09977339
-0.59973204	б л а	-0.09977339
-0.65311456	с л а	-0.24389929
-0.7312954	е л а	-0.13762066
-0.45400512	к л а	-0.14762127
-0.59698176	ы л а	-0.14762127
-0.65508395	я л а	-0.20140101
-0.5634734	ш л а	-0.09977339
-0.48459464	у л а	-0.09977339
-0.7526017	г л а	-0.09977339
-0.37529525	i л а	-0.20140101
-0.36250967	и л а	-0.09977339
-1.2419256	н с а	-0.09977339
-1.160275	а с а	-0.09977339
-1.0878251	# с а	-0.2025613
-1.152031	ў с а	-0.09977339
-1.2450354	і с а	-0.09977339
-1.0027386	р с а	-0.09977339
-0.922345	е с а	-0.09977339
-0.68649405	к с а	-0.09977339
-1.1508057	у с а	-0.09977339
-0.6849695	г с а	-0.09977339
-0.9825317	н ц а	-0.09977339
-1.1215852	а ц а	-0.09977339
-0.69461775	# ц а	-0.368838
-1.1599834	с ц а	-0.09977339
-0.28760976	ц ц а	-0.3792339
-0.6631349	ж ц а	-0.09977339
-0.91815025	i ц а	-0.09977339
-1.7550209	н е а	-0.09977339
-1.0536773	ф е а	-0.09977339
-0.4893018	н к а	-0.14838979
-0.72007996	т к а	-0.09977339
-0.5564571	а к а	-0.15224427
-0.50757945	# к а	-0.41355994
-0.5339931	ў к а	-0.09977339
-0.51243746	і к а	-0.15785761
-0.4808187	р к а	-0.17367919
-0.49099874	о к а	-0.09977339
-0.3658454	с к а	-0.39932245
-0.39593866	ц к а	-0.18630223
-0.72833025	е к а	-0.09977339
-0.33553597	й к а	-0.09977339
-0.39593866	ы к а	-0.14762127
-0.6065153	д к а	-0.09977339
-0.33553597	з к а	-0.09977339
-0.59451413	я к а	-0.09977339
-0.6065153	. к а	-0.09977339
-0.5213772	ш к а	-0.09977339
-0.4335671	ч к а	-0.16481838
-0.6309913	у к а	-0.09977339
-0.5517591	э к а	-0.09977339
-0.22422582	- к а	-0.20140101
-0.5339931	i к а	-0.09977339
-0.33553597	[ к а	-0.09977339
-0.33553597	= к а	-0.09977339
-0.3487836	<s> п а	-0.09977339
-0.7196455	м п а	-0.09977339
-0.40480465	а п а	-0.12646644
-0.5797822	# п а	-0.3946148
-0.3487836	р п а	-0.09977339
-0.674798	с п а	-0.13107927
-0.5418689	п п а	-0.09977339
-0.5418689	( п а	-0.09977339
-0.5765481	у п а	-0.09977339
-0.7191107	- п а	-0.09977339
-0.3487836	> п а	-0.09977339
-0.4331564	' ( а	-0.09977339
-1.2390316	# ( а	-0.09977339
-0.5408365	н д а	-0.09977339
-0.37375444	ю д а	-0.09977339
-0.7811535	а д а	-0.13404039
-0.64894575	# д а	-0.26202294
-0.71759254	ў д а	-0.09977339
-0.92759246	о д а	-0.09977339
-0.8376006	| д а	-0.09977339
-0.420608	е д а	-0.09977339
-0.38492274	ы д а	-0.09977339
-0.58147347	( д а	-0.09977339
-0.6807995	з д а	-0.09977339
-0.59045994	я д а	-0.09977339
-0.876871	у д а	-0.09977339
-0.36824793	<s> з а	-0.09977339
-0.6704264	а з а	-0.09977339
-0.34907994	# з а	-0.31602332
-0.63830745	і з а	-0.16481838
-0.36824793	| з а	-0.09977339
-0.5726239	е з а	-0.09977339
-0.46955812	ы з а	-0.09977339
-0.5726239	( з а	-0.09977339
-0.36824793	я з а	-0.09977339
-0.36824793	- з а	-0.09977339
-0.5726239	« з а	-0.09977339
-0.9678094	] ] а	-0.09977339
-0.76145476	а ж а	-0.09977339
-0.88079715	# ж а	-0.09977339
-0.35056025	р ж а	-0.09977339
-0.7822709	е ж а	-0.09977339
-0.80316764	д ж а	-0.09977339
-0.6349888	у ж а	-0.09977339
-0.38622844	ю ш а	-0.09977339
-1.0062248	# ш а	-0.09977339
-0.57168484	р ш а	-0.09977339
-0.70648015	ь ш а	-0.09977339
-0.48946053	й ш а	-0.20140101
-0.38622844	д ш а	-0.09977339
-0.55212927	н ч а	-0.09977339
-0.59945965	ю ч а	-0.09977339
-0.43095416	а ч а	-0.16588482
-0.21074858	# ч а	-0.19173211
-0.3055508	ў ч а	-0.09977339
-0.5164084	і ч а	-0.09977339
-0.63461363	р ч а	-0.09977339
-0.20658611	| ч а	-0.20140101
-0.4761879	е ч а	-0.09977339
-0.45277727	я ч а	-0.09977339
-0.3701178	ш ч а	-0.22564784
-0.26739138	у ч а	-0.09977339
-0.55212927	i ч а	-0.09977339
-1.2178894	с у а	-0.09977339
-1.4046564	т э а	-0.09977339
-1.1030998	р э а	-0.09977339
-0.3388416	' г а	-0.09977339
-0.69664353	н г а	-0.09977339
-0.320137	а г а	-0.22848235
-0.6054295	# г а	-0.28970137
-0.22613972	ў г а	-0.09977339
-0.612705	р г а	-0.09977339
-0.6513874	о г а	-0.20140101
-0.22613972	е г а	-0.09977339
-0.612705	ы г а	-0.09977339
-0.45805776	- г а	-0.09977339
-0.3388416	i г а	-0.09977339
-0.3388416	[ г а	-0.09977339
-0.3388416	= г а	-0.09977339
-0.53709376	н ф а	-0.09977339
-0.7558638	# ф а	-0.09977339
-0.2969651	і ф а	-0.09977339
-0.2969651	р ф а	-0.09977339
-0.2969651	с ф а	-0.09977339
-0.2969651	ы ф а	-0.09977339
-0.2969651	у ф а	-0.09977339
-1.3388271	[ [ а	-0.09977339
-1.189852	' ' #	-0.09977339
-0.71225345	а м #	-0.14465594
-1.404867	# м #	-0.09977339
-0.641682	і м #	-0.09977339
-1.0256783	р м #	-0.09977339
-0.74799716	ё м #	-0.09977339
-0.86717224	о м #	-0.09977339
-0.63946307	е м #	-0.09977339
-0.74799716	к м #	-0.09977339
-0.38423342	ы м #	-0.20082425
-0.8185719	я м #	-0.09977339
-0.46753526	i м #	-0.09977339
-1.592232	а н #	-0.20140101
-1.301435	і н #	-0.09977339
-1.1320841	ё н #	-0.09977339
-1.0224837	о н #	-0.09977339
-1.240136	й н #	-0.09977339
-0.35370076	' ю #	-0.09977339
-0.35370076	ь ю #	-0.09977339
-0.42921293	ы ю #	-0.13107927
-0.25172877	у ю #	-0.13404039
-0.8809531	н т #	-0.09977339
-1.220734	а т #	-0.09977339
-1.1477127	к т #	-0.09977339
-0.93065333	ш т #	-0.09977339
-0.6925237	у т #	-0.09977339
-1.1677989	э т #	-0.09977339
-1.0398469	м а #	-0.14762127
-0.86997473	н а #	-0.20127672
-1.0734888	т а #	-0.09977339
-0.8297361	а а #	-0.09977339
-1.693065	# а #	-0.09977339
-1.2222452	р а #	-0.11514432
-0.99568003	в а #	-0.14203693
-1.1566126	б а #	-0.09977339
-0.9200421	л а #	-0.16552903
-1.0912573	с а #	-0.20140101
-0.93578756	ц а #	-0.09977339
-0.8315869	к а #	-0.1657136
-1.2504438	п а #	-0.09977339
-1.0744811	д а #	-0.116569035
-1.3648007	з а #	-0.09977339
-0.6955282	] а #	-0.09977339
-1.1325732	ш а #	-0.09977339
-1.2200623	ч а #	-0.099773355
-0.88261205	г а #	-0.14304695
-0.48080552	а ў #	-0.21399625
-0.38442314	# ў #	-0.19834486
-0.3218058	і ў #	-0.09977339
-0.23483752	ё ў #	-0.09977339
-0.6196955	о ў #	-0.09977339
-0.5325136	ы ў #	-0.09977339
-0.6081676	я ў #	-0.09977339
-0.5500337	у ў #	-0.09977339
-0.3540002	i ў #	-0.09977339
-0.95541984	м і #	-0.12039124
-0.74206334	н і #	-0.13107927
-0.77700216	а і #	-0.09977339
-0.33456632	# і #	-0.27613026
-0.6116199	і і #	-0.09977339
-0.8940619	л і #	-0.15785761
-1.0539848	ц і #	-0.09977339
-0.418539	е і #	-0.09977339
-0.41487598	к і #	-0.21945803
-0.5519902	ы і #	-0.09977339
-1.074592	з і #	-0.09977339
-1.2326199	т р #	-0.09977339
-1.4199684	а р #	-0.09977339
-0.9226428	ё р #	-0.09977339
-1.2521284	о р #	-0.09977339
-0.9226428	с р #	-0.09977339
-1.1143391	у р #	-0.09977339
-0.68840176	ц ё #	-0.09977339
-0.9046887	ы ё #	-0.09977339
-0.47149104	а х #	-0.15848696
-0.1683988	і х #	-0.12858936
-0.3394069	х х #	-0.09977339
-0.75576895	е х #	-0.09977339
-0.32493502	ы х #	-0.18327996
-0.5149756	я х #	-0.09977339
-0.6137677	у х #	-0.09977339
-0.5273297	i х #	-0.09977339
-1.185595	н о #	-0.09977339
-1.0107176	т о #	-0.09977339
-1.0749649	л о #	-0.09977339
-0.97325695	г о #	-0.09977339
-1.1553046	а б #	-0.09977339
-1.7677538	а л #	-0.09977339
-1.2242541	і л #	-0.09977339
-1.3332493	е л #	-0.09977339
-1.2286438	к л #	-0.09977339
-0.877289	i л #	-0.09977339
-1.2155799	а с #	-0.09977339
-1.3346561	і с #	-0.09977339
-1.0703051	р с #	-0.09977339
-0.86262405	о с #	-0.09977339
-1.2445505	у с #	-0.09977339
-0.7161671	г с #	-0.09977339
-1.6746029	а ц #	-0.09977339
-0.71587396	л ь #	-0.09977339
-0.6679456	с ь #	-0.09977339
-0.20156403	ц ь #	-0.15535462
-0.5712167	з ь #	-0.09977339
-0.8912167	е | #	-0.09977339
-0.56860995	н е #	-0.1612464
-0.3927874	а е #	-0.15397035
-0.9319011	в е #	-0.09977339
-0.40742418	о е #	-0.09977339
-1.0962899	б е #	-0.09977339
-0.70493007	л е #	-0.09977339
-1.0387242	с е #	-0.09977339
-0.6309967	ц е #	-0.13762066
-0.40742418	к е #	-0.09977339
-0.51303816	ы е #	-0.09977339
-0.77970827	з е #	-0.11514432
-0.6371638	я е #	-0.09977339
-1.0211644	а к #	-0.12646644
-1.2412723	і к #	-0.09977339
-1.2128743	р к #	-0.09977339
-0.99982685	о к #	-0.09977339
-1.1111612	я к #	-0.09977339
-0.8400191	у к #	-0.09977339
-1.0458276	i к #	-0.09977339
-0.38714123	а й #	-0.19796436
-0.33516005	# й #	-0.09977339
-0.70130473	і й #	-0.09977339
-0.24033608	ё й #	-0.16481838
-0.6882973	о й #	-0.09977339
-0.55656976	е й #	-0.09977339
-0.39657006	я й #	-0.12303873
-0.605814	э й #	-0.09977339
-0.6022576	м ы #	-0.09977339
-0.597337	н ы #	-0.22019252
-0.9787005	т ы #	-0.09977339
-0.7337191	р ы #	-0.14421615
-0.98565346	в ы #	-0.13762066
-0.66689354	л ы #	-0.09977339
-0.63035864	ц ы #	-0.11828485
-0.8968818	д ы #	-0.09977339
-0.7734059	ш ы #	-0.16481838
-0.75644714	ч ы #	-0.13107927
-1.2403002	а д #	-0.09977339
-1.1314833	о д #	-0.09977339
-0.4280905	н з #	-0.09977339
-1.226625	а з #	-0.09977339
-0.6728442	е з #	-0.09977339
-0.90120554	ы з #	-0.09977339
-0.6728442	( з #	-0.09977339
-0.645811	м я #	-0.09977339
-0.93047917	н я #	-0.13107927
-0.3380165	а я #	-0.173168
-0.6084115	і я #	-0.13107927
-0.756493	л я #	-0.12688453
-0.6496854	с я #	-0.11828485
-0.43787438	ы я #	-0.12463497
-0.9571488	з я #	-0.09977339
-0.5071039	i я #	-0.09977339
-0.6281664	и я #	-0.09977339
-0.40210038	’ я #	-0.09977339
-0.2507666	' ) #	-0.09977339
-0.2507666	а ) #	-0.09977339
-0.2507666	с ) #	-0.09977339
-0.45968652	ы ) #	-0.09977339
-0.2507666	я ) #	-0.09977339
-0.5129881	. ) #	-0.09977339
-0.12999463	м . #	-0.14045456
-0.28949186	н . #	-0.09977339
-0.25392485	т . #	-0.13762066
-0.113474496	а . #	-0.17675942
-0.20689327	ў . #	-0.12303873
-0.09858579	і . #	-0.17449532
-0.20689327	р . #	-0.09977339
-0.1217819	х . #	-0.14762127
-0.19070414	в . #	-0.09977339
-0.117434405	л . #	-0.13762066
-0.07300854	с . #	-0.099773355
-0.17155576	ц . #	-0.09977339
-0.1217819	ь . #	-0.09977339
-0.059955996	е . #	-0.13107927
-0.09335373	к . #	-0.09977339
-0.1295354	й . #	-0.09977339
-0.17155576	п . #	-0.09977339
-0.1295354	ы . #	-0.14203693
-0.059955996	я . #	-0.16588482
-0.059955996	) . #	-0.13404039
-0.20689327	ч . #	-0.09977339
-0.09335373	у . #	-0.09977339
-0.17155576	² . #	-0.09977339
-0.25664958	г . #	-0.09977339
-0.17155576	‰ . #	-0.09977339
-0.09335373	i . #	-0.13762066
-0.1295354	ф . #	-0.16481838
-0.17155576	" . #	-0.09977339
-0.09335373	» . #	-0.09977339
-0.17155576	3 . #	-0.09977339
-0.17155576	” . #	-0.09977339
-0.99799037	# ж #	-0.09977339
-0.614537	ў ж #	-0.09977339
-0.614537	і ж #	-0.09977339
-0.7227822	у ж #	-0.09977339
-1.0623624	р ш #	-0.09977339
-0.8693635	ь ш #	-0.09977339
-1.1437327	і ч #	-0.09977339
-1.07303	я ч #	-0.09977339
-0.61793745	м у #	-0.09977339
-1.018923	н у #	-0.09977339
-0.90272963	т у #	-0.09977339
-0.7084873	р у #	-0.09977339
-0.2474327	х у #	-0.09977339
-0.7737108	в у #	-0.09977339
-0.81465906	л у #	-0.09977339
-0.50685	к у #	-0.12039124
-0.3763644	( у #	-0.09977339
-0.81695557	д у #	-0.09977339
-0.3763644	з у #	-0.09977339
-0.3763644	. у #	-0.09977339
-0.585692	ж у #	-0.09977339
-0.68610865	ч у #	-0.09977339
-0.3548844	# ² #	-0.09977339
-0.86885095	м э #	-0.09977339
-0.5737405	ч э #	-0.09977339
-1.5694898	а г #	-0.09977339
-1.2796049	о г #	-0.09977339
-0.3548844	/ / #	-0.09977339
-0.040721193	' , #	-0.09977339
-0.023672534	м , #	-0.09977339
-0.030148974	н , #	-0.09977339
-0.040721193	ю , #	-0.09977339
-0.030148974	т , #	-0.20140101
-0.011674995	а , #	-0.16045484
-0.030148974	ў , #	-0.09977339
-0.018833652	і , #	-0.099773355
-0.040721193	р , #	-0.09977339
-0.040721193	х , #	-0.09977339
-0.040721193	о , #	-0.09977339
-0.040721193	л , #	-0.09977339
-0.040721193	ц , #	-0.09977339
-0.030148974	ь , #	-0.09977339
-0.018833652	е , #	-0.13107927
-0.030148974	к , #	-0.09977339
-0.023672534	й , #	-0.18040667
-0.023672534	ы , #	-0.14203693
-0.040721193	д , #	-0.09977339
-0.023672534	я , #	-0.12646644
-0.040721193	) , #	-0.09977339
-0.030148974	. , #	-0.09977339
-0.040721193	ч , #	-0.09977339
-0.023672534	у , #	-0.09977339
-0.031859074	i , #	-0.13107927
-0.040721193	" , #	-0.09977339
-0.040721193	» , #	-0.09977339
-0.040721193	> , #	-0.09977339
-0.7135469	м i #	-0.09977339
-0.79299414	н i #	-0.09977339
-0.7822855	л i #	-0.16481838
-0.59004974	ц i #	-0.09977339
-0.4512965	к i #	-0.09977339
-0.24892634	ы i #	-0.09977339
-0.6916073	з i #	-0.09977339
-0.59004974	. i #	-0.09977339
-0.7943976	г i #	-0.09977339
-0.665501	i i #	-0.09977339
-0.48150474	t i #	-0.09977339
-0.6916073	d i #	-0.09977339
-0.59004974	h i #	-0.09977339
-0.1499161	а : #	-0.09977339
-0.1499161	і : #	-0.09977339
-0.1499161	ы : #	-0.09977339
-0.1499161	i : #	-0.09977339
-0.44698435	и и #	-0.09977339
-0.71971714	o r #	-0.09977339
-0.89913714	l l #	-0.09977339
-0.81548405	a l #	-0.09977339
-0.55557454	o s #	-0.09977339
-0.6484873	a s #	-0.09977339
-0.3575201	p s #	-0.09977339
-0.55557454	n s #	-0.09977339
-0.7036465	u s #	-0.09977339
-0.8888391	0 0 #	-0.09977339
-0.6175438	z z #	-0.09977339
-0.7344061	r a #	-0.09977339
-0.8463886	l a #	-0.09977339
-0.6754616	s a #	-0.09977339
-0.5772215	p a #	-0.09977339
-0.8026262	n a #	-0.09977339
-0.43278438	c a #	-0.09977339
-0.4450463	r p #	-0.09977339
-0.55142313	9 7 #	-0.09977339
-0.35520744	o m #	-0.09977339
-0.35520744	l m #	-0.09977339
-0.68408525	m m #	-0.09977339
-0.55193114	& m #	-0.09977339
-0.30554393	ы " #	-0.09977339
-0.30554393	и " #	-0.09977339
-0.30554393	a " #	-0.09977339
-0.30554393	e " #	-0.09977339
-0.58736974	l e #	-0.09977339
-0.7490553	p e #	-0.09977339
-0.68822396	e e #	-0.09977339
-0.58736974	h e #	-0.09977339
-0.68822396	v e #	-0.09977339
-0.8136456	o n #	-0.09977339
-0.7704099	a n #	-0.09977339
-0.7067271	e n #	-0.09977339
-0.38634658	w n #	-0.09977339
-0.40921327	o d #	-0.09977339
-0.40921327	n d #	-0.09977339
-0.23111783	с » #	-0.09977339
-0.23111783	е » #	-0.09977339
-0.23111783	й » #	-0.09977339
-0.26033694	ы » #	-0.09977339
-0.3700216	] » #	-0.09977339
-0.1937859	х ; #	-0.09977339
-0.8583925	i c #	-0.09977339
-0.56799376	0 5 #	-0.09977339
-0.36534998	[ 5 #	-0.09977339
-0.30867216	1 6 #	-0.09977339
-0.61171174	і = #	-0.09977339
-0.61171174	б = #	-0.09977339
-0.61171174	с = #	-0.09977339
-0.39224803	ы = #	-0.09977339
-0.66114694	= = #	-0.16481838
-0.41386682	n g #	-0.09977339
-0.40782195	v g #	-0.09977339
-0.61324733	o f #	-0.09977339
-0.61324733	f f #	-0.09977339
-0.36512256	9 3 #	-0.09977339
-0.36512256	3 3 #	-0.09977339
-0.1937859	3 4 #	-0.09977339
-0.40974906	l y #	-0.09977339
-0.21922752	a y #	-0.09977339
-0.21922752	e y #	-0.09977339
-0.21922752	c y #	-0.09977339
-0.6935097	c k #	-0.09977339
-0.30867216	e ! #	-0.09977339
-0.1937859	ا ل #	-0.09977339
-0.1937859	n í #	-0.09977339
-1.2283227	м а ў	-0.16481838
-1.6131839	н а ў	-0.20140101
-1.2079221	т а ў	-0.22564784
-1.5436745	# а ў	-0.24389929
-1.2598612	р а ў	-0.13762066
-1.1683595	в а ў	-0.32825238
-1.2933532	л а ў	-0.09977339
-1.0293415	с а ў	-0.16481838
-1.2690653	ц а ў	-0.09977339
-1.5126162	к а ў	-0.09977339
-1.479479	п а ў	-0.09977339
-0.9081098	д а ў	-0.13107927
-1.4375368	з а ў	-0.09977339
-0.713953	] а ў	-0.09977339
-1.1188614	ж а ў	-0.09977339
-1.18159	ч а ў	-0.24389929
-0.45100963	у а ў	-0.09977339
-1.1367341	' # ў	-0.09977339
-1.6596471	м # ў	-0.09977339
-1.1576068	а # ў	-0.35741454
-1.5401448	ў # ў	-0.09977339
-1.5861093	і # ў	-0.14762127
-1.3798773	о # ў	-0.09977339
-1.4433886	ь # ў	-0.09977339
-1.460052	е # ў	-0.14762127
-1.599409	й # ў	-0.09977339
-1.3350415	ы # ў	-0.16588482
-1.3382252	я # ў	-0.18040667
-1.9880854	. # ў	-0.09977339
-1.055353	у # ў	-0.368838
-1.0009316	э # ў	-0.09977339
-1.8446293	, # ў	-0.09977339
-1.238752	i # ў	-0.09977339
-1.3768712	н і ў	-0.20140101
-1.3573608	в і ў	-0.09977339
-1.5120606	л і ў	-0.09977339
-1.2470881	ц і ў	-0.09977339
-1.192191	п і ў	-0.09977339
-1.2856281	з і ў	-0.09977339
-0.86397445	в ё ў	-0.09977339
-0.72039807	л ё ў	-0.09977339
-1.0245513	н о ў	-0.09977339
-0.9093413	т о ў	-0.09977339
-0.95690334	р о ў	-0.09977339
-0.8657974	л о ў	-0.16481838
-0.27100557	ц о ў	-0.09977339
-1.0082399	к о ў	-0.09977339
-0.8199893	п о ў	-0.09977339
-0.6858136	д о ў	-0.14762127
-0.77955794	ш о ў	-0.09977339
-1.1801716	г о ў	-0.09977339
-0.51762176	# е ў	-0.368838
-1.5339402	з е ў	-0.09977339
-1.651842	т ы ў	-0.09977339
-0.7626705	б ы ў	-0.09977339
-1.3296938	ч ы ў	-0.09977339
-0.45109108	' я ў	-0.09977339
-0.92199934	н я ў	-0.1558015
-0.71410215	о я ў	-0.09977339
-1.2652167	л я ў	-0.09977339
-1.1935529	ц я ў	-0.09977339
-1.1668102	з я ў	-0.09977339
-1.5220879	н у ў	-0.09977339
-1.3456438	с i ў	-0.09977339
-0.75454223	м ' і	-0.09977339
-0.7606512	а м і	-0.26494598
-1.1954384	# м і	-0.14762127
-0.7886107	і м і	-0.16481838
-0.9986746	р м і	-0.09977339
-0.8441756	о м і	-0.09977339
-0.73040915	ь м і	-0.09977339
-0.6818954	| м і	-0.20140101
-0.8740402	ы м і	-0.20140101
-0.6204698	д м і	-0.09977339
-0.8441756	э м і	-0.09977339
-0.39751065	г м і	-0.09977339
-0.6204698	- м і	-0.09977339
-0.39751065	= м і	-0.09977339
-0.87452394	м н і	-0.09977339
-0.90261257	н н і	-0.16481838
-1.0923193	т н і	-0.09977339
-1.1338983	а н і	-0.09977339
-1.4260007	# н і	-0.09977339
-0.6026205	ў н і	-0.18040667
-1.0090517	і н і	-0.09977339
-0.66611266	р н і	-0.09977339
-0.26482826	х н і	-0.09977339
-0.9388378	о н і	-0.09977339
-1.0433217	с н і	-0.09977339
-0.97861844	ь н і	-0.09977339
-1.0578563	е н і	-0.20140101
-0.638345	к н і	-0.09977339
-0.9461695	ы н і	-0.09977339
-0.9460197	д н і	-0.09977339
-1.0587239	я н і	-0.09977339
-0.26482826	ш н і	-0.09977339
-1.1380768	ч н і	-0.09977339
-0.8251394	у н і	-0.09977339
-2.273165	р а і	-0.09977339
-2.1829054	в а і	-0.09977339
-1.1354533	м # і	-0.18040667
-1.3484396	ю # і	-0.09977339
-1.2526283	т # і	-0.09977339
-1.5340085	а # і	-0.18040667
-1.3971479	ў # і	-0.18040667
-1.3017576	і # і	-0.16481838
-1.2974423	р # і	-0.09977339
-1.2664826	х # і	-0.24389929
-1.3536475	с # і	-0.09977339
-1.090919	ь # і	-0.09977339
-1.4882773	е # і	-0.09977339
-1.4571385	к # і	-0.09977339
-1.3064902	й # і	-0.14762127
-1.1040261	ы # і	-0.54492927
-1.432644	я # і	-0.24389929
-1.1522348	) # і	-0.09977339
-1.7372608	. # і	-0.20140101
-0.9715419	ш # і	-0.09977339
-1.2927337	у # і	-0.09977339
-1.741832	, # і	-0.09977339
-1.0424167	s # і	-0.09977339
-1.2557683	м і і	-0.09977339
-1.807456	н і і	-0.09977339
-1.2992184	г і і	-0.09977339
-1.3247281	а х і	-0.09977339
-0.6682508	р х і	-0.09977339
-0.8944254	с х і	-0.09977339
-1.1315179	ы х і	-0.09977339
-1.135471	а в і	-0.09977339
-1.3362653	# в і	-0.09977339
-1.2984865	о в і	-0.09977339
-0.753471	б в і	-0.09977339
-0.753471	| в і	-0.09977339
-1.0165455	ы в і	-0.09977339
-0.40807363	( в і	-0.09977339
-0.93167764	з в і	-0.09977339
-0.5262413	э в і	-0.09977339
-1.608749	# б і	-0.09977339
-0.91150194	ы б і	-0.09977339
-0.40219584	н л і	-0.09977339
-0.8877867	т л і	-0.09977339
-0.7843081	а л і	-0.16588482
-0.63838166	# л і	-0.20140101
-0.7405565	ў л і	-0.09977339
-0.78145397	і л і	-0.09977339
-0.66006887	б л і	-0.09977339
-1.0327959	с л і	-0.09977339
-0.8947592	е л і	-0.09977339
-0.40219584	й л і	-0.09977339
-0.75835484	ы л і	-0.09977339
-0.72557414	я л і	-0.09977339
-0.8574084	г л і	-0.09977339
-1.2206951	а с і	-0.09977339
-1.8261399	# с і	-0.09977339
-1.2407072	ў с і	-0.09977339
-1.0766543	р с і	-0.09977339
-1.2035079	о с і	-0.09977339
-1.0899433	к с і	-0.09977339
-1.2536668	у с і	-0.09977339
-1.0620217	н ц і	-0.09977339
-0.4454556	р ц і	-0.09977339
-0.6714385	с ц і	-0.1558015
-1.1999798	е ц і	-0.09977339
-0.994444	я ц і	-0.09977339
-1.5530717	з е і	-0.09977339
-0.8780056	т к і	-0.09977339
-1.0406122	а к і	-0.09977339
-1.1443124	# к і	-0.368838
-0.9101666	ў к і	-0.09977339
-0.75880134	і к і	-0.14762127
-1.0443976	р к і	-0.09977339
-0.26093784	л к і	-0.16481838
-0.65078545	с к і	-0.37326297
-0.7484671	ц к і	-0.09977339
-0.62619144	ь к і	-0.09977339
-0.40092582	| к і	-0.09977339
-0.7484671	ы к і	-0.09977339
-0.9540368	я к і	-0.09977339
-0.98713243	у к і	-0.09977339
-0.8971859	м п і	-0.09977339
-0.9595826	а п і	-0.20140101
-0.8955719	с п і	-0.09977339
-0.6513565	д п і	-0.09977339
-0.7706167	я п і	-0.09977339
-1.0443568	у п і	-0.09977339
-1.6278868	т ы і	-0.09977339
-1.3966008	р ы і	-0.09977339
-0.8759209	ц ы і	-0.3792339
-1.001347	а з і	-0.09977339
-0.64631355	і з і	-0.09977339
-0.88111925	д з і	-0.15490827
-0.7145132	э з і	-0.09977339
-1.0051774	а г і	-0.16481838
-0.87911665	# г і	-0.6118761
-0.80616206	о г і	-0.09977339
-0.7751254	| г і	-0.20140101
-0.6631171	э г і	-0.09977339
-0.42252743	" г і	-0.09977339
-0.6458811	а ф і	-0.09977339
-0.84677947	# ф і	-0.16481838
-1.2084047	н т р	-0.09977339
-1.2401038	а т р	-0.16481838
-1.5082213	# т р	-0.09977339
-0.9195809	с т р	-0.32928813
-1.0951092	е т р	-0.09977339
-1.1061528	я т р	-0.09977339
-1.2724416	м а р	-0.09977339
-1.5005957	н а р	-0.14762127
-0.99720055	т а р	-0.2724303
-1.1218764	# а р	-0.18630223
-1.5691413	р а р	-0.09977339
-1.1486856	х а р	-0.09977339
-1.2319509	в а р	-0.13107927
-0.84673667	б а р	-0.14762127
-1.4829397	л а р	-0.09977339
-1.0962901	с а р	-0.09977339
-1.2228233	ц а р	-0.09977339
-1.0294966	к а р	-0.19261095
-1.0432516	п а р	-0.15490827
-1.2168299	д а р	-0.13107927
-1.1914996	з а р	-0.09977339
-1.1387208	ш а р	-0.09977339
-1.3986905	ч а р	-0.09977339
-0.9204867	э а р	-0.09977339
-1.2419437	г а р	-0.09977339
-0.7512302	ф а р	-0.20140101
-1.3232251	м # р	-0.16481838
-1.3920602	ю # р	-0.09977339
-1.5657856	а # р	-0.18040667
-1.6995237	ў # р	-0.09977339
-1.3276849	і # р	-0.2025613
-1.334197	р # р	-0.09977339
-1.3584113	о # р	-0.09977339
-1.4184289	ь # р	-0.09977339
-1.4413846	е # р	-0.20140101
-1.2214991	к # р	-0.20140101
-1.3414754	й # р	-0.20140101
-1.3200719	ы # р	-0.20314264
-1.3298626	д # р	-0.09977339
-1.1332189	з # р	-0.09977339
-1.4706547	я # р	-0.09977339
-1.7827278	. # р	-0.20140101
-1.2932085	, # р	-0.30005264
-1.6134857	а ў р	-0.09977339
-1.3512279	# ў р	-0.20140101
-0.72059184	е ў р	-0.09977339
-1.5441141	м і р	-0.09977339
-1.2040659	к і р	-0.24389929
-1.2470042	п і р	-0.09977339
-1.3577023	з і р	-0.09977339
-0.7103399	а ё р	-0.09977339
-0.7103399	# ё р	-0.09977339
-0.7103399	в ё р	-0.09977339
-0.3880705	з ё р	-0.09977339
-1.1219323	# х р	-0.09977339
-0.9032017	т о р	-0.20140101
-0.4171832	# о р	-0.09977339
-0.7205743	в о р	-0.13762066
-0.67846036	б о р	-0.09977339
-1.147812	л о р	-0.09977339
-1.1749582	к о р	-0.09977339
-1.0597547	п о р	-0.09977339
-1.0497838	д о р	-0.09977339
-0.3585281	з о р	-0.30005264
-0.42175958	ф о р	-0.20140101
-0.95102113	а б р	-0.24389929
-1.4620342	# б р	-0.09977339
-0.83046305	о б р	-0.09977339
-0.44115287	э б р	-0.09977339
-2.1743958	# с р	-0.09977339
-0.939707	с с р	-0.09977339
-0.9217725	ь | р	-0.09977339
-0.9737779	м е р	-0.09977339
-1.3519864	н е р	-0.09977339
-1.0066149	в е р	-0.09977339
-0.88411003	б е р	-0.09977339
-0.85942304	с е р	-0.09977339
-0.62358	п е р	-0.2025613
-1.1686534	з е р	-0.09977339
-0.5422919	г е р	-0.09977339
-0.81207776	’ е р	-0.09977339
-0.93324506	н к р	-0.09977339
-1.1937139	а к р	-0.24389929
-0.9586206	# к р	-0.44618067
-1.6229706	с к р	-0.09977339
-0.84474015	д к р	-0.09977339
-1.1704848	у к р	-0.09977339
-1.0788212	э к р	-0.09977339
-0.8233635	а п р	-0.09977339
-0.5115957	# п р	-0.8211357
-0.8893322	с п р	-0.09977339
-0.7818923	| п р	-0.09977339
-0.3489255	ы п р	-0.09977339
-0.5420903	( п р	-0.09977339
-0.5420903	д п р	-0.09977339
-0.8353038	у п р	-0.09977339
-0.4482661	- п р	-0.09977339
-0.3489255	« п р	-0.09977339
-0.3489255	= п р	-0.09977339
-1.3791701	т ы р	-0.09977339
-1.5080642	р ы р	-0.09977339
-1.4849374	ц ы р	-0.09977339
-1.3214091	д ы р	-0.09977339
-0.9421711	з ы р	-0.09977339
-1.072535	ж ы р	-0.09977339
-0.82276237	ш ы р	-0.09977339
-1.0919085	н д р	-0.09977339
-1.7644275	а д р	-0.09977339
-1.892058	# д р	-0.09977339
-0.9333955	ў з р	-0.09977339
-1.110671	м я р	-0.09977339
-1.3024746	# я р	-0.20140101
-1.312103	і я р	-0.09977339
-1.2045883	с я р	-0.09977339
-1.1908456	з я р	-0.09977339
-1.0546411	г . р	-0.09977339
-0.63418025	т у р	-0.17974472
-1.5916938	к у р	-0.09977339
-0.7516017	ж у р	-0.09977339
-0.9369441	т э р	-0.09977339
-0.74490976	ж э р	-0.09977339
-1.2598016	а г р	-0.09977339
-0.80281234	# г р	-0.28403106
-1.0314847	о г р	-0.09977339
-0.64077157	| г р	-0.16481838
-0.40858278	й г р	-0.09977339
-0.75459963	ы г р	-0.09977339
-0.8758806	я г р	-0.09977339
-0.9050992	б i р	-0.09977339
-1.3799427	л i р	-0.09977339
-1.4029725	к i р	-0.09977339
-1.128155	а ф р	-0.09977339
-0.960454	# ф р	-0.20140101
-1.3409767	[ [ р	-0.09977339
-1.0339897	у = р	-0.09977339
-1.235364	ы н ё	-0.09977339
-1.6524799	д н ё	-0.09977339
-1.9445153	м а ё	-0.09977339
-2.2313485	р а ё	-0.09977339
-2.1460977	в а ё	-0.09977339
-2.2030873	і # ё	-0.09977339
-2.1956413	ы # ё	-0.09977339
-2.279869	, # ё	-0.09977339
-1.4689775	# в ё	-0.24389929
-0.47158825	ц в ё	-0.09977339
-1.3030062	ы в ё	-0.09977339
-2.1096795	а л ё	-0.09977339
-1.4187086	і л ё	-0.09977339
-2.0481198	а с ё	-0.09977339
-2.228736	# с ё	-0.09977339
-0.84358346	ц ц ё	-0.16481838
-1.6749694	д ы ё	-0.09977339
-1.6570995	а з ё	-0.09977339
-1.4819784	н а х	-0.16588482
-1.4997332	т а х	-0.09977339
-1.8915474	# а х	-0.09977339
-1.6229858	р а х	-0.09977339
-1.4705583	в а х	-0.16481838
-1.4642899	с а х	-0.09977339
-1.7799522	к а х	-0.09977339
-1.5918027	п а х	-0.09977339
-1.6212792	д а х	-0.09977339
-1.1909895	з а х	-0.20314264
-1.173958	ж а х	-0.09977339
-1.5943035	г а х	-0.09977339
-2.308039	а # х	-0.09977339
-2.09166	і # х	-0.09977339
-2.055421	е # х	-0.09977339
-2.0814714	я # х	-0.09977339
-2.1654346	, # х	-0.09977339
-1.7384812	н і х	-0.09977339
-1.3372467	# і х	-0.24389929
-1.3425974	с і х	-0.09977339
-1.2110807	к і х	-0.24389929
-2.0156333	а р х	-0.09977339
-1.6315591	е р х	-0.09977339
-0.47868425	. х х	-0.09977339
-1.8405514	а с х	-0.09977339
-2.0279055	# с х	-0.09977339
-1.3491637	ў с х	-0.09977339
-1.2224745	| с х	-0.09977339
-1.4690694	м е х	-0.09977339
-1.439909	а е х	-0.09977339
-1.3406711	п е х	-0.09977339
-0.998159	ф е х	-0.09977339
-0.8857503	’ е х	-0.09977339
-1.1534154	м ы х	-0.09977339
-0.6174501	н ы х	-0.8459593
-1.4464273	т ы х	-0.09977339
-1.3865122	р ы х	-0.09977339
-0.92684716	в ы х	-0.20314264
-0.839863	ш ы х	-0.20140101
-1.4542944	н я х	-0.09977339
-1.3280056	і я х	-0.09977339
-1.3094828	л я х	-0.09977339
-0.9706054	п я х	-0.09977339
-1.4445628	ы я х	-0.09977339
-0.94654614	ч . х	-0.09977339
-1.3635597	р у х	-0.09977339
-1.0481418	в у х	-0.09977339
-1.5089631	т э х	-0.09977339
-1.3596808	м i х	-0.09977339
-1.0522602	к i х	-0.20140101
-1.3676358	[ [ х	-0.09977339
-2.151575	а н в	-0.09977339
-1.3270723	# т в	-0.20140101
-0.88494027	ў т в	-0.09977339
-1.1753885	с т в	-0.16481838
-0.29330838	ц т в	-0.16481838
-1.198271	н а в	-0.26494598
-1.4564891	т а в	-0.16481838
-1.3806139	р а в	-0.18040667
-0.87333214	х а в	-0.20140101
-1.1607947	л а в	-0.15490827
-1.0482259	с а в	-0.09977339
-1.3021746	ц а в	-0.09977339
-1.5506237	к а в	-0.09977339
-1.2500317	п а в	-0.14762127
-1.2847596	д а в	-0.16481838
-1.1648934	з а в	-0.09977339
-1.1447629	ж а в	-0.09977339
-1.3100145	г а в	-0.20140101
-1.1447629	ф а в	-0.09977339
-1.3633888	м # в	-0.09977339
-1.228721	а # в	-0.23612244
-1.2425909	ў # в	-0.16588482
-1.4295341	і # в	-0.14762127
-1.0942527	х # в	-0.18630223
-0.78344434	л # в	-0.09977339
-1.338276	с # в	-0.09977339
-1.2490094	е # в	-0.14762127
-1.1861988	к # в	-0.20140101
-1.4876469	й # в	-0.09977339
-1.4867914	ы # в	-0.09977339
-0.96735567	д # в	-0.09977339
-1.2850504	я # в	-0.14762127
-1.1418153	) # в	-0.09977339
-1.1554925	. # в	-0.4356792
-0.96411294	ш # в	-0.09977339
-1.2803187	у # в	-0.09977339
-0.7235378	г # в	-0.09977339
-1.2642884	, # в	-0.1790838
-1.446745	i # в	-0.09977339
-1.0871457	n # в	-0.09977339
-1.1761849	» # в	-0.09977339
-1.6414709	о ў в	-0.09977339
-1.6500536	н і в	-0.09977339
-1.7418494	# і в	-0.09977339
-1.5442168	л і в	-0.09977339
-1.2805138	с і в	-0.09977339
-1.2685485	ц і в	-0.09977339
-1.1536307	э р в	-0.09977339
-0.78096807	н ё в	-0.09977339
-0.6591996	ц ё в	-0.09977339
-0.8576297	ы ё в	-0.09977339
-0.6697281	м о в	-0.13107927
-0.98842895	н о в	-0.09977339
-1.01029	р о в	-0.09977339
-0.65968853	х о в	-0.09977339
-0.9276619	л о в	-0.09977339
-0.64089644	с о в	-0.09977339
-0.75468105	к о в	-0.22014365
-1.022058	д о в	-0.09977339
-0.7569029	ш о в	-0.09977339
-0.64089644	ч о в	-0.09977339
-1.1450939	г о в	-0.09977339
-1.569896	а б в	-0.09977339
-0.70584184	' с в	-0.09977339
-1.5754498	а с в	-0.09977339
-0.94198006	# с в	-0.33104947
-1.3036358	і с в	-0.09977339
-1.0999686	| с в	-0.09977339
-1.156112	ы с в	-0.09977339
-1.2120008	у с в	-0.09977339
-0.70584184	- с в	-0.09977339
-1.7623677	а ц в	-0.09977339
-1.1338354	н ь в	-0.09977339
-0.44918603	і | в	-0.09977339
-0.8504215	ь | в	-0.09977339
-0.44918603	у | в	-0.09977339
-0.7356532	# е в	-0.24389929
-1.6123387	л е в	-0.09977339
-1.4190745	п е в	-0.09977339
-1.4101818	н к в	-0.09977339
-1.1842359	# к в	-0.30005264
-1.403768	р к в	-0.09977339
-1.4776374	т ы в	-0.09977339
-1.4090333	р ы в	-0.09977339
-1.4810498	в ы в	-0.09977339
-0.736009	б ы в	-0.20140101
-1.1229088	ж ы в	-0.09977339
-1.396799	# ( в	-0.09977339
-1.3259301	# д в	-0.14762127
-1.3048657	е д в	-0.09977339
-1.0554602	а з в	-0.09977339
-1.5207835	# з в	-0.09977339
-0.9244973	ы з в	-0.09977339
-1.4040062	д з в	-0.09977339
-0.4369021	. з в	-0.09977339
-1.5010307	н я в	-0.09977339
-1.4191992	а я в	-0.09977339
-1.0172333	л я в	-0.16481838
-0.98795694	п я в	-0.09977339
-1.1399066	н . в	-0.09977339
-1.6727443	# у в	-0.09977339
-0.9746378	# э в	-0.09977339
-1.2840735	р э в	-0.09977339
-0.92282087	ц э в	-0.09977339
-1.0888437	д э в	-0.09977339
-1.1356006	я г в	-0.09977339
-1.3388271	[ [ в	-0.09977339
-1.6516405	а м о	-0.09977339
-0.92713106	# м о	-0.38452667
-1.1600008	| м о	-0.09977339
-1.3507595	ы м о	-0.09977339
-0.7260572	д м о	-0.09977339
-1.0775558	м н о	-0.09977339
-1.8094863	а н о	-0.09977339
-1.7398727	# н о	-0.09977339
-0.842774	с н о	-0.09977339
-1.2456713	й н о	-0.09977339
-1.4634829	д н о	-0.09977339
-1.4193058	а т о	-0.09977339
-0.55375266	х т о	-0.09977339
-1.0420091	о т о	-0.09977339
-0.9978996	с т о	-0.18040667
-0.90228736	ы т о	-0.09977339
-1.0738829	я т о	-0.09977339
-0.54510266	ш т о	-0.09977339
-2.2267857	ы # о	-0.09977339
-1.9486507	# і о	-0.09977339
-0.92581654	т р о	-0.09977339
-0.88724434	а р о	-0.12303873
-0.6989178	# р о	-0.20314264
-0.7929913	ы р о	-0.09977339
-0.44300088	з р о	-0.09977339
-0.6997392	я р о	-0.09977339
-0.9305844	г р о	-0.20140101
-0.6885106	а х о	-0.30005264
-0.5091531	с х о	-0.20140101
-1.0585907	ы х о	-0.09977339
-0.9113544	я х о	-0.09977339
-0.40393972	[ х о	-0.09977339
-0.4273959	<s> в о	-0.09977339
-0.7838925	т в о	-0.20140101
-1.2735354	а в о	-0.09977339
-0.9674843	# в о	-0.2025613
-1.1551014	с в о	-0.09977339
-0.8994019	д в о	-0.09977339
-0.9535124	я в о	-0.09977339
-1.1289916	а б о	-0.09977339
-1.2818043	# б о	-0.24389929
-0.6441867	і б о	-0.09977339
-0.76120555	й б о	-0.09977339
-0.76120555	ы б о	-0.09977339
-0.6441867	з б о	-0.09977339
-0.98245496	а л о	-0.18630223
-1.2874627	о л о	-0.09977339
-0.89620376	с л о	-0.09977339
-0.982514	е л о	-0.09977339
-0.5460113	п л о	-0.16481838
-1.1287559	ы л о	-0.09977339
-0.43686593	з л о	-0.09977339
-0.6883818	ш л о	-0.09977339
-2.001078	а с о	-0.09977339
-1.3700781	ы с о	-0.09977339
-1.6999156	а ц о	-0.09977339
-0.47737497	б ц о	-0.09977339
-0.7782527	т е о	-0.09977339
-0.9511419	т к о	-0.09977339
-1.1214123	а к о	-0.09977339
-0.9334695	# к о	-0.16552903
-1.1704887	і к о	-0.09977339
-1.1433436	р к о	-0.09977339
-1.2008109	с к о	-0.09977339
-0.79565096	д к о	-0.09977339
-1.0468168	я к о	-0.09977339
-0.67024624	ш к о	-0.09977339
-1.0823047	у к о	-0.09977339
-0.9403145	м п о	-0.09977339
-1.2604069	а п о	-0.09977339
-1.1030153	# п о	-0.16552903
-0.62532604	| п о	-0.20140101
-0.80243075	я п о	-0.09977339
-1.0861721	а д о	-0.13762066
-1.2775526	# д о	-0.1790838
-0.87465495	з д о	-0.09977339
-1.1097363	я д о	-0.09977339
-0.45039612	' з о	-0.09977339
-1.109752	# з о	-0.22639786
-1.0120875	у з о	-0.09977339
-0.71282965	« з о	-0.09977339
-0.75262165	д ж о	-0.20140101
-0.7079435	а ш о	-0.09977339
-1.2695335	# ш о	-0.09977339
-0.9542084	й ш о	-0.09977339
-1.0235046	р ч о	-0.09977339
-1.2906939	у ч о	-0.09977339
-0.9500178	а г о	-0.14762127
-1.1903963	# г о	-0.24389929
-0.3966556	і г о	-0.09977339
-0.72857106	р г о	-0.09977339
-0.99115044	о г о	-0.09977339
-0.7297856	| г о	-0.20140101
-0.8417885	я г о	-0.09977339
-0.51500773	- г о	-0.20140101
-0.3040615	б и о	-0.09977339
-0.47398362	л и о	-0.09977339
-0.47398362	с и о	-0.09977339
-0.3040615	ц и о	-0.09977339
-0.3040615	п и о	-0.09977339
-0.77961785	н ф о	-0.09977339
-0.8868661	# ф о	-0.20140101
-0.41968292	е ф о	-0.09977339
-2.0398917	н а б	-0.09977339
-1.0625432	# а б	-0.26255918
-1.6494778	р а б	-0.09977339
-1.5804384	с а б	-0.09977339
-1.9437268	к а б	-0.09977339
-1.4596381	п а б	-0.09977339
-1.4959242	д а б	-0.09977339
-1.5347623	м # б	-0.09977339
-0.9365286	н # б	-0.09977339
-1.3253802	ю # б	-0.09977339
-0.9051411	т # б	-0.09977339
-1.1313759	а # б	-0.28197497
-1.3782966	ў # б	-0.16481838
-1.2876276	і # б	-0.17449532
-0.84798384	р # б	-0.09977339
-0.9757359	ё # б	-0.09977339
-1.2514032	х # б	-0.09977339
-1.0787735	ь # б	-0.09977339
-1.2453059	е # б	-0.13762066
-1.1821682	к # б	-0.09977339
-1.2877204	й # б	-0.09977339
-1.4113545	ы # б	-0.16481838
-1.1798563	я # б	-0.3055791
-1.414947	. # б	-0.13762066
-1.0301042	ж # б	-0.09977339
-1.1842381	у # б	-0.16481838
-0.96106124	э # б	-0.09977339
-1.5662007	, # б	-0.09977339
-1.4396285	i # б	-0.09977339
-1.1715323	» # б	-0.09977339
-1.8418247	а ў б	-0.09977339
-0.9406168	б і б	-0.09977339
-1.7768157	л і б	-0.09977339
-1.6608968	е р б	-0.09977339
-1.4038221	в о б	-0.09977339
-0.93224275	д о б	-0.09977339
-1.6204476	# | б	-0.09977339
-1.3483961	ц е б	-0.09977339
-1.5259876	а й б	-0.09977339
-0.8911303	э й б	-0.09977339
-1.705929	в ы б	-0.09977339
-1.2150383	л ы б	-0.09977339
-1.4176202	# ( б	-0.09977339
-1.989087	а д б	-0.09977339
-1.5552992	а з б	-0.09977339
-1.8285952	# з б	-0.09977339
-1.6905469	н я б	-0.09977339
-1.352094	с я б	-0.09977339
-0.9134166	у ж б	-0.09977339
-1.5761349	# у б	-0.09977339
-0.7541361	п у б	-0.09977339
-1.306403	г у б	-0.09977339
-1.6328824	р э б	-0.09977339
-0.99003744	а - б	-0.20140101
-0.4144827	. : б	-0.09977339
-1.3541017	[ [ б	-0.09977339
-2.1481056	а н л	-0.09977339
-1.3512733	а т л	-0.09977339
-1.2190083	е т л	-0.09977339
-0.81227076	я т л	-0.20140101
-0.94809335	м а л	-0.13107927
-1.2451723	н а л	-0.15490827
-1.3380699	т а л	-0.13762066
-1.0751762	# а л	-0.43051782
-1.2534668	р а л	-0.14271131
-1.1819197	х а л	-0.09977339
-0.9569948	в а л	-0.13762066
-1.5371894	л а л	-0.09977339
-1.1140422	к а л	-0.16552903
-1.2149268	п а л	-0.13762066
-1.2488223	д а л	-0.09977339
-0.97222745	з а л	-0.13762066
-1.1116444	ж а л	-0.09977339
-1.1746941	ч а л	-0.09977339
-0.94231623	э а л	-0.09977339
-1.1832161	г а л	-0.09977339
-1.1116444	ф а л	-0.09977339
-1.4846458	м # л	-0.09977339
-1.8663616	а # л	-0.09977339
-0.91531014	б # л	-0.09977339
-1.4702076	с # л	-0.09977339
-1.8467864	е # л	-0.09977339
-1.5958623	к # л	-0.09977339
-1.6792072	й # л	-0.09977339
-1.8509	ы # л	-0.09977339
-1.5409324	я # л	-0.16481838
-1.8690621	. # л	-0.09977339
-1.6227106	, # л	-0.16481838
-1.3493499	# ў л	-0.20140101
-1.4454875	о ў л	-0.09977339
-1.2313749	я ў л	-0.09977339
-1.3935208	м і л	-0.09977339
-0.42444062	х і л	-0.09977339
-1.3004502	в і л	-0.09977339
-1.2007136	с і л	-0.09977339
-1.1952393	ц і л	-0.09977339
-1.228077	з і л	-0.09977339
-0.81691724	ф і л	-0.09977339
-2.0406384	а р л	-0.09977339
-0.74284446	с ё л	-0.09977339
-1.1085299	м о л	-0.09977339
-1.288672	р о л	-0.09977339
-1.0328122	х о л	-0.09977339
-1.1396415	в о л	-0.09977339
-0.698962	б о л	-0.16481838
-0.96010315	к о л	-0.09977339
-0.84860957	п о л	-0.16481838
-0.7100332	з о л	-0.09977339
-1.1244473	а б л	-0.09977339
-1.3475546	# б л	-0.09977339
-0.6424377	і б л	-0.09977339
-0.75891715	о б л	-0.09977339
-0.75891715	й б л	-0.09977339
-0.75891715	у б л	-0.09977339
-1.5952097	о л л	-0.09977339
-1.1362095	а с л	-0.09977339
-1.1373867	# с л	-0.22014365
-1.2597255	о с л	-0.09977339
-1.2502915	ы с л	-0.09977339
-0.46442696	[ с л	-0.09977339
-1.1365193	м е л	-0.09977339
-1.4121001	в е л	-0.09977339
-0.44351104	б е л	-0.25958794
-0.90551615	с е л	-0.16481838
-1.2825612	з е л	-0.09977339
-0.9700806	г е л	-0.09977339
-1.2145442	н к л	-0.09977339
-1.4259044	а к л	-0.09977339
-1.0367656	ў к л	-0.09977339
-1.5820099	с к л	-0.09977339
-1.1496661	ы к л	-0.09977339
-1.100409	я к л	-0.09977339
-0.8269161	. к л	-0.09977339
-1.0367656	i к л	-0.09977339
-1.1069547	о й л	-0.09977339
-1.0441395	м п л	-0.09977339
-1.370806	# п л	-0.20314264
-0.6626293	| п л	-0.20140101
-1.475809	т ы л	-0.09977339
-1.1336721	б ы л	-0.09977339
-0.73357	с ы л	-0.09977339
-0.73357	п ы л	-0.09977339
-1.250479	ч ы л	-0.09977339
-1.3253818	# д л	-0.368838
-1.6412101	о д л	-0.09977339
-1.6029395	а з л	-0.09977339
-1.3690625	н я л	-0.09977339
-0.7031827	в я л	-0.20314264
-1.2428434	л я л	-0.09977339
-1.1626177	с я л	-0.09977339
-1.3806796	ы я л	-0.09977339
-1.1472111	з я л	-0.09977339
-1.328368	т . л	-0.09977339
-0.7400178	і ш л	-0.09977339
-0.7400178	ы ш л	-0.09977339
-1.4996092	# ч л	-0.09977339
-0.83015	м у л	-0.20140101
-1.23959	н у л	-0.09977339
-1.3009592	т у л	-0.09977339
-1.1011988	# у л	-0.09977339
-0.7586373	б у л	-0.09977339
-1.1291499	к у л	-0.20140101
-0.8283124	г у л	-0.09977339
-1.4026277	т э л	-0.09977339
-1.2149277	д э л	-0.09977339
-1.002385	н г л	-0.09977339
-1.3594257	# г л	-0.16481838
-1.002385	я г л	-0.09977339
-0.7079315	э г л	-0.09977339
-0.74864566	а i л	-0.09977339
-1.3766274	л i л	-0.09977339
-0.4696017	п i л	-0.09977339
-0.87411773	ф и л	-0.09977339
-1.2347912	' ' с	-0.09977339
-1.5143197	і м с	-0.09977339
-1.2055159	е м с	-0.09977339
-1.3381714	а н с	-0.09977339
-1.3022659	і н с	-0.09977339
-1.3059351	е н с	-0.20140101
-1.458037	ы н с	-0.09977339
-0.8436464	я н с	-0.24389929
-0.718634	i н с	-0.16481838
-1.5342919	м а с	-0.09977339
-1.0341699	н а с	-0.2767626
-1.598252	т а с	-0.09977339
-1.029162	# а с	-0.27140534
-1.2717595	р а с	-0.13762066
-1.4146966	в а с	-0.16481838
-0.8722819	б а с	-0.09977339
-0.871739	л а с	-0.12646644
-1.532243	к а с	-0.09977339
-1.2368311	п а с	-0.09977339
-0.7196115	( а с	-0.09977339
-1.5341191	д а с	-0.09977339
-1.4618565	з а с	-0.09977339
-1.030025	ч а с	-0.09977339
-1.0305717	г а с	-0.25958794
-1.3160808	м # с	-0.13107927
-1.2781817	ю # с	-0.09977339
-1.1975627	т # с	-0.09977339
-1.261448	а # с	-0.1599399
-1.2099223	ў # с	-0.18961242
-1.25781	і # с	-0.14762127
-0.95742685	х # с	-0.22564784
-0.97448194	о # с	-0.09977339
-1.0326751	е # с	-0.16588482
-1.0551165	к # с	-0.14762127
-1.1691705	й # с	-0.12646644
-1.1521395	ы # с	-0.23283163
-1.231561	д # с	-0.09977339
-1.0681944	з # с	-0.09977339
-1.154829	я # с	-0.13762066
-1.1066388	) # с	-0.09977339
-1.0536025	. # с	-0.2447741
-1.0039566	ж # с	-0.09977339
-1.2388095	у # с	-0.09977339
-0.4481502	/ # с	-0.09977339
-1.2365867	, # с	-0.13107927
-1.0588714	i # с	-0.09977339
-0.93865955	: # с	-0.09977339
-1.0536705	e # с	-0.09977339
-1.1378841	» # с	-0.09977339
-0.4481502	; # с	-0.09977339
-1.1027572	= # с	-0.09977339
-0.873452	а ў с	-0.25958794
-0.85502106	# ў с	-0.2025613
-0.6773088	і ў с	-0.20140101
-1.182964	о ў с	-0.09977339
-0.6332979	е ў с	-0.09977339
-0.59497654	ы ў с	-0.20140101
-1.4965997	н і с	-0.09977339
-1.6142501	# і с	-0.09977339
-0.9925178	в і с	-0.20140101
-0.8340819	л і с	-0.13762066
-1.1644213	с і с	-0.09977339
-0.6775744	п і с	-0.13762066
-1.1910703	з і с	-0.09977339
-0.8051822	г і с	-0.20140101
-1.6032438	а р с	-0.09977339
-1.5423032	е р с	-0.09977339
-1.2645324	у р с	-0.09977339
-0.89380145	в ё с	-0.09977339
-1.1404661	м о с	-0.09977339
-0.43956035	і о с	-0.09977339
-1.1066809	р о с	-0.09977339
-1.258856	л о с	-0.09977339
-1.1558025	п о с	-0.09977339
-0.8265705	ш о с	-0.09977339
-0.63799465	и о с	-0.09977339
-1.5949912	# б с	-0.20140101
-0.46982762	е б с	-0.09977339
-1.8925123	а с с	-0.09977339
-0.7619294	б с с	-0.09977339
-1.4142911	у с с	-0.09977339
-1.1825614	л ь с	-0.20140101
-0.6427259	н | с	-0.09977339
-0.96647114	а | с	-0.09977339
-1.0082065	# | с	-0.09977339
-0.26621255	ы | с	-0.09977339
-0.9703136	- | с	-0.09977339
-0.81714696	м е с	-0.14762127
-1.3878524	н е с	-0.09977339
-1.1150514	в е с	-0.20140101
-1.2146151	б е с	-0.09977339
-1.3272995	л е с	-0.09977339
-1.2122538	п е с	-0.09977339
-1.200094	з е с	-0.09977339
-0.54890823	ф е с	-0.09977339
-1.4330868	а к с	-0.09977339
-1.5254383	# к с	-0.16481838
-1.1211548	е к с	-0.09977339
-1.1294365	а й с	-0.09977339
-0.41941234	і й с	-0.24389929
-1.1561801	е й с	-0.09977339
-1.1385784	м ы с	-0.09977339
-1.4199669	т ы с	-0.09977339
-1.3670706	р ы с	-0.09977339
-1.4222018	в ы с	-0.09977339
-1.5230358	ц ы с	-0.09977339
-1.3588398	д ы с	-0.09977339
-1.6171361	а д с	-0.16481838
-1.138435	м я с	-0.09977339
-1.391778	в я с	-0.09977339
-0.7358396	о я с	-0.09977339
-1.3401952	л я с	-0.09977339
-1.163257	е ж с	-0.09977339
-1.1270379	м у с	-0.09977339
-1.2986721	т у с	-0.09977339
-1.0006087	# у с	-0.16481838
-0.7132726	р у с	-0.13107927
-1.1823108	в у с	-0.09977339
-0.6889754	с у с	-0.20140101
-0.43646586	- у с	-0.09977339
-0.8119527	м э с	-0.09977339
-0.62171054	# э с	-0.20140101
-0.71656346	р э с	-0.30005264
-0.43350458	е э с	-0.09977339
-1.1329991	н г с	-0.09977339
-0.3664715	³ / с	-0.09977339
-1.2708012	а - с	-0.09977339
-0.45373997	у - с	-0.09977339
-0.9235821	б i с	-0.09977339
-1.1170975	г i с	-0.09977339
-0.89539945	н ф с	-0.09977339
-1.3324419	[ [ с	-0.09977339
-1.1966672	# « с	-0.09977339
-1.3827686	а н ц	-0.25958794
-1.4049525	я н ц	-0.09977339
-1.3680682	э н ц	-0.09977339
-1.2963136	i н ц	-0.09977339
-0.24334615	а ю ц	-0.3055791
-0.83088815	л ю ц	-0.09977339
-1.9928865	с т ц	-0.09977339
-1.3911633	м а ц	-0.09977339
-1.63902	н а ц	-0.24389929
-1.5126375	т а ц	-0.09977339
-1.3156887	р а ц	-0.21740259
-1.7427335	в а ц	-0.09977339
-1.4574038	л а ц	-0.09977339
-1.6080264	к а ц	-0.09977339
-1.1553084	д а ц	-0.20314264
-1.5584894	з а ц	-0.09977339
-1.5885369	ч а ц	-0.09977339
-0.9928169	э а ц	-0.09977339
-1.7513134	м # ц	-0.09977339
-1.8769116	і # ц	-0.09977339
-1.7387807	х # ц	-0.09977339
-1.5059522	ь # ц	-0.09977339
-1.601748	к # ц	-0.09977339
-1.4094743	й # ц	-0.09977339
-1.8598932	ы # ц	-0.09977339
-1.8591702	я # ц	-0.09977339
-1.8746052	. # ц	-0.09977339
-1.6796135	у # ц	-0.09977339
-1.6270192	, # ц	-0.16481838
-1.1258312	н і ц	-0.20314264
-0.9458835	в і ц	-0.24389929
-1.3628788	з і ц	-0.09977339
-1.2571489	ф і ц	-0.09977339
-1.8830217	а р ц	-0.09977339
-1.4712329	о р ц	-0.09977339
-1.2731938	у р ц	-0.09977339
-0.7740531	б о ц	-0.20140101
-0.4798581	ў б ц	-0.09977339
-1.12241	а с ц	-0.17449532
-1.2319568	о с ц	-0.09977339
-0.78414947	| с ц	-0.20140101
-0.98665816	е с ц	-0.09977339
-0.6579177	я с ц	-0.20140101
-1.2883458	у с ц	-0.09977339
-0.81319445	ю ц ц	-0.09977339
-1.3543115	а ц ц	-0.09977339
-0.7492996	е ц ц	-0.24389929
-0.56911	ы ц ц	-0.16481838
-0.95516974	я ц ц	-0.09977339
-0.95516974	i ц ц	-0.09977339
-1.229525	н е ц	-0.09977339
-0.9368539	а е ц	-0.24389929
-1.1471888	в е ц	-0.14762127
-1.2069688	с е ц	-0.09977339
-1.2535512	п е ц	-0.09977339
-0.70772463	я е ц	-0.09977339
-0.44759896	у е ц	-0.09977339
-1.8475091	а к ц	-0.09977339
-1.2235948	э к ц	-0.09977339
-0.9323945	у п ц	-0.20140101
-1.7041656	р ы ц	-0.09977339
-1.5535431	в ы ц	-0.09977339
-0.744352	ж ы ц	-0.09977339
-1.2853054	ч ы ц	-0.09977339
-1.3489313	с я ц	-0.09977339
-1.3423829	з я ц	-0.09977339
-0.75437534	о ж ц	-0.09977339
-1.6237099	т у ц	-0.09977339
-1.4489391	в у ц	-0.09977339
-1.6263883	р э ц	-0.09977339
-0.47086167	с - ц	-0.09977339
-0.9940585	н i ц	-0.09977339
-1.0557508	в i ц	-0.09977339
-1.3258377	л i ц	-0.09977339
-0.8833087	з i ц	-0.09977339
-0.7309938	н и ц	-0.09977339
-1.656308	а н ь	-0.20140101
-1.6725973	і н ь	-0.09977339
-1.3496722	е н ь	-0.09977339
-1.025407	у н ь	-0.09977339
-0.4743395	" н ь	-0.09977339
-0.99592155	а л ь	-0.29082358
-1.1902386	і л ь	-0.09977339
-0.60090685	о л ь	-0.16481838
-0.7024094	е л ь	-0.13762066
-1.17269	ы л ь	-0.09977339
-1.1446838	я л ь	-0.09977339
-0.8974243	у л ь	-0.09977339
-2.2425742	# с ь	-0.09977339
-1.4998226	у с ь	-0.09977339
-0.7702849	ю ц ь	-0.09977339
-1.02257	а ц ь	-0.16481838
-0.95507926	і ц ь	-0.09977339
-1.1308179	с ц ь	-0.09977339
-0.66832376	ы ц ь	-0.20140101
-0.896742	я ц ь	-0.09977339
-0.65110433	у ц ь	-0.09977339
-0.896742	i ц ь	-0.09977339
-1.7376313	д з ь	-0.09977339
-1.2468168	ё н |	-0.09977339
-1.9445897	н а |	-0.09977339
-1.8060673	к а |	-0.09977339
-1.8853893	ч а |	-0.09977339
-1.3708096	н # |	-0.09977339
-2.0477107	а # |	-0.09977339
-1.8431832	я # |	-0.09977339
-1.864792	. # |	-0.09977339
-0.47336423	0 # |	-0.09977339
-1.3045624	a # |	-0.09977339
-0.5872786	" # |	-0.09977339
-0.7558274	5 # |	-0.09977339
-0.38798046	= # |	-0.09977339
-0.5872786	g # |	-0.09977339
-0.29875627	3 # |	-0.09977339
-0.47336423	4 # |	-0.09977339
-1.8373111	к і |	-0.09977339
-1.4747828	ы р |	-0.09977339
-1.012885	ы ё |	-0.09977339
-0.85067487	с ь |	-0.09977339
-1.3544068	ц ь |	-0.09977339
-1.7879553	н е |	-0.09977339
-1.5233954	з е |	-0.09977339
-2.0026748	н ы |	-0.09977339
-1.6161523	д ы |	-0.09977339
-1.5338664	і я |	-0.09977339
-1.2316583	с у |	-0.09977339
-0.09514665	= - |	-0.16481838
-0.9829132	s t |	-0.09977339
-0.7591673	c e |	-0.09977339
-0.47153997	б ' е	-0.09977339
-0.87942964	а м е	-0.21379346
-0.730147	# м е	-0.2185981
-1.1308942	р м е	-0.09977339
-0.4338578	в м е	-0.09977339
-0.4338578	с м е	-0.09977339
-0.74357456	| м е	-0.20140101
-0.54262996	з м е	-0.09977339
-0.89588195	я м е	-0.09977339
-0.942855	н н е	-0.12646644
-1.2911707	а н е	-0.14762127
-0.6299918	# н е	-0.26086763
-1.1339595	і н е	-0.20140101
-0.9632718	ё н е	-0.09977339
-1.1794066	о н е	-0.09977339
-1.1070867	с н е	-0.09977339
-1.0363742	ь н е	-0.09977339
-1.1151378	е н е	-0.09977339
-1.0573877	й н е	-0.09977339
-1.1997087	д н е	-0.09977339
-0.8378218	з н е	-0.09977339
-0.8671516	я н е	-0.09977339
-1.0617831	ж н е	-0.09977339
-0.8676757	у н е	-0.09977339
-1.0573877	i н е	-0.09977339
-1.7889497	# т е	-0.09977339
-1.9234929	с т е	-0.09977339
-1.4214702	м а е	-0.16481838
-1.4000725	н а е	-0.30005264
-1.7723023	т а е	-0.09977339
-1.6030755	р а е	-0.09977339
-1.516903	в а е	-0.16481838
-1.7396547	л а е	-0.09977339
-1.5534861	к а е	-0.24389929
-1.4554775	д а е	-0.09977339
-1.2852752	ш а е	-0.09977339
-1.3959978	т # е	-0.09977339
-1.9526746	а # е	-0.16481838
-1.9951901	і # е	-0.09977339
-0.4808775	| # е	-0.09977339
-1.9808278	ы # е	-0.09977339
-1.1353228	ж # е	-0.09977339
-2.0669286	, # е	-0.09977339
-1.0404054	с х е	-0.09977339
-0.40763888	н в е	-0.09977339
-1.0194806	т в е	-0.09977339
-0.9880185	а в е	-0.14838979
-1.1283225	# в е	-0.09977339
-0.5980688	і в е	-0.09977339
-0.9937864	о в е	-0.09977339
-0.7525086	б в е	-0.09977339
-0.5382652	с в е	-0.18040667
-1.0150044	ы в е	-0.09977339
-1.094449	т о е	-0.20140101
-1.0683341	а б е	-0.09977339
-0.6089328	# б е	-0.55113685
-0.25889614	я б е	-0.09977339
-0.72968084	у б е	-0.09977339
-0.3971721	- б е	-0.09977339
-0.3971721	: б е	-0.09977339
-0.3971721	[ б е	-0.09977339
-0.87864923	а л е	-0.24429417
-0.9031336	# л е	-0.09977339
-1.0015805	і л е	-0.09977339
-0.9327314	о л е	-0.09977339
-0.99894214	б л е	-0.09977339
-0.40170574	л л е	-0.09977339
-1.0310155	с л е	-0.09977339
-1.0316331	к л е	-0.09977339
-0.83568263	п л е	-0.09977339
-0.62750244	д л е	-0.09977339
-0.97553426	я л е	-0.09977339
-0.40170574	ч л е	-0.09977339
-0.2613611	э л е	-0.09977339
-1.3458381	н с е	-0.09977339
-1.4001515	а с е	-0.16481838
-1.5812368	# с е	-0.09977339
-1.099741	р с е	-0.09977339
-1.1117258	к с е	-0.09977339
-1.2205878	ы с е	-0.09977339
-1.3533623	а ц е	-0.09977339
-1.0159554	і ц е	-0.09977339
-0.8421581	с ц е	-0.16481838
-1.1472911	е ц е	-0.09977339
-0.9546239	я ц е	-0.09977339
-0.68303084	у ц е	-0.09977339
-1.2372454	ў к е	-0.09977339
-0.89518434	м п е	-0.09977339
-0.9581181	а п е	-0.09977339
