\data\
ngram 1=92
ngram 2=974
ngram 3=4192
ngram 4=9178
ngram 5=13171

\1-grams:
-3.1841724	<unk>	0
0	<s>	-0.27780735
-1.9080276	</s>	0
-1.5729619	t	-0.62030816
-1.431806	a	-0.9015346
-1.5899704	c	-0.6300055
-1.4695535	s	-0.6581153
-1.4829022	o	-0.79025537
-1.5899704	n	-0.65340513
-1.3649235	#	-1.0865103
-1.4440275	e	-0.80781174
-1.6261262	w	-0.70708275
-1.6655676	m	-0.56038237
-2.3824613	ï	-0.32905006
-1.5565946	d	-0.7156209
-1.4829022	l	-0.7695561
-1.5256017	.	-0.6119284
-2.8017826	q	-0.4327156
-1.5729619	u	-0.59153354
-1.5256017	i	-0.8153566
-1.5108972	r	-0.74138474
-1.9456937	k	-0.39317048
-1.6076721	y	-0.7537651
-1.5729619	p	-0.466232
-2.0834453	j	-0.34711626
-1.5729619	g	-0.7126151
-2.2077117	_	-0.40181792
-2.8017826	(	-0.22519457
-1.7323859	h	-0.6170106
-1.5729619	)	-0.72954696
-1.6655676	b	-0.6791712
-2.5060623	<	-0.34592557
-1.6453993	f	-0.65760523
-1.5108972	'	-0.54021364
-1.5565946	,	-0.7366547
-1.9456937	-	-0.2862961
-1.8733692	:	-0.6542729
-1.6261262	|	-0.473953
-2.0834453	;	-0.55816865
-2.2077117	[	-0.28089905
-1.9869394	]	-0.45900637
-2.9726284	κ	-0.21165955
-2.9726284	ν	-0.21165955
-2.9726284	ω	-0.21165955
-2.9726284	σ	-0.21165955
-2.9726284	ό	-0.21165955
-2.9726284	ς	-0.21165955
-2.2077117	2	-0.30827212
-2.0834453	5	-0.33047032
-2.0834453	0	-0.31822178
-2.5060623	x	-0.21165955
-2.141149	v	-0.38929015
-2.141149	1	-0.30619654
-2.2863557	9	-0.26421237
-2.2077117	6	-0.25728482
-1.8113873	=	-0.4631037
-2.5060623	ô	-0.34592557
-2.9726284	ᓄ	-0.21165955
-2.9726284	ᓇ	-0.21165955
-2.9726284	ᖃ	-0.21165955
-2.8017826	ᖅ	-0.21165955
-2.9726284	ᑳ	-0.21165955
-2.9726284	ᓯ	-0.21165955
-2.9726284	ᒪ	-0.21165955
-2.9726284	ᔪ	-0.21165955
-2.9726284	ᑦ	-0.21165955
-2.0834453	/	-0.2664005
-2.3824613	â	-0.21165955
-2.2863557	z	-0.28715363
-1.9080276	8	-0.29308343
-2.2863557	3	-0.27362442
-2.2863557	4	-0.28715363
-2.2077117	"	-0.3510347
-2.9726284	î	-0.21165955
-2.8017826	>	-0.30827212
-2.141149	7	-0.25197214
-2.9726284	*	-0.21165955
-2.8017826	ó	-0.21165955
-2.8017826	&	-0.4327156
-2.9726284	đ	-0.21165955
-2.9726284	ë	-0.21165955
-2.5060623	ŵ	-0.21165955
-2.9726284	+	-0.21165955
-2.3824613	{	-0.2862961
-2.8017826	}	-0.21165955
-2.8017826	ŷ	-0.21165955
-2.9726284	ê	-0.21165955
-2.9726284	á	-0.21165955
-2.9726284	í	-0.21165955
-2.9726284	à	-0.21165955
-2.9726284	’	-0.21165955
-2.9726284	ü	-0.21165955

\2-grams:
-2.1954303	t </s>	0
-2.3999636	o </s>	0
-1.9044335	n </s>	0
-2.4504292	e </s>	0
-1.9758954	d </s>	0
-2.0636098	l </s>	0
-1.631378	. </s>	0
-2.4223206	i </s>	0
-2.3885446	r </s>	0
-2.0885828	' </s>	0
-1.8323854	, </s>	0
-2.0350115	| </s>	0
-1.4493889	<s> t	-0.20208812
-1.7551696	t t	-0.20208812
-1.2246805	a t	-0.28137523
-1.3327981	c t	-0.29612038
-1.0323076	s t	-0.47015435
-1.8777204	o t	-0.2289769
-1.5714227	n t	-0.32088375
-1.4117899	# t	-0.6963612
-1.3072941	e t	-0.280674
-2.0853982	w t	-0.20208812
-1.950247	m t	-0.20208812
-1.874931	d t	-0.20208812
-1.9554193	l t	-0.2289769
-1.3954195	u t	-0.2459474
-1.4918344	i t	-0.2718032
-1.6432105	r t	-0.37299484
-1.6122676	y t	-0.29124436
-1.8473204	p t	-0.20208812
-1.5121105	( t	-0.20208812
-1.6128433	h t	-0.20208812
-2.0274441	f t	-0.20208812
-1.5465173	' t	-0.2289769
-1.3466116	| t	-0.20208812
-1.4777099	[ t	-0.20208812
-0.9474624	x t	-0.20208812
-1.0930567	â t	-0.20208812
-0.93502426	<s> a	-0.20208812
-0.9833575	t a	-0.3447558
-1.090776	c a	-0.2831675
-1.1186185	s a	-0.34830117
-1.8263456	o a	-0.20208812
-1.1661265	n a	-0.35177523
-1.3111796	# a	-0.80978566
-1.4170605	e a	-0.26800558
-1.2283907	w a	-0.31250516
-0.96829444	m a	-0.2740297
-0.94392276	ï a	-0.20208812
-1.0465126	d a	-0.40024653
-0.9643082	l a	-0.50602955
-1.2739025	. a	-0.20208812
-1.6831763	u a	-0.20208812
-1.1366217	i a	-0.48550332
-1.086088	r a	-0.5429665
-1.452642	k a	-0.20208812
-2.0316126	y a	-0.20208812
-0.9412783	p a	-0.27820614
-1.0917678	g a	-0.3390877
-0.8101121	_ a	-0.25764102
-1.4333736	( a	-0.20208812
-0.8861917	h a	-0.40889293
-1.0636659	b a	-0.2857751
-0.9067524	f a	-0.40190798
-1.8165075	' a	-0.20208812
-0.9364392	- a	-0.23832297
-1.3145664	| a	-0.21982774
-1.4126797	[ a	-0.20208812
-1.2769513	0 a	-0.20208812
-1.2995883	v a	-0.20208812
-1.3191707	1 a	-0.20208812
-1.3896339	= a	-0.20208812
-1.0165918	z a	-0.20208812
-0.3888257	đ a	-0.20208812
-2.0188262	t c	-0.20208812
-1.4846071	a c	-0.39393514
-1.448023	s c	-0.21982774
-1.5456103	o c	-0.25563243
-1.5751303	n c	-0.23295778
-1.3544211	# c	-0.82015485
-1.6213462	e c	-0.23832297
-1.5830799	w c	-0.413629
-1.9613291	m c	-0.20208812
-1.8735001	l c	-0.23832297
-1.9029535	. c	-0.20208812
-1.3982674	u c	-0.29124436
-1.330016	i c	-0.27805364
-1.7503363	r c	-0.26800558
-1.3389356	y c	-0.49536434
-1.5954123	p c	-0.20208812
-0.82285506	_ c	-0.25764102
-1.52083	( c	-0.20208812
-1.9207354	' c	-0.20208812
-1.4593289	- c	-0.20208812
-1.0749605	| c	-0.2662609
-1.4847822	[ c	-0.20208812
-1.7589016	= c	-0.20208812
-1.2066339	/ c	-0.20208812
-0.96225697	> c	-0.20208812
-1.9376185	t s	-0.20208812
-1.3444346	a s	-0.35451263
-1.5742623	c s	-0.20208812
-1.6057279	s s	-0.20208812
-1.0910676	o s	-0.312682
-1.6413591	n s	-0.22147696
-1.3303039	# s	-0.71513
-1.2006059	e s	-0.36045766
-1.5570639	w s	-0.20208812
-1.6585747	m s	-0.21982774
-2.0441394	d s	-0.20208812
-1.830395	l s	-0.20208812
-1.1636817	. s	-0.2234643
-1.109088	u s	-0.4467271
-1.2378299	i s	-0.30939826
-1.8394054	r s	-0.23295778
-1.4682591	k s	-0.20208812
-1.0104226	y s	-0.4360452
-1.1310532	p s	-0.33587572
-1.455533	( s	-0.20208812
-1.9147187	h s	-0.20208812
-1.9071175	b s	-0.20208812
-1.7228379	f s	-0.20208812
-1.8425446	' s	-0.20208812
-1.409205	- s	-0.20208812
-1.3239342	| s	-0.3704256
-1.281968	; s	-0.20208812
-1.4311872	[ s	-0.20208812
-1.4449322	] s	-0.20208812
-1.6935818	= s	-0.20208812
-1.0870467	{ s	-0.20208812
-0.39084187	à s	-0.20208812
-0.39084187	’ s	-0.20208812
-1.4113859	<s> o	-0.20208812
-1.38748	t o	-0.39051965
-2.2519147	a o	-0.20208812
-0.99276173	c o	-0.28088728
-1.3020682	s o	-0.25264528
-1.9280827	o o	-0.20208812
-1.1373417	n o	-0.51464725
-1.3861464	# o	-0.63417876
-1.7791219	e o	-0.3704256
-1.453212	w o	-0.21724874
-1.0157273	m o	-0.38237014
-0.34657505	ï o	-0.20208812
-1.1188085	d o	-0.36309826
-1.1777235	l o	-0.35644722
-1.845872	. o	-0.20208812
-1.70578	u o	-0.20208812
-1.111916	i o	-0.49032986
-1.1164014	r o	-0.4137895
-1.737288	y o	-0.20208812
-1.3252788	p o	-0.21532442
-0.4501165	j o	-0.21982774
-1.1391762	g o	-0.37371948
-1.0085976	h o	-0.32090342
-0.89756453	b o	-0.30248758
-1.1101813	f o	-0.3986326
-1.8515825	' o	-0.20208812
-0.9444827	- o	-0.23832297
-1.7926292	| o	-0.20208812
-1.4375359	[ o	-0.20208812
-0.9331406	x o	-0.20208812
-0.89242005	v o	-0.20208812
-0.391516	í o	-0.20208812
-1.4560591	<s> n	-0.20208812
-1.0841675	a n	-0.5358149
-1.707941	c n	-0.23832297
-1.6385554	s n	-0.2289769
-0.9771873	o n	-0.40380526
-1.5751303	n n	-0.36072886
-1.4801087	# n	-0.6546125
-1.0607839	e n	-0.46248016
-1.2449943	w n	-0.31250516
-1.6114411	m n	-0.20208812
-1.8814139	d n	-0.25764102
-1.9029535	. n	-0.20208812
-1.0725644	u n	-0.325687
-1.0186735	i n	-0.4194838
-1.5632268	r n	-0.23150593
-1.1146739	k n	-0.25764102
-0.9563659	y n	-0.5720284
-1.8374532	g n	-0.20208812
-1.52083	( n	-0.20208812
-1.7163653	h n	-0.20208812
-1.6682518	f n	-0.20208812
-1.1949815	' n	-0.49281025
-1.5014745	| n	-0.20208812
-1.0964632	â n	-0.20208812
-0.19363569	& n	-0.25764102
-1.2137077	t #	-0.301023
-1.2991196	a #	-0.34549677
-1.2982252	c #	-0.21982774
-0.98813593	s #	-0.5174718
-1.2855698	o #	-0.31810445
-1.1575012	n #	-0.6030908
-1.4555056	e #	-0.25679415
-1.2195948	w #	-0.3359654
-1.1594629	m #	-0.24929164
-1.1453975	d #	-0.56570625
-1.1346396	l #	-0.5348469
-0.4422765	. #	-0.65726876
-0.93603295	u #	-0.46806788
-1.103178	i #	-0.44816697
-1.0802112	r #	-0.61804223
-1.0764844	k #	-0.20208812
-1.1986892	y #	-0.25906706
-1.2941879	p #	-0.2289769
-1.12743	g #	-0.3814353
-1.6302176	h #	-0.24307255
-0.43866193	) #	-0.2847092
-1.3320067	b #	-0.23542577
-1.2099326	f #	-0.36540478
-1.4795682	' #	-0.21383366
-0.149244	, #	-0.64359266
-0.15167215	: #	-0.26336855
-1.4274057	| #	-0.20208812
-0.18733603	; #	-0.20208812
-1.1583749	2 #	-0.20208812
-0.8346919	5 #	-0.20208812
-1.2532803	0 #	-0.20208812
-0.91027284	x #	-0.20208812
-1.1045936	9 #	-0.20208812
-1.1421475	6 #	-0.20208812
-0.84650123	= #	-0.26377797
-1.0418987	â #	-0.20208812
-0.95043397	8 #	-0.25764102
-1.0590943	3 #	-0.20208812
-0.5329051	" #	-0.2459474
-1.1737809	7 #	-0.20208812
-0.80939937	ë #	-0.20208812
-0.6587856	ŷ #	-0.20208812
-1.11288	t e	-0.3015786
-1.2163162	a e	-0.54426306
-1.092066	c e	-0.26052764
-1.2449908	s e	-0.24638268
-1.2954454	o e	-0.5595155
-1.0441569	n e	-0.3974626
-1.4692103	# e	-0.52802116
-2.1414342	e e	-0.20208812
-1.0863007	w e	-0.4181863
-0.9694366	m e	-0.3129059
-1.0801246	d e	-0.3786518
-1.0571709	l e	-0.37022537
-1.8235325	. e	-0.20208812
-1.6065577	u e	-0.20208812
-1.5415947	i e	-0.24934642
-1.0390458	r e	-0.3860215
-0.6750013	k e	-0.2459474
-1.4537088	p e	-0.21724874
-1.290355	j e	-0.20208812
-1.1356188	g e	-0.40462407
-1.4406352	( e	-0.20208812
-0.962203	h e	-0.38079315
-1.0006607	b e	-0.3664479
-1.0156901	f e	-0.44075084
-1.8250142	' e	-0.20208812
-1.3975284	- e	-0.20208812
-1.4563917	| e	-0.20208812
-1.4187615	[ e	-0.20208812
-0.5788945	v e	-0.2289769
-1.1667763	6 e	-0.20208812
-1.6786792	= e	-0.20208812
-1.1694189	/ e	-0.20208812
-0.56721896	z e	-0.25764102
-0.82194	ŵ e	-0.20208812
-1.0814466	{ e	-0.20208812
-1.7738118	t w	-0.20208812
-1.320815	a w	-0.41180483
-1.718745	c w	-0.23832297
-1.5396596	s w	-0.2750553
-2.2356787	o w	-0.20208812
-1.428101	n w	-0.25022522
-1.3942213	# w	-0.55264956
-1.6271902	e w	-0.23832297
-1.8432317	w w	-0.20208812
-1.4697912	m w	-0.23295778
-1.3159305	d w	-0.36862355
-1.1881185	l w	-0.49281025
-1.6658121	u w	-0.2289769
-1.4358819	i w	-0.25264528
-1.2933729	r w	-0.36838737
-1.278575	y w	-0.3218138
-1.2419639	p w	-0.33587572
-1.1058723	g w	-0.4032707
-1.1238438	h w	-0.3311339
-1.371872	b w	-0.2813752
-1.5213606	f w	-0.3704256
-1.9426994	' w	-0.20208812
-0.39763075	î w	-0.20208812
-1.2293979	a m	-0.33213383
-1.8951564	s m	-0.20208812
-1.4195209	o m	-0.30117068
-2.1578465	n m	-0.20208812
-1.3059655	# m	-0.73269975
-1.4451494	e m	-0.2345604
-1.3152661	w m	-0.33936712
-1.7314403	m m	-0.20208812
-1.896771	l m	-0.20208812
-1.9392908	. m	-0.20208812
-1.4098498	u m	-0.21982774
-1.9270229	i m	-0.20208812
-1.9122396	r m	-0.20208812
-1.5370338	k m	-0.20208812
-1.1760062	y m	-0.3335934
-1.2888288	_ m	-0.20208812
-1.2119626	( m	-0.20208812
-1.9658338	' m	-0.20208812
-1.6224779	| m	-0.20208812
-1.5142832	[ m	-0.20208812
-1.3169476	" m	-0.20208812
-2.290762	c ï	-0.20208812
-2.09862	n ï	-0.25764102
-2.9771545	# ï	-0.20208812
-2.1875854	p ï	-0.20208812
-1.4428196	<s> d	-0.20208812
-1.1968459	a d	-0.3905223
-1.7668242	s d	-0.23832297
-1.0201347	o d	-0.5517808
-1.5677465	n d	-0.29937068
-1.3712808	# d	-0.79144317
-1.1269475	e d	-0.5300393
-2.074872	w d	-0.20208812
-1.9394407	m d	-0.20208812
-1.1244868	d d	-0.49322975
-1.9486321	l d	-0.20208812
-1.8858649	. d	-0.20208812
-1.3060588	u d	-0.28031725
-1.4285009	i d	-0.3218138
-1.4285213	r d	-0.39303038
-1.0152806	y d	-0.47034243
-0.82051015	_ d	-0.25764102
-1.5035626	( d	-0.20208812
-1.7052974	h d	-0.23832297
-1.9548682	b d	-0.20208812
-1.7550961	f d	-0.25764102
-1.8998288	' d	-0.20208812
-0.95475113	- d	-0.20208812
-1.8417423	| d	-0.20208812
-1.4707508	[ d	-0.20208812
-1.3169026	= d	-0.20208812
-1.1042942	{ d	-0.20208812
-1.4113859	<s> l	-0.20208812
-1.946977	t l	-0.20208812
-1.2190865	a l	-0.4382792
-1.4298717	c l	-0.23295778
-2.0146227	s l	-0.20208812
-1.1203945	o l	-0.48329473
-1.6457179	n l	-0.21982774
-1.3861464	# l	-0.63311034
-1.1223235	e l	-0.44658685
-1.2343552	w l	-0.36889133
-1.664201	m l	-0.2234643
-1.4305661	d l	-0.24656421
-1.0863948	l l	-0.54546785
-1.845872	. l	-0.20208812
-1.378713	u l	-0.21724874
-1.2035843	i l	-0.38055488
-1.6223779	r l	-0.25563243
-1.1632285	y l	-0.37196532
-1.4669037	p l	-0.2234643
-1.240864	g l	-0.25663558
-1.463178	( l	-0.20208812
-1.4414821	h l	-0.32184234
-1.0680104	b l	-0.25603342
-1.2261368	f l	-0.26800558
-1.8515825	' l	-0.20208812
-1.415163	- l	-0.20208812
-1.3271022	| l	-0.2234643
-1.4375359	[ l	-0.20208812
-1.4049609	= l	-0.20208812
-0.36115992	ô l	-0.25764102
-1.2738168	" l	-0.20208812
-0.391516	ê l	-0.20208812
-1.7372949	t .	-0.20208812
-1.9838812	a .	-0.20208812
-1.5902396	c .	-0.20208812
-1.6218317	s .	-0.2289769
-1.7240121	o .	-0.4877466
-1.4124613	n .	-0.54651684
-2.2033176	e .	-0.20208812
-1.4607322	w .	-0.413629
-1.59183	m .	-0.20208812
-1.305401	d .	-0.46014506
-1.6118599	l .	-0.3420021
-1.3014617	u .	-0.3420021
-2.1903212	i .	-0.20208812
-1.4832264	r .	-0.4373724
-2.0952325	y .	-0.20208812
-1.3350574	p .	-0.2289769
-1.3144889	j .	-0.20208812
-1.4671769	g .	-0.5846566
-1.6945046	h .	-0.25764102
-0.8269755	) .	-0.5217626
-1.6285207	b .	-0.25764102
-1.6503478	f .	-0.36280787
-1.8798827	' .	-0.20208812
-1.4625517	] .	-0.20208812
-0.8536071	5 .	-0.20208812
-1.3692107	8 .	-0.20208812
-1.0336633	4 .	-0.20208812
-0.83298504	ë .	-0.20208812
-0.39354467	á .	-0.20208812
-2.554658	s q	-0.20208812
-2.6711247	i q	-0.20208812
-1.4493889	<s> u	-0.20208812
-1.4034202	t u	-0.21724874
-1.2841933	a u	-0.55332106
-1.4470832	c u	-0.25764102
-1.7725894	s u	-0.20208812
-2.1998894	o u	-0.20208812
-1.8053709	n u	-0.20208812
-1.735793	# u	-0.4769327
-1.4884205	e u	-0.23596752
-2.0853982	w u	-0.20208812
-1.3492235	m u	-0.316719
-1.5312698	d u	-0.22590576
-1.464943	l u	-0.26898602
-0.19337863	q u	-0.25764102
-1.9882718	i u	-0.20208812
-1.5602784	r u	-0.24656421
-1.4945605	p u	-0.20208812
-1.3863254	g u	-0.25563243
-1.5121105	( u	-0.20208812
-1.4597182	h u	-0.21086736
-1.640591	b u	-0.2289769
-1.5116944	f u	-0.23832297
-1.5465173	' u	-0.36280787
-1.8522683	| u	-0.20208812
-1.2027656	/ u	-0.20208812
-1.0930567	â u	-0.20208812
-1.4299718	<s> i	-0.20208812
-0.9906185	t i	-0.3112987
-1.2218745	a i	-0.56427217
-1.0998886	c i	-0.23150593
-1.0923232	s i	-0.37637958
-1.7240121	o i	-0.2459474
-1.1414374	n i	-0.45558333
-1.5546173	# i	-0.54530585
-1.1767204	e i	-0.5323188
-1.1362205	w i	-0.2674561
-1.2549574	m i	-0.25603342
-1.0532514	d i	-0.43493772
-1.1177279	l i	-0.3753016
-1.6351751	u i	-0.2289769
-1.9687964	i i	-0.25764102
-1.0680358	r i	-0.4513701
-1.489996	k i	-0.20208812
-1.2262875	p i	-0.20208812
-1.3075329	g i	-0.34813985
-0.8181779	_ i	-0.20208812
-1.4869555	( i	-0.20208812
-1.251357	h i	-0.25022522
-1.0712976	b i	-0.25603342
-1.2311184	f i	-0.31939542
-1.1870005	' i	-0.49281025
-1.4571584	[ i	-0.20208812
-0.7688504	v i	-0.2289769
-0.63163084	/ i	-0.23832297
-1.0336633	z i	-0.20208812
-1.0719594	t r	-0.44338953
-1.1226723	a r	-0.46172374
-1.4355334	c r	-0.32184234
-2.0353765	s r	-0.20208812
-1.1223059	o r	-0.40833315
-1.8570495	n r	-0.23832297
-1.4291167	# r	-0.7280774
-1.0568104	e r	-0.46282792
-1.0522578	w r	-0.3631208
-1.445167	m r	-0.21982774
-1.3036705	d r	-0.36311036
-1.1670415	u r	-0.21724874
-1.3227844	i r	-0.35738313
-1.6292117	r r	-0.20208812
-1.0462816	y r	-0.28742108
-1.3317733	p r	-0.27063584
-1.0982207	g r	-0.35973617
-1.4788841	( r	-0.20208812
-1.4474761	h r	-0.27259374
-0.85427755	b r	-0.41691557
-0.36208454	< r	-0.25764102
-1.2294515	f r	-0.27561453
-0.9955791	' r	-0.5729151
-1.3335084	| r	-0.2234643
-1.4505186	[ r	-0.20208812
-1.7169408	= r	-0.20208812
-0.8462133	ô r	-0.20208812
-1.0796912	â r	-0.20208812
-0.6740308	ó r	-0.20208812
-0.8311246	ŵ r	-0.20208812
-1.7899058	c k	-0.20208812
-1.869744	s k	-0.2289769
-2.4185061	o k	-0.20208812
-2.019318	n k	-0.20208812
-2.4861493	# k	-0.20208812
-2.197448	u k	-0.20208812
-2.4087968	r k	-0.20208812
-1.3961595	j k	-0.20208812
-1.6658719	( k	-0.20208812
-1.9863242	) k	-0.20208812
-2.1046374	' k	-0.20208812
-1.0803779	<s> y	-0.20208812
-1.3200659	t y	-0.28863138
-2.3402455	a y	-0.20208812
-1.1707146	c y	-0.36303473
-1.5362784	s y	-0.24656421
-1.4254549	n y	-0.4467271
-1.41368	# y	-0.8592664
-1.9527553	e y	-0.20208812
-0.84985816	w y	-0.5605395
-1.3547424	m y	-0.2638504
-1.3141577	d y	-0.35550115
-1.1227267	l y	-0.37780684
-2.010311	u y	-0.20208812
-1.2528967	r y	-0.34205842
-2.1471562	y y	-0.20208812
-1.6014576	p y	-0.20208812
-1.0647913	g y	-0.3723443
-1.0174761	h y	-0.35632282
-1.0768323	b y	-0.32324767
-1.2395501	f y	-0.38342416
-1.9315785	' y	-0.20208812
-1.4660215	- y	-0.20208812
-1.6040438	| y	-0.25764102
-1.7678032	= y	-0.20208812
-1.7551696	t p	-0.20208812
-1.6687324	a p	-0.21982774
-1.6343137	s p	-0.20208812
-1.6287777	o p	-0.2234643
-1.3358103	# p	-0.6872816
-1.8049159	e p	-0.20208812
-1.825305	w p	-0.20208812
-1.6995816	m p	-0.23832297
-2.116322	d p	-0.20208812
-2.18421	l p	-0.20208812
-1.8943251	. p	-0.20208812
-1.5635033	i p	-0.20208812
-1.8803954	r p	-0.20208812
-1.5894498	p p	-0.25764102
-1.3270781	j p	-0.20208812
-1.5121105	( p	-0.20208812
-2.0274441	f p	-0.20208812
-1.9101564	' p	-0.20208812
-1.4527378	- p	-0.20208812
-1.3466116	| p	-0.21982774
-1.4777099	[ p	-0.20208812
-0.8943713	0 p	-0.25764102
-1.7501788	= p	-0.20208812
-1.2027656	/ p	-0.20208812
-0.85990494	" p	-0.25764102
-0.83861476	ŵ p	-0.20208812
-2.4794173	o j	-0.20208812
-2.4092803	# j	-0.23832297
-2.536801	e j	-0.20208812
-0.95579946	. j	-0.617749
-2.1280463	i j	-0.20208812
-2.1053228	| j	-0.20208812
-1.6269125	[ j	-0.20208812
-0.9978474	> j	-0.20208812
-1.4493889	<s> g	-0.20208812
-2.007805	t g	-0.20208812
-1.5975854	a g	-0.29742607
-1.3747088	s g	-0.29741263
-1.097352	o g	-0.4181863
-1.3082672	n g	-0.34766078
-1.2864467	# g	-0.9824629
-1.3072941	e g	-0.3224262
-2.0853982	w g	-0.20208812
-1.950247	m g	-0.20208812
-1.7272944	l g	-0.20208812
-1.9875288	u g	-0.20208812
-1.1769388	i g	-0.3442489
-1.7458084	r g	-0.27063584
-1.6122676	y g	-0.2289769
-1.8473204	p g	-0.20208812
-2.0913267	g g	-0.20208812
-1.5121105	( g	-0.20208812
-1.7107961	h g	-0.20208812
-1.9101564	' g	-0.20208812
-1.4527378	- g	-0.20208812
-1.4967496	| g	-0.2289769
-1.4777099	[ g	-0.20208812
-1.3374608	v g	-0.20208812
-1.7501788	= g	-0.20208812
-1.2968103	" g	-0.20208812
-2.3098354	t _	-0.20208812
-2.0293486	s _	-0.20208812
-2.0744472	n _	-0.20208812
-2.4320345	d _	-0.20208812
-2.26169	h _	-0.20208812
-1.5127125	8 _	-0.20208812
-1.4141417	# (	-0.37817788
-2.296938	' (	-0.20208812
-1.042743	t h	-0.38622755
-2.4207292	a h	-0.20208812
-0.9214833	c h	-0.4128173
-1.9237002	o h	-0.20208812
-1.6020097	n h	-0.29124436
-1.4194	# h	-0.7395586
-1.9918127	e h	-0.20208812
-1.4882759	m h	-0.24925643
-2.2168565	d h	-0.20208812
-2.2884536	l h	-0.20208812
-2.325687	i h	-0.20208812
-1.3937385	r h	-0.392092
-1.8019753	y h	-0.25764102
-1.3729224	p h	-0.2508428
-1.8811901	g h	-0.20208812
-1.5873239	( h	-0.20208812
-1.5085	- h	-0.20208812
-1.4633136	= h	-0.20208812
-1.6615572	t )	-0.20208812
-2.0003593	a )	-0.20208812
-2.0801196	s )	-0.20208812
-1.8053709	n )	-0.20208812
-2.2379143	e )	-0.20208812
-2.18421	l )	-0.20208812
-1.5705591	. )	-0.25764102
-1.5043966	u )	-0.20208812
-1.9882718	i )	-0.20208812
-1.8803954	r )	-0.20208812
-1.7638407	y )	-0.20208812
-1.3450612	p )	-0.2289769
-1.9815565	h )	-0.20208812
-1.9101564	' )	-0.20208812
-1.4762518	] )	-0.20208812
-0.76740956	2 )	-0.25764102
-0.8943713	0 )	-0.20208812
-1.3677278	1 )	-0.20208812
-1.1570362	9 )	-0.20208812
-0.3955829	ᑦ )	-0.20208812
-0.9841184	8 )	-0.20208812
-1.1049665	3 )	-0.20208812
-1.0411901	4 )	-0.20208812
-1.2968103	" )	-0.20208812
-0.6792338	} )	-0.20208812
-0.6792338	ŷ )	-0.20208812
-1.483814	<s> b	-0.20208812
-1.6867921	t b	-0.20208812
-1.7700282	a b	-0.21532442
-1.8026226	s b	-0.20208812
-1.3646257	o b	-0.26800558
-1.9264479	n b	-0.20208812
-1.4380401	# b	-0.7583203
-1.4992399	e b	-0.38366577
-2.1422334	w b	-0.20208812
-1.6319798	m b	-0.20208812
-1.9910438	l b	-0.20208812
-1.6765244	u b	-0.23832297
-1.664869	i b	-0.21724874
-2.002001	r b	-0.20208812
-1.6286688	y b	-0.20208812
-1.557572	( b	-0.20208812
-0.8591012	< b	-0.20208812
-1.9658338	' b	-0.20208812
-1.0180631	| b	-0.26246282
-1.5142832	[ b	-0.20208812
-0.39900133	ü b	-0.20208812
-2.0559032	d <	-0.25764102
-1.1123776	. <	-0.66383785
-1.5490531	: <	-0.20208812
-1.0860752	<s> f	-0.25764102
-1.2574471	a f	-0.41798142
-1.5532935	o f	-0.22590576
-1.8314459	n f	-0.20208812
-1.3389884	# f	-0.7833137
-1.4970543	e f	-0.25585514
-1.8493756	w f	-0.20208812
-1.9963801	m f	-0.20208812
-1.6547838	d f	-0.29612038
-1.7437854	l f	-0.29963702
-1.7680433	u f	-0.25764102
-1.5003858	i f	-0.29062954
-1.5721942	r f	-0.29111338
-1.2242696	y f	-0.3436605
-1.7554517	g f	-0.23832297
-1.5480909	( f	-0.20208812
-2.024942	h f	-0.20208812
-1.0735308	f f	-0.3968788
-1.1551808	| f	-0.39682385
-1.3085028	5 f	-0.20208812
-1.7861731	= f	-0.20208812
-0.6844999	ó f	-0.20208812
-1.6423746	t '	-0.23832297
-1.5888165	a '	-0.38308623
-1.5165256	s '	-0.413629
-1.5330997	o '	-0.32184234
-1.6545687	n '	-0.29124436
-1.4080342	# '	-0.95400214
-1.5388789	e '	-0.33936712
-1.4582111	w '	-0.5846566
-1.5870626	m '	-0.36280787
-1.7637303	d '	-0.36280787
-1.9288846	l '	-0.25764102
-1.86143	. '	-0.20208812
-1.2991813	u '	-0.5101254
-1.3700285	i '	-0.3664479
-1.8565011	r '	-0.36280787
-0.80509555	k '	-0.4877466
-1.7459596	y '	-0.20208812
-1.7177663	g '	-0.23832297
-1.4788841	( '	-0.20208812
-1.6892071	h '	-0.25764102
-1.8552357	) '	-0.20208812
-1.930337	b '	-0.20208812
-1.7386676	f '	-0.25764102
-0.5012638	' '	-0.50604683
-1.4635617	: '	-0.20208812
-1.4580793	] '	-0.20208812
-0.3928674	ς '	-0.20208812
-1.0796912	â '	-0.20208812
-1.2209418	7 '	-0.20208812
-0.8311246	ë '	-0.20208812
-1.510112	t ,	-0.4877466
-1.8558207	a ,	-0.4877466
-1.6973994	c ,	-0.25764102
-1.3723933	s ,	-0.73078465
-1.7317365	o ,	-0.4877466
-1.4862237	n ,	-0.49281025
-1.8005092	e ,	-0.4877466
-1.8194902	w ,	-0.25764102
-1.601525	m ,	-0.36280787
-1.6358236	d ,	-0.4877466
-1.4627376	l ,	-0.73078465
-1.6451492	u ,	-0.36280787
-1.7526615	i ,	-0.4877466
-1.741327	r ,	-0.4877466
-1.5012865	k ,	-0.20208812
-2.1152635	y ,	-0.20208812
-1.8367277	p ,	-0.20208812
-1.7315179	g ,	-0.36280787
-1.7052974	h ,	-0.25764102
-0.828093	) ,	-0.7887766
-1.6592076	f ,	-0.36280787
-1.3913513	' ,	-0.4877466
-1.2085227	2 ,	-0.20208812
-1.3626204	1 ,	-0.20208812
-1.1967478	6 ,	-0.20208812
-1.3799691	8 ,	-0.20208812
-1.101953	3 ,	-0.20208812
-1.9798659	s -	-0.20208812
-2.4185061	o -	-0.20208812
-2.3304813	n -	-0.20208812
-2.4704657	e -	-0.20208812
-1.9840912	d -	-0.20208812
-2.0724754	l -	-0.2234643
-2.440744	i -	-0.20208812
-2.4087968	r -	-0.20208812
-2.2908406	g -	-0.20208812
-2.1730185	h -	-0.20208812
-1.212714	9 -	-0.20208812
-2.269005	s :	-0.20208812
-1.8965575	n :	-0.36280787
-2.4643254	# :	-0.25764102
-2.2522085	w :	-0.20208812
-2.2940257	d :	-0.20208812
-1.7833521	l :	-0.413629
-2.0154355	p :	-0.20208812
-2.2583227	g :	-0.20208812
-2.142066	h :	-0.20208812
-1.9705081	) :	-0.20208812
-2.190341	f :	-0.20208812
-2.0731006	' :	-0.20208812
-1.5411866	] :	-0.20208812
-1.4697149	<s> |	-0.20208812
-1.7738118	t |	-0.20208812
-1.8800308	s |	-0.2459474
-1.9100394	n |	-0.20208812
-1.507453	# |	-0.27909726
-1.9590259	e |	-0.20208812
-1.8946776	d |	-0.21982774
-2.2204332	l |	-0.20208812
-2.0221663	u |	-0.20208812
-2.2588983	i |	-0.20208812
-1.9860471	r |	-0.20208812
-1.5247883	k |	-0.20208812
-2.15833	y |	-0.20208812
-1.3400432	j |	-0.20208812
-1.3926821	g |	-0.21264474
-2.0136826	h |	-0.20208812
-0.9778066	) |	-0.21724874
-1.9898932	b |	-0.20208812
-1.6774884	f |	-0.20208812
-1.6101019	| |	-0.20208812
-1.4903982	] |	-0.20208812
-0.9548044	x |	-0.20208812
-1.0488497	z |	-0.20208812
-2.0088742	s ;	-0.25764102
-2.3992438	n ;	-0.20208812
-2.2126577	m ;	-0.20208812
-2.2550933	u ;	-0.20208812
-2.1025805	p ;	-0.20208812
-1.4113996	j ;	-0.20208812
-2.1567018	' ;	-0.20208812
-1.5689969	] ;	-0.20208812
-1.7321863	( [	-0.20208812
-2.195238	' [	-0.20208812
-1.7286047	| [	-0.25764102
-0.7207744	[ [	-0.2394436
-1.3895211	= [	-0.36280787
-0.7062271	* [	-0.20208812
-1.8653584	t ]	-0.25764102
-2.5582833	a ]	-0.20208812
-2.0893817	o ]	-0.25764102
-1.9206275	n ]	-0.36280787
-1.8110313	m ]	-0.25764102
-1.9924446	d ]	-0.25764102
-2.4300396	r ]	-0.20208812
-1.9372454	g ]	-0.25764102
-1.4097679	) ]	-0.36280787
-0.31221983	] ]	-0.4615514
-2.3098612	' κ	-0.20208812
-0.41295066	κ ν	-0.20208812
-0.41295066	ν ω	-0.20208812
-0.41295066	ω σ	-0.20208812
-0.41295066	σ ό	-0.20208812
-0.41295066	ό ς	-0.20208812
-2.912835	# 2	-0.20208812
-1.6026582	| 2	-0.23832297
-1.2869525	6 2	-0.20208812
-1.5204442	= 2	-0.20208812
-1.5127125	8 2	-0.20208812
-1.3341213	7 2	-0.20208812
-2.2682607	t 5	-0.20208812
-2.0841513	. 5	-0.20208812
-2.1025805	p 5	-0.20208812
-1.8552086	, 5	-0.20208812
-1.2816868	2 5	-0.20208812
-0.9951614	1 5	-0.20208812
-1.9425912	= 5	-0.20208812
-0.8392528	7 5	-0.20208812
-0.79114795	2 0	-0.25764102
-1.3723147	5 0	-0.20208812
-0.9257205	0 0	-0.23832297
-1.4717166	1 0	-0.20208812
-0.7897929	6 0	-0.20208812
-1.4981716	8 0	-0.20208812
-0.59079045	4 0	-0.20208812
-1.3234781	7 0	-0.20208812
-2.7296572	a x	-0.20208812
-2.1082945	e x	-0.23832297
-2.2117171	p x	-0.20208812
-1.5978768	<s> v	-0.20208812
-2.2885509	t v	-0.20208812
-2.242489	a v	-0.20208812
-2.0189908	s v	-0.20208812
-2.50178	o v	-0.20208812
-2.2468286	# v	-0.2289769
-2.0740542	e v	-0.36280787
-2.1239855	# 1	-0.2234643
-1.7180885	( 1	-0.20208812
-1.3765391	, 1	-0.20208812
-1.4782935	1 1	-0.20208812
-1.5153855	= 1	-0.20208812
-1.5053812	8 1	-0.20208812
-0.40871862	+ 1	-0.20208812
-1.8731494	, 9	-0.20208812
-1.3872999	5 9	-0.20208812
-1.4253399	0 9	-0.20208812
-0.8653754	1 9	-0.20208812
-1.3395424	7 9	-0.20208812
-2.912835	# 6	-0.20208812
-2.1114445	. 6	-0.20208812
-1.7321863	( 6	-0.20208812
-2.145266	| 6	-0.20208812
-0.73613554	9 6	-0.20208812
-1.0302672	8 6	-0.20208812
-2.1705747	a =	-0.25764102
-1.8416388	s =	-0.20208812
-2.3486598	o =	-0.20208812
-1.8812212	n =	-0.2289769
-1.7582357	# =	-0.88568664
-2.3953326	e =	-0.20208812
-2.2219958	w =	-0.20208812
-1.8457235	d =	-0.21982774
-1.56575	l =	-0.24307251
-1.817633	u =	-0.20208812
-1.9538168	r =	-0.20208812
-1.9849477	p =	-0.20208812
-1.6244496	g =	-0.4877466
-1.7763777	h =	-0.2289769
-0.6541523	= =	-0.4116772
-2.0442243	# ô	-0.66383785
-2.3264537	m ô	-0.20208812
-2.2130473	| ô	-0.20208812
-1.8104838	( ᓄ	-0.20208812
-0.41295066	ᓄ ᓇ	-0.20208812
-0.41295066	ᓇ ᖃ	-0.20208812
-0.4125964	ᖃ ᖅ	-0.20208812
-0.4125964	ᑳ ᖅ	-0.20208812
-0.713246	ᖅ ᑳ	-0.20208812
-0.713246	ᖅ ᓯ	-0.20208812
-0.41295066	ᓯ ᒪ	-0.20208812
-0.41295066	ᒪ ᔪ	-0.20208812
-0.41295066	ᔪ ᑦ	-0.20208812
-2.6007514	a /	-0.20208812
-2.536801	e /	-0.20208812
-2.2550933	u /	-0.20208812
-2.4759226	r /	-0.20208812
-2.2240226	h /	-0.20208812
-2.0111837	) /	-0.20208812
-1.5318989	: /	-0.20208812
-1.2782882	/ /	-0.20208812
-2.4485013	# â	-0.23832297
-2.4223883	w â	-0.20208812
-2.0125084	l â	-0.23832297
-2.3547006	f â	-0.20208812
-2.9438052	# z	-0.20208812
-2.615128	e z	-0.20208812
-2.3215785	u z	-0.20208812
-2.5715141	i z	-0.20208812
-2.2158694	' z	-0.20208812
-2.0342276	. 8	-0.20208812
-1.8323854	, 8	-0.20208812
-1.5555881	- 8	-0.20208812
-0.8796549	5 8	-0.25764102
-1.3871282	0 8	-0.20208812
-0.98653305	1 8	-0.20208812
-1.2087716	9 8	-0.20208812
-1.8918726	= 8	-0.20208812
-1.4704734	8 8	-0.20208812
-1.1495092	3 8	-0.20208812
-1.0781507	4 8	-0.20208812
-1.3029437	7 8	-0.20208812
-2.0863655	n 3	-0.20208812
-1.8731494	, 3	-0.20208812
-2.1667056	| 3	-0.20208812
-1.4253399	0 3	-0.20208812
-1.291753	6 3	-0.20208812
-2.6734283	a 4	-0.20208812
-1.3872999	5 4	-0.20208812
-1.4917542	1 4	-0.20208812
-1.291753	6 4	-0.20208812
-1.5201697	8 4	-0.20208812
-2.0293486	s "	-0.25764102
-2.451991	n "	-0.20208812
-2.4284482	# "	-0.2234643
-2.5153477	l "	-0.20208812
-1.9682424	g "	-0.20208812
-1.7321863	( "	-0.20208812
-2.2644188	p î	-0.20208812
-2.4211156	t >	-0.20208812
-2.4140766	f >	-0.20208812
-2.233464	c 7	-0.20208812
-1.861107	, 7	-0.20208812
-1.2859013	2 7	-0.20208812
-1.2288513	9 7	-0.20208812
-1.9562535	= 7	-0.20208812
-0.6693668	3 7	-0.20208812
-1.3287672	7 7	-0.20208812
-2.4804318	# *	-0.3176426
-2.3450606	c ó	-0.20208812
-2.671206	r ó	-0.20208812
-3.0738137	# &	-0.20208812
-1.363528	; &	-0.20208812
-3.0960243	# đ	-0.20208812
-2.7942643	a ë	-0.20208812
-2.617734	r ŵ	-0.20208812
-2.2117171	p ŵ	-0.20208812
-2.4526196	g ŵ	-0.20208812
-2.356785	c +	-0.20208812
-1.7618337	( {	-0.20208812
-0.4983539	> {	-0.25764102
-0.7090211	* {	-0.20208812
-0.53459966	{ {	-0.2289769
-2.5514917	d }	-0.20208812
-0.71253896	} }	-0.20208812
-1.9376955	t ŷ	-0.25764102
-2.5514917	d ŷ	-0.20208812
-2.2644188	p ê	-0.20208812
-2.6213045	n á	-0.20208812
-2.6906006	r í	-0.20208812
-2.381884	m à	-0.20208812
-2.6615841	l ’	-0.20208812
-2.172783	l ü	-0.25764102

\3-grams:
-1.4944323	i t </s>	0
-0.724609	v o </s>	0
-2.1150386	a n </s>	0
-1.8674054	o n </s>	0
-1.9480433	i n </s>	0
-1.9660535	l e </s>	0
-1.9246584	a d </s>	0
-1.8900595	y d </s>	0
-2.0535645	o l </s>	0
-1.5522543	g l </s>	0
-1.3775342	d . </s>	0
-0.9248366	) . </s>	0
-1.5710979	w i </s>	0
-1.7988999	y r </s>	0
-2.1662285	' ' </s>	0
-1.175608	n , </s>	0
-1.095789	n | </s>	0
-1.488623	e t t	-0.13130026
-0.98275167	h t t	-0.13130026
-0.7919511	<s> a t	-0.13130026
-1.4003322	t a t	-0.13130026
-1.3118113	c a t	-0.13130026
-1.3867763	s a t	-0.13130026
-1.2770393	n a t	-0.20423406
-1.2163322	# a t	-0.49781585
-1.1588486	e a t	-0.13130026
-1.3316178	m a t	-0.13130026
-1.3310115	d a t	-0.17853759
-1.581969	l a t	-0.13130026
-1.6156489	r a t	-0.13130026
-1.1421129	p a t	-0.17853759
-1.0024279	( a t	-0.13130026
-1.1891292	b a t	-0.13130026
-1.2798743	f a t	-0.20423406
-0.65078944	v a t	-0.13130026
-1.2791305	a c t	-0.13130026
-0.7544841	e c t	-0.13130026
-1.0079775	u c t	-0.13130026
-1.3451548	i c t	-0.13130026
-1.205656	r c t	-0.13130026
-0.88272715	a s t	-0.15902193
-0.7391791	c s t	-0.13130026
-1.2396606	o s t	-0.13130026
-1.0478342	n s t	-0.13130026
-0.9708874	# s t	-0.27821305
-0.80942583	e s t	-0.15091921
-0.919724	w s t	-0.13130026
-0.92822903	m s t	-0.13130026
-0.6120305	d s t	-0.13130026
-0.8201363	l s t	-0.13130026
-0.77415717	i s t	-0.13130026
-0.753492	y s t	-0.16623792
-0.6120305	f s t	-0.13130026
-0.993224	| s t	-0.13130026
-0.36616766	= s t	-0.13130026
-1.3593	r o t	-0.17853759
-1.2629652	p o t	-0.13130026
-1.754314	g o t	-0.13130026
-1.1564155	a n t	-0.23817858
-1.1345886	o n t	-0.16623792
-1.0886309	e n t	-0.19890098
-1.239875	i n t	-0.13130026
-1.2216437	y n t	-0.18985263
-1.43248	a # t	-0.13130026
-1.2842113	s # t	-0.19890098
-1.5641847	o # t	-0.13130029
-1.5050902	n # t	-0.14841785
-1.3467847	e # t	-0.16623792
-1.6011528	d # t	-0.15427701
-1.428777	l # t	-0.13130026
-1.9077843	. # t	-0.13130026
-1.3166158	u # t	-0.15902193
-1.2855213	i # t	-0.15902193
-1.504756	r # t	-0.17146662
-1.1646953	y # t	-0.13130026
-1.3360864	p # t	-0.13130026
-1.6496674	g # t	-0.13130026
-1.3515301	h # t	-0.13130029
-1.6317594	f # t	-0.13130026
-1.3531042	' # t	-0.13130026
-1.6367805	, # t	-0.17853759
-0.8287069	| # t	-0.13130026
-1.4010922	= # t	-0.13130026
-0.4018686	7 # t	-0.13130026
-0.5908329	a e t	-0.8109354
-1.0619167	c e t	-0.13130026
-1.4652178	o e t	-0.13130026
-1.3867589	n e t	-0.13130026
-1.5260826	# e t	-0.20423406
-1.1628923	m e t	-0.13130026
-1.5221065	r e t	-0.13130026
-1.0807232	p e t	-0.13130026
-1.3840612	g e t	-0.13130026
-1.4826747	h e t	-0.13130026
-1.5355425	f e t	-0.13130026
-0.59718513	v e t	-0.20423406
-1.5317099	i w t	-0.13130026
-1.7739409	y m t	-0.13130026
-1.8853862	a d t	-0.13130026
-1.4236592	n d t	-0.13130026
-1.8671166	a l t	-0.13130026
-1.3499137	l l t	-0.18863444
-0.8259796	s u t	-0.13130026
-0.40084592	o u t	-0.13130026
-1.2986263	l u t	-0.13130026
-0.8259796	p u t	-0.13130026
-0.8259796	( u t	-0.13130026
-0.8779706	a i t	-0.5476939
-1.6707442	n i t	-0.13130026
-0.87501353	e i t	-0.51585555
-1.3745742	w i t	-0.13130026
-1.2163085	l i t	-0.17853759
-0.6148371	u i t	-0.13130026
-1.4113764	h i t	-0.13130026
-1.1580043	a r t	-0.2112663
-1.0575916	o r t	-0.3117356
-1.2328192	e r t	-0.3117356
-1.3902456	w r t	-0.20423406
-1.5932515	y r t	-0.13130026
-1.3482687	s y t	-0.13130026
-1.4435948	w y t	-0.17853759
-1.1774812	m y t	-0.13130026
-1.5581124	h y t	-0.13130026
-0.34168416	p p t	-0.13130026
-1.7121654	# ( t	-0.13130026
-1.7873749	c h t	-0.13130026
-1.164525	g h t	-0.13130026
-0.696053	= h t	-0.13130026
-1.5870548	e f t	-0.13130026
-1.0508887	n ' t	-0.13130026
-1.7136467	# ' t	-0.13130026
-1.8815137	' ' t	-0.13130026
-1.4203831	# | t	-0.13130026
-1.0892632	e | t	-0.13130026
-0.39757383	k | t	-0.13130026
-1.1884491	g | t	-0.13130026
-1.4226995	[ [ t	-0.13130026
-0.43948877	e x t	-0.13130026
-0.7678983	l â t	-0.13130026
-0.35920548	<s> t a	-0.13130026
-0.86883676	a t a	-0.13130029
-0.7709594	s t a	-0.17146662
-0.811504	o t a	-0.13130026
-0.7773491	n t a	-0.15091921
-0.7606539	# t a	-0.364412
-0.9571113	e t a	-0.13130029
-1.0747366	i t a	-0.13130026
-1.0687417	r t a	-0.13130026
-0.35920548	( t a	-0.13130026
-0.35920548	f t a	-0.13130026
-0.811504	' t a	-0.13130026
-0.9549848	s c a	-0.13130026
-1.0383514	o c a	-0.13130026
-0.9973761	n c a	-0.13130026
-0.7505279	# c a	-0.42618954
-0.37364104	m c a	-0.13130026
-1.0338981	i c a	-0.13130026
-0.62528175	( c a	-0.13130029
-1.1251925	| c a	-0.13130026
-1.044453	a s a	-0.13130026
-1.174746	o s a	-0.13130029
-0.8960041	n s a	-0.13130026
-0.7045227	# s a	-0.40959126
-1.1271447	e s a	-0.17853759
-0.9594107	w s a	-0.13130026
-0.92116654	. s a	-0.13130026
-1.2349942	u s a	-0.13130026
-1.2657139	i s a	-0.13130026
-0.37690145	( s a	-0.13130026
-0.3167314	| s a	-0.20423406
-0.37690145	{ s a	-0.13130026
-1.4796267	s o a	-0.13130026
-1.643181	l o a	-0.13130026
-1.3529714	r o a	-0.24666393
-0.9415102	a n a	-0.18183754
-0.875237	s n a	-0.13130026
-1.1776443	o n a	-0.13130029
-0.94054586	n n a	-0.15427701
-1.5728867	# n a	-0.13130026
-1.5339965	e n a	-0.13130026
-1.2588167	w n a	-0.13130026
-0.3141181	d n a	-0.13130026
-1.3269119	u n a	-0.13130026
-1.2535977	i n a	-0.13130026
-0.9158321	r n a	-0.13130026
-1.0685344	y n a	-0.15427701
-1.0468935	t # a	-0.16623792
-1.2293091	a # a	-0.13130029
-0.9828774	c # a	-0.13130026
-1.1810355	s # a	-0.15091921
-1.0642616	o # a	-0.17704691
-1.1819494	n # a	-0.22649224
-1.1441848	e # a	-0.16221422
-1.0289176	w # a	-0.13130029
-1.207707	d # a	-0.19372788
-1.1042039	l # a	-0.2566748
-1.2277097	. # a	-0.19890098
-1.1893495	u # a	-0.17853764
-1.2563591	i # a	-0.17853759
-1.1789284	r # a	-0.24596019
-0.90767044	k # a	-0.13130026
-1.0717928	p # a	-0.13130026
-1.0809853	g # a	-0.15427701
-1.2985829	h # a	-0.15091921
-1.4015583	) # a	-0.13130026
-1.1595651	f # a	-0.16221422
-1.2965074	' # a	-0.13130026
-0.9956605	, # a	-0.17773429
-1.1171716	: # a	-0.13130026
-1.1124955	; # a	-0.13130026
-0.39497486	0 # a	-0.13130026
-0.6641294	ŷ # a	-0.13130026
-1.4433762	t e a	-0.13130026
-1.3390026	c e a	-0.13130026
-1.4360967	n e a	-0.13130026
-1.5764868	# e a	-0.20423406
-1.5839906	d e a	-0.13130026
-1.2013615	i e a	-0.13130026
-1.5929807	r e a	-0.13130026
-1.5477571	h e a	-0.13130026
-1.5994896	f e a	-0.13130026
-0.47827047	c w a	-0.20423406
-1.0812503	n w a	-0.20423406
-1.0575969	# w a	-0.16623792
-1.3138424	d w a	-0.13130026
-1.3261286	r w a	-0.13130026
-1.3005353	y w a	-0.13130026
-0.89566207	g w a	-0.21268648
-1.280859	h w a	-0.13130026
-1.0918956	a m a	-0.13130026
-0.75666726	o m a	-0.17853759
-0.3569247	n m a	-0.13130026
-0.53589344	# m a	-0.594483
-0.7176685	l m a	-0.13130026
-0.79434633	r m a	-0.13130026
-0.3569247	k m a	-0.13130026
-0.98719776	y m a	-0.14648224
-0.3569247	_ m a	-0.13130026
-0.7176685	' m a	-0.13130026
-0.7176685	| m a	-0.13130026
-0.29214466	n ï a	-0.13130026
-0.87794054	a d a	-0.16623792
-1.1694751	o d a	-0.13130029
-1.118618	n d a	-0.13130026
-0.6977026	# d a	-0.32990786
-1.4630795	e d a	-0.13130026
-1.0710859	d d a	-0.17749353
-1.0740535	u d a	-0.13130026
-1.1890349	i d a	-0.13130026
-1.0176919	r d a	-0.13130026
-1.2774295	y d a	-0.13130026
-0.3680647	( d a	-0.13130026
-0.61537755	' d a	-0.13130026
-0.3680647	[ d a	-0.13130026
-0.8255539	= d a	-0.13130026
-0.7311889	a l a	-0.19890098
-0.7181905	c l a	-0.13130026
-0.35630983	s l a	-0.13130026
-1.1012297	o l a	-0.16623792
-1.182313	# l a	-0.15902193
-1.100868	e l a	-0.17853759
-0.5330983	w l a	-0.15902193
-0.612817	m l a	-0.13130029
-1.0336634	d l a	-0.13130026
-0.7831799	l l a	-0.364412
-0.71291447	u l a	-0.13130029
-1.1407475	i l a	-0.13130026
-0.97153926	r l a	-0.13130026
-1.1493089	y l a	-0.13130026
-0.612817	p l a	-0.13130026
-0.40993404	h l a	-0.13130026
-0.824773	b l a	-0.17853759
-0.8295485	f l a	-0.13130026
-0.84592474	' l a	-0.13130026
-0.8560138	| l a	-0.13130026
-0.59481394	= l a	-0.13130026
-1.0225161	w . a	-0.13130026
-1.281726	d . a	-0.13130026
-1.1114368	u . a	-0.13130026
-0.39202064	y . a	-0.13130026
-1.1822386	t u a	-0.13130029
-1.4522169	e u a	-0.13130026
-0.72176754	t i a	-0.18863444
-0.7480072	s i a	-0.15427701
-0.7456988	n i a	-0.2456358
-1.1590149	# i a	-0.24666393
-1.5298792	e i a	-0.13130026
-0.84076023	d i a	-0.27009326
-0.7923894	l i a	-0.24100515
-0.8774038	r i a	-0.23408376
-0.9198837	p i a	-0.13130026
-0.6932722	g i a	-0.24666393
-0.7698888	( i a	-0.13130026
-1.0421375	h i a	-0.13130029
-1.1095977	b i a	-0.13130026
-0.71275496	f i a	-0.21482559
-0.6347379	[ i a	-0.13130026
-0.59635735	t r a	-0.16623792
-0.9090097	a r a	-0.16623792
-1.0675313	c r a	-0.13130026
-0.37307373	s r a	-0.13130026
-1.0483961	o r a	-0.13130026
-1.2608278	# r a	-0.13130029
-1.0332828	e r a	-0.15427701
-1.0262787	w r a	-0.17853759
-0.95291144	m r a	-0.13130026
-0.7316904	d r a	-0.15427701
-1.1174101	u r a	-0.13130026
-0.9449525	r r a	-0.13130026
-1.1222814	y r a	-0.13130026
-0.63732404	g r a	-0.13130026
-0.9025978	h r a	-0.13130029
-0.7414986	b r a	-0.15902193
-0.98656046	f r a	-0.17853759
-0.61163545	s k a	-0.13130026
-1.4969051	w y a	-0.24666393
-0.8015493	o p a	-0.13130026
-0.71428674	# p a	-0.28058267
-0.43837315	m p a	-0.16623792
-0.35266274	l p a	-0.13130026
-0.35266274	( p a	-0.13130026
-0.5885171	' p a	-0.13130026
-0.35266274	- p a	-0.13130026
-0.35266274	[ p a	-0.13130026
-0.35266274	= p a	-0.13130026
-1.0559288	s g a	-0.13130026
-0.9004934	o g a	-0.46851265
-1.2904048	n g a	-0.13130026
-0.86118054	# g a	-0.47262537
-1.1771964	e g a	-0.13130026
-0.84208995	l g a	-0.13130026
-0.3737604	u g a	-0.13130026
-1.1636493	i g a	-0.13130026
-0.8088924	r g a	-0.17853759
-0.902234	( g a	-0.13130026
-0.62549484	h g a	-0.13130026
-0.547808	n _ a	-0.13130026
-0.32855043	8 _ a	-0.13130026
-1.009352	# ( a	-0.15091921
-1.0618985	t h a	-0.13130029
-0.34325543	a h a	-0.13130026
-0.92543507	c h a	-0.16280995
-0.6264449	n h a	-0.21482559
-0.75043327	# h a	-0.5392086
-0.68691635	e h a	-0.13130026
-0.6966866	m h a	-0.20423406
-0.34325543	d h a	-0.13130026
-0.34325543	i h a	-0.13130026
-0.56820154	r h a	-0.2112663
-0.64323884	p h a	-0.13130026
-0.8704443	g h a	-0.13130026
-0.57244873	= h a	-0.13130026
-1.0038757	a b a	-0.13130026
-0.74896115	s b a	-0.13130026
-0.8661832	o b a	-0.13130029
-0.6193089	n b a	-0.13130026
-1.0641811	# b a	-0.2759671
-0.74896115	l b a	-0.13130026
-0.83377945	| b a	-0.20423406
-0.28739005	<s> f a	-0.13130026
-1.0942593	a f a	-0.13130029
-0.76166385	o f a	-0.13130026
-0.88277864	n f a	-0.13130026
-1.0336136	# f a	-0.21482559
-1.0484709	e f a	-0.13130026
-0.46113938	d f a	-0.21482559
-0.51588094	l f a	-0.13130029
-0.95632756	i f a	-0.13130026
-0.8019221	r f a	-0.13130029
-0.7474926	y f a	-0.2112663
-0.43190092	g f a	-0.13130026
-0.34688276	h f a	-0.13130026
-0.70144594	| f a	-0.13130026
-2.0440772	' ' a	-0.13130026
-0.70616764	s - a	-0.13130026
-0.587163	d - a	-0.13130026
-0.84280837	l - a	-0.13130026
-1.0417706	# | a	-0.16623792
-0.39523184	y | a	-0.13130026
-1.0833265	) | a	-0.13130026
-0.90850776	x | a	-0.13130026
-1.3884734	[ [ a	-0.13130026
-0.65911794	6 0 a	-0.13130026
-0.2305824	e v a	-0.17853759
-0.6826633	# 1 a	-0.20423406
-0.40047574	w = a	-0.13130026
-1.5289799	= = a	-0.13130026
-0.36400542	# z a	-0.13130026
-0.20164749	# đ a	-0.13130026
-1.0977297	u t c	-0.13130026
-1.5584185	t a c	-0.13130026
-1.5375613	s a c	-0.13130026
-1.1901529	n a c	-0.24666393
-1.3105612	# a c	-0.28617778
-0.94465756	u a c	-0.13130026
-1.0010952	r a c	-0.5476939
-1.2369876	p a c	-0.20423406
-1.6058756	h a c	-0.13130026
-1.6022596	f a c	-0.13130026
-1.680861	# s c	-0.20423406
-1.6087595	e s c	-0.13130026
-1.3590406	u s c	-0.13130026
-1.4635208	i s c	-0.13130026
-0.40400743	; s c	-0.13130026
-0.40400743	[ s c	-0.13130026
-1.2763366	t o c	-0.13130026
-1.2690487	c o c	-0.20423406
-1.4259794	# o c	-0.17853759
-1.43642	m o c	-0.13130026
-1.2887003	l o c	-0.13130026
-1.7213137	i o c	-0.13130026
-1.9284927	a n c	-0.13130026
-1.8269722	e n c	-0.13130026
-0.9473536	w n c	-0.18863444
-1.7785255	i n c	-0.13130026
-1.9051378	y n c	-0.13130026
-0.7841685	t # c	-0.18516275
-1.104423	a # c	-0.15902193
-1.2391324	c # c	-0.13130026
-1.0642661	s # c	-0.24878433
-0.96949583	o # c	-0.16623792
-1.1896404	n # c	-0.2758563
-1.3184934	e # c	-0.17853759
-1.3570405	w # c	-0.13130026
-1.0053754	m # c	-0.17853759
-1.1088998	d # c	-0.39368063
-1.1694033	l # c	-0.25711104
-0.920702	. # c	-0.2976175
-1.2000624	u # c	-0.21482559
-1.1684384	i # c	-0.2759671
-1.0894969	r # c	-0.33660978
-1.3066952	p # c	-0.13130026
-0.9394425	g # c	-0.20471115
-1.3220506	h # c	-0.15902193
-1.2649306	b # c	-0.13130026
-1.3062766	f # c	-0.17146662
-1.3215342	' # c	-0.13130029
-0.9651476	, # c	-0.38510507
-1.348904	: # c	-0.13130026
-1.1621932	= # c	-0.13130029
-1.6977564	d e c	-0.13130026
-1.7100167	l e c	-0.13130026
-1.707233	r e c	-0.13130026
-1.1697068	p e c	-0.13130026
-1.4099864	b e c	-0.13130026
-1.7002203	f e c	-0.13130026
-0.9880931	l w c	-0.17853759
-0.62133324	u w c	-0.20423406
-1.4805821	r w c	-0.13130026
-1.4319333	h w c	-0.13130026
-1.2880876	w m c	-0.13130026
-1.5153102	w l c	-0.13130026
-1.773504	i l c	-0.13130026
-0.731402	y l c	-0.37160265
-0.9982771	s . c	-0.13130026
-0.84159815	# u c	-0.24666393
-1.1864195	d u c	-0.13130026
-1.2998507	l u c	-0.13130026
-1.1909102	f u c	-0.13130026
-0.40102643	| u c	-0.13130026
-1.4163218	t i c	-0.13130026
-1.4616311	s i c	-0.13130026
-1.1402531	e i c	-0.15902193
-1.3004216	w i c	-0.13130026
-1.1996559	m i c	-0.13130026
-1.5222269	l i c	-0.13130026
-1.2584217	r i c	-0.20423406
-1.3282851	h i c	-0.13130026
-0.7081252	b i c	-0.15902193
-0.5997398	v i c	-0.13130026
-1.0733919	a r c	-0.16623792
-1.828101	o r c	-0.13130026
-1.735642	e r c	-0.13130026
-1.1421295	y r c	-0.24666393
-1.2629685	t y c	-0.13130026
-1.451424	c y c	-0.13130026
-1.244297	s y c	-0.13130026
-1.2960222	# y c	-0.37160265
-1.2811356	l y c	-0.13130026
-1.3555663	r y c	-0.13130026
-1.315655	b y c	-0.13130026
-0.96274215	s p c	-0.13130026
-1.2808203	o p c	-0.13130026
-0.55214	n _ c	-0.13130026
-0.33115998	h _ c	-0.13130026
-1.372397	# ( c	-0.17853759
-1.852956	' ' c	-0.19303462
-0.40464112	o - c	-0.13130026
-0.6444537	s | c	-0.13130029
-0.8953339	n | c	-0.13130026
-0.9602095	# | c	-0.13130029
-0.94794	d | c	-0.13130026
-0.62183267	l | c	-0.13130026
-1.0517013	g | c	-0.13130026
-0.75236636	f | c	-0.13130026
-1.4262751	[ [ c	-0.13130026
-1.3990548	= = c	-0.20423406
-0.38606495	a / c	-0.13130026
-0.71553004	f > c	-0.13130026
-0.998844	h t s	-0.13130026
-1.4777457	t a s	-0.13130026
-1.1792215	c a s	-0.17853759
-0.8169198	o a s	-0.13130026
-1.3330232	n a s	-0.13130026
-1.1268226	w a s	-0.16623792
-1.2227865	m a s	-0.13130029
-1.5600021	d a s	-0.13130026
-1.1599585	l a s	-0.15902193
-1.3407418	r a s	-0.13130029
-0.9953981	p a s	-0.15427701
-1.4243916	g a s	-0.13130026
-1.0492225	| a s	-0.13130026
-1.3508189	a c s	-0.13130026
-1.2125161	o c s	-0.13130026
-2.1125834	# c s	-0.13130026
-1.6315084	a s s	-0.13130026
-1.611383	o s s	-0.13130026
-1.5365467	i s s	-0.13130026
-1.6912699	y s s	-0.13130026
-1.2317817	c o s	-0.13130026
-1.1541314	s o s	-0.13130026
-0.81719035	n o s	-0.18863444
-1.4547262	# o s	-0.13130026
-1.2334245	m o s	-0.13130026
-1.1491094	d o s	-0.20423406
-1.2851518	l o s	-0.13130026
-0.84184235	u o s	-0.13130026
-1.4435833	i o s	-0.13130026
-0.93803203	r o s	-0.18863444
-0.90194964	y o s	-0.13130026
-1.0182035	p o s	-0.13130026
-0.95511335	j o s	-0.13130026
-1.1995416	g o s	-0.16623792
-0.9605243	h o s	-0.16623792
-1.1856824	b o s	-0.13130026
-1.2386363	a n s	-0.15091921
-1.3063189	e n s	-0.16623792
-1.8175775	i n s	-0.13130026
-0.96916807	h n s	-0.13130026
-1.4238762	t # s	-0.13130026
-1.0981739	a # s	-0.17853759
-1.2278174	c # s	-0.13130026
-1.3611746	s # s	-0.15427701
-1.50693	o # s	-0.13130026
-1.3076059	n # s	-0.43331146
-1.4477264	e # s	-0.13130026
-1.5036882	w # s	-0.13130026
-1.3715692	m # s	-0.13130026
-1.3534012	d # s	-0.27990523
-1.4023927	l # s	-0.18985263
-1.4189165	. # s	-0.16623792
-1.1941864	u # s	-0.20008041
-1.081781	i # s	-0.2759671
-1.3056988	r # s	-0.2193225
-1.3436737	y # s	-0.13130026
-1.5896146	g # s	-0.13130026
-1.4435934	h # s	-0.13130026
-1.0476563	) # s	-0.24666393
-1.2533501	b # s	-0.13130026
-1.2968109	f # s	-0.18516275
-1.3077053	' # s	-0.13130026
-1.0771738	, # s	-0.44651493
-1.1237477	: # s	-0.13130026
-1.1536005	= # s	-0.13130026
-1.315367	t e s	-0.13130026
-1.3939688	a e s	-0.13130029
-1.2394671	s e s	-0.13130026
-0.776474	o e s	-0.16623792
-1.0482247	n e s	-0.25210953
-1.190954	# e s	-0.21482559
-1.4160594	w e s	-0.13130026
-1.3075274	m e s	-0.13130026
-1.2964075	d e s	-0.13130029
-0.92322785	l e s	-0.13130026
-1.1144904	i e s	-0.13130026
-0.9092356	r e s	-0.18985263
-1.1109155	g e s	-0.13130029
-1.4131833	h e s	-0.13130029
-0.88536733	v e s	-0.13130026
-0.6915498	t w s	-0.13130026
-1.088681	a w s	-0.13130029
-1.241397	e w s	-0.13130026
-1.1696734	b w s	-0.13130026
-0.684597	a m s	-0.33194885
-1.6613617	y m s	-0.13130026
-1.101759	n d s	-0.13130026
-1.8260283	a l s	-0.13130026
-1.9642714	o l s	-0.13130026
-2.002931	l l s	-0.13130026
-0.63995594	t . s	-0.13130026
-0.7770274	c . s	-0.13130026
-1.2158784	n . s	-0.13130026
-0.978451	m . s	-0.13130026
-0.87449706	p . s	-0.13130026
-0.99860185	t u s	-0.13130026
-0.7622842	s u s	-0.13130026
-1.1647272	e u s	-0.13130026
-0.6022764	m u s	-0.13130029
-1.0575961	d u s	-0.13130026
-1.12438	r u s	-0.13130026
-1.1030679	h u s	-0.13130026
-0.85720325	b u s	-0.13130026
-0.37580612	/ u s	-0.13130026
-1.3590884	t i s	-0.13130026
-1.169022	c i s	-0.13130026
-1.3521782	n i s	-0.20423406
-0.8217988	# i s	-0.26796797
-1.1212015	e i s	-0.2112663
-1.3077706	l i s	-0.13130029
-0.8956777	u i s	-0.13130026
-1.3893995	r i s	-0.13130026
-1.1996232	g i s	-0.13130026
-0.6529645	_ i s	-0.13130026
-0.8956777	v i s	-0.13130026
-0.80291045	/ i s	-0.13130026
-1.6074107	o r s	-0.20423406
-1.2544886	e r s	-0.13130026
-1.7188997	w r s	-0.13130026
-0.40513074	j k s	-0.13130026
-0.6067081	<s> y s	-0.13130026
-0.946511	c y s	-0.15902193
-1.0637757	s y s	-0.13130026
-0.96066654	n y s	-0.13130029
-0.72378886	# y s	-0.6135367
-0.7969799	w y s	-0.18673734
-1.2099706	d y s	-0.13130026
-0.9836923	l y s	-0.17853759
-0.36313802	u y s	-0.13130026
-1.1696153	r y s	-0.13130026
-0.7359209	g y s	-0.18516275
-1.0774949	h y s	-0.13130026
-1.1369375	b y s	-0.13130026
-1.1463958	f y s	-0.13130026
-0.97228616	a p s	-0.13130026
-1.089306	o p s	-0.13130026
-1.6864266	# p s	-0.13130026
-0.8555701	e p s	-0.13130026
-0.9647788	i p s	-0.13130026
-0.97228616	| p s	-0.13130026
-1.6738124	# ( s	-0.13130026
-1.9357618	c h s	-0.13130026
-0.7126211	n b s	-0.13130026
-1.5177788	r f s	-0.13130026
-0.41571844	ó f s	-0.13130026
-2.0575948	' ' s	-0.13130026
-1.01005	l - s	-0.13130026
-0.9821429	n | s	-0.13130026
-1.2264724	# | s	-0.13130029
-1.081255	e | s	-0.13130026
-0.39593312	z | s	-0.13130026
-0.65987366	p ; s	-0.13130026
-1.398461	[ [ s	-0.13130026
-1.2067605	] ] s	-0.13130026
-1.2359812	l = s	-0.13130026
-0.8497948	{ { s	-0.13130026
-0.20246908	m à s	-0.13130026
-0.20246908	l ’ s	-0.13130026
-1.1934682	a t o	-0.17853759
-0.5173134	c t o	-0.24666393
-1.403967	s t o	-0.13130029
-1.620786	# t o	-0.13130026
-0.40033674	w t o	-0.13130026
-1.9293033	d a o	-0.13130026
-1.1256719	a c o	-0.13130026
-0.9090212	s c o	-0.13130026
-1.0380516	# c o	-0.35313472
-0.7381177	l c o	-0.13130026
-0.3605957	. c o	-0.13130026
-1.1291693	i c o	-0.13130026
-0.8405824	r c o	-0.13130029
-1.1023294	y c o	-0.13130026
-0.8872088	| c o	-0.13130026
-0.6022634	[ c o	-0.13130026
-0.80870384	c s o	-0.13130026
-0.9053932	s s o	-0.13130026
-1.0919989	o s o	-0.13130029
-0.95346016	n s o	-0.13130026
-1.811766	# s o	-0.13130026
-1.3607292	e s o	-0.13130029
-1.3429884	y s o	-0.13130029
-0.57558197	p s o	-0.24666393
-1.6505766	c o o	-0.13130026
-1.2196201	w o o	-0.13130026
-1.296188	a n o	-0.37160265
-0.46799025	c n o	-0.20423406
-1.4269309	o n o	-0.13130026
-0.7780431	n n o	-0.15427701
-0.7878506	# n o	-0.5476939
-1.2901709	e n o	-0.13130026
-0.84652543	u n o	-0.16623792
-1.1243987	i n o	-0.19678587
-0.90612763	r n o	-0.13130026
-0.31181222	k n o	-0.20423406
-1.0622126	y n o	-0.17704691
-0.8576539	h n o	-0.13130026
-0.8576539	f n o	-0.13130026
-1.574482	a # o	-0.13130026
-1.0028174	c # o	-0.13130026
-1.509325	s # o	-0.13130029
-1.2271842	o # o	-0.17853759
-1.3996583	n # o	-0.19890098
-1.3343728	e # o	-0.13130026
-1.5413098	w # o	-0.13130026
-1.2071836	m # o	-0.13130026
-1.4654678	d # o	-0.17749353
-1.6861266	l # o	-0.13130026
-1.8899347	. # o	-0.13130026
-1.4430647	u # o	-0.17853759
-1.27854	i # o	-0.21482559
-1.6249559	r # o	-0.13130029
-0.9505855	y # o	-0.13130029
-1.6310902	g # o	-0.13130026
-1.3385869	h # o	-0.13130029
-1.6132606	f # o	-0.13130026
-1.3392245	' # o	-0.13130026
-1.1828886	, # o	-0.45205837
-1.1407578	; # o	-0.13130026
-1.3872738	= # o	-0.13130026
-1.8522968	a e o	-0.13130026
-1.3048477	l e o	-0.16623792
-1.7791561	r e o	-0.13130026
-1.7139487	h e o	-0.13130026
-1.0930898	s w o	-0.13130026
-1.3929116	n w o	-0.13130026
-1.0921084	# w o	-0.21482559
-0.9328478	y w o	-0.17853759
-1.549344	g w o	-0.13130026
-1.2386823	a m o	-0.13130026
-1.2874894	# m o	-0.15902193
-0.8365699	e m o	-0.13130026
-0.60801685	m m o	-0.13130026
-0.36388448	. m o	-0.13130026
-0.73380864	i m o	-0.13130026
-0.81367356	r m o	-0.13130026
-1.1384363	y m o	-0.13130026
-0.36388448	[ m o	-0.13130026
-0.36388448	" m o	-0.13130026
-0.1839071	c ï o	-0.13130026
-0.1839071	# ï o	-0.13130026
-0.1839071	p ï o	-0.13130026
-1.0653499	a d o	-0.18863444
-1.0514749	o d o	-0.16623792
-1.3329325	# d o	-0.20423406
-1.5176547	e d o	-0.13130026
-0.63115764	m d o	-0.13130026
-0.899869	d d o	-0.2588779
-1.2355082	i d o	-0.13130026
-0.8415415	r d o	-0.17853759
-1.3176061	y d o	-0.20423406
-0.37692305	b d o	-0.13130026
-0.7650089	- d o	-0.13130026
-0.8514542	= d o	-0.13130026
-1.1689531	a l o	-0.17853759
-1.0362298	c l o	-0.13130026
-1.1847086	o l o	-0.16623792
-0.99119836	n l o	-0.13130026
-1.4345493	# l o	-0.13130026
-1.3462152	e l o	-0.20423406
-0.91372925	l l o	-0.23408376
-1.4097546	i l o	-0.13130026
-1.0789582	r l o	-0.13130026
-1.2215825	g l o	-0.13130026
-1.1069986	h l o	-0.13130026
-1.1305312	b l o	-0.13130026
-0.93509734	' l o	-0.13130026
-1.1489499	m . o	-0.13130026
-1.1715419	e u o	-0.13130026
-1.4065042	l u o	-0.13130026
-1.2737502	t i o	-0.13130026
-0.89719754	c i o	-0.20423406
-0.74366164	s i o	-0.15902193
-0.9999401	n i o	-0.17853759
-1.322507	# i o	-0.13130026
-1.5118041	e i o	-0.13130026
-1.1768398	w i o	-0.13130026
-1.0965477	m i o	-0.13130026
-1.1495924	d i o	-0.15427701
-1.0982214	l i o	-0.21482559
-0.7457367	r i o	-0.16221422
-0.910299	p i o	-0.13130026
-0.5163294	g i o	-0.21482559
-1.0307922	h i o	-0.13130026
-1.0965477	b i o	-0.13130026
-0.86335444	f i o	-0.17853759
-1.1538402	t r o	-0.13130026
-1.4865477	a r o	-0.13130026
-0.42734164	c r o	-0.18863444
-1.310574	o r o	-0.13130026
-0.7693103	# r o	-0.56700814
-1.3043268	e r o	-0.13130029
-1.193757	w r o	-0.13130026
-0.6222488	d r o	-0.16645642
-0.9574018	u r o	-0.20423406
-1.1674216	i r o	-0.13130026
-1.2737441	y r o	-0.13130026
-0.59623045	p r o	-0.13130026
-0.7558321	g r o	-0.21482559
-1.1269304	h r o	-0.13130026
-1.10234	b r o	-0.15427701
-0.8130188	f r o	-0.13130029
-0.41615865	a y o	-0.13130026
-1.6889486	w y o	-0.13130026
-1.199788	m y o	-0.13130026
-0.91112417	s p o	-0.13130026
-1.1839416	o p o	-0.13130026
-0.78311837	# p o	-0.4499579
-1.0432808	| p o	-0.13130026
-0.22562347	o j o	-0.13130026
-0.48289412	# j o	-0.13130026
-0.22562347	e j o	-0.13130026
-0.22562347	| j o	-0.13130026
-0.22562347	[ j o	-0.13130026
-0.92830044	a g o	-0.13130026
-0.8995968	s g o	-0.15091921
-1.0136206	o g o	-0.21482559
-0.8521643	n g o	-0.16623792
-0.8078231	# g o	-0.4799978
-0.924868	e g o	-0.19678587
-0.858258	l g o	-0.13130026
-1.1883255	i g o	-0.13130026
-0.81049216	y g o	-0.17853759
-0.9208558	( g o	-0.13130026
-0.9476324	t h o	-0.18516275
-1.0561359	c h o	-0.17704691
-1.0587676	n h o	-0.13130026
-1.2853662	# h o	-0.15902193
-0.96505475	m h o	-0.13130026
-1.0343721	r h o	-0.13130026
-0.55610627	y h o	-0.20423406
-1.0513456	p h o	-0.13130026
-0.94038004	g h o	-0.13130026
-0.3628794	- h o	-0.13130026
-0.76317656	t b o	-0.13130026
-0.72359204	a b o	-0.13130026
-0.6913942	s b o	-0.13130026
-0.9080368	# b o	-0.32501918
-1.1028754	e b o	-0.13130026
-0.6913942	m b o	-0.13130026
-0.6913942	r b o	-0.13130026
-0.81273264	y b o	-0.13130026
-0.57588494	( b o	-0.13130026
-0.3452793	[ b o	-0.13130026
-0.7782385	a f o	-0.3117356
-0.99193096	n f o	-0.13130026
-0.9104771	# f o	-0.6127656
-1.1957273	e f o	-0.13130026
-0.99461037	d f o	-0.13130026
-1.2268059	i f o	-0.13130026
-0.72209144	r f o	-0.21482559
-1.28332	y f o	-0.13130026
-0.89448357	f f o	-0.3117356
-1.8334033	' ' o	-0.13130026
-0.35317996	e - o	-0.13130026
-0.5894078	d - o	-0.13130026
-0.35317996	r - o	-0.13130026
-1.3271064	g | o	-0.13130026
-1.4018419	[ [ o	-0.13130026
-0.3513347	a x o	-0.13130026
-0.34436917	t v o	-0.13130026
-0.7730615	# v o	-0.13130026
-0.20274329	r í o	-0.13130026
-0.7550967	<s> a n	-0.13130026
-0.885019	t a n	-0.18516275
-0.76588994	c a n	-0.17146662
-0.8515625	s a n	-0.21482559
-0.7550967	o a n	-0.13130026
-1.2008655	n a n	-0.13130026
-1.0219797	# a n	-0.26559344
-0.8730942	e a n	-0.13130026
-1.2075851	w a n	-0.13130026
-1.0989208	m a n	-0.13130026
-0.6379216	d a n	-0.2491515
-0.7894023	l a n	-0.18035366
-1.0674891	i a n	-0.19890098
-0.7653483	r a n	-0.16623797
-0.7947633	g a n	-0.13130026
-0.6051538	h a n	-0.20008041
-1.1164064	b a n	-0.13130026
-0.73463905	f a n	-0.19678587
-0.46104944	- a n	-0.13130026
-0.62385255	v a n	-0.13130026
-0.7550967	= a n	-0.13130026
-0.37283978	đ a n	-0.13130026
-1.5274501	# c n	-0.20423406
-0.97749275	' c n	-0.13130026
-1.6465994	a s n	-0.13130026
-1.9895868	# s n	-0.13130026
-1.7190211	e s n	-0.13130026
-1.406461	u s n	-0.13130026
-0.35827935	a o n	-0.13130026
-1.1464528	c o n	-0.13130026
-0.9260281	s o n	-0.20423406
-0.5982305	o o n	-0.13130026
-1.2000898	n o n	-0.13130026
-0.78396654	# o n	-0.72378516
-0.53716964	m o n	-0.13130026
-0.72078335	ï o n	-0.13130026
-1.08897	d o n	-0.16623792
-0.9199201	l o n	-0.16623792
-0.73506534	i o n	-0.3281553
-0.90409094	r o n	-0.19890098
-0.8520348	y o n	-0.13130026
-0.9558456	p o n	-0.13130026
-1.2473569	g o n	-0.13130026
-0.9167601	h o n	-0.16623792
-0.6336776	b o n	-0.16623792
-1.1632552	f o n	-0.13130029
-0.5982305	' o n	-0.13130026
-0.35827935	x o n	-0.13130026
-0.5982305	v o n	-0.13130026
-1.0938826	a n n	-0.28303018
-1.7178369	o n n	-0.13130026
-1.295062	e n n	-0.19890098
-1.1831234	w n n	-0.13130026
-0.93140566	y n n	-0.2219133
-1.5105615	t # n	-0.13130026
-1.463485	a # n	-0.13130026
-1.5448188	s # n	-0.17853759
-1.6096472	o # n	-0.13130026
-1.8120271	n # n	-0.13130029
-1.391332	d # n	-0.27821305
-1.448399	l # n	-0.37160265
-1.3342508	u # n	-0.18863444
-1.6126032	i # n	-0.13130026
-1.6617566	r # n	-0.16623792
-1.4223455	y # n	-0.13130026
-1.3686185	p # n	-0.13130026
-1.5387537	g # n	-0.13130026
-1.5494851	h # n	-0.13130026
-1.5192318	f # n	-0.13130026
-1.155204	' # n	-0.13130026
-1.6615872	, # n	-0.24666393
-0.7038239	" # n	-0.20423406
-0.7796521	t e n	-0.13130029
-1.1719788	a e n	-0.14648224
-0.9690733	c e n	-0.20423406
-1.1476122	s e n	-0.13130026
-0.761418	# e n	-0.42448047
-0.36991712	e e n	-0.13130026
-1.169975	w e n	-0.13130026
-0.8953707	m e n	-0.17853759
-1.0847532	d e n	-0.17853759
-0.8109603	l e n	-0.18482059
-0.7480823	u e n	-0.13130026
-1.0442921	i e n	-0.13130026
-0.9715639	r e n	-0.19890098
-0.7433629	p e n	-0.13130029
-0.50772864	g e n	-0.18985263
-0.71487963	h e n	-0.13130026
-0.61083716	b e n	-0.17146662
-1.2318773	f e n	-0.17853759
-0.7480823	| e n	-0.13130026
-0.6186567	[ e n	-0.13130026
-0.36991712	= e n	-0.13130026
-1.0323274	a w n	-0.16623792
-1.2172205	# w n	-0.24666393
-0.8784466	e w n	-0.17853759
-0.7928585	m w n	-0.20423406
-1.0387819	i w n	-0.17853759
-1.4343035	g w n	-0.13130026
-0.85450006	h w n	-0.13130026
-1.06422	f w n	-0.13130026
-1.4111091	o m n	-0.13130026
-2.0372343	# m n	-0.13130026
-1.2387643	w m n	-0.13130026
-1.6268976	a d n	-0.20423406
-2.1653454	# d n	-0.13130026
-1.1557521	m . n	-0.13130026
-0.37140673	<s> u n	-0.13130026
-0.9810461	t u n	-0.13130026
-0.33106202	# u n	-0.23503885
-0.9784924	e u n	-0.13130026
-0.37140673	w u n	-0.13130026
-0.59659326	m u n	-0.15902193
-0.7539203	l u n	-0.15902193
-0.75164914	( u n	-0.13130026
-1.0805378	h u n	-0.13130029
-0.82881546	f u n	-0.13130026
-0.3642957	<s> i n	-0.13130026
-1.0753831	t i n	-0.13130029
-0.82454646	a i n	-0.2094975
-1.258458	s i n	-0.13130029
-1.2385137	n i n	-0.15091921
-0.8762343	# i n	-0.19678587
-0.8851578	e i n	-0.14841785
-1.1160557	w i n	-0.13130026
-0.6516689	m i n	-0.17853759
-0.7504108	d i n	-0.30804545
-0.7672792	l i n	-0.3429139
-1.1397088	r i n	-0.13130029
-0.3642957	k i n	-0.13130026
-0.60873854	_ i n	-0.13130026
-0.7347731	( i n	-0.13130026
-0.98481643	h i n	-0.13130029
-1.1687772	f i n	-0.13130029
-1.0324095	' i n	-0.13130026
-0.82519484	v i n	-0.13130026
-0.4514311	/ i n	-0.13130026
-1.4230077	a r n	-0.13130026
-1.6639998	e r n	-0.13130026
-1.6076871	w r n	-0.13130026
-1.1051798	m r n	-0.13130026
-1.5797781	i r n	-0.13130026
-1.5546347	y r n	-0.13130026
-0.63030976	# k n	-0.13130026
-0.63030976	' k n	-0.13130026
-0.55006933	t y n	-0.16623792
-1.069469	c y n	-0.14493991
-1.028366	s y n	-0.13130026
-0.6507863	# y n	-0.4799978
-0.9529946	w y n	-0.2227479
-0.5186652	m y n	-0.15902193
-0.7358616	d y n	-0.16645642
-0.531013	l y n	-0.15902193
-0.97373587	r y n	-0.13130026
-0.5926697	p y n	-0.13130026
-0.82184017	g y n	-0.17146662
-0.8999814	h y n	-0.15427701
-0.9338561	b y n	-0.13130026
-0.4510312	f y n	-0.14648224
-0.5926697	' y n	-0.13130026
-0.29365847	| y n	-0.13130026
-1.7317172	e g n	-0.13130026
-0.99077433	l g n	-0.13130026
-1.7179316	# ( n	-0.13130026
-1.3850226	t h n	-0.17853759
-0.8661784	o h n	-0.13130026
-1.4870491	e f n	-0.13130026
-0.70002747	w f n	-0.13130026
-1.2974991	y f n	-0.17853759
-1.1139053	o ' n	-0.13130026
-1.120751	e ' n	-0.13130026
-0.48417863	u ' n	-0.46851265
-0.6288234	i ' n	-0.37160265
-0.7848828	y ' n	-0.13130026
-1.6165061	' ' n	-0.13130026
-1.0259333	n | n	-0.13130026
-1.0914664	d | n	-0.13130026
-1.247788	g | n	-0.13130026
-0.46272063	l â n	-0.20423406
-0.11119427	# & n	-0.13130026
-0.11119427	; & n	-0.13130026
-1.1595943	s t #	-0.13130029
-0.83402944	n t #	-0.19133466
-1.0556765	e t #	-0.13130026
-0.8890693	l t #	-0.13130026
-0.6702206	u t #	-0.13130026
-1.2124242	i t #	-0.13130026
-0.8890693	' t #	-0.13130026
-1.0899755	t a #	-0.13130026
-1.3577126	c a #	-0.13130026
-1.4337876	s a #	-0.13130026
-0.99259233	n a #	-0.15902193
-1.3808687	m a #	-0.13130029
-1.3672519	d a #	-0.13130026
-1.6334766	l a #	-0.13130026
-0.90464854	u a #	-0.13130026
-1.4452057	i a #	-0.13130029
-0.66240203	k a #	-0.13130026
-1.1729937	p a #	-0.13130026
-1.2230638	b a #	-0.13130026
-0.85628414	f a #	-0.15427701
-1.1281748	o c #	-0.13130026
-0.8033286	n c #	-0.13130026
-1.027662	w c #	-0.13130026
-0.75333536	i c #	-0.13130026
-0.9331407	r c #	-0.13130029
-0.69451827	a s #	-0.18165407
-0.7611493	o s #	-0.16867012
-1.0198196	n s #	-0.13130026
-0.7974562	e s #	-0.16815698
-0.8977597	w s #	-0.13130026
-0.90671563	m s #	-0.13130026
-0.6010767	d s #	-0.13130026
-0.8025833	l s #	-0.13130026
-0.29102919	u s #	-0.14648224
-0.76175064	i s #	-0.13130029
-0.72595346	r s #	-0.13130026
-0.7446182	y s #	-0.17675903
-0.5374197	p s #	-0.13130026
-0.6010767	] s #	-0.13130026
-0.35991508	à s #	-0.13130026
-0.35991508	’ s #	-0.13130026
-1.1801541	c o #	-0.13130026
-1.2695109	s o #	-0.13130026
-0.9629472	n o #	-0.14493991
-1.3345515	m o #	-0.13130026
-1.2346798	d o #	-0.15902193
-0.5654514	i o #	-0.17934456
-1.3944639	r o #	-0.13130026
-0.9708267	y o #	-0.13130026
-1.0303805	j o #	-0.13130026
-0.39297044	í o #	-0.13130026
-1.0311618	a n #	-0.24100515
-0.6850725	o n #	-0.21987386
-0.8463868	e n #	-0.21741283
-0.7152484	w n #	-0.15902193
-0.9964249	u n #	-0.13130029
-0.8416063	i n #	-0.19925448
-0.9129688	r n #	-0.13130029
-0.7657805	y n #	-0.2020929
-0.8641992	h n #	-0.13130026
-0.8641992	f n #	-0.13130026
-0.19459897	' n #	-0.20969413
-0.38115525	â n #	-0.13130026
-1.2352725	t e #	-0.20423406
-0.98937094	a e #	-0.15693296
-1.3793178	s e #	-0.13130026
-1.4517695	n e #	-0.17853759
-1.4479635	m e #	-0.13130026
-1.6071961	d e #	-0.13130026
-1.428169	l e #	-0.13130026
-1.4207367	r e #	-0.13130029
-1.2171284	a w #	-0.13130029
-1.2630544	n w #	-0.13130026
-1.3092376	d w #	-0.13130029
-1.2327352	i w #	-0.13130026
-1.1053145	r w #	-0.13130029
-0.6084848	y w #	-0.1590219
-1.2762064	h w #	-0.13130026
-0.38727868	' w #	-0.13130026
-1.3461069	a m #	-0.13130026
-1.2132521	o m #	-0.13130026
-0.8865394	e m #	-0.13130026
-0.43289176	w m #	-0.13130026
-0.7191704	u m #	-0.13130026
-0.77593595	i m #	-0.13130026
-1.2211323	y m #	-0.15427701
-0.9030612	a d #	-0.17146662
-0.67252874	o d #	-0.19042778
-0.95668083	n d #	-0.14368212
-0.7330165	e d #	-0.17424776
-1.0084176	w d #	-0.13130026
-0.9612684	d d #	-0.34610447
-0.7722399	l d #	-0.13130026
-0.683168	u d #	-0.13130026
-0.71475554	i d #	-0.14493991
-1.2696255	r d #	-0.13130026
-0.7173845	y d #	-0.24814714
-0.7623043	a l #	-0.17853764
-0.7840786	o l #	-0.31008747
-0.9737825	n l #	-0.13130026
-0.8597847	e l #	-0.1917172
-0.8397531	w l #	-0.13130026
-0.93498373	d l #	-0.15427701
-1.1090549	l l #	-0.20642419
-1.0104288	u l #	-0.13130026
-1.0860956	i l #	-0.13130029
-1.2521993	y l #	-0.13130026
-0.9271754	p l #	-0.13130026
-1.0152395	g l #	-0.13130026
-0.6766156	b l #	-0.13130026
-0.31158847	ô l #	-0.13130026
-0.3842282	t . #	-0.13130026
-0.4549169	a . #	-0.13130026
-0.35960495	s . #	-0.13130026
-0.101161614	o . #	-0.13130026
-0.13322596	n . #	-0.17788477
-0.3842282	e . #	-0.13130026
-0.1680507	w . #	-0.13130026
-0.5393915	m . #	-0.13130026
-0.19160429	d . #	-0.24100515
-0.259726	l . #	-0.18863444
-0.259726	u . #	-0.14841785
-0.22267105	i . #	-0.13130026
-0.18022881	r . #	-0.17704691
-0.35960495	p . #	-0.13130026
-0.22267105	j . #	-0.13130026
-0.07895623	g . #	-0.15902193
-0.1890755	h . #	-0.13130029
-0.15739435	) . #	-0.14841785
-0.1890755	b . #	-0.13130026
-0.14089656	f . #	-0.13130026
-0.3842282	' . #	-0.13130026
-0.22267105	ë . #	-0.13130026
-0.22267105	á . #	-0.13130026
-0.9086343	t u #	-0.13130029
-0.38743746	a u #	-0.3416348
-0.83217627	n u #	-0.13130026
-0.9092806	e u #	-0.14958338
-0.98975277	m u #	-0.13130026
-0.77388537	d u #	-0.13130026
-0.7143195	l u #	-0.13130026
-0.683506	r u #	-0.13130029
-0.5580226	g u #	-0.13130026
-0.8360062	h u #	-0.14263669
-0.77892375	f u #	-0.17853759
-0.21003172	' u #	-0.15902193
-0.7060175	â u #	-0.13130026
-1.1790555	a i #	-0.14841785
-0.8940499	c i #	-0.13130026
-0.8504652	s i #	-0.15902193
-0.65024704	o i #	-0.15091921
-0.8107399	n i #	-0.17749353
-1.5053458	e i #	-0.13130026
-1.1713381	w i #	-0.13130026
-1.2895525	d i #	-0.16107143
-1.23591	l i #	-0.13130026
-0.30888724	i i #	-0.13130026
-1.0494956	r i #	-0.13130026
-0.9068289	p i #	-0.13130026
-1.1391786	g i #	-0.13130029
-1.0918484	b i #	-0.13130026
-1.043652	f i #	-0.13130026
-0.1925773	' i #	-0.17853764
-1.3217754	t r #	-0.13130029
-1.0440223	a r #	-0.14841785
-0.8779663	o r #	-0.14368212
-0.83031934	e r #	-0.21707568
-0.57344556	w r #	-0.18035366
-1.0667678	d r #	-0.13130026
-0.9418154	u r #	-0.13130026
-0.5314176	i r #	-0.276037
-0.9422763	r r #	-0.13130026
-0.7449998	y r #	-0.16944537
-1.1067641	h r #	-0.13130026
-0.7404751	b r #	-0.16623792
-1.1619209	f r #	-0.13130029
-0.18346918	' r #	-0.351839
-0.6229887	ô r #	-0.13130029
-0.37235492	â r #	-0.13130026
-0.37235492	ŵ r #	-0.13130026
-0.7528211	c k #	-0.13130026
-0.84615564	s k #	-0.13130026
-1.1967794	t y #	-0.13130026
-1.2705882	n y #	-0.13130026
-0.8769433	e y #	-0.13130026
-1.3306818	w y #	-0.18985263
-1.0573758	m y #	-0.13130026
-0.94746846	d y #	-0.13130029
-1.3947371	l y #	-0.13130029
-1.2836208	r y #	-0.13130026
-0.64632595	' y #	-0.13130026
-0.9734303	t p #	-0.13130026
-0.7452735	a p #	-0.13130026
-0.66168374	d p #	-0.13130026
-0.39365715	ŵ p #	-0.13130026
-0.54829025	a g #	-0.15091921
-1.0721214	s g #	-0.13130029
-0.6984574	o g #	-0.15984905
-0.8494117	n g #	-0.14099897
-0.73913366	e g #	-0.15642737
-0.37789536	w g #	-0.13130026
-0.56383765	i g #	-0.18502583
-0.8072075	y g #	-0.13130029
-0.6329051	p g #	-0.13130026
-0.6329051	v g #	-0.13130026
-0.91588366	t h #	-0.23173389
-1.0173981	c h #	-0.150008
-0.4525767	t ) #	-0.13130026
-0.4525767	a ) #	-0.13130026
-0.49253714	n ) #	-0.13130026
-0.22129864	l ) #	-0.13130026
-0.38223875	i ) #	-0.13130026
-0.4525767	r ) #	-0.13130026
-0.5114789	p ) #	-0.13130026
-0.38223875	' ) #	-0.13130029
-0.38223875	] ) #	-0.13130026
-0.18795742	2 ) #	-0.20423406
-0.38223875	0 ) #	-0.13130026
-0.22129864	1 ) #	-0.13130026
-0.22129864	9 ) #	-0.13130026
-0.38223875	8 ) #	-0.13130026
-0.22129864	3 ) #	-0.13130026
-0.22129864	4 ) #	-0.13130026
-0.22129864	" ) #	-0.13130026
-0.22129864	ŷ ) #	-0.13130026
-1.1257143	a b #	-0.13130026
-0.94077235	o b #	-0.13130026
-0.85203063	e b #	-0.13130029
-1.0894561	i b #	-0.13130026
-0.5104644	a f #	-0.25441077
-1.1079142	o f #	-0.13130026
-0.8907673	e f #	-0.172455
-0.9172245	i f #	-0.15091921
-1.0900956	r f #	-0.15902193
-1.3481035	y f #	-0.13130026
-0.7154665	f f #	-0.17788477
-1.0392225	n ' #	-0.13130026
-0.84414685	g ' #	-0.13130026
-0.9142875	' ' #	-0.20277852
-0.043158237	t , #	-0.13130026
-0.043158237	a , #	-0.15427701
-0.076076776	c , #	-0.13130026
-0.024134405	s , #	-0.15642737
-0.043158237	o , #	-0.15091921
-0.0734067	n , #	-0.15246575
-0.043158237	e , #	-0.16623792
-0.076076776	w , #	-0.13130026
-0.058553047	m , #	-0.16623792
-0.043158237	d , #	-0.14263669
-0.024134405	l , #	-0.16864127
-0.058553047	u , #	-0.15902193
-0.043158237	i , #	-0.13130026
-0.043158237	r , #	-0.13130026
-0.08757355	k , #	-0.13130026
-0.08757355	y , #	-0.13130026
-0.08757355	p , #	-0.13130026
-0.058553047	g , #	-0.14648224
-0.076076776	h , #	-0.13130026
-0.021043228	) , #	-0.15902193
-0.058553047	f , #	-0.16623792
-0.043158237	' , #	-0.16280995
-0.08757355	3 , #	-0.13130026
-0.08889471	s : #	-0.13130026
-0.059406113	n : #	-0.17853759
-0.08889471	w : #	-0.13130026
-0.08889471	d : #	-0.13130026
-0.090519	l : #	-0.17146662
-0.08889471	g : #	-0.13130026
-0.08889471	h : #	-0.13130026
-0.08889471	) : #	-0.13130026
-0.08889471	f : #	-0.13130026
-0.08889471	' : #	-0.13130026
-0.08889471	] : #	-0.13130026
-0.6788074	t | #	-0.13130026
-1.1156445	e | #	-0.13130026
-0.8312296	| | #	-0.13130026
-0.093445756	s ; #	-0.13130026
-0.10791106	n ; #	-0.13130026
-0.10791106	m ; #	-0.13130026
-0.10791106	u ; #	-0.13130026
-0.10791106	j ; #	-0.13130026
-0.10791106	' ; #	-0.13130026
-0.10791106	] ; #	-0.13130026
-0.38124698	7 2 #	-0.13130026
-0.3335299	t 5 #	-0.13130026
-0.3335299	. 5 #	-0.13130026
-0.6554506	4 0 #	-0.13130026
-0.70986104	e x #	-0.13130026
-0.37528217	0 9 #	-0.13130026
-0.37951598	. 6 #	-0.13130026
-0.6707281	s = #	-0.13130026
-0.5117597	n = #	-0.13130029
-0.83018506	d = #	-0.13130026
-0.71392685	l = #	-0.13130026
-0.7388982	r = #	-0.13130026
-0.33584324	p = #	-0.13130026
-0.6397511	= = #	-0.22208044
-0.4549842	# â #	-0.13130026
-0.35413215	. 8 #	-0.13130026
-0.35413215	9 8 #	-0.13130026
-0.36970055	0 3 #	-0.13130026
-0.21506678	s " #	-0.13130026
-0.25480875	n " #	-0.13130026
-0.25480875	l " #	-0.13130026
-0.43166375	g " #	-0.13130026
-0.3828377	c 7 #	-0.13130026
-0.6547977	a ë #	-0.13130026
-0.24512765	t ŷ #	-0.13130026
-1.2361349	a t e	-0.13130026
-0.6625079	s t e	-0.1926911
-0.56984943	o t e	-0.13130026
-1.1206574	n t e	-0.13130026
-0.8760189	# t e	-0.20008041
-1.1961311	e t e	-0.13130026
-0.65217054	u t e	-0.13130029
-0.84943366	| t e	-0.13130026
-0.6299399	x t e	-0.13130026
-1.3946481	t a e	-0.13130026
-1.3064668	c a e	-0.13130026
-1.2099156	s a e	-0.13130026
-1.2728214	n a e	-0.13130029
-1.2736452	# a e	-0.37531948
-1.0849414	w a e	-0.13130029
-0.85297555	m a e	-0.15091921
-0.64937717	ï a e	-0.13130026
-1.1691531	d a e	-0.21482559
-0.9398777	l a e	-0.24666393
-1.2456392	i a e	-0.24666393
-1.0528641	r a e	-0.15902193
-0.8224282	g a e	-0.15902193
-1.279253	h a e	-0.13130026
-1.185118	b a e	-0.13130026
-0.84343356	f a e	-0.19678587
-1.1772884	a c e	-0.13130026
-0.95555323	s c e	-0.13130026
-1.0389857	o c e	-0.13130026
-0.7270532	# c e	-0.4540056
-1.0344943	i c e	-0.17853759
-0.8421953	' c e	-0.13130026
-0.37379622	- c e	-0.13130026
-1.1259485	| c e	-0.13130026
-1.240171	o s e	-0.13130026
-0.83303165	# s e	-0.37287715
-1.4700494	e s e	-0.13130026
-0.7364907	m s e	-0.20423406
-1.0226676	u s e	-0.13130026
-1.3485992	i s e	-0.13130026
-1.3190997	y s e	-0.13130026
-1.1001632	p s e	-0.13130026
-0.3895636	- s e	-0.13130026
-1.2748023	s o e	-0.13130026
-0.8189028	# o e	-0.46851265
-1.0778178	e o e	-0.13130026
-1.4337528	d o e	-0.13130026
-0.85501194	l o e	-0.18516275
-1.5822307	i o e	-0.13130026
-0.8985079	r o e	-0.2759671
-1.1179098	g o e	-0.21482559
-1.2112684	h o e	-0.20423406
-1.0749445	f o e	-0.13130026
-1.1113752	a n e	-0.15427701
-0.7539819	c n e	-0.13130026
-0.5574417	s n e	-0.13130026
-1.0069468	o n e	-0.15091921
-0.9054941	n n e	-0.13130026
-0.41386342	# n e	-0.4366374
-0.98533744	e n e	-0.25210953
-1.0148816	w n e	-0.20423406
-0.74293256	m n e	-0.13130026
-0.95613116	u n e	-0.24666393
-1.1925371	i n e	-0.15427701
-1.3145283	y n e	-0.17853759
-0.6148282	g n e	-0.13130026
-0.82466304	f n e	-0.13130026
-1.0407013	' n e	-0.13130026
-0.74293256	| n e	-0.13130026
-1.5046824	t # e	-0.13130026
-1.6306049	a # e	-0.13130026
-1.540945	s # e	-0.13130029
-1.4195594	n # e	-0.15427701
-1.5942701	w # e	-0.13130026
-1.4522578	m # e	-0.13130026
-1.3063701	d # e	-0.17424776
-1.3422437	l # e	-0.15902193
-1.3409747	. # e	-0.2291915
-1.7855327	u # e	-0.13130026
-1.3000927	i # e	-0.21482559
-1.3336481	r # e	-0.17773429
-1.4170569	y # e	-0.13130026
-1.1146531	g # e	-0.13130026
-1.3791405	h # e	-0.13130029
-1.6720524	f # e	-0.13130026
-1.3828157	' # e	-0.13130026
-1.326067	, # e	-0.15091921
-1.8941548	r e e	-0.13130026
-1.3254704	a w e	-0.13130026
-1.0186601	n w e	-0.13130026
-0.5163929	# w e	-0.51585555
-0.9952595	m w e	-0.13130026
-1.0408891	d w e	-0.13130026
-0.75376	l w e	-0.16623792
-0.9768216	i w e	-0.13130026
-1.2442257	r w e	-0.13130026
-1.2149537	y w e	-0.13130026
-0.75781554	g w e	-0.19801842
-1.2003233	h w e	-0.13130026
-1.0926018	a m e	-0.13130026
-0.6083485	o m e	-0.16623792
-0.85050106	# m e	-0.391966
-0.81812525	e m e	-0.20423406
-0.5961833	m m e	-0.13130026
-0.7180708	l m e	-0.13130026
-0.79482645	r m e	-0.13130026
-0.98775077	y m e	-0.21482559
-0.5961833	( m e	-0.13130026
-0.7180708	' m e	-0.13130026
-0.7180708	| m e	-0.13130026
-1.0510328	a d e	-0.15427701
-1.4862313	o d e	-0.13130026
-0.57406974	n d e	-0.16623792
-0.9550867	# d e	-0.24760726
-1.3607234	e d e	-0.13130026
-1.2802624	d d e	-0.13130026
-1.2332618	r d e	-0.13130026
-1.4264871	y d e	-0.13130026
-0.3067915	_ d e	-0.20423406
-0.7643266	h d e	-0.13130026
-0.7539028	- d e	-0.13130026
-0.6229697	| d e	-0.13130026
-0.83793974	= d e	-0.13130026
-1.2604057	a l e	-0.13130026
-0.98120105	c l e	-0.13130026
-0.9804767	o l e	-0.2112663
-0.744965	# l e	-0.27009326
-1.1438746	e l e	-0.17853759
-1.2055361	w l e	-0.13130026
-0.8968196	m l e	-0.13130026
-1.0931518	d l e	-0.13130026
-1.0120776	l l e	-0.19801842
-1.055616	i l e	-0.17853759
-1.0214937	r l e	-0.13130026
-1.2073835	y l e	-0.13130026
-0.81042206	g l e	-0.17853759
-1.0540866	h l e	-0.13130026
-1.0663874	b l e	-0.13130026
-0.66317004	f l e	-0.13130026
-0.8968196	| l e	-0.13130026
-0.87468094	a . e	-0.13130026
-1.2200931	g u e	-0.13130026
-0.62280893	b u e	-0.20423406
-1.2546607	f u e	-0.13130026
-1.2897098	t i e	-0.13130026
-1.0078042	c i e	-0.13130026
-1.2745569	m i e	-0.13130026
-1.6488973	l i e	-0.13130026
-1.5156621	r i e	-0.13130026
-0.690204	[ i e	-0.13130026
-0.7919711	t r e	-0.3117356
-1.1160643	a r e	-0.21482559
-1.0454148	c r e	-0.13130029
-1.3603891	o r e	-0.13130026
-1.4212729	# r e	-0.20423406
-1.2615434	e r e	-0.13130026
-1.1519814	w r e	-0.17853759
-0.9314122	m r e	-0.13130026
-1.048993	d r e	-0.20423406
-1.086179	u r e	-0.13130026
-1.1274948	i r e	-0.13130026
-0.9229758	r r e	-0.13130026
-1.0198946	p r e	-0.13130026
-0.8882742	g r e	-0.16623792
-0.691995	h r e	-0.15902193
-1.2543933	b r e	-0.13130026
-0.3027981	< r e	-0.20423406
-0.7912508	f r e	-0.16623792
-0.8892379	| r e	-0.13130026
-0.4965544	n k e	-0.13130026
-0.4965544	# k e	-0.13130026
-0.4965544	( k e	-0.13130026
-0.29689685	) k e	-0.13130026
-0.4965544	' k e	-0.13130026
-0.8751739	# p e	-0.42567894
-0.76862836	| p e	-0.13130026
-0.40432808	/ p e	-0.13130026
-0.48424172	# j e	-0.13130026
-0.37880307	<s> g e	-0.13130026
-1.1504675	a g e	-0.13130026
-1.2481233	s g e	-0.13130026
-1.4262213	o g e	-0.13130026
-1.3210561	n g e	-0.13130026
-0.92816854	# g e	-0.44877416
-1.3329463	e g e	-0.13130026
-1.3333756	i g e	-0.13130026
-0.5992843	r g e	-0.13130029
-0.857085	' g e	-0.13130026
-1.6634489	# ( e	-0.13130026
-1.2049702	t h e	-0.13130026
-1.035518	c h e	-0.2112663
-0.71551085	o h e	-0.13130026
-1.0315337	n h e	-0.13130026
-0.66989136	# h e	-0.35045606
-0.71551085	e h e	-0.13130026
-0.7228492	m h e	-0.13130029
-0.8411443	r h e	-0.17146662
-0.845923	p h e	-0.13130026
-0.9148679	g h e	-0.13130026
-0.35598314	( h e	-0.13130026
-0.8076698	t b e	-0.13130026
-0.96930224	a b e	-0.13130026
-0.92475533	# b e	-0.25046867
-0.6306882	e b e	-0.21482559
-0.7406407	u b e	-0.13130026
-0.7288076	r b e	-0.13130026
-1.0181756	| b e	-0.13130026
-0.36174372	ü b e	-0.13130026
-1.1549864	a f e	-0.13130026
-0.7228745	# f e	-0.41095147
-1.1296959	e f e	-0.13130026
-0.70348954	d f e	-0.13130029
-0.75392455	l f e	-0.13130026
-0.30037135	u f e	-0.20423406
-0.85757905	i f e	-0.13130026
-1.1548386	r f e	-0.13130026
-0.91743267	y f e	-0.13130029
-1.0028331	f f e	-0.13130026
-0.36387926	5 f e	-0.13130026
-1.6163025	' ' e	-0.13130029
-0.8263357	s - e	-0.13130026
-0.404478	<s> | e	-0.13130026
-1.0804662	d | e	-0.13130026
-0.8357145	| | e	-0.13130026
-1.391777	[ [ e	-0.13130026
-0.26949814	<s> v e	-0.13130026
-0.4539287	a v e	-0.13130026
-0.4539287	s v e	-0.13130026
-0.6043942	# v e	-0.13130026
-0.38212073	# 6 e	-0.13130026
-1.6595168	= = e	-0.13130026
-0.38239247	e / e	-0.13130026
-0.26586884	e z e	-0.13130026
-0.26586884	i z e	-0.13130026
-0.3309746	p ŵ e	-0.13130026
-0.5643736	{ { e	-0.20423406
-1.5763566	a t w	-0.13130026
-1.7869439	s t w	-0.13130026
-1.0616546	s a w	-0.17853759
-1.4922022	n a w	-0.13130026
-1.4454397	# a w	-0.46851265
-1.3946779	m a w	-0.13130026
-1.5444194	d a w	-0.13130029
-1.1550362	l a w	-0.17853764
-1.0715185	r a w	-0.18863444
-1.4112271	g a w	-0.13130026
-1.0361658	( a w	-0.13130026
-1.3232865	h a w	-0.13130026
-1.2323616	b a w	-0.13130026
-1.3205332	f a w	-0.20423406
-1.0418702	| a w	-0.13130026
-1.929886	# c w	-0.13130026
-1.3834506	| c w	-0.13130026
-1.577546	o s w	-0.13130026
-1.2910945	n s w	-0.13130026
-1.7089632	# s w	-0.20423406
-1.2674273	e s w	-0.17853759
-1.660545	y s w	-0.13130026
-1.3006083	p o w	-0.13130026
-0.40285227	<s> n w	-0.13130026
-1.5326498	a n w	-0.13130029
-0.9947918	n n w	-0.17853759
-1.0697852	e n w	-0.15902193
-1.6833656	i n w	-0.13130026
-1.4651251	y n w	-0.17853759
-0.40285227	( n w	-0.13130026
-1.4623992	t # w	-0.13130026
-1.5800891	a # w	-0.13130026
-1.2570782	c # w	-0.13130026
-1.5125642	s # w	-0.16623792
-1.3957018	o # w	-0.13130026
-1.6261098	n # w	-0.16623792
-1.4931403	e # w	-0.13130026
-1.3750612	w # w	-0.20423406
-1.4100388	m # w	-0.13130026
-1.7301229	d # w	-0.15902193
-1.6908102	l # w	-0.13130026
-1.8955898	. # w	-0.13130026
-1.7313439	u # w	-0.13130026
-1.7073997	i # w	-0.13130026
-1.8946083	r # w	-0.13130026
-1.3788141	y # w	-0.13130026
-1.3414406	g # w	-0.13130029
-1.3427035	h # w	-0.20423406
-1.6191186	f # w	-0.13130026
-1.777633	, # w	-0.13130026
-1.3916656	= # w	-0.13130026
-0.67496127	ë # w	-0.13130026
-1.7947965	a e w	-0.13130026
-1.0109196	n e w	-0.2112663
-1.8761069	# e w	-0.13130026
-1.2500659	m e w	-0.20423406
-1.4890131	l e w	-0.13130026
-1.7027507	f e w	-0.13130026
-1.859797	# w w	-0.13130026
-0.70986825	w w w	-0.13130026
-1.3612988	o m w	-0.13130026
-0.98923534	# m w	-0.42448047
-1.5629941	y m w	-0.13130026
-0.8377035	' m w	-0.13130026
-1.1264598	a d w	-0.15902193
-1.6408738	o d w	-0.13130026
-1.2625611	# d w	-0.2759671
-1.4775796	e d w	-0.13130029
-1.0783638	w d w	-0.13130026
-1.1453178	d d w	-0.39091682
-1.59075	y d w	-0.13130026
-0.6647986	| d w	-0.13130026
-1.4791528	a l w	-0.13130026
-1.563658	o l w	-0.13130026
-1.2553734	# l w	-0.24666393
-0.9536667	e l w	-0.18863444
-1.2795333	w l w	-0.13130026
-0.9462426	m l w	-0.13130026
-1.1690214	d l w	-0.13130026
-1.2219273	l l w	-0.21482559
-1.417113	i l w	-0.13130026
-1.2811532	y l w	-0.13130026
-1.0369408	g l w	-0.17853759
-1.1356714	b l w	-0.13130026
-1.1415143	f l w	-0.13130026
-1.1189599	# u w	-0.20423406
-1.26622	d u w	-0.13130026
-0.9511433	f u w	-0.13130026
-1.4762341	t i w	-0.13130026
-1.2570153	c i w	-0.13130026
-1.2906876	s i w	-0.13130026
-1.6402588	n i w	-0.13130026
-1.4435506	# i w	-0.20423406
-1.4456624	d i w	-0.15427701
-1.3946385	l i w	-0.17853759
-1.4775083	r i w	-0.13130026
-1.0033448	t r w	-0.18863444
-1.1011459	a r w	-0.18482059
-1.4098773	o r w	-0.20423406
-1.5259289	e r w	-0.20423406
-1.3693078	d r w	-0.13130026
-1.2408224	u r w	-0.13130026
-1.4358238	i r w	-0.13130026
-1.1319562	p r w	-0.13130026
-1.3787187	g r w	-0.13130026
-1.3962495	b r w	-0.13130026
-1.2858145	f r w	-0.13130026
-1.2358627	t y w	-0.13130026
-0.70100385	# y w	-0.6135367
-1.3785459	d y w	-0.13130026
-1.2580116	l y w	-0.13130026
-1.097526	r y w	-0.15902193
-1.3969463	h y w	-0.13130026
-1.2874342	b y w	-0.13130026
-1.2775068	f y w	-0.13130026
-1.0152817	a p w	-0.13130026
-1.2934207	# p w	-0.21482559
-1.0088531	i p w	-0.13130026
-0.79589725	r p w	-0.13130026
-0.3195579	" p w	-0.13130026
-0.88965917	s g w	-0.17853759
-1.276827	o g w	-0.13130026
-0.98653275	n g w	-0.13130029
-0.7338526	# g w	-0.5012506
-1.3119396	i g w	-0.13130026
-0.9079034	( g w	-0.13130026
-0.8470219	' g w	-0.13130026
-0.5686569	| g w	-0.13130029
-0.62848336	[ g w	-0.13130026
-0.62848336	= g w	-0.13130026
-0.37543175	" g w	-0.13130026
-1.4180123	t h w	-0.13130026
-1.10214	c h w	-0.18985263
-1.1211435	n h w	-0.13130026
-1.0571294	# h w	-0.3117356
-0.377493	l h w	-0.13130026
-1.2809185	r h w	-0.13130026
-1.1190461	p h w	-0.13130026
-0.99841154	g h w	-0.13130026
-1.1045489	# b w	-0.19890098
-0.8219039	l b w	-0.13130026
-1.1028748	i b w	-0.13130026
-0.99531394	y b w	-0.13130026
-1.5972353	a f w	-0.13130026
-1.1423261	n f w	-0.13130026
-1.190859	# f w	-0.3083727
-1.3562183	f f w	-0.13130026
-1.4745909	i ' w	-0.13130026
-0.20521902	p î w	-0.13130026
-1.3148091	c a m	-0.13130026
-1.0038004	# a m	-0.36482093
-1.1610293	e a m	-0.13130026
-1.334823	m a m	-0.13130026
-1.1737773	d a m	-0.15427701
-1.2752256	l a m	-0.17853759
-0.8859101	. a m	-0.13130026
-1.5627555	i a m	-0.13130026
-1.6189679	r a m	-0.13130026
-0.9653865	p a m	-0.24666393
-0.31871644	_ a m	-0.20423406
-1.0041976	( a m	-0.13130026
-1.4559165	h a m	-0.13130026
-1.4513142	f a m	-0.13130026
-0.6515761	' a m	-0.13130026
-0.7930403	= a m	-0.13130026
-1.7440042	a s m	-0.13130026
-0.4201445	k s m	-0.13130026
-0.9395907	t o m	-0.13130029
-0.8624022	c o m	-0.13130026
-1.1178602	w o m	-0.13130026
-1.503363	d o m	-0.13130026
-1.6357327	r o m	-0.13130026
-1.5512972	g o m	-0.13130026
-1.2559569	h o m	-0.13130026
-0.67791694	' o m	-0.13130026
-2.0903816	e n m	-0.13130026
-1.2281307	t # m	-0.13130026
-1.2273527	a # m	-0.13130029
-1.21606	c # m	-0.13130026
-1.2578907	s # m	-0.18863444
-1.198777	o # m	-0.16623792
-1.3017204	n # m	-0.2094975
-1.293123	e # m	-0.13130026
-1.0276558	w # m	-0.16623792
-1.1755176	m # m	-0.13130026
-1.3462834	d # m	-0.2386212
-1.511973	l # m	-0.17853759
-0.81784475	. # m	-0.8168856
-1.2850336	u # m	-0.17853759
-1.381508	i # m	-0.17853759
-0.9705142	r # m	-0.32807684
-1.1288553	y # m	-0.13130026
-1.0700123	p # m	-0.17853759
-1.3068473	g # m	-0.16623792
-1.4254127	h # m	-0.13130026
-1.3982179	) # m	-0.13130026
-1.0105991	b # m	-0.13130029
-1.4283704	f # m	-0.17853759
-1.1195971	, # m	-0.40701148
-1.1153457	: # m	-0.13130029
-1.1104159	; # m	-0.13130026
-0.6633876	5 # m	-0.13130026
-1.3416575	= # m	-0.13130026
-1.4580526	t e m	-0.13130026
-0.876302	c e m	-0.24666393
-1.634016	n e m	-0.13130026
-1.7709967	# e m	-0.13130026
-1.6090755	l e m	-0.13130026
-1.6100802	r e m	-0.13130026
-1.4434664	g e m	-0.13130026
-0.40384388	( e m	-0.13130026
-1.6147602	f e m	-0.13130026
-0.6647054	t w m	-0.13130026
-0.8182282	c w m	-0.13130026
-1.2852538	i w m	-0.13130026
-1.370546	r w m	-0.13130026
-1.1221615	p w m	-0.13130026
-1.4758732	g w m	-0.13130026
-1.3244218	h w m	-0.13130026
-1.445475	o m m	-0.13130026
-1.6938661	y m m	-0.13130026
-1.8488292	a l m	-0.13130026
-1.5195787	w l m	-0.13130026
-1.7810627	i l m	-0.13130026
-1.2336973	l . m	-0.13130026
-1.3385832	e u m	-0.13130026
-0.676805	i u m	-0.13130026
-0.82838815	p u m	-0.13130026
-1.1667775	g u m	-0.13130026
-1.2599967	h u m	-0.13130026
-1.6720374	t i m	-0.13130026
-1.7021186	s i m	-0.13130026
-1.8649558	d i m	-0.13130026
-1.9817909	a r m	-0.13130026
-1.8963209	o r m	-0.13130026
-1.5608442	e r m	-0.17853759
-0.8469268	c k m	-0.13130026
-0.64224654	<s> y m	-0.13130026
-1.1791885	c y m	-0.13130026
-1.1624094	s y m	-0.13130026
-0.73374104	# y m	-0.3345631
-1.6062967	w y m	-0.13130026
-0.941747	d y m	-0.16623792
-1.214079	l y m	-0.13130026
-0.64224654	p y m	-0.13130026
-1.3705758	g y m	-0.13130026
-1.3347336	h y m	-0.13130026
-0.6608952	d _ m	-0.13130026
-1.4918317	# ( m	-0.13130026
-0.38656795	' ( m	-0.13130026
-1.8645374	' ' m	-0.13130029
-1.3282336	# | m	-0.13130026
-1.2854645	g | m	-0.13130026
-1.4408801	[ [ m	-0.13130026
-0.98620754	# " m	-0.13130026
-1.250674	n c ï	-0.13130026
-0.8893203	m n ï	-0.13130026
-1.4145341	r n ï	-0.13130026
-2.1488338	f # ï	-0.13130026
-1.1798749	i p ï	-0.13130026
-0.9143549	t a d	-0.17853759
-1.1207441	c a d	-0.13130026
-0.7853374	o a d	-0.13130026
-1.4065294	n a d	-0.13130026
-1.0355158	# a d	-0.25814903
-0.90734357	e a d	-0.13130026
-1.0778341	w a d	-0.13130026
-1.4580736	d a d	-0.13130026
-0.805394	l a d	-0.21659963
-0.7788249	i a d	-0.35380292
-0.9642975	r a d	-0.25210953
-1.1297643	p a d	-0.20423406
-1.337017	g a d	-0.13130026
-0.9917403	( a d	-0.13130026
-1.2703663	h a d	-0.13130026
-0.7938842	- a d	-0.13130026
-0.38512638	[ a d	-0.13130026
-1.6997359	a s d	-0.13130026
-1.7816089	e s d	-0.13130026
-1.3091925	i s d	-0.20423406
-1.0958964	t o d	-0.13130026
-1.1792874	c o d	-0.13130026
-0.9468345	s o d	-0.13130026
-0.60909516	o o d	-0.13130026
-0.7184675	n o d	-0.25046867
-1.5386388	# o d	-0.13130026
-0.9884422	e o d	-0.13130026
-0.9545031	w o d	-0.13130026
-1.0032963	m o d	-0.13130026
-0.73524976	ï o d	-0.13130026
-0.825843	d o d	-0.2112663
-0.7976222	l o d	-0.3117356
-0.8154062	u o d	-0.13130026
-1.2642355	i o d	-0.13130026
-1.0080754	r o d	-0.21482559
-1.0214494	g o d	-0.17853759
-1.0815057	h o d	-0.13130026
-0.79362124	b o d	-0.13130026
-0.5195136	f o d	-0.1926911
-1.2294917	a n d	-0.15091921
-1.5018363	o n d	-0.13130026
-1.6364659	e n d	-0.13130026
-1.558088	u n d	-0.13130026
-1.774021	i n d	-0.13130026
-1.2542464	t # d	-0.13130026
-1.412833	a # d	-0.13130026
-1.2468446	c # d	-0.13130026
-1.274702	s # d	-0.16280995
-1.3844846	o # d	-0.13130026
-1.1414688	n # d	-0.20448656
-1.3270042	e # d	-0.13130026
-1.1915854	w # d	-0.16623792
-1.2015785	m # d	-0.13130029
-1.2198992	d # d	-0.34288022
-1.4160788	l # d	-0.18673734
-1.2380275	. # d	-0.21482559
-1.1220492	u # d	-0.28617778
-1.4080129	i # d	-0.24666393
-1.3146949	r # d	-0.19595784
-1.3664699	y # d	-0.13130026
-1.3155291	p # d	-0.13130026
-1.3328581	g # d	-0.13130029
-1.3309104	h # d	-0.13130026
-1.4390072	) # d	-0.13130026
-1.0288407	b # d	-0.20423406
-1.312705	f # d	-0.15902193
-1.3899102	, # d	-0.17853759
-1.2660644	t e d	-0.13130026
-1.195231	a e d	-0.17853759
-1.1923398	s e d	-0.13130026
-0.29769352	o e d	-0.4628539
-0.92825323	n e d	-0.20008041
-1.5460887	# e d	-0.13130026
-0.54340464	w e d	-0.28676262
-1.0911577	m e d	-0.13130029
-1.3843277	d e d	-0.13130026
-1.0030438	l e d	-0.15427701
-0.37784135	. e d	-0.13130026
-0.7672566	u e d	-0.13130026
-0.63674545	i e d	-0.17853759
-0.9926112	r e d	-0.18294312
-0.917117	h e d	-0.16623792
-0.62030584	b e d	-0.21482559
-0.9631996	f e d	-0.21482559
-0.37784135	6 e d	-0.13130026
-0.80304694	a w d	-0.14841785
-1.2334139	y m d	-0.17853759
-1.0673842	a d d	-0.16221422
-0.53978556	o d d	-0.484464
-1.163116	n d d	-0.13130026
-0.70290124	# d d	-0.4685127
-0.53410536	e d d	-0.31426185
-0.99871385	w d d	-0.13130026
-0.6323117	m d d	-0.13130026
-0.8898617	u d d	-0.13130026
-0.71098393	i d d	-0.15902193
-0.4639063	r d d	-0.27717507
-0.57204026	y d d	-0.37647122
-0.31073624	f d d	-0.20423406
-1.5963125	e l d	-0.13130026
-1.7969416	i l d	-0.13130026
-1.228632	u . d	-0.13130026
-0.80184394	t u d	-0.13130026
-0.9769579	n u d	-0.13130029
-1.2843276	e u d	-0.13130026
-1.1527729	m u d	-0.13130026
-1.2578627	l u d	-0.13130026
-1.1310978	g u d	-0.13130026
-0.72942734	a i d	-0.3281553
-1.2541313	c i d	-0.13130026
-1.0196531	o i d	-0.13130026
-1.0568376	# i d	-0.37160265
-1.0392686	e i d	-0.15902193
-1.3473299	w i d	-0.13130029
-1.23745	m i d	-0.13130026
-1.6646906	r i d	-0.13130026
-1.0400524	a r d	-0.27821305
-1.4736532	o r d	-0.13130029
-1.3026515	e r d	-0.21482559
-1.1264505	w r d	-0.17853759
-1.3081877	u r d	-0.13130026
-1.5131147	i r d	-0.13130026
-1.4813044	y r d	-0.13130026
-0.40287715	ó r d	-0.13130026
-1.0932606	t y d	-0.13130026
-1.101616	c y d	-0.13130026
-0.88840544	s y d	-0.17853759
-0.2929228	n y d	-0.6146407
-1.1308464	# y d	-0.46851265
-0.6415662	w y d	-0.51585555
-0.9757665	m y d	-0.13130026
-0.7507385	d y d	-0.37160265
-1.1331513	l y d	-0.17853759
-0.4715968	r y d	-0.18516275
-1.1227329	g y d	-0.13130026
-0.5206532	h y d	-0.18294312
-0.5085395	b y d	-0.23503885
-0.7411139	f y d	-0.18294312
-0.33068436	t _ d	-0.13130026
-0.55134916	s _ d	-0.13130026
-1.7064745	# ( d	-0.13130026
-1.8126123	t h d	-0.13130026
-1.6163355	c h d	-0.13130026
-1.2735461	a b d	-0.13130026
-0.416682	m f d	-0.13130026
-1.5438884	i f d	-0.13130026
-1.8472792	' ' d	-0.20423406
-0.6102533	l - d	-0.20423406
-0.35481608	i - d	-0.13130026
-0.35481608	h - d	-0.13130026
-1.3768376	# | d	-0.13130026
-1.1922194	[ [ d	-0.20423406
-0.8116543	s = d	-0.13130026
-0.85570496	l = d	-0.13130026
-1.4886222	= = d	-0.13130026
-0.85561323	{ { d	-0.13130026
-1.4601308	i t l	-0.13130026
-0.91950005	t a l	-0.15427701
-1.308241	c a l	-0.13130026
-1.2111377	s a l	-0.13130026
-1.4224484	n a l	-0.13130026
-1.2741338	# a l	-0.38308775
-0.693648	e a l	-0.17853759
-1.2899626	w a l	-0.13130026
-1.1679685	m a l	-0.13130026
-1.3281593	d a l	-0.13130029
-0.99933356	i a l	-0.17704691
-1.3013163	r a l	-0.16623792
-1.312179	p a l	-0.13130026
-1.350952	g a l	-0.13130026
-1.2804998	h a l	-0.17853759
-1.186451	b a l	-0.13130026
-1.444474	f a l	-0.13130026
-1.0735844	s c l	-0.13130026
-1.490196	# c l	-0.2112663
-0.93421865	' c l	-0.13130026
-0.40295696	> c l	-0.13130026
-1.6644535	i s l	-0.13130026
-0.9447813	c o l	-0.16623792
-0.9913038	s o l	-0.13130026
-0.65819913	n o l	-0.28649193
-1.3143885	# o l	-0.13130029
-0.3168506	e o l	-0.17146662
-1.2500573	m o l	-0.13130026
-0.655994	d o l	-0.2718723
-0.85199165	u o l	-0.13130026
-1.159807	i o l	-0.16623792
-0.9457898	r o l	-0.19678587
-1.0330596	p o l	-0.13130026
-0.60529	g o l	-0.28370148
-0.72051567	h o l	-0.15902193
-1.011309	b o l	-0.13130026
-0.65160704	f o l	-0.16623792
-1.7875146	a n l	-0.13130029
-1.7551029	o n l	-0.13130026
-1.8690591	e n l	-0.13130026
-0.41311353	. n l	-0.13130026
-1.2598636	t # l	-0.13130026
-1.574482	a # l	-0.13130026
-1.7817526	s # l	-0.13130026
-1.5465127	o # l	-0.13130026
-1.3201902	n # l	-0.35312828
-1.4875107	e # l	-0.13130026
-1.3714781	w # l	-0.13130026
-1.3686894	d # l	-0.28676262
-1.4208333	l # l	-0.19678587
-1.5757225	. # l	-0.24666393
-1.4430647	u # l	-0.24666393
-1.27854	i # l	-0.16623792
-1.3177973	r # l	-0.30804545
-1.3231827	p # l	-0.13130026
-1.4915295	g # l	-0.13130026
-1.4843087	h # l	-0.13130026
-1.0327208	b # l	-0.20423406
-1.472366	f # l	-0.17853759
-1.1258752	' # l	-0.13130026
-1.6268202	, # l	-0.24666393
-1.1407578	; # l	-0.13130026
-1.1730335	= # l	-0.13130026
-1.2628782	t e l	-0.13130026
-0.94301665	a e l	-0.18516275
-0.9953507	c e l	-0.17853759
-1.0203229	s e l	-0.13130029
-1.1508006	n e l	-0.24666393
-1.1667676	# e l	-0.3117356
-0.8774237	w e l	-0.17146662
-0.79983675	d e l	-0.18516275
-1.3822479	l e l	-0.13130026
-1.0765734	i e l	-0.13130026
-1.3892096	r e l	-0.13130026
-0.65401	k e l	-0.20423406
-1.0047748	p e l	-0.13130026
-0.724738	g e l	-0.19678587
-1.0553871	h e l	-0.15902193
-0.8556262	f e l	-0.17146662
-0.76598334	' e l	-0.13130026
-0.6318735	[ e l	-0.13130026
-1.4192015	a w l	-0.13130026
-1.0317205	s w l	-0.13130026
-1.3992319	# w l	-0.20423406
-1.1248397	e w l	-0.13130026
-1.2411771	i w l	-0.13130026
-0.5692803	p w l	-0.13130029
-1.0536644	g w l	-0.21482559
-0.8003948	b w l	-0.13130029
-1.1632504	a m l	-0.13130026
-1.6639793	y m l	-0.13130026
-1.6441468	a d l	-0.13130026
-1.5230145	e d l	-0.13130026
-1.1166102	w d l	-0.13130026
-1.7555884	d d l	-0.13130026
-0.83173096	l d l	-0.13130026
-1.660257	y d l	-0.13130026
-0.90406525	a l l	-0.15427701
-1.2649117	o l l	-0.16623792
-0.7021059	n l l	-0.13130026
-0.3332125	# l l	-0.5678473
-0.6263036	e l l	-0.22353213
-0.82882506	w l l	-0.13130029
-0.6844139	i l l	-0.17357583
-0.58862036	r l l	-0.16623792
-0.55067956	y l l	-0.17357583
-0.37311104	( l l	-0.13130026
-0.9000453	' l l	-0.13130026
-0.37311104	- l l	-0.13130026
-0.6421029	| l l	-0.17853759
-0.37311104	[ l l	-0.13130029
-0.6243361	= l l	-0.13130026
-0.37311104	" l l	-0.13130026
-1.1489499	m . l	-0.13130026
-1.3918715	a u l	-0.13130026
-0.6075936	c u l	-0.13130026
-0.8231068	s u l	-0.13130026
-1.0957325	e u l	-0.20423406
-1.2913511	l u l	-0.13130026
-1.0550737	a i l	-0.15427701
-1.4951825	n i l	-0.13130026
-1.5457828	# i l	-0.13130026
-1.0053302	e i l	-0.17704691
-0.8324972	w i l	-0.13130029
-0.9058874	m i l	-0.13130026
-1.3433263	d i l	-0.20423406
-1.5144292	r i l	-0.13130026
-0.9442092	p i l	-0.13130026
-1.1852261	g i l	-0.13130026
-1.0711439	h i l	-0.13130026
-0.9058874	b i l	-0.20423406
-0.88629776	f i l	-0.13130026
-1.4370613	a r l	-0.13130026
-1.3423332	o r l	-0.24666393
-1.8756468	e r l	-0.13130026
-1.3867589	u r l	-0.13130026
-1.522835	g r l	-0.13130026
-0.9589731	t y l	-0.13130026
-0.9975994	c y l	-0.24666393
-0.743529	s y l	-0.16623792
-1.0004112	w y l	-0.39091682
-1.1247385	d y l	-0.20423406
-1.3710802	l y l	-0.13130026
-1.2636476	r y l	-0.13130026
-1.1968415	g y l	-0.20423406
-1.1492958	h y l	-0.13130026
-1.2276831	b y l	-0.13130026
-1.2395248	o p l	-0.13130026
-1.3360548	# p l	-0.16623792
-0.68305755	w p l	-0.13130026
-1.1188626	s g l	-0.17853759
-1.3480198	o g l	-0.20423406
-1.2104989	n g l	-0.13130029
-1.2983562	# g l	-0.19890098
-1.4093635	e g l	-0.13130026
-1.0947144	y g l	-0.13130029
-0.88914406	' g l	-0.13130026
-0.8964901	| g l	-0.13130026
-1.3544357	# ( l	-0.24666393
-1.3171251	t h l	-0.17853759
-1.3424929	c h l	-0.13130029
-0.82906353	m h l	-0.13130026
-1.2665392	p h l	-0.13130026
-0.83354545	t b l	-0.13130026
-0.7502783	s b l	-0.13130026
-0.66550756	o b l	-0.2291915
-0.93399125	# b l	-0.51585555
-0.37083507	w b l	-0.13130026
-0.97880334	i b l	-0.13130026
-0.6280306	| b l	-0.17853759
-1.4380308	a f l	-0.13130026
-1.3570616	# f l	-0.16623792
-1.2705753	e f l	-0.13130026
-1.2919035	r f l	-0.13130026
-1.1700107	y f l	-0.17853759
-0.38787895	( f l	-0.13130026
-1.430503	f f l	-0.13130026
-1.8334033	' ' l	-0.15427701
-0.6774186	n - l	-0.13130026
-1.2278007	# | l	-0.20423406
-1.0823901	e | l	-0.13130026
-0.75070596	d | l	-0.13130026
-0.39616713	u | l	-0.13130026
-0.97476226	[ [ l	-0.24666393
-0.92910653	r = l	-0.13130026
-1.5370996	= = l	-0.13130026
-0.056725595	# ô l	-0.5476939
-0.1901443	| ô l	-0.13130026
-0.67611337	# " l	-0.20423406
-0.20274329	p ê l	-0.13130026
-1.603397	n t .	-0.13130026
-1.4834777	e t .	-0.13130026
-1.7220643	s a .	-0.13130026
-1.6902704	m a .	-0.13130026
-1.0020285	. a .	-0.13130026
-2.1208599	# c .	-0.13130026
-1.4658056	i c .	-0.13130026
-0.694292	p c .	-0.13130026
-1.6389883	a s .	-0.13130026
-1.6192498	o s .	-0.13130026
-1.1134465	w s .	-0.13130026
-1.6983811	y s .	-0.13130026
-1.5839467	c o .	-0.13130026
-1.6110864	l o .	-0.13130026
-1.8030715	r o .	-0.13130026
-1.1343514	j o .	-0.13130026
-1.815052	a n .	-0.13130026
-1.4427496	o n .	-0.13130026
-1.5669473	e n .	-0.13130026
-1.1458093	w n .	-0.20423406
-1.4794178	u n .	-0.13130026
-1.0989897	i n .	-0.46851265
-1.8046854	y n .	-0.13130026
-1.582941	r e .	-0.13130026
-1.396574	n w .	-0.13130026
-0.6824161	w w .	-0.13130026
-1.3550496	i w .	-0.13130026
-1.435245	r w .	-0.13130026
-1.4158354	y w .	-0.13130026
-1.606541	a m .	-0.13130026
-2.02745	# m .	-0.13130026
-1.628921	y m .	-0.13130026
-1.4156154	a d .	-0.20423406
-1.4404882	o d .	-0.20423406
-1.6473676	e d .	-0.13130026
-1.2457184	d d .	-0.19678587
-0.39453202	. d .	-0.13130026
-0.9375992	u d .	-0.20423406
-1.3421841	i d .	-0.13130026
-1.584008	y d .	-0.13130026
-1.4968002	a l .	-0.20423406
-1.0002172	o l .	-0.51585555
-1.5221736	e l .	-0.13130026
-1.4802008	l l .	-0.24666393
-1.297625	f l .	-0.13130026
-0.9955424	a u .	-0.3117356
-1.1485428	d u .	-0.13130026
-1.255642	l u .	-0.13130026
-1.2268137	r u .	-0.13130026
-1.1293865	g u .	-0.13130026
-0.8085815	( u .	-0.13130026
-1.6024296	f i .	-0.13130026
-1.6829258	o r .	-0.13130026
-1.7846421	e r .	-0.13130026
-1.3457811	w r .	-0.20423406
-1.3324802	u r .	-0.13130026
-1.5414456	i r .	-0.13130026
-1.3001382	y r .	-0.20423406
-0.68471545	ô r .	-0.13130026
-1.0085075	e y .	-0.13130026
-0.9852934	t p .	-0.13130026
-1.1881361	o p .	-0.13130026
-0.8151567	r p .	-0.13130026
-0.6674302	f p .	-0.13130026
-0.39522597	> j .	-0.13130026
-1.2922659	a g .	-0.13130026
-1.4440868	o g .	-0.20423406
-1.5550176	e g .	-0.13130026
-1.5417312	i g .	-0.13130026
-1.0185001	( g .	-0.13130026
-1.5875174	t h .	-0.20423406
-1.8326633	c h .	-0.13130026
-0.66244113	t ) .	-0.13130026
-0.7292184	u ) .	-0.13130026
-0.66244113	y ) .	-0.13130026
-0.7424915	p ) .	-0.13130026
-0.5535228	' ) .	-0.13130026
-0.5535228	] ) .	-0.13130026
-0.5535228	8 ) .	-0.13130026
-0.33199084	} ) .	-0.13130026
-1.4400975	e b .	-0.13130026
-1.0497122	y b .	-0.13130026
-1.6512178	a f .	-0.13130026
-1.4804184	e f .	-0.13130026
-1.652518	f f .	-0.13130026
-1.2356564	' ' .	-0.45786366
-1.4870477	] ] .	-0.13130026
-0.337211	p 5 .	-0.13130026
-0.337211	= 5 .	-0.13130026
-0.3991316	4 8 .	-0.13130026
-0.36635104	8 4 .	-0.13130026
-0.6650145	a ë .	-0.13130026
-0.203567	n á .	-0.13130026
-1.1187261	. s q	-0.13130026
-1.7813548	t i q	-0.13130026
-1.4158825	a t u	-0.13130026
-1.0862643	c t u	-0.13130026
-1.4095088	s t u	-0.13130026
-0.7085265	# t u	-0.6919468
-0.9343063	l t u	-0.13130026
-1.4397459	t a u	-0.13130026
-1.0523212	s a u	-0.17853759
-0.7195655	n a u	-0.51585555
-0.6602065	ï a u	-0.13130026
-0.93732834	d a u	-0.18482059
-1.0376431	l a u	-0.25210953
-0.9008206	. a u	-0.13130026
-0.92392737	i a u	-0.5476939
-1.0653973	r a u	-0.336205
-1.1670489	p a u	-0.13130026
-1.190531	g a u	-0.20423406
-0.7648506	h a u	-0.2568929
-1.4867327	f a u	-0.13130026
-0.39285964	0 a u	-0.13130026
-2.041511	# c u	-0.13130026
-1.4033914	i c u	-0.13130026
-0.68096787	[ c u	-0.13130026
-0.40395406	/ c u	-0.13130026
-0.9845662	s s u	-0.13130026
-2.0425577	# s u	-0.13130026
-1.2004817	r s u	-0.13130026
-1.7324219	h o u	-0.13130026
-1.2876161	n n u	-0.20423406
-1.3645931	u n u	-0.20423406
-1.2732109	i n u	-0.3117356
-2.1215243	n # u	-0.13130026
-1.6997645	e # u	-0.13130026
-2.0875294	d # u	-0.13130026
-1.8548805	l # u	-0.20423406
-1.7477243	u # u	-0.13130026
-1.9285829	i # u	-0.13130026
-1.9316866	r # u	-0.17853759
-1.642014	g # u	-0.20423406
-1.7033261	h # u	-0.13130026
-0.86786616	| # u	-0.13130026
-1.2449117	t e u	-0.13130026
-1.3946682	s e u	-0.13130026
-1.2720116	n e u	-0.13130026
-1.0492909	# e u	-0.45786366
-1.4228734	d e u	-0.13130029
-1.6355681	r e u	-0.13130026
-1.5864257	h e u	-0.13130026
-1.3707066	b e u	-0.13130026
-1.5883479	y w u	-0.13130026
-0.66931564	s m u	-0.13130026
-1.2634678	# m u	-0.2291915
-0.8178084	l m u	-0.13130026
-0.8178084	i m u	-0.13130026
-0.8653505	y m u	-0.19678587
-1.5194604	a d u	-0.13130026
-1.7935858	# d u	-0.20423406
-1.5571358	e d u	-0.13130026
-1.144904	w d u	-0.13130026
-1.6380632	d d u	-0.13130029
-1.4740832	e l u	-0.20423406
-1.2972538	d l u	-0.13130026
-1.176075	l l u	-0.19890098
-1.1311176	u l u	-0.13130026
-1.1835067	r l u	-0.13130026
-1.3742783	g l u	-0.13130026
-1.254131	f l u	-0.13130026
-0.11106073	s q u	-0.13130026
-0.11106073	i q u	-0.13130026
-1.8337286	l i u	-0.13130026
-1.9175776	r i u	-0.13130026
-1.2245572	c r u	-0.13130026
-1.8600945	# r u	-0.13130026
-1.3329864	e r u	-0.21482559
-1.1045591	m r u	-0.13130029
-1.1007538	r r u	-0.13130026
-1.4045441	f r u	-0.13130026
-1.089835	a p u	-0.13130026
-1.9218596	# p u	-0.13130026
-1.089835	| p u	-0.13130026
-0.6740073	t g u	-0.13130026
-1.265616	n g u	-0.13130029
-1.5060997	e g u	-0.13130026
-0.6740073	m g u	-0.13130026
-1.4964211	i g u	-0.13130026
-1.1502254	y g u	-0.13130026
-1.3697851	# ( u	-0.13130029
-1.1727774	t h u	-0.15427701
-1.348024	c h u	-0.13130029
-1.0952957	# h u	-0.19678587
-1.4442644	r h u	-0.13130026
-1.2215964	# b u	-0.18863444
-1.2688785	| b u	-0.13130026
-1.1397693	n f u	-0.13130026
-1.284906	# f u	-0.17853759
-1.040126	y f u	-0.17853759
-1.5912285	f f u	-0.13130026
-0.9945925	a ' u	-0.20423406
-1.2214919	o ' u	-0.13130026
-1.3889177	i ' u	-0.13130026
-1.6635367	# | u	-0.13130026
-0.3856963	u / u	-0.13130026
-0.3739151	f â u	-0.13130029
-0.60171473	t t i	-0.13130026
-0.8717403	a t i	-0.13130029
-0.6971757	c t i	-0.13130026
-1.3444526	s t i	-0.13130026
-0.91124886	n t i	-0.13130029
-1.0682741	# t i	-0.19678587
-1.1146506	e t i	-0.13130026
-0.7254097	d t i	-0.13130026
-0.5466127	l t i	-0.13130029
-1.0795156	i t i	-0.13130026
-0.89732647	y t i	-0.13130026
-0.36028114	[ t i	-0.13130026
-0.791299	<s> a i	-0.13130026
-1.0669813	t a i	-0.13130029
-1.3100225	c a i	-0.13130026
-1.212363	s a i	-0.13130026
-1.4244275	n a i	-0.13130026
-1.3425401	# a i	-0.39091682
-0.7259015	w a i	-0.19678587
-1.1692849	m a i	-0.13130029
-1.1711289	d a i	-0.13130029
-1.2726034	l a i	-0.13130029
-0.7818727	i a i	-0.37160265
-1.1606028	r a i	-0.15902193
-1.140888	p a i	-0.13130026
-0.98003805	g a i	-0.13130029
-1.4509584	h a i	-0.13130026
-1.1046698	f a i	-0.13130029
-1.1811135	a c i	-0.13130026
-0.75866425	n c i	-0.13130029
-1.8039539	# c i	-0.13130026
-0.96694255	e c i	-0.13130026
-0.9391296	u c i	-0.13130026
-1.0380884	i c i	-0.13130026
-1.0965182	r c i	-0.13130026
-1.1432495	y c i	-0.13130026
-1.1832825	a s i	-0.13130026
-0.7574813	c s i	-0.13130026
-0.8422861	s s i	-0.13130026
-0.8883424	o s i	-0.19678587
-1.0842012	n s i	-0.13130026
-0.9803668	# s i	-0.25210953
-1.1152542	e s i	-0.13130029
-0.8422861	l s i	-0.13130026
-1.2474487	i s i	-0.13130026
-0.7566346	r s i	-0.13130029
-1.2460929	y s i	-0.13130026
-0.37382713	h s i	-0.13130026
-1.0156238	| s i	-0.13130026
-1.8030715	r o i	-0.13130026
-1.6104734	h o i	-0.13130026
-1.465813	b o i	-0.13130026
-1.4670409	f o i	-0.13130026
-1.2130293	a n i	-0.3429139
-1.0397234	o n i	-0.13130026
-0.9340096	n n i	-0.17146662
-0.7882546	# n i	-0.39091682
-1.0872502	e n i	-0.13130026
-1.2437664	w n i	-0.13130026
-0.7711833	m n i	-0.13130026
-0.8475123	u n i	-0.19303462
-1.2419285	i n i	-0.15427701
-1.1180776	r n i	-0.13130026
-1.3603806	y n i	-0.21482559
-0.63568586	g n i	-0.13130026
-0.8590003	h n i	-0.13130026
-1.3204335	c # i	-0.13130026
-1.3126862	s # i	-0.15902193
-1.6564314	o # i	-0.13130026
-1.3511908	n # i	-0.2568929
-1.4090606	e # i	-0.13130026
-1.6448069	w # i	-0.13130026
-1.4067739	d # i	-0.30804545
-1.2731099	l # i	-0.17146662
-1.6754386	u # i	-0.13130029
-1.8188282	i # i	-0.13130026
-1.3475416	r # i	-0.19890098
-1.3938214	g # i	-0.24666393
