\data\
ngram 1=260
ngram 2=1795
ngram 3=6827
ngram 4=17551
ngram 5=31226

\1-grams:
-3.1291625	<unk>	0
0	<s>	-0.4339975
-2.0494583	</s>	0
-1.6856524	'	-0.46539816
-1.7353147	b	-0.6451397
-1.6856524	r	-0.5995573
-1.7486713	u	-0.75792056
-1.6856524	s	-0.6236977
-1.6104349	e	-0.90007716
-1.7223567	l	-0.6146496
-1.5379114	a	-0.927958
-1.7766838	k	-0.6713524
-1.6856524	o	-0.81413865
-1.290192	#	-0.86233497
-1.6856524	i	-0.88200307
-1.6975458	t	-0.67496705
-1.6518099	n	-0.56235456
-1.7766838	d	-0.60779023
-1.9983598	z	-0.56377864
-2.174235	8	-0.31974477
-1.7913982	]	-0.57627094
-1.7486713	p	-0.60581005
-1.9112881	1	-0.39859673
-1.6856524	.	-0.5565529
-1.8387918	f	-0.49568668
-1.8066285	m	-0.59262586
-1.8735291	g	-0.6020287
-1.7486713	,	-0.73403776
-1.8224125	h	-0.59821045
-2.5535405	ó	-0.23414429
-1.7913982	c	-0.5194433
-1.9983598	j	-0.49593377
-3.000929	ŭ	-0.1993276
-2.0774546	x	-0.41107824
-2.1395228	é	-0.25879687
-1.9983598	w	-0.44700012
-3.000929	ä	-0.1993276
-1.9526454	y	-0.2863467
-1.9983598	"	-0.3197676
-1.9526454	:	-0.54920447
-1.8735291	2	-0.4237172
-1.9983598	0	-0.36445254
-2.298958	6	-0.30136088
-1.7913982	-	-0.43505907
-1.9983598	3	-0.3197059
-2.1073809	|	-0.3782358
-2.1395228	9	-0.32123938
-2.2532868	7	-0.29044577
-2.0774546	5	-0.31463
-2.94916	(	-0.20342362
-2.407856	á	-0.36876124
-2.407856	q	-0.6241799
-2.94916	í	-0.24363986
-2.94916	ñ	-0.2564581
-2.0774546	v	-0.53854406
-1.8387918	)	-0.7007305
-2.2532868	[	-0.3105976
-2.0774546	_	-0.29816192
-1.9112881	/	-0.32053348
-2.6500628	?	-0.1993276
-2.3500025	=	-0.2644411
-2.0774546	4	-0.36257535
-1.9983598	<	-0.6990489
-2.6500628	>	-0.23920631
-2.5535405	%	-0.2243687
-2.1395228	;	-0.81606543
-2.9609728	+	-0.1993276
-2.9609728	{	-0.1993276
-2.94916	}	-0.24363986
-3.000929	수	-0.1993276
-3.000929	생	-0.1993276
-2.94916	ý	-0.1993276
-3.000929	–	-0.1993276
-2.9609728	क	-0.1993276
-2.94916	ा	-0.1993276
-2.94916	с	-0.24363986
-2.9609728	т	-0.24363986
-2.5535405	а	-0.25961676
-2.407856	р	-0.2078357
-2.9609728	о	-0.1993276
-2.6500628	г	-0.22536892
-3.000929	ử	-0.1993276
-3.000929	ẹ	-0.1993276
-3.000929	̀	-0.1993276
-2.7743564	ו	-0.1993276
-2.94916	י	-0.1993276
-2.9609728	ל	-0.1993276
-2.94916	ה	-0.1993276
-2.9609728	ם	-0.26761553
-2.9609728	ר	-0.1993276
-3.000929	א	-0.1993276
-2.94916	ש	-0.1993276
-3.000929	ן	-0.1993276
-3.000929	נ	-0.1993276
-2.9609728	ס	-0.1993276
-3.000929	ך	-0.1993276
-3.000929	ב	-0.1993276
-2.9609728	ח	-0.1993276
-3.000929	в	-0.1993276
-2.7743564	и	-0.1993276
-2.7743564	л	-0.2564581
-2.9609728	ь	-0.1993276
-2.3500025	е	-0.3689074
-3.000929	м	-0.1993276
-2.94916	к	-0.1993276
-2.9609728	у	-0.1993276
-3.000929	ф	-0.1993276
-3.000929	ю	-0.1993276
-3.000929	ว	-0.1993276
-3.000929	ิ	-0.1993276
-2.9609728	ล	-0.1993276
-3.000929	เ	-0.1993276
-3.000929	ฮ	-0.1993276
-3.000929	์	-0.1993276
-3.000929	ม	-0.1993276
-3.000929	ท	-0.1993276
-3.000929	ี	-0.1993276
-3.000929	่	-0.1993276
-3.000929	і	-0.1993276
-2.7743564	—	-0.2301351
-3.000929	ç	-0.1993276
-3.000929	ú	-0.1993276
-2.9609728	’	-0.1993276
-3.000929	ц	-0.1993276
-2.9609728	ш	-0.1993276
-2.94916	п	-0.24363986
-2.6500628	н	-0.23702589
-3.000929	đ	-0.1993276
-3.000929	ồ	-0.1993276
-3.000929	班	-0.1993276
-3.000929	公	-0.1993276
-3.000929	错	-0.1993276
-3.000929	प	-0.1993276
-2.9609728	ं	-0.26761553
-3.000929	ग	-0.1993276
-2.9609728	ो	-0.1993276
-3.000929	त	-0.1993276
-2.94916	्	-0.1993276
-3.000929	स	-0.1993276
-3.000929	孫	-0.1993276
-3.000929	悟	-0.1993276
-3.000929	飯	-0.1993276
-2.6500628	&	-0.22536892
-2.94916	ü	-0.24363986
-2.6500628	ا	-0.1993276
-3.000929	ل	-0.1993276
-2.9609728	س	-0.1993276
-2.9609728	د	-0.1993276
-3.000929	β	-0.1993276
-2.9609728	ε	-0.26761553
-3.000929	ν	-0.1993276
-3.000929	έ	-0.1993276
-3.000929	δ	-0.1993276
-2.9609728	ι	-0.1993276
-2.9609728	κ	-0.1993276
-3.000929	τ	-0.1993276
-2.94916	ο	-0.1993276
-2.9609728	ς	-0.26761553
-3.000929	베	-0.1993276
-3.000929	네	-0.1993276
-3.000929	딕	-0.1993276
-3.000929	토	-0.1993276
-3.000929	б	-0.1993276
-3.000929	д	-0.1993276
-3.000929	പ	-0.1993276
-3.000929	ത	-0.1993276
-2.9609728	ി	-0.1993276
-3.000929	ന	-0.1993276
-2.94916	ാ	-0.1993276
-3.000929	റ	-0.1993276
-3.000929	മ	-0.1993276
-3.000929	ൻ	-0.1993276
-3.000929	ब	-0.1993276
-2.9609728	े	-0.1993276
-3.000929	न	-0.1993276
-3.000929	ड	-0.1993276
-2.9609728	ि	-0.1993276
-3.000929	ट	-0.1993276
-2.94916	ப	-0.1993276
-2.9609728	த	-0.1993276
-3.000929	ி	-0.1993276
-3.000929	ன	-0.1993276
-2.9609728	ா	-0.1993276
-3.000929	ற	-0.1993276
-3.000929	ம	-0.1993276
-2.9609728	்	-0.24363986
-2.9609728	ب	-0.1993276
-2.6500628	ی	-0.1993276
-2.9609728	ن	-0.1993276
-3.000929	ڈ	-0.1993276
-3.000929	ک	-0.1993276
-3.000929	ٹ	-0.1993276
-3.000929	à	-0.1993276
-3.000929	ể	-0.1993276
-3.000929	ứ	-0.1993276
-2.7743564	ج	-0.23213077
-2.94916	م	-0.1993276
-3.000929	ه	-0.1993276
-2.9609728	و	-0.1993276
-2.474618	ر	-0.2177678
-2.7743564	ي	-0.1993276
-3.000929	ة	-0.1993276
-2.9609728	ت	-0.1993276
-2.9609728	ū	-0.1993276
-2.9609728	ī	-0.1993276
-2.9609728	°	-0.1993276
-2.9609728	′	-0.1993276
-3.000929	@	-0.1993276
-3.000929	æ	-0.1993276
-2.9609728	ô	-0.1993276
-2.9609728	è	-0.1993276
-3.000929	ė	-0.1993276
-2.9609728	ы	-0.1993276
-3.000929	ব	-0.1993276
-3.000929	্	-0.1993276
-2.9609728	য	-0.1993276
-2.9609728	া	-0.26761553
-3.000929	র	-0.1993276
-3.000929	ি	-0.1993276
-3.000929	়	-0.1993276
-3.000929	ބ	-0.1993276
-3.000929	ެ	-0.1993276
-2.9609728	ރ	-0.1993276
-3.000929	ި	-0.1993276
-3.000929	އ	-0.1993276
-3.000929	ަ	-0.1993276
-3.000929	ρ	-0.1993276
-3.000929	α	-0.1993276
-2.9609728	λ	-0.1993276
-3.000929	γ	-0.1993276
-3.000929	ή	-0.1993276
-3.000929	ز	-0.1993276
-3.000929	گ	-0.1993276
-3.000929	מ	-0.1993276
-3.000929	ै	-0.1993276
-2.94916	र	-0.24363986
-2.9609728	य	-0.1993276
-3.000929	ბ	-0.1993276
-3.000929	ა	-0.1993276
-2.9609728	რ	-0.1993276
-2.9609728	ი	-0.1993276
-3.000929	ე	-0.1993276
-3.000929	უ	-0.1993276
-3.000929	ლ	-0.1993276
-3.000929	ബ	-0.1993276
-3.000929	ര	-0.1993276
-3.000929	യ	-0.1993276
-3.000929	ർ	-0.1993276
-3.000929	ү	-0.1993276
-3.000929	э	-0.1993276
-3.000929	ă	-0.1993276
-2.9609728	й	-0.26761553
-3.000929	х	-0.1993276
-3.000929	ட	-0.1993276
-2.9609728	ு	-0.26761553
-3.000929	є	-0.1993276
-3.000929	ئ	-0.1993276
-3.000929	خ	-0.1993276
-3.000929	پ	-0.1993276
-3.000929	ش	-0.1993276

\2-grams:
-2.102434	' </s>	0
-2.3989365	s </s>	0
-2.7163312	e </s>	0
-2.4428961	a </s>	0
-2.394908	o </s>	0
-2.4707565	i </s>	0
-2.429771	t </s>	0
-2.3708339	n </s>	0
-2.2160473	z </s>	0
-1.780716	. </s>	0
-2.267679	m </s>	0
-2.2605636	g </s>	0
-1.5765613	, </s>	0
-2.2448397	h </s>	0
-0.8916803	ý </s>	0
-0.42747205	̀ </s>	0
-0.42747205	ồ </s>	0
-0.48939148	<s> '	-1.0233127
-0.33636847	' '	-0.64169985
-1.9340955	b '	-0.35243505
-1.929389	r '	-0.45904133
-2.141272	u '	-0.35243505
-1.5572757	s '	-0.76007134
-1.8382536	e '	-0.8270181
-1.9873366	l '	-0.16745618
-1.4902856	a '	-1.2606736
-1.5789211	k '	-0.6808901
-1.7203002	o '	-0.8270181
-1.4687548	# '	-1.3436478
-1.9545074	i '	-0.6808901
-1.7755905	t '	-0.5839801
-1.885815	n '	-0.45904133
-2.0925608	d '	-0.16745618
-2.0326865	z '	-0.16745618
-1.8814329	] '	-0.16745618
-2.0859556	p '	-0.16745618
-2.0363271	. '	-0.16745618
-1.9395239	f '	-0.16745618
-1.8838664	m '	-0.35243505
-2.0750346	g '	-0.16745618
-1.5450503	h '	-0.5839801
-1.8291717	x '	-0.16745618
-1.4410254	y '	-0.35243505
-1.7194762	" '	-0.16745618
-1.4125032	: '	-0.35243505
-1.6058462	( '	-0.16745618
-1.6811947	) '	-0.35243505
-1.1285646	? '	-0.16745618
-1.7951443	4 '	-0.16745618
-1.2990957	> '	-0.35243505
-0.705391	+ '	-0.16745618
-1.428092	р '	-0.16745618
-1.2754297	— '	-0.16745618
-0.97861004	ي '	-0.16745618
-0.8673543	ī '	-0.16745618
-1.735069	' b	-0.21277787
-1.9533408	b b	-0.16745618
-1.8065838	r b	-0.3961171
-1.6797807	u b	-0.39153987
-1.9223723	s b	-0.16745618
-1.6007048	e b	-0.36226222
-1.88434	l b	-0.35910776
-1.4712833	a b	-0.6159814
-1.4432077	o b	-0.4498589
-1.2451614	# b	-1.0326521
-1.5222611	i b	-0.49545294
-2.2426724	t b	-0.16745618
-1.4934783	n b	-0.3751342
-2.1231637	d b	-0.16745618
-1.8498122	z b	-0.16745618
-1.7605064	m b	-0.2323194
-2.1047907	g b	-0.16745618
-1.8748051	, b	-0.16745618
-1.5939276	é b	-0.16745618
-1.7444756	" b	-0.16745618
-1.6598082	0 b	-0.16745618
-1.0631102	- b	-0.35480842
-1.7602072	3 b	-0.16745618
-1.3115695	| b	-0.16745618
-1.6310068	( b	-0.16745618
-1.688271	[ b	-0.16745618
-1.4398824	_ b	-0.16745618
-1.4192935	/ b	-0.16745618
-0.6278343	< b	-0.88501
-1.5860256	> b	-0.16745618
-0.8718839	{ b	-0.16745618
-0.4205719	ú b	-0.16745618
-0.87554514	ü b	-0.16745618
-0.8718839	ī b	-0.16745618
-1.7020049	<s> r	-0.16745618
-1.9242592	' r	-0.16745618
-1.161058	b r	-0.4291575
-1.6866372	r r	-0.5044784
-1.074251	u r	-0.60900396
-2.018848	s r	-0.35243505
-1.1627742	e r	-0.75595415
-1.2497253	a r	-0.82964754
-1.2879792	k r	-0.40745735
-1.131034	o r	-0.70785606
-1.67906	# r	-0.6725681
-1.2842497	i r	-0.67810583
-1.2474428	t r	-0.62141556
-1.992192	n r	-0.16745618
-1.2374554	d r	-0.51008534
-1.8814329	] r	-0.16745618
-1.030149	p r	-0.55125856
-1.83938	1 r	-0.16745618
-0.9726417	f r	-0.4999889
-1.8838664	m r	-0.16745618
-1.2694392	g r	-0.4322285
-1.8601226	h r	-0.16745618
-0.7017226	ó r	-0.16745618
-1.6483687	c r	-0.16745618
-0.41896418	ŭ r	-0.16745618
-0.93829423	é r	-0.16745618
-1.4410254	y r	-0.35243505
-1.7219754	: r	-0.16745618
-1.2566603	- r	-0.2892238
-1.7109507	| r	-0.35243505
-1.7748693	v r	-0.16745618
-1.6657724	[ r	-0.16745618
-1.6735584	_ r	-0.16745618
-1.4073113	/ r	-0.16745618
-0.56582296	< r	-0.93616253
-1.5650332	> r	-0.16745618
-0.705391	ū r	-0.16745618
-0.705391	è r	-0.16745618
-1.7250277	<s> u	-0.16745618
-1.2160364	b u	-0.45683664
-1.2253133	r u	-0.48329502
-2.3406813	u u	-0.16745618
-1.2803888	s u	-0.40477413
-1.6846676	e u	-0.43997157
-1.1184181	l u	-0.3767984
-1.4721295	a u	-0.5413693
-1.2424449	k u	-0.49475962
-1.667475	o u	-0.2854239
-1.5559214	# u	-0.76065564
-1.8813164	i u	-0.28165698
-1.1493365	t u	-0.66194934
-1.5682743	n u	-0.3276731
-1.1339784	d u	-0.53585964
-1.1601202	z u	-0.36949983
-1.1203519	p u	-0.42492712
-1.8654593	. u	-0.16745618
-1.9745107	f u	-0.16745618
-1.1670897	m u	-0.32525486
-1.0531825	g u	-0.4208709
-1.1858358	h u	-0.2854239
-1.6649601	c u	-0.16745618
-0.9578281	j u	-0.2854239
-1.144967	x u	-0.29829976
-1.7872672	w u	-0.16745618
-1.7509569	" u	-0.16745618
-1.9802188	- u	-0.16745618
-1.9282557	| u	-0.16745618
-0.13920927	q u	-0.465315
-1.27647	_ u	-0.45904133
-1.5756632	/ u	-0.35243505
-0.87302375	’ u	-0.16745618
-1.7020049	<s> s	-0.16745618
-1.9242592	' s	-0.16745618
-1.6278205	b s	-0.22081363
-1.6866372	r s	-0.22600573
-1.1640768	u s	-0.49142092
-1.6451339	s s	-0.40109512
-1.237347	e s	-0.5478791
-1.4263593	a s	-0.57360995
-1.9921807	k s	-0.16745618
-1.3192732	o s	-0.50616425
-1.3848068	# s	-0.83603275
-1.2842497	i s	-0.58065844
-1.3314652	t s	-0.6096824
-1.5561808	n s	-0.2691198
-1.5958196	d s	-0.36588463
-2.0326865	z s	-0.16745618
-1.891345	p s	-0.16745618
-1.7029746	. s	-0.45904133
-1.9395239	f s	-0.16745618
-2.0763354	m s	-0.16745618
-2.0750346	g s	-0.16745618
-2.0634127	h s	-0.16745618
-1.2362995	ó s	-0.16745618
-1.9898409	c s	-0.16745618
-1.3036541	é s	-0.28165698
-1.7615608	w s	-0.16745618
-1.2826902	y s	-0.28165698
-1.4831138	" s	-0.35243505
-1.8390186	0 s	-0.16745618
-1.6296089	- s	-0.25017068
-1.5816236	| s	-0.25017068
-1.6058462	( s	-0.16745618
-1.6657724	[ s	-0.16745618
-1.1058955	/ s	-0.28165698
-1.1285646	? s	-0.16745618
-1.4320122	< s	-0.16745618
-0.705391	+ s	-0.16745618
-0.705391	è s	-0.16745618
-1.6716951	<s> e	-0.16745618
-1.8780862	' e	-0.16745618
-0.9103494	b e	-0.5393693
-0.9963163	r e	-0.659257
-1.2410378	u e	-0.61544836
-1.1001544	s e	-0.42773813
-1.5525523	e e	-0.5190874
-0.8877897	l e	-0.59195393
-1.5856817	a e	-0.3942141
-1.0160056	k e	-0.48758304
-1.5480566	o e	-0.4912516
-1.3945415	# e	-0.9570041
-1.3441905	i e	-0.59836096
-1.0123718	t e	-0.681173
-1.2335093	n e	-0.51460993
-0.87937665	d e	-0.55139184
-1.0419561	z e	-0.4491701
-1.8485161	] e	-0.16745618
-0.98858464	p e	-0.4939093
-1.4545624	1 e	-0.25017068
-1.5180843	. e	-0.16745618
-1.264287	f e	-0.3324443
-0.835522	m e	-0.49710065
-0.8716215	g e	-0.48353145
-0.8784591	h e	-0.48512405
-1.3430417	c e	-0.22081363
-0.8677809	j e	-0.22408624
-1.032767	x e	-0.22600573
-1.539861	é e	-0.16745618
-0.62284	w e	-0.31341574
-0.41616482	ä e	-0.16745618
-1.6102135	0 e	-0.16745618
-1.0027727	- e	-0.42192954
-1.1255434	| e	-0.3196804
-1.1471772	5 e	-0.25017068
-1.5650443	( e	-0.16745618
-0.85616505	v e	-0.2731787
-1.6290038	[ e	-0.16745618
-1.6351125	_ e	-0.16745618
-1.7226254	/ e	-0.16745618
-1.3564836	= e	-0.16745618
-1.5305743	> e	-0.16745618
-0.8595392	{ e	-0.16745618
-0.8595392	ý e	-0.16745618
-0.69999367	′ e	-0.16745618
-1.9456563	' l	-0.16745618
-1.2142386	b l	-0.41935068
-1.695599	r l	-0.35480842
-1.2484603	u l	-0.5910203
-1.765336	s l	-0.4132144
-1.2228966	e l	-0.6862565
-1.7227597	l l	-0.3722311
-1.3230741	a l	-0.7855523
-1.7050362	k l	-0.2892238
-1.2960473	o l	-0.58887744
-1.4716973	# l	-0.95327616
-1.2475052	i l	-0.612923
-1.9416937	t l	-0.16745618
-1.9013768	n l	-0.36588463
-1.8451625	z l	-0.25017068
-1.2936033	p l	-0.38576332
-2.0588078	. l	-0.16745618
-1.2787254	f l	-0.45904133
-2.0990262	m l	-0.16745618
-1.5717673	g l	-0.28165698
-1.8714722	, l	-0.16745618
-1.8735958	h l	-0.16745618
-1.263008	c l	-0.3206797
-1.848608	x l	-0.16745618
-1.5887246	é l	-0.16745618
-1.289948	y l	-0.16745618
-1.9635633	- l	-0.16745618
-1.2161028	| l	-0.35617054
-1.3815142	( l	-0.25017068
-0.95729774	á l	-0.16745618
-1.6825361	[ l	-0.16745618
-1.6911376	_ l	-0.16745618
-1.4162668	/ l	-0.16745618
-1.5806816	> l	-0.16745618
-1.0711327	& l	-0.16745618
-1.5290376	' a	-0.22796895
-0.77110845	b a	-0.6291139
-0.9555268	r a	-0.66063976
-1.2983383	u a	-0.6008134
-1.122695	s a	-0.5063473
-1.2803304	e a	-0.66437817
-0.84753156	l a	-0.6446537
-2.0272002	a a	-0.16745618
-0.98455286	k a	-0.6733199
-1.2373537	o a	-0.6883241
-1.419901	# a	-0.98529905
-1.2953142	i a	-0.7785696
-1.054614	t a	-0.65780604
-1.0496936	n a	-0.5142571
-0.96367306	d a	-0.49154794
-0.9146699	z a	-0.48777586
-1.4263294	8 a	-0.35243505
-1.8137192	] a	-0.16745618
-0.91874385	p a	-0.46225858
-1.565945	1 a	-0.35243505
-1.3871708	. a	-0.22081363
-1.0835228	f a	-0.2527948
-0.8579042	m a	-0.58113366
-0.86803544	g a	-0.5647322
-0.8178424	h a	-0.43286663
-0.95095706	c a	-0.3324443
-0.684497	j a	-0.36504838
-1.1195076	x a	-0.22081363
-1.5043786	é a	-0.16745618
-1.1093004	w a	-0.25017068
-0.95064944	y a	-0.22081363
-1.2905653	" a	-0.16745618
-1.5484797	2 a	-0.35243505
-1.7423778	0 a	-0.16745618
-1.3137789	6 a	-0.35243505
-1.1606138	- a	-0.40509742
-1.3132192	3 a	-0.45904133
-1.1871105	| a	-0.24016288
-1.320774	9 a	-0.45904133
-1.5850163	7 a	-0.16745618
-1.444322	5 a	-0.16745618
-1.5226729	( a	-0.16745618
-1.3207431	q a	-0.16745618
-0.8562827	í a	-0.16745618
-0.5019809	ñ a	-0.22081363
-0.76964265	v a	-0.3237936
-1.5904729	[ a	-0.16745618
-1.5949762	_ a	-0.16745618
-1.6763289	/ a	-0.16745618
-1.0987748	? a	-0.16745618
-1.3331944	= a	-0.16745618
-1.2180276	4 a	-0.36588463
-0.6939063	ç a	-0.16745618
-1.9759316	' k	-0.16745618
-2.1821482	b k	-0.16745618
-1.7078431	r k	-0.44783765
-1.3542465	u k	-0.4876706
-1.5720588	s k	-0.48187542
-1.2094043	e k	-0.8453836
-1.6172655	l k	-0.41680145
-1.3414834	a k	-0.8350813
-1.3247267	o k	-0.59224194
-1.4948906	# k	-0.83687586
-1.2687187	i k	-0.70225334
-1.6617192	n k	-0.4371314
-1.3092924	z k	-0.5914208
-1.5003238	8 k	-0.35243505
-1.9170506	] k	-0.16745618
-2.140393	p k	-0.16745618
-1.892236	h k	-0.35243505
-1.4926594	c k	-0.16745618
-1.6284268	x k	-0.25017068
-1.8778374	2 k	-0.16745618
-1.8927164	0 k	-0.16745618
-1.4858562	- k	-0.35243505
-1.7806975	3 k	-0.16745618
-1.4396516	| k	-0.2323194
-1.786576	9 k	-0.16745618
-1.7050643	7 k	-0.16745618
-1.6508826	( k	-0.16745618
-1.7059445	[ k	-0.16745618
-1.4500599	_ k	-0.35243505
-1.67029	= k	-0.16745618
-1.6024637	> k	-0.16745618
-1.7020049	<s> o	-0.16745618
-1.717425	' o	-0.16745618
-1.0748618	b o	-0.3807888
-1.0622045	r o	-0.5895994
-1.1052575	s o	-0.43550187
-1.7246648	e o	-0.2871562
-1.1483507	l o	-0.471183
-2.3971725	a o	-0.16745618
-0.75126314	k o	-0.6500358
-2.1260548	o o	-0.16745618
-1.5074748	# o	-0.7704321
-1.4254289	i o	-0.5785455
-1.145745	t o	-0.62984246
-1.2805352	n o	-0.4298064
-1.0847459	d o	-0.4741167
-1.1553707	z o	-0.33947444
-1.030149	p o	-0.43202734
-1.8414953	. o	-0.35243505
-0.9214147	f o	-0.31693664
-0.9221889	m o	-0.48688135
-1.0951695	g o	-0.48830676
-0.9860122	h o	-0.34152237
-0.882175	c o	-0.40959173
-1.0563529	j o	-0.32398584
-1.2661427	x o	-0.22600573
-1.3211423	w o	-0.36588463
-1.6800613	y o	-0.16745618
-1.7194762	" o	-0.16745618
-1.4672239	- o	-0.36588463
-1.8873218	| o	-0.16745618
-1.6058462	( o	-0.16745618
-1.0703825	ñ o	-0.16745618
-1.4811288	v o	-0.16745618
-1.4266732	_ o	-0.28165698
-1.1285646	? o	-0.16745618
-1.6291798	= o	-0.16745618
-0.705391	ç o	-0.16745618
-0.8673543	’ o	-0.16745618
-1.6497844	' #	-0.16745618
-1.5157427	b #	-0.16745618
-1.3819897	r #	-0.4754347
-1.2070763	u #	-0.6222026
-1.184022	s #	-0.39179242
-1.2750974	e #	-0.774694
-1.1738541	l #	-0.3943188
-1.2895472	a #	-0.8921164
-1.3422061	k #	-0.5021358
-1.2334073	o #	-0.74237275
-2.1208	# #	-0.16745618
-1.3337163	i #	-0.77209324
-1.2360672	t #	-0.33354974
-1.0941284	n #	-0.60064083
-1.3081962	d #	-0.34306157
-1.1650103	z #	-0.543661
-1.2016964	8 #	-0.16745618
-1.8013797	p #	-0.16745618
-1.3392222	1 #	-0.2323194
-0.6635362	. #	-0.7738302
-1.3043292	f #	-0.16745618
-1.166672	m #	-0.22328909
-1.359179	g #	-0.30123246
-0.1393612	, #	-0.83048046
-1.1919739	h #	-0.21646824
-1.1197147	ó #	-0.16745618
-1.1914828	c #	-0.28165698
-1.4229759	j #	-0.16745618
-1.1799738	x #	-0.16745618
-1.3606573	é #	-0.16745618
-1.5487857	w #	-0.16745618
-1.2834179	y #	-0.16745618
-0.62545145	" #	-0.35623547
-0.24578957	: #	-0.50300395
-1.3232509	2 #	-0.16745618
-1.2223423	0 #	-0.25017068
-1.2241192	6 #	-0.16745618
-1.5434353	- #	-0.16745618
-0.88921946	3 #	-0.32777137
-1.5885935	| #	-0.16745618
-1.0907623	9 #	-0.16745618
-1.1455321	7 #	-0.28165698
-1.3302479	5 #	-0.16745618
-1.3569014	( #	-0.16745618
-1.2018571	á #	-0.16745618
-0.5085038	) #	-0.48887634
-1.3962756	= #	-0.16745618
-1.3986163	4 #	-0.16745618
-1.1935447	% #	-0.16745618
-0.081547245	; #	-0.27427524
-0.39744067	생 #	-0.16745618
-0.8094344	ý #	-0.16745618
-0.8094344	ा #	-0.16745618
-0.8183245	с #	-0.16745618
-0.47375482	т #	-0.16745618
-0.7968906	а #	-0.16745618
-0.98245424	г #	-0.16745618
-0.39744067	ử #	-0.16745618
-1.0707042	ה #	-0.16745618
-0.3118533	ם #	-0.16745618
-0.66468716	ר #	-0.16745618
-0.39744067	ך #	-0.16745618
-0.9746606	и #	-0.16745618
-0.39744067	м #	-0.16745618
-0.39744067	่ #	-0.16745618
-1.148296	— #	-0.16745618
-0.79281384	н #	-0.16745618
-0.66468716	ग #	-0.16745618
-0.39744067	飯 #	-0.16745618
-0.66468716	س #	-0.16745618
-0.3118533	ς #	-0.35243505
-0.39744067	토 #	-0.16745618
-0.39744067	ൻ #	-0.16745618
-0.39744067	ट #	-0.16745618
-0.47375482	் #	-0.16745618
-0.39744067	ٹ #	-0.16745618
-0.8094344	م #	-0.16745618
-1.0776422	ر #	-0.16745618
-0.9051397	ي #	-0.16745618
-0.39744067	ة #	-0.16745618
-0.8094344	ī #	-0.16745618
-0.66468716	ô #	-0.16745618
-0.8094344	ы #	-0.16745618
-0.66468716	র #	-0.16745618
-0.66468716	ރ #	-0.16745618
-0.39744067	گ #	-0.16745618
-0.8183245	र #	-0.16745618
-0.66468716	ი #	-0.16745618
-0.39744067	ർ #	-0.16745618
-0.39744067	ă #	-0.16745618
-0.3118533	й #	-0.16745618
-0.39744067	خ #	-0.16745618
-0.39744067	ش #	-0.16745618
-0.8030485	<s> i	-0.5419759
-1.9242592	' i	-0.16745618
-0.91347975	b i	-0.54717934
-1.0406692	r i	-0.6288104
-1.7605599	u i	-0.16745618
-1.1654221	s i	-0.52639216
-1.3479335	e i	-0.5335305
-1.0540131	l i	-0.5460302
-1.4679149	a i	-0.72147524
-1.1153034	k i	-0.57253206
-1.3462763	o i	-0.43543854
-1.433206	# i	-0.8617823
-2.0604563	i i	-0.30860037
-1.063401	t i	-0.595994
-1.1419411	n i	-0.51720977
-0.9400857	d i	-0.59565985
-1.0470793	z i	-0.52644527
-1.0711432	p i	-0.38597393
-2.0363271	. i	-0.16745618
-0.83415604	f i	-0.39837602
-1.025957	m i	-0.5059058
-0.93659353	g i	-0.443412
-0.9483882	h i	-0.44890034
-1.1807871	c i	-0.30418512
-1.1899352	j i	-0.16745618
-1.0399132	x i	-0.19127114
-0.8900223	w i	-0.26338628
-1.7194762	" i	-0.16745618
-1.9397199	- i	-0.16745618
-1.4205681	| i	-0.2323194
-1.6058462	( i	-0.16745618
-1.0703825	ñ i	-0.16745618
-0.5022346	v i	-0.30784446
-1.6657724	[ i	-0.16745618
-1.0771562	_ i	-0.35243505
-1.7676257	/ i	-0.16745618
-1.5650332	> i	-0.16745618
-0.70712745	& i	-0.16745618
-1.931275	' t	-0.16745618
-2.1348324	b t	-0.16745618
-1.6896039	r t	-0.50880384
-1.1404028	u t	-0.6556904
-1.1998599	s t	-0.6061303
-1.2897229	e t	-0.72152495
-1.6029012	l t	-0.37170208
-1.3377378	a t	-0.7814975
-1.5808812	k t	-0.3722311
-1.226079	o t	-0.70192134
-1.4887058	# t	-0.84625125
-1.2463839	i t	-0.8596569
-1.5006862	t t	-0.37873968
-1.5585728	n t	-0.49911118
-2.1000116	d t	-0.16745618
-1.397187	z t	-0.54469895
-1.8863457	] t	-0.16745618
-1.3692144	p t	-0.38613376
-1.5796449	f t	-0.16745618
-2.0822847	g t	-0.16745618
-1.4235187	h t	-0.25543496
-1.4792209	c t	-0.21646824
-1.8249328	j t	-0.16745618
-1.8355542	x t	-0.16745618
-1.5785022	é t	-0.16745618
-1.6860931	y t	-0.16745618
-1.846295	0 t	-0.16745618
-1.3512944	- t	-0.31828517
-1.4232435	| t	-0.36588463
-1.6688999	7 t	-0.16745618
-1.612001	( t	-0.16745618
-1.3055688	á t	-0.16745618
-1.6712887	[ t	-0.16745618
-1.6793394	_ t	-0.16745618
-1.7744526	/ t	-0.16745618
-0.7061676	ū t	-0.16745618
-0.7061676	ô t	-0.16745618
-1.9038669	' n	-0.16745618
-2.1059294	b n	-0.16745618
-1.9141474	r n	-0.32777137
-1.11519	u n	-0.66929233
-1.8899258	s n	-0.25017068
-1.2357719	e n	-0.78702223
-2.1232285	l n	-0.16745618
-1.1333523	a n	-0.7732214
-1.9772465	k n	-0.16745618
-1.2235875	o n	-0.66157615
-1.5931954	# n	-0.8489673
-1.1461813	i n	-0.74756265
-1.7353907	n n	-0.31828517
-1.5888153	d n	-0.2323194
-1.8670192	] n	-0.16745618
-2.0645638	p n	-0.16745618
-1.827727	. n	-0.35243505
-1.8699001	m n	-0.28165698
-1.8627812	g n	-0.28165698
-1.8470547	h n	-0.16745618
-1.2290657	ó n	-0.16745618
-1.9689126	c n	-0.16745618
-1.8047652	j n	-0.16745618
-1.558752	é n	-0.16745618
-1.746837	w n	-0.16745618
-1.6624528	y n	-0.16745618
-1.6956093	| n	-0.16745618
-1.7211244	9 n	-0.16745618
-1.5878884	( n	-0.16745618
-0.40042	á n	-0.32777137
-0.49567026	í n	-0.28165698
-1.6496319	[ n	-0.16745618
-1.6566632	_ n	-0.16745618
-1.7477663	/ n	-0.16745618
-1.2674472	— n	-0.16745618
-1.0610728	& n	-0.16745618
-0.49567026	ü n	-0.16745618
-0.41776225	à n	-0.16745618
-0.41776225	ể n	-0.16745618
-0.7030697	′ n	-0.16745618
-0.41776225	ė n	-0.16745618
-1.9759316	' d	-0.16745618
-2.1821482	b d	-0.16745618
-1.6197741	r d	-0.4275825
-1.4393796	u d	-0.47308204
-2.0630972	s d	-0.16745618
-1.568042	e d	-0.533294
-1.6172655	l d	-0.38881195
-1.4317284	a d	-0.6494452
-1.5668113	o d	-0.42070362
-1.4572299	# d	-0.913891
-1.3093243	i d	-0.5831094
-2.2703621	t d	-0.16745618
-1.5732075	n d	-0.59544194
-1.9353237	d d	-0.16745618
-2.085645	z d	-0.16745618
-2.140393	p d	-0.16745618
-1.8888211	1 d	-0.16745618
-2.0907152	. d	-0.16745618
-1.7542884	f d	-0.16745618
-2.131251	m d	-0.16745618
-2.042993	c d	-0.16745618
-1.3228513	é d	-0.16745618
-1.7241567	y d	-0.16745618
-1.6569598	- d	-0.25017068
-1.6095552	| d	-0.16745618
-1.6508826	( d	-0.16745618
-1.7059445	[ d	-0.16745618
-1.4500599	_ d	-0.16745618
-1.2449661	/ d	-0.25017068
-1.6024637	> d	-0.16745618
-0.42178166	æ d	-0.16745618
-1.7968563	<s> z	-0.16745618
-2.0819457	' z	-0.16745618
-2.0407686	r z	-0.16745618
-1.407497	u z	-0.46614265
-2.371014	s z	-0.16745618
-1.361021	e z	-0.69926494
-1.4210606	a z	-0.7597183
-2.100963	k z	-0.35243505
-1.5379275	o z	-0.39214364
-1.5729797	# z	-1.0220847
-1.317161	i z	-0.6776565
-1.4630827	t z	-0.6804207
-1.9953495	n z	-0.2323194
-2.262095	d z	-0.16745618
-1.9858572	] z	-0.16745618
-2.2532983	p z	-0.16745618
-2.1190834	- z	-0.16745618
-2.0689657	| z	-0.16745618
-1.1057103	_ z	-0.5839801
-2.5108893	# 8	-0.16745618
-1.5719178	8 8	-0.16745618
-1.552991	1 8	-0.2731787
-1.701525	2 8	-0.16745618
-1.7738513	0 8	-0.16745618
-1.4268963	6 8	-0.16745618
-2.1955683	- 8	-0.16745618
-1.6090192	3 8	-0.16745618
-1.6178926	9 8	-0.16745618
-1.8361328	7 8	-0.16745618
-1.9205345	5 8	-0.16745618
-1.1543368	4 8	-0.16745618
-1.3483603	— 8	-0.16745618
-1.9838421	' ]	-0.16745618
-2.1905608	b ]	-0.16745618
-2.090561	r ]	-0.35243505
-2.3693807	u ]	-0.16745618
-2.0698032	s ]	-0.35243505
-1.928764	e ]	-0.76007134
-1.9027324	l ]	-0.45904133
-1.5213962	a ]	-1.0031093
-2.0347142	k ]	-0.28165698
-1.7361815	o ]	-0.8270181
-2.0906756	i ]	-0.5839801
-2.2799988	t ]	-0.16745618
-1.6647713	n ]	-0.6808901
-0.8279658	8 ]	-0.8270181
-0.2713162	] ]	-0.7897141
-1.0018734	1 ]	-0.8270181
-2.1396954	m ]	-0.16745618
-1.914225	g ]	-0.16745618
-1.8970239	h ]	-0.35243505
-1.7308382	y ]	-0.16745618
-1.7710023	" ]	-0.16745618
-1.4650085	2 ]	-0.45904133
-1.1245304	0 ]	-0.76007134
-0.7581825	6 ]	-0.76007134
-1.1822035	3 ]	-0.5839801
-0.8775499	9 ]	-0.8270181
-1.0765073	7 ]	-0.5839801
-1.7799641	5 ]	-0.16745618
-1.1453296	? ]	-0.16745618
-0.9482211	4 ]	-0.8270181
-1.7250277	<s> p	-0.16745618
-1.9605302	' p	-0.16745618
-1.8104985	r p	-0.25543496
-1.542417	u p	-0.41162553
-1.2402573	s p	-0.3997308
-1.7869813	e p	-0.32421106
-1.8888657	l p	-0.36588463
-1.62963	a p	-0.5385743
-1.4806318	o p	-0.36966977
-1.5338528	# p	-0.8257706
-1.5992565	i p	-0.38785058
-2.0784485	t p	-0.16745618
-1.7652223	n p	-0.39153987
-2.1311636	d p	-0.16745618
-1.5292957	z p	-0.4033914
-2.124131	p p	-0.16745618
-1.2458125	. p	-0.45295584
-1.7640822	m p	-0.16745618
-2.1002407	h p	-0.16745618
-1.2486305	ó p	-0.16745618
-1.8460829	j p	-0.16745618
-1.3172792	é p	-0.16745618
-1.4586513	y p	-0.35243505
-1.5011024	" p	-0.16745618
-1.7403673	: p	-0.16745618
-1.8642832	2 p	-0.16745618
-1.5180113	0 p	-0.45904133
-1.4804506	- p	-0.361355
-1.434113	| p	-0.25017068
-1.7592728	5 p	-0.16745618
-1.6375315	( p	-0.16745618
-1.7032651	_ p	-0.16745618
-1.8028866	/ p	-0.16745618
-2.519901	a 1	-0.35243505
-1.77231	# 1	-0.47520074
-2.2204926	d 1	-0.16745618
-1.8149678	8 1	-0.16745618
-1.9532132	1 1	-0.16745618
-1.9177608	. 1	-0.16745618
-1.4840453	2 1	-0.16745618
-1.5539123	0 1	-0.22081363
-1.3957374	6 1	-0.16745618
-1.5081774	- 1	-0.16745618
-1.5643011	3 1	-0.16745618
-2.0239062	| 1	-0.16745618
-1.5724509	9 1	-0.16745618
-1.7585053	7 1	-0.16745618
-1.5551848	5 1	-0.16745618
-1.7088138	( 1	-0.16745618
-1.7569242	[ 1	-0.16745618
-1.6215392	/ 1	-0.35243505
-1.4278296	= 1	-0.16745618
-1.4679202	4 1	-0.28165698
-1.3895781	% 1	-0.16745618
-0.4250242	– 1	-0.16745618
-0.7171877	° 1	-0.16745618
-1.9242592	' .	-0.16745618
-1.9340955	b .	-0.16745618
-1.7912685	r .	-0.25017068
-1.7605599	u .	-0.46279466
-1.6451339	s .	-0.2892238
-1.7777561	e .	-0.4244972
-1.9873366	l .	-0.28165698
-1.5652733	a .	-0.4800386
-1.4095291	k .	-0.36716616
-1.6589293	o .	-0.48267335
-1.5180545	i .	-0.49437642
-2.0488489	t .	-0.16745618
-1.4852973	n .	-0.4802764
-1.2999672	z .	-0.60892266
-1.7141265	8 .	-0.16745618
-1.4366478	] .	-0.45904133
-1.891345	p .	-0.16745618
-1.4742686	1 .	-0.16745618
-1.5338683	. .	-0.31828517
-1.7246064	f .	-0.35243505
-1.8838664	m .	-0.16745618
-1.876218	g .	-0.35243505
-1.7175798	h .	-0.16745618
-1.7895149	c .	-0.16745618
-1.3838477	j .	-0.16745618
-1.4477729	x .	-0.28165698
-1.7615608	w .	-0.16745618
-1.6800613	y .	-0.16745618
-1.4831138	" .	-0.35243505
-1.4442275	2 .	-0.16745618
-1.6411119	0 .	-0.16745618
-1.7343091	3 .	-0.16745618
-1.2531452	7 .	-0.28165698
-1.7268378	5 .	-0.16745618
-1.4811288	v .	-0.28165698
-0.67144996	) .	-0.9099527
-1.574438	4 .	-0.16745618
-1.5650332	> .	-0.16745618
-1.7543697	<s> f	-0.16745618
-2.0084767	' f	-0.16745618
-2.2168226	b f	-0.16745618
-2.113646	r f	-0.16745618
-2.4001117	u f	-0.16745618
-2.0905662	s f	-0.16745618
-1.6092896	e f	-0.35097232
-2.2490718	l f	-0.16745618
-1.9546034	a f	-0.35235995
-1.572322	o f	-0.4785723
-1.6666307	# f	-0.76088446
-1.8960576	i f	-0.35617054
-1.6740587	n f	-0.30860037
-2.1825294	d f	-0.16745618
-1.7722074	f f	-0.16745618
-1.9293814	g f	-0.16745618
-2.0765674	c f	-0.16745618
-1.8798743	j f	-0.16745618
-1.9051408	x f	-0.16745618
-1.8202688	w f	-0.16745618
-1.7920179	" f	-0.16745618
-1.8207244	- f	-0.16745618
-1.4509451	| f	-0.26959524
-1.678883	( f	-0.16745618
-1.7306868	[ f	-0.16745618
-1.1517872	? f	-0.16745618
-0.4233999	@ f	-0.16745618
-1.7443671	<s> m	-0.16745618
-1.9918993	' m	-0.16745618
-1.8265201	r m	-0.42716348
-1.3561609	u m	-0.40084162
-1.5003241	s m	-0.4309041
-1.536616	e m	-0.49734902
-1.6221611	l m	-0.25017068
-1.5477929	a m	-0.57033
-2.2485964	k m	-0.16745618
-1.4851454	o m	-0.45502564
-1.477643	# m	-0.9905242
-1.4937518	i m	-0.52406603
-2.1036725	t m	-0.16745618
-2.0551262	n m	-0.16745618
-2.1647239	d m	-0.16745618
-2.102043	z m	-0.16745618
-1.9040463	1 m	-0.16745618
-2.107593	. m	-0.16745618
-1.4737222	m m	-0.22081363
-2.1451044	g m	-0.16745618
-1.2587537	ó m	-0.16745618
-1.6209203	é m	-0.16745618
-1.7778952	" m	-0.16745618
-1.9093624	0 m	-0.16745618
-1.4913298	- m	-0.25017068
-1.6178771	| m	-0.25017068
-1.6646571	( m	-0.16745618
-1.7181394	[ m	-0.16745618
-1.4569799	_ m	-0.28165698
-2.0257118	' g	-0.16745618
-2.2352567	b g	-0.16745618
-1.726882	r g	-0.37047082
-1.49704	u g	-0.40265962
-1.9680026	s g	-0.28165698
-1.4019605	e g	-0.7610066
-2.0686934	l g	-0.2323194
-1.5791374	a g	-0.6320543
-1.6250552	o g	-0.38509262
-1.4629794	# g	-1.014883
-1.4660696	i g	-0.44816494
-1.3916883	n g	-0.4243915
-2.1931868	p g	-0.16745618
-1.7494378	. g	-0.45904133
-2.1802871	g g	-0.16745618
-2.0943809	c g	-0.16745618
-1.3400097	é g	-0.16745618
-1.8066154	" g	-0.16745618
-1.6818576	- g	-0.25017068
-1.6350152	| g	-0.31828517
-1.6935906	( g	-0.16745618
-1.8327605	v g	-0.16745618
-1.7436074	[ g	-0.16745618
-1.7554755	_ g	-0.16745618
-1.6119682	/ g	-0.16745618
-1.9605302	' ,	-0.16745618
-2.068641	r ,	-0.35243505
-1.7729048	u ,	-0.6808901
-1.658033	s ,	-0.6808901
-1.9210784	e ,	-0.76007134
-2.0168521	l ,	-0.35243505
-1.5437787	a ,	-1.212369
-1.493986	k ,	-0.76007134
-1.6127088	o ,	-0.76382464
-2.5254261	# ,	-0.16745618
-1.8083669	i ,	-0.66691464
-2.0784485	t ,	-0.35243505
-1.4955479	n ,	-0.8270181
-2.1311636	d ,	-0.16745618
-1.3066075	z ,	-0.76007134
-1.7452092	8 ,	-0.16745618
-1.8741115	1 ,	-0.16745618
-2.1148398	m ,	-0.16745618
-2.0271316	c ,	-0.16745618
-1.8620664	x ,	-0.16745618
-1.5991936	é ,	-0.16745618
-1.7872672	w ,	-0.16745618
-1.2948549	y ,	-0.45904133
-1.5011024	" ,	-0.35243505
-1.8766849	0 ,	-0.16745618
-1.7868036	- ,	-0.35243505
-1.7726728	9 ,	-0.16745618
-1.5150031	5 ,	-0.16745618
-0.85448825	) ,	-0.93616253
-1.8291988	4 ,	-0.16745618
-1.5914361	> ,	-0.16745618
-0.4209748	ן ,	-0.16745618
-0.7533467	— ,	-0.45904133
-1.44119	<s> h	-0.35243505
-2.0001087	' h	-0.16745618
-2.105814	r h	-0.16745618
-2.0701306	u h	-0.45904133
-1.671327	s h	-0.2866868
-1.5714344	e h	-0.4029034
-1.9122291	l h	-0.28165698
-1.9520384	a h	-0.3577346
-1.5021026	k h	-0.41703716
-1.815405	o h	-0.36588463
-1.5182956	# h	-1.0273572
-1.8186995	i h	-0.26338628
-1.2974524	t h	-0.24321774
-2.226483	n h	-0.16745618
-1.3820306	p h	-0.20684718
-1.4301846	. h	-0.46279466
-1.933958	m h	-0.16745618
-1.4599134	g h	-0.16745618
-0.96760935	c h	-0.3942141
-1.6265262	é h	-0.16745618
-1.7848991	" h	-0.16745618
-1.8148837	- h	-0.16745618
-1.9734529	| h	-0.16745618
-1.6717118	( h	-0.16745618
-1.2672933	[ h	-0.25017068
-1.0919504	_ h	-0.5839801
-1.2511085	/ h	-0.36588463
-1.6195487	> h	-0.16745618
-2.3227692	r ó	-0.16745618
-2.402594	i ó	-0.28165698
-2.588564	n ó	-0.16745618
-2.4027286	g ó	-0.16745618
-2.38248	h ó	-0.16745618
-2.314615	c ó	-0.16745618
-1.9838421	' c	-0.16745618
-2.1905608	b c	-0.16745618
-1.9728596	r c	-0.25017068
-1.6116961	u c	-0.25017068
-1.6659604	s c	-0.26338628
-2.2777884	e c	-0.35243505
-1.9027324	l c	-0.16745618
-1.7414399	a c	-0.37047493
-1.8105788	o c	-0.20684718
-1.5161098	# c	-0.6081186
-1.8145369	i c	-0.37170208
-2.0972278	t c	-0.16745618
-1.9286203	n c	-0.16745618
-2.0937665	z c	-0.16745618
-1.249376	. c	-0.46441323
-2.1396954	m c	-0.16745618
-2.1367369	g c	-0.16745618
-2.0511463	c c	-0.16745618
-1.3256643	é c	-0.16745618
-1.3023206	y c	-0.16745618
-1.7710023	" c	-0.16745618
-1.9009596	0 c	-0.16745618
-1.6633629	6 c	-0.16745618
-1.7547259	| c	-0.16745618
-1.6577153	( c	-0.16745618
-1.7119992	[ c	-0.16745618
-1.7221162	_ c	-0.16745618
-1.247004	/ c	-0.16745618
-1.4038328	= c	-0.35243505
-0.42218566	ứ c	-0.16745618
-2.0819457	' j	-0.16745618
-2.2957764	b j	-0.16745618
-1.8693681	r j	-0.25017068
-2.4946027	u j	-0.16745618
-2.4868922	e j	-0.16745618
-2.3416953	l j	-0.16745618
-2.2637966	a j	-0.16745618
-2.5844085	o j	-0.16745618
-1.5729797	# j	-0.9270339
-2.452379	i j	-0.16745618
-1.9953495	n j	-0.25017068
-1.3266058	d j	-0.41162553
-0.8857714	. j	-0.9399159
-1.8536049	" j	-0.16745618
-1.7964392	: j	-0.16745618
-2.1190834	- j	-0.16745618
-2.0689657	| j	-0.16745618
-1.7409611	( j	-0.16745618
-1.7848494	[ j	-0.16745618
-3.034325	e ŭ	-0.16745618
-2.3295238	b x	-0.16745618
-2.0612931	r x	-0.16745618
-2.5361085	u x	-0.16745618
-1.8870621	e x	-0.22600573
-2.450888	a x	-0.25017068
-2.2517745	o x	-0.16745618
-1.826591	# x	-0.46930495
-1.7770854	i x	-0.32061985
-1.3562964	t x	-0.6316447
-2.3866866	n x	-0.16745618
-1.8348906	p x	-0.16745618
-2.1203496	f x	-0.16745618
-1.1678464	x x	-0.32777137
-2.1061206	| x	-0.16745618
-1.8070384	[ x	-0.16745618
-1.338934	— x	-0.16745618
-2.353573	b é	-0.16745618
-2.0755358	r é	-0.28165698
-2.566161	u é	-0.16745618
-2.444505	s é	-0.16745618
-2.151887	l é	-0.16745618
-2.4133482	k é	-0.16745618
-2.7360291	i é	-0.16745618
-2.2139506	t é	-0.16745618
-1.6563351	d é	-0.2323194
-2.0209627	p é	-0.16745618
-2.1412337	f é	-0.16745618
-2.015486	m é	-0.16745618
-2.278265	h é	-0.16745618
-2.016351	x é	-0.16745618
-1.7968563	<s> w	-0.16745618
-2.0819457	' w	-0.16745618
-2.3824341	r w	-0.16745618
-2.4946027	u w	-0.16745618
-2.346448	e w	-0.16745618
-2.4273405	a w	-0.16745618
-2.3512251	k w	-0.16745618
-2.3768585	o w	-0.16745618
-1.8636652	# w	-0.4322285
-2.452379	i w	-0.16745618
-2.3407657	n w	-0.16745618
-2.262095	d w	-0.16745618
-2.1526756	c w	-0.16745618
-1.0087314	w w	-0.31828517
-1.8536049	" w	-0.16745618
-1.8705132	- w	-0.16745618
-1.8231767	| w	-0.16745618
-1.7409611	( w	-0.16745618
-1.920259	/ w	-0.16745618
-2.476214	p ä	-0.16745618
-2.0225234	b y	-0.16745618
-1.5685512	r y	-0.21277787
-2.4689837	u y	-0.16745618
-2.344779	s y	-0.16745618
-2.33313	e y	-0.16745618
-2.3166227	l y	-0.16745618
-2.4123228	a y	-0.28165698
-2.3286674	k y	-0.16745618
-2.5567937	o y	-0.16745618
-2.5429475	# y	-0.28165698
-2.6292775	i y	-0.16745618
-2.3779602	t y	-0.16745618
-2.312645	n y	-0.16745618
-2.2407959	d y	-0.16745618
-2.232323	p y	-0.16745618
-2.2241397	m y	-0.16745618
-1.9613795	g y	-0.16745618
-2.2039328	h y	-0.16745618
-1.707574	c y	-0.16745618
-1.8559858	w y	-0.16745618
-1.7961028	y y	-0.16745618
-2.0819457	' "	-0.16745618
-2.3824341	r "	-0.16745618
-2.4946027	u "	-0.16745618
-2.371014	s "	-0.16745618
-2.3416953	l "	-0.16745618
-2.0522537	a "	-0.47539833
-2.3512251	k "	-0.16745618
-2.5844085	o "	-0.16745618
-1.9122696	# "	-0.3110014
-2.657197	i "	-0.16745618
-2.4030933	t "	-0.16745618
-1.9858572	] "	-0.16745618
-2.245364	m "	-0.16745618
-1.8739557	3 "	-0.16745618
-1.8808815	9 "	-0.16745618
-1.7409611	( "	-0.16745618
-1.2576762	= "	-0.16745618
-1.4039716	% "	-0.16745618
-1.5555887	; "	-0.16745618
-2.0623808	' :	-0.16745618
-2.2541883	u :	-0.35243505
-2.1353302	s :	-0.16745618
-2.468595	e :	-0.35243505
-2.097136	l :	-0.35243505
-1.6785316	a :	-0.7151925
-1.9291878	k :	-0.45904133
-2.3595293	o :	-0.35243505
-2.6851673	# :	-0.16745618
-2.434748	i :	-0.16745618
-1.8308123	t :	-0.46279466
-1.9824293	n :	-0.45904133
-1.990068	d :	-0.35243505
-2.1746304	z :	-0.16745618
-1.9736055	] :	-0.16745618
-2.232323	p :	-0.16745618
-2.2241397	m :	-0.16745618
-2.2039328	h :	-0.16745618
-1.5041232	y :	-0.16745618
-1.5319641	) :	-0.45904133
-1.6622391	> :	-0.16745618
-2.0257118	' 2	-0.16745618
-2.2352567	b 2	-0.16745618
-2.2704422	l 2	-0.16745618
-2.5013912	a 2	-0.35243505
-1.8493426	# 2	-0.45148706
-1.522902	8 2	-0.28165698
-1.6790708	1 2	-0.16745618
-2.1665497	h 2	-0.16745618
-1.8066154	" 2	-0.16745618
-1.4360919	: 2	-0.16745618
-1.4785205	2 2	-0.16745618
-1.5464907	0 2	-0.16745618
-1.6921368	6 2	-0.16745618
-1.3759203	- 2	-0.31828517
-1.8248281	3 2	-0.16745618
-1.4567039	| 2	-0.45904133
-1.831174	9 2	-0.16745618
-1.4592357	7 2	-0.16745618
-1.5468456	5 2	-0.16745618
-1.6935906	( 2	-0.16745618
-1.7436074	[ 2	-0.16745618
-1.4475268	/ 2	-0.28165698
-1.708917	= 2	-0.16745618
-1.6289506	4 2	-0.16745618
-0.84233314	% 2	-0.28165698
-1.7968563	<s> 0	-0.16745618
-2.2957764	b 0	-0.16745618
-2.5844085	o 0	-0.16745618
-2.3017094	# 0	-0.22081363
-1.5467188	8 0	-0.16745618
-1.1991199	1 0	-0.2323194
-2.2034955	. 0	-0.16745618
-2.0907938	f 0	-0.16745618
-1.573207	, 0	-0.16745618
-0.5877391	2 0	-0.4456865
-0.82920927	0 0	-0.30661744
-1.4079341	6 0	-0.16745618
-1.8705132	- 0	-0.16745618
-1.2020413	3 0	-0.25017068
-1.4118668	9 0	-0.16745618
-1.0930816	7 0	-0.25017068
-1.055287	5 0	-0.26338628
-1.4421619	= 0	-0.16745618
-1.941804	4 0	-0.16745618
-2.6939738	# 6	-0.35243505
-1.3903512	8 6	-0.28165698
-1.7544839	1 6	-0.16745618
-2.0536273	2 6	-0.16745618
-1.7928939	0 6	-0.16745618
-1.6233845	3 6	-0.16745618
-1.632507	9 6	-0.16745618
-1.516364	7 6	-0.16745618
-1.9508609	5 6	-0.16745618
-1.5099801	4 6	-0.16745618
-2.1905608	b -	-0.16745618
-1.9728596	r -	-0.22081363
-2.0603123	u -	-0.25017068
-2.0698032	s -	-0.16745618
-1.792612	e -	-0.2928314
-1.9027324	l -	-0.25017068
-1.832152	a -	-0.26803488
-2.239551	k -	-0.16745618
-1.9004104	o -	-0.244732
-2.4494138	# -	-0.16745618
-1.7512654	i -	-0.25853398
-2.2799988	t -	-0.16745618
-1.9286203	n -	-0.22081363
-1.7923082	d -	-0.16745618
-2.0937665	z -	-0.16745618
-1.764986	8 -	-0.16745618
-1.922386	] -	-0.16745618
-1.9969409	f -	-0.16745618
-2.1367369	g -	-0.16745618
-1.8970239	h -	-0.16745618
-2.0511463	c -	-0.16745618
-1.8830698	x -	-0.16745618
-1.7308382	y -	-0.16745618
-1.8847766	2 -	-0.16745618
-1.3490369	0 -	-0.25017068
-1.3751843	6 -	-0.16745618
-1.7877481	3 -	-0.16745618
-1.7936982	9 -	-0.16745618
-1.7113957	7 -	-0.16745618
-1.6577153	( -	-0.16745618
-2.2957764	b 3	-0.16745618
-2.7413454	a 3	-0.16745618
-2.1028824	# 3	-0.37047493
-1.365459	8 3	-0.16745618
-1.9893838	1 3	-0.16745618
-1.8536049	" 3	-0.16745618
-1.569147	0 3	-0.16745618
-1.4079341	6 3	-0.35243505
-2.1190834	- 3	-0.16745618
-1.4029188	3 3	-0.16745618
-1.8231767	| 3	-0.28165698
-1.8808815	9 3	-0.16745618
-1.7879131	7 3	-0.16745618
-1.055287	5 3	-0.16745618
-1.920259	/ 3	-0.16745618
-1.4421619	= 3	-0.16745618
-1.2814081	4 3	-0.16745618
-1.4039716	% 3	-0.16745618
-0.72038835	° 3	-0.16745618
-2.341382	b |	-0.16745618
-1.8877655	r |	-0.2323194
-2.7492435	e |	-0.16745618
-2.396651	l |	-0.16745618
-1.7657273	a |	-0.3056384
-2.4001923	k |	-0.16745618
-2.4137402	o |	-0.25017068
-1.5779792	# |	-0.49183846
-2.2056606	t |	-0.2323194
-2.1757832	n |	-0.16745618
-2.2383375	z |	-0.16745618
-1.995924	g |	-0.21277787
-2.006709	x |	-0.16745618
-1.572832	" |	-0.16745618
-1.7379464	) |	-0.25017068
-2.5002494	# 9	-0.16745618
-1.8890474	8 9	-0.16745618
-1.0176858	1 9	-0.25017068
-1.9474734	, 9	-0.16745618
-1.6969621	2 9	-0.16745618
-1.7676849	0 9	-0.16745618
-1.763074	6 9	-0.16745618
-2.1818485	- 9	-0.16745618
-1.6043344	3 9	-0.16745618
-1.427033	9 9	-0.16745618
-1.5003802	7 9	-0.16745618
-1.5948299	5 9	-0.16745618
-1.291561	4 9	-0.16745618
-1.4226613	% 9	-0.16745618
-2.6778572	# 7	-0.16745618
-1.5806532	8 7	-0.16745618
-1.7107973	2 7	-0.16745618
-1.7864531	0 7	-0.16745618
-1.7846158	6 7	-0.16745618
-2.2243812	- 7	-0.16745618
-1.4363936	9 7	-0.16745618
-1.5123125	7 7	-0.16745618
-1.6088921	5 7	-0.16745618
-1.4723285	= 7	-0.16745618
-1.6964897	4 7	-0.16745618
-2.7741385	# 5	-0.16745618
-1.3735988	8 5	-0.16745618
-1.3409679	1 5	-0.16745618
-1.9585221	. 5	-0.16745618
-1.9396344	, 5	-0.16745618
-1.1606983	2 5	-0.16745618
-2.0366082	0 5	-0.16745618
-1.5951138	3 5	-0.16745618
-2.1061206	| 5	-0.16745618
-1.6037539	9 5	-0.16745618
-1.3049648	7 5	-0.16745618
-1.8921883	5 5	-0.16745618
-1.9501419	/ 5	-0.16745618
-1.264882	= 5	-0.16745618
-1.6711459	4 5	-0.16745618
-1.4150887	% 5	-0.16745618
-1.5933323	# (	-0.5272232
-2.485484	d (	-0.16745618
-1.201459	> (	-0.28165698
-2.5842745	r á	-0.16745618
-2.381868	# á	-0.5839801
-2.5399854	n á	-0.16745618
-2.3268223	z á	-0.16745618
-2.210685	f á	-0.16745618
-2.3853045	m á	-0.16745618
-1.9514619	c á	-0.16745618
-1.9223851	v á	-0.16745618
-2.5842745	r q	-0.16745618
-2.251805	s q	-0.35243505
-2.5135958	l q	-0.16745618
-2.6916053	a q	-0.16745618
-2.7789588	o q	-0.16745618
-2.9705255	# q	-0.16745618
-2.8545551	i q	-0.16745618
-2.0416288	/ q	-0.16745618
-2.3629472	r í	-0.35243505
-2.7837353	u í	-0.16745618
-2.684285	t í	-0.16745618
-2.670152	e ñ	-0.35243505
-2.5708978	a ñ	-0.28165698
-2.6272519	i ñ	-0.28165698
-2.1130521	' v	-0.16745618
-2.210653	r v	-0.16745618
-2.5361085	u v	-0.16745618
-2.1765165	s v	-0.16745618
-2.1896098	e v	-0.2323194
-1.7861297	l v	-0.35243505
-2.0620265	a v	-0.361355
-2.2517745	o v	-0.2323194
-1.826591	# v	-0.62347066
-2.0224555	i v	-0.32777137
-2.197526	t v	-0.35243505
-1.3060458	x v	-0.5839801
-1.7667364	( v	-0.16745618
-1.8070384	[ v	-0.16745618
-1.2765858	/ v	-0.36588463
-1.1046195	& v	-0.16745618
-2.0084767	' )	-0.16745618
-2.2168226	b )	-0.16745618
-2.2785158	r )	-0.16745618
-2.4001117	u )	-0.16745618
-1.9365882	e )	-0.35243505
-2.2490718	l )	-0.16745618
-1.6704335	a )	-0.5752485
-2.0518034	k )	-0.28165698
-2.3113408	o )	-0.16745618
-2.4784098	# )	-0.16745618
-2.5549023	i )	-0.16745618
-2.1168559	t )	-0.35243505
-1.9458264	n )	-0.2323194
-2.1190844	z )	-0.16745618
-1.9387971	] )	-0.16745618
-2.1748664	p )	-0.16745618
-1.8960787	. )	-0.28165698
-1.7722074	f )	-0.35243505
-2.1660604	m )	-0.16745618
-1.7920179	" )	-0.16745618
-1.6416334	2 )	-0.16745618
-1.694598	0 )	-0.16745618
-1.5476283	3 )	-0.16745618
-1.3886513	9 )	-0.25017068
-1.8016908	5 )	-0.16745618
-1.4557575	4 )	-0.28165698
-0.7140105	ो )	-0.16745618
-2.1704261	' [	-0.16745618
-1.9253922	" [	-0.16745618
-1.8320625	: [	-0.16745618
-2.2243812	- [	-0.16745618
-1.7009604	| [	-0.45904133
-1.8134167	( [	-0.16745618
-2.107695	) [	-0.16745618
-0.6254226	[ [	-0.4004145
-1.4723285	= [	-0.35243505
-1.1840675	> [	-0.36588463
-1.3547602	— [	-0.16745618
-2.428856	r _	-0.16745618
-2.2938755	u _	-0.16745618
-2.4136012	s _	-0.16745618
-2.5158699	e _	-0.16745618
-2.1574101	a _	-0.28165698
-2.4042218	o _	-0.16745618
-2.480245	i _	-0.16745618
-2.036233	t _	-0.25017068
-1.8363636	n _	-0.30418512
-2.2961402	d _	-0.16745618
-2.018637	1 _	-0.16745618
-2.1203496	f _	-0.16745618
-2.2792819	m _	-0.16745618
-2.2717278	g _	-0.16745618
-2.185047	c _	-0.16745618
-1.774179	= _	-0.16745618
-2.3273742	r /	-0.16745618
-2.4447923	u /	-0.16745618
-1.807552	s /	-0.16745618
-2.4510376	e /	-0.16745618
-2.292919	l /	-0.16745618
-2.519901	a /	-0.16745618
-2.075688	k /	-0.16745618
-2.4146671	# /	-0.45904133
-2.1444879	t /	-0.16745618
-2.102798	n /	-0.16745618
-2.2204926	d /	-0.16745618
-2.155315	z /	-0.16745618
-1.6884009	1 /	-0.16745618
-2.2039044	m /	-0.16745618
-2.1990085	g /	-0.16745618
-1.7807285	y /	-0.16745618
-1.4398373	: /	-0.35243505
-1.5643011	3 /	-0.16745618
-1.8324614	5 /	-0.16745618
-1.8423938	v /	-0.16745618
-1.8833673	/ /	-0.16745618
-1.6379794	4 /	-0.16745618
-0.5685017	< /	-0.599686
-2.6606946	r ?	-0.16745618
-3.0489545	a ?	-0.16745618
-2.0816512	p ?	-0.16745618
-2.250075	f ?	-0.16745618
-2.278429	| ?	-0.16745618
-2.2416487	s =	-0.16745618
-2.2239175	e =	-0.281657
-2.3196688	a =	-0.16745618
-2.7107117	# =	-0.25017068
-1.8694195	n =	-0.2731787
-2.387803	d =	-0.16745618
-2.3591218	g =	-0.16745618
-2.3404162	h =	-0.16745618
-1.9376597	w =	-0.16745618
-2.7913477	a 4	-0.16745618
-2.4797206	# 4	-0.16745618
-1.3735988	8 4	-0.16745618
-1.0156775	1 4	-0.25628793
-1.9585221	. 4	-0.16745618
-1.9396344	, 4	-0.16745618
-1.2992613	2 4	-0.16745618
-1.5809343	0 4	-0.28165698
-1.7492845	6 4	-0.16745618
-2.1556442	- 4	-0.16745618
-1.5951138	3 4	-0.16745618
-1.6037539	9 4	-0.16745618
-1.4021102	5 4	-0.16745618
-1.264882	= 4	-0.26959524
-1.4900606	4 4	-0.16745618
-1.4150887	% 4	-0.16745618
-2.0819457	' <	-0.16745618
-2.3824341	r <	-0.16745618
-2.4946027	u <	-0.16745618
-2.6857386	e <	-0.16745618
-2.2637966	a <	-0.31828517
-2.3512251	k <	-0.16745618
-2.5844085	o <	-0.16745618
-2.1377592	n <	-0.35243505
-2.1948452	z <	-0.16745618
-1.1223541	] <	-0.5419759
-1.2626984	. <	-0.63513255
-2.0907938	f <	-0.16745618
-1.9701494	x <	-0.16745618
-2.0037632	0 <	-0.16745618
-1.8655794	5 <	-0.16745618
-1.0772619	) <	-0.4283018
-1.3553543	> <	-0.16745618
-0.89137983	} <	-0.16745618
-0.8893039	ت <	-0.16745618
-2.6606946	r >	-0.16745618
-2.5752938	l >	-0.16745618
-2.4379723	p >	-0.16745618
-2.250075	f >	-0.16745618
-2.081602	/ >	-0.16745618
-2.2728593	s %	-0.35243505
-2.939198	e %	-0.16745618
-2.593707	# %	-0.16745618
-2.0132592	9 %	-0.16745618
-1.6333909	5 %	-0.16745618
-1.8657255	( %	-0.16745618
-2.353573	b ;	-0.16745618
-2.566161	u ;	-0.16745618
-2.290835	a ;	-0.5839801
-2.4133482	k ;	-0.16745618
-2.4731367	t ;	-0.16745618
-2.185833	n ;	-0.35243505
-2.2499268	z ;	-0.16745618
-2.0180895	] ;	-0.16745618
-2.310649	p ;	-0.16745618
-2.3034608	m ;	-0.16745618
-2.016351	x ;	-0.16745618
-2.0895524	) ;	-0.16745618
-1.4226613	% ;	-0.16745618
-0.42870122	错 ;	-0.16745618
-2.4864736	d +	-0.16745618
-2.3198369	| +	-0.16745618
-1.4093254	> {	-0.35243505
-0.9087563	{ {	-0.16745618
-2.6734426	n }	-0.16745618
-2.1747437	1 }	-0.16745618
-0.51241505	} }	-0.35243505
-1.9031689	( 수	-0.16745618
-0.4333321	수 생	-0.16745618
-2.7203095	r ý	-0.16745618
-2.6734426	n ý	-0.16745618
-1.9526958	v ý	-0.16745618
-2.124292	4 –	-0.16745618
-3.1651754	# क	-0.16745618
-0.733477	ि क	-0.16745618
-0.73343223	क ा	-0.16745618
-0.43323803	प ा	-0.16745618
-0.73343223	य ा	-0.16745618
-3.1625524	# с	-0.16745618
-1.5980088	р с	-0.16745618
-0.90868926	ы с	-0.16745618
-0.5124393	с т	-0.16745618
-0.9087563	к т	-0.16745618
-0.90558636	т а	-0.16745618
-1.5805404	р а	-0.16745618
-1.123339	г а	-0.16745618
-0.5110693	п а	-0.16745618
-0.73095644	б а	-0.16745618
-0.43199605	х а	-0.16745618
-0.66649	а р	-0.16745618
-0.72931373	о р	-0.16745618
-0.45464528	е р	-0.31828517
-0.72931373	у р	-0.16745618
-0.43117	ю р	-0.16745618
-0.90337026	п р	-0.16745618
-0.43117	ү р	-0.16745618
-0.43117	є р	-0.16745618
-1.5983306	р о	-0.16745618
-0.9087563	к о	-0.16745618
-3.0753303	# г	-0.16745618
-1.5862855	р г	-0.16745618
-0.7317801	о г	-0.16745618
-0.90621823	ь г	-0.16745618
-1.2685915	н г	-0.16745618
-2.6766052	s ử	-0.16745618
-2.6275198	l ẹ	-0.16745618
-0.4333321	ẹ ̀	-0.16745618
-3.1167552	# ו	-0.16745618
-0.907452	ש ו	-0.16745618
-0.7326054	ס ו	-0.16745618
-0.4328236	ב ו	-0.16745618
-1.0327954	ו י	-0.16745618
-0.90868926	ש י	-0.16745618
-0.73343223	ס י	-0.16745618
-0.9087563	י ל	-0.16745618
-1.2735004	ה ל	-0.16745618
-2.4238482	# ה	-0.16745618
-0.73343223	ל ה	-0.16745618
-0.90868926	ש ה	-0.16745618
-1.0328846	ו ם	-0.16745618
-0.733477	ל ם	-0.16745618
-1.2735004	ה ר	-0.16745618
-0.733477	ח ר	-0.16745618
-0.7336199	ר א	-0.16745618
-0.90868926	י ש	-0.16745618
-1.2733451	ה ש	-0.16745618
-0.43323803	א ש	-0.16745618
-1.0331694	ו ן	-0.16745618
-1.2739961	ה נ	-0.16745618
-0.4332605	נ ס	-0.16745618
-0.733477	ח ס	-0.16745618
-0.9089703	י ך	-0.16745618
-1.2739961	ה ב	-0.16745618
-1.0328846	ו ח	-0.16745618
-0.4332605	מ ח	-0.16745618
-2.832573	# в	-0.16745618
-1.5921075	р и	-0.16745618
-0.7326054	в и	-0.16745618
-0.87809235	н и	-0.16745618
-0.4328236	д и	-0.16745618
-1.2716018	а л	-0.16745618
-1.126822	и л	-0.16745618
-1.4256734	е л	-0.16745618
-0.4328236	і л	-0.16745618
-1.5983306	р ь	-0.16745618
-0.5238366	л ь	-0.28165698
-2.1956809	' е	-0.16745618
-1.5637476	р е	-0.16745618
-0.72894156	г е	-0.16745618
-1.1167035	и е	-0.16745618
-1.118685	л е	-0.16745618
-0.90131795	ь е	-0.16745618
-0.90131795	’ е	-0.16745618
-1.2583067	н е	-0.16745618
-0.72849476	б е	-0.16745618
-0.9089703	ь м	-0.16745618
-2.8274798	# к	-0.35243505
-1.9004295	( к	-0.16745618
-1.1288743	и к	-0.16745618
-1.5983306	р у	-0.16745618
-0.9087563	к у	-0.16745618
-1.5993581	р ф	-0.16745618
-0.4333321	ф ю	-0.16745618
-3.173645	# ว	-0.16745618
-0.4333321	ว ิ	-0.16745618
-0.4332605	ิ ล	-0.16745618
-0.4332605	ฮ ล	-0.16745618
-0.7336199	ล เ	-0.16745618
-0.4333321	เ ฮ	-0.16745618
-0.7336199	ล ์	-0.16745618
-0.4333321	์ ม	-0.16745618
-0.4333321	ม ท	-0.16745618
-0.4333321	ท ี	-0.16745618
-0.4333321	ี ่	-0.16745618
-0.7336199	в і	-0.16745618
-2.9956656	e —	-0.16745618
-2.5603929	a —	-0.28165698
-2.8057063	# —	-0.16745618
-2.6432686	n —	-0.16745618
-2.6805866	n ç	-0.16745618
-2.476214	p ú	-0.16745618
-2.255458	l ’	-0.16745618
-1.5983306	р ’	-0.16745618
-1.5993581	р ц	-0.16745618
-3.1651754	# ш	-0.16745618
-0.4332605	ц ш	-0.16745618
-3.1625524	# п	-0.16745618
-1.2740961	а п	-0.16745618
-0.73343223	ш п	-0.16745618
-1.2025805	р н	-0.16745618
-1.1257899	л н	-0.16745618
-0.8229724	е н	-0.28165698
-0.7317801	у н	-0.16745618
-0.43240964	э н	-0.16745618
-2.832573	# đ	-0.16745618
-0.7336199	đ ồ	-0.16745618
-3.173645	# 班	-0.16745618
-0.4333321	班 公	-0.16745618
-0.4333321	公 错	-0.16745618
-3.173645	# प	-0.16745618
-0.9087563	ा ं	-0.16745618
-0.733477	ो ं	-0.16745618
-0.33672285	ं ग	-0.16745618
-0.733477	ग ो	-0.16745618
-0.4332605	स ो	-0.16745618
-3.173645	# त	-0.16745618
-0.73343223	क ्	-0.16745618
-0.43323803	त ्	-0.16745618
-0.90868926	ब ्	-0.16745618
-0.9089703	् स	-0.16745618
-3.173645	# 孫	-0.16745618
-0.4333321	孫 悟	-0.16745618
-0.4333321	悟 飯	-0.16745618
-2.9665146	e &	-0.16745618
-2.6374633	t &	-0.16745618
-1.8311967	6 &	-0.16745618
-2.278429	| &	-0.16745618
-1.9100845	7 &	-0.16745618
-2.5926983	k ü	-0.16745618
-2.684285	t ü	-0.16745618
-2.4677024	m ü	-0.16745618
-2.7849722	# ا	-0.35243505
-0.7317801	س ا	-0.16745618
-0.7317801	د ا	-0.16745618
-1.0299886	ج ا	-0.16745618
-0.90621823	ت ا	-0.16745618
-1.129341	ا ل	-0.16745618
-0.733477	ل س	-0.16745618
-0.733477	د س	-0.16745618
-1.1289858	ا د	-0.16745618
-1.2735004	ی د	-0.16745618
-3.173645	# β	-0.16745618
-0.4332605	β ε	-0.16745618
-0.4332605	γ ε	-0.16745618
-0.33672285	ε ν	-0.16745618
-0.7336199	ν έ	-0.16745618
-0.4333321	έ δ	-0.16745618
-0.4332605	δ ι	-0.16745618
-0.733477	λ ι	-0.16745618
-3.1651754	# κ	-0.16745618
-0.733477	ι κ	-0.16745618
-0.7336199	κ τ	-0.16745618
-0.73343223	ι ο	-0.16745618
-0.73343223	κ ο	-0.16745618
-0.43323803	τ ο	-0.16745618
-0.9087563	ο ς	-0.16745618
-0.4332605	ή ς	-0.16745618
-3.173645	# 베	-0.16745618
-0.4333321	베 네	-0.16745618
-0.4333321	네 딕	-0.16745618
-0.4333321	딕 토	-0.16745618
-2.177207	# б	-0.49239564
-1.4290692	е д	-0.16745618
-3.173645	# പ	-0.16745618
-0.4333321	പ ത	-0.16745618
-0.4332605	ത ി	-0.16745618
-0.4332605	ര ി	-0.16745618
-0.7336199	ി ന	-0.16745618
-0.43323803	ന ാ	-0.16745618
-0.43323803	റ ാ	-0.16745618
-0.43323803	ബ ാ	-0.16745618
-0.9089703	ാ റ	-0.16745618
-0.9089703	ാ മ	-0.16745618
-0.4333321	മ ൻ	-0.16745618
-2.6379445	# ब	-0.16745618
-0.9087563	ब े	-0.16745618
-0.4332605	न े	-0.16745618
-0.7336199	े न	-0.16745618
-0.7336199	े ड	-0.16745618
-0.4332605	ड ि	-0.16745618
-0.5124393	र ि	-0.35243505
-0.9089703	् ट	-0.16745618
-3.1625524	# ப	-0.16745618
-0.90893185	் ப	-0.16745618
-0.33665854	ு ப	-0.35243505
-3.1651754	# த	-0.16745618
-0.9087563	ப த	-0.16745618
-0.7336199	த ி	-0.16745618
-0.4333321	ி ன	-0.16745618
-0.4332605	ன ா	-0.16745618
-0.4332605	ற ா	-0.16745618
-0.7336199	ா ற	-0.16745618
-0.7336199	ா ம	-0.16745618
-0.9087563	ப ்	-0.16745618
-0.4332605	ம ்	-0.16745618
-2.6354604	# ب	-0.28165698
-1.0328846	ي ب	-0.16745618
-1.1247793	ا ی	-0.16745618
-0.90621823	ب ی	-0.16745618
-0.7317801	ن ی	-0.16745618
-0.8768425	ر ی	-0.16745618
-0.43240964	پ ی	-0.16745618
-1.1289858	ا ن	-0.16745618
-1.2735004	ی ن	-0.16745618
-1.2739961	ی ڈ	-0.16745618
-0.4333321	ڈ ک	-0.16745618
-0.4333321	ک ٹ	-0.16745618
-2.9147606	o à	-0.16745618
-2.99323	i ể	-0.16745618
-0.7336199	đ ứ	-0.16745618
-2.2661028	' ج	-0.16745618
-3.1167552	# ج	-0.16745618
-1.7876713	> ج	-0.16745618
-1.2708431	ر ج	-0.16745618
-0.73343223	ل م	-0.16745618
-1.0330374	ج م	-0.16745618
-1.2735858	ر م	-0.16745618
-0.9089703	م ه	-0.16745618
-0.9087563	ب و	-0.16745618
-0.4332605	ه و	-0.16745618
-3.00273	# ر	-0.16745618
-1.1207227	ا ر	-0.16745618
-1.2620178	ی ر	-0.16745618
-0.9037612	م ر	-0.16745618
-0.7301343	و ر	-0.16745618
-0.4315828	ز ر	-0.16745618
-0.4315828	ئ ر	-0.16745618
-0.7326054	ن ي	-0.16745618
-0.63640505	ج ي	-0.35243505
-1.2708431	ر ي	-0.16745618
-0.907452	ت ي	-0.16745618
-1.0331694	ي ة	-0.16745618
-3.1651754	# ت	-0.16745618
-0.733477	و ت	-0.16745618
-2.5176911	b ū	-0.16745618
-2.4299476	h ū	-0.16745618
-2.6856256	t ī	-0.16745618
-1.6626385	j ī	-0.35243505
-2.1755266	1 °	-0.16745618
-2.0417402	3 °	-0.16745618
-2.2182856	0 ′	-0.16745618
-1.8483657	6 ′	-0.16745618
-1.8720233	: @	-0.16745618
-2.476214	p æ	-0.16745618
-2.4299476	h ô	-0.16745618
-2.3633597	c ô	-0.16745618
-2.7220428	r è	-0.16745618
-2.987868	i è	-0.16745618
-2.7276156	r ė	-0.16745618
-1.129221	г ы	-0.16745618
-1.2739693	н ы	-0.16745618
-3.173645	# ব	-0.16745618
-0.4333321	ব ্	-0.16745618
-0.4332605	্ য	-0.16745618
-0.4332605	ি য	-0.16745618
-0.733477	য া	-0.16745618
-0.4332605	় া	-0.16745618
-0.33672285	া র	-0.16745618
-0.7336199	র ি	-0.16745618
-0.7336199	য ়	-0.16745618
-3.173645	# ބ	-0.16745618
-0.4333321	ބ ެ	-0.16745618
-0.4332605	ެ ރ	-0.16745618
-0.4332605	ަ ރ	-0.16745618
-0.7336199	ރ ި	-0.16745618
-0.4333321	ި އ	-0.16745618
-0.4333321	އ ަ	-0.16745618
-0.9089703	ο ρ	-0.16745618
-0.4333321	ρ α	-0.16745618
-0.4332605	α λ	-0.16745618
-0.733477	λ λ	-0.16745618
-0.9089703	ο γ	-0.16745618
-0.7336199	ν ή	-0.16745618
-0.9089703	ب ز	-0.16745618
-1.2742102	ر گ	-0.16745618
-1.2739961	ה מ	-0.16745618
-0.9089703	ब ै	-0.16745618
-0.90868926	ा र	-0.16745618
-0.43323803	ै र	-0.16745618
-0.73343223	य र	-0.16745618
-0.9087563	् य	-0.16745618
-0.733477	ि य	-0.16745618
-3.173645	# ბ	-0.16745618
-0.4333321	ბ ა	-0.16745618
-0.4332605	ა რ	-0.16745618
-0.4332605	ე რ	-0.16745618
-0.733477	რ ი	-0.16745618
-0.4332605	ლ ი	-0.16745618
-0.7336199	ი ე	-0.16745618
-0.7336199	რ უ	-0.16745618
-0.4333321	უ ლ	-0.16745618
-3.173645	# ബ	-0.16745618
-0.9089703	ാ ര	-0.16745618
-0.7336199	ി യ	-0.16745618
-0.4333321	യ ർ	-0.16745618
-0.7336199	ш ү	-0.16745618
-1.5993581	р э	-0.16745618
-2.7276156	r ă	-0.16745618
-1.1289858	и й	-0.16745618
-0.9087563	ы й	-0.16745618
-3.173645	# х	-0.16745618
-0.7336199	த ட	-0.16745618
-0.9087563	ப ு	-0.16745618
-0.4332605	ட ு	-0.16745618
-2.2852778	' є	-0.16745618
-1.2739961	ی ئ	-0.16745618
-1.2739961	ی خ	-0.16745618
-3.173645	# پ	-0.16745618
-1.2739961	ی ش	-0.16745618

\3-grams:
-2.388512	' ' </s>	0
-1.502274	r s </s>	0
-2.3835511	d e </s>	0
-2.4000528	e a </s>	0
-2.3938727	o a </s>	0
-2.4665396	t a </s>	0
-2.049718	s o </s>	0
-1.9359009	k o </s>	0
-2.16898	b i </s>	0
-2.3929722	a i </s>	0
-1.5707425	c t </s>	0
-2.585071	a n </s>	0
-2.2120051	e z </s>	0
-1.3310807	a . </s>	0
-1.4265804	o . </s>	0
-1.5745081	i . </s>	0
-1.3662478	l m </s>	0
-1.9884583	n g </s>	0
-0.74957484	' , </s>	0
-1.4369777	o , </s>	0
-1.6974396	c h </s>	0
-0.39017618	n ý </s>	0
-0.24102408	ẹ ̀ </s>	0
-0.24102408	đ ồ </s>	0
-0.022774924	<s> ' '	-0.8282736
-0.5936711	' ' '	-0.3716279
-0.11887168	b ' '	-0.15852943
-0.09008565	r ' '	-0.21521369
-0.11887168	u ' '	-0.15852943
-0.042711195	s ' '	-0.24274251
-0.036346342	e ' '	-0.27312854
-0.32474628	l ' '	-0.15852943
-0.0130395135	a ' '	-0.54982764
-0.051781654	k ' '	-0.24505393
-0.036346342	o ' '	-0.26804954
-0.010743463	# ' '	-0.46145803
-0.051781654	i ' '	-0.22506121
-0.06575277	t ' '	-0.23513724
-0.09008565	n ' '	-0.21869642
-0.19832166	z ' '	-0.15852943
-0.19832166	] ' '	-0.15852943
-0.19832166	p ' '	-0.15852943
-0.19832166	. ' '	-0.15852943
-0.19832166	f ' '	-0.15852943
-0.11887168	m ' '	-0.15852943
-0.19832166	g ' '	-0.15852943
-0.06575277	h ' '	-0.21521369
-0.19832166	x ' '	-0.15852943
-0.11887168	y ' '	-0.28042305
-0.19832166	" ' '	-0.15852943
-0.11887168	: ' '	-0.15852943
-0.32474628	( ' '	-0.15852943
-0.11887168	) ' '	-0.15852943
-0.19832166	? ' '	-0.15852943
-0.19832166	4 ' '	-0.15852943
-0.11887168	> ' '	-0.15852943
-0.19832166	+ ' '	-0.15852943
-0.19832166	— ' '	-0.15852943
-0.19832166	ي ' '	-0.15852943
-0.19832166	ī ' '	-0.15852943
-1.7935336	e b '	-0.15852943
-0.48431116	d b '	-0.15852943
-2.3884127	e r '	-0.15852943
-2.4707744	a r '	-0.15852943
-1.9187763	o r '	-0.28042305
-2.0156877	r u '	-0.15852943
-2.1249719	a u '	-0.15852943
-1.2729636	e s '	-0.48585093
-1.6330469	a s '	-0.28042305
-1.1543055	i s '	-0.48585093
-0.747582	g s '	-0.15852943
-0.9167181	y s '	-0.15852943
-0.470065	è s '	-0.15852943
-1.95328	u e '	-0.15852943
-2.1454601	l e '	-0.15852943
-1.6265397	a e '	-0.15852943
-2.0373707	i e '	-0.15852943
-2.25624	t e '	-0.15852943
-1.5838355	d e '	-0.26400217
-1.4008657	v e '	-0.15852943
-1.7510955	# l '	-0.28042305
-2.1726184	i l '	-0.15852943
-1.9318835	b a '	-0.15852943
-1.8302072	r a '	-0.28042305
-1.5795299	u a '	-0.28042305
-1.8216858	s a '	-0.15852943
-1.741839	e a '	-0.28042305
-1.7675023	l a '	-0.28042305
-1.5903519	k a '	-0.26400217
-2.003203	o a '	-0.15852943
-1.8579173	i a '	-0.28042305
-1.7898867	t a '	-0.28042305
-1.6820565	n a '	-0.28042305
-1.8220581	d a '	-0.15852943
-1.8113425	z a '	-0.15852943
-1.336193	. a '	-0.15852943
-1.6467601	m a '	-0.28042305
-1.8467057	g a '	-0.15852943
-1.7202055	h a '	-0.15852943
-1.1380274	ñ a '	-0.15852943
-1.3766941	v a '	-0.15852943
-1.5657954	r k '	-0.15852943
-2.1283145	e k '	-0.15852943
-1.294443	a k '	-0.631979
-1.8254613	o k '	-0.15852943
-1.0866058	c k '	-0.15852943
-1.8408512	s o '	-0.15852943
-1.5492713	l o '	-0.28042305
-2.1343694	k o '	-0.15852943
-1.6889992	i o '	-0.28042305
-1.8535942	d o '	-0.15852943
-1.569392	f o '	-0.15852943
-1.853573	m o '	-0.15852943
-1.4162922	' # '	-0.15852943
-1.557226	r # '	-0.28042305
-1.9477608	u # '	-0.15852943
-1.7099705	s # '	-0.15852943
-1.7423679	e # '	-0.26400217
-1.2832568	l # '	-0.26400217
-1.4571638	a # '	-0.8282736
-1.8572135	k # '	-0.15852943
-1.9207958	o # '	-0.28042305
-1.6029702	i # '	-0.38894093
-1.6276662	t # '	-0.15852943
-1.666086	n # '	-0.26400217
-1.4507501	d # '	-0.15852943
-1.616995	z # '	-0.28042305
-1.3223768	. # '	-0.74112344
-1.1167154	f # '	-0.15852943
-1.2519222	, # '	-0.86606216
-1.0251905	" # '	-0.28042305
-1.054863	: # '	-0.5650322
-0.73735416	6 # '	-0.15852943
-1.7762948	) # '	-0.15852943
-0.9864096	; # '	-0.26400217
-0.46463653	飯 # '	-0.15852943
-2.2642713	r i '	-0.15852943
-2.1818273	t i '	-0.15852943
-2.04633	n i '	-0.15852943
-2.1390047	d i '	-0.15852943
-1.2858081	v i '	-0.28042305
-1.8270892	r t '	-0.15852943
-1.5175449	e t '	-0.26400217
-1.549434	p t '	-0.15852943
-1.4584742	c t '	-0.15852943
-1.8474879	e n '	-0.26400217
-2.0589058	a n '	-0.28042305
-2.2485745	o n '	-0.15852943
-1.5942459	# d '	-0.28042305
-2.0279577	t z '	-0.15852943
-1.4129118	] ] '	-0.38894093
-1.5728029	e p '	-0.15852943
-0.48651582	y . '	-0.15852943
-1.1963416	e f '	-0.28042305
-1.0443133	u m '	-0.26400217
-1.8625239	o m '	-0.15852943
-1.4993556	n g '	-0.28042305
-1.5766121	e h '	-0.15852943
-1.4705893	a h '	-0.15852943
-1.332905	k h '	-0.15852943
-1.2128904	i h '	-0.15852943
-1.2784065	x x '	-0.15852943
-0.462712	u y '	-0.15852943
-0.462712	w y '	-0.15852943
-0.47766122	s " '	-0.15852943
-1.5614715	a : '	-0.15852943
-0.4606096	# : '	-0.15852943
-0.99100435	# ( '	-0.6330772
-1.6824361	a ) '	-0.15852943
-1.1180872	n ) '	-0.15852943
-0.43118206	a ? '	-0.15852943
-0.9391981	0 4 '	-0.15852943
-0.7119137	p > '	-0.15852943
-1.0580975	/ > '	-0.15852943
-0.34298226	| + '	-0.15852943
-1.1040148	а р '	-0.15852943
-0.99975514	# — '	-0.15852943
-0.40739685	ت ي '	-0.15852943
-0.5981342	t ī '	-0.15852943
-1.5964547	' ' b	-0.23558336
-0.7632388	( ' b	-0.15852943
-2.0014257	a b b	-0.15852943
-1.5599251	n b b	-0.15852943
-1.5793742	u r b	-0.15852943
-1.5561804	e r b	-0.20326953
-1.9083595	a r b	-0.15852943
-2.231702	o r b	-0.15852943
-1.7726783	s u b	-0.15852943
-1.6660225	l u b	-0.15852943
-1.8649994	k u b	-0.15852943
-1.7340493	t u b	-0.15852943
-0.688196	p u b	-0.38894093
-1.5730994	m u b	-0.15852943
-2.1509485	e s b	-0.15852943
-2.0851924	i s b	-0.15852943
-1.5976576	n s b	-0.15852943
-1.6474788	r e b	-0.15852943
-2.0062373	l e b	-0.15852943
-0.9249381	a e b	-0.15852943
-1.857807	k e b	-0.15852943
-1.7146432	# e b	-0.21869642
-1.926668	i e b	-0.15852943
-1.8545424	t e b	-0.15852943
-1.8918253	n e b	-0.15852943
-1.973048	d e b	-0.15852943
-1.826743	g e b	-0.15852943
-1.3566512	x e b	-0.15852943
-0.6820712	w e b	-0.15852943
-2.1541936	e l b	-0.15852943
-1.6247752	a l b	-0.20807175
-1.7493616	i l b	-0.15852943
-1.3981183	' a b	-0.15852943
-1.9194498	b a b	-0.15852943
-1.5541083	r a b	-0.30526572
-1.3860065	s a b	-0.21521369
-1.4736611	l a b	-0.23545584
-1.7481985	k a b	-0.15852943
-1.2417011	# a b	-0.3870028
-2.0932531	i a b	-0.15852943
-1.629419	t a b	-0.15852943
-1.6729096	n a b	-0.15852943
-1.8088168	d a b	-0.15852943
-1.2480406	z a b	-0.38894093
-1.7191	p a b	-0.15852943
-1.0537775	f a b	-0.15852943
-1.8889732	m a b	-0.15852943
-1.1175877	g a b	-0.33204722
-1.0600982	j a b	-0.23588103
-1.3280764	x a b	-0.15852943
-1.2597708	| a b	-0.15852943
-1.0606588	( a b	-0.15852943
-0.7340454	' o b	-0.15852943
-1.3638476	r o b	-0.2531536
-1.6848196	s o b	-0.15852943
-1.7339479	l o b	-0.15852943
-1.4132509	# o b	-0.20326953
-1.8955897	t o b	-0.15852943
-1.3994229	n o b	-0.15852943
-1.7052101	d o b	-0.15852943
-1.4908812	g o b	-0.28042305
-1.5344104	h o b	-0.15852943
-1.2966715	x o b	-0.15852943
-0.46286762	" o b	-0.15852943
-0.46286762	’ o b	-0.15852943
-1.2683611	' # b	-0.15852943
-1.1122316	r # b	-0.34157488
-1.0345218	u # b	-0.423703
-1.0280778	s # b	-0.31666082
-1.1392118	e # b	-0.5161191
-1.0919112	l # b	-0.28042305
-1.2268958	a # b	-0.7032861
-1.2405685	k # b	-0.34318343
-1.1677326	o # b	-0.49711248
-1.0280285	i # b	-0.6224015
-0.9104304	t # b	-0.24727377
-1.3909838	n # b	-0.38316914
-0.829291	d # b	-0.15852943
-1.1696801	z # b	-0.34755647
-1.0119103	1 # b	-0.15852943
-1.2077487	. # b	-0.5176838
-1.036236	f # b	-0.15852943
-1.0844041	m # b	-0.15852943
-1.009237	g # b	-0.15852943
-1.3004721	, # b	-0.54235464
-1.2280085	h # b	-0.15852943
-0.66756076	c # b	-0.15852943
-0.9811324	" # b	-0.15852943
-1.1933529	: # b	-0.15852943
-0.7019259	( # b	-0.15852943
-1.0500344	) # b	-0.21869642
-0.7019259	= # b	-0.15852943
-0.44537026	% # b	-0.15852943
-0.44537026	с # b	-0.15852943
-0.9257064	т # b	-0.15852943
-0.7019259	а # b	-0.15852943
-0.44537026	ה # b	-0.15852943
-0.23576994	ς # b	-0.15852943
-0.44537026	토 # b	-0.15852943
-0.44537026	ट # b	-0.15852943
-0.7019259	் # b	-0.15852943
-0.44537026	ٹ # b	-0.15852943
-0.44537026	ي # b	-0.15852943
-0.44537026	گ # b	-0.15852943
-1.8434647	b i b	-0.15852943
-1.6128783	r i b	-0.23588103
-1.2187916	u i b	-0.15852943
-1.8370396	s i b	-0.15852943
-1.1699765	l i b	-0.20326953
-1.3308359	# i b	-0.28628975
-1.6841495	t i b	-0.21521369
-1.543126	n i b	-0.28042305
-1.6371133	d i b	-0.23588103
-1.8628231	z i b	-0.15852943
-1.4748416	g i b	-0.28042305
-0.9981927	j i b	-0.15852943
-0.8959258	( i b	-0.15852943
-1.5515192	c t b	-0.15852943
-1.9069072	u n b	-0.15852943
-1.6289665	e n b	-0.19548538
-1.7714474	a n b	-0.15852943
-2.008593	o n b	-0.15852943
-1.6670197	i n b	-0.23588103
-0.89116776	( n b	-0.15852943
-0.46625853	& n b	-0.15852943
-0.48802763	m d b	-0.15852943
-2.110888	e z b	-0.15852943
-2.1439803	i z b	-0.15852943
-1.6817794	u m b	-0.15852943
-1.3951156	e m b	-0.15852943
-1.8173229	o m b	-0.15852943
-1.5856664	u g b	-0.15852943
-0.48278022	# , b	-0.15852943
-0.4720248	s é b	-0.15852943
-0.97193587	# " b	-0.21521369
-0.4751758	b 0 b	-0.15852943
-1.1772572	# 0 b	-0.15852943
-0.97743577	r - b	-0.15852943
-0.8576294	s - b	-0.15852943
-1.2214242	e - b	-0.15852943
-1.2132959	a - b	-0.15852943
-0.8275745	i - b	-0.23588103
-0.97743577	n - b	-0.15852943
-0.42164397	f - b	-0.15852943
-0.6599918	h - b	-0.15852943
-0.42164397	c - b	-0.15852943
-0.479179	b 3 b	-0.15852943
-1.1628096	b | b	-0.15852943
-1.4583223	a | b	-0.15852943
-1.1029562	k | b	-0.15852943
-1.604388	# | b	-0.15852943
-1.1356037	x | b	-0.15852943
-1.5192744	# ( b	-0.15852943
-1.4975101	[ [ b	-0.28042305
-0.9801184	o _ b	-0.15852943
-0.99826103	t _ b	-0.15852943
-0.97517216	k / b	-0.15852943
-1.1011581	/ / b	-0.15852943
-1.4127569	< / b	-0.15852943
-0.5737071	' < b	-0.15852943
-0.3186116	r < b	-0.15852943
-0.3186116	e < b	-0.15852943
-0.29696065	a < b	-0.26400217
-0.91735077	] < b	-0.15852943
-0.3186116	x < b	-0.15852943
-0.8742547	) < b	-0.15852943
-0.49459222	> < b	-0.15852943
-1.3304346	f > b	-0.15852943
-0.59978604	{ { b	-0.15852943
-0.23795597	p ú b	-0.15852943
-0.38666746	t ü b	-0.15852943
-0.21079056	j ī b	-0.28042305
-1.6226641	' ' r	-0.21869642
-1.05557	' b r	-0.15852943
-1.1655697	e b r	-0.15852943
-1.620135	a b r	-0.15852943
-1.0964938	o b r	-0.15852943
-1.0489475	# b r	-0.41781223
-0.98457235	i b r	-0.26400217
-0.9549788	| b r	-0.15852943
-0.81365895	( b r	-0.15852943
-0.81365895	/ b r	-0.15852943
-0.05616929	< b r	-0.6899709
-1.0153474	u r r	-0.4826739
-0.9308346	e r r	-0.7320359
-0.9368603	a r r	-0.8645737
-0.96288383	o r r	-0.48339397
-1.9941791	i r r	-0.15852943
-0.40271956	b u r	-0.29787764
-1.4563065	r u r	-0.15852943
-1.1990664	s u r	-0.15852943
-0.74841416	e u r	-0.20063876
-0.71288085	l u r	-0.2852171
-0.7543557	a u r	-0.23553087
-0.9468864	k u r	-0.22395095
-0.8654407	o u r	-0.15852943
-0.63318366	# u r	-0.41339922
-0.6395275	i u r	-0.15852943
-0.9287605	t u r	-0.39942184
-1.2149236	n u r	-0.15852943
-0.9972017	d u r	-0.3330105
-0.8488747	z u r	-0.23588103
-0.7899972	p u r	-0.21521369
-1.2464532	m u r	-0.15852943
-0.9245808	g u r	-0.27621374
-0.6844316	h u r	-0.21521369
-0.8654407	j u r	-0.28042305
-0.7414546	x u r	-0.15852943
-0.42335513	" u r	-0.15852943
-0.16635188	_ u r	-0.26400217
-2.1195729	i s r	-0.15852943
-1.6202779	n s r	-0.15852943
-0.9996834	' e r	-0.15852943
-0.6515618	b e r	-0.31117657
-1.4936757	r e r	-0.2531536
-1.0600797	u e r	-0.20326953
-0.8746971	s e r	-0.22075342
-1.4970788	e e r	-0.15852943
-0.94344825	l e r	-0.2741631
-0.51834226	a e r	-0.5650322
-0.95508635	k e r	-0.2363799
-0.9540612	o e r	-0.26400217
-0.9900215	# e r	-0.60279626
-0.7235071	i e r	-0.44777545
-0.93422943	t e r	-0.34451145
-0.99577016	n e r	-0.32197124
-1.0642389	d e r	-0.25478688
-0.96401274	z e r	-0.21769854
-0.86221623	p e r	-0.21286893
-0.4844945	f e r	-0.20326953
-1.225279	m e r	-0.19000952
-0.7759173	g e r	-0.26290256
-0.7162676	h e r	-0.20835117
-0.690034	j e r	-0.15852943
-1.1552832	x e r	-0.15852943
-1.1844261	w e r	-0.15852943
-1.0200144	- e r	-0.23588103
-1.2248368	| e r	-0.15852943
-1.0846097	( e r	-0.15852943
-0.6337698	v e r	-0.15852943
-0.8971033	[ e r	-0.15852943
-0.43569615	_ e r	-0.15852943
-0.43569615	{ e r	-0.15852943
-0.43569615	ý e r	-0.15852943
-0.98815006	' a r	-0.23588103
-0.89259505	b a r	-0.30972603
-1.330503	r a r	-0.27621374
-0.8922303	u a r	-0.46953905
-1.0222917	s a r	-0.22798544
-0.9924148	e a r	-0.39478767
-0.9995674	l a r	-0.35213125
-0.89648867	k a r	-0.41499844
-0.90484095	o a r	-0.47143203
-1.0110719	# a r	-0.5779459
-0.9654462	i a r	-0.6136181
-0.9259821	t a r	-0.39492065
-1.1816274	n a r	-0.3533327
-0.98094946	d a r	-0.2842388
-1.0242416	z a r	-0.3017243
-0.9903132	] a r	-0.15852943
-0.7418138	p a r	-0.25435647
-1.2182122	. a r	-0.15852943
-0.81309175	f a r	-0.21521369
-0.8922888	m a r	-0.2884797
-0.77688867	g a r	-0.3197767
-0.81486225	h a r	-0.26915702
-0.64966255	c a r	-0.21869642
-1.4421492	j a r	-0.15852943
-0.89798486	x a r	-0.21521369
-0.509287	w a r	-0.15852943
-0.65894943	- a r	-0.20326953
-1.1680205	| a r	-0.15852943
-0.7028106	5 a r	-0.15852943
-0.7216526	v a r	-0.21521369
-1.0758606	[ a r	-0.15852943
-0.4458601	_ a r	-0.15852943
-0.7028106	= a r	-0.15852943
-1.0928762	' k r	-0.15852943
-1.536577	u k r	-0.15852943
-1.470732	s k r	-0.15852943
-1.9572884	e k r	-0.15852943
-1.6392964	a k r	-0.23588103
-1.6700008	o k r	-0.15852943
-1.0888752	# k r	-0.4258053
-1.6046014	i k r	-0.28042305
-1.410852	n k r	-0.15852943
-0.7766632	b o r	-0.22798544
-1.3816723	r o r	-0.23513724
-1.0181372	s o r	-0.21869642
-0.96796805	e o r	-0.15852943
-0.69760835	l o r	-0.26783675
-0.91394097	k o r	-0.33900884
-0.8851236	o o r	-0.15852943
-0.8098453	# o r	-0.4615502
-1.3306394	i o r	-0.21521369
-0.90853405	t o r	-0.27235264
-1.009193	n o r	-0.19548538
-1.0211844	d o r	-0.24971405
-0.89599586	z o r	-0.15852943
-0.63094944	p o r	-0.30526572
-0.23013283	. o r	-0.28042305
-0.699073	f o r	-0.21869642
-1.0166548	m o r	-0.23588103
-1.0118352	g o r	-0.20664875
-0.95083946	h o r	-0.19000952
-1.1005771	c o r	-0.23588103
-1.2241365	j o r	-0.15852943
-1.1364626	x o r	-0.15852943
-0.28297842	w o r	-0.26400217
-0.28297842	- o r	-0.15852943
-0.43151832	| o r	-0.15852943
-0.8376966	_ o r	-0.15852943
-2.0880384	u # r	-0.15852943
-1.5475206	s # r	-0.15852943
-1.9766152	e # r	-0.15852943
-1.8321259	l # r	-0.15852943
-1.929729	a # r	-0.20326953
-2.0092962	k # r	-0.15852943
-2.0159209	o # r	-0.15852943
-1.7565311	t # r	-0.15852943
-2.1316695	n # r	-0.15852943
-1.9938295	z # r	-0.15852943
-2.028016	. # r	-0.15852943
-1.7734172	, # r	-0.21521369
-1.4279335	h # r	-0.15852943
-0.7589224	र # r	-0.15852943
-1.164214	b i r	-0.19548538
-1.5296007	r i r	-0.15852943
-1.676163	s i r	-0.15852943
-1.1757044	e i r	-0.23588103
-1.7087009	l i r	-0.15852943
-1.0244615	a i r	-0.34157488
-1.504793	k i r	-0.15852943
-1.5535302	o i r	-0.15852943
-1.0335997	# i r	-0.54235464
-1.1457025	t i r	-0.36482444
-1.0859778	d i r	-0.3734399
-1.2247169	z i r	-0.20807175
-0.8267274	p i r	-0.24971405
-1.4805315	f i r	-0.15852943
-1.3495412	m i r	-0.21521369
-1.3829191	g i r	-0.15852943
-0.9114005	h i r	-0.37465277
-1.2360662	x i r	-0.15852943
-1.0248988	| i r	-0.15852943
-0.8477401	( i r	-0.15852943
-1.4099234	v i r	-0.15852943
-0.5214462	_ i r	-0.28042305
-0.9264486	' t r	-0.15852943
-0.9226751	s t r	-0.3446003
-1.818603	e t r	-0.15852943
-1.3432763	l t r	-0.15852943
-1.7045563	a t r	-0.15852943
-1.029267	k t r	-0.23588103
-1.5123122	o t r	-0.28042305
-0.9511598	# t r	-0.45607558
-1.2276876	t t r	-0.15852943
-1.190229	n t r	-0.23588103
-1.2293394	c t r	-0.15852943
-1.0401458	- t r	-0.15852943
-2.4391894	e n r	-0.15852943
-0.48562592	c n r	-0.15852943
-1.4288845	u d r	-0.15852943
-1.5337443	e d r	-0.15852943
-1.458778	a d r	-0.28042305
-1.3743911	i d r	-0.23588103
-1.0972227	n d r	-0.20807175
-0.7004149	é d r	-0.15852943
-0.98568076	| d r	-0.15852943
-0.9231799	[ d r	-0.15852943
-1.1210097	] ] r	-0.37465277
-1.037141	r p r	-0.15852943
-0.89009964	u p r	-0.15852943
-1.2429048	s p r	-0.15852943
-1.3944186	a p r	-0.15852943
-1.2697184	o p r	-0.15852943
-0.69701403	# p r	-0.5792726
-1.2593713	i p r	-0.15852943
-1.1341805	n p r	-0.15852943
-0.7693134	m p r	-0.15852943
-0.6508832	" p r	-0.15852943
-0.64614433	- p r	-0.15852943
-0.4810269	| p r	-0.28042305
-0.93370295	5 1 r	-0.15852943
-0.63376397	' f r	-0.15852943
-0.85402524	a f r	-0.28042305
-1.234812	o f r	-0.15852943
-0.5553062	# f r	-0.58454907
-0.63376397	- f r	-0.15852943
-0.472512	| f r	-0.23588103
-0.40630132	( f r	-0.15852943
-0.63376397	[ f r	-0.15852943
-0.40630132	? f r	-0.15852943
-1.4294605	a m r	-0.28042305
-0.77247816	k m r	-0.15852943
-1.4006338	r g r	-0.15852943
-1.7614119	e g r	-0.15852943
-1.658443	a g r	-0.15852943
-0.61615694	o g r	-0.36482444
-1.1373031	# g r	-0.3633639
-1.4805568	i g r	-0.15852943
-1.5460428	n g r	-0.15852943
-1.4882021	t h r	-0.15852943
-1.6318567	c h r	-0.15852943
-0.3418961	n ó r	-0.15852943
-0.3418961	h ó r	-0.15852943
-0.3418961	c ó r	-0.15852943
-1.2680093	o c r	-0.15852943
-0.93752956	# c r	-0.21869642
-0.91388845	[ c r	-0.15852943
-0.23723722	e ŭ r	-0.15852943
-0.39975333	i é r	-0.15852943
-0.8003152	t é r	-0.15852943
-0.88106793	d é r	-0.15852943
-0.6227654	p é r	-0.15852943
-0.9803878	e y r	-0.15852943
-0.462712	p y r	-0.15852943
-1.1516641	t : r	-0.15852943
-1.0623292	r - r	-0.15852943
-0.9294206	s - r	-0.15852943
-1.3524435	a - r	-0.15852943
-0.8407074	d - r	-0.15852943
-0.70414066	g - r	-0.15852943
-0.70414066	h - r	-0.15852943
-1.3117539	b | r	-0.15852943
-1.2393789	g | r	-0.15852943
-1.1317971	e v r	-0.15852943
-1.4916306	[ [ r	-0.15852943
-1.0249958	o _ r	-0.15852943
-0.87526774	e / r	-0.15852943
-0.7291019	y / r	-0.15852943
-0.2585094	< / r	-0.631979
-0.29692078	u < r	-0.15852943
-0.710916	a < r	-0.15852943
-0.29692078	k < r	-0.15852943
-0.29692078	o < r	-0.15852943
-0.16971707	n < r	-0.28042305
-0.29692078	z < r	-0.15852943
-0.5521352	. < r	-0.26400217
-0.29692078	5 < r	-0.15852943
-0.58474946	) < r	-0.28042305
-1.0065603	l > r	-0.15852943
-0.34298226	h ū r	-0.15852943
-0.34298226	i è r	-0.15852943
-1.081123	' b u	-0.15852943
-1.3094774	r b u	-0.15852943
-0.9159983	s b u	-0.15852943
-1.4266813	e b u	-0.15852943
-0.7810658	l b u	-0.15852943
-0.9801965	a b u	-0.23588103
-1.0526636	# b u	-0.3649039
-0.9957053	i b u	-0.23588103
-0.97865874	n b u	-0.28042305
-0.4431858	<s> r u	-0.15852943
-1.0379401	b r u	-0.15852943
-0.9513887	r r u	-0.20326953
-1.313016	u r u	-0.21977271
-1.7575482	e r u	-0.15852943
-1.9807994	a r u	-0.15852943
-1.3014182	k r u	-0.15852943
-1.4247377	o r u	-0.20326953
-1.2690384	# r u	-0.15852943
-0.91790235	i r u	-0.265774
-1.2178859	t r u	-0.15852943
-0.9014363	p r u	-0.23588103
-1.4243077	f r u	-0.15852943
-1.0762069	- r u	-0.15852943
-1.7343991	b u u	-0.15852943
-0.93687624	' s u	-0.15852943
-1.0416795	u s u	-0.21521369
-1.2772326	s s u	-0.15852943
-1.4277084	e s u	-0.20326953
-1.2499101	a s u	-0.18757184
-0.9599215	# s u	-0.3314788
-1.7247095	i s u	-0.15852943
-0.6881243	t s u	-0.30412632
-0.8467759	( s u	-0.15852943
-1.092927	/ s u	-0.15852943
-0.70856345	< s u	-0.15852943
-1.1714646	' e u	-0.15852943
-1.7634112	l e u	-0.15852943
-1.0955178	# e u	-0.64176446
-1.9400396	n e u	-0.15852943
-1.7376189	d e u	-0.28042305
-1.849083	z e u	-0.15852943
-1.555641	- e u	-0.15852943
-0.76189214	| e u	-0.26400217
-1.3044662	( e u	-0.15852943
-1.0266744	[ e u	-0.15852943
-0.8802098	' l u	-0.15852943
-1.1223294	u l u	-0.2531536
-1.1601522	e l u	-0.20326953
-1.8294433	a l u	-0.15852943
-1.363794	o l u	-0.15852943
-0.6639427	# l u	-0.7445984
-1.1509757	i l u	-0.21869642
-0.94779485	n l u	-0.15852943
-1.1468316	p l u	-0.15852943
-1.0309194	g l u	-0.15852943
-0.67418	h l u	-0.15852943
-1.1010842	| l u	-0.15852943
-0.49389595	( l u	-0.28042305
-0.67418	[ l u	-0.15852943
-1.398541	' a u	-0.15852943
-1.9200076	b a u	-0.15852943
-1.5543318	r a u	-0.21521369
-1.55475	s a u	-0.15852943
-1.9787154	e a u	-0.15852943
-1.4738537	l a u	-0.18032359
-1.748538	k a u	-0.15852943
-1.9909958	o a u	-0.15852943
-1.1335446	# a u	-0.6619422
-1.6296866	t a u	-0.15852943
-1.6733214	n a u	-0.15852943
-1.8094101	d a u	-0.15852943
-1.7988923	z a u	-0.15852943
-1.7196162	p a u	-0.15852943
-1.5524172	g a u	-0.20326953
-1.4300635	h a u	-0.18594742
-0.79284424	j a u	-0.28042305
-1.4609654	- a u	-0.15852943
-1.0608822	( a u	-0.15852943
-1.1634417	[ a u	-0.15852943
-1.0853332	r k u	-0.15852943
-0.9140254	s k u	-0.1828141
-1.5133013	e k u	-0.19000952
-0.9410001	l k u	-0.21521369
-1.6238161	a k u	-0.20853749
-1.1882616	o k u	-0.15852943
-1.0844785	# k u	-0.32197124
-1.1977036	i k u	-0.21714507
-1.3881712	n k u	-0.15852943
-0.8439158	z k u	-0.21521369
-1.3253207	b o u	-0.15852943
-0.91623753	a o u	-0.15852943
-1.9948683	i o u	-0.15852943
-1.2628067	n o u	-0.15852943
-1.8890487	g o u	-0.15852943
-1.6398427	c o u	-0.15852943
-1.4582992	j o u	-0.15852943
-0.47551376	y o u	-0.15852943
-1.4667048	' # u	-0.15852943
-1.8536075	r # u	-0.15852943
-1.5847489	u # u	-0.26400217
-1.7697372	s # u	-0.15852943
-1.5269784	e # u	-0.23588103
-1.7572744	l # u	-0.15852943
-1.4297358	a # u	-0.35616937
-1.5478517	k # u	-0.20063876
-1.5873631	o # u	-0.28628975
-1.5171725	i # u	-0.21521369
-1.3978199	t # u	-0.20326953
-1.4768187	n # u	-0.23565204
-1.3338575	z # u	-0.21869642
-1.5118431	. # u	-0.2586307
-1.5659776	, # u	-0.3330105
-1.5833528	: # u	-0.15852943
-1.004833	9 # u	-0.15852943
-1.8317022	) # u	-0.15852943
-1.5421929	; # u	-0.15852943
-2.0211756	s i u	-0.15852943
-2.1489897	t i u	-0.15852943
-2.0173814	n i u	-0.15852943
-2.1091247	d i u	-0.15852943
-2.0611873	z i u	-0.15852943
-1.3323889	c i u	-0.15852943
-0.9523652	r t u	-0.2728516
-0.75087833	u t u	-0.43175048
-1.0942813	s t u	-0.22749573
-1.1647658	e t u	-0.20807175
-0.98198265	l t u	-0.15852943
-0.87672186	a t u	-0.59460247
-0.8169185	k t u	-0.20326953
-1.1806513	o t u	-0.20063876
-1.2656502	# t u	-0.23513724
-0.80399173	i t u	-0.42751792
-1.1858017	t t u	-0.15852943
-1.0320599	n t u	-0.25329384
-0.7117539	z t u	-0.23545584
-1.296946	p t u	-0.15852943
-1.1695191	c t u	-0.15852943
-1.0357102	r n u	-0.20326953
-2.194658	e n u	-0.15852943
-1.9549057	a n u	-0.15852943
-1.6371137	o n u	-0.21521369
-1.6857405	i n u	-0.20326953
-0.9030024	h n u	-0.15852943
-0.8844917	r d u	-0.1828141
-0.8746382	u d u	-0.23588103
-0.8688179	e d u	-0.19548538
-0.8381751	l d u	-0.24274251
-1.1281028	a d u	-0.23588103
-0.9914418	o d u	-0.15852943
-0.9648707	# d u	-0.4199157
-1.5688558	i d u	-0.15852943
-0.82228434	n d u	-0.26785064
-0.6779335	z d u	-0.15852943
-0.8133722	' z u	-0.15852943
-1.4689595	u z u	-0.15852943
-1.226775	e z u	-0.21521369
-1.2453644	a z u	-0.29787764
-0.7001959	# z u	-0.5792726
-1.3948562	i z u	-0.15852943
-0.88697	t z u	-0.24136145
-0.5803162	n z u	-0.15852943
-1.0857284	r p u	-0.15852943
-1.2515008	u p u	-0.15852943
-1.2307588	e p u	-0.15852943
-0.9850853	a p u	-0.15852943
-1.0931835	o p u	-0.15852943
-1.2161719	# p u	-0.27330938
-1.3199334	i p u	-0.15852943
-0.67465204	p p u	-0.15852943
-0.67465204	é p u	-0.15852943
-0.43005174	/ p u	-0.15852943
-1.2194829	s . u	-0.15852943
-1.7861315	a . u	-0.15852943
-0.96014726	# f u	-0.47817528
-0.9575208	' m u	-0.15852943
-1.387698	u m u	-0.15852943
-1.499579	e m u	-0.15852943
-1.2840707	a m u	-0.15852943
-1.2546709	o m u	-0.28042305
-0.7676197	# m u	-0.4516728
-1.4570987	i m u	-0.15852943
-1.0256753	m m u	-0.15852943
-0.927214	- m u	-0.15852943
-0.42008758	b g u	-0.15852943
-1.2632873	r g u	-0.15852943
-0.941539	u g u	-0.15852943
-1.0492616	e g u	-0.20326953
-0.5620187	l g u	-0.28042305
-0.96807647	a g u	-0.21521369
-0.74831104	# g u	-0.5110876
-0.69124436	i g u	-0.20807175
-1.3819275	n g u	-0.15852943
-0.42008758	" g u	-0.15852943
-0.7777627	( g u	-0.15852943
-1.387066	e h u	-0.15852943
-0.98837584	a h u	-0.15852943
-1.2030349	# h u	-0.36482444
-1.090169	i h u	-0.15852943
-0.9109983	t h u	-0.15852943
-0.438569	n h u	-0.15852943
-0.68972373	( h u	-0.15852943
-0.68972373	> h u	-0.15852943
-1.4707282	a c u	-0.15852943
-1.0793602	i c u	-0.28042305
-0.75775266	é c u	-0.15852943
-0.80987376	' j u	-0.15852943
-0.62909293	e j u	-0.15852943
-0.8004081	# j u	-0.21869642
-0.62909293	i j u	-0.15852943
-0.84792393	n j u	-0.15852943
-0.74091095	[ j u	-0.15852943
-0.8427863	e x u	-0.21521369
-0.91993195	a x u	-0.15852943
-1.353563	# x u	-0.15852943
-1.2434876	i x u	-0.15852943
-1.1570133	t x u	-0.15852943
-1.5136577	# w u	-0.15852943
-1.607871	# " u	-0.15852943
-1.381881	o - u	-0.15852943
-0.9405481	l | u	-0.15852943
-0.08964287	r q u	-0.15852943
-0.056414146	s q u	-0.15852943
-0.08964287	l q u	-0.15852943
-0.18473677	a q u	-0.15852943
-0.08964287	o q u	-0.15852943
-0.08964287	# q u	-0.15852943
-0.08964287	i q u	-0.15852943
-0.08964287	/ q u	-0.15852943
-0.67175776	a _ u	-0.28042305
-0.95968413	t _ u	-0.15852943
-1.1787735	n _ u	-0.15852943
-0.47106776	r / u	-0.15852943
-1.1463566	/ / u	-0.15852943
-0.6002	l ’ u	-0.15852943
-1.9723693	' ' s	-0.15852943
-1.3456937	u b s	-0.15852943
-1.8868682	a b s	-0.15852943
-1.6133323	o b s	-0.15852943
-1.4843191	n b s	-0.15852943
-1.748611	u r s	-0.15852943
-1.5427755	e r s	-0.15852943
-2.0581632	a r s	-0.15852943
-2.1650448	o r s	-0.15852943
-0.91850394	ó r s	-0.15852943
-1.389583	b u s	-0.15852943
-0.9489785	r u s	-0.21869642
-1.0974977	s u s	-0.21521369
-0.49111983	e u s	-0.38416302
-1.3811147	l u s	-0.15852943
-1.1559522	a u s	-0.21521369
-1.3362789	k u s	-0.18594742
-1.2063195	o u s	-0.15852943
-1.3718345	# u s	-0.23588103
-1.4045514	t u s	-0.23588103
-1.5832207	d u s	-0.15852943
-1.3904412	z u s	-0.15852943
-0.6849088	. u s	-0.15852943
-0.6849088	f u s	-0.15852943
-1.04136	m u s	-0.15852943
-1.2313644	g u s	-0.15852943
-1.2063195	h u s	-0.15852943
-0.8922549	j u s	-0.28042305
-1.4547826	u s s	-0.28042305
-1.7169423	e s s	-0.15852943
-1.3161166	a s s	-0.21521369
-1.7973565	o s s	-0.15852943
-1.4315982	i s s	-0.21521369
-0.44452077	<s> e s	-0.15852943
-0.9285042	b e s	-0.3330105
-1.0031602	r e s	-0.23947369
-1.6644921	u e s	-0.15852943
-1.339241	s e s	-0.15852943
-1.3314661	l e s	-0.15852943
-1.4124011	k e s	-0.15852943
-1.4785478	o e s	-0.15852943
-0.9951339	# e s	-0.6240245
-1.696496	i e s	-0.15852943
-1.1749176	t e s	-0.19825266
-1.0886648	n e s	-0.22395095
-1.4172602	d e s	-0.18594742
-1.3542494	z e s	-0.15852943
-1.5848985	p e s	-0.15852943
-0.92314416	. e s	-0.15852943
-1.6093485	m e s	-0.15852943
-1.1759382	h e s	-0.21521369
-1.2130957	j e s	-0.15852943
-1.1972743	x e s	-0.15852943
-0.85605776	w e s	-0.28042305
-0.44452077	ä e s	-0.15852943
-0.70039356	0 e s	-0.15852943
-0.6845392	- e s	-0.38894093
-0.9194922	| e s	-0.15852943
-1.1253887	( e s	-0.15852943
-0.70039356	= e s	-0.15852943
-1.375081	' a s	-0.15852943
-1.0087762	b a s	-0.25230715
-1.5417733	r a s	-0.22395095
-1.3740523	s a s	-0.19000952
-1.946385	e a s	-0.15852943
-1.3644521	l a s	-0.19548538
-1.1476078	a a s	-0.15852943
-1.3372238	k a s	-0.22798544
-1.959492	o a s	-0.15852943
-1.238825	# a s	-0.47427338
-1.0879891	t a s	-0.44079947
-1.1556966	n a s	-0.19514634
-1.7768259	d a s	-0.15852943
-1.4114441	p a s	-0.21521369
-1.3080744	. a s	-0.15852943
-1.8576453	m a s	-0.15852943
-1.2194364	g a s	-0.23513724
-1.0993571	h a s	-0.20326953
-1.1366335	c a s	-0.15852943
-1.5526024	j a s	-0.15852943
-1.4428389	- a s	-0.15852943
-1.1476078	[ a s	-0.15852943
-2.3971028	a k s	-0.15852943
-2.2054558	i k s	-0.15852943
-0.7153964	' o s	-0.15852943
-1.2344673	b o s	-0.23588103
-1.3341489	r o s	-0.15852943
-1.6015576	s o s	-0.15852943
-1.3492427	e o s	-0.15852943
-1.4202427	l o s	-0.15852943
-1.6691606	k o s	-0.15852943
-0.85531735	# o s	-0.49964213
-1.5514185	i o s	-0.15852943
-1.8094164	t o s	-0.15852943
-1.0629416	d o s	-0.23513724
-1.0030869	p o s	-0.21521369
-1.3884443	f o s	-0.15852943
-0.95020044	m o s	-0.19548538
-1.46048	h o s	-0.15852943
-0.7611673	j o s	-0.26400217
-0.45278013	= o s	-0.15852943
-1.3637846	' # s	-0.15852943
-0.966481	b # s	-0.15852943
-1.3707658	r # s	-0.23588103
-1.4075791	u # s	-0.23588103
-1.648984	s # s	-0.15852943
-1.1964115	e # s	-0.24132463
-1.6401123	l # s	-0.15852943
-1.4457551	a # s	-0.4789029
-1.3711166	k # s	-0.27049622
-1.8757542	o # s	-0.22395095
-1.3405318	i # s	-0.38416302
-1.3349848	t # s	-0.15852943
-1.5220491	n # s	-0.27330938
-1.0545845	d # s	-0.15852943
-1.5812477	z # s	-0.15852943
-1.4168549	. # s	-0.3001822
-1.4137998	m # s	-0.15852943
-1.4710757	, # s	-0.3011736
-0.9564214	h # s	-0.15852943
-0.8706782	y # s	-0.15852943
-1.0107487	" # s	-0.15852943
-1.7460142	: # s	-0.15852943
-0.966481	2 # s	-0.15852943
-0.5242931	3 # s	-0.15852943
-1.4785192	) # s	-0.15852943
-0.45844233	ा # s	-0.15852943
-0.45844233	г # s	-0.15852943
-0.8706782	н # s	-0.15852943
-1.2981452	b i s	-0.2531536
-1.2511308	r i s	-0.20405355
-1.1230009	u i s	-0.15852943
-1.456335	s i s	-0.28042305
-1.3519666	e i s	-0.15852943
-1.2297137	l i s	-0.23588103
-1.6636429	a i s	-0.15852943
-1.7234081	k i s	-0.15852943
-1.1340494	o i s	-0.26400217
-1.193931	# i s	-0.24075879
-1.1457025	t i s	-0.19000952
-0.98813665	n i s	-0.27330938
-1.5432607	d i s	-0.15852943
-1.6938171	z i s	-0.15852943
-1.4990854	p i s	-0.15852943
-1.0174794	f i s	-0.15852943
-0.8436706	m i s	-0.15852943
-1.5977231	g i s	-0.15852943
-1.016306	h i s	-0.23513724
-0.9245763	x i s	-0.23588103
-0.8477401	( i s	-0.15852943
-0.8477401	> i s	-0.15852943
-0.98268956	r t s	-0.20326953
-1.441868	u t s	-0.15852943
-1.4432306	e t s	-0.15852943
-1.3497353	a t s	-0.24659559
-1.3604937	o t s	-0.20326953
-1.6338905	# t s	-0.28042305
-1.2889408	i t s	-0.24971405
-0.9625837	n t s	-0.26479715
-1.2763027	c t s	-0.15852943
-0.4538934	_ t s	-0.15852943
-1.9431258	e n s	-0.15852943
-1.7905266	a n s	-0.20326953
-1.389642	o n s	-0.19548538
-1.6828758	i n s	-0.15852943
-0.47000402	w n s	-0.15852943
-0.74746644	ü n s	-0.15852943
-1.534907	l d s	-0.15852943
-2.1492515	# d s	-0.15852943
-1.8408302	i d s	-0.15852943
-0.751487	_ d s	-0.15852943
-2.0279577	t z s	-0.15852943
-0.9378613	t p s	-0.15852943
-0.48322797	ó p s	-0.15852943
-1.4143577	o . s	-0.15852943
-1.5578674	i . s	-0.15852943
-0.7608284	m . s	-0.15852943
-1.2944075	i f s	-0.15852943
-1.5257981	r m s	-0.15852943
-1.9442325	n g s	-0.15852943
-1.397774	s h s	-0.15852943
-0.70018643	r ó s	-0.15852943
-1.0607412	/ c s	-0.15852943
-0.59957516	d é s	-0.15852943
-0.71271217	m é s	-0.15852943
-0.76510763	u w s	-0.15852943
-1.1097971	r y s	-0.15852943
-0.8731662	a y s	-0.15852943
-0.84735143	c y s	-0.15852943
-1.1448047	# " s	-0.28042305
-0.8893891	( " s	-0.15852943
-1.689795	2 0 s	-0.15852943
-1.1993773	a - s	-0.15852943
-0.94311506	i - s	-0.28042305
-0.47378775	y - s	-0.15852943
-1.6265581	a | s	-0.15852943
-1.1970417	k | s	-0.15852943
-1.1913023	# | s	-0.28042305
-1.5133662	# ( s	-0.15852943
-1.298992	[ [ s	-0.20326953
-0.4280169	l / s	-0.15852943
-0.8752459	k / s	-0.15852943
-0.8752459	m / s	-0.15852943
-0.9721836	/ / s	-0.15852943
-0.7040998	< / s	-0.23588103
-0.6766392	p ? s	-0.15852943
-0.88009095	' < s	-0.15852943
-0.73254126	> < s	-0.15852943
-0.34298226	d + s	-0.15852943
-0.34298226	r è s	-0.15852943
-1.9601245	' ' e	-0.23588108
-0.917143	' b e	-0.15852943
-0.6133755	b b e	-0.15852943
-0.87002724	r b e	-0.15852943
-0.78625906	s b e	-0.15852943
-0.7215977	e b e	-0.2531536
-0.7150646	l b e	-0.15852943
-0.6320074	a b e	-0.23968437
-0.84922767	o b e	-0.21521369
-0.56820524	# b e	-0.721517
-1.0675253	i b e	-0.23588103
-0.8819859	n b e	-0.15852943
-0.6133755	z b e	-0.15852943
-0.53117234	m b e	-0.15852943
-0.7206841	" b e	-0.15852943
-0.49057156	- b e	-0.20807175
-0.8309525	| b e	-0.15852943
-0.7206841	( b e	-0.15852943
-0.75638366	' r e	-0.15852943
-0.97053707	b r e	-0.15852943
-0.76346815	r r e	-0.2820321
-0.9345008	u r e	-0.2506575
-1.1671468	e r e	-0.27098837
-0.9122062	a r e	-0.59289634
-0.6933809	k r e	-0.15852943
-1.0072861	o r e	-0.32698002
-0.68815	# r e	-0.23545584
-0.65680784	i r e	-0.33260494
-0.63699746	t r e	-0.22506121
-0.9072944	d r e	-0.15852943
-0.75638366	] r e	-0.15852943
-0.71523845	p r e	-0.19548538
-0.832566	f r e	-0.23513724
-0.7261786	g r e	-0.23588103
-0.87754226	c r e	-0.15852943
-0.82806575	é r e	-0.15852943
-0.42243472	- r e	-0.15852943
-0.41057536	v r e	-0.15852943
-0.75638366	/ r e	-0.15852943
-0.0477658	< r e	-0.74112344
-0.41057536	è r e	-0.15852943
-1.1048138	b u e	-0.15852943
-1.3552688	r u e	-0.21521369
-1.1219996	s u e	-0.15852943
-1.4329035	l u e	-0.15852943
-1.176323	a u e	-0.22506121
-1.3712049	k u e	-0.15852943
-1.1280093	t u e	-0.32197124
-1.3158277	n u e	-0.15852943
-1.1331831	d u e	-0.20326953
-1.0249033	z u e	-0.23545584
-1.5059592	g u e	-0.15852943
-1.2486006	h u e	-0.15852943
-1.2486006	j u e	-0.15852943
-0.7751102	x u e	-0.28042305
-0.24374802	q u e	-0.2934478
-0.87294126	' s e	-0.15852943
-0.99533194	b s e	-0.15852943
-1.1176188	r s e	-0.15852943
-1.4735377	u s e	-0.15852943
-0.36928642	s s e	-0.19000952
-0.94326955	e s e	-0.38562754
-1.3083947	a s e	-0.15852943
-1.254655	o s e	-0.15852943
-0.7200481	# s e	-0.4188879
-1.2846221	i s e	-0.21521369
-1.0827539	t s e	-0.15852943
-0.9660973	n s e	-0.15852943
-0.82926357	é s e	-0.15852943
-0.90440786	- s e	-0.15852943
-0.90440786	| s e	-0.15852943
-0.4271925	? s e	-0.15852943
-1.8349956	b e e	-0.15852943
-1.4967866	r e e	-0.19548538
-1.7589614	s e e	-0.15852943
-1.7097003	e e e	-0.15852943
-1.7184538	l e e	-0.28042305
-1.2081017	k e e	-0.33204722
-1.9002888	i e e	-0.15852943
-1.535727	t e e	-0.19548538
-1.3861402	d e e	-0.2716842
-1.2872732	z e e	-0.26400217
-1.518599	m e e	-0.15852943
-1.799471	g e e	-0.15852943
-1.3626411	j e e	-0.15852943
-0.7745838	' l e	-0.15852943
-0.61074436	b l e	-0.15852943
-0.80063474	r l e	-0.28042305
-0.7573429	u l e	-0.19548538
-0.56490684	s l e	-0.28042305
-0.87224936	e l e	-0.22506121
-0.75130445	l l e	-0.23558336
-0.8847407	a l e	-0.33842877
-0.9213639	k l e	-0.15852943
-0.929703	o l e	-0.15852943
-0.71469253	# l e	-0.4486724
-0.8655846	i l e	-0.2828072
-0.71062636	t l e	-0.15852943
-0.2634975	n l e	-0.15852943
-0.45507467	z l e	-0.15852943
-1.0303103	p l e	-0.15852943
-0.5969382	g l e	-0.15852943
-0.38933948	, l e	-0.15852943
-0.65623474	c l e	-0.15852943
-0.71062636	y l e	-0.15852943
-0.31919298	| l e	-0.21521369
-0.60549986	á l e	-0.15852943
-0.38933948	> l e	-0.15852943
-1.4515479	' a e	-0.15852943
-1.8731906	r a e	-0.15852943
-1.5941484	s a e	-0.28042305
-1.4534876	e a e	-0.21521369
-2.0609589	l a e	-0.15852943
-1.1981763	a a e	-0.15852943
-1.7905712	k a e	-0.28042305
-2.0607672	# a e	-0.28042305
-2.0793092	t a e	-0.15852943
-1.8857976	d a e	-0.15852943
-1.8739945	z a e	-0.15852943
-1.7852762	p a e	-0.15852943
-1.4621586	f a e	-0.15852943
-1.9032457	g a e	-0.15852943
-0.85871494	| a e	-0.28042305
-0.95369506	' k e	-0.15852943
-0.84430677	r k e	-0.15852943
-0.838315	u k e	-0.20326953
-1.0443884	s k e	-0.15852943
-1.7585211	e k e	-0.15852943
-0.8875632	l k e	-0.28042305
-0.9983981	a k e	-0.365382
-1.4834638	o k e	-0.15852943
-1.235274	# k e	-0.23513724
-0.9071567	i k e	-0.23533995
-1.2578835	n k e	-0.15852943
-0.70606804	z k e	-0.24659559
-0.8876167	c k e	-0.15852943
-0.8723626	x k e	-0.15852943
-0.76398396	[ k e	-0.15852943
-0.64681983	> k e	-0.15852943
-1.6418204	b o e	-0.15852943
-1.7489357	s o e	-0.15852943
-1.2675618	k o e	-0.28628975
-1.4601877	i o e	-0.21869642
-1.3365612	t o e	-0.23513724
-1.4319125	n o e	-0.15852943
-1.5498829	z o e	-0.15852943
-1.1940566	g o e	-0.23558336
-1.4197879	j o e	-0.15852943
-1.3380902	x o e	-0.15852943
-1.3700669	' # e	-0.15852943
-1.144549	r # e	-0.25478688
-1.1636326	u # e	-0.30470362
-1.2897913	s # e	-0.21521369
-0.993789	e # e	-0.37749302
-1.2624664	l # e	-0.19000952
-1.2427173	a # e	-0.6422316
-1.2818235	k # e	-0.28657275
-1.1873071	o # e	-0.37847728
-1.1458614	i # e	-0.31901935
-1.0417382	t # e	-0.21714507
-1.3649036	n # e	-0.29496902
-1.1196886	z # e	-0.32197124
-0.87268674	8 # e	-0.15852943
-1.2277218	. # e	-0.3997926
-1.4199979	m # e	-0.15852943
-1.0475734	g # e	-0.15852943
-1.1495076	, # e	-0.44865218
-0.68539983	c # e	-0.15852943
-0.8025216	" # e	-0.23513724
-0.86329085	: # e	-0.28058305
-0.5220567	0 # e	-0.23588103
-0.72725695	- # e	-0.15852943
-1.1893651	3 # e	-0.15852943
-0.8937238	7 # e	-0.15852943
-0.9227666	) # e	-0.18594742
-0.9724619	; # e	-0.23588103
-1.3148617	b i e	-0.15852943
-1.2634999	r i e	-0.31054622
-1.3204496	s i e	-0.23588103
-1.6641102	e i e	-0.15852943
-1.530658	l i e	-0.15852943
-1.0829537	a i e	-0.3001822
-1.1310647	k i e	-0.2934478
-1.0054076	o i e	-0.21521369
-2.070136	# i e	-0.15852943
-1.4621059	t i e	-0.23588103
-1.0799338	n i e	-0.2531536
-1.2793301	d i e	-0.21521369
-1.1394409	z i e	-0.19000952
-1.2638204	p i e	-0.15852943
-1.5171925	f i e	-0.15852943
-1.3703302	m i e	-0.15852943
-1.6104317	h i e	-0.15852943
-1.1524833	w i e	-0.15852943
-1.1636734	v i e	-0.15852943
-0.8354037	' t e	-0.15852943
-0.9217651	r t e	-0.23588103
-1.0445331	u t e	-0.19900632
-0.71358955	s t e	-0.31805202
-1.1341875	e t e	-0.22075342
-1.2032355	l t e	-0.15852943
-0.8933791	a t e	-0.39191014
-1.2129362	k t e	-0.15852943
-0.8496492	o t e	-0.2436709
-0.7510652	# t e	-0.49273223
-1.0339092	i t e	-0.2645398
-0.9030081	n t e	-0.23968437
-0.5841552	z t e	-0.23617522
-0.7625971	f t e	-0.15852943
-1.0775183	c t e	-0.15852943
-0.41336673	x t e	-0.15852943
-0.35832667	- t e	-0.15852943
-0.64576054	( t e	-0.15852943
-0.41336673	á t e	-0.15852943
-0.41336673	ô t e	-0.15852943
-1.2983074	r n e	-0.15852943
-0.9384583	u n e	-0.30402857
-0.94228023	e n e	-0.6240245
-1.3478477	a n e	-0.22966528
-1.1321605	o n e	-0.25072286
-0.70391774	# n e	-0.35600942
-0.9711163	i n e	-0.3271857
-1.0359447	n n e	-0.15852943
-0.23525687	. n e	-0.28042305
-0.8345457	h n e	-0.15852943
-0.8626903	í n e	-0.15852943
-0.6996328	[ n e	-0.15852943
-0.7068013	' d e	-0.15852943
-0.38750988	b d e	-0.15852943
-0.6882897	r d e	-0.22395095
-0.4950776	u d e	-0.22075342
-0.81697047	e d e	-0.19548538
-0.9232958	l d e	-0.17661443
-0.96984524	a d e	-0.22395095
-0.6068189	o d e	-0.19548538
-0.6419411	# d e	-0.4499325
-0.55698526	i d e	-0.33578384
-0.70167047	n d e	-0.25172672
-0.38750988	y d e	-0.15852943
-0.8119306	- d e	-0.15852943
-0.81313825	| d e	-0.15852943
-0.77015495	[ d e	-0.15852943
-0.8119306	/ d e	-0.15852943
-0.38750988	> d e	-0.15852943
-0.4182911	<s> z e	-0.15852943
-1.1745901	u z e	-0.15852943
-0.6542036	s z e	-0.15852943
-1.1962304	e z e	-0.15852943
-1.2175387	a z e	-0.21521369
-1.0470183	o z e	-0.15852943
-0.6312487	# z e	-0.53578883
-0.956176	i z e	-0.3555407
-0.74291515	t z e	-0.52837986
-0.11745535	_ z e	-0.27049622
-0.902284	] ] e	-0.39707372
-0.52042437	r p e	-0.23513724
-0.34398264	u p e	-0.2607717
-0.45501527	s p e	-0.18032359
-0.72472465	e p e	-0.23588103
-0.27279744	l p e	-0.21521369
-0.44217062	a p e	-0.3734399
-0.88962686	o p e	-0.21521369
-0.9400496	# p e	-0.3649039
-0.83846325	i p e	-0.21521369
-0.5864086	n p e	-0.20326953
-0.49458596	z p e	-0.26400217
-0.6386701	p p e	-0.15852943
-0.7533411	m p e	-0.15852943
-0.46366578	8 1 e	-0.15852943
-0.73553693	. 1 e	-0.15852943
-0.41016346	4 1 e	-0.28042305
-1.4451791	k . e	-0.15852943
-0.7432804	p . e	-0.15852943
-0.89525163	h . e	-0.15852943
-1.0725415	w . e	-0.15852943
-0.7055837	s f e	-0.15852943
-0.54489285	e f e	-0.19548538
-1.1323549	# f e	-0.27049622
-0.6036915	n f e	-0.28042305
-1.125194	| f e	-0.15852943
-0.37751457	<s> m e	-0.15852943
-0.78699875	' m e	-0.15852943
-0.52132833	r m e	-0.21521369
-0.6380973	u m e	-0.22506121
-0.78170156	s m e	-0.28042305
-0.76920146	e m e	-0.24629888
-0.9133327	l m e	-0.15852943
-0.507635	a m e	-0.34755647
-0.6547527	o m e	-0.1828141
-0.6858696	# m e	-0.47501493
-0.39211932	i m e	-0.38416302
-0.5862155	n m e	-0.15852943
-0.37751457	. m e	-0.15852943
-0.37751457	g m e	-0.15852943
-0.37751457	ó m e	-0.15852943
-0.7902717	- m e	-0.15852943
-0.7902717	| m e	-0.15852943
-0.68620646	( m e	-0.15852943
-1.1301428	r g e	-0.15852943
-1.1190171	u g e	-0.15852943
-1.0121634	e g e	-0.19000952
-0.8455627	l g e	-0.15852943
-0.92686373	a g e	-0.21521369
-0.784836	o g e	-0.23588103
-0.71147865	# g e	-0.57894444
-1.0167428	i g e	-0.28042305
-0.8982046	n g e	-0.21091448
-0.38579872	g g e	-0.15852943
-0.45166916	- g e	-0.28042305
-0.8908658	| g e	-0.15852943
-0.70323956	( g e	-0.15852943
-0.7660365	[ g e	-0.15852943
-0.38579872	_ g e	-0.15852943
-0.5996906	/ g e	-0.15852943
-0.21142358	<s> h e	-0.28042305
-0.76966953	' h e	-0.15852943
-0.60216427	r h e	-0.15852943
-0.61840075	e h e	-0.1828141
-0.75494885	l h e	-0.15852943
-0.421073	k h e	-0.28042305
-1.0133872	o h e	-0.15852943
-0.6740443	# h e	-0.46646002
-0.63650006	i h e	-0.28042305
-0.99923366	t h e	-0.15852943
-0.9130728	p h e	-0.15852943
-0.8126023	g h e	-0.15852943
-0.5634649	c h e	-0.21521369
-0.60216427	| h e	-0.15852943
-0.8114888	[ h e	-0.15852943
-0.976744	r c e	-0.15852943
-1.1520802	s c e	-0.15852943
-1.3760399	# c e	-0.28042305
-1.0229324	n c e	-0.15852943
-0.71933013	| c e	-0.15852943
-0.38494247	b j e	-0.15852943
-0.8063114	r j e	-0.15852943
-0.5982903	e j e	-0.15852943
-0.7639842	a j e	-0.15852943
-0.9486026	# j e	-0.2607717
-0.45084542	n j e	-0.15852943
-0.701463	[ j e	-0.15852943
-0.77028805	r x e	-0.15852943
-1.074711	e x e	-0.15852943
-0.48144144	a x e	-0.15852943
-0.8445132	o x e	-0.15852943
-0.99589795	# x e	-0.28042305
-1.1273127	t x e	-0.15852943
-0.46907756	u é e	-0.15852943
-0.49208596	' w e	-0.15852943
-0.49208596	u w e	-0.15852943
-0.31693873	k w e	-0.15852943
-0.49208596	o w e	-0.15852943
-0.6222073	# w e	-0.26400217
-0.49208596	i w e	-0.15852943
-0.31693873	c w e	-0.15852943
-0.7483439	w w e	-0.15852943
-0.49208596	- w e	-0.15852943
-0.49208596	| w e	-0.15852943
-0.2359822	p ä e	-0.15852943
-1.619287	2 0 e	-0.15852943
-1.6205037	0 0 e	-0.15852943
-0.6107777	r - e	-0.15852943
-0.47656405	u - e	-0.15852943
-0.82826436	e - e	-0.26400217
-0.47656405	l - e	-0.15852943
-0.982416	a - e	-0.15852943
-1.0357043	o - e	-0.15852943
-1.0763679	i - e	-0.15852943
-0.6107777	n - e	-0.15852943
-0.64293206	z - e	-0.15852943
-0.64293206	g - e	-0.15852943
-0.5748042	r | e	-0.15852943
-0.8024945	l | e	-0.15852943
-1.1301419	a | e	-0.23588103
-0.9133316	o | e	-0.15852943
-0.6759115	n | e	-0.15852943
-1.0413104	x | e	-0.15852943
-0.9133316	) | e	-0.15852943
-0.68103814	. 5 e	-0.15852943
-0.9490514	2 5 e	-0.15852943
-0.68103814	0 5 e	-0.15852943
-0.8912846	4 5 e	-0.15852943
-0.98793083	# ( e	-0.24766172
-0.38231665	u v e	-0.15852943
-0.83696914	e v e	-0.15852943
-0.94338006	a v e	-0.15852943
-0.5172796	o v e	-0.15852943
-0.8083141	# v e	-0.23588103
-0.4620365	i v e	-0.23588103
-1.0289702	[ [ e	-0.20807175
-0.75515866	u _ e	-0.15852943
-1.1142479	s / e	-0.15852943
-1.1212871	a = e	-0.15852943
-0.45609063	g = e	-0.15852943
-1.3086598	f > e	-0.15852943
-0.5952586	{ { e	-0.15852943
-0.38308498	r ý e	-0.15852943
-0.3413819	0 ′ e	-0.15852943
-1.7807255	' ' l	-0.23545584
-0.82885575	u b l	-0.28042305
-1.4254125	e b l	-0.15852943
-1.6564914	a b l	-0.15852943
-1.4240108	o b l	-0.15852943
-1.6236287	# b l	-0.26400217
-1.1815753	i b l	-0.15852943
-1.0010753	m b l	-0.15852943
-0.97669137	| b l	-0.15852943
-0.44192785	ú b l	-0.15852943
-2.063659	u r l	-0.15852943
-1.7979301	e r l	-0.21521369
-1.5465789	a r l	-0.27621374
-2.1703062	o r l	-0.15852943
-1.9979745	i r l	-0.15852943
-1.4371129	b u l	-0.15852943
-1.3584265	r u l	-0.15852943
-0.99074763	s u l	-0.20326953
-1.1664402	l u l	-0.15852943
-1.3062531	a u l	-0.15852943
-0.9825702	k u l	-0.29787764
-0.9140498	o u l	-0.15852943
-1.3938544	# u l	-0.23513724
-1.5819236	t u l	-0.15852943
-1.195164	z u l	-0.15852943
-1.0208067	p u l	-0.23588103
-0.8870201	m u l	-0.21521369
-1.5111289	g u l	-0.15852943
-1.2524993	h u l	-0.15852943
-0.71585464	j u l	-0.23588103
-1.7535262	e s l	-0.15852943
-2.0384538	a s l	-0.15852943
-2.1800716	# s l	-0.15852943
-2.0183299	i s l	-0.15852943
-1.0267373	' e l	-0.15852943
-0.9264251	b e l	-0.28628975
-1.642376	r e l	-0.28042305
-0.8776364	u e l	-0.20063876
-1.0622425	s e l	-0.20326953
-1.5354111	e e l	-0.15852943
-1.72685	l e l	-0.15852943
-1.0659788	a e l	-0.15852943
-1.4053046	k e l	-0.15852943
-1.4703635	o e l	-0.15852943
-1.2467978	# e l	-0.4765244
-1.0792276	i e l	-0.15852943
-1.2881321	t e l	-0.24971405
-1.4409164	n e l	-0.28042305
-1.3006324	d e l	-0.23513724
-1.0746701	z e l	-0.23588103
-1.3463334	p e l	-0.15852943
-0.9183241	. e l	-0.15852943
-1.3932728	m e l	-0.15852943
-1.090049	g e l	-0.19548538
-1.1717837	h e l	-0.15852943
-0.6550769	c e l	-0.15852943
-1.2048794	j e l	-0.15852943
-0.8531002	w e l	-0.28042305
-0.91612005	| e l	-0.15852943
-1.1177349	( e l	-0.15852943
-0.9183241	[ e l	-0.15852943
-0.4429137	> e l	-0.15852943
-1.1494004	e l l	-0.24505393
-1.2685165	a l l	-0.21714507
-2.1621745	# l l	-0.15852943
-1.0808979	i l l	-0.34157488
-1.0105815	' a l	-0.15852943
-1.1265552	b a l	-0.22551921
-1.1391417	r a l	-0.29892367
-1.5208724	u a l	-0.15852943
-1.1155071	s a l	-0.23588108
-1.3021777	e a l	-0.23667945
-1.6877692	l a l	-0.15852943
-1.1715531	k a l	-0.21769854
-1.5240198	o a l	-0.26400217
-0.99146926	# a l	-0.5792449
-1.2725376	i a l	-0.28866366
-1.2270774	t a l	-0.28866366
-1.3611265	n a l	-0.2226022
-1.1385902	d a l	-0.21521369
-1.1172345	z a l	-0.2934478
-1.3742232	p a l	-0.15852943
-1.3320742	f a l	-0.15852943
-1.2036846	m a l	-0.19548538
-1.2001449	g a l	-0.20326953
-0.8937831	h a l	-0.20326953
-1.4190544	c a l	-0.15852943
-1.4900496	j a l	-0.15852943
-1.2577038	x a l	-0.15852943
-1.0866762	y a l	-0.15852943
-0.9495962	" a l	-0.15852943
-1.0324148	- a l	-0.15852943
-1.1077586	[ a l	-0.15852943
-0.45313025	/ a l	-0.15852943
-1.7276474	u k l	-0.15852943
-1.2080401	# k l	-0.26804954
-2.090197	i k l	-0.15852943
-1.0296588	( k l	-0.15852943
-0.9099955	b o l	-0.15852943
-1.2328391	r o l	-0.20063876
-0.95628715	s o l	-0.20807175
-0.6758152	e o l	-0.23513724
-1.5208011	k o l	-0.20807175
-0.94164455	o o l	-0.15852943
-1.283416	# o l	-0.27049622
-1.1654975	i o l	-0.21869642
-1.108125	t o l	-0.19548538
-1.0495576	n o l	-0.23513724
-1.3620766	d o l	-0.15852943
-0.99884754	p o l	-0.26400217
-1.3751638	f o l	-0.15852943
-1.1922755	m o l	-0.23588103
-1.6506209	g o l	-0.15852943
-0.99423254	h o l	-0.15852943
