\data\
ngram 1=166
ngram 2=3047
ngram 3=12842
ngram 4=29595
ngram 5=47906

\1-grams:
-3.3579478	<unk>	0
0	<s>	-0.46473876
-2.2576241	</s>	0
-1.9059631	'	-0.50199157
-1.832242	ब	-0.57930285
-1.7142266	र	-0.77746564
-1.9948093	्	-0.6078879
-2.03926	ध	-0.58742034
-1.769238	म	-0.6970145
-1.9675174	ा	-0.8316102
-1.7142266	न	-0.781549
-1.4200275	#	-1.0979761
-1.6856614	क	-0.7403353
-2.2088754	ए	-0.4032735
-1.8946339	श	-0.60713065
-1.9059631	ह	-0.63070947
-2.1650505	ै	-0.41726092
-2.2088754	।	-0.5162358
-1.8520598	य	-0.54547995
-1.980949	भ	-0.50883526
-1.7448038	त	-0.7570785
-1.9544888	े	-0.6579285
-1.7951292	प	-0.6615741
-1.9059631	च	-0.58119583
-1.9948093	ि	-0.7443369
-1.980949	ी	-0.68398184
-1.832242	ं	-0.6415184
-1.9059631	ग	-0.5432875
-1.7609396	ल	-0.7053077
-1.8420379	ज	-0.57179785
-1.7369553	स	-0.7260252
-2.2088754	थ	-0.34946352
-1.7292461	व	-0.6905424
-2.5375988	उ	-0.27310556
-1.8946339	ड	-0.5147359
-2.2576241	इ	-0.33806902
-2.2576241	ष	-0.41932333
-2.0887845	फ	-0.43436372
-2.2088754	ख	-0.4493111
-2.071641	ू	-0.49195945
-1.8226624	द	-0.6723963
-2.1446922	ण	-0.44544813
-2.6490474	औ	-0.3457757
-2.410654	आ	-0.28173518
-1.8728254	ट	-0.5862566
-1.980949	ो	-0.6331603
-2.71773	ँ	-0.25664178
-2.023932	ु	-0.5767334
-1.7069073	,	-0.6322209
-2.284217	अ	-0.33031502
-2.448989	ढ	-0.46749374
-2.5375988	़	-0.3350944
-2.2088754	ई	-0.40819728
-2.8999527	ऊ	-0.26055342
-2.448989	ृ	-0.31226084
-2.1446922	d	-0.33364758
-1.9675174	a	-0.44789734
-2.1864104	b	-0.32273817
-2.284217	u	-0.26549995
-2.1864104	r	-0.34697777
-2.3428504	(	-0.2538388
-2.5375988	[	-0.39081064
-2.1864104	n	-0.40346193
-2.1650505	t	-0.37237546
-2.03926	i	-0.44283396
-2.1864104	o	-0.34573865
-2.1650505	l	-0.47709972
-2.0091267	e	-0.36682135
-3.1153321	x	-0.26055342
-2.0551488	c	-0.37416837
-2.284217	h	-0.35543025
-2.1446922	g	-0.34812227
-2.1650505	|	-0.28709194
-2.0551488	s	-0.37059295
-2.3754306	]	-0.46918297
-1.7069073	)	-0.8233657
-2.232566	m	-0.3356423
-2.1066325	p	-0.32196212
-2.312545	_	-0.2501029
-2.448989	y	-0.2573374
-2.6490474	w	-0.25344452
-2.3754306	v	-0.39288718
-2.5375988	k	-0.25939563
-2.7993536	j	-0.25078246
-2.2088754	ौ	-0.3347874
-2.0887845	=	-0.3789249
-2.3428504	छ	-0.29075268
-2.2576241	ॉ	-0.2871419
-3.2199137	*	-0.26055342
-2.0887845	:	-0.4853286
-2.0887845	/	-0.26407444
-1.6856614	.	-0.4134062
-2.312545	f	-0.25078246
-2.71773	?	-0.29990253
-2.2576241	2	-0.33473074
-2.284217	9	-0.249083
-2.1650505	1	-0.3710211
-2.2576241	0	-0.30903894
-3.0311105	&	-0.26055342
-2.284217	4	-0.30882972
-2.71773	२	-0.25287458
-2.448989	३	-0.317698
-2.4910378	०	-0.39900267
-2.6490474	४	-0.3379992
-2.284217	ठ	-0.37522033
-1.7142266	-	-0.3990454
-2.448989	१	-0.28333032
-2.71773	९	-0.2864474
-2.8999527	६	-0.25442082
-3.0311105	ॅ	-0.2483737
-2.312545	घ	-0.28402948
-3.0311105	ऐ	-0.25910676
-2.448989	झ	-0.28846914
-3.1153321	ऑ	-0.26055342
-2.1066325	"	-0.3904806
-2.4910378	7	-0.2540151
-2.3754306	6	-0.24971026
-3.2199137	ञ	-0.26055342
-3.0311105	ऋ	-0.26055342
-2.4910378	8	-0.24908079
-2.3428504	3	-0.25235063
-2.7993536	ः	-0.3379992
-2.8999527	ओ	-0.25078246
-3.1153321	‍	-0.26055342
-3.2199137	ॆ	-0.26055342
-3.2199137	‌	-0.26055342
-2.5375988	<	-0.35925826
-2.6490474	>	-0.25642288
-2.4910378	५	-0.33799922
-2.5375988	;	-0.3291144
-2.312545	’	-0.68507546
-2.8999527	७	-0.25233126
-2.8999527	८	-0.25239578
-3.1153321	ऎ	-0.26055342
-2.232566	%	-0.4917567
-2.448989	5	-0.25237206
-2.71773	{	-0.31062046
-2.6490474	!	-0.2984707
-3.2199137	ý	-0.26055342
-3.2199137	ऍ	-0.26055342
-3.2199137	ج	-0.26055342
-3.2199137	م	-0.26055342
-3.1153321	ه	-0.26055342
-3.2199137	و	-0.26055342
-3.0311105	ر	-0.26055342
-3.2199137	ي	-0.26055342
-3.2199137	ة	-0.26055342
-3.1153321	ا	-0.26055342
-3.1153321	ل	-0.26055342
-3.2199137	ع	-0.26055342
-3.2199137	ق	-0.26055342
-3.0311105	}	-0.24438855
-2.8999527	q	-0.26055342
-3.2199137	أ	-0.26055342
-3.2199137	ك	-0.26055342
-3.2199137	ب	-0.26055342
-3.2199137	²	-0.26055342
-3.2199137	$	-0.26055342
-3.0311105	+	-0.24438855
-3.2199137	z	-0.26055342
-3.2199137	î	-0.26055342
-3.0311105	µ	-0.2483737
-3.0311105	‘	-0.25282133
-2.71773	—	-0.42706722
-3.2199137	°	-0.26055342
-3.2199137	ङ	-0.26055342

\2-grams:
-2.5884356	म </s>	0
-2.804806	ा </s>	0
-2.510098	न </s>	0
-2.6449451	क </s>	0
-2.1634803	ै </s>	0
-1.2602569	। </s>	0
-2.6132717	त </s>	0
-2.5331216	े </s>	0
-2.5571053	ी </s>	0
-2.3914242	ग </s>	0
-2.6111863	ल </s>	0
-2.5307739	व </s>	0
-2.2394788	a </s>	0
-2.2495353	) </s>	0
-1.9903702	= </s>	0
-2.2972596	. </s>	0
-0.34276092	ý </s>	0
-0.35604572	<s> '	-0.9800894
-0.34124127	' '	-0.46714562
-2.2938857	र '	-0.34326732
-2.401834	म '	-0.16439725
-1.9686356	ा '	-0.7112441
-2.090332	न '	-0.46820608
-1.8417755	# '	-0.8343283
-2.336873	क '	-0.2541105
-2.0639658	श '	-0.2541105
-1.8527472	। '	-0.16439725
-2.232844	य '	-0.16439725
-2.438652	त '	-0.16439725
-2.3521192	े '	-0.16439725
-2.3484256	प '	-0.16439725
-2.201984	ि '	-0.34326732
-2.2515972	ी '	-0.2541105
-2.2194552	ग '	-0.16439725
-2.1876764	ल '	-0.34326732
-2.2467206	ज '	-0.16439725
-2.2935195	स '	-0.2541105
-1.9197388	ड '	-0.2541105
-2.1839821	द '	-0.2541105
-1.8175851	ण '	-0.2541105
-1.8901639	ट '	-0.22210228
-2.0924892	, '	-0.16439725
-1.8646932	़ '	-0.16439725
-1.8338988	ई '	-0.16439725
-1.8647025	( '	-0.16439725
-1.9143158	n '	-0.16439725
-1.9346989	t '	-0.16439725
-2.0046651	e '	-0.16439725
-1.293492	] '	-0.2541105
-1.5064787	: '	-0.2541105
-1.8711332	. '	-0.34326732
-1.2895372	? '	-0.16439725
-1.8212403	1 '	-0.16439725
-1.8400652	" '	-0.16439725
-1.4077561	> '	-0.16439725
-1.4277114	<s> ब	-0.16439725
-1.9759958	' ब	-0.16439725
-2.1786432	ब ब	-0.16439725
-2.1130257	र ब	-0.18279332
-1.7987659	् ब	-0.21498549
-2.2447333	म ब	-0.16439725
-1.7504287	ा ब	-0.32454222
-2.228315	न ब	-0.16439725
-1.6109996	# ब	-0.7950158
-2.2991548	क ब	-0.16439725
-1.8533444	ए ब	-0.16439725
-2.0363004	श ब	-0.2541105
-2.232362	ह ब	-0.16439725
-1.8395113	ै ब	-0.16439725
-2.1868026	य ब	-0.16439725
-2.3931897	त ब	-0.16439725
-1.7974095	े ब	-0.21337424
-2.3024356	प ब	-0.16439725
-1.8955537	ि ब	-0.24468793
-2.330213	ी ब	-0.16439725
-1.4674885	ं ब	-0.3253309
-1.7214252	ल ब	-0.16439725
-1.7936746	ज ब	-0.21337424
-2.1446722	स ब	-0.19229205
-1.8387486	थ ब	-0.16439725
-1.6307232	उ ब	-0.16439725
-1.7438848	इ ब	-0.16439725
-1.8398688	ख ब	-0.16439725
-1.5876449	ू ब	-0.2298859
-2.2817395	द ब	-0.16439725
-1.7621841	आ ब	-0.16439725
-1.8501407	ो ब	-0.46820608
-1.715972	ु ब	-0.16439725
-1.8832035	, ब	-0.16439725
-1.1836404	अ ब	-0.5651161
-1.8321662	़ ब	-0.16439725
-1.8257743	( ब	-0.16439725
-1.6269999	ौ ब	-0.16439725
-1.8518765	= ब	-0.16439725
-1.5186155	ॉ ब	-0.16439725
-1.1394978	* ब	-0.16439725
-2.065969	. ब	-0.16439725
-1.6435258	- ब	-0.20694147
-1.6033539	झ ब	-0.16439725
-1.2804589	‘ ब	-0.16439725
-1.9202907	' र	-0.16439725
-1.0950347	ब र	-0.3775549
-2.2052739	र र	-0.22210228
-1.0977	् र	-0.4369625
-0.9468577	ध र	-0.4373432
-1.5078883	म र	-0.3040135
-1.3616698	ा र	-0.63533145
-1.7686877	न र	-0.23616795
-1.5336869	# र	-0.82781136
-1.1290104	क र	-0.5246297
-1.8004518	ए र	-0.16439725
-1.2217066	श र	-0.28516936
-1.0626595	ह र	-0.40837413
-1.1963758	ै र	-0.27433386
-1.5564508	य र	-0.26766515
-1.7237264	भ र	-0.24937361
-1.3606946	त र	-0.36706525
-1.5472845	े र	-0.26659822
-1.1896822	प र	-0.37640226
-1.1894033	च र	-0.36962664
-1.3598459	ि र	-0.32215595
-1.3137639	ी र	-0.3970929
-2.1011505	ं र	-0.16439725
-1.3938789	ग र	-0.33082017
-2.1051517	ल र	-0.16439725
-1.4833713	ज र	-0.19491912
-1.4652153	स र	-0.31089526
-1.6313293	थ र	-0.16439725
-1.2092209	व र	-0.41309702
-1.5874859	उ र	-0.16439725
-1.8496544	ड र	-0.16439725
-1.3723501	इ र	-0.34326732
-1.8382126	ष र	-0.16439725
-1.1312969	फ र	-0.18279332
-1.2629519	ख र	-0.2541105
-1.0026314	ू र	-0.3799122
-1.3674629	द र	-0.41779488
-0.5050497	औ र	-0.5651161
-1.2223296	आ र	-0.21624283
-1.4407252	ट र	-0.3418757
-1.2157238	ो र	-0.33756253
-1.1783465	ु र	-0.360946
-1.0695133	अ र	-0.34393448
-1.7736187	़ र	-0.16439725
-1.5883505	ई र	-0.2541105
-1.1739721	ऊ र	-0.16439725
-1.6326716	( र	-0.2541105
-0.8671561	ौ र	-0.23702808
-0.9986727	ॉ र	-0.46727782
-1.6804869	: र	-0.16439725
-1.7927741	. र	-0.16439725
-1.609831	- र	-0.20694147
-0.9076687	ॅ र	-0.16439725
-0.91557914	घ र	-0.23226833
-1.5639904	झ र	-0.16439725
-1.0665579	ऑ र	-0.16439725
-1.7630398	" र	-0.16439725
-1.1750227	ओ र	-0.16439725
-1.4617596	‘ र	-0.16439725
-1.2713622	ब ्	-0.24221304
-1.1295601	र ्	-0.5690428
-1.139391	ध ्	-0.5003217
-1.1656089	म ्	-0.5499564
-1.1554089	न ्	-0.63051736
-1.0097992	क ्	-0.72313964
-0.8625852	श ्	-0.56148183
-1.826953	ह ्	-0.2784729
-2.284352	य ्	-0.16439725
-1.4525309	भ ्	-0.3053817
-1.0911824	त ्	-0.5970535
-0.92912143	प ्	-0.71315515
-1.2588412	च ्	-0.4218914
-2.4972734	ि ्	-0.16439725
-1.1505034	ग ्	-0.55309033
-1.3168895	ल ्	-0.467013
-1.1436052	ज ्	-0.49314338
-0.9538115	स ्	-0.6343688
-1.551625	थ ्	-0.22210228
-1.4008265	व ्	-0.57950294
-1.789008	ड ्	-0.16439725
-0.69947815	ष ्	-0.5059479
-1.2584912	फ ्	-0.24468793
-1.2054759	ख ्	-0.40341163
-1.035661	द ्	-0.6000359
-1.1419318	ण ्	-0.26022455
-1.2561182	ट ्	-0.38616556
-2.3231668	ु ्	-0.16439725
-1.7119054	़ ्	-0.16439725
-1.7430047	छ ्	-0.16439725
-1.8236951	ठ ्	-0.16439725
-1.9749936	ब ध	-0.34326732
-2.343415	र ध	-0.2541105
-1.8380989	् ध	-0.2400916
-2.176593	ध ध	-0.16439725
-2.3399758	म ध	-0.22210228
-1.6928898	ा ध	-0.4046276
-2.0119662	# ध	-0.5063275
-2.0838463	ै ध	-0.16439725
-2.3084452	य ध	-0.16439725
-2.513161	त ध	-0.16439725
-1.9313083	ि ध	-0.23702808
-2.3077402	ी ध	-0.16439725
-1.6934686	ं ध	-0.19008154
-2.2929597	ग ध	-0.16439725
-2.3199956	ज ध	-0.16439725
-1.8141545	व ध	-0.19809264
-1.8104147	इ ध	-0.16439725
-1.9730604	ष ध	-0.16439725
-2.1544414	ू ध	-0.16439725
-1.2626839	आ ध	-0.24702446
-2.250704	ट ध	-0.16439725
-1.7597358	ो ध	-0.23795636
-1.7507141	ु ध	-0.21337424
-1.5556053	अ ध	-0.19809264
-1.9158418	़ ध	-0.16439725
-1.927167	( ध	-0.16439725
-1.6772891	ौ ध	-0.16439725
-2.013799	- ध	-0.16439725
-1.6347549	<s> म	-0.16439725
-1.9472507	' म	-0.16439725
-2.1406913	ब म	-0.16439725
-1.5845376	र म	-0.30587724
-1.2339923	् म	-0.34756628
-2.060699	ध म	-0.16439725
-1.4797938	ा म	-0.3801496
-1.7156911	न म	-0.2332483
-1.4680715	# म	-0.9175074
-1.7443299	क म	-0.2685517
-1.6577283	ए म	-0.16439725
-1.882916	श म	-0.20694147
-1.5653765	ह म	-0.18279332
-1.8139023	ै म	-0.16439725
-1.8114665	। म	-0.16439725
-1.9307232	य म	-0.21077076
-1.5207044	त म	-0.28516936
-1.8980305	े म	-0.16439725
-1.8883743	प म	-0.19809264
-1.8522747	च म	-0.16439725
-1.3073533	ि म	-0.42964184
-1.5224576	ी म	-0.3001951
-1.4010102	ग म	-0.32009137
-1.8722184	ल म	-0.18819572
-1.9387023	ज म	-0.1851486
-1.3937751	स म	-0.25180027
-1.5063896	थ म	-0.16439725
-2.1639464	व म	-0.16439725
-1.6085668	उ म	-0.16439725
-2.0166714	ड म	-0.16439725
-1.8652104	ष म	-0.16439725
-1.9584671	ख म	-0.16439725
-1.5753832	ू म	-0.16439725
-2.0060668	द म	-0.19229205
-1.9250423	ण म	-0.16439725
-1.7330234	आ म	-0.16439725
-2.115974	ट म	-0.16439725
-1.8340011	ो म	-0.20694147
-1.2137784	ु म	-0.39224538
-1.799518	अ म	-0.16439725
-1.8019066	़ म	-0.16439725
-1.6572222	( म	-0.19809264
-1.5762113	[ म	-0.16439725
-1.6078739	ौ म	-0.16439725
-1.8231988	= म	-0.16439725
-1.5019385	ॉ म	-0.16439725
-1.9213475	. म	-0.16439725
-1.6255149	9 म	-0.16439725
-1.5109661	- म	-0.18819572
-1.2314715	! म	-0.16439725
-1.4782089	‘ म	-0.16439725
-1.2480111	— म	-0.16439725
-1.0443444	ब ा	-0.3102373
-1.0912888	र ा	-0.5606408
-0.8557944	ध ा	-0.43595272
-1.0556595	म ा	-0.51063204
-1.0180291	न ा	-0.5878202
-1.1218122	क ा	-0.53496474
-1.0408454	श ा	-0.36242488
-0.91363764	ह ा	-0.39371717
-1.0361891	य ा	-0.3765363
-0.6807784	भ ा	-0.39348763
-0.93178624	त ा	-0.5866927
-1.1051266	प ा	-0.33147448
-0.8089038	च ा	-0.42719504
-1.1169354	ग ा	-0.30913028
-1.0153414	ल ा	-0.46228844
-0.9867045	ज ा	-0.34459707
-1.0377601	स ा	-0.41184592
-1.0063541	थ ा	-0.30024552
-0.8908314	व ा	-0.5547213
-1.254367	ड ा	-0.2185771
-1.1364871	ष ा	-0.26492018
-1.256594	फ ा	-0.18819572
-1.1335505	ख ा	-0.25216344
-0.87251663	द ा	-0.5088436
-1.1405169	ण ा	-0.24468793
-1.1548638	ट ा	-0.3146103
-1.1700484	ढ ा	-0.16439725
-1.1963929	़ ा	-0.21498549
-0.99560547	छ ा	-0.21624283
-0.9668387	ठ ा	-0.27122977
-1.2979742	घ ा	-0.16439725
-0.87255925	झ ा	-0.22288679
-1.0170668	ञ ा	-0.16439725
-1.6202421	<s> न	-0.16439725
-1.7128576	ब न	-0.20694141
-1.7058352	र न	-0.42964184
-1.4205617	् न	-0.29796764
-1.3339509	ध न	-0.36148405
-1.5560138	म न	-0.34348342
-1.329541	ा न	-0.68997765
-1.8403379	न न	-0.32088494
-1.5336869	# न	-0.7882648
-1.673101	क न	-0.23616795
-1.4943285	ए न	-0.19809264
-1.3962919	श न	-0.38532716
-1.2637705	ह न	-0.2944335
-1.0722339	ै न	-0.22754672
-1.79221	। न	-0.16439725
-1.419934	य न	-0.34313682
-1.9862643	भ न	-0.16439725
-1.3944311	त न	-0.48106086
-1.2909482	े न	-0.41991934
-1.2461208	प न	-0.41612113
-1.2402467	च न	-0.37073886
-1.3308773	ि न	-0.4263758
-1.3137639	ी न	-0.3787662
-1.9989051	ं न	-0.22210228
-1.6217425	ग न	-0.18819572
-1.4205583	ल न	-0.4183178
-1.1603554	ज न	-0.32782912
-1.4652153	स न	-0.29044542
-1.6313293	थ न	-0.16439725
-1.5299993	व न	-0.29381314
-1.4060798	उ न	-0.19229205
-1.8496544	ड न	-0.16439725
-1.1711614	इ न	-0.22919346
-1.8382126	ष न	-0.16439725
-1.1832892	ख न	-0.25298467
-1.1404481	ू न	-0.27058616
-1.614336	द न	-0.29817697
-1.8959371	ण न	-0.16439725
-1.7056981	आ न	-0.16439725
-1.3620955	ट न	-0.36936903
-1.5392717	ो न	-0.32490647
-1.2430061	ु न	-0.3040135
-1.4870801	अ न	-0.20268975
-1.4883988	़ न	-0.23462392
-1.7570428	( न	-0.16439725
-1.5611842	[ न	-0.16439725
-1.4463288	ौ न	-0.22210228
-1.4700243	छ न	-0.16439725
-1.3348693	ॉ न	-0.16439725
-1.9844592	. न	-0.16439725
-1.1944162	ठ न	-0.16439725
-1.9605876	- न	-0.16439725
-0.9076687	ॅ न	-0.16439725
-1.2612997	घ न	-0.20694147
-1.3742646	झ न	-0.16439725
-1.0665579	ऑ न	-0.16439725
-1.7630398	" न	-0.16439725
-1.1739721	‍ न	-0.16439725
-1.4617596	‘ न	-0.16439725
-1.6379342	' #	-0.17120476
-1.0111307	ब #	-0.38496307
-1.0454023	र #	-0.82327634
-1.664707	् #	-0.16439725
-1.1534487	ध #	-0.2802586
-1.077421	म #	-0.50928104
-1.2498196	ा #	-0.8713231
-0.9554566	न #	-0.8169961
-1.0120895	क #	-0.6518935
-0.7330996	ए #	-0.32286316
-1.2890618	श #	-0.31402317
-1.1255181	ह #	-0.40931672
-1.6310488	ै #	-0.17120476
-0.41680017	। #	-0.5115204
-1.0239516	य #	-0.5349542
-1.464659	भ #	-0.24602154
-1.0657915	त #	-0.62633634
-0.99604917	े #	-0.7345327
-1.3097553	प #	-0.31446576
-1.1576338	च #	-0.2517346
-1.2752209	ि #	-0.44516405
-0.9438583	ी #	-0.84000766
-1.3208575	ं #	-0.5585278
-1.2462695	ग #	-0.38447362
-0.96688867	ल #	-0.5992561
-1.100606	ज #	-0.36786374
-1.1317037	स #	-0.50043845
-1.1212342	थ #	-0.2362003
-1.1572837	व #	-0.40577835
-1.4457797	उ #	-0.16439725
-1.0296069	ड #	-0.29614028
-1.2922888	इ #	-0.16439725
-1.1704943	ष #	-0.2542928
-0.84670585	फ #	-0.2348642
-1.2130369	ख #	-0.2745751
-0.9414559	ू #	-0.29968044
-1.0085607	द #	-0.41884252
-0.8349727	ण #	-0.41840076
-1.4231803	आ #	-0.16439725
-0.82678187	ट #	-0.3841178
-1.0784667	ो #	-0.48788315
-0.9998969	ँ #	-0.18656795
-1.206876	ु #	-0.29636753
-0.2225659	, #	-0.9053059
-1.462937	ढ #	-0.16439725
-0.95349634	़ #	-0.25724027
-0.5479579	ई #	-0.34075716
-1.1120459	ऊ #	-0.16439725
-1.4188725	d #	-0.16439725
-1.3804644	a #	-0.17939007
-1.1942625	u #	-0.16439725
-1.2790787	r #	-0.1851486
-0.9948896	n #	-0.18091825
-1.1992422	t #	-0.20993155
-1.6009688	i #	-0.16439725
-1.5851092	o #	-0.16439725
-1.6100297	l #	-0.16439725
-1.3001734	e #	-0.17872737
-1.4919599	c #	-0.16439725
-1.5223039	h #	-0.16439725
-1.4471021	g #	-0.16439725
-1.0754812	s #	-0.20374879
-0.26658767	) #	-0.4969415
-1.4139858	m #	-0.16439725
-1.5573171	p #	-0.16439725
-1.0195292	y #	-0.16439725
-1.292447	k #	-0.16439725
-1.46364	ौ #	-0.16439725
-1.6233815	= #	-0.16439725
-1.4900761	छ #	-0.16439725
-1.3733995	ॉ #	-0.22210228
-0.32321876	: #	-0.28686783
-1.1088506	/ #	-0.20694147
-0.7043683	. #	-0.63207775
-1.1983653	f #	-0.16439725
-0.5963536	? #	-0.16439725
-1.0827143	2 #	-0.20694147
-1.3217582	9 #	-0.22210228
-1.4629722	1 #	-0.16439725
-1.4073151	0 #	-0.16439725
-0.6998243	4 #	-0.16439725
-0.9557092	२ #	-0.16439725
-0.6661933	३ #	-0.20200321
-0.5693226	० #	-0.19491912
-0.5287114	४ #	-0.16439725
-1.1438947	ठ #	-0.2194942
-1.4945734	- #	-0.16439725
-0.8138959	१ #	-0.16439725
-0.69929844	९ #	-0.18819572
-1.1103811	६ #	-0.16439725
-1.1903276	घ #	-0.20694147
-1.2850918	झ #	-0.16439725
-0.5026944	" #	-0.28956985
-1.2902316	7 #	-0.16439725
-1.1671565	6 #	-0.16439725
-0.9542984	ञ #	-0.16439725
-1.1497941	8 #	-0.2541105
-1.0536101	3 #	-0.16439725
-0.38947615	ः #	-0.20694141
-1.1116428	ओ #	-0.16439725
-0.6082809	‌ #	-0.16439725
-0.58719265	५ #	-0.21337424
-0.5281823	; #	-0.20634428
-0.14462863	’ #	-0.2873674
-0.6715226	७ #	-0.16439725
-1.0156806	८ #	-0.16439725
-1.1945914	% #	-0.16439725
-1.3467196	5 #	-0.16439725
-0.55377805	! #	-0.16439725
-0.6082809	ه #	-0.16439725
-0.766366	ر #	-0.16439725
-0.32603595	ة #	-0.16439725
-1.0174656	q #	-0.16439725
-0.32603595	² #	-0.16439725
-0.63558424	µ #	-0.2541105
-0.30388927	— #	-0.46681446
-1.6121618	<s> क	-0.16439725
-1.7559072	' क	-0.16439725
-1.4960523	ब क	-0.1851486
-1.507013	र क	-0.31620273
-1.5556052	् क	-0.30960774
-1.5584342	ध क	-0.19809264
-1.6666468	म क	-0.3040135
-1.4518529	ा क	-0.47834554
-1.6016616	न क	-0.3950126
-1.411968	# क	-1.0881363
-2.2149704	क क	-0.2541105
-1.2946584	ए क	-0.20634428
-1.3269885	श क	-0.32828647
-1.7606219	ह क	-0.26269445
-1.1929609	ै क	-0.2902603
-1.5956761	। क	-0.2541105
-1.8942331	य क	-0.20634428
-1.839658	भ क	-0.2541105
-1.7507317	त क	-0.28116333
-1.5428878	े क	-0.36269504
-1.6657116	प क	-0.24008444
-1.533366	च क	-0.21335958
-1.1133056	ि क	-0.5661553
-1.3113397	ी क	-0.4272697
-1.2179996	ं क	-0.3062673
-1.9780908	ग क	-0.16439725
-1.4532502	ल क	-0.4012031
-1.9036617	ज क	-0.16439725
-1.6078235	स क	-0.37376198
-1.4844507	थ क	-0.19809264
-1.5892634	व क	-0.26022455
-1.5758837	उ क	-0.16439725
-1.7107353	ड क	-0.22210228
-1.3662239	इ क	-0.22210228
-1.535183	ष क	-0.23226833
-1.6559746	ख क	-0.22210228
-1.8474152	ू क	-0.16439725
-1.815876	द क	-0.22210228
-1.6089664	ण क	-0.16439725
-1.6908226	आ क	-0.16439725
-1.3587061	ट क	-0.24008444
-1.471592	ो क	-0.29381314
-1.4206787	ँ क	-0.16439725
-1.2070335	ु क	-0.2808285
-2.0001984	, क	-0.16439725
-1.2946914	अ क	-0.3418757
-1.5449728	ढ क	-0.16439725
-1.6149657	़ क	-0.20694147
-1.7480162	ई क	-0.16439725
-1.7392497	( क	-0.16439725
-1.6590316	| क	-0.16439725
-1.1169645	ौ क	-0.19809264
-1.7816428	= क	-0.16439725
-1.3285519	ॉ क	-0.22210228
-1.1205046	* क	-0.16439725
-1.529813	. क	-0.19229205
-1.5422837	ठ क	-0.16439725
-1.4911383	- क	-0.16439725
-1.7497997	" क	-0.16439725
-1.0723068	ः क	-0.16439725
-1.488705	’ क	-0.16439725
-1.4526324	‘ क	-0.16439725
-0.33490953	ङ क	-0.16439725
-2.1033494	' ए	-0.16439725
-2.566784	म ए	-0.16439725
-1.6672354	ा ए	-0.5088604
-2.4951022	न ए	-0.16439725
-1.6999469	# ए	-0.8384992
-2.505319	प ए	-0.16439725
-1.6339568	ि ए	-0.39456046
-2.3653362	ी ए	-0.20694147
-2.3717806	ग ए	-0.16439725
-1.8502498	इ ए	-0.16439725
-1.8917558	आ ए	-0.16439725
-2.260353	ु ए	-0.16439725
-2.1786482	, ए	-0.16439725
-1.9128273	ई ए	-0.16439725
-1.9922743	( ए	-0.16439725
-1.1684874	* ए	-0.16439725
-1.4335161	. ए	-0.29118654
-1.905225	1 ए	-0.16439725
-2.070133	- ए	-0.16439725
-1.6630656	<s> श	-0.16439725
-2.0022457	' श	-0.16439725
-1.9257625	र श	-0.211024
-1.812245	् श	-0.21077076
-1.8713344	म श	-0.19229205
-1.9042476	ा श	-0.24602154
-2.252923	न श	-0.16439725
-1.6443278	# श	-0.85992676
-2.33128	क श	-0.16439725
-1.8781458	ए श	-0.16439725
-2.2120252	श श	-0.16439725
-1.8627318	ै श	-0.16439725
-1.978216	य श	-0.16439725
-1.3033692	े श	-0.42240608
-2.0934618	प श	-0.29118654
-1.5618647	ि श	-0.27262387
-1.9548608	ी श	-0.3418757
-1.5975115	ं श	-0.26801038
-2.2973993	ल श	-0.16439725
-2.2400296	ज श	-0.16439725
-2.2882862	स श	-0.16439725
-1.8659686	थ श	-0.16439725
-1.9192067	व श	-0.19809264
-1.7662205	इ श	-0.16439725
-2.0877578	ू श	-0.16439725
-2.1793776	द श	-0.20694147
-1.7888386	आ श	-0.16439725
-1.5628655	ो श	-0.2298859
-1.5546353	ु श	-0.29901537
-1.6841971	अ श	-0.16439725
-1.8301167	ई श	-0.16439725
-1.615171	ृ श	-0.16439725
-1.8589231	( श	-0.16439725
-1.8262467	ौ श	-0.16439725
-1.7276345	: श	-0.16439725
-1.9855422	. श	-0.16439725
-2.0792978	- श	-0.16439725
-1.4290856	ओ श	-0.16439725
-0.33898818	ॆ श	-0.16439725
-2.006779	' ह	-0.16439725
-1.7556024	ब ह	-0.22919346
-1.7879804	र ह	-0.25498775
-1.9960334	् ह	-0.20200321
-1.6353685	म ह	-0.2528496
-1.6826553	ा ह	-0.2877578
-1.9700984	न ह	-0.22210228
-1.5021597	# ह	-0.90414524
-2.336873	क ह	-0.16439725
-2.0639658	श ह	-0.16439725
-1.4429507	य ह	-0.38532716
-1.7157718	े ह	-0.2035167
-1.7995259	प ह	-0.22210228
-1.9099214	ि ह	-0.2902603
-2.3768072	ी ह	-0.16439725
-1.898391	ं ह	-0.18819572
-1.961357	ग ह	-0.20694147
-1.9025596	ल ह	-0.18819572
-2.1146317	ज ह	-0.16439725
-2.1716545	स ह	-0.20200321
-1.7956098	व ह	-0.27225298
-2.0934143	ू ह	-0.16439725
-2.3243465	द ह	-0.16439725
-1.643619	ो ह	-0.25216344
-1.4760494	ँ ह	-0.16439725
-2.0246131	ु ह	-0.19809264
-2.0924892	, ह	-0.16439725
-1.8626777	अ ह	-0.16439725
-1.1992133	ऊ ह	-0.16439725
-1.2236632	ृ ह	-0.16439725
-1.8647025	( ह	-0.16439725
-1.6079215	[ ह	-0.16439725
-1.6470071	ौ ह	-0.16439725
-1.7156206	छ ह	-0.16439725
-1.7965409	ठ ह	-0.16439725
-1.8352726	- ह	-0.22210228
-1.4312398	ओ ह	-0.16439725
-1.1992133	‍ ह	-0.16439725
-2.341748	ब ै	-0.16439725
-2.519324	र ै	-0.16439725
-2.0455601	म ै	-0.23226833
-2.4806068	न ै	-0.20694147
-2.3016055	क ै	-0.18819572
-2.3299823	श ै	-0.16439725
-2.2152567	ह ै	-0.16439725
-2.1899703	भ ै	-0.16439725
-2.2541983	त ै	-0.2541105
-1.8341608	प ै	-0.16439725
-2.108304	च ै	-0.19809264
-2.4623325	ं ै	-0.16439725
-2.0299492	ग ै	-0.23462392
-2.0755377	ल ै	-0.16439725
-2.2086847	ज ै	-0.19229205
-2.3937519	स ै	-0.20694147
-1.8276236	व ै	-0.20650347
-2.0242841	फ ै	-0.16439725
-2.1314747	ख ै	-0.16439725
-2.2708051	द ै	-0.16439725
-1.9419109	ट ै	-0.16439725
-2.1033494	' ।	-0.16439725
-2.535349	र ।	-0.2541105
-1.8804504	ा ।	-0.60511714
-2.5399172	# ।	-0.5342246
-2.6226428	क ।	-0.16439725
-1.3464663	ए ।	-0.38809657
-2.1478727	ै ।	-0.16439725
-1.5334715	े ।	-0.5342246
-2.6068351	ि ।	-0.16439725
-1.4558426	ी ।	-0.6126647
-2.1531456	ं ।	-0.2784729
-2.5888202	ल ।	-0.16439725
-1.8917558	आ ।	-0.16439725
-2.456085	ो ।	-0.16439725
-1.523424	ँ ।	-0.16439725
-1.6845908	ई ।	-0.2541105
-1.5660216	] ।	-0.16439725
-1.5543472	५ ।	-0.16439725
-0.6402169	ऎ ।	-0.16439725
-1.6541564	<s> य	-0.16439725
-1.9845706	' य	-0.16439725
-2.1901252	ब य	-0.16439725
-2.3736672	र य	-0.16439725
-0.9007346	् य	-0.52284825
-1.8628998	म य	-0.19229205
-1.3867841	ा य	-0.46686482
-2.0760593	न य	-0.19229205
-1.6119295	# य	-0.9009334
-2.0440266	श य	-0.16439725
-2.243906	ह य	-0.16439725
-1.3918719	ै य	-0.3053817
-1.6313282	। य	-0.22210228
-2.199467	य य	-0.16439725
-2.0607686	भ य	-0.16439725
-2.4057007	त य	-0.16439725
-1.5653304	े य	-0.28278562
-1.9105562	प य	-0.24468793
-1.6899513	च य	-0.19809264
-1.1951427	ि य	-0.6551349
-1.3235976	ी य	-0.51241755
-2.1724036	ं य	-0.16439725
-2.1868966	ग य	-0.16439725
-2.3840618	ल य	-0.16439725
-1.5805695	ज य	-0.27058616
-2.3849869	स य	-0.16439725
-2.2038834	व य	-0.16439725
-1.5614327	इ य	-0.20694147
-1.7285154	ष य	-0.19229205
-1.5553634	द य	-0.29577982
-1.8011127	ण य	-0.16439725
-1.5982834	आ य	-0.19809264
-1.7320249	ो य	-0.19809264
-1.8883141	, य	-0.2541105
-1.8153098	ई य	-0.16439725
-1.8365452	( य	-0.16439725
-1.731949	| य	-0.16439725
-1.8604305	= य	-0.16439725
-1.1416602	* य	-0.16439725
-1.9647608	. य	-0.16439725
-2.0528178	- य	-0.16439725
-1.193069	‍ य	-0.16439725
-1.5003169	‘ य	-0.16439725
-2.4404178	र भ	-0.20694147
-2.0174563	् भ	-0.19229205
-2.3156147	म भ	-0.16439725
-2.0560467	ा भ	-0.27433386
-1.627097	# भ	-0.76194966
-2.3720343	क भ	-0.2541105
-2.058163	ै भ	-0.16439725
-2.276609	य भ	-0.16439725
-2.340679	त भ	-0.16439725
-2.3921363	प भ	-0.16439725
-1.9226267	ि भ	-0.22288679
-2.421155	ी भ	-0.16439725
-1.7859367	ं भ	-0.16439725
-2.26205	ग भ	-0.16439725
-2.2144527	ल भ	-0.16439725
-2.1455536	ज भ	-0.16439725
-2.4631026	स भ	-0.16439725
-2.2582784	व भ	-0.16439725
-1.6751342	उ भ	-0.16439725
-2.1289926	ू भ	-0.16439725
-2.2126846	द भ	-0.16439725
-2.0208893	ण भ	-0.16439725
-1.8221556	आ भ	-0.16439725
-2.2029645	ो भ	-0.16439725
-2.0492861	ु भ	-0.19229205
-2.1178973	, भ	-0.16439725
-1.7073396	अ भ	-0.19229205
-1.9010936	( भ	-0.16439725
-1.9107487	= भ	-0.16439725
-1.8197104	ठ भ	-0.16439725
-1.3705504	- भ	-0.27433386
-1.8648381	" भ	-0.16439725
-1.935491	' त	-0.16439725
-1.8884968	ब त	-0.16439725
-1.4539232	र त	-0.43913323
-1.3176998	् त	-0.4197837
-2.0481668	ध त	-0.16439725
-1.3918824	म त	-0.30155396
-1.347173	ा त	-0.59303993
-1.6092633	न त	-0.32877612
-1.6063797	# त	-0.8045001
-1.5755202	क त	-0.38747883
-1.9996054	श त	-0.16439725
-1.4843719	ह त	-0.28516936
-1.6774302	ै त	-0.16439725
-1.4878142	य त	-0.32490647
-2.123694	त त	-0.29118654
-1.4476166	े त	-0.33386353
-1.3502612	प त	-0.5387863
-1.5437014	च त	-0.24702446
-1.1159805	ि त	-0.5976102
-1.5195197	ी त	-0.26269448
-1.2223213	ं त	-0.3833298
-1.3420407	ग त	-0.36196685
-1.390156	ल त	-0.476318
-1.7705448	ज त	-0.20694147
-1.8434218	स त	-0.211024
-1.5339565	व त	-0.24702446
-1.5994065	उ त	-0.16439725
-2.0032973	ड त	-0.16439725
-1.709036	इ त	-0.16439725
-1.6949869	ष त	-0.20694147
-1.7090575	फ त	-0.16439725
-1.3652577	ख त	-0.41611442
-1.4447851	ू त	-0.22210228
-1.8320396	द त	-0.3053817
-1.4378892	ण त	-0.38809657
-1.5642041	आ त	-0.16439725
-1.9702822	ट त	-0.16439725
-1.3738462	ो त	-0.33238965
-1.6074954	ु त	-0.22919346
-1.4953377	अ त	-0.20694147
-1.6372483	़ त	-0.22210228
-0.8462819	ृ त	-0.28516936
-1.7755959	( त	-0.16439725
-1.2582557	ौ त	-0.16439725
-1.8114654	= त	-0.16439725
-1.1183748	छ त	-0.46820608
-1.9077901	. त	-0.16439725
-1.9818747	- त	-0.16439725
-1.0700525	ऐ त	-0.16439725
-1.5748777	झ त	-0.16439725
-1.7766964	" त	-0.16439725
-0.999526	ञ त	-0.16439725
-0.91127175	ऋ त	-0.16439725
-1.1786681	‍ त	-0.16439725
-1.4710827	‘ त	-0.16439725
-1.4497508	ब े	-0.2528496
-1.3667297	र े	-0.39683178
-1.4596128	ध े	-0.46727782
-1.25599	म े	-0.3976464
-1.1234212	न े	-0.5243299
-1.2970364	क े	-0.4079669
-1.5016594	श े	-0.24702446
-1.4375166	ह े	-0.27433386
-1.3377664	य े	-0.41550756
-1.585614	भ े	-0.24468793
-1.1874365	त े	-0.5373138
-1.4526546	प े	-0.26659822
-1.2568104	च े	-0.42948925
-2.2183006	ं े	-0.16439725
-1.666677	ग े	-0.24221304
-1.105011	ल े	-0.4701584
-1.8206264	ज े	-0.21337424
-1.3388246	स े	-0.41839665
-1.5448672	थ े	-0.1851486
-1.3187559	व े	-0.27104822
-1.2535851	ड े	-0.21337424
-1.9434851	ष े	-0.16439725
-1.7694035	फ े	-0.16439725
-1.5274186	ख े	-0.20694147
-1.2970036	द े	-0.3865672
-1.8312281	ण े	-0.16439725
-1.2013701	ट े	-0.2118409
-2.3330672	ो े	-0.16439725
-1.5974233	ढ े	-0.16439725
-1.7018406	़ े	-0.23462392
-1.3561311	छ े	-0.20694147
-1.6816716	घ े	-0.16439725
-1.0898652	ऐ े	-0.16439725
-1.4200069	झ े	-0.16439725
-1.7932757	' प	-0.1851486
-2.1008518	र प	-0.2784729
-1.4299213	् प	-0.3139494
-2.1195905	म प	-0.20694147
-1.5532237	ा प	-0.3182165
-2.0595288	न प	-0.16439725
-1.4484447	# प	-0.9328966
-1.911833	क प	-0.1851486
-1.8246932	ै प	-0.16439725
-1.4510761	। प	-0.34326732
-1.7804878	य प	-0.22318137
-2.0313118	भ प	-0.16439725
-1.9815346	त प	-0.16439725
-2.064102	े प	-0.20694147
-1.9912616	च प	-0.16439725
-1.5082518	ि प	-0.3322568
-1.5814474	ी प	-0.20200321
-1.8709509	ं प	-0.19008154
-2.3450527	ल प	-0.16439725
-2.1782444	ज प	-0.16439725
-1.6876472	स प	-0.20694147
-2.176855	व प	-0.20694147
-1.2609123	उ प	-0.19962128
-1.8773153	ष प	-0.16439725
-1.895186	ू प	-0.16439725
-1.9381388	ण प	-0.16439725
-1.3165591	औ प	-0.16439725
-1.7452819	आ प	-0.16439725
-2.1307	ट प	-0.16439725
-1.3785789	ो प	-0.2194942
-1.4770145	ु प	-0.21738079
-1.873159	, प	-0.2541105
-1.3134749	अ प	-0.19008154
-1.6104858	ई प	-0.16439725
-1.1858089	ऊ प	-0.16439725
-1.3829538	ृ प	-0.16439725
-1.8050022	( प	-0.16439725
-1.5828142	[ प	-0.16439725
-1.7087604	| प	-0.16439725
-1.8352582	= प	-0.16439725
-1.5090075	ॉ प	-0.2541105
-1.4903221	: प	-0.2541105
-1.5567179	. प	-0.24468793
-1.2837946	- प	-0.17939007
-1.0757734	ऑ प	-0.16439725
-1.7980218	" प	-0.16439725
-1.00424	ञ प	-0.16439725
-1.1858089	‍ प	-0.16439725
-1.4854538	‘ प	-0.16439725
-2.006779	' च	-0.16439725
-1.9409173	ब च	-0.18819572
-1.9277726	र च	-0.24660584
-1.9960334	् च	-0.24170363
-1.9946058	म च	-0.21337424
-1.8511566	ा च	-0.42311573
-2.4918375	न च	-0.16439725
-1.7132883	# च	-0.71114415
-1.6951454	ए च	-0.23462392
-2.217802	श च	-0.16439725
-2.274184	ह च	-0.16439725
-2.022279	ै च	-0.16439725
-2.0869405	भ च	-0.16439725
-2.2274501	े च	-0.16439725
-2.2208765	प च	-0.2541105
-2.3217614	ि च	-0.16439725
-1.9575285	ी च	-0.18819572
-1.4231913	ं च	-0.3143721
-1.9025596	ल च	-0.16439725
-2.2935195	स च	-0.16439725
-1.9216266	व च	-0.20694147
-1.6540713	उ च	-0.16439725
-1.7700573	इ च	-0.16439725
-1.9367932	ू च	-0.16439725
-1.6133121	आ च	-0.22210228
-1.7410668	ो च	-0.19809264
-1.0662755	ँ च	-0.22210228
-1.8527511	ु च	-0.20694147
-2.0924892	, च	-0.16439725
-1.8626777	अ च	-0.16439725
-1.8647025	( च	-0.16439725
-1.7522658	| च	-0.16439725
-1.7303929	ॉ च	-0.16439725
-1.1471143	* च	-0.16439725
-1.701014	. च	-0.29118654
-1.5375857	- च	-0.22210228
-1.8400652	" च	-0.16439725
-0.9222506	ऋ च	-0.16439725
-1.2245165	ब ि	-0.32165805
-1.3462263	र ि	-0.42627582
-1.0858204	ध ि	-0.40547073
-1.2326707	म ि	-0.4258008
-1.1888474	न ि	-0.38017875
-1.3234017	क ि	-0.32702798
-1.1100459	श ि	-0.30703843
-1.2812628	ह ि	-0.28009912
-2.0102534	य ि	-0.23462392
-1.4525309	भ ि	-0.27058616
-1.108994	त ि	-0.43964714
-1.4553058	प ि	-0.33048782
-1.1587242	च ि	-0.49314338
-1.5725702	ग ि	-0.24843243
-1.2422762	ल ि	-0.38498306
-1.2494864	ज ि	-0.28793615
-1.3405814	स ि	-0.37512028
-1.3408216	थ ि	-0.19229205
-0.919445	व ि	-0.47232592
-1.071181	ड ि	-0.25528055
-1.2448192	ष ि	-0.20200321
-1.2584912	फ ि	-0.20694147
-1.1349305	ख ि	-0.18279332
-1.2603681	द ि	-0.32314646
-1.3327241	ण ि	-0.2588584
-1.1133388	ट ि	-0.24780612
-1.0922533	़ ि	-0.22210228
-1.3611304	छ ि	-0.22210228
-1.2215662	ठ ि	-0.19809264
-1.6924877	घ ि	-0.16439725
-1.6466441	झ ि	-0.16439725
-1.2706614	ब ी	-0.26126823
-1.2160391	र ी	-0.4712224
-1.1999272	ध ी	-0.3007364
-1.3414164	म ी	-0.30971333
-1.1884835	न ी	-0.46862805
-1.3771371	क ी	-0.37142575
-1.1095923	श ी	-0.36042392
-1.2806257	ह ी	-0.42114043
-1.8242465	य ी	-0.29118654
-1.2627467	भ ी	-0.28969467
-1.1086736	त ी	-0.53173506
-1.328521	प ी	-0.24123617
-1.3183595	च ी	-0.34233907
-1.1499268	ग ी	-0.5124635
-1.198377	ल ी	-0.47181693
-1.2488084	ज ी	-0.38618046
-1.2553518	स ी	-0.4662804
-1.1985067	थ ी	-0.28278562
-1.3199686	व ी	-0.35406694
-1.339445	ड ी	-0.29817697
-1.5970868	ष ी	-0.34326732
-1.2575415	फ ी	-0.16439725
-1.28876	ख ी	-0.5342246
-1.1615868	द ी	-0.3428621
-1.2260729	ण ी	-0.28278562
-1.1553919	ट ी	-0.328133
-1.6012852	ढ ी	-0.16439725
-1.3379376	़ ी	-0.3182165
-1.7389853	छ ी	-0.16439725
-1.0757885	ठ ी	-0.31163472
-1.6888524	घ ी	-0.16439725
-1.244036	झ ी	-0.16439725
-1.4382693	ब ं	-0.40341163
-1.8405821	र ं	-0.23462392
-1.5706811	म ं	-0.3209559
-1.3857617	ा ं	-0.42025357
-1.8638077	न ं	-0.40882248
-2.192088	क ं	-0.20694147
-1.8533444	ए ं	-0.16439725
-1.4895324	श ं	-0.40882248
-1.973754	ह ं	-0.16439725
-1.1403041	ै ं	-0.21490179
-1.5774136	य ं	-0.27433386
-1.4353473	भ ं	-0.24468793
-2.158181	त ं	-0.19809264
-1.1368083	े ं	-0.44485572
-2.070938	प ं	-0.23702808
-1.6863048	च ं	-0.38809657
-1.433973	ि ं	-0.39818943
-1.4793382	ी ं	-0.35406694
-1.767445	ग ं	-0.16439725
-1.8871242	ल ं	-0.18819572
-2.2019143	ज ं	-0.16439725
-1.2245654	स ं	-0.3404255
-1.3496513	व ं	-0.31513256
-1.6307232	उ ं	-0.16439725
-1.1849658	इ ं	-0.23170212
-1.9082149	फ ं	-0.16439725
-1.8398688	ख ं	-0.2541105
-1.2084514	ू ं	-0.2588584
-2.2817395	द ं	-0.16439725
-1.7621841	आ ं	-0.16439725
-2.1511457	ट ं	-0.16439725
-0.90759575	ो ं	-0.6536001
-1.8343105	ु ं	-0.20634428
-1.5166962	अ ं	-0.22271855
-1.5767758	ढ ं	-0.16439725
-1.6668123	़ ं	-0.2541105
-1.8080914	ई ं	-0.16439725
-1.1906354	ऊ ं	-0.16439725
-1.598324	ृ ं	-0.16439725
-1.6269999	ौ ं	-0.16439725
-1.5012739	छ ं	-0.2541105
-1.3577331	ॉ ं	-0.22210228
-1.6441691	घ ं	-0.16439725
-1.0793746	ऐ ं	-0.16439725
-1.192115	ओ ं	-0.22210228
-2.006779	' ग	-0.16439725
-2.2202325	ब ग	-0.16439725
-2.1351874	र ग	-0.16439725
-1.9960334	् ग	-0.16439725
-1.9946058	म ग	-0.19229205
-1.719054	ा ग	-0.33158877
-1.9700984	न ग	-0.19229205
-1.5336772	# ग	-0.72281075
-1.6951454	ए ग	-0.22210228
-2.022279	ै ग	-0.16439725
-2.105494	य ग	-0.16439725
-1.7758231	भ ग	-0.19809264
-1.5711272	े ग	-0.50904155
-1.736861	ि ग	-0.29817697
-2.2515972	ी ग	-0.16439725
-0.9978249	ं ग	-0.4129045
-2.2194552	ग ग	-0.16439725
-2.022129	ल ग	-0.22288679
-1.8106312	ज ग	-0.18279332
-2.1716545	स ग	-0.16439725
-1.6540713	उ ग	-0.16439725
-1.9898512	ण ग	-0.16439725
-1.7934445	आ ग	-0.16439725
-1.5640795	ो ग	-0.25034747
-1.6343157	ु ग	-0.17939007
-1.8626777	अ ग	-0.16439725
-1.6887739	़ ग	-0.2541105
-1.7109251	( ग	-0.20694147
-1.7522658	| ग	-0.16439725
-1.8825825	= ग	-0.16439725
-1.5359585	ॉ ग	-0.2541105
-1.7301319	: ग	-0.16439725
-2.113286	. ग	-0.16439725
-1.958738	- ग	-0.16439725
-1.6244597	झ ग	-0.16439725
-1.8400652	" ग	-0.16439725
-1.4077561	> ग	-0.16439725
-1.5131035	‘ ग	-0.16439725
-1.5079814	ब ल	-0.27433386
-1.8985566	र ल	-0.23226833
-1.3191636	् ल	-0.34562206
-1.5622392	म ल	-0.31772336
-1.457839	ा ल	-0.51073736
-1.9382893	न ल	-0.19229205
-1.5791837	# ल	-0.83029485
-1.6804888	क ल	-0.343178
-1.8223362	ए ल	-0.16439725
-1.8802346	श ल	-0.19229205
-1.6589092	ह ल	-0.23702808
-1.2811266	ै ल	-0.18819572
-1.7708023	य ल	-0.16439725
-1.8713148	भ ल	-0.22210228
-1.6896039	त ल	-0.46764886
-1.4493766	े ल	-0.21498549
-1.7711031	प ल	-0.19809264
-1.5463243	च ल	-0.2332483
-1.1911367	ि ल	-0.5089417
-1.521476	ी ल	-0.36962664
-1.6321104	ग ल	-0.2597314
-1.9799066	ल ल	-0.38809657
-1.7750733	ज ल	-0.18279332
-1.6188185	स ल	-0.26801038
-1.3111215	थ ल	-0.19809264
-1.6768287	व ल	-0.21624283
-1.6054918	उ ल	-0.16439725
-1.7337153	ड ल	-0.19809264
-1.5382257	इ ल	-0.16439725
-1.5681242	फ ल	-0.19229205
-1.4961545	ख ल	-0.19809264
-1.0928922	ू ल	-0.32269815
-1.621883	द ल	-0.2096732
-1.920763	ण ल	-0.16439725
-1.229853	आ ल	-0.24468793
-1.849122	ट ल	-0.22210228
-1.2902087	ो ल	-0.2838652
-1.4419875	ँ ल	-0.16439725
-1.0992999	ु ल	-0.30235794
-1.3080248	अ ल	-0.20694141
-1.5623529	ढ ल	-0.16439725
-1.6430023	़ ल	-0.16439725
-1.7803609	ई ल	-0.16439725
-1.7851785	( ल	-0.16439725
-1.9378246	) ल	-0.16439725
-1.2606524	ौ ल	-0.23462392
-1.8192524	= ल	-0.16439725
-1.6621794	छ ल	-0.16439725
-1.1410872	ॉ ल	-0.16439725
-1.4059091	ठ ल	-0.16439725
-1.887367	- ल	-0.16439725
-1.5804255	झ ल	-0.16439725
-1.1810354	‍ ल	-0.16439725
-1.980262	' ज	-0.16439725
-2.1843462	ब ज	-0.16439725
-2.0045426	र ज	-0.23702808
-1.8009835	् ज	-0.2597314
-2.096002	ध ज	-0.16439725
-2.2497935	म ज	-0.16439725
-1.7516125	ा ज	-0.28006315
-2.3415163	न ज	-0.16439725
-1.5740241	# ज	-0.8128962
-2.411599	क ज	-0.16439725
-2.1842403	श ज	-0.16439725
-2.104666	ह ज	-0.16439725
-1.8432962	ै ज	-0.16439725
-2.0755026	य ज	-0.16439725
-2.0557182	भ ज	-0.16439725
-2.2796123	त ज	-0.16439725
-1.5641804	े ज	-0.2597314
-2.3087149	प ज	-0.16439725
-1.6071646	ि ज	-0.20060255
-1.5871121	ी ज	-0.20200321
-1.2946289	ं ज	-0.24871327
-1.9395212	ग ज	-0.18819572
-2.3773122	ल ज	-0.16439725
-2.3785355	स ज	-0.16439725
-1.9073058	व ज	-0.24468793
-1.6339829	उ ज	-0.16439725
-1.7256203	ष ज	-0.16439725
-1.9969491	ख ज	-0.16439725
-1.9136058	ू ज	-0.16439725
-1.9608845	ण ज	-0.16439725
-1.3232737	औ ज	-0.16439725
-1.7665144	आ ज	-0.16439725
-1.7302389	ो ज	-0.2898251
-2.001267	ु ज	-0.16439725
-1.5188365	, ज	-0.2541105
-1.8344777	अ ज	-0.16439725
-1.8366665	़ ज	-0.16439725
-1.6010867	ृ ज	-0.16439725
-1.6870921	( ज	-0.19229205
-1.6298022	ौ ज	-0.16439725
-1.959717	. ज	-0.22210228
-1.8125285	- ज	-0.16439725
-1.4184718	ओ ज	-0.16439725
-1.4978042	‘ ज	-0.16439725
-1.4135478	<s> स	-0.2541105
-1.7741897	' स	-0.18819572
-1.5043682	ब स	-0.22210228
-1.6196752	र स	-0.30913028
-1.36691	् स	-0.29285616
-1.6760514	म स	-0.32009137
-1.5479996	ा स	-0.47118467
-1.6565449	न स	-0.17812076
-1.4597876	# स	-0.9769328
-2.149844	क स	-0.19809264
-1.0645186	ए स	-0.29901537
-2.1240199	श स	-0.16439725
-1.4833555	ह स	-0.27433386
-1.2780125	ै स	-0.2751275
-1.8003584	। स	-0.16439725
-1.9170966	य स	-0.16439725
-2.2260835	त स	-0.16439725
-1.5506115	े स	-0.22919346
-1.8788681	प स	-0.18819572
-2.095323	च स	-0.16439725
-1.3927847	ि स	-0.36005977
-1.7996846	ी स	-0.20634428
-1.3637801	ं स	-0.36252898
-2.1121557	ग स	-0.16439725
-2.1160235	ल स	-0.16439725
-2.0332217	ज स	-0.16439725
-1.9537412	स स	-0.24468793
-1.7928863	थ स	-0.16439725
-1.6727053	व स	-0.3247141
-1.0431284	उ स	-0.19491912
-0.77734673	इ स	-0.28948918
-1.7063829	फ स	-0.16439725
-1.8706441	ू स	-0.16439725
-1.993945	द स	-0.26269445
-0.88502246	औ स	-0.34326732
-1.7171991	आ स	-0.16439725
-1.6181023	ो स	-0.26022455
-1.4141164	ु स	-0.31263512
-1.8561218	, स	-0.16439725
-1.3039815	अ स	-0.21770033
-1.5948734	ई स	-0.16439725
-1.7708828	( स	-0.16439725
-1.5675609	[ स	-0.16439725
-1.9322946	) स	-0.16439725
-1.5973114	ौ स	-0.16439725
-1.8076236	= स	-0.16439725
-1.4926887	ॉ स	-0.16439725
-1.1277924	* स	-0.16439725
-1.6781905	/ स	-0.16439725
-1.5430571	. स	-0.16439725
-1.7336376	ठ स	-0.16439725
-0.95665836	- स	-0.4068471
-0.63108265	ऐ स	-0.24468793
-1.7732418	" स	-0.16439725
-0.62775654	ऎ स	-0.16439725
-1.4687332	‘ स	-0.16439725
-2.0692384	र थ	-0.20694147
-1.8604603	् थ	-0.19590835
-2.566784	म थ	-0.16439725
-2.0882802	ा थ	-0.26067537
-1.7931623	# थ	-0.97866964
-1.8776557	क थ	-0.46820608
-1.9505495	ै थ	-0.16439725
-2.0632303	य थ	-0.34326732
-2.5932689	त थ	-0.16439725
-2.3417616	े थ	-0.16439725
-2.505319	प थ	-0.16439725
-2.28757	ि थ	-0.16439725
-2.4816241	ं थ	-0.16439725
-2.511477	व थ	-0.16439725
-1.9663961	अ थ	-0.16439725
-1.6765742	ृ थ	-0.16439725
-1.9250743	ौ थ	-0.16439725
-2.2431939	- थ	-0.16439725
-1.2233876	‍ थ	-0.16439725
-1.9278244	' व	-0.16439725
-1.5116253	र व	-0.33502793
-1.2309899	् व	-0.34777537
-2.0400085	ध व	-0.16439725
-2.188208	म व	-0.16439725
-1.4554346	ा व	-0.39961737
-1.6073503	न व	-0.38747883
-1.4734602	# व	-0.91224855
-2.1461997	क व	-0.22210228
-1.8076247	ए व	-0.16439725
-2.1193588	श व	-0.16439725
-1.6528677	ह व	-0.38809657
-1.7964927	ै व	-0.2541105
-1.7976253	। व	-0.16439725
-1.9137559	य व	-0.18819572
-1.3229904	भ व	-0.1851486
-1.8492122	त व	-0.1851486
-1.5494996	े व	-0.29775834
-2.0291185	प व	-0.22210228
-1.6485035	ि व	-0.29339182
-1.7978282	ी व	-0.2902603
-1.8520302	ं व	-0.18819572
-2.0020113	ग व	-0.20694147
-1.9693078	ल व	-0.20694147
-1.9224236	ज व	-0.19809264
-1.8397024	स व	-0.2784729
-1.7889475	थ व	-0.16439725
-2.250037	व व	-0.16439725
-1.9946047	ड व	-0.16439725
-1.7023897	इ व	-0.16439725
-1.9968245	ू व	-0.16439725
-1.827942	द व	-0.3418757
-1.9040557	ण व	-0.16439725
-1.5587754	आ व	-0.18819572
-1.8388023	ट व	-0.20694147
-2.087454	ो व	-0.19809264
-1.2237722	ँ व	-0.16439725
-1.4131373	ु व	-0.2332483
-1.8537415	, व	-0.2541105
-1.779016	अ व	-0.16439725
-1.7815146	़ व	-0.16439725
-1.5664722	ृ व	-0.16439725
-1.6395456	( व	-0.22210228
-1.6796509	| व	-0.16439725
-1.8038156	= व	-0.16439725
-1.4743533	छ व	-0.16439725
-1.6610823	ॉ व	-0.16439725
-1.7303963	ठ व	-0.16439725
-1.2751367	- व	-0.36962664
-1.6066428	घ व	-0.16439725
-1.0683855	ऑ व	-0.16439725
-1.7698145	" व	-0.16439725
-0.997966	ञ व	-0.16439725
-1.4816071	3 व	-0.16439725
-1.3920321	ओ व	-0.16439725
-0.90897155	µ व	-0.16439725
-1.2626034	‘ व	-0.22210228
-2.164362	' उ	-0.16439725
-2.825165	र उ	-0.16439725
-2.1148129	ा उ	-0.26022455
-1.6383265	# उ	-0.87290156
-2.078305	( उ	-0.16439725
-1.682045	[ उ	-0.16439725
-1.8935957	| उ	-0.16439725
-2.0396721	= उ	-0.16439725
-1.9755452	" उ	-0.16439725
-1.6630656	<s> ड	-0.16439725
-2.0022457	' ड	-0.16439725
-2.0716517	ब ड	-0.2541105
-1.6852081	् ड	-0.27014107
-1.9471321	ध ड	-0.2541105
-2.276018	म ड	-0.2541105
-2.0396328	ा ड	-0.3418757
-1.8409861	# ड	-0.62650067
-1.8402098	क ड	-0.46727782
-1.6923631	ए ड	-0.22210228
-2.2259603	य ड	-0.16439725
-1.7141465	े ड	-0.22318137
-2.0934618	प ड	-0.24468793
-2.3164077	ि ड	-0.16439725
-1.7371807	ी ड	-0.19229205
-1.1732502	ं ड	-0.38681352
-2.2127454	ग ड	-0.16439725
-2.18337	ल ड	-0.16439725
-2.2400296	ज ड	-0.16439725
-2.4117951	स ड	-0.16439725
-1.8659686	थ ड	-0.16439725
-2.3547454	व ड	-0.16439725
-1.650658	उ ड	-0.16439725
-2.079917	ड ड	-0.16439725
-1.7662205	इ ड	-0.16439725
-1.9202901	ष ड	-0.16439725
-2.0228555	ख ड	-0.16439725
-2.0877578	ू ड	-0.16439725
-1.7888386	आ ड	-0.16439725
-1.4958367	ो ड	-0.37596512
-1.8500683	ु ड	-0.16439725
-1.8987195	, ड	-0.2541105
-1.8578486	अ ड	-0.16439725
-1.706861	( ड	-0.22210228
-1.5153869	छ ड	-0.2541105
-1.7264557	ॉ ड	-0.16439725
-1.9855422	. ड	-0.2541105
-1.6642226	घ ड	-0.16439725
-0.33898818	ऍ ड	-0.16439725
-1.7156281	<s> इ	-0.16439725
-2.1148853	' इ	-0.16439725
-1.742789	ा इ	-0.26810458
-1.6776979	# इ	-0.87025374
-1.9231111	। इ	-0.16439725
-2.5331216	े इ	-0.16439725
-2.2332542	ू इ	-0.16439725
-1.9035275	आ इ	-0.16439725
-2.1298296	ो इ	-0.16439725
-2.274334	ु इ	-0.16439725
-1.9608843	, इ	-0.16439725
-2.0081708	( इ	-0.16439725
-1.9903702	= इ	-0.16439725
-2.121969	. इ	-0.2541105
-2.2635756	- इ	-0.16439725
-1.4523818	> इ	-0.16439725
-1.3252195	‘ इ	-0.2541105
-2.7135553	र ष	-0.16439725
-2.2395594	् ष	-0.2088892
-2.3256047	ा ष	-0.20694147
-2.6814036	न ष	-0.16439725
-3.1615312	# ष	-0.16439725
-2.1634803	ै ष	-0.16439725
-2.2182295	भ ष	-0.16439725
-1.8562447	े ष	-0.26067537
-2.5256815	प ष	-0.16439725
-1.7673259	ि ष	-0.4565192
-2.3792431	ी ष	-0.16439725
-1.7327471	उ ष	-0.16439725
-2.0293531	ू ष	-0.16439725
-1.7812432	ो ष	-0.21337424
-1.7747719	ु ष	-0.22210228
-1.9789062	अ ष	-0.16439725
-1.01596	ृ ष	-0.24468793
-2.05281	र फ	-0.16439725
-2.043863	् फ	-0.16439725
-2.2914228	ा फ	-0.24702446
-2.5991628	न फ	-0.16439725
-1.7469149	# फ	-0.6255002
-2.3644865	ह फ	-0.16439725
-2.538257	त फ	-0.16439725
-2.2707849	च फ	-0.16439725
-2.2586784	ि फ	-0.16439725
-2.47936	ी फ	-0.16439725
-2.5279002	ल फ	-0.16439725
-2.3446271	ज फ	-0.16439725
-2.368003	स फ	-0.16439725
-1.7010726	उ फ	-0.16439725
-1.8582424	आ फ	-0.16439725
-2.2709134	ट फ	-0.16439725
-2.220924	ु फ	-0.16439725
-1.9308925	अ फ	-0.16439725
-1.2156073	ऊ फ	-0.16439725
-1.9478037	( फ	-0.16439725
-1.9460987	= फ	-0.16439725
-1.3926365	ॉ फ	-0.16439725
-1.8890623	- फ	-0.22210228
-1.0987226	ऑ फ	-0.16439725
-1.5482255	‘ फ	-0.16439725
-2.3585658	ब ख	-0.16439725
-2.393402	र ख	-0.18091825
-1.9393227	ा ख	-0.18279332
-1.8570541	# ख	-0.5307432
-2.1895359	े ख	-0.20906466
-1.9515004	ि ख	-0.22271855
-2.3653362	ी ख	-0.16439725
-1.9502989	ं ख	-0.19809264
-2.5888202	ल ख	-0.16439725
-2.5782442	स ख	-0.16439725
-2.2178195	ू ख	-0.16439725
-2.4668872	द ख	-0.16439725
-1.8917558	आ ख	-0.16439725
-2.120975	ो ख	-0.16439725
-2.1081004	ु ख	-0.17939007
-1.7538928	अ ख	-0.22210228
-1.9250743	ौ ख	-0.16439725
-2.2431939	- ख	-0.16439725
-1.1077279	ः ख	-0.16439725
-1.9821419	ब ू	-0.19809264
-1.7476707	र ू	-0.29543746
-1.9917691	ध ू	-0.16439725
-1.8999366	म ू	-0.1851486
-2.4463537	न ू	-0.20694147
-1.9634372	क ू	-0.24468793
-2.293878	श ू	-0.16439725
-1.5984899	ह ू	-0.20694147
-1.4566724	य ू	-0.2118409
-0.99108315	भ ू	-0.31267422
-2.0403037	त ू	-0.26269445
-1.3709289	प ू	-0.5132345
-1.9276268	च ू	-0.22210228
-2.0086267	ग ू	-0.20694147
-1.930368	ल ू	-0.19809264
-1.6060259	ज ू	-0.21337424
-1.6499754	स ू	-0.26067537
-1.6972709	उ ू	-0.16439725
-1.965531	ड ू	-0.16439725
-1.6239246	फ ू	-0.20694147
-2.0984802	ख ू	-0.16439725
-1.8962592	द ू	-0.23702808
-2.0840378	ट ू	-0.16439725
-1.9268364	़ ू	-0.16439725
-1.763679	छ ू	-0.16439725
-1.7111357	घ ू	-0.16439725
-1.6475924	<s> द	-0.16439725
-1.971771	' द	-0.16439725
-1.7388189	ब द	-0.20694147
-1.7218382	र द	-0.28071052
-1.4991902	् द	-0.31597635
-1.7653028	म द	-0.29056883
-1.7103428	ा द	-0.3511124
-1.7231027	न द	-0.21624283
-1.5731719	# द	-0.8844605
-2.1880732	क द	-0.22210228
-2.2267032	ह द	-0.16439725
-1.3878573	ै द	-0.19809264
-1.6690781	य द	-0.24702446
-2.0457904	भ द	-0.16439725
-2.3870666	त द	-0.16439725
-1.5618892	े द	-0.3234055
-1.9030356	प द	-0.21337424
-2.144576	च द	-0.16439725
-1.605091	ि द	-0.34541968
-1.8186992	ी द	-0.28278562
-1.1192043	ं द	-0.44911695
-1.7650633	ग द	-0.19809264
-2.260049	ल द	-0.16439725
-1.9590782	ज द	-0.16439725
-2.140951	स द	-0.19491912
-2.0715613	व द	-0.16439725
-1.2650899	उ द	-0.22210228
-1.8897672	ष द	-0.16439725
-1.9870042	ख द	-0.16439725
-1.5858719	ू द	-0.2298859
-2.1484437	द द	-0.16439725
-1.3205754	औ द	-0.16439725
-1.5895096	आ द	-0.19809264
-1.7266887	ो द	-0.25278026
-1.5452551	ु द	-0.32009137
-1.8254703	अ द	-0.16439725
-1.8277122	़ द	-0.16439725
-1.214463	ृ द	-0.22210228
-1.8204874	( द	-0.16439725
-1.4709698	ौ द	-0.16439725
-1.847662	= द	-0.16439725
-2.0596116	. द	-0.16439725
-1.6410304	- द	-0.20694147
-1.6004207	झ द	-0.16439725
-1.1894238	‍ द	-0.16439725
-1.4928218	‘ द	-0.16439725
-1.7011155	र ण	-0.369369
-2.210066	् ण	-0.17704956
-2.2356222	म ण	-0.19809264
-2.303928	ा ण	-0.28351378
-2.5911996	क ण	-0.16439725
-2.1254654	ै ण	-0.16439725
-2.3610554	य ण	-0.16439725
-2.32159	े ण	-0.16439725
-2.476461	प ण	-0.16439725
-2.272884	ि ण	-0.16439725
-2.5069096	ी ण	-0.16439725
-1.5029931	ग ण	-0.2751275
-2.4840498	व ण	-0.16439725
-1.8365613	इ ण	-0.16439725
-1.2534884	ष ण	-0.2597314
-1.9289935	ख ण	-0.2541105
-2.1956496	ू ण	-0.16439725
-1.874676	आ ण	-0.16439725
-2.4285357	ो ण	-0.16439725
-2.093804	ु ण	-0.16439725
-1.6667918	ृ ण	-0.16439725
-0.9328435	ऋ ण	-0.16439725
-2.1776648	' औ	-0.16439725
-1.6189561	# औ	-0.96287537
-2.243439	, औ	-0.16439725
-2.097763	( औ	-0.16439725
-2.382903	- औ	-0.16439725
-1.986651	" औ	-0.16439725
-1.4128712	; औ	-0.16439725
-2.1451416	' आ	-0.16439725
-1.6580836	# आ	-0.7581971
-2.6863923	ि आ	-0.16439725
-2.5281038	ो आ	-0.16439725
-2.3113918	ु आ	-0.16439725
-2.0506606	( आ	-0.16439725
-2.2689772	) आ	-0.16439725
-2.020522	= आ	-0.16439725
-2.1600168	. आ	-0.2541105
-1.9594015	" आ	-0.16439725
-0.81644773	+ आ	-0.16439725
-1.5864398	‘ आ	-0.16439725
-2.2019188	ब ट	-0.16439725
-2.3850653	र ट	-0.2541105
-1.437557	् ट	-0.3250641
-2.2653372	म ट	-0.16439725
-1.7985388	ा ट	-0.2800104
-2.4704297	न ट	-0.16439725
-1.9519455	# ट	-0.49117523
-2.0467153	क ट	-0.19809264
-1.8697203	ए ट	-0.16439725
-2.2557652	ह ट	-0.16439725
-1.5259969	ै ट	-0.16439725
-2.2125115	य ट	-0.16439725
-2.0710487	भ ट	-0.16439725
-2.418583	त ट	-0.16439725
-1.6333952	े ट	-0.29601404
-2.0858233	प ट	-0.16439725
-1.559996	ि ट	-0.2526818
-1.7339705	ी ट	-0.22210228
-1.5949432	ं ट	-0.26200032
-2.286396	ल ट	-0.22210228
-2.2269492	ज ट	-0.16439725
-2.2780046	स ट	-0.16439725
-2.3417842	व ट	-0.16439725
-1.5662267	इ ट	-0.16439725
-1.463065	ू ट	-0.16439725
-2.1726015	ट ट	-0.16439725
-1.4359695	ो ट	-0.33231583
-1.46902	ँ ट	-0.16439725
-1.6294608	ु ट	-0.20200321
-1.8483489	अ ट	-0.16439725
-1.8226502	ई ट	-0.16439725
-1.6988451	( ट	-0.16439725
-1.6383195	ौ ट	-0.16439725
-1.7043934	छ ट	-0.16439725
-2.0923731	. ट	-0.16439725
-2.065856	- ट	-0.16439725
-0.66247225	ॅ ट	-0.16439725
-1.4563725	घ ट	-0.16439725
-1.6152885	झ ट	-0.16439725
-1.0832891	ऑ ट	-0.16439725
-1.424809	ओ ट	-0.16439725
-1.2706614	ब ो	-0.36237577
-1.4158214	र ो	-0.37575048
-1.8100252	ध ो	-0.20694147
-1.4084308	म ो	-0.33276913
-1.3310872	न ो	-0.46240604
-1.1917281	क ो	-0.4201434
-1.5039011	श ो	-0.20200321
-1.3273703	ह ो	-0.27655724
-1.0366305	य ो	-0.541986
-1.7919326	भ ो	-0.16439725
-1.4913418	त ो	-0.460286
-1.4544202	प ो	-0.22288679
-1.9090416	च ो	-0.16439725
-1.185007	ग ो	-0.3259673
-1.3163072	ल ो	-0.36011326
-1.6963891	ज ो	-0.21335958
-1.642856	स ो	-0.19008154
-1.3394266	थ ो	-0.20694147
-2.1224043	व ो	-0.16439725
-1.5823717	ड ो	-0.19809264
-1.7617037	ष ो	-0.16439725
-1.9672179	फ ो	-0.16439725
-1.3931483	ख ो	-0.24468793
-1.4986464	द ो	-0.26810458
-1.8382138	ण ो	-0.2541105
-1.3157084	ट ो	-0.29601404
-1.6012852	ढ ो	-0.16439725
-1.7085245	़ ो	-0.16439725
-1.5324537	छ ो	-0.22210228
-1.0757885	ठ ो	-0.19809264
-1.4758805	घ ो	-0.16439725
-1.6434047	झ ो	-0.16439725
-2.1230996	ा ँ	-0.1851486
-2.0477057	ए ँ	-0.16439725
-2.5434964	ह ँ	-0.16439725
-1.8958021	ू ँ	-0.16439725
-2.1761463	ु ँ	-0.16439725
-1.2407391	ऊ ँ	-0.16439725
-2.1183612	ब ु	-0.18279332
-1.8013257	र ु	-0.1907784
-1.3584851	ध ु	-0.24008444
-1.4106365	म ु	-0.30945542
-1.8922818	न ु	-0.24674535
-1.4090431	क ु	-0.35872832
-1.748321	श ु	-0.19491912
-1.6970375	ह ु	-0.19399011
-1.2958033	य ु	-0.28218314
-1.4550421	भ ु	-0.21337424
-1.4936669	त ु	-0.3700131
-1.2953738	प ु	-0.39971596
-1.7163717	च ु	-0.20200321
-1.5756305	ग ु	-0.27944997
-2.0495846	ल ु	-0.16439725
-1.7021235	ज ु	-0.20694147
-1.4474747	स ु	-0.25902483
-2.426079	व ु	-0.16439725
-1.7944019	ड ु	-0.16439725
-1.9679892	ष ु	-0.16439725
-1.6173584	फ ु	-0.22210228
-1.8998826	ख ु	-0.20694147
-1.3423166	द ु	-0.2431335
-1.8489077	ण ु	-0.16439725
-2.070789	ट ु	-0.16439725
-1.9104472	़ ु	-0.16439725
-1.7511567	छ ु	-0.16439725
-1.4825829	घ ु	-0.16439725
-1.6531963	झ ु	-0.16439725
-1.7636485	' ,	-0.2541105
-2.1010263	ब ,	-0.16439725
-1.2913135	र ,	-1.0693378
-1.5624527	ध ,	-0.46820608
-1.6089791	म ,	-0.7692361
-1.45364	ा ,	-1.0315492
-1.2944196	न ,	-1.0113459
-2.4675324	# ,	-0.16439725
-1.6183349	क ,	-0.68912655
-1.4925742	ए ,	-0.34326732
-1.5688269	श ,	-0.5651161
-1.7664275	ह ,	-0.38809657
-1.911426	ै ,	-0.16439725
-1.6433327	य ,	-0.5651161
-1.8489151	भ ,	-0.2541105
-1.6180683	त ,	-0.7692361
-1.2903364	े ,	-0.76784444
-2.1199102	प ,	-0.2541105
-1.9527177	च ,	-0.2541105
-1.8662784	ि ,	-0.46727782
-1.1313912	ी ,	-0.8282645
-1.5712731	ं ,	-0.46653664
-1.6200383	ग ,	-0.5651161
-1.45565	ल ,	-0.8030699
-1.5565228	ज ,	-0.6442973
-1.6110929	स ,	-0.6433691
-1.490325	थ ,	-0.34326732
-1.4735143	व ,	-0.6433691
-1.9818835	ड ,	-0.16439725
-1.6817462	ष ,	-0.2541105
-1.8488111	फ ,	-0.16439725
-1.7902641	ख ,	-0.2541105
-1.3424892	ू ,	-0.46727782
-1.5372403	द ,	-0.7112441
-1.0537683	ण ,	-0.7692361
-1.5355393	ट ,	-0.5651161
-1.8162614	ो ,	-0.46820608
-1.7972496	ु ,	-0.46820608
-1.0950975	ई ,	-0.5651161
-1.7379528	a ,	-0.34326732
-1.8861976	e ,	-0.16439725
-1.6589165	h ,	-0.16439725
-1.4985154	] ,	-0.16439725
-0.6382776	) ,	-1.0693378
-1.7893733	. ,	-0.34326732
-1.6852196	0 ,	-0.16439725
-1.350285	4 ,	-0.2541105
-1.5235101	३ ,	-0.16439725
-1.3314815	४ ,	-0.16439725
-1.7208153	ठ ,	-0.16439725
-1.5486175	१ ,	-0.16439725
-1.3481531	९ ,	-0.16439725
-1.597747	घ ,	-0.16439725
-1.4423136	6 ,	-0.16439725
-0.62643063	‌ ,	-0.16439725
-1.3654556	> ,	-0.16439725
-1.4674745	५ ,	-0.16439725
-1.4914342	’ ,	-0.16439725
-1.064616	८ ,	-0.16439725
-1.4593177	5 ,	-0.16439725
-2.1207702	' अ	-0.16439725
-2.7260356	र अ	-0.16439725
-2.5996802	म अ	-0.16439725
-1.5507314	# अ	-0.9180416
-2.4402122	ह अ	-0.16439725
-1.6846306	। अ	-0.16439725
-1.7787665	, अ	-0.16439725
-2.0163426	( अ	-0.16439725
-1.662961	[ अ	-0.16439725
-1.6256113	| अ	-0.16439725
-2.012537	) अ	-0.16439725
-1.9962354	= अ	-0.16439725
-1.7665205	. अ	-0.29118654
-1.4773656	- अ	-0.24702446
-1.7074689	" अ	-0.16439725
-1.1401068	; अ	-0.2541105
-2.4332206	ब ढ	-0.16439725
-2.7152948	ा ढ	-0.2541105
-2.6727653	# ढ	-0.18819572
-2.4006379	े ढ	-0.22210228
-2.5932117	प ढ	-0.16439725
-2.1591425	च ढ	-0.2541105
-2.6261709	ी ढ	-0.16439725
-2.0760179	ग ढ	-0.26269445
-2.2831502	ू ढ	-0.16439725
-1.7037921	ृ ढ	-0.16439725
-1.4938526	ओ ढ	-0.16439725
-2.73767	ा ़	-0.16439725
-2.7477467	क ़	-0.16439725
-2.6283925	े ़	-0.16439725
-1.8632513	ग ़	-0.19809264
-1.3565211	ज ़	-0.23795636
-0.69826996	ड ़	-0.54655176
-1.0795697	फ ़	-0.20694141
-1.9888515	ख ़	-0.16439725
-0.35079294	ढ ़	-0.32932538
-2.170707	ब ई	-0.2541105
-2.6896214	र ई	-0.16439725
-2.566784	म ई	-0.16439725
-1.478832	ा ई	-0.4441238
-2.659338	न ई	-0.16439725
-2.293519	# ई	-0.32088494
-2.4596596	क ई	-0.2541105
-2.413476	ह ई	-0.16439725
-2.5932689	त ई	-0.16439725
-2.3717806	ग ई	-0.16439725
-2.3985238	ज ई	-0.16439725
-2.5782442	स ई	-0.16439725
-1.4976413	आ ई	-0.19809264
-2.456085	ो ई	-0.16439725
-2.260353	ु ई	-0.19229205
-1.967669	़ ई	-0.16439725
-1.9250743	ौ ई	-0.16439725
-2.2431939	- ई	-0.16439725
-1.7386658	घ ई	-0.16439725
-2.9130204	र ऊ	-0.16439725
-2.799239	ा ऊ	-0.2541105
-2.8610616	न ऊ	-0.16439725
-2.516787	# ऊ	-0.32490647
-2.4332206	ब ृ	-0.16439725
-2.7944608	र ृ	-0.16439725
-1.9354643	म ृ	-0.3418757
-1.8077166	क ृ	-0.46764886
-2.4887912	ह ृ	-0.16439725
-1.9389327	त ृ	-0.19229205
-2.217482	प ृ	-0.20694147
-2.4563243	ग ृ	-0.16439725
-2.6680603	स ृ	-0.16439725
-2.211939	व ृ	-0.22210228
-2.3313746	द ृ	-0.16439725
-1.7031113	<s> d	-0.16439725
-2.7300594	# d	-0.29118654
-1.8438183	d d	-0.16439725
-2.017145	a d	-0.16439725
-1.6277462	r d	-0.16439725
-1.96947	( d	-0.16439725
-1.6111276	n d	-0.16439725
-1.8276985	t d	-0.16439725
-1.465462	i d	-0.26269445
-1.1729858	e d	-0.2751275
-1.7843422	h d	-0.16439725
-1.6599728	g d	-0.16439725
-1.6073546	| d	-0.2541105
-1.8855968	p d	-0.16439725
-1.4245329	_ d	-0.16439725
-1.6128533	/ d	-0.2541105
-2.2458797	. d	-0.16439725
-1.5754333	f d	-0.16439725
-1.8908364	1 d	-0.16439725
-1.5146005	8 d	-0.16439725
-1.5566857	5 d	-0.16439725
-1.1016784	q d	-0.16439725
-2.6675751	# a	-0.20694147
-1.0628706	d a	-0.19809264
-1.8203429	a a	-0.16439725
-0.8253089	b a	-0.19809264
-1.3084433	u a	-0.16439725
-0.9959123	r a	-0.20268975
-1.1290326	n a	-0.26022455
-1.1822112	t a	-0.19491912
-1.6570044	i a	-0.16439725
-1.8630431	o a	-0.16439725
-0.65143895	l a	-0.24843243
-1.7401351	e a	-0.16439725
-0.89782673	c a	-0.46653664
-0.8778688	h a	-0.20200321
-1.2449648	g a	-0.16439725
-1.1929641	| a	-0.20694147
-1.2455201	s a	-0.22210228
-0.9448597	m a	-0.21337424
-1.0108701	p a	-0.18819572
-1.401715	_ a	-0.16439725
-1.5083162	y a	-0.16439725
-1.4426188	w a	-0.16439725
-1.4629576	v a	-0.16439725
-1.4436046	k a	-0.16439725
-0.75938886	j a	-0.2541105
-1.9059258	= a	-0.16439725
-1.4132943	/ a	-0.34326732
-1.7150582	. a	-0.16439725
-1.3183688	f a	-0.16439725
-1.6952583	9 a	-0.16439725
-0.8060383	& a	-0.16439725
-1.9853964	- a	-0.16439725
-1.4464062	% a	-0.1851486
-2.9000468	# b	-0.16439725
-2.0278487	a b	-0.16439725
-1.7426556	u b	-0.16439725
-1.9845392	( b	-0.16439725
-2.0733976	i b	-0.16439725
-1.928748	o b	-0.16439725
-1.6133553	| b	-0.16439725
-1.4368995	m b	-0.16439725
-1.6634121	_ b	-0.16439725
-1.5426637	y b	-0.16439725
-1.4728881	k b	-0.16439725
-1.5804898	= b	-0.22210228
-1.4402393	/ b	-0.16439725
-2.2657082	. b	-0.16439725
-1.808431	2 b	-0.16439725
-1.847728	0 b	-0.16439725
-1.5198861	8 b	-0.16439725
-0.50442183	< b	-0.6442973
-1.7110715	% b	-0.16439725
-0.3422445	î b	-0.16439725
-1.6402502	d u	-0.16439725
-2.2483902	a u	-0.16439725
-1.599093	b u	-0.2541105
-2.0374634	r u	-0.16439725
-2.0163426	( u	-0.16439725
-1.8069006	n u	-0.16439725
-1.4534845	t u	-0.20694147
-1.542606	o u	-0.34326732
-1.5687163	h u	-0.16439725
-1.677872	g u	-0.16439725
-1.4109954	s u	-0.20694147
-1.5080783	p u	-0.16439725
-1.553803	y u	-0.16439725
-1.4823107	k u	-0.16439725
-1.859072	/ u	-0.16439725
-2.1293166	. u	-0.16439725
-3.0078793	# r	-0.16439725
-1.0924306	a r	-0.25542703
-1.5884516	b r	-0.16439725
-1.1018416	u r	-0.16439725
-1.8053831	r r	-0.16439725
-1.2144524	i r	-0.3182165
-0.96781933	o r	-0.16439725
-1.1137122	e r	-0.22260976
-1.723491	c r	-0.16439725
-0.7251284	g r	-0.5651161
-1.834453	| r	-0.16439725
-2.007771	s r	-0.16439725
-1.1294868	p r	-0.19809264
-1.2413938	_ r	-0.34326732
-1.5426637	y r	-0.16439725
-1.4722508	w r	-0.16439725
-1.8371952	/ r	-0.16439725
-1.6256107	0 r	-0.16439725
-1.9190739	" r	-0.16439725
-1.4550362	< r	-0.16439725
-2.84699	ा (	-0.16439725
-1.6256415	# (	-0.44370288
-2.6451175	त (	-0.16439725
-2.561429	व (	-0.16439725
-2.0510798	ष (	-0.16439725
-1.906724	ण (	-0.16439725
-1.9993805	़ (	-0.16439725
-2.081924	t (	-0.16439725
-2.1865203	e (	-0.16439725
-1.8736889	m (	-0.16439725
-1.9294901	p (	-0.16439725
-1.5594815	y (	-0.16439725
-1.4866846	7 (	-0.16439725
-1.4591486	> (	-0.16439725
-2.164362	' [	-0.16439725
-1.849184	( [	-0.2541105
-0.63178504	[ [	-0.16439725
-1.8935957	| [	-0.16439725
-1.5842108	] [	-0.16439725
-1.1801736	* [	-0.16439725
-2.3562703	- [	-0.16439725
-1.7286799	" [	-0.16439725
-1.2104324	> [	-0.16439725
-2.9000468	# n	-0.22210228
-1.853146	d n	-0.16439725
-1.1401052	a n	-0.22754672
-1.5139183	u n	-0.16439725
-1.8053831	r n	-0.16439725
-1.9845392	( n	-0.16439725
-1.652421	[ n	-0.16439725
-1.7927005	n n	-0.16439725
-1.8359089	t n	-0.16439725
-0.8907653	i n	-0.26801038
-0.83295745	o n	-0.20694147
-1.8525476	l n	-0.16439725
-1.4369938	e n	-0.21337424
-1.8878536	g n	-0.16439725
-1.8451294	m n	-0.16439725
-1.6634121	_ n	-0.16439725
-1.7580727	= n	-0.16439725
-1.8371952	/ n	-0.16439725
-1.9517848	. n	-0.16439725
-1.3153393	? n	-0.16439725
-2.996448	# t	-0.16439725
-1.0098692	a t	-0.35463452
-1.7384003	u t	-0.16439725
-1.6304755	r t	-0.18091825
-1.9769392	( t	-0.16439725
-1.6498256	[ t	-0.16439725
-1.613433	n t	-0.16439725
-2.033599	t t	-0.16439725
-0.9927238	i t	-0.2332483
-1.5315346	o t	-0.16439725
-1.4353218	e t	-0.26269445
-0.93351424	x t	-0.16439725
-1.7203166	c t	-0.16439725
-1.1431905	h t	-0.19809264
-1.0600173	| t	-0.23462392
-0.99133813	s t	-0.20200321
-1.6170076	m t	-0.16439725
-1.890847	p t	-0.16439725
-1.5784537	f t	-0.16439725
-2.0569677	- t	-0.16439725
-1.9142864	" t	-0.16439725
-2.321274	# i	-0.6433691
-1.2120354	d i	-0.16439725
-1.5038271	a i	-0.23462392
-1.5679207	b i	-0.16439725
-1.4941709	u i	-0.16439725
-1.1554947	r i	-0.16439725
-1.927167	( i	-0.16439725
-1.7656217	n i	-0.16439725
-1.101702	t i	-0.2579913
-1.8871524	o i	-0.16439725
-0.9306228	l i	-0.19229205
-1.7573044	e i	-0.22210228
-1.5275806	c i	-0.16439725
-1.1371131	h i	-0.16439725
-1.6427822	g i	-0.16439725
-1.7959945	| i	-0.16439725
-1.6043564	s i	-0.22210228
-1.4227365	m i	-0.20694147
-1.6532044	p i	-0.16439725
-1.6348398	_ i	-0.16439725
-1.5212073	y i	-0.16439725
-1.2140396	w i	-0.16439725
-0.644875	v i	-0.24468793
-1.0244457	k i	-0.16439725
-1.5941695	/ i	-0.2541105
-2.0484204	. i	-0.2541105
-1.5577388	f i	-0.16439725
-1.0957867	q i	-0.16439725
-1.5884516	b o	-0.16439725
-1.8053831	r o	-0.16439725
-1.1389958	n o	-0.18819572
-1.8359089	t o	-0.16439725
-2.0733976	i o	-0.16439725
-1.71209	o o	-0.16439725
-0.9338748	l o	-0.18819572
-2.133438	e o	-0.16439725
-1.0641907	c o	-0.24010287
-1.3730769	h o	-0.22210228
-1.2598279	g o	-0.16439725
-1.6243421	s o	-0.16439725
-1.6197407	m o	-0.22210228
-1.1294868	p o	-0.18819572
-1.4288136	_ o	-0.2541105
-1.0273986	j o	-0.16439725
-1.9732351	= o	-0.16439725
-1.9517848	. o	-0.34326732
-1.3405762	f o	-0.16439725
-0.3422445	z o	-0.16439725
-2.996448	# l	-0.16439725
-1.4097201	a l	-0.22919346
-1.5858315	b l	-0.16439725
-1.7384003	u l	-0.16439725
-1.9769392	( l	-0.16439725
-2.033599	t l	-0.16439725
-1.6859549	i l	-0.16439725
-1.7087893	o l	-0.16439725
-1.8491774	l l	-0.16439725
-1.9422529	e l	-0.16439725
-1.7203166	c l	-0.16439725
-1.8829424	g l	-0.16439725
-1.6103445	| l	-0.22210228
-1.8405468	m l	-0.16439725
-1.890847	p l	-0.16439725
-1.659736	_ l	-0.16439725
-1.539923	y l	-0.16439725
-1.774942	: l	-0.16439725
-2.2556808	. l	-0.16439725
-1.9142864	" l	-0.16439725
-1.2718633	{ l	-0.16439725
-2.18865	# e	-0.6126647
-0.8701607	d e	-0.1851486
-1.0223	b e	-0.26269445
-1.0687898	r e	-0.20060255
-1.9139347	( e	-0.16439725
-1.6271385	[ e	-0.16439725
-0.8587898	n e	-0.20268975
-1.0292574	t e	-0.17534113
-1.8773475	o e	-0.16439725
-1.039889	l e	-0.19229205
-1.8964909	e e	-0.2541105
-1.308167	c e	-0.20694147
-0.98873377	h e	-0.23462392
-1.465644	g e	-0.19809264
-1.7868896	| e	-0.16439725
-1.5995004	s e	-0.20694147
-2.202718	) e	-0.16439725
-0.85985917	m e	-0.22318137
-1.4784796	p e	-0.22210228
-1.627981	_ e	-0.16439725
-1.2833782	y e	-0.2541105
-1.4492798	w e	-0.16439725
-0.7955312	v e	-0.18819572
-1.4501892	k e	-0.16439725
-1.9205586	= e	-0.16439725
-1.7868874	/ e	-0.16439725
-1.9051445	. e	-0.16439725
-1.8010561	0 e	-0.16439725
-1.5523041	3 e	-0.16439725
-0.320693	% e	-1.0122741
-1.8572981	e x	-0.22210228
-1.7390921	p x	-0.16439725
-2.5945773	# c	-0.19229205
-1.64159	a c	-0.16439725
-1.5704346	b c	-0.16439725
-1.4965909	u c	-0.16439725
-1.6143514	r c	-0.16439725
-1.9339375	( c	-0.16439725
-1.9683801	n c	-0.16439725
-1.807827	t c	-0.16439725
-0.9897008	i c	-0.20200321
-1.689495	o c	-0.16439725
-1.9112155	e c	-0.2541105
-0.9295054	x c	-0.16439725
-1.7017432	c c	-0.22210228
-1.8545874	g c	-0.16439725
-1.9665232	s c	-0.16439725
-1.4140123	_ c	-0.2541105
-1.473125	v c	-0.16439725
-1.8013774	/ c	-0.16439725
-1.4217345	. c	-0.40882248
-1.5606383	f c	-0.16439725
-1.7198317	9 c	-0.16439725
-0.8090517	& c	-0.16439725
-2.0197093	- c	-0.16439725
-1.8866194	" c	-0.16439725
-1.4561244	7 c	-0.16439725
-1.2641112	{ c	-0.16439725
-0.34104198	° c	-0.16439725
-2.9377847	# h	-0.16439725
-1.8724244	d h	-0.16439725
-2.0500813	a h	-0.16439725
-1.599093	b h	-0.2541105
-0.83138776	[ h	-0.5651161
-1.6754441	t h	-0.16439725
-2.098459	i h	-0.16439725
-0.9790752	c h	-0.29817697
-1.9080732	g h	-0.16439725
-1.8550397	| h	-0.16439725
-1.6346908	s h	-0.16439725
-1.691518	p h	-0.16439725
-1.4817907	w h	-0.16439725
-1.4488779	/ h	-0.29118654
-1.9719402	. h	-0.34326732
-2.0906608	- h	-0.16439725
-2.0866003	' g	-0.16439725
-1.7765126	# g	-0.8318971
-1.6528673	a g	-0.20694147
-1.8068187	b g	-0.16439725
-1.7341862	u g	-0.16439725
-1.7972682	r g	-0.16439725
-1.96947	( g	-0.16439725
-1.6111276	n g	-0.18091825
-2.0271142	t g	-0.16439725
-1.8558999	i g	-0.2541105
-1.7055135	o g	-0.16439725
-1.9369235	e g	-0.16439725
-1.8245144	| g	-0.16439725
-1.6719389	p g	-0.16439725
-1.6560909	_ g	-0.16439725
-1.4675584	w g	-0.16439725
-0.79842246	v g	-0.29118654
-1.4682524	k g	-0.16439725
-1.7721741	: g	-0.16439725
-1.6128533	/ g	-0.16439725
-1.9420475	. g	-0.22210228
-1.6900778	" g	-0.2541105
-2.6669383	र |	-0.16439725
-2.6180096	ा |	-0.16439725
-1.9509032	# |	-0.445076
-2.3704784	य |	-0.16439725
-2.5164952	ी |	-0.16439725
-1.8484571	d |	-0.16439725
-1.8111856	b |	-0.16439725
-1.8013067	r |	-0.16439725
-1.6613549	t |	-0.16439725
-1.7825421	e |	-0.16439725
-0.93351424	x |	-0.16439725
-1.936841	c |	-0.16439725
-1.6629052	g |	-0.16439725
-2.0016332	s |	-0.16439725
-2.2345853	) |	-0.16439725
-1.4705641	k |	-0.16439725
-1.5784537	f |	-0.16439725
-1.5214367	9 |	-0.2541105
-1.2232847	7 |	-0.16439725
-1.2718633	{ |	-0.16439725
-1.1026682	q |	-0.16439725
-2.0600455	' s	-0.16439725
-2.700539	# s	-0.46820608
-1.609596	d s	-0.16439725
-1.64159	a s	-0.16439725
-1.5704346	b s	-0.2541105
-1.3179882	u s	-0.16439725
-1.7776206	r s	-0.16439725
-1.9339375	( s	-0.16439725
-1.384465	n s	-0.16439725
-1.2940174	t s	-0.27225298
-1.3156415	i s	-0.26269445
-1.689495	o s	-0.16439725
-1.1684487	e s	-0.19491912
-1.8545874	g s	-0.16439725
-1.7727549	s s	-0.16439725
-1.6009611	m s	-0.16439725
-1.860258	p s	-0.16439725
-1.5238321	y s	-0.16439725
-1.4560444	w s	-0.16439725
-1.0252762	k s	-0.16439725
-1.425523	/ s	-0.16439725
-2.054615	. s	-0.16439725
-0.8090517	& s	-0.16439725
-2.0197093	- s	-0.16439725
-1.1948905	< s	-0.16439725
-1.430559	> s	-0.16439725
-1.2641112	{ s	-0.16439725
-3.0976248	# ]	-0.16439725
-2.6933112	क ]	-0.16439725
-2.4542747	य ]	-0.16439725
-2.5781498	े ]	-0.16439725
-2.601908	ी ]	-0.16439725
-2.5237286	द ]	-0.16439725
-2.3627129	ट ]	-0.16439725
-1.5395256	ँ ]	-0.16439725
-1.847798	b ]	-0.16439725
-2.0589528	r ]	-0.16439725
-2.1960344	e ]	-0.16439725
-1.8202248	h ]	-0.16439725
-0.3326388	] ]	-0.34393448
-1.9165725	' )	-0.16439725
-1.7046282	र )	-0.46764886
-2.0280511	ध )	-0.16439725
-2.266413	म )	-0.16439725
-1.993814	ा )	-0.34233907
-1.838709	न )	-0.24468793
-1.8040841	क )	-0.38456294
-1.7969091	ए )	-0.16439725
-2.1543658	ह )	-0.16439725
-1.911426	ै )	-0.16439725
-1.9038848	य )	-0.2541105
-1.9560113	त )	-0.3053817
-1.8786495	े )	-0.26269445
-2.0192637	प )	-0.29118654
-2.1202376	ि )	-0.22210228
-1.5692391	ी )	-0.50904155
-1.9956715	ं )	-0.29118654
-1.9898864	ग )	-0.2541105
-1.770819	ल )	-0.46727782
-1.9129413	ज )	-0.20694147
-1.944215	स )	-0.23462392
-1.7773409	थ )	-0.16439725
-2.1312895	व )	-0.2541105
-1.8465834	ड )	-0.16439725
-1.8344892	ष )	-0.16439725
-1.9231192	ख )	-0.16439725
-1.8572187	ू )	-0.16439725
-2.2024693	द )	-0.16439725
-1.7493646	ण )	-0.22210228
-2.078983	ट )	-0.16439725
-2.1382387	ु )	-0.16439725
-1.5861977	ई )	-0.16439725
-1.5288068	d )	-0.2541105
-1.9668651	a )	-0.16439725
-1.8049622	r )	-0.16439725
-1.8229649	n )	-0.16439725
-1.6954954	t )	-0.2541105
-1.8800708	i )	-0.16439725
-1.7519132	o )	-0.16439725
-1.7715423	e )	-0.2541105
-1.7702364	c )	-0.16439725
-1.7250195	g )	-0.16439725
-1.5325097	s )	-0.22210228
-1.4985154	] )	-0.16439725
-1.6915274	m )	-0.16439725
-1.7222533	p )	-0.16439725
-1.4446331	y )	-0.16439725
-1.6393255	छ )	-0.16439725
-1.4892443	2 )	-0.2541105
-1.4281436	9 )	-0.16439725
-1.5748633	1 )	-0.22210228
-1.5210829	0 )	-0.2541105
-1.5460335	4 )	-0.16439725
-1.3314815	४ )	-0.16439725
-1.7596917	" )	-0.16439725
-1.3870173	7 )	-0.16439725
-1.218452	8 )	-0.2541105
-1.1073046	3 )	-0.22210228
-1.6255949	% )	-0.16439725
-1.4593177	5 )	-0.16439725
-2.7552114	# m	-0.26269445
-1.2566055	a m	-0.19809264
-1.7512937	u m	-0.16439725
-1.6387677	r m	-0.22210228
-1.6697534	t m	-0.16439725
-2.0857475	i m	-0.16439725
-1.7187678	o m	-0.16439725
-1.793824	e m	-0.16439725
-1.72991	c m	-0.16439725
-1.4886624	g m	-0.20694147
-1.8064088	s m	-0.2541105
-1.854442	m m	-0.16439725
-1.5481976	y m	-0.16439725
-1.4775739	k m	-0.16439725
-1.0291064	j m	-0.16439725
-1.8479959	/ m	-0.16439725
-2.2864857	. m	-0.16439725
-1.4586048	< m	-0.16439725
-2.0757828	' p	-0.16439725
-2.9638565	# p	-0.16439725
-1.8346869	d p	-0.16439725
-1.6483212	a p	-0.20694147
-1.7258787	u p	-0.16439725
-1.9848708	r p	-0.16439725
-1.9549063	( p	-0.16439725
-1.9843729	n p	-0.16439725
-2.0144284	t p	-0.16439725
-2.0497038	i p	-0.16439725
-1.5250248	o p	-0.16439725
-1.8392205	l p	-0.16439725
-1.926457	e p	-0.16439725
-1.6541667	g p	-0.16439725
-1.4247979	| p	-0.20694147
-1.7836857	s p	-0.16439725
-1.8270824	m p	-0.16439725
-1.4909186	p p	-0.16439725
-1.420294	_ p	-0.22210228
-1.0240033	j p	-0.16439725
-1.6065357	/ p	-0.20694147
-1.9325236	. p	-0.22210228
-1.6139507	0 p	-0.2541105
-2.037939	- p	-0.16439725
-3.1958508	# _	-0.16439725
-1.8773808	d _	-0.16439725
-2.055822	a _	-0.16439725
-2.044509	r _	-0.16439725
-2.0362208	n _	-0.16439725
-1.8571407	t _	-0.16439725
-2.104957	i _	-0.16439725
-1.8698032	l _	-0.16439725
-1.9756801	e _	-0.16439725
-1.8119907	h _	-0.16439725
-2.039833	s _	-0.16439725
-1.6948687	p _	-0.19809264
-1.5970314	f _	-0.16439725
-1.7735898	9 _	-0.16439725
-1.925183	1 _	-0.16439725
-3.273884	# y	-0.16439725
-2.079575	a y	-0.16439725
-1.8439022	r y	-0.22210228
-2.061413	n y	-0.16439725
-1.6900058	t y	-0.16439725
-1.884119	l y	-0.16439725
-1.9994857	e y	-0.16439725
-1.5805211	h y	-0.16439725
-1.8822261	| y	-0.16439725
-2.0673041	s y	-0.16439725
-1.2541527	_ y	-0.34326732
-2.8329878	# w	-0.20694147
-2.1047027	a w	-0.16439725
-1.7574519	o w	-0.16439725
-1.8378954	e w	-0.16439725
-1.0421487	w w	-0.22210228
-1.9127393	/ w	-0.16439725
-2.4228806	. w	-0.16439725
-2.6621866	# v	-0.46727782
-2.067536	a v	-0.2541105
-2.0589528	r v	-0.16439725
-2.0486343	n v	-0.16439725
-1.8904443	i v	-0.16439725
-1.5493869	o v	-0.34326732
-1.8202248	h v	-0.16439725
-2.0533514	s v	-0.16439725
-1.6900544	_ v	-0.16439725
-1.6424786	/ v	-0.2541105
-1.3258026	? v	-0.16439725
-1.8836652	0 v	-0.16439725
-1.4026222	; v	-0.16439725
-2.817771	# k	-0.20694147
-2.091957	a k	-0.2541105
-1.542626	u k	-0.16439725
-1.8529466	r k	-0.16439725
-2.0745792	n k	-0.16439725
-1.9067259	i k	-0.16439725
-1.9933449	o k	-0.16439725
-1.8914578	l k	-0.16439725
-1.8990127	m k	-0.16439725
-2.1913881	' j	-0.16439725
-2.3607962	a j	-0.16439725
-2.1759202	i j	-0.16439725
-2.0665944	= j	-0.16439725
-2.453039	. j	-0.16439725
-2.3585658	ब ौ	-0.16439725
-2.2294998	ध ौ	-0.16439725
-2.2506583	म ौ	-0.22318137
-2.3467638	न ौ	-0.16439725
-2.6226428	क ौ	-0.16439725
-2.3453083	श ौ	-0.16439725
-2.226349	ह ौ	-0.16439725
-2.0003788	भ ौ	-0.16439725
-2.263247	त ौ	-0.26269445
-2.505319	प ौ	-0.16439725
-2.3147862	च ौ	-0.16439725
-2.3717806	ग ौ	-0.16439725
-2.426174	ल ौ	-0.16439725
-2.2212183	ज ौ	-0.2541105
-2.254666	स ौ	-0.16439725
-2.282262	द ौ	-0.2541105
-1.967669	़ ौ	-0.16439725
-1.8746015	ठ ौ	-0.16439725
-1.6875278	झ ौ	-0.16439725
-2.3594465	र =	-0.34326732
-2.46314	ा =	-0.34326732
-2.3164237	न =	-0.34326732
-2.0970364	# =	-1.0422373
-2.2813258	क =	-0.34326732
-2.3644865	ह =	-0.16439725
-2.178592	य =	-0.2541105
-2.47936	ी =	-0.16439725
-2.1262205	ं =	-0.34326732
-2.1581535	ग =	-0.2541105
-2.5279002	ल =	-0.16439725
-1.9370224	थ =	-0.16439725
-2.1602244	ड =	-0.16439725
-2.0601475	ण =	-0.16439725
-1.507898	ँ =	-0.16439725
-1.4374182	d =	-0.16439725
-1.6196599	r =	-0.20694147
-1.9789762	n =	-0.16439725
-1.8359516	l =	-0.16439725
-1.5660042	e =	-0.1851486
-1.7800114	s =	-0.16439725
-1.9931463	) =	-0.2541105
-1.6062443	m =	-0.2541105
-1.4606135	w =	-0.16439725
-0.5645175	= =	-0.40708733
-2.132785	' छ	-0.16439725
-2.458146	् छ	-0.16439725
-1.8119488	# छ	-0.6309259
-2.6807055	क छ	-0.16439725
-2.6621368	ि छ	-0.16439725
-2.5902665	ी छ	-0.16439725
-2.5339718	ं छ	-0.16439725
-2.257486	ू छ	-0.16439725
-2.354277	ट छ	-0.16439725
-1.5368003	ँ छ	-0.16439725
-2.4850602	ु छ	-0.16439725
-2.2044804	, छ	-0.16439725
-2.0331628	( छ	-0.16439725
-2.1049056	- छ	-0.16439725
-2.3760612	ब ॉ	-0.16439725
-2.5519874	र ॉ	-0.16439725
-2.5884356	म ॉ	-0.16439725
-2.6814036	न ॉ	-0.16439725
-1.8815843	क ॉ	-0.23702808
-2.431116	ह ॉ	-0.16439725
-2.4103584	य ॉ	-0.16439725
-2.2182295	भ ॉ	-0.16439725
-2.5256815	प ॉ	-0.16439725
-2.2896504	ल ॉ	-0.16439725
-2.2341247	ज ॉ	-0.16439725
-2.5990174	स ॉ	-0.16439725
-2.5307739	व ॉ	-0.16439725
-1.6081017	ड ॉ	-0.24468793
-1.6442404	फ ॉ	-0.22210228
-2.3299093	ट ॉ	-0.16439725
-1.9800771	़ ॉ	-0.16439725
-2.5243294	# *	-0.277873
-2.46314	ा :	-0.22210228
-2.129798	न :	-0.29118654
-3.0462773	# :	-0.16439725
-2.3008628	श :	-0.16439725
-2.1041574	ै :	-0.16439725
-2.178592	य :	-0.22210228
-1.9096134	त :	-0.46727782
-2.4550366	े :	-0.16439725
-2.4494014	प :	-0.16439725
-2.326103	ी :	-0.16439725
-2.4261444	ं :	-0.16439725
-2.3176775	ग :	-0.16439725
-2.247933	ल :	-0.34326732
-2.1602244	ड :	-0.16439725
-1.9886392	ष :	-0.16439725
-1.9291688	ट :	-0.22210228
-1.8863195	ई :	-0.16439725
-1.9787228	r :	-0.16439725
-1.6395959	[ :	-0.16439725
-2.0082216	t :	-0.16439725
-2.0936763	e :	-0.16439725
-1.9779141	s :	-0.16439725
-1.9931463	) :	-0.2541105
-1.8702168	p :	-0.16439725
-1.5404966	५ :	-0.16439725
-2.7089956	ा /	-0.16439725
-2.9535143	# /	-0.2541105
-2.538257	त /	-0.16439725
-1.8301922	d /	-0.16439725
-2.1740935	a /	-0.16439725
-1.7217839	u /	-0.16439725
-1.9789762	n /	-0.16439725
-2.0082216	t /	-0.16439725
-2.043977	i /	-0.16439725
-1.8359516	l /	-0.16439725
-2.0936763	e /	-0.16439725
-1.863835	g /	-0.16439725
-1.146766	s /	-0.2588584
-1.8226855	m /	-0.16439725
-1.5291297	y /	-0.16439725
-1.4606135	w /	-0.16439725
-1.4613904	k /	-0.16439725
-1.7639749	: /	-0.16439725
-1.8113132	/ /	-0.16439725
-1.7283419	9 /	-0.16439725
-1.876909	1 /	-0.16439725
-1.8237654	0 /	-0.16439725
-1.4606884	7 /	-0.16439725
-1.5279586	6 /	-0.16439725
-1.002368	< /	-0.22210228
-2.1902683	र .	-0.24468793
-1.5689092	ा .	-0.67039907
-2.2528892	न .	-0.16439725
-2.6225114	# .	-0.20694147
-2.2149704	क .	-0.2541105
-1.0599688	ए .	-0.6442973
-1.8982855	ै .	-0.16439725
-1.9922502	य .	-0.2541105
-1.969477	भ .	-0.16439725
-1.3973322	े .	-0.52421135
-1.9427733	च .	-0.16439725
-1.9677417	ि .	-0.2541105
-1.1747196	ी .	-0.52795035
-1.5676508	ं .	-0.46681446
-2.076673	ग .	-0.16439725
-2.0910668	ल .	-0.20694147
-2.1785474	स .	-0.18819572
-1.7660365	थ .	-0.16439725
-2.1196496	व .	-0.2541105
-1.9695245	ड .	-0.16439725
-2.1882148	द .	-0.16439725
-1.8801414	ण .	-0.16439725
-1.6908226	आ .	-0.16439725
-1.534703	ो .	-0.37073886
-2.1229327	ु .	-0.16439725
-1.2292947	ई .	-0.46820608
-1.4504972	a .	-0.24468793
-1.7928575	r .	-0.16439725
-1.7392497	( .	-0.16439725
-1.6637175	n .	-0.16439725
-1.8209239	t .	-0.16439725
-1.5920898	i .	-0.16439725
-1.8722842	e .	-0.16439725
-1.6044195	c .	-0.16439725
-1.6504002	h .	-0.16439725
-1.7149528	g .	-0.16439725
-1.3430736	s .	-0.16439725
-2.1025496	) .	-0.16439725
-1.681931	m .	-0.16439725
-1.5575871	p .	-0.16439725
-1.1707152	w .	-0.16439725
-1.6413089	ॉ .	-0.16439725
-1.8735789	. .	-0.16439725
-1.5897284	9 .	-0.16439725
-1.7308556	1 .	-0.16439725
-0.9955945	२ .	-0.16439725
-1.1490772	३ .	-0.16439725
-1.316746	० .	-0.16439725
-0.91598225	४ .	-0.19809264
-1.7114412	ठ .	-0.16439725
-1.3532512	१ .	-0.16439725
-1.1233823	९ .	-0.16439725
-0.93380797	६ .	-0.16439725
-1.5868795	" .	-0.2541105
-0.90619975	ऋ .	-0.16439725
-1.41839	8 .	-0.16439725
-1.4673455	3 .	-0.16439725
-1.3803517	ओ .	-0.16439725
-1.0754495	५ .	-0.16439725
-1.488705	’ .	-0.16439725
-0.8810172	७ .	-0.16439725
-0.8195511	८ .	-0.16439725
-1.0629258	q .	-0.16439725
-1.6431472	d f	-0.16439725
-2.055822	a f	-0.16439725
-1.6017945	b f	-0.16439725
-1.7645814	u f	-0.16439725
-2.0246713	( f	-0.16439725
-2.104957	i f	-0.16439725
-1.9569256	o f	-0.16439725
-2.1772106	e f	-0.16439725
-1.8603425	| f	-0.16439725
-1.5970314	f f	-0.16439725
-1.8301786	2 f	-0.16439725
-1.4272891	4 f	-0.16439725
-1.5558872	6 f	-0.16439725
-1.5333889	8 f	-0.16439725
-1.2797564	{ f	-0.16439725
-2.7735548	ा ?	-0.22210228
-2.2610705	ै ?	-0.16439725
-2.4419506	े ?	-0.16439725
-2.4032485	ं ?	-0.2541105
-0.94370127	x ?	-0.16439725
-1.9191332	/ ?	-0.16439725
-2.9280384	# 2	-0.16439725
-2.2394788	a 2	-0.16439725
-1.8291061	b 2	-0.16439725
-2.0081708	( 2	-0.16439725
-2.1591687	e 2	-0.16439725
-1.6225147	| 2	-0.16439725
-1.587345	= 2	-0.20694147
-1.1698887	2 2	-0.20694147
-1.532244	9 2	-0.16439725
-1.2734747	1 2	-0.23462392
-1.634566	0 2	-0.16439725
-1.6673214	4 2	-0.16439725
-2.0837097	- 2	-0.16439725
-1.479439	7 2	-0.16439725
-1.550156	6 2	-0.16439725
-1.718215	% 2	-0.16439725
-1.5712898	5 2	-0.16439725
-1.8337042	b 9	-0.16439725
-1.7364253	c 9	-0.16439725
-1.9962354	= 9	-0.16439725
-2.3083074	. 9	-0.16439725
-1.5938793	f 9	-0.16439725
-1.5894827	2 9	-0.22210228
-1.3479313	9 9	-0.22210228
-1.125665	1 9	-0.18819572
-1.4522889	0 9	-0.16439725
-1.6705875	4 9	-0.16439725
-2.2741368	- 9	-0.16439725
-1.5530121	6 9	-0.16439725
-1.2812206	8 9	-0.16439725
-1.3477459	3 9	-0.16439725
-1.7206225	% 9	-0.16439725
-1.1333342	5 9	-0.16439725
-2.2448673	# 1	-0.32828647
-2.2055569	a 1	-0.16439725
-1.7865587	( 1	-0.19809264
-1.9422529	e 1	-0.16439725
-1.8294553	| 1	-0.16439725
-1.8405468	m 1	-0.16439725
-1.659736	_ 1	-0.16439725
-1.7546736	= 1	-0.16439725
-1.5326939	: 1	-0.16439725
-1.8318939	/ 1	-0.16439725
-1.9468889	. 1	-0.22210228
-1.5784537	f 1	-0.16439725
-1.3930254	2 1	-0.20694147
-1.7458795	9 1	-0.16439725
-0.92426586	1 1	-0.34677434
-0.87399435	0 1	-0.27433386
-1.9070491	- 1	-0.16439725
-1.5172353	8 1	-0.16439725
-1.5786815	3 1	-0.16439725
-1.4532628	< 1	-0.16439725
-1.3184999	5 1	-0.16439725
-3.0440967	# 0	-0.16439725
-2.2394788	a 0	-0.16439725
-1.8291061	b 0	-0.16439725
-1.6360676	( 0	-0.22210228
-2.1591687	e 0	-0.16439725
-0.82114106	2 0	-0.22318137
-1.7641553	9 0	-0.16439725
-1.0143334	1 0	-0.25004718
-1.2229637	0 0	-0.23702808
-1.4235606	4 0	-0.16439725
-2.0837097	- 0	-0.2541105
-1.9337614	" 0	-0.16439725
-1.479439	7 0	-0.16439725
-1.550156	6 0	-0.16439725
-1.2796884	8 0	-0.16439725
-1.5909393	3 0	-0.16439725
-1.5712898	5 0	-0.16439725
-1.9417397	d &	-0.16439725
-1.9407847	0 &	-0.16439725
-1.7154465	4 &	-0.16439725
-3.178352	# 4	-0.16439725
-2.2483902	a 4	-0.16439725
-2.1680958	e 4	-0.16439725
-1.9636889	c 4	-0.16439725
-1.9962354	= 4	-0.16439725
-1.859072	/ 4	-0.16439725
-1.5938793	f 4	-0.16439725
-1.4012531	2 4	-0.16439725
-1.6888801	1 4	-0.16439725
-1.8678981	0 4	-0.16439725
-1.6705875	4 4	-0.16439725
-2.2741368	- 4	-0.16439725
-1.2299758	7 4	-0.16439725
-1.5530121	6 4	-0.16439725
-1.5940586	3 4	-0.16439725
-1.5742705	5 4	-0.16439725
-2.4382524	# २	-0.3182165
-1.995657	, २	-0.2541105
-1.5065798	२ २	-0.16439725
-1.4078462	३ २	-0.2541105
-1.7202437	१ २	-0.16439725
-1.2406261	६ २	-0.16439725
-2.5726676	# ३	-0.1851486
-2.220751	, ३	-0.16439725
-1.2367325	२ ३	-0.16439725
-1.6532857	३ ३	-0.16439725
-1.6401106	० ३	-0.16439725
-1.4063853	४ ३	-0.16439725
-2.331177	- ३	-0.16439725
-1.701179	१ ३	-0.16439725
-1.4371904	९ ३	-0.16439725
-0.6429587	$ ३	-0.16439725
-0.54977363	+ ३	-0.2541105
-3.2957985	# ०	-0.16439725
-2.2263129	, ०	-0.16439725
-1.9558936	ई ०	-0.16439725
-1.496473	२ ०	-0.16439725
-1.6563835	३ ०	-0.16439725
-0.79464877	० ०	-0.20694147
-1.4525162	१ ०	-0.20694147
-1.2351379	६ ०	-0.16439725
-1.5759882	५ ०	-0.16439725
-1.1135175	८ ०	-0.16439725
-3.037012	# ४	-0.22210228
-1.8156666	: ४	-0.16439725
-1.504031	२ ४	-0.16439725
-1.2068958	३ ४	-0.20694147
-1.6501589	० ४	-0.16439725
-1.4588753	१ ४	-0.22210228
-1.2392476	६ ४	-0.16439725
-2.245706	् ठ	-0.16439725
-2.3300729	ा ठ	-0.2902603
-2.1764843	# ठ	-0.45887685
-2.4826639	क ठ	-0.16439725
-1.9653995	ै ठ	-0.22210228
-2.352661	प ठ	-0.22210228
-2.4601564	ि ठ	-0.16439725
-2.5678802	ी ठ	-0.16439725
-2.51227	ं ठ	-0.16439725
-2.4015896	ग ठ	-0.16439725
-1.7368739	उ ठ	-0.16439725
-2.241182	ू ठ	-0.16439725
-1.909535	आ ठ	-0.16439725
-2.2971728	ो ठ	-0.16439725
-1.8082371	छ ठ	-0.16439725
-2.3083074	. ठ	-0.16439725
-1.9202907	' -	-0.16439725
-2.1057909	ब -	-0.16439725
-2.0718312	र -	-0.16439725
-2.0834262	म -	-0.16439725
-1.8209242	ा -	-0.33231583
-1.8403379	न -	-0.22288679
-2.6982174	# -	-0.16439725
-1.8057379	क -	-0.23226833
-1.8004518	ए -	-0.16439725
-1.9857538	श -	-0.16439725
-1.5568765	ह -	-0.19229205
-1.9158959	ै -	-0.16439725
-2.0084999	य -	-0.16439725
-2.110631	त -	-0.16439725
-1.770734	े -	-0.18279332
-2.2229059	प -	-0.16439725
-2.0815742	च -	-0.16439725
-2.123638	ि -	-0.23462392
-1.5156331	ी -	-0.17704956
-2.1011505	ं -	-0.16439725
-2.0965924	ग -	-0.16439725
-1.8578074	ल -	-0.16439725
-2.021022	ज -	-0.16439725
-2.1950178	स -	-0.16439725
-1.7811754	थ -	-0.16439725
-2.23982	व -	-0.16439725
-1.9273835	ख -	-0.16439725
-2.0962584	द -	-0.16439725
-2.0834384	ट -	-0.16439725
-2.1835015	ो -	-0.16439725
-2.0472105	ु -	-0.16439725
-1.7736187	़ -	-0.16439725
-1.1739721	ऊ -	-0.16439725
-1.5613835	ृ -	-0.16439725
-1.9715992	a -	-0.16439725
-1.4251505	u -	-0.16439725
-1.8090731	r -	-0.16439725
-1.8267258	n -	-0.16439725
-1.8372414	t -	-0.16439725
-1.8839891	i -	-0.16439725
-1.7555599	o -	-0.16439725
-1.7373245	l -	-0.16439725
-1.7751768	e -	-0.16439725
-1.7284276	g -	-0.16439725
-2.1135302	) -	-0.16439725
-1.4468325	y -	-0.16439725
-1.4761381	: -	-0.2541105
-1.6682464	2 -	-0.16439725
-1.602403	9 -	-0.16439725
-1.7441118	1 -	-0.16439725
-1.3744609	0 -	-0.22210228
-1.5258056	३ -	-0.16439725
-1.7239856	ठ -	-0.16439725
-1.8618081	- -	-0.2541105
-1.600692	घ -	-0.16439725
-1.5639904	झ -	-0.16439725
-1.426892	8 -	-0.16439725
-1.3672916	> -	-0.16439725
-1.4616191	5 -	-0.16439725
-2.0588703	# १	-0.34477288
-2.0596814	( १	-0.16439725
-2.1680434	. १	-0.16439725
-1.4939826	२ १	-0.16439725
-1.399163	३ १	-0.22210228
-1.6401106	० १	-0.16439725
-1.450417	१ १	-0.16439725
-1.4371904	९ १	-0.16439725
-1.5735297	५ १	-0.16439725
-1.1775672	७ १	-0.16439725
-0.6429587	$ १	-0.16439725
-3.0495787	# ९	-0.16439725
-1.6690004	३ ९	-0.16439725
-1.6527078	० ९	-0.16439725
-1.2620356	१ ९	-0.18819572
-1.4473931	९ ९	-0.16439725
-1.2406261	६ ९	-0.16439725
-3.0758584	# ६	-0.16439725
-2.2612684	, ६	-0.16439725
-1.7281102	१ ६	-0.16439725
-1.1853728	९ ६	-0.16439725
-2.8448217	क ॅ	-0.16439725
-2.5614045	ग ॅ	-0.16439725
-2.2134008	ण ॅ	-0.16439725
-2.3942912	ब घ	-0.16439725
-2.569289	र घ	-0.16439725
-2.4481652	् घ	-0.16439725
-2.6737316	ा घ	-0.16439725
-2.0026832	# घ	-0.6000454
-2.5550525	े घ	-0.16439725
-2.6504986	ि घ	-0.16439725
-2.578929	ी घ	-0.16439725
-1.9620647	ं घ	-0.19229205
-2.096074	ल घ	-0.46820608
-2.6208346	स घ	-0.16439725
-1.5340918	ँ घ	-0.16439725
-2.0246713	( घ	-0.16439725
-1.9478568	ौ घ	-0.16439725
-2.284961	- घ	-0.16439725
-2.069418	# ऐ	-0.6669922
-1.9296079	| ऐ	-0.16439725
-2.0097525	" ऐ	-0.16439725
-2.4895437	् झ	-0.16439725
-2.6607347	म झ	-0.16439725
-2.7152948	ा झ	-0.16439725
-2.3638096	# झ	-0.4000662
-2.5687044	ं झ	-0.16439725
-2.4906995	ल झ	-0.22210228
-2.0598764	ू झ	-0.16439725
-2.5394413	ो झ	-0.16439725
-2.148699	ु झ	-0.22210228
-2.331177	- झ	-0.16439725
-1.4938526	ओ झ	-0.16439725
-2.3320735	# ऑ	-0.5290699
-2.1450195	( ऑ	-0.16439725
-2.0757828	' "	-0.16439725
-2.496344	र "	-0.2541105
-2.1717963	ा "	-0.26269445
-2.6086307	न "	-0.16439725
-2.0422585	# "	-0.23536867
-2.5714352	क "	-0.16439725
-1.8464711	य "	-0.46820608
-2.4640632	े "	-0.16439725
-2.3324008	ी "	-0.16439725
-2.2757242	ं "	-0.2541105
-2.353158	ज "	-0.16439725
-2.111379	ख "	-0.16439725
-2.0660572	ण "	-0.16439725
-2.1817484	a "	-0.16439725
-1.9549063	( "	-0.16439725
-1.9214945	c "	-0.16439725
-1.5572048	] "	-0.16439725
-1.7446332	= "	-0.16439725
-2.226917	. "	-0.16439725
-1.3094716	? "	-0.16439725
-1.8284533	0 "	-0.16439725
-1.5306721	6 "	-0.16439725
-1.4369916	> "	-0.16439725
-1.1327899	; "	-0.2541105
-3.2957985	# 7	-0.16439725
-2.0331945	= 7	-0.16439725
-1.8530729	2 7	-0.16439725
-1.5518291	9 7	-0.16439725
-1.7070339	1 7	-0.16439725
-1.4367529	4 7	-0.16439725
-1.3144692	6 7	-0.2541105
-1.5473249	8 7	-0.16439725
-1.6132603	3 7	-0.16439725
-1.3371519	5 7	-0.16439725
-1.8874665	d 6	-0.16439725
-2.2762768	a 6	-0.16439725
-1.847798	b 6	-0.16439725
-2.0418236	( 6	-0.16439725
-1.8762347	/ 6	-0.16439725
-1.4062657	2 6	-0.20694147
-1.3533335	9 6	-0.16439725
-1.6978621	1 6	-0.16439725
-1.8836652	0 6	-0.16439725
-1.680536	4 6	-0.16439725
-1.4891269	7 6	-0.16439725
-1.5616952	6 6	-0.16439725
-1.6035533	3 6	-0.16439725
-2.6001966	् ञ	-0.16439725
-3.270208	# ऋ	-0.16439725
-2.1395078	( ऋ	-0.16439725
-2.4416335	- ऋ	-0.16439725
-3.2957985	# 8	-0.16439725
-2.3060775	a 8	-0.16439725
-2.0331945	= 8	-0.16439725
-1.6131438	f 8	-0.16439725
-1.5518291	9 8	-0.16439725
-1.9514937	1 8	-0.16439725
-1.9000263	0 8	-0.16439725
-2.3435423	- 8	-0.16439725
-1.5473249	8 8	-0.16439725
-1.4769901	% 8	-0.16439725
-1.8823944	d 3	-0.16439725
-2.0331628	( 3	-0.16439725
-2.1865203	e 3	-0.16439725
-1.9749106	c 3	-0.16439725
-2.008209	= 3	-0.16439725
-1.9823798	. 3	-0.16439725
-1.834662	2 3	-0.16439725
-1.9303192	1 3	-0.16439725
-1.8783456	0 3	-0.16439725
-1.6771945	4 3	-0.16439725
-1.4866846	7 3	-0.16439725
-1.5587815	6 3	-0.16439725
-1.3513113	3 3	-0.16439725
-1.580294	5 3	-0.16439725
-2.8442736	न ः	-0.16439725
-2.4710813	श ः	-0.16439725
-2.5582004	य ः	-0.16439725
-1.8409562	त ः	-0.46727782
-2.6037695	ु ः	-0.16439725
-1.7581599	ा ओ	-0.6717689
-2.3826118	# ओ	-0.25298467
-2.4824471	ी ओ	-0.16439725
-1.9554983	ु ओ	-0.46820608
-1.6396967	् ‍	-0.1851486
-3.509161	# ‍	-0.16439725
-2.6523666	द ॆ	-0.16439725
-2.286344	ख ‌	-0.16439725
-0.9125607	। <	-0.56065416
-2.2749383	ड <	-0.16439725
-2.078305	( <	-0.16439725
-2.120062	t <	-0.16439725
-1.5842108	] <	-0.16439725
-2.0282412	) <	-0.16439725
-2.1427069	- <	-0.2541105
-1.0110002	> <	-0.22210228
-0.8180469	} <	-0.16439725
-1.8989228	l >	-0.16439725
-1.8459072	h >	-0.16439725
-2.096631	s >	-0.16439725
-1.9719106	p >	-0.16439725
-1.9127393	/ >	-0.16439725
-1.6231062	f >	-0.16439725
-1.7349354	" >	-0.16439725
-2.6781528	# ५	-0.19809264
-2.3812397	. ५	-0.16439725
-1.2381079	२ ५	-0.22210228
-1.384236	० ५	-0.16439725
-1.4080569	४ ५	-0.16439725
-1.4525162	१ ५	-0.16439725
-1.4392118	९ ५	-0.16439725
-1.2351379	६ ५	-0.16439725
-1.5759882	५ ५	-0.16439725
-1.1787688	७ ५	-0.16439725
-2.232208	ै ;	-0.16439725
-2.6283925	े ;	-0.16439725
-2.6518698	ी ;	-0.16439725
-2.379222	ं ;	-0.22210228
-2.5630445	ो ;	-0.16439725
-2.281074	) ;	-0.16439725
-1.8990127	m ;	-0.16439725
-1.9593618	p ;	-0.16439725
-1.5740117	y ;	-0.16439725
-2.2552552	ध ’	-0.16439725
-2.6112237	म ’	-0.16439725
-2.528891	ा ’	-0.34326732
-2.7046506	न ’	-0.16439725
-3.1958508	# ’	-0.16439725
-2.1796696	ै ’	-0.16439725
-2.6342409	त ’	-0.16439725
-2.6504986	ि ’	-0.16439725
-2.578929	ी ’	-0.16439725
-2.2283003	ड ’	-0.16439725
-2.5039432	द ’	-0.16439725
-1.6955004	ई ’	-0.16439725
-1.4395291	. ’	-0.7112441
-1.063342	? ’	-0.2541105
-1.0187763	! ’	-0.2541105
-3.249518	# ७	-0.16439725
-1.5117227	२ ७	-0.16439725
-1.4653289	१ ७	-0.16439725
-1.1197737	८ ७	-0.16439725
-3.249518	# ८	-0.16439725
-1.675449	३ ८	-0.16439725
-1.7281102	१ ८	-0.16439725
-1.1240082	५ ८	-0.22210228
-3.062391	ा ऎ	-0.16439725
-3.509161	# ऎ	-0.16439725
-2.6336508	क %	-0.16439725
-1.8626782	d %	-0.16439725
-2.2307467	a %	-0.16439725
-1.958645	e %	-0.16439725
-1.548362	c %	-0.34326732
-1.8479959	/ %	-0.16439725
-1.3440958	f %	-0.2541105
-1.8169998	2 %	-0.16439725
-1.5295168	9 %	-0.2541105
-1.9101293	1 %	-0.16439725
-1.4483423	0 %	-0.16439725
-1.6640797	4 %	-0.16439725
-1.6230668	० %	-0.16439725
-1.9210454	- %	-0.34326732
-1.4770503	7 %	-0.16439725
-1.3014308	6 %	-0.2541105
-1.525237	8 %	-0.16439725
-1.5683295	5 %	-0.16439725
-1.8977921	d 5	-0.16439725
-2.2959151	a 5	-0.16439725
-2.2157114	e 5	-0.16439725
-1.8483964	2 5	-0.16439725
-1.3569728	9 5	-0.16439725
-1.2803606	1 5	-0.19809264
-1.6872972	4 5	-0.16439725
-1.4940531	7 5	-0.16439725
-1.3128178	6 5	-0.2541105
-1.356715	3 5	-0.22210228
-1.3354228	5 5	-0.16439725
-2.1844723	' {	-0.16439725
-3.3965356	# {	-0.16439725
-2.2105646	. {	-0.2541105
-1.4777259	> {	-0.16439725
-1.4146032	; {	-0.16439725
-0.5830047	{ {	-0.19809264
-2.7612607	ा !	-0.16439725
-3.3690777	# !	-0.16439725
-2.777757	क !	-0.16439725
-2.251235	ै !	-0.16439725
-1.986651	" !	-0.16439725
-1.742913	% !	-0.16439725
-1.0248063	! !	-0.2541105
-2.1240835	n ý	-0.16439725
-1.5169041	ओ ऍ	-0.16439725
-1.9359112	| ج	-0.16439725
-0.34535214	ج م	-0.16439725
-0.3452655	م ه	-0.16439725
-0.821578	ل ه	-0.16439725
-0.64606404	ه و	-0.16439725
-0.3451789	و ر	-0.16439725
-0.3451789	ع ر	-0.16439725
-0.3451789	ب ر	-0.16439725
-0.8218375	ر ي	-0.16439725
-0.34535214	ي ة	-0.16439725
-3.2809346	# ا	-0.2541105
-0.821578	ر ا	-0.16439725
-0.64589095	ا ل	-0.16439725
-0.821578	ل ل	-0.16439725
-0.8218375	ل ع	-0.16439725
-0.64606404	ا ق	-0.16439725
-1.8872986	2 }	-0.16439725
-0.3451789	ق }	-0.16439725
-0.5520833	} }	-0.2541105
-2.3726187	a q	-0.16439725
-2.1306467	r q	-0.16439725
-2.1836987	i q	-0.16439725
-2.2925835	e q	-0.16439725
-3.5279288	# أ	-0.16439725
-0.34535214	أ ك	-0.16439725
-0.34535214	ك ب	-0.16439725
-2.1996858	i ²	-0.16439725
-3.2919328	# $	-0.16439725
-3.270208	# +	-0.2541105
-2.0785532	़ +	-0.16439725
-2.1707428	t +	-0.16439725
-1.7355319	_ z	-0.16439725
-1.1219153	q î	-0.16439725
-3.0504327	ा µ	-0.16439725
-2.4687667	े µ	-0.16439725
-2.6777394	ं µ	-0.16439725
-2.162992	# ‘	-0.36645046
-0.945712	µ ‘	-0.16439725
-1.028409	— ‘	-0.16439725
-2.3774822	ा —	-0.23462392
-2.4419506	े —	-0.2541105
-2.6935163	ी —	-0.16439725
-2.4032485	ं —	-0.22210228
-2.7603374	ल —	-0.16439725
-1.9764966	ई —	-0.16439725
-1.719097	4 °	-0.16439725
-2.3513875	ध ङ	-0.16439725

\3-grams:
-2.2213383	् म </s>	0
-2.4150002	क ा </s>	0
-1.9867591	् न </s>	0
-1.4396716	ट न </s>	0
-0.9722536	ण क </s>	0
-1.6126739	ह ै </s>	0
-1.3738338	ा । </s>	0
-1.1946676	ै । </s>	0
-1.4447957	ी । </s>	0
-1.0891201	ं । </s>	0
-1.6239097	ृ त </s>	0
-2.0446134	क े </s>	0
-1.980981	क ी </s>	0
-1.7242792	ो ग </s>	0
-1.557641	च ल </s>	0
-2.738423	# व </s>	0
-1.5247031	r a </s>	0
-1.4251043	ा ) </s>	0
-1.9583104	= = </s>	0
-1.3144915	ै . </s>	0
-0.20328912	n ý </s>	0
-0.02547666	<s> ' '	-0.93572456
-0.28016943	' ' '	-0.36719906
-0.12314183	र ' '	-0.29890248
-0.2025336	म ' '	-0.12483727
-0.048570275	ा ' '	-0.36665726
-0.088931814	न ' '	-0.34533423
-0.057851534	# ' '	-0.58235484
-0.15686221	क ' '	-0.22860986
-0.15686221	श ' '	-0.22860986
-0.2025336	। ' '	-0.12483727
-0.2025336	त ' '	-0.12483727
-0.2025336	े ' '	-0.12483727
-0.2025336	प ' '	-0.12483727
-0.12314183	ि ' '	-0.29890248
-0.15686221	ी ' '	-0.22860986
-0.2025336	ग ' '	-0.12483727
-0.12314183	ल ' '	-0.29890248
-0.15686221	स ' '	-0.12483727
-0.15686221	ड ' '	-0.22860986
-0.15686221	द ' '	-0.22860986
-0.15686221	ण ' '	-0.19119546
-0.24518201	ट ' '	-0.22860986
-0.2025336	, ' '	-0.12483727
-0.2025336	़ ' '	-0.12483727
-0.2025336	ई ' '	-0.12483727
-0.2025336	( ' '	-0.12483727
-0.32816288	n ' '	-0.12483727
-0.2025336	t ' '	-0.12483727
-0.2025336	e ' '	-0.12483727
-0.15686221	] ' '	-0.19119546
-0.15686221	: ' '	-0.12483727
-0.12314183	. ' '	-0.19119546
-0.2025336	? ' '	-0.12483727
-0.2025336	1 ' '	-0.12483727
-0.2025336	" ' '	-0.12483727
-0.2025336	> ' '	-0.12483727
-1.6489662	य र '	-0.12483727
-1.9706068	त र '	-0.12483727
-1.987194	ि र '	-0.12483727
-2.1870658	ा म '	-0.12483727
-1.8506272	ध ा '	-0.12483727
-1.8395063	य ा '	-0.22860986
-1.4304583	त ा '	-0.52075124
-1.9162832	ग ा '	-0.12483727
-2.1696005	ल ा '	-0.12483727
-1.6655996	ष ा '	-0.12483727
-2.0988154	द ा '	-0.12483727
-1.7598372	म न '	-0.12483727
-2.046724	ा न '	-0.22860986
-1.4949379	श न '	-0.12483727
-1.7007507	स न '	-0.12483727
-1.641374	' # '	-0.12483727
-2.5256376	र # '	-0.12483727
-1.7629397	म # '	-0.29890248
-2.1027513	ा # '	-0.24842423
-2.3446896	क # '	-0.12483727
-1.743309	ए # '	-0.22860986
-1.9091464	श # '	-0.12483727
-1.641374	ै # '	-0.12483727
-1.6523921	। # '	-0.42384118
-2.1966326	य # '	-0.12483727
-2.2886736	त # '	-0.12483727
-1.8824086	े # '	-0.34533423
-2.1084046	ि # '	-0.12483727
-2.545821	ी # '	-0.12483727
-2.058426	ं # '	-0.22860986
-2.008697	व # '	-0.12483727
-2.1601417	ो # '	-0.12483727
-1.0454595	a # '	-0.22860986
-1.6472456	r # '	-0.12483727
-1.5245209	t # '	-0.12483727
-1.542103	s # '	-0.12483727
-1.8714869	) # '	-0.22860986
-1.3658552	: # '	-0.29890248
-1.9931321	. # '	-0.29890248
-1.204941	4 # '	-0.12483727
-1.6758853	" # '	-0.12483727
-2.2449832	ि क '	-0.12483727
-1.3213301	ष क '	-0.12483727
-1.5621254	ा श '	-0.12483727
-1.5391392	ं श '	-0.12483727
-1.5749192	े । '	-0.12483727
-1.5342883	द य '	-0.12483727
-2.308148	ा त '	-0.12483727
-1.8522248	व े '	-0.12483727
-1.6728042	ो प '	-0.12483727
-1.9899257	म ि '	-0.12483727
-2.1725757	त ि '	-0.12483727
-1.7095046	प ि '	-0.12483727
-2.145971	र ी '	-0.12483727
-2.0012605	ल ी '	-0.12483727
-2.070034	ं ग '	-0.12483727
-1.5568403	स ल '	-0.12483727
-1.2464776	फ ल '	-0.12483727
-1.7749672	ू ल '	-0.12483727
-1.4137057	ी ज '	-0.12483727
-2.1024683	ा स '	-0.12483727
-1.8831536	ि स '	-0.12483727
-1.3317248	े ड '	-0.12483727
-1.5595382	ो ड '	-0.12483727
-0.96046805	ष द '	-0.12483727
-1.3640313	ू द '	-0.12483727
-1.4054579	र ण '	-0.22860986
-1.5103356	ष ण '	-0.12483727
-1.8211344	् ट '	-0.12483727
-1.5496541	ि ट '	-0.12483727
-0.94781315	ल ट '	-0.12483727
-1.8015095	न , '	-0.12483727
-0.9415805	क ़ '	-0.12483727
-1.8374115	ा ई '	-0.12483727
-1.9672697	# ( '	-0.22860986
-1.2011192	o n '	-0.12483727
-1.4807706	i t '	-0.12483727
-1.5414618	r e '	-0.12483727
-0.4559554	ट ] '	-0.12483727
-0.95219564	] ] '	-0.22860986
-0.47304708	# : '	-0.12483727
-0.47304708	ग : '	-0.12483727
-1.2657264	ै . '	-0.12483727
-1.6248828	े . '	-0.12483727
-1.3566968	ं . '	-0.12483727
-0.8532287	ै ? '	-0.12483727
-1.0547465	2 1 '	-0.12483727
-0.48806816	] " '	-0.12483727
-0.97647244	/ > '	-0.12483727
-1.845325	' ' ब	-0.12483727
-2.6232224	# ब ब	-0.12483727
-1.7390178	ब र ब	-0.12483727
-1.996538	् र ब	-0.12483727
-1.6385119	च र ब	-0.12483727
-1.035821	अ र ब	-0.19119546
-1.4770215	ब ् ब	-0.12483727
-1.5803887	र ् ब	-0.17363143
-0.5650634	म ् ब	-0.2914176
-2.1257803	स ् ब	-0.12483727
-1.8517253	र म ब	-0.12483727
-0.7919148	ए म ब	-0.12483727
-1.8041178	ब ा ब	-0.12483727
-1.7665677	र ा ब	-0.12483727
-2.1540656	न ा ब	-0.12483727
-1.7700517	श ा ब	-0.12483727
-1.7589729	य ा ब	-0.12483727
-1.5302129	त ा ब	-0.12483727
-2.036822	ल ा ब	-0.12483727
-1.7170042	स ा ब	-0.12483727
-1.8512152	व ा ब	-0.22860986
-1.1561412	ड ा ब	-0.22860986
-1.9940042	द ा ब	-0.12483727
-1.9306862	् न ब	-0.12483727
-2.5994709	# न ब	-0.12483727
-1.5568624	ै न ब	-0.12483727
-1.5280834	' # ब	-0.12483727
-1.4077681	र # ब	-0.29724795
-1.549779	म # ब	-0.19110768
-1.5291954	ा # ब	-0.31670207
-1.440132	न # ब	-0.2889828
-1.605756	क # ब	-0.20151553
-1.6409425	ए # ब	-0.15204512
-1.604484	ह # ब	-0.12483727
-1.4102004	। # ब	-0.23340188
-1.598235	य # ब	-0.17363143
-1.5027978	त # ब	-0.14854947
-1.5773411	े # ब	-0.24184504
-1.5235723	प # ब	-0.12483727
-1.3918697	च # ब	-0.12483727
-1.7913032	ि # ब	-0.12483727
-1.3819656	ी # ब	-0.3513528
-1.4988158	ं # ब	-0.18523626
-1.3856091	ग # ब	-0.17363143
-1.7849933	ल # ब	-0.12483727
-1.5439596	ज # ब	-0.22860986
-1.4622531	स # ब	-0.15204512
-1.6433241	थ # ब	-0.12483727
-1.3531563	व # ब	-0.20577678
-1.4237076	ड # ब	-0.12483727
-1.28577	इ # ब	-0.12483727
-1.645112	ष # ब	-0.12483727
-1.4485877	ू # ब	-0.12483727
-1.5662094	द # ब	-0.12483727
-1.6957413	ण # ब	-0.12483727
-1.708011	ो # ब	-0.12483731
-1.7193631	ु # ब	-0.12483727
-1.5719697	, # ब	-0.21770033
-1.641814	़ # ब	-0.12483727
-1.4923077	ई # ब	-0.12483727
-1.5238937	e # ब	-0.12483727
-1.354681	) # ब	-0.2207331
-0.91428536	ौ # ब	-0.12483727
-1.4767877	= # ब	-0.12483727
-1.1547712	: # ब	-0.12483727
-1.4780576	. # ब	-0.2287848
-1.2090642	f # ब	-0.12483727
-1.4774014	ठ # ब	-0.12483727
-1.1592932	१ # ब	-0.12483727
-1.3538277	’ # ब	-0.17363143
-2.4416044	# क ब	-0.12483727
-1.4979631	ए क ब	-0.12483727
-1.7954772	ा ए ब	-0.12483727
-0.49290285	<s> श ब	-0.12483727
-1.2989681	# श ब	-0.7760237
-1.857424	ा ह ब	-0.12483727
-1.2045823	ल ै ब	-0.12483727
-1.0521007	ट ै ब	-0.12483727
-2.3393652	् य ब	-0.12483727
-1.5443903	# त ब	-0.66687924
-1.5615406	ब े ब	-0.12483727
-1.6732478	ल े ब	-0.12483727
-1.7609757	स े ब	-0.12483727
-1.6943594	व े ब	-0.12483727
-1.5478023	ट े ब	-0.12483727
-2.4793916	# प ब	-0.22860986
-1.6634266	न ि ब	-0.22860986
-1.7670215	त ि ब	-0.12483727
-1.8820643	ल ि ब	-0.12483727
-1.6095318	ड ि ब	-0.12483727
-1.6073694	ट ि ब	-0.12483727
-1.7866187	र ी ब	-0.12483727
-1.2342211	न ं ब	-0.12483727
-1.2746096	य ं ब	-0.12483727
-0.7016259	त ं ब	-0.12483727
-1.1136639	च ं ब	-0.12483727
-1.1731746	ल ं ब	-0.12483727
-1.1370783	स ं ब	-0.20320696
-1.425908	व ं ब	-0.12483727
-1.3024156	ु ं ब	-0.12483727
-1.3673651	अ ं ब	-0.12483727
-2.0211992	ा ल ब	-0.12483727
-1.4203973	त ल ब	-0.12483727
-1.12457	प ल ब	-0.12483727
-1.4821007	ग ल ब	-0.12483727
-1.12457	ख ल ब	-0.12483727
-1.7394291	ु ल ब	-0.12483727
-0.92792225	ठ ल ब	-0.12483727
-1.1949847	# ज ब	-0.6083199
-1.664028	ं ज ब	-0.12483727
-0.63744956	, ज ब	-0.22860986
-0.48657984	‘ ज ब	-0.12483727
-1.7639952	र स ब	-0.12483727
-1.7751492	् स ब	-0.12483727
-1.5088207	# स ब	-0.49912634
-0.77599275	अ थ ब	-0.12483727
-1.6882901	# उ ब	-0.24842423
-1.5313002	ा इ ब	-0.12483727
-2.0440903	# ख ब	-0.12483727
-0.94417703	अ ख ब	-0.12483727
-1.1127088	त ू ब	-0.12483727
-0.7562958	ड ू ब	-0.12483727
-0.47776723	ख ू ब	-0.12483727
-1.0929809	ट ू ब	-0.12483727
-2.3337638	# द ब	-0.22860986
-0.48547834	ो आ ब	-0.12483727
-1.8713517	र ो ब	-0.12483727
-1.8031057	न ो ब	-0.12483727
-1.6158977	क ो ब	-0.22860986
-1.142809	ठ ो ब	-0.12483727
-1.6192975	न ु ब	-0.12483727
-1.28959	ज ु ब	-0.12483727
-1.6895044	स ु ब	-0.12483727
-1.03642	ड ु ब	-0.12483727
-1.6272181	द ु ब	-0.12483727
-1.2442397	ू , ब	-0.12483727
-1.8462996	) , ब	-0.12483727
-1.2922592	# अ ब	-0.93572456
-0.6937039	। अ ब	-0.12483727
-0.96698517	( अ ब	-0.12483727
-0.6937039	) अ ब	-0.12483727
-0.35333836	. अ ब	-0.29890248
-0.938828	ख ़ ब	-0.12483727
-1.3693562	# ( ब	-0.14854947
-1.119648	त ौ ब	-0.12483727
-1.2552508	च ौ ब	-0.12483727
-1.9026867	= = ब	-0.12483727
-1.0768793	र ॉ ब	-0.12483727
-0.47380674	न ॉ ब	-0.12483727
-1.1903639	# * ब	-0.12483727
-1.2959393	स . ब	-0.12483727
-1.404978	ी - ब	-0.12483727
-0.7616235	ं - ब	-0.12483727
-0.7616235	द - ब	-0.12483727
-0.4805646	झ - ब	-0.12483727
-0.91322464	ू झ ब	-0.12483727
-1.4895196	# ‘ ब	-0.12483727
-0.9404793	— ‘ ब	-0.12483727
-2.1026604	' ' र	-0.12483727
-0.6724464	' ब र	-0.12483727
-1.1632218	् ब र	-0.12483727
-1.1061012	ा ब र	-0.12483727
-0.79568416	न ब र	-0.12483727
-1.4380023	# ब र	-0.4248531
-0.6180047	ं ब र	-0.348588
-0.99980116	ल ब र	-0.12483727
-1.0260532	ज ब र	-0.12483727
-0.9824413	स ब र	-0.12483727
-0.6724464	ख ब र	-0.12483727
-0.80117047	ू ब र	-0.22860986
-0.43160522	़ ब र	-0.12483727
-0.6724464	ॉ ब र	-0.12483727
-0.43160522	* ब र	-0.12483727
-0.49565482	ए र र	-0.12483727
-1.9510018	त र र	-0.12483727
-1.9646828	ि र र	-0.12483727
-0.9436096	ब ् र	-0.15675016
-1.6167822	र ् र	-0.12483727
-1.0185698	म ् र	-0.17363143
-0.75809276	क ् र	-0.32272834
-0.549085	श ् र	-0.27015376
-0.4349414	भ ् र	-0.17363143
-0.6232239	त ् र	-0.3783803
-0.21013086	प ् र	-0.37539086
-0.31166294	ग ् र	-0.26016122
-1.5345277	स ् र	-0.12483727
-0.81550455	थ ् र	-0.12483727
-0.79659843	ड ् र	-0.12483727
-0.49671733	फ ् र	-0.17363143
-0.93621486	द ् र	-0.2391496
-0.43932945	ट ् र	-0.18224937
-0.43200037	ु ् र	-0.12483727
-0.5460197	र ध र	-0.22860986
-0.9421899	् ध र	-0.12483727
-1.2621588	ा ध र	-0.12483727
-0.69637764	# ध र	-0.6006068
-0.99785024	ि ध र	-0.12483727
-0.6289876	ी ध र	-0.12483727
-1.0123454	ं ध र	-0.12483727
-0.604141	व ध र	-0.12483727
-0.40611693	इ ध र	-0.12483727
-0.40611693	ष ध र	-0.12483727
-0.40611693	ट ध र	-0.12483727
-0.40611693	( ध र	-0.12483727
-0.6289876	ौ ध र	-0.12483727
-1.327956	र म र	-0.22860986
-1.4071056	् म र	-0.12483727
-1.7498457	ा म र	-0.12483727
-1.7759482	# म र	-0.34533423
-1.2496244	े म र	-0.12483727
-1.6420277	ि म र	-0.12483727
-1.3337264	ग म र	-0.12483727
-1.3375418	स म र	-0.22860986
-0.74754345	उ म र	-0.12483727
-1.2170997	अ म र	-0.12483727
-1.2387606	ब ा र	-0.20320696
-1.6163589	र ा र	-0.12483727
-0.6380878	ध ा र	-0.26438794
-1.1342576	म ा र	-0.25679812
-1.2627246	न ा र	-0.377871
-0.7426848	क ा र	-0.502892
-1.5506053	श ा र	-0.12483727
-0.8283972	ह ा र	-0.23152219
-1.227971	य ा र	-0.21411982
-1.0832553	भ ा र	-0.24171855
-1.2594254	त ा र	-0.24171855
-1.1234962	प ा र	-0.14854947
-0.51741016	च ा र	-0.31938022
-1.3914822	ग ा र	-0.22860986
-1.743333	ल ा र	-0.12483727
-0.9898204	ज ा र	-0.18224937
-1.1714215	स ा र	-0.24876177
-0.87905514	व ा र	-0.2911631
-1.3251667	ड ा र	-0.12483727
-1.4046801	ष ा र	-0.12483727
-1.1354157	फ ा र	-0.12483727
-0.852268	द ा र	-0.25679812
-1.3759044	ट ा र	-0.12483727
-1.0868459	़ ा र	-0.12483727
-1.2845377	ठ ा र	-0.12483727
-0.87022394	घ ा र	-0.12483727
-0.48571217	<s> न र	-0.12483727
-1.7611756	् न र	-0.12483727
-1.4500394	# न र	-0.29237178
-1.495239	य न र	-0.12483727
-1.8682549	ि न र	-0.12483727
-1.7878027	ज न र	-0.12483727
-1.7373903	ु न र	-0.12483727
-1.4833335	' # र	-0.12483727
-1.767963	ब # र	-0.12483727
-1.4291723	र # र	-0.34842739
-1.4056996	ध # र	-0.12483727
-1.4261103	म # र	-0.18107203
-1.5535989	ा # र	-0.32916412
-1.5704267	न # र	-0.2175405
-1.4661627	क # र	-0.25722167
-1.4601598	ए # र	-0.17363143
-1.7090447	श # र	-0.12483727
-1.5731589	ह # र	-0.12483727
-1.3268607	। # र	-0.33211347
-1.5748982	य # र	-0.16342416
-1.5682666	त # र	-0.21319053
-1.4441289	े # र	-0.33729973
-1.6857748	प # र	-0.12483727
-1.3641565	च # र	-0.22860986
-1.6169485	ि # र	-0.1754824
-1.4883881	ी # र	-0.41877905
-1.4156208	ं # र	-0.2758841
-1.3653123	ग # र	-0.16342416
-1.3110744	ल # र	-0.24492359
-1.4436762	स # र	-0.15675016
-1.2126493	थ # र	-0.12483727
-1.6354036	व # र	-0.19119546
-1.623406	ड # र	-0.12483727
-1.1998146	ष # र	-0.15675016
-1.6185684	ख # र	-0.12483727
-1.2380062	ू # र	-0.12483727
-1.3996812	द # र	-0.19119546
-1.5064814	ण # र	-0.17363143
-1.2877319	आ # र	-0.12483727
-1.3420955	ट # र	-0.17363143
-1.5492604	ो # र	-0.19110768
-1.1491183	ु # र	-0.24842423
-1.4674566	, # र	-0.35346487
-1.3742787	़ # र	-0.12483727
-1.7596371	ई # र	-0.12483727
-1.4083204	t # र	-0.12483727
-1.4802766	e # र	-0.12483727
-1.9041184	) # र	-0.12483727
-1.4361978	= # र	-0.12483727
-1.425407	छ # र	-0.12483727
-1.3698406	. # र	-0.3947811
-1.1866817	? # र	-0.12483727
-1.0034088	० # र	-0.22860986
-1.4414045	ठ # र	-0.12483727
-1.1938745	९ # र	-0.12483727
-1.5417519	" # र	-0.12483727
-0.47472274	‌ # र	-0.12483727
-0.8402452	५ # र	-0.22860986
-1.306442	— # र	-0.12483727
-1.0559943	ब क र	-0.12483727
-0.82213384	र क र	-0.17363143
-1.0491734	् क र	-0.15675016
-0.9581564	ध क र	-0.12483727
-0.5554006	ा क र	-0.57751065
-1.3541305	न क र	-0.12483727
-1.1092106	# क र	-0.83059525
-0.9846146	ह क र	-0.12483727
-1.1258122	य क र	-0.12483727
-0.97445434	े क र	-0.22860986
-0.9090919	प क र	-0.12483727
-0.76563966	च क र	-0.2207331
-1.3639069	ि क र	-0.12483727
-0.7509857	ी क र	-0.5999325
-1.063628	ं क र	-0.17363143
-0.6809886	ग क र	-0.12483727
-0.613399	ल क र	-0.52075124
-0.8250677	ड क र	-0.12483727
-0.4687025	ख क र	-0.19119546
-0.92672145	द क र	-0.12483727
-0.98544425	आ क र	-0.12483727
-0.9090919	ट क र	-0.22860986
-0.9362134	ो क र	-0.17363143
-1.2879863	ु क र	-0.12483727
-0.57248986	़ क र	-0.22860986
-0.9581564	ौ क र	-0.12483727
-0.9434267	- क र	-0.12483727
-2.154904	# ए र	-0.12483727
-0.83519727	' श र	-0.12483727
-1.1832974	र श र	-0.12483727
-1.0406197	म श र	-0.12483727
-1.0190156	# श र	-0.57578313
-1.348329	े श र	-0.12483727
-1.3206154	ि श र	-0.12483727
-0.9954026	व श र	-0.12483727
-0.9353399	द श र	-0.12483727
-0.83519727	अ श र	-0.12483727
-0.7018581	. श र	-0.12483727
-1.0703971	र ह र	-0.12483727
-1.1745865	म ह र	-0.12483727
-0.99506354	ा ह र	-0.12483727
-0.98116827	न ह र	-0.12483727
-1.2942239	# ह र	-0.33862853
-0.7842806	श ह र	-0.12483727
-1.1918218	य ह र	-0.12483727
-0.91248417	े ह र	-0.12483727
-0.82291645	प ह र	-0.12483727
-1.0769563	ि ह र	-0.12483727
-0.8776623	ग ह र	-0.12483727
-0.99506295	ल ह र	-0.12483727
-1.1130248	ो ह र	-0.12483727
-0.9285352	ु ह र	-0.12483727
-0.42663714	( ह र	-0.12483727
-0.6638325	ौ ह र	-0.12483727
-0.42663714	ठ ह र	-0.12483727
-0.91236556	ब ै र	-0.12483727
-1.0641391	क ै र	-0.12483727
-1.1988015	ह ै र	-0.12483727
