\data\
ngram 1=112
ngram 2=1340
ngram 3=5639
ngram 4=12457
ngram 5=18602

\1-grams:
-3.1154306	<unk>	0
0	<s>	-0.3327049
-2.0191767	</s>	0
-1.6109505	'	-0.40144545
-2.181578	[	-0.3143283
-1.5269907	e	-0.81220686
-1.6382555	u	-0.6899963
-1.597916	r	-0.5944147
-1.6109505	o	-0.6722038
-1.9278657	]	-0.48830718
-1.6382555	,	-0.88903093
-1.3961515	#	-0.9632605
-1.6827291	d	-0.50275195
-1.6243885	g	-0.5039443
-1.6243885	m	-0.5481653
-1.561007	i	-0.7190664
-1.6109505	n	-0.55853343
-1.5729649	s	-0.64293873
-1.5852612	a	-0.7694416
-1.667393	w	-0.5913507
-1.8761683	ä	-0.5412602
-1.6243885	h	-0.48644817
-1.5729649	p	-0.5520419
-1.6986269	c	-0.5016068
-1.8299751	z	-0.4729984
-1.6986269	k	-0.5370275
-1.561007	l	-0.5786686
-1.8299751	é	-0.5831609
-1.597916	t	-0.62699246
-1.7882265	v	-0.49972942
-1.6382555	b	-0.5753653
-1.9865595	j	-0.4313475
-1.8524579	ë	-0.55689245
-2.293245	(	-0.2495489
-1.6986269	f	-0.5443769
-1.4954462	.	-0.5082707
-2.0544438	y	-0.29394346
-1.8085994	|	-0.3145358
-1.7501415	)	-0.6151579
-1.9012482	=	-0.325338
-1.8761683	"	-0.37070465
-1.8085994	:	-0.44396836
-2.5449066	;	-0.2500034
-2.443951	>	-0.250539
-2.2338324	5	-0.24808872
-1.9562218	1	-0.26087958
-2.0544438	0	-0.2682067
-1.7687666	-	-0.32363242
-2.09283	2	-0.32749528
-2.09283	3	-0.24865904
-2.443951	4	-0.250539
-2.8966627	6	-0.250539
-2.6766732	7	-0.24962121
-2.5449066	8	-0.2500034
-2.09283	9	-0.2719873
-2.443951	?	-0.24784446
-2.6766732	{	-0.2500034
-2.3620934	}	-0.3732311
-2.293245	q	-0.6140341
-2.8966627	è	-0.24893418
-2.9953198	á	-0.250539
-2.9953198	ấ	-0.250539
-2.1349409	ü	-0.24761294
-2.293245	x	-0.24845275
-2.293245	<	-0.24805292
-1.9012482	/	-0.24946846
-2.09283	_	-0.249254
-2.293245	&	-0.24885295
-2.9953198	†	-0.250539
-2.9953198	ç	-0.250539
-2.9953198	â	-0.250539
-2.293245	!	-0.3061475
-2.6766732	ö	-0.250539
-2.9953198	ô	-0.250539
-2.8966627	„	-0.24973585
-2.9953198	“	-0.250539
-2.9953198	ß	-0.250539
-2.9953198	с	-0.250539
-2.9953198	т	-0.250539
-2.9953198	и	-0.250539
-2.9953198	в	-0.250539
-2.9953198	е	-0.250539
-2.9953198	н	-0.250539
-2.9953198	ø	-0.250539
-2.9953198	´	-0.250539
-2.8966627	מ	-0.24893418
-2.9953198	ד	-0.250539
-2.8966627	י	-0.250539
-2.9953198	נ	-0.250539
-2.9953198	ת	-0.250539
-2.9953198	ש	-0.250539
-2.9953198	ר	-0.250539
-2.9953198	א	-0.250539
-2.9953198	ל	-0.250539
-2.8966627	′	-0.250539
-2.8966627	د	-0.24893418
-2.9953198	و	-0.250539
-2.8966627	ل	-0.250539
-2.9953198	ة	-0.250539
-2.9953198	إ	-0.250539
-2.9953198	س	-0.250539
-2.9953198	ر	-0.250539
-2.9953198	ا	-0.250539
-2.9953198	ئ	-0.250539
-2.9953198	ي	-0.250539
-2.9953198	ā	-0.250539
-2.9953198	ī	-0.250539
-2.9953198	₪	-0.250539
-2.9953198	+	-0.250539
-2.8966627	”	-0.250539
-2.9953198	*	-0.250539
-2.9953198	’	-0.250539

\2-grams:
-2.0825222	' </s>	0
-2.585295	e </s>	0
-1.5822715	, </s>	0
-2.1880507	d </s>	0
-2.236941	m </s>	0
-2.4159436	s </s>	0
-2.174869	h </s>	0
-2.2613533	t </s>	0
-1.9384323	. </s>	0
-1.7105315	y </s>	0
-1.9625827	| </s>	0
-1.948192	) </s>	0
-0.35288122	н </s>	0
-0.5780922	<s> '	-0.6499843
-0.49637592	' '	-0.5184885
-1.8299197	e '	-0.6499843
-1.9967138	r '	-0.27859566
-2.0510125	o '	-0.27859566
-1.6052556	] '	-0.18721464
-1.4018021	# '	-1.269773
-1.5861737	d '	-0.21536696
-1.8420168	g '	-0.27859566
-1.5206424	m '	-0.57080305
-2.1018867	i '	-0.27859566
-1.6439883	n '	-0.57080305
-1.6605082	s '	-0.6499843
-2.1442544	a '	-0.27859566
-1.962952	w '	-0.18721464
-1.8214566	h '	-0.27859566
-1.9790763	p '	-0.18721464
-1.8603991	z '	-0.18721464
-1.7352791	k '	-0.3489543
-1.751416	l '	-0.47389305
-1.7459368	t '	-0.57080305
-1.5911592	( '	-0.18721464
-1.9245626	. '	-0.18721464
-1.0504415	y '	-0.30253315
-1.6243609	) '	-0.27859566
-1.6876931	= '	-0.18721464
-1.695236	" '	-0.18721464
-1.480832	: '	-0.27859566
-1.2043784	> '	-0.18721464
-1.3455596	3 '	-0.18721464
-1.1168612	7 '	-0.18721464
-1.1859825	} '	-0.18721464
-0.9087866	„ '	-0.18721464
-1.9387122	' [	-0.27859566
-0.73079586	[ [	-0.22012591
-1.5640241	( [	-0.27859566
-1.5287998	= [	-0.3489543
-1.2806395	> [	-0.18721464
-1.9247564	- [	-0.18721464
-0.6539551	„ [	-0.27859566
-0.35452524	* [	-0.18721464
-0.35452524	’ [	-0.18721464
-1.601503	' e	-0.22547728
-1.529791	[ e	-0.18721464
-1.3337814	e e	-0.54015034
-0.92715174	u e	-0.52248996
-0.9755614	r e	-0.5698031
-1.5425118	o e	-0.36193812
-1.576529	] e	-0.18721464
-1.4131082	# e	-0.64292294
-0.8579736	d e	-0.54303336
-0.76160234	g e	-0.572631
-1.0556583	m e	-0.49898487
-1.0923148	i e	-0.5374371
-1.1699173	n e	-0.42711547
-1.1890464	s e	-0.44352663
-1.7017477	a e	-0.20832118
-0.7219448	w e	-0.45059568
-0.7511475	ä e	-0.5462216
-0.8726815	h e	-0.36509058
-1.029466	p e	-0.3759681
-1.0919105	c e	-0.31560788
-0.8527891	z e	-0.33863106
-0.93717366	k e	-0.4515074
-0.93128604	l e	-0.53019255
-1.721254	é e	-0.18721464
-1.1276479	t e	-0.6312355
-0.59905577	v e	-0.59910893
-0.8786793	b e	-0.39803338
-0.6417507	j e	-0.27717343
-1.2856815	( e	-0.21142189
-0.99458045	f e	-0.39282066
-1.8690948	. e	-0.18721464
-1.3546934	y e	-0.18721464
-1.5707527	| e	-0.18721464
-1.6498007	" e	-0.18721464
-1.4568118	: e	-0.24595179
-1.246911	5 e	-0.18721464
-1.0093489	x e	-0.23050606
-0.341944	ß e	-0.18721464
-0.6273298	´ e	-0.18721464
-0.6273298	′ e	-0.18721464
-1.7440042	' u	-0.18721464
-1.5805506	[ u	-0.18721464
-1.7057096	e u	-0.4042266
-1.9122062	u u	-0.23050606
-1.2547575	r u	-0.37023163
-1.158394	o u	-0.42896885
-1.6571212	# u	-0.59737337
-1.3836775	d u	-0.31618065
-1.6041228	g u	-0.23050606
-1.5267694	m u	-0.29440647
-1.7797492	i u	-0.2587164
-1.3330948	n u	-0.39913082
-1.6673107	s u	-0.25674972
-1.3678632	a u	-0.46323162
-1.2913108	w u	-0.35368568
-1.2313324	h u	-0.29308727
-1.4723065	p u	-0.23705855
-1.3495052	c u	-0.2768896
-1.305555	z u	-0.24105754
-1.0578544	k u	-0.35216218
-1.2114868	l u	-0.32071388
-1.2351663	t u	-0.37606865
-1.1994932	v u	-0.23705855
-1.1064173	b u	-0.3681411
-1.0567704	j u	-0.277647
-1.6056315	( u	-0.18721464
-1.7385702	f u	-0.24595179
-1.5348271	" u	-0.27859566
-1.6892703	: u	-0.18721464
-1.7058791	- u	-0.18721464
-0.11782134	q u	-0.47389305
-1.7231174	' r	-0.2587164
-1.1626959	e r	-0.6640273
-1.1154824	u r	-0.3089392
-1.9158441	r r	-0.23473454
-1.0212168	o r	-0.4268523
-1.4563643	# r	-0.5240118
-1.1814543	d r	-0.39081258
-0.9892499	g r	-0.44052708
-1.4491422	i r	-0.30956888
-2.1305614	s r	-0.18721464
-1.0905507	a r	-0.4229291
-0.89656997	ä r	-0.34466812
-1.4553844	h r	-0.2532133
-1.1211607	p r	-0.47546443
-1.7479386	c r	-0.27859566
-1.8525621	z r	-0.18721464
-1.4436504	k r	-0.27781934
-2.0551274	l r	-0.18721464
-1.5381452	é r	-0.18721464
-1.3219699	t r	-0.5189643
-1.5231751	v r	-0.24595179
-0.97901815	b r	-0.35172334
-1.6053954	ë r	-0.18721464
-1.2601725	f r	-0.321116
-1.9161915	. r	-0.18721464
-1.3776555	y r	-0.18721464
-1.5118662	| r	-0.24595179
-1.6724943	: r	-0.18721464
-1.6830451	- r	-0.18721464
-0.34630027	è r	-0.27859566
-1.380189	ü r	-0.18721464
-0.9089442	< r	-0.27859566
-1.4884436	/ r	-0.18721464
-0.90731096	„ r	-0.18721464
-1.7299685	' o	-0.23050606
-2.1486492	e o	-0.2768896
-1.1883459	r o	-0.3608429
-1.5596766	o o	-0.20832118
-1.5446259	# o	-0.53510576
-1.1830038	d o	-0.23614766
-1.2508941	g o	-0.22995992
-1.0999025	m o	-0.36871848
-1.5528175	i o	-0.2605982
-1.2122095	n o	-0.28799167
-1.5312424	s o	-0.35216218
-0.98235905	w o	-0.36947995
-1.1718494	h o	-0.28999594
-1.2953987	p o	-0.27781934
-0.8661463	c o	-0.28635657
-0.997329	z o	-0.34281114
-1.100916	k o	-0.368384
-1.244578	l o	-0.29215053
-1.7536095	é o	-0.18721464
-1.3235785	t o	-0.25838825
-1.1962583	v o	-0.35607085
-1.3577145	b o	-0.20592469
-0.7172702	j o	-0.3274913
-1.5911592	( o	-0.18721464
-1.0875323	f o	-0.35178694
-1.6920577	. o	-0.3489543
-1.613737	| o	-0.18721464
-1.695236	" o	-0.18721464
-1.5364546	- o	-0.18721464
-1.1652143	x o	-0.24595179
-1.4940991	/ o	-0.18721464
-1.0919609	_ o	-0.27859566
-0.34475327	ç o	-0.18721464
-2.2884836	e ]	-0.3489543
-1.8818781	r ]	-0.47389305
-2.3604052	o ]	-0.18721464
-0.32164568	] ]	-0.3674133
-1.9824721	g ]	-0.27859566
-2.191875	m ]	-0.18721464
-2.2607226	i ]	-0.27859566
-2.269174	n ]	-0.18721464
-2.3618112	s ]	-0.18721464
-2.1169248	w ]	-0.18721464
-1.9482601	t ]	-0.47389305
-1.9521122	v ]	-0.18721464
-1.3391681	. ]	-0.6499843
-1.685871	y ]	-0.18721464
-1.2569805	> ]	-0.18721464
-1.0985483	8 ]	-0.18721464
-1.8664799	' ,	-0.18721464
-1.7662952	e ,	-0.7169311
-1.9367191	r ,	-0.3489543
-1.9843185	o ,	-0.3489543
-1.6138247	] ,	-0.18721464
-1.9703487	d ,	-0.18721464
-1.7647436	g ,	-0.3489543
-1.805543	m ,	-0.3489543
-2.036304	i ,	-0.3489543
-1.4955478	n ,	-0.60356313
-1.5968744	s ,	-0.7169311
-2.2657838	a ,	-0.18721464
-1.9784777	w ,	-0.18721464
-1.9559335	h ,	-0.18721464
-1.726187	z ,	-0.27859566
-1.8456823	k ,	-0.24595179
-1.7611732	l ,	-0.47389305
-1.7633147	é ,	-0.18721464
-1.2940682	t ,	-1.0179611
-1.8632103	b ,	-0.27859566
-1.8407983	f ,	-0.27859566
-1.804356	. ,	-0.27859566
-0.811044	) ,	-0.82607555
-1.2157153	" ,	-0.47389305
-1.2102463	> ,	-0.18721464
-1.2770212	5 ,	-0.18721464
-1.4170542	1 ,	-0.18721464
-1.2834554	0 ,	-0.27859566
-1.3537384	3 ,	-0.18721464
-1.2460041	4 ,	-0.18721464
-0.63433164	” ,	-0.18721464
-1.6901593	' #	-0.18721464
-1.1643677	e #	-0.7104127
-1.4089279	u #	-0.24757682
-1.4206476	r #	-0.3333269
-1.3208083	o #	-0.25632337
-0.089541875	, #	-0.6003461
-1.262287	d #	-0.29213604
-1.420759	g #	-0.2661542
-1.1143903	m #	-0.43320692
-1.459697	i #	-0.3499243
-1.4354283	n #	-0.4094692
-1.253981	s #	-0.46133927
-1.3392578	a #	-0.24265407
-1.7273154	ä #	-0.18721464
-1.3988794	h #	-0.21142189
-1.657758	p #	-0.20401703
-1.2999281	c #	-0.22149567
-1.0938041	z #	-0.27421778
-1.3095058	k #	-0.24831004
-1.4369284	l #	-0.34944123
-1.3589282	é #	-0.18721464
-1.1135103	t #	-0.75208926
-1.5606946	v #	-0.18721464
-1.6583433	b #	-0.18721464
-1.6970663	ë #	-0.18721464
-1.38536	f #	-0.27985895
-0.49579996	. #	-0.57973874
-1.0132315	y #	-0.18721464
-1.4957649	| #	-0.18721464
-0.41661626	) #	-0.38933727
-1.4341925	= #	-0.18721464
-0.5716005	" #	-0.25179312
-0.3855186	: #	-0.4128385
-1.0193348	; #	-0.18721464
-0.8518636	5 #	-0.18721464
-1.3215632	1 #	-0.27859566
-1.0934464	0 #	-0.3489543
-1.0704998	- #	-0.22149567
-1.1715302	2 #	-0.18721464
-1.0706751	3 #	-0.18721464
-0.87894106	6 #	-0.18721464
-0.83192486	7 #	-0.27859566
-1.3512223	9 #	-0.18721464
-0.5494167	? #	-0.21826498
-1.1123731	x #	-0.18721464
-1.3885	/ #	-0.18721464
-1.2491446	_ #	-0.18721464
-0.33637953	† #	-0.18721464
-0.51279634	! #	-0.23050606
-0.6166577	“ #	-0.18721464
-0.33637953	ת #	-0.18721464
-0.33637953	ל #	-0.18721464
-0.6166577	ل #	-0.18721464
-0.33637953	ة #	-0.18721464
-1.450549	<s> d	-0.18721464
-1.7659466	' d	-0.21142189
-1.5988802	[ d	-0.18721464
-1.4283407	e d	-0.40083706
-1.534244	u d	-0.31618065
-1.7031257	r d	-0.29112664
-1.5087994	o d	-0.46226773
-1.34114	# d	-0.89516485
-1.8713067	d d	-0.22149567
-1.2739661	i d	-0.519482
-1.4417615	n d	-0.32091808
-1.6057081	s d	-0.24105754
-1.5422006	a d	-0.26004386
-1.9855837	h d	-0.18721464
-2.0247116	p d	-0.18721464
-1.9018577	z d	-0.18721464
-1.7762328	l d	-0.2133411
-2.0904074	t d	-0.27859566
-2.0300548	b d	-0.18721464
-1.6282864	( d	-0.18721464
-1.2428195	| d	-0.22149567
-1.730871	" d	-0.18721464
-1.7067204	: d	-0.18721464
-1.2191994	> d	-0.18721464
-1.506942	0 d	-0.18721464
-1.7299805	- d	-0.18721464
-1.071939	{ d	-0.18721464
-1.0322688	ü d	-0.23050606
-1.7369297	' g	-0.24595179
-1.3677052	e g	-0.5500173
-1.7397693	u g	-0.24595179
-1.6867856	r g	-0.2507099
-1.562185	o g	-0.3338577
-1.4026927	# g	-0.85703146
-1.8420266	d g	-0.18721464
-1.849134	g g	-0.27859566
-1.8905586	m g	-0.24595179
-1.5008248	i g	-0.2987757
-1.3786502	n g	-0.3920745
-1.8505818	s g	-0.21559092
-1.4028869	a g	-0.3499282
-1.8534045	ä g	-0.18721464
-1.8285232	h g	-0.18721464
-1.8578405	p g	-0.18721464
-1.904374	c g	-0.18721464
-1.9703085	k g	-0.18721464
-1.6491711	l g	-0.4786244
-1.8512815	t g	-0.2587164
-1.8255345	v g	-0.18721464
-1.9946073	b g	-0.18721464
-1.598335	( g	-0.18721464
-1.8344315	f g	-0.18721464
-1.9330981	. g	-0.18721464
-1.5738014	y g	-0.18721464
-1.5221986	| g	-0.18721464
-1.7021329	" g	-0.18721464
-1.6981336	- g	-0.18721464
-1.0634196	{ g	-0.18721464
-1.4998294	/ g	-0.18721464
-0.34515607	â g	-0.18721464
-1.4338682	<s> m	-0.18721464
-1.7369297	' m	-0.18721464
-1.5746086	[ m	-0.18721464
-1.3424847	e m	-0.47437972
-1.0853387	u m	-0.39276177
-1.7914574	r m	-0.26502815
-1.4999905	o m	-0.28355405
-1.609519	] m	-0.18721464
-1.369173	# m	-0.8552338
-1.9609393	d m	-0.18721464
-1.9660302	g m	-0.18721464
-1.3562694	m m	-0.37219882
-1.4526378	i m	-0.32275286
-1.9674671	n m	-0.18721464
-1.6638961	s m	-0.22547728
-1.2457408	a m	-0.38630852
-1.6750374	ä m	-0.18721464
-1.8285232	h m	-0.18721464
-1.9878278	p m	-0.18721464
-1.904374	c m	-0.18721464
-1.7562673	l m	-0.21142189
-2.0542698	t m	-0.18721464
-1.0255187	ë m	-0.3042658
-1.598335	( m	-0.18721464
-1.9694314	f m	-0.18721464
-1.0522954	y m	-0.18721464
-1.1372476	| m	-0.35607085
-1.7021329	" m	-0.18721464
-1.6836059	: m	-0.18721464
-1.0634196	; m	-0.18721464
-1.6981336	- m	-0.18721464
-1.3034098	/ m	-0.18721464
-1.703189	' i	-0.23050606
-1.5460604	[ i	-0.18721464
-1.361921	e i	-0.42264315
-2.088362	u i	-0.18721464
-1.079916	r i	-0.49136293
-1.8085618	o i	-0.18721464
-1.5886085	] i	-0.18721464
-1.5164567	# i	-0.6864387
-1.1768391	d i	-0.2594211
-1.1887856	g i	-0.37099707
-1.0953087	m i	-0.3989079
-1.6743983	i i	-0.36135328
-1.2797604	n i	-0.36013776
-1.3822591	s i	-0.33838516
-1.710148	a i	-0.21142189
-0.979181	w i	-0.37340933
-0.8418547	ä i	-0.31960684
-1.2837067	h i	-0.28889725
-1.1175705	p i	-0.3596733
-1.1620502	c i	-0.22547728
-1.1174471	z i	-0.30571625
-1.4358784	k i	-0.28635657
-1.0134798	l i	-0.38742918
-0.37154758	é i	-0.5236677
-1.2552772	t i	-0.38401374
-0.8781682	v i	-0.3806643
-1.0547593	b i	-0.32859966
-1.5969939	j i	-0.18721464
-1.4083691	( i	-0.18721464
-0.9257889	f i	-0.35433537
-1.8920051	. i	-0.18721464
-1.7081698	| i	-0.18721464
-1.2227111	= i	-0.23050606
-1.014992	x i	-0.18721464
-1.2854387	/ i	-0.27859566
-1.3080475	_ i	-0.18721464
-1.1531208	& i	-0.18721464
-1.8479677	' n	-0.18721464
-1.5687468	[ n	-0.18721464
-1.1474952	e n	-0.72376806
-0.9531838	u n	-0.47652537
-1.9226915	r n	-0.25388557
-1.062309	o n	-0.42071834
-1.4988126	# n	-0.67083114
-1.9517294	d n	-0.18721464
-1.7530844	g n	-0.23050606
-1.9991573	m n	-0.18721464
-1.0411279	i n	-0.5061371
-1.4899768	n n	-0.40679663
-2.051665	s n	-0.18721464
-1.0557655	a n	-0.5214845
-1.962952	w n	-0.18721464
-0.9574926	ä n	-0.35037
-1.8214566	h n	-0.18721464
-1.9790763	p n	-0.18721464
-1.8603991	z n	-0.18721464
-1.7352791	k n	-0.18721464
-0.9333374	é n	-0.5455712
-2.0456862	t n	-0.18721464
-1.9861798	b n	-0.18721464
-0.6636415	ë n	-0.430655
-1.9608914	f n	-0.18721464
-1.5170016	| n	-0.3489543
-1.6876931	= n	-0.18721464
-1.5364546	- n	-0.18721464
-1.1650443	ü n	-0.18721464
-1.2997556	/ n	-0.18721464
-1.3231505	_ n	-0.18721464
-0.7544652	& n	-0.30253315
-0.79621863	ö n	-0.18721464
-1.0518079	<s> s	-0.24595179
-1.7097307	' s	-0.23466437
-1.5516219	[ s	-0.18721464
-1.1947932	e s	-0.6052338
-1.0526466	u s	-0.37408343
-1.5208689	r s	-0.30302554
-1.1803659	o s	-0.30733156
-1.3821946	# s	-0.83539855
-1.5841786	g s	-0.23466437
-1.6244044	m s	-0.2605982
-1.0390916	i s	-0.5056192
-1.4223851	n s	-0.31987646
-1.3840411	s s	-0.40012234
-1.2688332	a s	-0.45618743
-1.940657	w s	-0.18721464
-1.3433964	ä s	-0.30253315
-1.9106147	h s	-0.18721464
-1.4590247	p s	-0.21142189
-1.8727794	c s	-0.18721464
-1.5568675	k s	-0.23751181
-1.6341838	l s	-0.24831004
-1.3912745	t s	-0.3191511
-1.4463422	b s	-0.21559092
-0.8059133	ë s	-0.4130389
-1.5703168	( s	-0.18721464
-1.5477325	f s	-0.22149567
-1.7734399	. s	-0.18721464
-1.2453533	y s	-0.18721464
-1.2213764	| s	-0.22149567
-1.675179	" s	-0.18721464
-1.4129618	- s	-0.18721464
-1.0550642	{ s	-0.18721464
-1.0167575	ü s	-0.24595179
-1.1557285	& s	-0.18721464
-0.7928163	ö s	-0.18721464
-0.63042784	´ s	-0.18721464
-1.7163725	' a	-0.23705855
-1.8232199	e a	-0.18721464
-1.7290003	u a	-0.22149567
-1.1858087	r a	-0.39120805
-2.0357761	o a	-0.27859566
-1.417698	# a	-0.7006346
-1.130654	d a	-0.3193328
-1.0220582	g a	-0.36909544
-0.86578745	m a	-0.437074
-1.6093671	i a	-0.2684653
-1.176591	n a	-0.45628694
-1.3858303	s a	-0.2905379
-1.2698578	a a	-0.44988525
-0.90107715	w a	-0.42797267
-0.876643	h a	-0.4629904
-1.0750539	p a	-0.28216383
-1.3404664	c a	-0.20832118
-1.4221861	z a	-0.18721464
-1.0535747	k a	-0.3932741
-1.0378766	l a	-0.4634921
-1.3552413	t a	-0.270747
-1.0911766	v a	-0.24595179
-0.9117237	b a	-0.36154187
-1.2646462	j a	-0.18721464
-1.417815	( a	-0.22149567
-1.1357064	f a	-0.38095105
-1.7794496	. a	-0.18721464
-1.5556647	y a	-0.18721464
-1.5067909	| a	-0.23050606
-1.6817622	" a	-0.18721464
-0.92706704	- a	-0.27737632
-0.98988277	? a	-0.18721464
-1.376106	x a	-0.18721464
-1.2925382	/ a	-0.18721464
-1.3155334	_ a	-0.18721464
-1.4463184	<s> w	-0.18721464
-1.7585087	' w	-0.22149567
-1.592684	[ w	-0.18721464
-1.6570617	e w	-0.3658942
-2.0239038	u w	-0.18721464
-1.8070389	r w	-0.24595179
-1.9978255	o w	-0.18721464
-1.441935	# w	-0.813348
-1.9898021	d w	-0.18721464
-2.037415	m w	-0.18721464
-1.6984458	i w	-0.37981564
-2.0935793	n w	-0.18721464
-1.6742216	s w	-0.24932466
-1.6590625	a w	-0.30253315
-1.7173737	w w	-0.18721464
-1.9754736	h w	-0.18721464
-1.8932433	z w	-0.18721464
-1.9975113	k w	-0.18721464
-1.9195402	l w	-0.30253315
-2.081087	t w	-0.22149567
-1.6206026	( w	-0.18721464
-1.95976	. w	-0.18721464
-1.6403553	| w	-0.22149567
-1.7186296	= w	-0.18721464
-1.2505682	- w	-0.18721464
-1.2524667	4 w	-0.18721464
-0.91481984	6 w	-0.18721464
-1.4613093	9 w	-0.18721464
-1.3145605	/ w	-0.18721464
-2.010995	' ä	-0.18721464
-1.4493818	r ä	-0.42662007
-2.2929144	# ä	-0.22149567
-1.9545165	d ä	-0.22149567
-2.1226525	g ä	-0.18721464
-1.8893392	m ä	-0.22149567
-2.2370956	n ä	-0.18721464
-1.5705597	s ä	-0.30731663
-1.4188547	w ä	-0.2903995
-1.5065612	h ä	-0.2881002
-1.9609078	p ä	-0.18721464
-1.2300669	z ä	-0.6499843
-2.1149938	k ä	-0.18721464
-1.5305105	l ä	-0.2517074
-2.1966043	t ä	-0.18721464
-1.8291804	b ä	-0.24595179
-1.8100289	f ä	-0.2587164
-1.895912	| ä	-0.18721464
-1.4338682	<s> h	-0.18721464
-1.7369297	' h	-0.24595179
-1.3808694	[ h	-0.18721464
-1.8333088	e h	-0.25566098
-2.004976	r h	-0.18721464
-1.9777193	o h	-0.18721464
-1.4204754	# h	-0.77566665
-1.8420266	d h	-0.18721464
-1.7588749	g h	-0.24595179
-2.2105458	i h	-0.18721464
-1.9674671	n h	-0.18721464
-1.4808829	s h	-0.30141845
-1.9222412	a h	-0.23050606
-1.6750374	ä h	-0.18721464
-1.1741059	p h	-0.29308727
-0.7997221	c h	-0.4462614
-1.6123179	z h	-0.24595179
-1.9703085	k h	-0.18721464
-1.9770547	l h	-0.18721464
-1.4410039	t h	-0.369793
-1.8569672	b h	-0.18721464
-1.6213968	j h	-0.18721464
-1.598335	( h	-0.18721464
-1.9694314	f h	-0.18721464
-1.7979941	. h	-0.18721464
-1.7502577	| h	-0.18721464
-1.6952231	= h	-0.18721464
-1.7021329	" h	-0.18721464
-1.6836059	: h	-0.18721464
-1.6981336	- h	-0.18721464
-1.3890753	ü h	-0.18721464
-1.4998294	/ h	-0.18721464
-1.1955017	<s> p	-0.18721464
-1.7097307	' p	-0.26430398
-1.5516219	[ p	-0.18721464
-1.595248	e p	-0.21559092
-1.7254691	u p	-0.30253315
-2.0588448	r p	-0.18721464
-1.3475925	o p	-0.30309546
-1.4167762	# p	-0.7029204
-1.9299985	g p	-0.18721464
-1.7771789	m p	-0.18721464
-1.6773324	i p	-0.18721464
-1.2784822	s p	-0.36461797
-1.5806812	a p	-0.33796754
-1.8275872	ä p	-0.18721464
-1.8009212	h p	-0.18721464
-1.3663689	p p	-0.34412026
-1.9365015	k p	-0.18721464
-1.8724539	l p	-0.23050606
-1.9547415	t p	-0.18721464
-1.6017661	j p	-0.18721464
-1.5703168	( p	-0.18721464
-1.6774606	. p	-0.23050606
-1.5497836	y p	-0.18721464
-1.7162675	| p	-0.18721464
-1.6658561	= p	-0.18721464
-1.675179	" p	-0.18721464
-1.6616598	: p	-0.18721464
-1.1957226	> p	-0.18721464
-0.92499566	0 p	-0.47389305
-1.520866	- p	-0.18721464
-0.988097	? p	-0.18721464
-1.3717792	x p	-0.18721464
-1.2889739	/ p	-0.27859566
-1.3117744	_ p	-0.18721464
-1.1557285	& p	-0.18721464
-0.34354708	ø p	-0.18721464
-1.7735143	' c	-0.27859566
-1.6051662	[ c	-0.18721464
-1.3480142	e c	-0.57840633
-1.2355063	u c	-0.4411194
-2.0488243	r c	-0.24595179
-1.4059548	o c	-0.41714877
-1.6965672	# c	-0.54795635
-1.8789458	d c	-0.27859566
-2.0157292	g c	-0.18721464
-1.218389	i c	-0.5200584
-1.6683328	n c	-0.26502815
-1.0891663	s c	-0.76933134
-1.2781434	a c	-0.4098062
-1.3622969	ä c	-0.47389305
-1.7899073	c c	-0.18721464
-1.9339874	l c	-0.24595179
-0.9377146	é c	-0.42301762
-2.1977518	t c	-0.18721464
-1.8891207	b c	-0.18721464
-1.6315342	ë c	-0.27859566
-1.4140942	. c	-0.2768896
-1.6543025	| c	-0.27859566
-1.5643091	= c	-0.18721464
-1.7383628	" c	-0.18721464
-1.5694178	- c	-0.18721464
-1.5296727	/ c	-0.18721464
-0.8031044	ö c	-0.18721464
-1.9853859	' z	-0.18721464
-1.799616	e z	-0.23473454
-2.2542436	u z	-0.18721464
-1.7377746	r z	-0.277647
-1.7680124	o z	-0.2768896
-1.5609996	# z	-0.5315339
-1.9858439	m z	-0.27859566
-1.727193	i z	-0.24105754
-1.5275354	n z	-0.39131653
-1.9183366	s z	-0.22149567
-1.9813831	a z	-0.20401703
-2.0762508	h z	-0.18721464
-2.1094584	p z	-0.18721464
-1.9777166	z z	-0.18721464
-1.9250826	k z	-0.27859566
-2.087255	l z	-0.24595179
-1.5168402	t z	-0.327545
-1.6952033	( z	-0.18721464
-1.8718679	| z	-0.18721464
-1.1997323	& z	-0.18721464
-1.7735143	' k	-0.21142189
-1.6051662	[ k	-0.18721464
-1.4941374	e k	-0.37606865
-2.0381176	u k	-0.18721464
-1.7073087	r k	-0.22149573
-1.7406085	o k	-0.21559092
-1.4251441	# k	-0.764482
-2.010168	d k	-0.18721464
-1.886582	g k	-0.18721464
-1.4615022	i k	-0.36321974
-1.5801636	n k	-0.25566098
-1.7683952	s k	-0.18721464
-1.4946339	a k	-0.37533015
-2.0113003	w k	-0.18721464
-1.8879964	ä k	-0.18721464
-1.9959346	h k	-0.18721464
-1.3587362	c k	-0.34767106
-2.0166416	k k	-0.18721464
-1.9339874	l k	-0.24595179
-1.8793285	t k	-0.18721464
-1.6361084	( k	-0.18721464
-1.6543025	| k	-0.27859566
-1.7349656	= k	-0.18721464
-1.7383628	" k	-0.18721464
-1.5025339	: k	-0.18721464
-1.450357	- k	-0.24595179
-1.4121206	ü k	-0.18721464
-1.703189	' l	-0.23705855
-1.5460604	[ l	-0.18721464
-1.2699016	e l	-0.51965725
-1.1838903	u l	-0.33124724
-1.7666695	r l	-0.25388557
-1.1793228	o l	-0.3844103
-1.3813452	# l	-0.74258584
-1.5707417	d l	-0.39944318
-1.7306652	g l	-0.2768896
-1.8562976	m l	-0.18721464
-1.2636232	i l	-0.4204596
-1.5473685	n l	-0.24595179
-1.6472145	s l	-0.30731663
-1.1474228	a l	-0.44918507
-1.8213657	ä l	-0.18721464
-1.7096447	h l	-0.18721464
-1.0323948	p l	-0.413836
-1.8652272	c l	-0.18721464
-1.8298651	z l	-0.18721464
-1.1460791	k l	-0.39944318
-1.4786218	l l	-0.38095105
-1.7348266	é l	-0.18721464
-1.5844481	t l	-0.47049773
-1.5130322	v l	-0.18721464
-1.2071407	b l	-0.3241451
-1.1254003	ë l	-0.27737632
-1.2963787	( l	-0.21559092
-1.0830278	f l	-0.3781529
-1.5079252	. l	-0.47389305
-1.3660228	y l	-0.27859566
-1.1266055	| l	-0.27859566
-1.6588145	= l	-0.18721464
-1.2291899	- l	-0.30253315
-1.2854387	/ l	-0.18721464
-1.3080475	_ l	-0.18721464
-0.34314576	ô l	-0.18721464
-0.34314576	ī l	-0.18721464
-1.9853859	' é	-0.18721464
-1.237036	r é	-0.60854006
-1.8796482	# é	-0.7004732
-1.3307533	d é	-0.4130389
-1.8351477	g é	-0.3489543
-1.3139377	m é	-0.65471566
-2.2177932	i é	-0.27859566
-1.8185197	n é	-0.47389305
-1.630183	s é	-0.48100957
-1.225086	w é	-0.5455712
-1.6288308	h é	-0.2605982
-2.1094584	p é	-0.18721464
-1.4677413	z é	-0.30253315
-1.9250826	k é	-0.27859566
-1.2645528	l é	-0.5762111
-1.6375182	t é	-0.60356313
-1.9168451	v é	-0.18721464
-2.111023	b é	-0.18721464
-1.6862503	j é	-0.18721464
-2.0876496	f é	-0.18721464
-1.8389995	' t	-0.18721464
-1.5629632	[ t	-0.18721464
-1.3653822	e t	-0.35890722
-1.2276117	u t	-0.30141845
-1.5959517	r t	-0.26947576
-1.2754129	o t	-0.32658374
-1.5433916	# t	-0.52570224
-1.8280951	d t	-0.18721464
-1.8350145	g t	-0.24595179
-1.6321999	m t	-0.27737632
-1.2112844	i t	-0.42431813
-1.4271487	n t	-0.3405584
-1.0097525	s t	-0.56379163
-1.2708849	a t	-0.4911175
-1.9553925	w t	-0.18721464
-1.3475261	ä t	-0.23050606
-1.4553844	h t	-0.19553456
-1.2936075	p t	-0.24932466
-1.6440245	c t	-0.22149567
-1.7091097	z t	-0.18721464
-1.2069724	k t	-0.3256289
-1.5571171	l t	-0.34767106
-1.4829855	t t	-0.39701974
-1.9779127	b t	-0.18721464
-0.9388658	ë t	-0.4159011
-1.5841	( t	-0.18721464
-1.2601725	f t	-0.4100019
-1.5118662	| t	-0.24595179
-1.6884469	" t	-0.18721464
-1.420998	- t	-0.24595179
-1.0592217	{ t	-0.18721464
-1.1623727	ü t	-0.18721464
-1.3804764	x t	-0.18721464
-1.3193253	_ t	-0.18721464
-1.4768367	<s> v	-0.18721464
-1.8134665	' v	-0.23705855
-1.6380377	[ v	-0.18721464
-1.729157	e v	-0.24595179
-2.231105	u v	-0.18721464
-2.0976017	r v	-0.18721464
-2.1459615	o v	-0.18721464
-1.4488196	# v	-0.7945835
-1.6433944	i v	-0.26770794
-2.0597067	n v	-0.27859566
-2.0644667	s v	-0.24595179
-2.140051	a v	-0.23050606
-2.0668354	l v	-0.18721464
-1.9093126	t v	-0.18721464
-1.6774828	( v	-0.18721464
-2.0655746	f v	-0.18721464
-1.5779039	| v	-0.18721464
-1.7787144	= v	-0.18721464
-1.7778924	" v	-0.18721464
-1.7438763	: v	-0.18721464
-1.7826098	- v	-0.18721464
-1.1939818	& v	-0.18721464
-1.7440042	' b	-0.24595179
-1.5805506	[ b	-0.18721464
-1.5624979	e b	-0.30839762
-1.4498185	u b	-0.31618065
-2.0133986	r b	-0.21142189
-1.502176	o b	-0.2431483
-1.4035851	# b	-0.8306682
-1.9755254	g b	-0.18721464
-1.4344509	m b	-0.22547728
-2.036304	i b	-0.18721464
-1.6519525	n b	-0.22149567
-1.9935862	s b	-0.18721464
-1.4042826	a b	-0.318368
-1.9559335	h b	-0.18721464
-1.6577351	c b	-0.18721464
-1.726187	z b	-0.18721464
-1.9852422	l b	-0.27859566
-2.1519985	t b	-0.18721464
-1.7594968	b b	-0.18721464
-1.6056315	( b	-0.18721464
-1.804356	. b	-0.18721464
-1.6268423	| b	-0.18721464
-1.5348271	" b	-0.18721464
-1.6892703	: b	-0.18721464
-1.0655339	; b	-0.18721464
-1.4904132	0 b	-0.18721464
-1.7058791	- b	-0.18721464
-0.34555924	á b	-0.18721464
-1.026387	ü b	-0.18721464
-1.3938576	x b	-0.18721464
-0.75648737	< b	-0.3489543
-1.8861846	' j	-0.23050606
-1.6964289	[ j	-0.18721464
-2.3414679	r j	-0.18721464
-2.3932314	o j	-0.18721464
-1.5950915	# j	-0.6034499
-1.9796728	i j	-0.23050606
-2.3038123	n j	-0.18721464
-2.486057	a j	-0.18721464
-2.3124642	l j	-0.18721464
-2.2476082	t j	-0.18721464
-1.8530833	b j	-0.24595179
-1.7531652	( j	-0.18721464
-1.3435818	. j	-0.6499843
-1.6282625	| j	-0.24595179
-1.9980016	' ë	-0.18721464
-2.4830182	e ë	-0.18721464
-1.4470673	r ë	-0.42105514
-1.7477797	# ë	-0.5643066
-1.8323308	d ë	-0.3489543
-1.9541521	g ë	-0.24595179
-1.882287	m ë	-0.27859566
-2.2219033	n ë	-0.18721464
-2.0909207	s ë	-0.23050606
-1.5562013	w ë	-0.22149567
-1.8201057	h ë	-0.24595179
-1.9526774	p ë	-0.18721464
-1.988203	z ë	-0.18721464
-1.382486	k ë	-0.4159011
-1.6060327	l ë	-0.4309682
-2.184737	t ë	-0.18721464
-1.715943	v ë	-0.27859566
-1.9460981	b ë	-0.24595179
-2.0991225	f ë	-0.18721464
-2.187566	' (	-0.18721464
-2.4912958	r (	-0.18721464
-1.5780151	# (	-0.35723442
-2.250109	n (	-0.27859566
-2.2819443	h (	-0.18721464
-1.9449002	= (	-0.18721464
-1.2876428	> (	-0.18721464
-1.9060539	' f	-0.18721464
-1.6051662	[ f	-0.18721464
-1.4941374	e f	-0.33475083
-1.9343877	u f	-0.18721464
-1.7073087	r f	-0.2656138
-1.5110298	o f	-0.23751181
-1.4840021	# f	-0.70834047
-1.8789458	d f	-0.18721464
-1.9277557	m f	-0.27859566
-1.7046716	i f	-0.26770794
-1.7790834	n f	-0.24595179
-2.2065678	s f	-0.18721464
-1.8304858	a f	-0.27781934
-1.8879964	ä f	-0.18721464
-1.8919104	p f	-0.18721464
-1.7899073	c f	-0.18721464
-1.9106464	z f	-0.18721464
-2.0166416	k f	-0.18721464
-1.7813711	l f	-0.18721464
-2.1977518	t f	-0.18721464
-1.2803206	ë f	-0.31942958
-1.6361084	( f	-0.18721464
-1.3523064	f f	-0.33124724
-1.7968667	| f	-0.18721464
-1.5643091	= f	-0.18721464
-1.5541689	" f	-0.23050606
-1.5694178	- f	-0.18721464
-1.7656674	' .	-0.18721464
-2.083468	e .	-0.18721464
-1.9356303	u .	-0.18721464
-1.5021265	r .	-0.31618065
-1.911064	o .	-0.24595179
-2.3794982	# .	-0.18721464
-1.3550748	d .	-0.24932466
-1.5577111	g .	-0.2768896
-1.7403452	m .	-0.3489543
-2.029937	i .	-0.24595179
-1.6062212	n .	-0.30731663
-1.5632335	s .	-0.29221007
-1.7745638	a .	-0.24932466
-1.6606016	w .	-0.18721464
-1.6782932	h .	-0.27859566
-1.9000782	p .	-0.18721464
-1.8224806	c .	-0.18721464
-1.2798796	z .	-0.27737632
-1.8830162	k .	-0.18721464
-1.8299773	l .	-0.18721464
-1.2763648	t .	-0.63467556
-1.6037875	v .	-0.18721464
-1.5455432	b .	-0.2768896
-1.7493192	ë .	-0.18721464
-1.525451	f .	-0.47389305
-1.1447482	. .	-0.4834079
-1.5107056	y .	-0.18721464
-0.93604475	) .	-0.7169311
-1.0840408	= .	-0.57080305
-1.3721727	" .	-0.3489543
-1.1761725	> .	-0.18721464
-1.237321	5 .	-0.18721464
-1.3646268	1 .	-0.18721464
-1.2449336	0 .	-0.18721464
-1.059873	2 .	-0.24595179
-1.0950083	3 .	-0.18721464
-1.2091271	4 .	-0.18721464
-0.8943639	6 .	-0.18721464
-0.84576946	7 .	-0.18721464
-1.0408181	8 .	-0.18721464
-1.3962661	9 .	-0.18721464
-1.3426416	x .	-0.18721464
-0.6250208	” .	-0.18721464
-2.3291454	e y	-0.24595179
-2.2550676	o y	-0.18721464
-2.780977	# y	-0.18721464
-2.0233555	g y	-0.18721464
-2.2530658	m y	-0.18721464
-2.3414543	n y	-0.18721464
-1.838686	s y	-0.2605982
-1.8903849	a y	-0.18721464
-2.0012157	h y	-0.18721464
-1.7563484	c y	-0.18721464
-2.163008	t y	-0.18721464
-0.35329163	ấ y	-0.18721464
-1.4813769	<s> |	-0.18721464
-2.3342595	e |	-0.18721464
-2.1080508	r |	-0.18721464
-1.6594062	] |	-0.18721464
-1.6734394	# |	-0.2772827
-2.077711	d |	-0.18721464
-1.646989	g |	-0.18721464
-2.0701067	n |	-0.18721464
-2.1648984	s |	-0.18721464
-2.063827	h |	-0.18721464
-2.0796766	k |	-0.18721464
-2.0769253	l |	-0.18721464
-1.800353	t |	-0.22547728
-2.100037	b |	-0.18721464
-1.8603274	| |	-0.18721464
-1.5192661	) |	-0.18721464
-1.7503902	: |	-0.18721464
-1.6692935	1 |	-0.18721464
-1.3183918	0 |	-0.18721464
-1.2793236	4 |	-0.18721464
-1.4416969	x |	-0.18721464
-1.9382966	' )	-0.18721464
-2.0639572	e )	-0.23050606
-2.1901531	r )	-0.18721464
-2.2494128	o )	-0.18721464
-1.6452225	] )	-0.18721464
-1.9027044	d )	-0.18721464
-1.9107058	g )	-0.18721464
-1.7955482	n )	-0.31618065
-1.7815726	s )	-0.39944318
-1.9607612	a )	-0.23050606
-2.0285554	h )	-0.18721464
-2.0650213	p )	-0.18721464
-1.9754264	c )	-0.18721464
-1.938133	z )	-0.18721464
-1.7839515	k )	-0.3489543
-1.9566014	l )	-0.22149567
-1.7860966	t )	-0.39861083
-1.8517063	. )	-0.27859566
-1.7616463	" )	-0.18721464
-1.2690566	4 )	-0.18721464
-1.2053612	} )	-0.18721464
-1.196687	! )	-0.18721464
-0.6398566	“ )	-0.18721464
-0.348392	₪ )	-0.18721464
-2.2788863	e =	-0.18721464
-2.2914412	u =	-0.18721464
-2.152559	r =	-0.18721464
-2.344878	o =	-0.18721464
-2.5604882	# =	-0.27859566
-1.8464012	d =	-0.18721464
-1.9728254	g =	-0.18721464
-2.1778357	m =	-0.18721464
-1.7122093	n =	-0.21142189
-2.4381664	a =	-0.18721464
-2.1158087	h =	-0.18721464
-2.0099678	z =	-0.18721464
-2.1198056	l =	-0.18721464
-2.2088046	t =	-0.18721464
-1.9413879	f =	-0.18721464
-1.9211413	) =	-0.18721464
-0.94290847	= =	-0.30571625
-1.7324126	' "	-0.18721464
-2.108552	u "	-0.27859566
-2.2744982	r "	-0.18721464
-1.7497575	# "	-0.27372503
-2.1158795	d "	-0.18721464
-2.1226525	g "	-0.18721464
-2.1642358	m "	-0.18721464
-2.2370956	n "	-0.18721464
-2.3291414	s "	-0.18721464
-2.4233086	a "	-0.18721464
-2.1022184	h "	-0.18721464
-2.037563	c "	-0.18721464
-2.1008635	t "	-0.24595179
-1.9341208	v "	-0.18721464
-1.896855	. "	-0.24595179
-1.2742734	= "	-0.18721464
-1.0939987	; "	-0.18721464
-1.5670784	0 "	-0.18721464
-1.9731263	' :	-0.18721464
-1.6449214	[ :	-0.18721464
-2.4536579	e :	-0.18721464
-2.2302814	r :	-0.18721464
-2.4258928	# :	-0.21142189
-1.8187021	d :	-0.3489543
-2.0840118	g :	-0.18721464
-2.3381252	i :	-0.18721464
-1.6941234	n :	-0.24595179
-2.073107	s :	-0.3489543
-2.3815615	a :	-0.18721464
-2.063827	h :	-0.18721464
-2.0979156	p :	-0.18721464
-1.9804579	l :	-0.30253315
-1.7093847	t :	-0.42301762
-2.0764718	f :	-0.18721464
-1.4300383	. :	-0.39861083
-1.647648	y :	-0.18721464
-1.2953455	) :	-0.47389305
-1.7862492	" :	-0.18721464
-1.5253778	: :	-0.18721464
-2.3473458	h ;	-0.18721464
-2.354312	p ;	-0.18721464
-2.640035	t ;	-0.18721464
-2.3220897	f ;	-0.18721464
-2.9636288	# >	-0.18721464
-2.303085	f >	-0.18721464
-1.6793888	" >	-0.18721464
-1.294761	> >	-0.18721464
-1.6927059	/ >	-0.18721464
-2.1681983	' 5	-0.18721464
-1.8768656	, 5	-0.18721464
-2.8758223	# 5	-0.18721464
-2.214064	. 5	-0.18721464
-1.3650469	5 5	-0.18721464
-1.5396379	1 5	-0.18721464
-1.5670477	2 5	-0.18721464
-1.3094134	9 5	-0.18721464
-2.0524836	' 1	-0.18721464
-1.688686	[ 1	-0.18721464
-2.5484607	e 1	-0.18721464
-2.3141985	# 1	-0.21559092
-2.3791163	s 1	-0.18721464
-1.7429516	( 1	-0.18721464
-2.11186	. 1	-0.18721464
-1.9346747	| 1	-0.18721464
-1.4987941	= 1	-0.24595179
-1.3363197	5 1	-0.18721464
-1.4985396	1 1	-0.18721464
-1.1874485	0 1	-0.18721464
-1.2701992	2 1	-0.18721464
-1.1639018	3 1	-0.18721464
-1.2853631	9 1	-0.18721464
-2.6049538	e 0	-0.18721464
-2.2040443	d 0	-0.18721464
-2.210627	b 0	-0.18721464
-1.8138797	: 0	-0.18721464
-0.9102872	5 0	-0.18721464
-1.3665056	1 0	-0.18721464
-1.3524339	0 0	-0.18721464
-0.6145632	2 0	-0.2605982
-1.0102777	3 0	-0.24595179
-1.3116664	4 0	-0.18721464
-1.1077931	8 0	-0.18721464
-1.5561533	9 0	-0.18721464
-1.9554704	e -	-0.18721464
-2.087398	r -	-0.18721464
-2.136419	o -	-0.18721464
-1.6498991	] -	-0.18721464
-2.593593	# -	-0.18721464
-2.0540104	d -	-0.18721464
-2.060038	g -	-0.18721464
-2.1019747	m -	-0.18721464
-2.3119662	i -	-0.18721464
-1.9595925	n -	-0.18721464
-1.9003814	s -	-0.18721464
-2.2287977	a -	-0.27859566
-2.0399973	h -	-0.18721464
-1.8096322	p -	-0.18721464
-1.9851847	c -	-0.18721464
-2.1776948	l -	-0.18721464
-1.8921555	v -	-0.18721464
-1.6691066	j -	-0.18721464
-1.7696934	" -	-0.18721464
-1.6530024	1 -	-0.18721464
-1.7733833	- -	-0.18721464
-1.4899235	2 -	-0.18721464
-1.1992133	! -	-0.18721464
-2.1147938	' 2	-0.18721464
-1.7205219	[ 2	-0.18721464
-2.5318732	# 2	-0.18721464
-2.1932895	l 2	-0.18721464
-1.785708	| 2	-0.18721464
-1.9623766	) 2	-0.18721464
-1.7614102	1 2	-0.18721464
-1.5504881	2 2	-0.18721464
-1.1728411	7 2	-0.18721464
-1.4171562	_ 2	-0.18721464
-0.35370243	+ 2	-0.18721464
-2.8028178	# 3	-0.18721464
-2.45299	t 3	-0.18721464
-1.785708	| 3	-0.27859566
-1.5185658	= 3	-0.18721464
-1.7614102	1 3	-0.18721464
-1.8996255	- 3	-0.18721464
-1.4453124	3 3	-0.18721464
-1.3154134	4 3	-0.18721464
-0.9426207	6 3	-0.18721464
-1.1101354	8 3	-0.18721464
-1.5624336	9 3	-0.18721464
-2.9636288	# 4	-0.18721464
-2.0145402	. 4	-0.27859566
-1.3964483	1 4	-0.23050606
-1.3386004	4 4	-0.18721464
-0.9106276	9 4	-0.18721464
-1.8072761	j 6	-0.18721464
-1.410495	1 6	-0.18721464
-1.4053966	1 7	-0.18721464
-1.346613	4 7	-0.18721464
-1.3274462	9 7	-0.18721464
-1.9874054	= 8	-0.18721464
-1.564996	1 8	-0.18721464
-1.5901574	2 8	-0.18721464
-1.6091391	9 8	-0.18721464
-1.7853316	( 9	-0.18721464
-2.1672907	. 9	-0.18721464
-1.6650401	= 9	-0.27859566
-1.142637	1 9	-0.18721464
-1.6147507	0 9	-0.18721464
-1.5504881	2 9	-0.18721464
-1.1747005	3 9	-0.27859566
-1.3154134	4 9	-0.18721464
-1.1728411	7 9	-0.18721464
-1.138996	9 9	-0.18721464
-1.3882431	/ 9	-0.18721464
-1.9174383	n ?	-0.47389305
-2.2567878	w ?	-0.18721464
-2.334227	p ?	-0.18721464
-2.508911	l ?	-0.18721464
-2.3905072	t ?	-0.27859566
-2.2750366	' {	-0.18721464
-1.884968	( {	-0.18721464
-0.83383775	{ {	-0.18721464
-2.74632	e }	-0.18721464
-2.517639	r }	-0.18721464
-2.4790983	n }	-0.18721464
-2.5779028	t }	-0.18721464
-1.7741821	y }	-0.18721464
-0.3829595	} }	-0.2768896
-2.187566	' q	-0.18721464
-2.7193284	e q	-0.18721464
-2.5827527	# q	-0.3489543
-2.3763652	i q	-0.27859566
-2.4529114	n q	-0.18721464
-2.1814368	c q	-0.18721464
-1.8322988	( q	-0.18721464
-2.4591784	i è	-0.27859566
-2.7173746	t è	-0.18721464
-2.3728638	f á	-0.18721464
-2.7407486	i ấ	-0.18721464
-1.9213113	r ü	-0.18721464
-2.2872307	m ü	-0.18721464
-2.3033957	s ü	-0.18721464
-1.8086354	w ü	-0.3489543
-2.225115	h ü	-0.18721464
-2.2457473	p ü	-0.18721464
-2.2262073	k ü	-0.18721464
-2.3890727	l ü	-0.18721464
-2.305409	t ü	-0.18721464
-1.7488397	j ü	-0.18721464
-2.0343382	e x	-0.24932466
-2.4451566	u x	-0.18721464
-2.4912958	r x	-0.18721464
-2.3219855	o x	-0.18721464
-2.5857637	i x	-0.18721464
-2.4117956	a x	-0.18721464
-2.2966459	p x	-0.18721464
-1.4532917	] <	-0.18721464
-1.5919747	, <	-0.27859566
-2.549947	s <	-0.18721464
-2.5498805	t <	-0.18721464
-2.2308457	. <	-0.18721464
-1.9922161	) <	-0.18721464
-1.8536247	: <	-0.18721464
-2.514508	e /	-0.18721464
-2.2914412	u /	-0.18721464
-2.2902975	r /	-0.18721464
-2.344878	o /	-0.18721464
-2.5604882	# /	-0.27859566
-2.1363366	g /	-0.18721464
-2.1778357	m /	-0.18721464
-2.2495859	i /	-0.18721464
-2.2528389	n /	-0.18721464
-2.345169	s /	-0.18721464
-2.106188	w /	-0.18721464
-2.1158087	h /	-0.18721464
-2.3390644	t /	-0.18721464
-1.777469	: /	-0.18721464
-1.7038324	1 /	-0.18721464
-0.9349431	< /	-0.27859566
-1.5963198	/ /	-0.18721464
-2.4476507	o _	-0.18721464
-1.7103388	] _	-0.18721464
-2.4561856	s _	-0.18721464
-2.1749923	w _	-0.18721464
-2.1234593	c _	-0.18721464
-2.45299	t _	-0.18721464
-2.2037864	f _	-0.18721464
-1.7277857	y _	-0.18721464
-1.7614102	1 _	-0.18721464
-1.2349738	} _	-0.18721464
-0.98145056	_ _	-0.24595179
-2.5327752	o &	-0.18721464
-2.903165	# &	-0.18721464
-2.5498805	t &	-0.18721464
-2.0438073	v &	-0.18721464
-2.2308457	. &	-0.18721464
-0.8288935	; &	-0.27859566
-0.8288935	8 &	-0.18721464
-1.9060012	( †	-0.18721464
-2.6203299	n ç	-0.18721464
-3.0937672	# â	-0.18721464
-2.250109	n !	-0.24595179
-2.2819443	h !	-0.18721464
-2.2765465	k !	-0.18721464
-2.3544438	t !	-0.27859566
-1.8322988	( !	-0.18721464
-1.2390505	< !	-0.18721464
-0.9523956	! !	-0.27859566
-2.6078708	r ö	-0.18721464
-2.4338102	m ö	-0.18721464
-2.5679498	l ö	-0.18721464
-2.4719691	m ô	-0.18721464
-3.0789037	# „	-0.18721464
-1.9009546	( „	-0.18721464
-1.7647688	] “	-0.18721464
-2.6851592	o ß	-0.18721464
-3.0937672	# с	-0.18721464
-0.35761076	с т	-0.18721464
-0.35761076	т и	-0.18721464
-0.35761076	и в	-0.18721464
-0.35761076	в е	-0.18721464
-0.35761076	е н	-0.18721464
-2.4096422	h ø	-0.18721464
-2.4205992	d ´	-0.18721464
-2.3030849	' מ	-0.18721464
-2.0201862	= מ	-0.18721464
-0.3596709	מ ד	-0.27859566
-3.0789037	# י	-0.18721464
-0.35746753	ד י	-0.18721464
-0.6580794	י נ	-0.18721464
-0.35761076	נ ת	-0.18721464
-0.6580794	י ש	-0.18721464
-0.35761076	ש ר	-0.18721464
-0.35761076	ר א	-0.18721464
-0.35761076	א ל	-0.18721464
-2.7626333	a ′	-0.18721464
-0.35746753	ā ′	-0.18721464
-2.3030849	' د	-0.18721464
-3.0789037	# د	-0.18721464
-0.3596709	د و	-0.27859566
-0.35746753	و ل	-0.18721464
-0.35746753	ي ل	-0.18721464
-0.6580794	ل ة	-0.18721464
-3.0937672	# إ	-0.18721464
-0.35761076	إ س	-0.18721464
-0.35761076	س ر	-0.18721464
-0.35761076	ر ا	-0.18721464
-0.35761076	ا ئ	-0.18721464
-0.35761076	ئ ي	-0.18721464
-2.6598969	r ā	-0.18721464
-0.6580794	′ ī	-0.18721464
-1.9060012	( ₪	-0.18721464
-2.025767	= +	-0.18721464
-2.3030849	' ”	-0.18721464
-2.710164	s ”	-0.18721464
-3.0937672	# *	-0.18721464
-2.4205992	d ’	-0.18721464

\3-grams:
-2.2636964	' ' </s>	0
-2.0241587	h e </s>	0
-1.2984949	n , </s>	0
-0.88080275	k , </s>	0
-1.6168449	a d </s>	0
-1.8281953	u m </s>	0
-1.8934424	n s </s>	0
-2.2133877	c h </s>	0
-2.0858736	i t </s>	0
-1.9650209	n t </s>	0
-1.3058102	n . </s>	0
-1.6331692	t . </s>	0
-0.44027734	ấ y </s>	0
-1.112827	r | </s>	0
-0.73893434	c ) </s>	0
-0.19481799	е н </s>	0
-0.07185509	<s> ' '	-0.5429473
-0.61081433	' ' '	-0.30003366
-0.07185509	e ' '	-0.22511381
-0.1928818	r ' '	-0.12964275
-0.1928818	o ' '	-0.2396882
-0.2538323	] ' '	-0.12964275
-0.016192228	# ' '	-0.3730941
-0.6118861	d ' '	-0.18118921
-0.1928818	g ' '	-0.12964275
-0.08777143	m ' '	-0.22036237
-0.1928818	i ' '	-0.12964272
-0.08777143	n ' '	-0.1879708
-0.07185509	s ' '	-0.3153279
-0.1928818	a ' '	-0.12964272
-0.2538323	w ' '	-0.12964272
-0.1928818	h ' '	-0.12964272
-0.2538323	p ' '	-0.12964272
-0.15800247	k ' '	-0.19982685
-0.11279623	l ' '	-0.18118921
-0.08777143	t ' '	-0.2726545
-0.2538323	( ' '	-0.12964272
-0.2538323	. ' '	-0.12964272
-0.24179411	y ' '	-0.19982685
-0.1928818	) ' '	-0.2396882
-0.2538323	= ' '	-0.12964272
-0.2538323	" ' '	-0.12964272
-0.1928818	: ' '	-0.19982685
-0.2538323	> ' '	-0.12964272
-0.2538323	3 ' '	-0.12964272
-0.2538323	7 ' '	-0.12964272
-0.2538323	} ' '	-0.12964272
-0.2538323	„ ' '	-0.12964272
-1.9065427	u e '	-0.12964272
-2.0376704	d e '	-0.12964272
-1.8642812	m e '	-0.12964272
-1.7244389	i e '	-0.2396882
-1.9018104	n e '	-0.12964272
-2.1059303	t e '	-0.12964272
-2.182552	e r '	-0.2396882
-2.0326035	a r '	-0.12964272
-1.6500776	s o '	-0.12964272
-1.7700591	t o '	-0.12964272
-0.6254014	] ] '	-0.6098941
-1.363795	' # '	-0.12964272
-1.6481547	e # '	-0.36685604
-1.623609	r # '	-0.12964272
-1.4294808	o # '	-0.12964272
-1.5724274	, # '	-0.36685604
-1.4550049	m # '	-0.2419173
-1.7174156	n # '	-0.12964272
-1.6238124	s # '	-0.2396882
-1.4638077	h # '	-0.12964272
-1.223272	p # '	-0.12964272
-1.4877346	l # '	-0.2396882
-1.6106112	t # '	-0.46376607
-1.1203904	v # '	-0.12964272
-1.4883003	f # '	-0.12964272
-1.423392	. # '	-0.46376607
-0.6971109	| # '	-0.12964272
-1.0826972	) # '	-0.46376607
-1.0750622	= # '	-0.12964272
-1.426799	" # '	-0.12964272
-0.6743824	: # '	-0.7190386
-0.42486557	; # '	-0.12964272
-0.8462073	5 # '	-0.12964272
-0.6971109	2 # '	-0.12964272
-0.42486557	9 # '	-0.12964272
-0.6971109	_ # '	-0.12964272
-0.43528423	<s> d '	-0.12964272
-0.7909596	# d '	-0.42775184
-1.578511	n d '	-0.12964272
-1.0674764	| d '	-0.12964275
-1.5424674	r g '	-0.12964272
-1.4018246	n g '	-0.2419173
-1.3369823	u m '	-0.2396882
-0.43204904	] m '	-0.12964272
-1.4566605	i m '	-0.12964272
-1.6114559	a m '	-0.12964272
-1.1572518	y m '	-0.12964272
-1.9813203	e i '	-0.12964272
-1.3603542	c i '	-0.12964272
-1.4053506	e n '	-0.667886
-1.8403332	u n '	-0.12964272
-1.932364	i n '	-0.12964272
-0.4377765	w n '	-0.12964272
-1.518445	ë n '	-0.12964272
-1.4399103	e s '	-0.36685604
-1.5833321	r s '	-0.12964272
-1.90728	i s '	-0.12964272
-1.3973398	n s '	-0.2396882
-0.43843216	c s '	-0.12964272
-0.8829604	y s '	-0.12964272
-1.805546	w a '	-0.12964272
-1.8091375	t a '	-0.12964272
-1.1841435	o w '	-0.12964272
-1.8104275	c h '	-0.2396882
-1.5868163	t h '	-0.12964272
-1.5262958	p p '	-0.12964272
-1.6083179	# z '	-0.2396882
-1.6389499	e k '	-0.12964272
-1.1576219	o k '	-0.12964272
-1.5277426	n k '	-0.12964272
-1.7959521	e l '	-0.2396882
-1.9440072	a l '	-0.12964272
-1.8038044	l l '	-0.12964272
-0.72905684	ī l '	-0.12964272
-1.5771389	u t '	-0.12964272
-1.889391	i t '	-0.12964272
-1.781673	n t '	-0.12964272
-2.0537643	s t '	-0.12964272
-1.612636	k t '	-0.12964272
-1.3079035	# ( '	-0.36685604
-1.4802861	. . '	-0.12964272
-0.7765892	e y '	-0.12964272
-0.75799084	g y '	-0.12964272
-0.8931508	a y '	-0.12964272
-0.8931508	t y '	-0.12964272
-0.7200416	] ) '	-0.12964272
-1.0741771	l ) '	-0.12964272
-1.2031324	n = '	-0.12964272
-1.6160095	# " '	-0.12964272
-0.7530334	n : '	-0.2396882
-0.7669267	. : '	-0.2396882
-0.6661808	" > '	-0.12964272
-0.42077023	- 3 '	-0.12964272
-0.7788961	1 7 '	-0.12964272
-0.9809525	} } '	-0.12964272
-0.7057585	# „ '	-0.12964272
-1.9412837	' ' [	-0.2396882
-1.7538675	d ' [	-0.12964272
-0.24309511	' [ [	-0.12964275
-0.24309511	( [ [	-0.12964275
-0.19690917	= [ [	-0.12964272
-0.32700676	- [ [	-0.12964272
-0.24309511	„ [ [	-0.12964272
-0.32700676	* [ [	-0.12964272
-0.32700676	’ [ [	-0.12964272
-0.7148301	' ( [	-0.12964272
-1.5931836	# ( [	-0.2396882
-0.43247747	o = [	-0.12964272
-0.8139727	n = [	-0.2396882
-0.711469	f = [	-0.12964272
-0.8216483	f > [	-0.12964272
-0.9049778	] - [	-0.12964272
-0.58354974	# „ [	-0.12964272
-0.3059683	( „ [	-0.12964272
-0.19555958	# * [	-0.12964272
-0.19555958	d ’ [	-0.12964272
-1.9776249	' ' e	-0.12964272
-1.5874226	d ' e	-0.12964275
-0.4359763	z ' e	-0.12964272
-1.5050792	[ [ e	-0.12964275
-1.1771815	' e e	-0.12964272
-1.2435167	r e e	-0.19227554
-1.4272841	# e e	-0.30886412
-1.0317426	d e e	-0.3065144
-1.6461341	g e e	-0.19982685
-1.409171	m e e	-0.18118921
-1.2969104	n e e	-0.12964272
-1.6251987	s e e	-0.12964272
-1.2737178	w e e	-0.17037885
-0.8831308	h e e	-0.19584498
-1.4946256	p e e	-0.12964272
-1.1549752	z e e	-0.2419173
-1.1765349	k e e	-0.19982685
-1.2045764	l e e	-0.16331857
-1.8176926	t e e	-0.12964275
-1.3804848	b e e	-0.12964272
-0.7890048	j e e	-0.18118921
-1.5108476	f e e	-0.12964272
-0.5986961	' u e	-0.12964272
-1.0880733	e u e	-0.12964272
-0.85705113	r u e	-0.18118921
-0.8171888	o u e	-0.30886412
-0.51806927	# u e	-0.3331337
-0.4530934	d u e	-0.2726545
-0.72600293	g u e	-0.12964275
-0.671171	n u e	-0.21101269
-0.8757557	s u e	-0.12964272
-0.78889894	a u e	-0.3079227
-0.62624323	w u e	-0.2396882
-0.62463385	h u e	-0.3079227
-0.6907974	p u e	-0.12964272
-0.56070286	z u e	-0.2419173
-1.1487732	k u e	-0.12964272
-0.86837316	l u e	-0.12964275
-1.0413322	t u e	-0.12964275
-0.92612404	v u e	-0.12964272
-0.6424854	b u e	-0.3079227
-0.41704088	f u e	-0.2396882
-0.30381414	q u e	-0.21533518
-0.60606647	' r e	-0.19982685
-1.1140925	e r e	-0.42123243
-0.9273515	u r e	-0.16331857
-0.60959953	r r e	-0.12964272
-0.86453325	o r e	-0.12964272
-0.5652423	# r e	-0.31068486
-0.88535124	d r e	-0.12964275
-1.126183	g r e	-0.19982685
-0.7155524	i r e	-0.16331857
-1.0128454	a r e	-0.16331857
-0.6698245	ä r e	-0.19347326
-0.70528996	h r e	-0.19982685
-0.622423	p r e	-0.18216191
-0.3778546	l r e	-0.12964272
-0.80101967	t r e	-0.19227554
-0.6710471	b r e	-0.3079227
-1.1403178	f r e	-0.12964272
-0.3778546	. r e	-0.12964272
-0.6128985	y r e	-0.12964272
-0.75257456	| r e	-0.12964272
-0.2763874	è r e	-0.12964275
-0.2763874	< r e	-0.2396882
-0.3778546	/ r e	-0.12964272
-0.3778546	„ r e	-0.12964272
-0.86894906	g o e	-0.21101269
-1.5228835	n o e	-0.12964272
-1.2035233	s o e	-0.19982685
-1.328275	p o e	-0.12964272
-1.5249267	l o e	-0.12964272
-1.5545251	t o e	-0.12964272
-1.0343046	j o e	-0.2396882
-1.3075303	] ] e	-0.2396882
-1.3704908	' # e	-0.12964272
-1.4094844	e # e	-0.22742912
-1.4695609	u # e	-0.12964272
-1.4881384	r # e	-0.16331857
-1.2035582	o # e	-0.2396882
-1.2354115	, # e	-0.2742488
-1.5349479	d # e	-0.12964272
-1.5365182	g # e	-0.12964272
-1.5860817	m # e	-0.12964272
-1.4663863	i # e	-0.15834488
-1.1898643	n # e	-0.20857318
-1.3807485	s # e	-0.19982685
-1.2941693	h # e	-0.15180069
-1.4752232	k # e	-0.12964275
-1.3648932	l # e	-0.19347326
-0.8482297	é # e	-0.12964272
-1.2378837	t # e	-0.3005561
-1.49551	f # e	-0.12964272
-1.2808313	. # e	-0.29577953
-1.3383567	) # e	-0.12964275
-1.0284303	" # e	-0.12964272
-1.0806564	: # e	-0.18118921
-1.2580304	? # e	-0.12964272
-0.42563102	“ # e	-0.12964272
-0.86883146	' d e	-0.12964272
-0.577389	e d e	-0.19493128
-0.76400393	u d e	-0.12964272
-0.66047525	r d e	-0.1879708
-0.28945252	o d e	-0.18118921
-0.86692727	# d e	-0.3833375
-0.5643544	d d e	-0.17515025
-0.44831336	i d e	-0.21807007
-0.59772676	n d e	-0.19982685
-0.9087405	s d e	-0.12964272
-0.76030296	a d e	-0.12964275
-0.35624185	p d e	-0.12964272
-0.35624185	z d e	-0.12964272
-0.80216396	l d e	-0.12964272
-0.2624012	t d e	-0.12964272
-0.8144114	| d e	-0.12964272
-0.35624185	{ d e	-0.12964272
-0.4971436	ü d e	-0.12964272
-0.5915793	' g e	-0.16331857
-0.63989174	e g e	-0.2851079
-0.5915793	u g e	-0.16331857
-0.5960523	r g e	-0.20118123
-0.46099994	o g e	-0.18118921
-0.6596776	# g e	-0.56900734
-0.5412056	d g e	-0.12964272
-0.24821892	g g e	-0.12964272
-0.71995574	i g e	-0.19982685
-0.7313261	n g e	-0.27799624
-0.5796767	s g e	-0.17037885
-0.47358546	a g e	-0.20969816
-0.33470103	ä g e	-0.12964272
-0.6988489	p g e	-0.12964272
-0.1758956	l g e	-0.16331857
-0.54541993	t g e	-0.12964275
-0.6397126	( g e	-0.12964272
-0.5412056	f g e	-0.12964275
-0.6397126	| g e	-0.12964272
-0.33470103	" g e	-0.12964272
-0.33470103	- g e	-0.12964272
-0.33470103	/ g e	-0.12964272
-0.33470103	â g e	-0.12964272
-0.8316268	e m e	-0.3153279
-0.8844112	u m e	-0.19347326
-0.59366894	r m e	-0.12964272
-0.7637092	o m e	-0.18216191
-0.90412533	# m e	-0.35039473
-0.65723544	m m e	-0.30886412
-0.7030776	i m e	-0.16331857
-1.0397488	s m e	-0.12964272
-0.893623	a m e	-0.18118921
-0.6340249	ä m e	-0.12964272
-0.6340249	h m e	-0.12964272
-0.7227368	l m e	-0.2396882
-0.6340249	/ m e	-0.12964272
-0.8872901	e i e	-0.2641754
-0.72356164	r i e	-0.19754702
-0.85360676	o i e	-0.12964272
-1.284892	# i e	-0.19982685
-0.98431855	d i e	-0.12964272
-0.71967703	g i e	-0.17037885
-1.0388784	m i e	-0.19982685
-0.7316601	n i e	-0.21101269
-1.3004767	s i e	-0.12964272
-0.7593335	w i e	-0.21533518
-1.2679403	ä i e	-0.12964272
-0.91914946	h i e	-0.18907906
-0.3732705	p i e	-0.22036237
-1.0603952	c i e	-0.12964272
-0.5827196	z i e	-0.21101269
-0.71573746	k i e	-0.19982685
-0.8057488	l i e	-0.21267009
-0.5292486	é i e	-0.6827643
-1.1431348	t i e	-0.19982685
-1.0488675	v i e	-0.12964272
-0.767576	b i e	-0.36685604
-0.7714247	x i e	-0.12964272
-0.4043579	[ n e	-0.12964272
-1.3204904	e n e	-0.19267444
-1.5310941	u n e	-0.12964275
-0.80670655	r n e	-0.12964272
-1.0354946	o n e	-0.19347326
-0.9607264	# n e	-0.27626634
-0.80094427	g n e	-0.12964272
-0.8697053	i n e	-0.19267444
-0.7926721	n n e	-0.3642235
-1.2115607	a n e	-0.22036237
-0.9870592	ä n e	-0.12964272
-0.8811116	h n e	-0.12964272
-0.6594834	t n e	-0.12964272
-0.6594834	/ n e	-0.12964272
-1.0293614	e s e	-0.22316527
-1.0635731	u s e	-0.18118921
-1.1344304	r s e	-0.12964272
-1.3268561	o s e	-0.12964272
-0.8607935	# s e	-0.49924392
-1.0263394	i s e	-0.19584498
-1.3775457	n s e	-0.12964275
-0.7840062	s s e	-0.34601057
-1.4424548	a s e	-0.12964272
-0.9504498	h s e	-0.12964272
-1.1453986	l s e	-0.12964272
-1.2173499	t s e	-0.12964275
-1.2661515	ë s e	-0.12964272
-0.9504498	( s e	-0.12964272
-0.9629949	| s e	-0.12964272
-0.79920995	" s e	-0.12964272
-0.79920995	- s e	-0.12964272
-1.147041	e a e	-0.12964272
-1.4360766	r a e	-0.12964275
-2.1230507	# a e	-0.12964272
-1.3936356	m a e	-0.2419173
-1.8069302	h a e	-0.12964272
-1.7002658	b a e	-0.12964272
-0.73530567	' w e	-0.12964272
-0.40235892	e w e	-0.18587282
-0.7408113	u w e	-0.12964272
-0.5759305	r w e	-0.12964275
-0.7939327	# w e	-0.39235976
-0.3247197	m w e	-0.12964272
-0.54332834	i w e	-0.12964272
-0.3247197	n w e	-0.12964272
-0.4640565	s w e	-0.12964275
-0.520555	a w e	-0.12964275
-0.61979645	w w e	-0.12964272
-0.76122004	h w e	-0.12964272
-0.6761024	z w e	-0.12964272
-0.29353887	l w e	-0.19982685
-0.51811826	t w e	-0.12964272
-0.61979645	( w e	-0.12964272
-0.6761024	- w e	-0.12964272
-0.3247197	4 w e	-0.12964272
-0.3247197	6 w e	-0.12964272
-0.33213562	' ä e	-0.12964272
-1.0389421	r ä e	-0.12964272
-0.5288567	# ä e	-0.2396882
-0.75315666	d ä e	-0.12964272
-0.5370857	g ä e	-0.12964272
-0.75315666	m ä e	-0.12964272
-0.52583236	w ä e	-0.2419173
-0.5370857	p ä e	-0.12964272
-0.8821311	l ä e	-0.12964272
-0.7321539	t ä e	-0.12964272
-0.6627391	b ä e	-0.12964272
-0.541889	f ä e	-0.12964272
-0.6309182	' h e	-0.12964272
-0.69069415	[ h e	-0.12964272
-0.7456088	e h e	-0.12964272
-0.8371894	r h e	-0.12964272
-0.69069415	o h e	-0.12964272
-1.0136626	# h e	-0.24102426
-0.35921186	i h e	-0.12964272
-0.69069415	n h e	-0.12964272
-0.7913663	s h e	-0.12964272
-0.7478314	p h e	-0.12964275
-0.7645036	c h e	-0.37721425
-0.40698138	z h e	-0.12964272
-0.35921186	k h e	-0.12964272
-0.58134586	l h e	-0.12964272
-0.5844122	t h e	-0.20618345
-0.35921186	= h e	-0.12964272
-0.35921186	/ h e	-0.12964272
-1.0651963	e p e	-0.12964272
-0.828958	r p e	-0.12964272
-0.8496081	o p e	-0.16331857
-0.8939949	# p e	-0.27512094
-0.98091614	m p e	-0.12964272
-0.9241483	i p e	-0.12964272
-1.2646854	s p e	-0.12964272
-0.51783943	p p e	-0.19584498
-0.53505766	l p e	-0.12964272
-0.6274304	j p e	-0.12964272
-0.3862535	: p e	-0.12964272
-0.6274304	x p e	-0.12964272
-0.39493412	[ c e	-0.12964272
-1.4701736	e c e	-0.12964272
-1.4507203	# c e	-0.12964272
-0.6002394	n c e	-0.17037885
-1.1490123	a c e	-0.12964272
-0.64267063	b c e	-0.12964272
-0.39493412	" c e	-0.12964272
-0.64267063	- c e	-0.12964272
-0.57539976	e z e	-0.19982685
-0.5881506	r z e	-0.19982685
-0.39197743	o z e	-0.18118921
-0.5639299	# z e	-0.39698207
-0.26170492	m z e	-0.12964272
-0.90538836	i z e	-0.12964272
-0.4348012	n z e	-0.20618345
-0.81158763	s z e	-0.12964272
-0.9109488	a z e	-0.12964272
-0.3551757	p z e	-0.12964272
-0.26170492	k z e	-0.12964272
-0.619521	t z e	-0.19584498
-1.0467871	e k e	-0.12964272
-1.0327259	r k e	-0.12964272
-0.89038575	o k e	-0.12964272
-0.85085547	# k e	-0.45807242
-0.60172856	g k e	-0.12964272
-0.6328132	i k e	-0.2641754
-0.8063598	n k e	-0.18118921
-0.8382326	s k e	-0.12964272
-0.6680845	a k e	-0.18118921
-0.37131825	h k e	-0.12964272
-0.6294231	c k e	-0.24485481
-0.60172856	k k e	-0.12964272
-0.41878173	l k e	-0.12964272
-0.73915124	- k e	-0.12964272
-0.9285088	' l e	-0.12964272
-0.7505211	e l e	-0.31063566
-0.81790364	u l e	-0.12964275
-0.7359844	r l e	-0.12964272
-1.006373	o l e	-0.17037885
-0.84549975	# l e	-0.33826897
-0.23804303	d l e	-0.36685604
-0.40531713	g l e	-0.18118921
-1.0672095	i l e	-0.12964275
-0.6491285	n l e	-0.2396882
-0.4091367	s l e	-0.12964272
-0.740898	a l e	-0.2180575
-0.8991215	h l e	-0.12964272
-0.9476342	p l e	-0.12964272
-0.37027285	c l e	-0.12964272
-0.37027285	z l e	-0.12964272
-0.6501213	k l e	-0.21101269
-0.7969658	l l e	-0.20280243
-0.25409746	t l e	-0.39759323
-0.5576324	b l e	-0.19347326
-0.8871579	( l e	-0.12964272
-0.271509	y l e	-0.12964272
-0.6585512	| l e	-0.12964272
-0.32555363	- l e	-0.19982685
-1.3005897	s é e	-0.12964272
-0.782087	' t e	-0.12964272
-0.9130377	e t e	-0.19982685
-1.261671	u t e	-0.12964272
-1.1382868	r t e	-0.15834488
-1.0836167	o t e	-0.12964272
-0.7430214	# t e	-0.18177257
-0.6986731	g t e	-0.12964275
-0.74489933	i t e	-0.3172724
-0.91689396	n t e	-0.2180575
-0.70715046	s t e	-0.359281
-0.81084526	a t e	-0.24699752
-1.1869321	h t e	-0.12964272
-0.7950242	p t e	-0.12964275
-0.782087	z t e	-0.12964272
-0.956559	k t e	-0.19347326
-1.2925872	l t e	-0.12964275
-0.72021174	t t e	-0.22929032
-1.1032636	f t e	-0.12964272
-0.7985036	| t e	-0.12964272
-0.782087	x t e	-0.12964272
-0.551098	' v e	-0.2396882
-0.6053601	e v e	-0.12964272
-0.47021618	u v e	-0.12964272
-0.60010546	r v e	-0.12964272
-0.47021618	o v e	-0.12964272
-0.5060977	# v e	-0.8394016
-0.63713354	i v e	-0.18118921
-0.21750359	n v e	-0.12964272
-0.33861452	s v e	-0.2396882
-0.62780994	a v e	-0.12964272
-0.47021618	l v e	-0.12964272
-0.60010546	t v e	-0.12964272
-0.552361	| v e	-0.12964272
-0.47021618	" v e	-0.12964272
-0.47021618	: v e	-0.12964272
-0.28923017	- v e	-0.12964272
-0.74406743	' b e	-0.12964275
-0.5833294	[ b e	-0.12964272
-0.8302157	e b e	-0.12964275
-0.44485968	u b e	-0.18118921
-0.6644463	r b e	-0.12964272
-0.84411454	o b e	-0.2396882
-0.63878834	# b e	-0.4384004
-0.7354258	m b e	-0.2396882
-0.57057405	n b e	-0.12964272
-0.760775	s b e	-0.12964272
-0.4918303	a b e	-0.19584498
-0.69324726	| b e	-0.12964272
-0.69324726	" b e	-0.12964272
-0.36040008	: b e	-0.12964272
-0.36040008	- b e	-0.12964272
-0.69324726	ü b e	-0.12964272
-0.65414613	' j e	-0.12964272
-0.3023739	[ j e	-0.12964272
-0.3023739	o j e	-0.12964272
-0.82211435	# j e	-0.17037885
-0.65414613	i j e	-0.12964272
-0.3023739	l j e	-0.12964272
-0.35147402	b j e	-0.19982685
-0.3023739	( j e	-0.12964272
-1.2167505	# ( e	-0.12964272
-0.30036598	n ( e	-0.2396882
-0.41583762	h ( e	-0.12964272
-0.6181766	[ f e	-0.12964272
-0.6032575	e f e	-0.18907906
-0.98002434	u f e	-0.12964272
-1.0972185	r f e	-0.12964275
-0.86164415	o f e	-0.12964272
-0.6233534	# f e	-0.4845628
-0.6181766	d f e	-0.12964272
-1.0472829	i f e	-0.12964272
-0.666947	n f e	-0.12964275
-0.85543567	a f e	-0.19982685
-0.86698794	l f e	-0.12964272
-0.5811584	f f e	-0.18216191
-1.230539	w . e	-0.12964272
-0.6907753	o y e	-0.12964272
-1.0054533	a y e	-0.12964272
-1.1707805	n | e	-0.12964272
-0.43456417	k | e	-0.12964272
-1.3156219	# " e	-0.12964272
-1.1457297	# : e	-0.12964272
-0.85565066	: : e	-0.12964272
-0.41229603	. 5 e	-0.12964272
-0.7439381	u x e	-0.12964272
-0.6221608	o x e	-0.12964272
-0.7439381	a x e	-0.12964272
-0.18984498	o ß e	-0.12964272
-0.48364288	d ´ e	-0.12964272
-0.29803422	a ′ e	-0.12964272
-2.0753722	' ' u	-0.12964272
-1.6656964	d ' u	-0.12964272
-1.5332336	[ [ u	-0.12964272
-0.9320461	' e u	-0.2396882
-0.8876412	[ e u	-0.12964272
-2.0189424	r e u	-0.12964272
-1.1443567	# e u	-0.5120427
-1.9546607	i e u	-0.12964272
-1.8425775	n e u	-0.12964272
-2.0466974	t e u	-0.12964272
-0.72609216	| e u	-0.12964272
-1.7723254	r u u	-0.12964272
-1.6221195	k u u	-0.12964272
-1.6473397	l u u	-0.12964272
-1.3678012	e r u	-0.23225096
-1.5511189	o r u	-0.12964272
-1.3670559	# r u	-0.12964272
-0.78929627	d r u	-0.18216191
-1.2472377	g r u	-0.12964272
-1.3899984	i r u	-0.12964272
-1.5771428	a r u	-0.12964272
-1.3275412	ä r u	-0.12964272
-0.9587529	h r u	-0.2396882
-1.2134396	k r u	-0.12964272
-0.9647764	t r u	-0.12964275
-1.1688242	b r u	-0.12964275
-1.0668147	f r u	-0.19982685
-0.9152063	r o u	-0.20945448
-1.0703179	# o u	-0.36685604
-1.0889089	d o u	-0.2396882
-1.1810724	g o u	-0.12964272
-0.93216807	m o u	-0.2419173
-0.75407505	i o u	-0.2419173
-0.9673445	n o u	-0.19982685
-0.6510679	s o u	-0.12964272
-0.53632927	w o u	-0.174259
-1.0682652	h o u	-0.12964272
-0.9538241	c o u	-0.12964275
-0.43894145	z o u	-0.19584498
-1.1157136	l o u	-0.12964272
-1.2977656	t o u	-0.12964272
-1.085499	b o u	-0.12964272
-1.20866	j o u	-0.12964272
-0.8497411	f o u	-0.18118921
-1.4972945	' # u	-0.12964272
-2.205122	e # u	-0.12964272
-1.6103135	u # u	-0.12964272
-1.6056992	r # u	-0.12964275
-2.1110373	, # u	-0.12964272
-1.6973163	g # u	-0.12964272
-1.904987	m # u	-0.12964272
-1.5726837	i # u	-0.12964272
-1.5816468	n # u	-0.17037885
-1.4451998	s # u	-0.3079227
-1.6281855	h # u	-0.12964272
-1.3298808	z # u	-0.12964272
-1.4468908	l # u	-0.19982685
-1.6697122	t # u	-0.17037885
-1.3914791	r d u	-0.12964272
-0.96274716	o d u	-0.12964272
-1.0399891	# d u	-0.5549824
-1.4717228	n d u	-0.12964272
-1.0229181	| d u	-0.12964272
-0.42359915	- d u	-0.12964272
-1.5728198	e g u	-0.2396882
-1.4613186	r g u	-0.12964272
-1.0699412	# g u	-0.42186606
-1.5314432	n g u	-0.12964272
-1.5272079	e m u	-0.2396882
-1.5906531	# m u	-0.19982685
-1.222077	m m u	-0.2396882
-1.2471743	s m u	-0.12964272
-1.6145478	a m u	-0.12964272
-1.5082949	d i u	-0.12964272
-1.6863755	s i u	-0.12964272
-1.2201674	a i u	-0.12964272
-1.8764774	l i u	-0.12964272
-1.9409055	é i u	-0.12964272
-1.861479	e n u	-0.12964272
-1.619889	o n u	-0.12964272
-0.9018644	# n u	-0.2641754
-0.68766654	d n u	-0.12964272
-1.5695972	i n u	-0.12964272
-1.2392216	n n u	-0.21101269
-0.68766654	s n u	-0.12964272
-0.92912805	h n u	-0.12964272
-0.41979426	f n u	-0.12964272
-0.68766654	- n u	-0.12964272
-1.6090099	e s u	-0.12964275
-1.5861536	r s u	-0.12964272
-1.4799659	# s u	-0.174259
-1.6626029	i s u	-0.12964272
-1.0756315	( s u	-0.12964272
-0.883693	" s u	-0.12964272
-1.1257318	' a u	-0.12964272
-1.0643846	e a u	-0.12964272
-1.01009	r a u	-0.28198117
-1.062128	# a u	-0.42028385
-0.8968178	d a u	-0.22036237
-1.6444794	m a u	-0.12964272
-1.3416109	n a u	-0.12964272
-1.4152541	h a u	-0.19982685
-1.1529907	c a u	-0.12964272
-1.1682622	l a u	-0.12964272
-1.4602323	t a u	-0.12964272
-1.3080851	b a u	-0.12964275
-0.6672808	( a u	-0.2396882
-0.99678856	' w u	-0.12964272
-1.3822246	e w u	-0.12964272
-1.0381472	u w u	-0.12964272
-1.1096094	# w u	-0.39645362
-1.1864312	i w u	-0.12964272
-0.63345134	a w u	-0.2419173
-1.1457283	e h u	-0.12964272
-1.0154204	r h u	-0.12964272
-0.6401503	# h u	-0.64318657
-1.2737632	p h u	-0.12964272
-1.6066972	c h u	-0.12964272
-0.7628351	t h u	-0.12964272
-0.671127	b h u	-0.12964272
-0.41079023	: h u	-0.12964272
-0.9815403	u p u	-0.12964272
-1.5334386	o p u	-0.12964272
-0.9362671	# p u	-0.37966168
-1.5441691	s p u	-0.12964272
-0.42934817	| p u	-0.12964272
-1.3344526	o c u	-0.12964272
-1.5991186	# c u	-0.12964272
-1.5416808	i c u	-0.12964272
-1.6866353	s c u	-0.12964272
-0.6900405	c c u	-0.12964272
-1.1692108	e z u	-0.12964272
-0.88163584	r z u	-0.12964272
-1.4542198	# z u	-0.12964275
-1.0010805	s z u	-0.12964272
-1.3984686	t z u	-0.12964272
-1.2836199	e k u	-0.12964272
-0.9366978	r k u	-0.12964272
-0.9521643	o k u	-0.12964272
-0.9452866	# k u	-0.41931468
-0.9180735	i k u	-0.12964275
-0.8964886	s k u	-0.12964272
-1.0174183	a k u	-0.12964272
-0.39033327	ä k u	-0.12964272
-1.2455218	c k u	-0.12964272
-0.39033327	( k u	-0.12964272
-0.6345644	= k u	-0.12964272
-1.0673854	' l u	-0.12964272
-1.4296124	e l u	-0.19982685
-1.1077865	r l u	-0.12964272
-1.1601537	# l u	-0.19982685
-0.6675097	m l u	-0.12964272
-1.5699404	a l u	-0.12964272
-1.3177886	l l u	-0.12964272
-1.2342236	b l u	-0.12964272
-0.16442649	. l u	-0.17037885
-0.72082573	| l u	-0.2396882
-0.40880015	= l u	-0.12964272
-0.6675097	/ l u	-0.12964272
-0.40880015	_ l u	-0.12964272
-0.81095463	' t u	-0.12964272
-1.3628893	r t u	-0.12964272
-1.590385	# t u	-0.12964272
-1.4143432	i t u	-0.12964272
-1.3088286	n t u	-0.12964272
-1.3397249	s t u	-0.17037885
-1.2901741	a t u	-0.19982685
-1.262782	h t u	-0.12964272
-1.2381762	p t u	-0.12964272
-0.9788954	c t u	-0.12964272
-1.3624132	k t u	-0.12964272
-1.1338269	l t u	-0.12964272
-1.4509947	t t u	-0.12964272
-0.6718104	( t u	-0.12964272
-0.82460856	- t u	-0.12964272
-0.41116536	_ t u	-0.12964272
-0.40755725	<s> v u	-0.12964272
-0.6652572	o v u	-0.12964272
-0.61168385	# v u	-0.69862324
-0.40755725	( v u	-0.12964272
-0.8019521	| v u	-0.12964272
-1.0791698	' b u	-0.12964272
-0.916098	e b u	-0.19982685
-1.0082022	r b u	-0.12964272
-1.1566006	o b u	-0.12964272
-0.8978415	# b u	-0.39268956
-1.0681351	m b u	-0.12964272
-0.9316763	n b u	-0.12964272
-1.243688	a b u	-0.12964272
-0.7757531	| b u	-0.12964272
-0.7757531	ü b u	-0.12964272
-0.5400723	' j u	-0.12964272
-0.66115993	# j u	-0.40669835
-0.6342984	t j u	-0.12964272
-0.77849174	| j u	-0.12964272
-1.4614253	# ( u	-0.19982685
-1.6257602	e f u	-0.12964272
-1.456953	r f u	-0.12964272
-2.0172203	# f u	-0.12964272
-1.1009469	# " u	-0.2419173
-1.0505927	= " u	-0.12964272
-0.7249526	e : u	-0.12964272
-1.0818157	s - u	-0.12964272
-0.07283465	' q u	-0.12964272
-0.07283465	e q u	-0.12964272
-0.04885256	# q u	-0.19982685
-0.0580426	i q u	-0.2396882
-0.07283465	n q u	-0.12964272
-0.07283465	c q u	-0.12964272
-0.07283465	( q u	-0.12964272
-1.8635641	' ' r	-0.12964275
-1.6549491	d ' r	-0.12964272
-0.83525956	' e r	-0.12964275
-0.5110298	u e r	-0.27332094
-1.521973	r e r	-0.2396882
-1.1877677	o e r	-0.12964272
-0.8748772	# e r	-0.37299702
-0.94520414	d e r	-0.23690358
-0.9968662	g e r	-0.22422098
-0.71561843	m e r	-0.17788862
-0.7354276	i e r	-0.23184766
-1.0050255	n e r	-0.1856821
-0.74983406	s e r	-0.16950928
-1.0638276	a e r	-0.12964272
-0.7637429	w e r	-0.22969157
-0.21572125	ä e r	-0.2165983
-1.1604681	h e r	-0.12964272
-0.70943	p e r	-0.19982685
-1.2263684	z e r	-0.12964272
-0.7814032	k e r	-0.17037885
-1.0190656	l e r	-0.32578102
-0.8259957	t e r	-0.26822454
-0.24230963	v e r	-0.24175064
-0.66908866	b e r	-0.22566669
-1.1837497	j e r	-0.12964272
-1.0348794	( e r	-0.12964272
-0.81269974	f e r	-0.2419173
-0.658025	y e r	-0.12964272
-0.40354687	´ e r	-0.12964272
-0.30461323	e u r	-0.2726545
-1.3530736	r u r	-0.12964272
-0.94467443	o u r	-0.12964275
-0.82400215	# u r	-0.3079227
-1.170999	s u r	-0.12964272
-1.4196028	a u r	-0.12964272
-1.1375135	w u r	-0.12964272
-1.2049619	h u r	-0.12964272
-1.0248663	p u r	-0.12964272
-0.9564238	c u r	-0.12964272
-1.2798423	k u r	-0.12964272
-0.8304622	t u r	-0.22036237
-1.0178629	b u r	-0.12964272
-1.1004219	j u r	-0.12964272
-1.6163654	e r r	-0.1879708
-1.9267125	o r r	-0.12964272
-1.997594	a r r	-0.12964272
-0.75849164	' o r	-0.12964275
-0.41829893	e o r	-0.17037885
-1.1309186	r o r	-0.19982685
-0.9883408	o o r	-0.12964272
-1.439881	# o r	-0.12964272
-1.0156442	d o r	-0.12964272
-1.0910023	g o r	-0.12964272
-1.0445983	n o r	-0.12964275
-1.0354166	s o r	-0.12964272
-0.7985761	w o r	-0.18118921
-0.86544144	p o r	-0.19982685
-1.1859515	c o r	-0.12964272
-1.1244514	z o r	-0.12964272
-1.2120085	k o r	-0.12964272
-0.91854155	l o r	-0.12964275
-0.841217	t o r	-0.12964272
-0.9986412	v o r	-0.12964272
-1.007962	b o r	-0.12964272
-0.456518	j o r	-0.22398922
-0.6252913	( o r	-0.12964272
-0.815843	f o r	-0.19982685
-0.22557007	. o r	-0.2419173
-0.74808663	- o r	-0.12964272
-1.5666095	e # r	-0.2873092
-1.6652006	r # r	-0.12964272
-1.4608753	o # r	-0.12964272
-1.3508806	, # r	-0.20618345
-1.5636951	d # r	-0.12964272
-1.5672164	g # r	-0.12964272
-1.609305	m # r	-0.19982685
-1.6600616	i # r	-0.12964272
-1.377966	n # r	-0.20945448
-1.801018	s # r	-0.12964272
-1.415342	a # r	-0.12964272
-1.5017673	h # r	-0.12964272
-1.0407941	c # r	-0.12964272
-1.2702727	z # r	-0.2396882
-1.5029033	k # r	-0.12964272
-1.5166249	l # r	-0.2396882
-0.8555778	é # r	-0.12964272
-1.9698466	t # r	-0.12964272
-1.6662327	. # r	-0.19982685
-1.6854377	) # r	-0.12964272
-1.6479394	: # r	-0.12964272
-0.7037376	x # r	-0.12964272
-0.75509787	' d r	-0.2396882
-1.2129804	e d r	-0.12964275
-1.0640197	r d r	-0.12964275
-1.337839	# d r	-0.2902278
-0.96027064	d d r	-0.12964272
-1.3423882	n d r	-0.12964272
-0.6110298	s d r	-0.19982685
-0.87407386	a d r	-0.2419173
-0.4056291	h d r	-0.12964272
-0.6655177	' g r	-0.12964275
-1.3132039	e g r	-0.12964275
-0.93349314	u g r	-0.12964272
-1.1070776	r g r	-0.12964272
-0.6712258	o g r	-0.2419173
-0.87403154	# g r	-0.42509148
-0.9558272	i g r	-0.19982685
-0.91807115	s g r	-0.12964272
-0.6167141	h g r	-0.12964272
-0.812036	p g r	-0.12964272
-0.38007134	k g r	-0.12964272
-0.8977846	t g r	-0.12964272
-0.73674303	( g r	-0.12964272
-0.73674303	| g r	-0.12964272
-0.9560504	o i r	-0.12964272
-1.5611875	# i r	-0.12964275
-1.5735574	m i r	-0.12964272
-1.4752394	w i r	-0.12964272
-1.1980896	h i r	-0.12964272
-1.3495653	p i r	-0.12964272
-1.330055	z i r	-0.12964272
-1.7662144	é i r	-0.12964272
-0.76681286	v i r	-0.15510888
-0.7404839	f i r	-0.21533518
-1.035739	i s r	-0.5120427
-0.73917675	' a r	-0.12964275
-0.623159	u a r	-0.12964272
-1.4087453	r a r	-0.12964272
-0.9033821	# a r	-0.6089527
-1.2763586	d a r	-0.12964272
-0.8232969	g a r	-0.12964272
-0.7883234	m a r	-0.20323803
-1.1992438	i a r	-0.12964272
-1.2296066	n a r	-0.12964272
-1.2455882	s a r	-0.12964272
-0.49290112	a a r	-0.2677891
-0.8904236	w a r	-0.12964272
-1.1588099	h a r	-0.12964275
-0.88743556	p a r	-0.18216191
-1.0267657	c a r	-0.12964272
-0.9108377	z a r	-0.12964272
-1.2902731	k a r	-0.12964272
-1.3291755	l a r	-0.12964272
-1.1244321	t a r	-0.12964272
-1.1234297	v a r	-0.12964272
-0.8145443	b a r	-0.19347326
-0.55356205	- a r	-0.19982685
-0.64235616	/ a r	-0.12964272
-0.39475638	_ a r	-0.12964272
-0.8349496	# ä r	-0.12964272
-0.8349496	d ä r	-0.12964272
-0.5891377	g ä r	-0.12964272
-0.8349496	m ä r	-0.12964272
-0.97343594	s ä r	-0.12964272
-0.6030295	h ä r	-0.12964272
-0.8036427	l ä r	-0.12964272
-0.8167501	t ä r	-0.12964272
-0.3638671	| ä r	-0.12964272
-1.2338718	e h r	-0.12964272
-0.5894626	a h r	-0.12964275
-0.70362496	ä h r	-0.12964272
-1.5204779	c h r	-0.22599052
-0.70362496	( h r	-0.12964272
-0.75338	' p r	-0.19982685
-1.1235824	e p r	-0.12964272
-0.86420184	r p r	-0.12964272
-0.8043564	# p r	-0.4928345
-1.0318189	m p r	-0.12964272
-0.5244099	s p r	-0.292755
-0.39864308	( p r	-0.12964272
-0.39864308	= p r	-0.12964272
-0.6492536	- p r	-0.12964272
-0.2896069	/ p r	-0.12964272
-1.7553194	# c r	-0.12964272
-1.7956344	s c r	-0.12964272
-1.9302423	# z r	-0.12964272
-1.1417358	' k r	-0.12964272
-0.93581176	# k r	-0.47886276
-1.0068455	i k r	-0.12964275
-1.40407	n k r	-0.12964272
-0.95489806	t k r	-0.12964272
-1.2537488	h l r	-0.12964272
-1.393917	d é r	-0.12964272
-0.43295902	b é r	-0.12964272
-0.83064437	' t r	-0.12964272
-1.1430202	e t r	-0.21533518
-1.0822489	r t r	-0.12964275
-1.1560751	o t r	-0.2396882
-0.76272124	# t r	-0.24699752
-1.6183589	i t r	-0.12964272
-1.2132748	n t r	-0.24102426
-1.0564885	s t r	-0.3037699
-1.2852603	p t r	-0.12964272
-1.4153395	k t r	-0.12964272
-0.98199373	l t r	-0.2419173
-0.41890115	b t r	-0.12964272
-0.83064437	x t r	-0.12964272
-1.2523803	e v r	-0.12964272
-1.9470717	# v r	-0.12964272
-0.7109091	l v r	-0.12964272
-0.61387026	[ b r	-0.12964272
-0.8715098	e b r	-0.12964272
-0.9410906	r b r	-0.12964272
-1.0707355	o b r	-0.12964272
-0.81171906	# b r	-0.29177612
-0.3784199	g b r	-0.12964272
-0.7755534	m b r	-0.12964272
-0.80758536	s b r	-0.12964272
-0.7329978	h b r	-0.12964272
-0.7329978	( b r	-0.12964272
-0.7329978	" b r	-0.12964272
-0.3784199	á b r	-0.12964272
-0.222405	< b r	-0.2419173
-0.87663376	e ë r	-0.12964272
-1.07091	w ë r	-0.12964272
-0.8169411	' f r	-0.12964275
-0.67614746	[ f r	-0.12964272
-1.391047	e f r	-0.12964272
-0.7111061	# f r	-0.27464277
-1.0479575	n f r	-0.12964272
-0.67614746	( f r	-0.12964272
-1.3351741	f f r	-0.12964272
-1.237257	w . r	-0.12964272
-1.0895559	s y r	-0.12964272
-1.0120057	a y r	-0.12964272
-1.0970737	# | r	-0.2419173
-1.0455973	g | r	-0.12964272
-0.86415076	b | r	-0.12964272
-1.2361741	t : r	-0.12964272
-0.72451055	o - r	-0.12964272
-0.14832169	i è r	-0.2396882
-0.19183387	t è r	-0.12964272
-0.6942779	k ü r	-0.12964272
-0.5930611	] < r	-0.12964272
-0.36619833	t < r	-0.12964272
-0.30928013	< / r	-0.2396882
-0.7051571	# „ r	-0.12964272
-1.86642	' ' o	-0.12964272
-1.6585021	d ' o	-0.12964272
-1.9178435	g e o	-0.12964272
-1.9430307	h e o	-0.12964272
-2.2191486	t e o	-0.12964272
-1.4484612	e r o	-0.12964275
-1.3388621	u r o	-0.12964275
-1.1154289	r r o	-0.12964272
-1.3567063	o r o	-0.12964275
-0.91732806	# r o	-0.15834488
-0.9448151	d r o	-0.19982685
-0.6178581	g r o	-0.27626634
-1.5236485	a r o	-0.12964272
-1.1846858	h r o	-0.12964272
-0.64813113	p r o	-0.17037885
-1.180321	k r o	-0.12964272
-0.8365007	t r o	-0.16331857
-0.45290315	v r o	-0.2396882
-1.1433889	b r o	-0.12964272
-1.277134	f r o	-0.12964272
-1.5146106	r o o	-0.12964272
-1.384625	g o o	-0.12964272
-1.48722	h o o	-0.12964272
-1.3530777	z o o	-0.12964272
-1.4894408	k o o	-0.12964272
-1.2577513	l o o	-0.2396882
-1.5641751	t o o	-0.12964272
-1.4430742	' # o	-0.12964272
-1.9657896	e # o	-0.2396882
-1.5557387	r # o	-0.12964272
-1.5080776	o # o	-0.12964272
-1.6202129	, # o	-0.24102426
-1.3962412	d # o	-0.19982685
-1.6270077	g # o	-0.12964272
-1.6533567	m # o	-0.12964272
-1.6738855	n # o	-0.15834488
-1.8668116	s # o	-0.12964272
-1.4590311	a # o	-0.12964272
-1.559999	h # o	-0.12964272
-1.0596176	c # o	-0.12964272
-1.5562383	k # o	-0.12964272
-1.7391143	l # o	-0.12964272
-1.5633465	t # o	-0.2873092
-1.5742512	f # o	-0.12964272
-1.3740546	. # o	-0.18177257
-1.0440605	' d o	-0.12964272
-0.9305878	o d o	-0.12964272
-0.98987573	# d o	-0.2452975
-1.0891676	s d o	-0.12964272
-1.2467738	a d o	-0.12964272
-1.1733745	l d o	-0.12964272
-0.99567103	( d o	-0.12964272
-0.6405487	| d o	-0.12964272
-0.4057975	: d o	-0.12964272
-1.0447042	' g o	-0.12964272
-1.2981672	e g o	-0.12964275
-1.2831148	r g o	-0.12964272
-0.86443293	# g o	-0.6705945
-0.82802856	m g o	-0.12964272
-1.3002295	i g o	-0.12964272
-1.5243378	n g o	-0.12964272
-0.93140125	a g o	-0.12964275
-0.9586351	' m o	-0.12964272
-1.0861884	e m o	-0.36685604
-1.2363306	o m o	-0.12964272
-0.86486673	# m o	-0.35276866
-0.39596927	d m o	-0.12964272
-1.2904719	m m o	-0.12964272
-1.2336861	i m o	-0.12964272
-1.0645736	s m o	-0.12964272
-0.6445035	t m o	-0.12964272
-0.992871	y m o	-0.12964272
-1.0298302	| m o	-0.12964272
-0.39596927	: m o	-0.12964272
-1.7829473	r i o	-0.12964272
-1.6255717	m i o	-0.12964272
-1.628641	n i o	-0.12964272
-1.3194795	s i o	-0.2396882
-1.2551492	c i o	-0.12964272
-1.5374255	l i o	-0.18118921
-1.0149977	t i o	-0.36685604
-1.2183243	b i o	-0.12964272
-0.6676437	' n o	-0.12964272
-1.871876	e n o	-0.12964272
-1.1081036	r n o	-0.12964272
-0.89916706	o n o	-0.22398922
-0.67743653	# n o	-0.334912
-0.6676437	d n o	-0.12964272
-0.81119895	g n o	-0.12964272
-1.6246094	i n o	-0.12964272
-1.430884	a n o	-0.2419173
-0.8052248	k n o	-0.12964272
-0.4088741	= n o	-0.12964272
-0.6676437	/ n o	-0.12964272
-0.4088741	_ n o	-0.12964272
-0.9861821	' s o	-0.12964275
-1.4179883	e s o	-0.18118921
-1.5247334	r s o	-0.12964272
-1.0006702	# s o	-0.39306676
-1.8313596	i s o	-0.12964272
-1.1813685	n s o	-0.19982685
-1.7210687	s s o	-0.12964272
-0.43260428	´ s o	-0.12964272
-0.37896273	<s> w o	-0.12964272
-1.1917657	e w o	-0.12964272
-0.8994918	u w o	-0.12964272
-0.8994918	o w o	-0.12964272
-0.91052073	# w o	-0.40120506
-0.37896273	d w o	-0.12964272
-0.9292159	h w o	-0.12964272
-0.8090451	z w o	-0.12964272
-0.87753344	t w o	-0.12964272
-0.87753344	| w o	-0.12964272
-0.8090451	- w o	-0.12964272
-1.0151255	' h o	-0.12964272
-1.1176047	e h o	-0.12964272
-0.9909274	r h o	-0.12964272
-1.1393198	# h o	-0.23225096
-1.1633623	s h o	-0.12964272
-0.89570665	a h o	-0.12964272
-0.6749025	p h o	-0.36685604
-1.379681	c h o	-0.19982685
-0.9180359	t h o	-0.12964275
-1.4235095	o p o	-0.12964272
-1.1549952	# p o	-0.2491087
-1.1152704	m p o	-0.12964272
-1.0547997	s p o	-0.19982685
-1.2344772	a p o	-0.12964272
-0.41668105	> p o	-0.12964272
-0.41668105	_ p o	-0.12964272
-0.2634843	' c o	-0.18118921
-1.1564553	e c o	-0.2396882
-0.61876863	# c o	-0.21101269
-0.3579021	g c o	-0.12964272
-1.2493272	i c o	-0.12964272
-0.71601164	n c o	-0.19982685
-1.4422699	s c o	-0.12964272
-1.1702882	a c o	-0.12964272
-0.5791637	c c o	-0.12964272
-0.3943904	. c o	-0.2419173
-0.2634843	| c o	-0.2396882
-0.5791637	= c o	-0.12964272
-0.5791637	- c o	-0.12964272
-0.73966086	' z o	-0.12964272
-1.0362048	r z o	-0.12964272
-0.9093105	o z o	-0.12964272
-0.8165548	# z o	-0.2873092
-0.9933966	i z o	-0.12964272
-0.8845308	s z o	-0.12964272
-1.0091302	a z o	-0.12964272
-1.1937885	t z o	-0.12964272
-0.3813524	& z o	-0.12964272
-1.0054967	' k o	-0.12964272
-0.3960994	[ k o	-0.12964272
-1.149084	r k o	-0.12964272
-0.9721826	o k o	-0.12964272
-0.83536154	# k o	-0.47580117
-0.3960994	d k o	-0.12964272
-0.9152605	s k o	-0.12964272
-1.2573727	a k o	-0.12964272
-0.8568126	t k o	-0.12964272
-0.44290987	- k o	-0.12964272
-1.3273468	e l o	-0.12964272
-0.98295164	o l o	-0.18118921
-1.2800881	# l o	-0.24102426
-1.4335504	i l o	-0.12964272
-1.1436634	s l o	-0.12964272
-1.5965968	a l o	-0.12964272
-1.0603417	h l o	-0.12964272
-1.3368304	k l o	-0.12964272
-1.335056	l l o	-0.12964272
-1.2504398	b l o	-0.12964272
-1.0313982	( l o	-0.12964272
-0.5155236	f l o	-0.22036237
-1.1672139	h é o	-0.12964272
-1.4091027	e t o	-0.12964272
-1.1483554	u t o	-0.12964272
-1.4248191	r t o	-0.12964272
-0.9779232	o t o	-0.1495333
-1.1112367	# t o	-0.18118921
-1.6195564	i t o	-0.12964272
-1.2672247	s t o	-0.18216191
-1.6538799	a t o	-0.12964272
-1.3208373	h t o	-0.12964272
-1.0063715	c t o	-0.12964272
-1.1839385	k t o	-0.12964272
-1.4108576	l t o	-0.12964272
-0.4190316	" t o	-0.12964272
-0.76408166	' v o	-0.2396882
-0.88973767	r v o	-0.12964272
-1.2261287	# v o	-0.21101269
-0.88973767	t v o	-0.12964272
-0.4072167	& v o	-0.12964272
-1.1950576	' b o	-0.12964272
-1.1135303	r b o	-0.12964272
-1.3003124	o b o	-0.12964272
-1.9726677	# b o	-0.12964272
-1.1869514	m b o	-0.12964272
-1.1325762	a b o	-0.12964275
-0.69826335	' j o	-0.12964272
-0.3234978	r j o	-0.12964272
-0.49345046	# j o	-0.5022112
-0.45652276	i j o	-0.12964272
-0.3234978	a j o	-0.12964272
-0.5233206	t j o	-0.12964272
-0.37212315	| j o	-0.2396882
-1.4568117	# ( o	-0.2396882
-0.7699347	' f o	-0.12964272
-1.1024121	e f o	-0.2396882
-1.1588933	r f o	-0.12964272
-1.1163785	o f o	-0.12964272
-0.88348764	# f o	-0.30055892
-0.97978365	n f o	-0.12964272
-0.39436	s f o	-0.12964272
-0.6416555	p f o	-0.12964272
-0.39436	z f o	-0.12964272
-0.90953845	l f o	-0.12964272
-1.3073376	s . o	-0.12964272
-1.2113198	a . o	-0.12964272
-0.7251487	v . o	-0.12964272
-1.5796945	# | o	-0.12964272
-0.87763745	) | o	-0.12964272
-1.6160095	# " o	-0.12964272
-1.050939	s - o	-0.12964272
-0.31086716	a - o	-0.12964272
-0.7927704	u x o	-0.12964272
-0.7927704	a x o	-0.12964272
-0.43060106	n / o	-0.12964272
-0.39494073	s _ o	-0.12964272
-0.39494073	t _ o	-0.12964272
-0.19112882	n ç o	-0.12964272
-2.2474546	r e ]	-0.12964272
-2.1623719	i e ]	-0.12964272
-2.2084916	l e ]	-0.12964272
-2.1409054	e r ]	-0.2396882
-1.9133632	o r ]	-0.12964272
-1.9817805	a r ]	-0.12964272
-1.555605	ä r ]	-0.12964272
-2.0571742	r o ]	-0.12964272
-0.115918316	e ] ]	-0.19982685
-0.083911814	r ] ]	-0.17037885
-0.18043429	o ] ]	-0.12964272
-0.13993654	g ] ]	-0.12964272
-0.18043429	m ] ]	-0.12964272
-0.13993654	i ] ]	-0.12964272
-0.18043429	n ] ]	-0.12964272
-0.18043429	s ] ]	-0.12964272
-0.18043429	w ] ]	-0.12964272
-0.083911814	t ] ]	-0.17037885
-0.18043429	v ] ]	-0.12964272
-0.054103088	. ] ]	-0.5429473
-0.18043429	y ] ]	-0.12964272
-0.18043429	> ] ]	-0.12964272
-1.5776572	r g ]	-0.12964272
-1.9443107	n g ]	-0.12964272
-1.2677805	l m ]	-0.12964272
-1.6036973	d i ]	-0.12964272
-1.982549	t i ]	-0.12964272
-2.0116215	e n ]	-0.2419173
-2.0168693	u s ]	-0.12964272
-1.1983933	o w ]	-0.12964272
-1.9331417	e t ]	-0.12964272
-1.6808039	i t ]	-0.2396882
-1.6074629	h t ]	-0.12964272
-1.7801217	t t ]	-0.12964272
-1.3444012	e v ]	-0.12964272
-0.42027304	5 . ]	-0.12964272
-0.68855405	1 . ]	-0.12964272
-0.93067676	0 . ]	-0.12964272
-0.68855405	3 . ]	-0.12964272
-0.68855405	7 . ]	-0.12964272
-0.42027304	9 . ]	-0.12964272
-1.0786651	t y ]	-0.12964272
-0.41324362	> > ]	-0.12964272
-0.6441948	9 8 ]	-0.12964272
-0.99107254	' ' ,	-0.72289604
-2.0514522	r e ,	-0.12964272
-1.3719947	o e ,	-0.12964272
-1.8725755	n e ,	-0.12964272
-1.2645941	a e ,	-0.12964272
-1.0594999	c e ,	-0.2396882
-1.7781159	k e ,	-0.12964272
-2.0766957	t e ,	-0.12964272
-1.4772205	e r ,	-0.667886
-1.7180446	i r ,	-0.12964272
-1.5667374	ä r ,	-0.12964272
-1.9437287	r o ,	-0.12964272
-1.672033	c o ,	-0.12964272
-1.749721	t o ,	-0.12964272
-1.6117364	] ] ,	-0.12964272
-1.7184818	n d ,	-0.12964272
-1.9157796	e g ,	-0.12964272
-1.5192757	r g ,	-0.12964272
-1.3895552	n g ,	-0.2419173
-1.4005101	e m ,	-0.2419173
-1.1996454	i m ,	-0.2396882
-1.2244313	l m ,	-0.12964272
-1.4120072	e i ,	-0.2419173
-1.2673653	i i ,	-0.12964272
-2.0343547	é i ,	-0.12964272
-0.96061957	e n ,	-1.0870154
-1.20234	u n ,	-0.36685604
-1.5324752	o n ,	-0.2396882
-1.8365684	i n ,	-0.12964272
-1.284271	n n ,	-0.2419173
-1.693453	a n ,	-0.2396882
-1.4718663	ë n ,	-0.12964272
-1.9850171	e s ,	-0.12964272
-1.733448	u s ,	-0.12964272
-1.5576199	o s ,	-0.12964272
-1.8710711	i s ,	-0.12964272
-1.3508174	s s ,	-0.2419173
-1.3582773	k s ,	-0.12964272
-1.3071352	l s ,	-0.12964272
-1.6501873	i a ,	-0.12964272
-1.2522335	s w ,	-0.12964272
-1.3679249	c h ,	-0.46376607
-1.1502007	n z ,	-0.2396882
-1.3301013	a z ,	-0.12964272
-1.6731099	e k ,	-0.12964272
-1.5626643	n k ,	-0.12964272
-1.6224594	e l ,	-0.2419173
-1.750467	o l ,	-0.12964272
-1.9493842	a l ,	-0.12964272
-1.5264213	l l ,	-0.2396882
-1.6443809	r é ,	-0.12964272
-1.033596	e t ,	-0.46376607
-1.4045696	r t ,	-0.12964272
-1.0594623	g t ,	-0.12964272
-1.1143373	m t ,	-0.12964272
-1.317036	i t ,	-0.2419173
-1.5012516	n t ,	-0.12964272
-1.7494148	s t ,	-0.12964272
-1.4563388	a t ,	-0.2396882
-1.3019121	h t ,	-0.12964272
-1.2705958	p t ,	-0.12964272
-1.1736021	k t ,	-0.2396882
-0.8078424	l t ,	-0.36685604
-0.95087004	t t ,	-0.36685604
-0.67320263	f t ,	-0.46376607
-0.9008917	c b ,	-0.12964272
-0.7351832	z b ,	-0.12964272
-1.3161832	u f ,	-0.12964272
-1.4835896	r f ,	-0.12964272
-1.3326724	r . ,	-0.12964272
-1.6154963	t . ,	-0.12964272
-0.72595847	' ) ,	-0.12964272
-0.7485466	e ) ,	-0.12964272
-0.6632756	g ) ,	-0.12964272
-0.9449412	n ) ,	-0.12964272
-0.88064945	s ) ,	-0.12964272
-0.34621525	p ) ,	-0.12964272
-0.78829336	l ) ,	-0.12964272
-0.65848744	t ) ,	-0.2396882
-0.34621525	4 ) ,	-0.12964272
-0.80611455	' " ,	-0.12964272
-0.89588547	n " ,	-0.12964272
-0.66829175	a " ,	-0.12964272
-0.8202433	t " ,	-0.12964272
-0.8047241	f > ,	-0.12964272
-0.6789551	9 5 ,	-0.12964272
-0.4258938	( 1 ,	-0.12964272
-0.6990375	1 1 ,	-0.12964272
-0.8222826	0 0 ,	-0.12964272
-0.41564196	9 0 ,	-0.12964272
-0.69064057	4 3 ,	-0.12964272
-0.90508515	9 4 ,	-0.12964272
-0.30015388	s ” ,	-0.12964272
-0.83517855	' ' #	-0.3420247
-0.85818636	e e #	-0.2454022
-1.2349402	u e #	-0.12964272
-1.0016431	r e #	-0.16331857
-0.90496063	o e #	-0.16331857
-1.148017	d e #	-0.1574998
-1.328919	g e #	-0.1747601
-1.1925371	m e #	-0.15834488
-0.9126413	i e #	-0.18907903
-1.1037456	n e #	-0.19619225
-1.2380664	s e #	-0.14486165
-1.079322	w e #	-0.15834488
-1.3333901	ä e #	-0.12964272
-1.283194	h e #	-0.14196719
-1.3837886	p e #	-0.12964272
-0.950664	c e #	-0.12964275
-1.2272552	z e #	-0.15834488
-1.1283053	k e #	-0.12964275
-1.0194193	l e #	-0.20259643
-0.65836436	é e #	-0.12964272
-0.9058113	t e #	-0.26598135
-1.4696052	v e #	-0.12964272
-1.035644	( e #	-0.12964272
-1.2191367	f e #	-0.12964272
-0.65836436	y e #	-0.12964272
-0.8079725	: e #	-0.12964272
-0.4037357	ß e #	-0.12964272
-1.5481972	r u #	-0.12964272
-1.0018953	o u #	-0.18408532
-1.6003995	a u #	-0.12964272
-1.3644524	h u #	-0.12964272
-1.1793921	z u #	-0.12964272
-1.1956508	l u #	-0.12964272
-1.4998769	t u #	-0.12964272
-1.0458895	e r #	-0.5812685
-0.90341204	u r #	-0.15834488
-1.214516	r r #	-0.12964272
-0.91795796	i r #	-0.18845528
-0.9883362	a r #	-0.16394064
-0.6095745	ä r #	-0.17515025
-1.4840232	b r #	-0.12964272
-0.6994828	ë r #	-0.12964272
-1.4047021	r o #	-0.12964272
-1.001012	d o #	-0.19982685
-1.2745155	g o #	-0.12964272
-1.3996727	n o #	-0.12964275
-1.4015923	s o #	-0.12964272
-1.3672107	h o #	-0.12964272
-1.3911996	c o #	-0.12964272
-1.4022374	l o #	-0.12964275
-1.415364	t o #	-0.12964272
-1.1633904	b o #	-0.12964272
-1.2868652	j o #	-0.12964272
-0.15252766	' , #	-0.12964272
-0.015811576	e , #	-0.19584498
-0.037830997	r , #	-0.15637127
-0.037830997	o , #	-0.12964272
-0.056044165	d , #	-0.12964272
-0.037830997	g , #	-0.12964272
-0.037830997	m , #	-0.16331857
-0.037830997	i , #	-0.16331857
-0.04104972	n , #	-0.23324485
-0.015811576	s , #	-0.1767663
-0.056044165	a , #	-0.12964272
-0.056044165	w , #	-0.12964272
-0.056044165	h , #	-0.12964272
-0.044838917	z , #	-0.17037885
-0.109289795	k , #	-0.12964272
-0.028059872	l , #	-0.16394064
-0.056044165	é , #	-0.12964272
-0.007833821	t , #	-0.30437356
-0.044838917	b , #	-0.2396882
-0.044838917	f , #	-0.12964272
-0.044838917	. , #	-0.12964272
-0.012247802	) , #	-0.19619225
-0.028059872	" , #	-0.12964272
-0.056044165	> , #	-0.12964272
-0.056044165	5 , #	-0.12964272
-0.15252766	1 , #	-0.12964272
-0.044838917	0 , #	-0.12964272
-0.056044165	3 , #	-0.12964272
-0.056044165	4 , #	-0.12964272
-0.056044165	” , #	-0.12964272
-1.2456949	e d #	-0.12964272
-1.1850482	u d #	-0.12964272
-1.0938079	r d #	-0.12964272
-0.9877355	d d #	-0.12964275
-0.8781841	n d #	-0.18964478
-1.0668018	a d #	-0.1461543
-0.97349465	l d #	-0.12964272
-0.8257143	e g #	-0.21478419
-1.377714	r g #	-0.12964272
-0.8832904	n g #	-0.23438935
-1.1576037	a g #	-0.12964275
-0.42613852	v g #	-0.12964272
-0.84276944	e m #	-0.24744421
-0.5163264	u m #	-0.18808495
-1.2466054	o m #	-0.12964272
-0.781332	m m #	-0.1495333
-0.8728904	i m #	-0.12964272
-1.0724607	s m #	-0.12964272
-0.71636313	a m #	-0.13999781
-0.6477603	t m #	-0.12964272
-0.9547482	ë m #	-0.17037885
-0.3978039	f m #	-0.12964272
-1.0001684	y m #	-0.12964272
-1.3155042	e i #	-0.17515025
-1.4514022	g i #	-0.12964272
-1.3401856	n i #	-0.15834488
-1.2924927	s i #	-0.12964275
-1.052303	ä i #	-0.12964272
-1.4619765	h i #	-0.12964272
-1.3029388	k i #	-0.12964272
-1.4981753	l i #	-0.12964272
-1.1073073	é i #	-0.21350469
-0.93685174	e n #	-0.6184375
-1.191519	u n #	-0.20559572
-1.2059944	o n #	-0.12964272
-1.1383889	i n #	-0.17344016
-0.90220565	n n #	-0.22785808
-1.1981459	a n #	-0.18118921
-1.4497863	ë n #	-0.12964272
-0.89922893	e s #	-0.22110239
-0.76580155	u s #	-0.17037885
-1.1617426	r s #	-0.12964275
-0.9260983	g s #	-0.12964272
-0.5132882	m s #	-0.12964275
-1.0394808	i s #	-0.16651355
-1.1054082	n s #	-0.12964272
-0.9237541	s s #	-0.225456
-1.2524841	a s #	-0.12964275
-0.9736862	h s #	-0.12964275
-0.7687644	k s #	-0.12964275
-1.177338	l s #	-0.12964272
-1.2493742	t s #	-0.12964275
-1.294911	ë s #	-0.12964272
-1.0549352	e a #	-0.12964272
-1.6083823	r a #	-0.12964272
-1.4442239	d a #	-0.12964272
-1.3021518	m a #	-0.18118921
-1.3552542	i a #	-0.12964272
-1.5636965	n a #	-0.12964272
-1.4125245	s a #	-0.12964272
-1.5708617	a a #	-0.12964272
-1.3732383	p a #	-0.12964272
-0.83352673	c a #	-0.12964272
-1.4410532	t a #	-0.12964272
-1.5056726	b a #	-0.12964272
-1.0549352	j a #	-0.12964272
-1.0899669	m ä #	-0.12964272
-1.2599683	s h #	-0.12964272
-1.3598045	p h #	-0.12964272
-1.0189122	c h #	-0.34827417
-1.1571118	t h #	-0.12964272
-0.6967349	b h #	-0.12964272
-1.3490696	o p #	-0.12964272
-1.1387339	i p #	-0.12964272
-0.89179397	p p #	-0.17515025
-1.5893904	e c #	-0.12964272
-1.3248103	u c #	-0.12964272
-0.8380842	r c #	-0.12964272
-1.5176724	i c #	-0.12964272
-1.467224	a c #	-0.12964272
-1.0663035	e z #	-0.12964272
-0.8305129	r z #	-0.12964275
-0.948353	o z #	-0.12964272
-0.8441392	n z #	-0.16917527
-1.0685933	a z #	-0.12964272
-0.44201624	l z #	-0.12964275
-1.2629919	t z #	-0.12964272
-0.866027	e k #	-0.12964272
-1.2774465	r k #	-0.12964272
-0.9826252	i k #	-0.15180069
-1.0978509	n k #	-0.12964272
-0.8100713	c k #	-0.17794134
-0.41787523	ü k #	-0.12964272
-0.92243665	e l #	-0.21767306
-1.358669	o l #	-0.12964268
-0.8880771	i l #	-0.12964272
-0.960695	a l #	-0.1461543
-0.89934015	l l #	-0.20559572
-1.3742163	f l #	-0.12964272
-0.70146054	ī l #	-0.12964272
-1.3364092	d é #	-0.12964272
-1.3133558	m é #	-0.12964272
-1.2622032	t é #	-0.12964272
-0.98289216	e t #	-0.22892536
-0.91613406	u t #	-0.15180069
-0.77599806	r t #	-0.20226322
-0.9239574	o t #	-0.12964275
-0.6956461	g t #	-0.15465166
-0.5570047	m t #	-0.19982685
-1.2361969	i t #	-0.19134638
-0.83557355	n t #	-0.22439887
-1.1346245	s t #	-0.17699948
-0.8086146	a t #	-0.22707315
-0.39769396	w t #	-0.12964272
-0.8766844	ä t #	-0.12964272
-1.1765565	h t #	-0.12964272
-0.7912776	p t #	-0.12964275
-0.77789336	z t #	-0.12964272
-0.60546273	k t #	-0.23542275
-0.6627096	l t #	-0.15637127
-0.7179633	t t #	-0.2605842
-0.56059355	f t #	-0.20863335
-0.6475649	ü t #	-0.12964272
-0.9604109	i v #	-0.12964275
-0.97709143	t v #	-0.12964272
-1.4252771	o b #	-0.12964272
-1.5227923	a b #	-0.12964272
-0.88272506	c b #	-0.12964272
-0.88677955	e ë #	-0.12964272
-1.1826566	u f #	-0.12964275
-0.67345387	r f #	-0.16331857
-0.93208086	i f #	-0.12964275
-0.7636421	a f #	-0.12964272
-0.93308514	f f #	-0.18118921
-0.25361815	' . #	-0.12964272
-0.5301305	e . #	-0.12964272
-0.41727754	u . #	-0.12964272
-0.34739798	r . #	-0.16651355
-0.3037315	o . #	-0.12964272
-0.38037503	d . #	-0.19982685
-0.3009261	g . #	-0.17037885
-0.15788408	m . #	-0.12964275
-0.3037315	i . #	-0.12964275
-0.31029534	n . #	-0.19642131
-0.33902377	s . #	-0.18118921
-0.38037503	a . #	-0.12964275
-0.39269453	h . #	-0.12964272
-0.25361815	p . #	-0.12964272
-0.3922652	z . #	-0.17037885
-0.25361815	k . #	-0.12964272
-0.48916706	l . #	-0.12964272
-0.11933542	t . #	-0.28262818
-0.3009261	b . #	-0.17037885
-0.11271622	f . #	-0.16331857
-0.87261444	. . #	-0.12964275
-0.25361815	y . #	-0.12964272
-0.06079253	) . #	-0.24102426
-0.15788408	" . #	-0.12964275
-0.25361815	> . #	-0.12964272
-0.41727754	1 . #	-0.12964272
-0.5301305	0 . #	-0.12964272
-0.52583027	2 . #	-0.12964272
-0.25361815	4 . #	-0.12964275
-0.25361815	6 . #	-0.12964272
-0.41727754	7 . #	-0.12964272
-0.25361815	8 . #	-0.12964272
-0.25361815	” . #	-0.12964272
-0.43095475	e y #	-0.12964272
-0.62319183	o y #	-0.12964272
-0.7453034	g y #	-0.12964272
-0.7453034	c y #	-0.12964272
-1.1501049	n | #	-0.12964272
-0.4306944	| | #	-0.12964272
-0.4729755	' ) #	-0.12964275
-0.33525762	e ) #	-0.12964272
-0.4729755	r ) #	-0.12964275
-0.37255383	] ) #	-0.12964272
-0.37255383	d ) #	-0.12964272
-0.4368594	g ) #	-0.12964272
-0.31857395	n ) #	-0.15834488
-0.16489345	s ) #	-0.12964272
-0.5045829	a ) #	-0.12964272
-0.2224469	h ) #	-0.12964272
-0.37255383	c ) #	-0.12964272
-0.37255383	z ) #	-0.12964272
-0.14037849	k ) #	-0.19982685
-0.37728667	l ) #	-0.12964272
-0.22488844	t ) #	-0.12964272
-0.1705477	. ) #	-0.12964275
-0.2224469	} ) #	-0.12964275
-0.2224469	! ) #	-0.12964272
-0.2224469	“ ) #	-0.12964272
-0.2224469	₪ ) #	-0.12964272
-0.85188735	g = #	-0.12964272
-0.80615014	= = #	-0.16331857
-0.211349	u " #	-0.12964272
-0.45673847	r " #	-0.12964272
-0.28029892	d " #	-0.12964272
-0.28029892	g " #	-0.12964272
-0.28029892	m " #	-0.12964272
-0.5820259	n " #	-0.12964275
-0.45673847	a " #	-0.12964272
-0.28029892	h " #	-0.12964272
-0.32987162	t " #	-0.12964272
-0.28029892	v " #	-0.12964272
-0.32987162	. " #	-0.16331857
-0.6120887	= " #	-0.12964272
-0.28029892	0 " #	-0.12964272
-0.20925306	' : #	-0.12964272
-0.3540272	e : #	-0.12964272
-0.20925306	r : #	-0.12964272
-0.13280347	d : #	-0.18118921
-0.20925306	g : #	-0.12964275
-0.20925306	i : #	-0.12964272
-0.407311	n : #	-0.12964275
-0.13280347	s : #	-0.2419173
-0.20925306	h : #	-0.12964272
-0.20811895	l : #	-0.12964275
-0.16890295	t : #	-0.18216191
-0.20925306	f : #	-0.12964272
-0.21668638	. : #	-0.17037885
-0.20925306	y : #	-0.12964272
-0.095606245	) : #	-0.12964272
-0.20925306	" : #	-0.12964272
-0.74743366	p ; #	-0.12964272
-0.57431805	' 5 #	-0.12964272
-0.35498434	, 5 #	-0.12964272
-0.57431805	9 5 #	-0.12964272
-0.68595195	3 1 #	-0.12964272
-0.68595195	9 1 #	-0.12964272
-0.77177566	5 0 #	-0.12964272
-0.77177566	1 0 #	-0.12964272
-0.9887699	2 0 #	-0.12964272
-0.63763094	r - #	-0.12964272
-0.39207813	m - #	-0.12964272
-1.0042858	n - #	-0.12964272
-0.7645358	p - #	-0.12964272
-0.39207813	- - #	-0.12964272
-0.40453747	7 2 #	-0.12964272
-0.40453747	+ 2 #	-0.12964272
-0.76459205	= 3 #	-0.12964272
-0.392102	8 3 #	-0.12964272
-0.36045167	j 6 #	-0.12964272
-0.3507818	4 7 #	-0.12964272
-0.67280626	9 7 #	-0.12964272
-0.83661556	9 9 #	-0.12964272
-0.11978459	n ? #	-0.17037885
-0.2728016	w ? #	-0.12964272
-0.20615233	t ? #	-0.12964272
-0.64731187	o x #	-0.12964272
-0.39755166	i x #	-0.12964272
-0.42394096	o / #	-0.12964272
-0.82765293	_ _ #	-0.12964272
-0.18728863	( † #	-0.12964272
-0.30985394	n ! #	-0.12964275
-0.2598642	h ! #	-0.12964272
-0.19712044	t ! #	-0.12964272
-0.19712044	! ! #	-0.12964272
-0.4786288	] “ #	-0.12964272
-0.18728863	נ ת #	-0.12964272
-0.18728863	א ל #	-0.12964272
-0.29475743	ي ل #	-0.12964272
-0.18728863	ل ة #	-0.12964272
-1.880988	' ' d	-0.15834488
-1.6767164	d ' d	-0.12964272
-1.5430392	[ [ d	-0.12964272
-1.394299	e e d	-0.17037885
-1.4851716	u e d	-0.2396882
-1.8442553	r e d	-0.12964272
-1.5982345	# e d	-0.19982685
-1.6955031	g e d	-0.17037885
-1.6819196	m e d	-0.12964272
-1.2865727	i e d	-0.2726545
-1.6787567	n e d	-0.12964272
-1.6778443	w e d	-0.12964272
-1.4129883	h e d	-0.12964272
-1.1257445	p e d	-0.19982685
-1.5622333	z e d	-0.12964272
-1.8828768	t e d	-0.12964272
-1.4200758	b e d	-0.19982685
-1.1369833	( e d	-0.12964272
-1.7206079	o u d	-0.12964272
-1.2149342	g u d	-0.12964272
-1.4176143	h u d	-0.12964272
-1.5603586	t u d	-0.12964272
-0.7000555	j u d	-0.21101269
-0.87510824	f u d	-0.12964272
-1.5159514	e r d	-0.23542275
-1.2023047	o r d	-0.12964272
-1.634871	i r d	-0.12964272
-1.4766831	a r d	-0.18118921
-1.510817	ä r d	-0.12964272
-1.4939134	r o d	-0.12964272
-1.4786446	d o d	-0.12964272
-1.3354648	i o d	-0.12964272
-1.2430617	n o d	-0.2396882
-1.464401	h o d	-0.12964272
-1.2286221	c o d	-0.2396882
-0.4314133	é o d	-0.12964272
-0.4314133	/ o d	-0.12964272
-1.3266685	' # d	-0.12964275
-1.2443265	e # d	-0.31248814
-1.42187	u # d	-0.12964272
-1.2073741	r # d	-0.18992794
-1.0118994	o # d	-0.12964272
-0.9821058	, # d	-0.52467394
-1.485044	d # d	-0.12964272
-1.3304653	g # d	-0.15465166
-1.1289898	m # d	-0.2873092
-1.0671917	i # d	-0.16394064
-1.1082634	n # d	-0.26742104
-1.2623305	s # d	-0.19584498
-1.119671	a # d	-0.12964272
-1.4199475	h # d	-0.12964272
-1.1970961	p # d	-0.12964272
-1.0674953	z # d	-0.17037885
-1.4270172	k # d	-0.12964272
-1.3346413	l # d	-0.1879708
-1.1342374	t # d	-0.4671404
-1.0988061	v # d	-0.12964272
-1.2557117	f # d	-0.19982685
-1.004414	. # d	-0.4189713
-1.0014685	y # d	-0.12964272
-1.0701408	) # d	-0.19347326
-1.3898014	" # d	-0.12964272
-1.0668083	: # d	-0.19982685
-1.2260991	? # d	-0.12964272
-0.68884	_ # d	-0.12964272
-0.68884	ل # d	-0.12964272
-0.5204463	u d d	-0.3079227
-0.5804193	i d d	-0.39759323
-1.1155732	e i d	-0.36685604
-1.6087656	r i d	-0.12964272
-0.9131868	o i d	-0.12964272
-1.7350535	# i d	-0.12964272
-1.2694621	n i d	-0.2396882
-1.0666418	s i d	-0.12964272
-1.3877032	w i d	-0.12964272
-1.3561814	h i d	-0.12964272
-0.86364746	c i d	-0.2396882
-1.5483291	l i d	-0.12964272
-1.4753146	é i d	-0.2396882
-1.521093	t i d	-0.12964272
-1.3718106	b i d	-0.12964272
-0.82013226	j i d	-0.12964272
-0.4147976	& i d	-0.12964272
-1.3781371	e n d	-0.280484
-1.5137324	u n d	-0.12964272
-1.3580561	o n d	-0.19347326
-1.6246119	i n d	-0.12964272
-1.6476197	n n d	-0.12964272
-1.1281832	a n d	-0.2598176
-1.3657595	ä n d	-0.12964272
-0.9764766	& n d	-0.12964272
-1.9903543	e s d	-0.12964272
-1.7385385	u s d	-0.12964272
-1.3346292	g s d	-0.12964272
-1.8762339	i s d	-0.12964272
-1.6418267	n s d	-0.12964272
-1.0647568	h s d	-0.12964272
-1.6414492	t s d	-0.12964272
-1.113446	e a d	-0.12964272
-1.7521517	r a d	-0.12964272
-2.0319686	# a d	-0.12964272
-1.5607977	g a d	-0.12964272
-1.5312319	m a d	-0.12964272
-1.4569317	i a d	-0.12964272
-1.5224023	k a d	-0.12964272
-1.3283682	t a d	-0.12964272
-1.1859008	- a d	-0.12964272
-1.8609426	c h d	-0.2396882
-1.7642729	o p d	-0.12964272
-1.6464237	t z d	-0.12964272
-1.8041055	e l d	-0.12964272
-1.3230221	i l d	-0.12964272
-1.7060782	a l d	-0.12964272
-1.3508981	t l d	-0.12964272
-1.6662246	u t d	-0.12964272
-2.022846	a t d	-0.12964272
-2.255939	# b d	-0.12964272
-1.1142795	# ( d	-0.20426671
-0.9698502	r | d	-0.12964272
-0.8128147	] | d	-0.12964272
-1.3599032	# | d	-0.12964272
-1.1371074	t | d	-0.12964272
-0.9041388	x | d	-0.12964272
-1.3342572	# " d	-0.2396882
-1.0117217	l : d	-0.12964272
-0.66893154	/ > d	-0.12964272
-0.43131208	e 0 d	-0.12964272
-0.44094115	d - d	-0.12964272
-0.8458525	{ { d	-0.12964272
-0.83010364	r ü d	-0.12964272
-0.6281503	s ü d	-0.12964272
-0.3866665	j ü d	-0.12964272
-1.7105069	' ' g	-0.12964272
-1.3994895	d ' g	-0.19982685
-1.2232625	e e g	-0.12964272
-1.1653451	r e g	-0.18907906
-1.8762941	# e g	-0.12964272
-1.1952823	d e g	-0.18216191
-1.5333276	g e g	-0.12964272
-1.646428	m e g	-0.12964272
-1.1600606	n e g	-0.20618345
-1.6488199	s e g	-0.12964275
-1.638707	w e g	-0.12964272
-1.4074929	ä e g	-0.12964272
-1.5712292	h e g	-0.12964272
-1.2851285	p e g	-0.12964272
-1.3231589	z e g	-0.17037885
-1.3180964	l e g	-0.20618345
-1.0929468	t e g	-0.19584498
-1.5902165	b e g	-0.12964272
-1.3009288	f e g	-0.12964272
-1.540556	o u g	-0.12964275
-0.8690293	# u g	-0.46376607
-1.7461975	a u g	-0.12964272
-1.6404579	t u g	-0.12964272
-1.452513	e r g	-0.22348547
-1.6178643	u r g	-0.12964272
-1.3745569	o r g	-0.12964275
-1.3324834	i r g	-0.2396882
-1.8781345	a r g	-0.12964272
-1.0730224	e o g	-0.12964272
-1.5067426	d o g	-0.12964272
-1.3856103	g o g	-0.12964272
-1.3543661	i o g	-0.12964272
-1.521568	c o g	-0.12964272
-1.5344568	l o g	-0.12964275
-1.5655714	t o g	-0.12964272
-1.364325	' # g	-0.12964272
-1.1398615	e # g	-0.3750838
-1.2594163	u # g	-0.17037885
-1.2274058	r # g	-0.1767663
-1.2336576	, # g	-0.3798563
-1.1873018	d # g	-0.16331857
-1.2221036	g # g	-0.174259
-1.455376	m # g	-0.1879708
-1.0810553	i # g	-0.292755
-1.2651	n # g	-0.2365618
-1.199174	s # g	-0.27626634
-1.1398435	a # g	-0.12964272
-1.2892705	h # g	-0.15465166
-1.2509159	z # g	-0.12964272
-1.1103648	k # g	-0.17037885
-1.2276279	l # g	-0.21101269
-1.1405909	t # g	-0.5814003
-0.84636813	b # g	-0.12964272
-0.8456941	f # g	-0.18216191
-1.221199	. # g	-0.21409579
-1.3347509	) # g	-0.21101269
-1.0753347	= # g	-0.12964272
-1.0260025	" # g	-0.19982685
-1.253591	? # g	-0.12964272
-1.1736388	! # g	-0.12964272
-1.7284689	e d g	-0.12964272
-1.6233299	i d g	-0.12964272
-1.5375932	i g g	-0.12964272
-0.44443566	y g g	-0.12964272
-1.7604092	a m g	-0.12964272
-1.101109	ë m g	-0.12964272
-1.4938245	e i g	-0.2396882
-1.1758257	r i g	-0.18118921
-1.4061035	d i g	-0.12964272
-1.3333144	m i g	-0.2396882
-1.5614454	s i g	-0.12964272
-1.3668281	p i g	-0.12964272
-1.3603704	l i g	-0.12964275
-1.5688226	é i g	-0.12964272
-1.4551951	t i g	-0.12964275
-1.3169737	e n g	-0.30363226
-0.55015635	u n g	-0.42787266
-1.4803045	o n g	-0.12964272
-1.1289488	i n g	-0.1461543
-1.1183643	a n g	-0.42028385
-1.0385411	ä n g	-0.12964275
-0.4232391	p n g	-0.12964272
-0.16931392	é n g	-0.2456594
-0.4232391	ö n g	-0.12964272
-1.8619106	u s g	-0.12964275
-1.652736	r s g	-0.12964272
-1.397361	g s g	-0.12964272
-1.7518188	t s g	-0.12964272
-1.3503729	r a g	-0.18118921
-1.4560745	# a g	-0.36685604
-1.2453697	d a g	-0.12964272
-1.4930782	g a g	-0.12964272
-1.4763132	m a g	-0.12964272
-1.389678	i a g	-0.12964272
-1.449983	s a g	-0.12964272
-1.6082295	a a g	-0.12964272
-1.6502742	h a g	-0.12964272
-0.96719146	p a g	-0.19982685
-1.3303397	l a g	-0.19982685
-1.4831405	t a g	-0.12964272
-1.5191101	r ä g	-0.12964272
-2.0439796	c h g	-0.12964272
-0.7334393	( h g	-0.12964272
-1.7119688	o p g	-0.12964275
-0.7349218	j p g	-0.12964272
-0.4457651	/ c g	-0.12964272
-1.651341	c k g	-0.12964272
-1.7589674	e l g	-0.12964272
-1.701851	o l g	-0.12964272
-1.62444	i l g	-0.12964272
-1.6635836	a l g	-0.2396882
-1.7528173	l l g	-0.12964272
-1.8894869	e t g	-0.12964272
-1.7066787	r t g	-0.12964272
-1.8390648	s t g	-0.2396882
-1.7515112	t t g	-0.12964272
-0.9023512	s v g	-0.12964272
-1.8938457	# b g	-0.2396882
-1.6089665	# ( g	-0.12964275
-1.4241657	o f g	-0.12964272
-1.0993483	l f g	-0.12964272
-1.0216907	e . g	-0.12964272
-1.0586094	t y g	-0.12964272
-0.71081126	l | g	-0.12964272
-1.2457405	t | g	-0.12964272
-0.97032124	x | g	-0.12964272
-1.6190557	# " g	-0.12964272
-1.2456887	n - g	-0.12964272
-0.8425434	{ { g	-0.12964272
-0.43092078	m / g	-0.12964272
-0.19131255	# â g	-0.12964272
-2.070761	' ' m	-0.12964272
-1.3994895	d ' m	-0.17037885
-1.5300137	[ [ m	-0.12964272
-1.1056764	e e m	-0.22036237
-1.1609792	r e m	-0.174259
-1.4297228	# e m	-0.19347326
-1.1045569	d e m	-0.2726545
-1.136775	g e m	-0.2621652
-1.7311296	i e m	-0.12964272
-1.299881	n e m	-0.12964275
-1.158002	s e m	-0.18118921
-1.1432378	a e m	-0.12964272
-1.6218655	w e m	-0.12964272
-1.3751521	h e m	-0.12964272
-1.506694	z e m	-0.12964272
-1.5737886	k e m	-0.12964272
-1.3113165	l e m	-0.18907906
-1.3582009	t e m	-0.12964275
-1.5732193	b e m	-0.12964272
-0.4205319	5 e m	-0.12964272
-0.94203544	x e m	-0.12964272
-0.6411439	' u m	-0.12964272
-1.1712698	e u m	-0.12964272
-0.86687315	u u m	-0.12964272
-1.3306626	r u m	-0.12964272
-1.4118185	o u m	-0.12964272
-0.6295219	i u m	-0.12964272
-0.8654436	n u m	-0.2396882
-0.7856156	s u m	-0.18118921
-1.0783098	a u m	-0.12964272
-1.1858563	h u m	-0.12964272
-0.9451324	c u m	-0.12964272
-1.063694	k u m	-0.12964272
-1.2523123	l u m	-0.12964272
-0.97227234	t u m	-0.19982685
-0.7378262	v u m	-0.19982685
-1.6896708	e r m	-0.21533518
-1.6586902	u r m	-0.12964272
-1.8746895	o r m	-0.12964272
-1.3222543	a r m	-0.18118921
-1.181313	r o m	-0.19982685
-1.1982648	o o m	-0.12964272
-1.2252436	d o m	-0.2396882
-1.2405821	n o m	-0.12964272
-1.0378178	c o m	-0.19982685
-0.6408453	k o m	-0.2873092
-1.0546812	l o m	-0.19982685
-1.3001825	t o m	-0.12964272
-1.6098924	] ] m	-0.12964272
-1.2485788	e # m	-0.42071828
-1.0899267	u # m	-0.19982685
-1.2167348	r # m	-0.19982685
-1.1880236	o # m	-0.19982685
-1.2277714	, # m	-0.2449583
-1.3241669	d # m	-0.12964272
-1.3450595	g # m	-0.17037885
-1.5614023	m # m	-0.12964272
-1.4436407	i # m	-0.16331857
-1.4650543	n # m	-0.22511381
-1.366162	s # m	-0.17037885
-1.4404267	h # m	-0.12964272
-0.9157208	p # m	-0.2396882
-1.2380418	z # m	-0.12964272
-1.4461071	k # m	-0.12964272
-1.3467708	l # m	-0.21533518
-1.232452	t # m	-0.3871523
-1.1097964	f # m	-0.18118921
-1.3372425	. # m	-0.22511381
-1.1821592	) # m	-0.24102426
-1.4071491	" # m	-0.12964272
-1.3893307	: # m	-0.12964272
-1.0190758	- # m	-0.12964272
-0.6927863	3 # m	-0.12964272
-1.2388872	? # m	-0.12964272
-1.1617091	! # m	-0.12964272
-0.42254972	ל # m	-0.12964272
-1.6011609	r d m	-0.12964272
-2.31816	# g m	-0.12964272
-1.6563029	e m m	-0.12964272
-1.1135598	u m m	-0.21101269
-0.9922123	o m m	-0.18118921
-0.92666996	i m m	-0.17037885
-0.95979214	a m m	-0.12964272
-0.69099694	ä m m	-0.12964272
-0.64548117	ë m m	-0.3079227
-1.6824073	e i m	-0.12964275
-0.42816544	] i m	-0.12964272
-1.8323678	# i m	-0.12964272
-1.4484407	g i m	-0.12964272
-1.1622094	n i m	-0.19982685
-0.83970195	h i m	-0.21101269
-1.4950002	l i m	-0.12964272
-1.5513321	é i m	-0.12964272
-1.2749496	t i m	-0.19982685
-0.8549684	j i m	-0.12964272
-1.9805522	o n m	-0.12964272
-2.1439667	a n m	-0.12964272
-1.0824094	o s m	-0.18118921
-1.005592	g s m	-0.12964272
-1.9091434	i s m	-0.12964272
-1.7979186	s s m	-0.12964272
-1.670774	t s m	-0.12964272
-1.0806173	f s m	-0.12964272
-1.2870617	r a m	-0.12964275
-1.5494505	# a m	-0.18118921
-1.384786	d a m	-0.12964272
-1.0163444	g a m	-0.19982685
-1.556552	m a m	-0.12964272
