\data\
ngram 1=256
ngram 2=2478
ngram 3=10834
ngram 4=26331
ngram 5=44703

\1-grams:
-3.2281187	<unk>	0
0	<s>	-0.39172167
-2.2140145	</s>	0
-1.3891842	#	-0.9642953
-1.6686909	a	-0.913298
-1.8483164	|	-0.5505755
-2.3881218	+	-0.23459984
-2.0489504	<	-0.72901946
-1.8242754	b	-0.7180816
-1.7300366	i	-0.85964984
-1.8737667	g	-0.6537867
-2.43322	>	-0.3081379
-1.7300366	r	-0.7941824
-1.7116076	n	-0.7005388
-1.6853522	s	-0.9089967
-1.8870739	-	-0.4083584
-2.1354966	w	-0.41652095
-1.6939288	'	-0.50901437
-2.540486	[	-0.27664664
-1.7798514	v	-0.7870177
-1.7207243	l	-0.7506428
-1.7592349	t	-0.8124684
-1.7592349	o	-0.8213265
-1.739553	d	-0.7215464
-1.9768184	]	-0.62600094
-1.7026782	p	-0.7030136
-1.9149778	ē	-0.70463705
-1.8870739	/	-0.35271573
-1.9149778	ā	-0.77077
-1.7905388	k	-0.7496466
-1.739553	e	-0.8122338
-1.9008018	f	-0.61951995
-1.8361295	m	-0.6958591
-1.8870739	j	-0.7236233
-2.160125	7	-0.36502638
-2.0900712	8	-0.45293236
-2.1354966	0	-0.46613276
-1.7207243	.	-0.6221145
-2.160125	5	-0.4033544
-2.0113885	3	-0.400473
-1.8014957	c	-0.6114502
-2.0900712	ū	-0.4341557
-2.3881218	x	-0.28328687
-2.0900712	6	-0.40284532
-1.7798514	u	-0.7674433
-2.0489504	š	-0.54516363
-1.7798514	,	-0.8732426
-1.9296321	z	-0.62372893
-2.3099315	ģ	-0.50546205
-2.0690243	ī	-0.64610356
-2.3472693	ļ	-0.49743015
-2.6060295	(	-0.25382474
-1.8242754	1	-0.5641044
-1.9008018	)	-0.8933828
-1.8361295	2	-0.53194726
-1.9296321	h	-0.5643743
-2.2436938	ņ	-0.54800665
-2.1862345	_	-0.42259327
-2.3881218	č	-0.35948986
-2.1121902	=	-0.38728958
-2.160125	:	-0.51316655
-2.4835498	ķ	-0.36540845
-2.6832535	{	-0.25274894
-2.1862345	9	-0.4025782
-2.0900712	4	-0.38551968
-1.8737667	"	-0.50473607
-2.0113885	y	-0.33180547
-2.3099315	ž	-0.44333065
-3.0639646	%	-0.20388696
-2.6832535	!	-0.23993663
-1.9296321	}	-0.7074071
-2.2140145	;	-0.53629297
-3.112489	*	-0.20388696
-3.0639646	ê	-0.20388696
-3.112489	ك	-0.20388696
-3.0639646	أ	-0.20388696
-2.777244	س	-0.23993663
-2.3099315	ا	-0.35556337
-2.6060295	ل	-0.22015432
-3.0639646	ع	-0.32248354
-2.777244	م	-0.20388696
-3.112489	ü	-0.20388696
-3.0014899	п	-0.20388696
-2.3881218	а	-0.27124247
-3.112489	ф	-0.20388696
-2.6832535	у	-0.23063979
-2.6832535	т	-0.23993663
-2.6832535	б	-0.23459984
-2.540486	о	-0.2526503
-2.6832535	л	-0.2475201
-2.777244	е	-0.23459984
-2.8973606	с	-0.20388696
-3.0639646	ь	-0.20388696
-2.540486	в	-0.28599018
-3.112489	ъ	-0.20388696
-2.4835498	р	-0.2792518
-2.6832535	н	-0.23063979
-3.0014899	ফ	-0.20388696
-3.112489	ি	-0.20388696
-3.112489	া	-0.20388696
-3.112489	ó	-0.20388696
-2.8973606	ج	-0.20388696
-2.6832535	ی	-0.3302075
-3.0014899	ه	-0.32248354
-2.6832535	ن	-0.31225732
-3.0639646	ف	-0.25914946
-3.112489	ވ	-0.20388696
-3.112489	ޯ	-0.20388696
-3.112489	ލ	-0.20388696
-3.0639646	ް	-0.2792518
-3.112489	ޑ	-0.20388696
-3.112489	ކ	-0.20388696
-3.112489	ަ	-0.20388696
-3.112489	ޕ	-0.20388696
-3.112489	κ	-0.20388696
-3.112489	ύ	-0.20388696
-3.112489	π	-0.20388696
-3.112489	ε	-0.20388696
-3.0014899	λ	-0.20388696
-3.112489	ο	-0.20388696
-2.8973606	و	-0.25914946
-3.112489	ت	-0.20388696
-3.0639646	ب	-0.20388696
-2.8973606	á	-0.20388696
-3.0639646	फ	-0.25914946
-3.112489	ी	-0.20388696
-3.112489	ा	-0.20388696
-3.0014899	व	-0.20388696
-3.0014899	ि	-0.20388696
-3.112489	श	-0.20388696
-3.112489	्	-0.20388696
-3.0639646	ա	-0.20388696
-3.112489	շ	-0.20388696
-3.112489	խ	-0.20388696
-3.112489	ր	-0.20388696
-3.112489	հ	-0.20388696
-3.112489	ի	-0.20388696
-3.112489	ռ	-0.20388696
-3.112489	ջ	-0.20388696
-3.0014899	ն	-0.20388696
-3.0014899	ո	-0.32248354
-3.112489	ւ	-0.20388696
-3.112489	թ	-0.20388696
-3.112489	յ	-0.20388696
-3.112489	í	-0.20388696
-3.0014899	მ	-0.20388696
-3.112489	ს	-0.20388696
-3.0014899	ო	-0.20388696
-3.112489	ფ	-0.20388696
-3.112489	ლ	-0.20388696
-3.0639646	ი	-0.2792518
-3.112489	ჩ	-0.20388696
-3.112489	ე	-0.20388696
-3.112489	პ	-0.20388696
-3.112489	ნ	-0.20388696
-3.112489	ა	-0.20388696
-3.112489	ტ	-0.20388696
-3.0014899	î	-0.20388696
-3.0639646	д	-0.20388696
-3.112489	ല	-0.20388696
-3.112489	ോ	-0.20388696
-3.0014899	ക	-0.20388696
-3.0014899	പ	-0.32248354
-3.112489	്	-0.20388696
-3.0639646	ы	-0.2792518
-3.0639646	х	-0.20388696
-3.0639646	ө	-0.20388696
-3.0014899	м	-0.20388696
-3.0639646	г	-0.32248354
-2.6060295	и	-0.31225732
-3.0014899	й	-0.20388696
-3.112489	э	-0.20388696
-3.0014899	ш	-0.20388696
-3.0014899	ဖ	-0.20388696
-3.112489	ီ	-0.20388696
-3.112489	ာ	-0.20388696
-3.112489	क	-0.20388696
-3.112489	प	-0.20388696
-3.112489	ś	-0.20388696
-3.112489	ż	-0.20388696
-2.777244	ر	-0.2792518
-3.112489	ڈ	-0.20388696
-3.0014899	ë	-0.20388696
-3.112489	உ	-0.20388696
-3.0014899	ல	-0.20388696
-3.0639646	க	-0.20388696
-3.0639646	்	-0.20388696
-3.112489	ோ	-0.20388696
-3.0014899	ப	-0.20388696
-3.112489	ை	-0.20388696
-3.0639646	ч	-0.20388696
-2.8973606	я	-0.29629794
-2.8973606	د	-0.20388696
-3.112489	ۇ	-0.20388696
-2.3099315	ي	-0.54473233
-3.0014899	і	-0.20388696
-3.112489	ế	-0.20388696
-3.112489	ớ	-0.20388696
-3.0014899	ẹ	-0.20388696
-3.112489	̀	-0.20388696
-3.0014899	à	-0.20388696
-3.0639646	é	-0.20388696
-2.6832535	–	-0.23063979
-3.0014899	ö	-0.20388696
-3.0639646	@	-0.2792518
-2.43322	q	-0.25914952
-3.112489	إ	-0.20388696
-2.4835498	&	-0.3297045
-3.0014899	°	-0.20388696
-3.0639646	?	-0.2792518
-3.112489	“	-0.20388696
-2.777244	”	-0.39900354
-3.112489	„	-0.20388696
-3.112489	ச	-0.20388696
-3.112489	ெ	-0.20388696
-3.112489	வ	-0.20388696
-3.112489	ு	-0.20388696
-3.112489	த	-0.20388696
-3.112489	ю	-0.20388696
-3.0014899	з	-0.20388696
-3.0014899	‘	-0.32248354
-3.112489	®	-0.20388696
-3.0014899	ʿ	-0.32248354
-3.112489	ş	-0.20388696
-3.112489	ḩ	-0.20388696
-3.0014899	غ	-0.20388696
-3.0014899	ة	-0.32248354
-3.112489	ṭ	-0.20388696
-3.112489	ḫ	-0.20388696
-2.8973606	ح	-0.2475201
-3.0014899	ء	-0.20388696
-3.112489	‎	-0.20388696
-3.112489	ث	-0.20388696
-3.0639646	ص	-0.20388696
-3.112489	ش	-0.20388696
-3.0014899	ق	-0.20388696
-3.112489	خ	-0.20388696
-3.112489	ز	-0.20388696
-3.112489	ط	-0.20388696
-3.112489	χ	-0.20388696
-3.0014899	ˁ	-0.32248354
-3.0014899	ˠ	-0.32248354
-3.0014899	‹	-0.20388696
-3.0014899	›	-0.20388696
-3.112489	ḍ	-0.20388696
-3.112489	ʒ	-0.20388696
-3.112489	ħ	-0.20388696
-3.112489	ḥ	-0.20388696
-3.112489	ẖ	-0.20388696
-3.112489	ả	-0.20388696
-3.112489	↔	-0.20388696
-3.112489	↓	-0.20388696
-3.0014899	↑	-0.2792518
-3.112489	ё	-0.20388696
-3.0014899	к	-0.20388696
-3.112489	—	-0.20388696

\2-grams:
-2.457572	a </s>	0
-2.493195	| </s>	0
-2.5867279	n </s>	0
-2.2329853	s </s>	0
-2.716328	t </s>	0
-2.3030977	ā </s>	0
-2.7387385	e </s>	0
-2.567723	m </s>	0
-2.6540158	u </s>	0
-1.1807188	س </s>	0
-1.5223981	а </s>	0
-1.1037316	с </s>	0
-1.0110558	й </s>	0
-0.8903928	் </s>	0
-0.7186198	à </s>	0
-0.4219515	ả </s>	0
-1.50103	<s> #	-0.1857429
-2.3217902	# #	-0.1857429
-1.2970593	a #	-0.7751899
-1.4709255	| #	-0.25280264
-1.0058961	+ #	-0.1857429
-1.6598722	b #	-0.21080574
-1.1921127	i #	-0.7910216
-1.3765517	g #	-0.26949733
-1.4655743	r #	-0.34758782
-1.3634031	n #	-0.28494325
-1.214611	s #	-0.8212132
-1.2658043	- #	-0.23195238
-1.1260356	w #	-0.2702901
-1.2812803	' #	-0.21263555
-1.6864065	v #	-0.21080574
-1.449185	l #	-0.29442295
-1.2597505	t #	-0.6084369
-1.2526978	o #	-0.5834497
-1.2457283	d #	-0.30822048
-1.4103813	p #	-0.32462543
-1.0762563	ē #	-0.34402677
-1.5078224	/ #	-0.1857429
-1.1360985	ā #	-0.68503714
-1.3515605	k #	-0.30757245
-1.2995992	e #	-0.53208244
-1.4549708	f #	-0.1857429
-1.268376	m #	-0.4208904
-1.3991808	j #	-0.25005442
-1.5651437	7 #	-0.1857429
-0.87417436	8 #	-0.26755315
-1.2604158	0 #	-0.21824045
-0.7012	. #	-0.74855185
-0.95832705	5 #	-0.26833338
-0.89927816	3 #	-0.25336787
-1.3213063	c #	-0.27957466
-1.4718872	ū #	-0.1857429
-0.8240476	x #	-0.21824045
-1.1853284	6 #	-0.22390126
-1.0917071	u #	-0.8022409
-1.2003872	š #	-0.30615014
-0.102994874	, #	-0.74024826
-1.3008611	z #	-0.2987636
-1.3633212	ī #	-0.2869217
-1.3202056	ļ #	-0.1857429
-1.063401	1 #	-0.25535908
-0.6084299	) #	-0.4481336
-0.82354015	2 #	-0.2673078
-1.3486688	h #	-0.2094499
-1.0087368	č #	-0.23195238
-1.661659	= #	-0.1857429
-0.27105412	: #	-0.30085397
-1.4203321	9 #	-0.1857429
-0.8271987	4 #	-0.25900766
-0.5435308	" #	-0.34170586
-1.0405784	y #	-0.1857429
-1.2766885	ž #	-0.26573807
-0.92376393	% #	-0.1857429
-1.0876555	! #	-0.1857429
-0.23302613	; #	-0.2561071
-0.8227204	ê #	-0.1857429
-0.70291936	س #	-0.1857429
-1.0987711	ا #	-0.1857429
-1.2724192	ل #	-0.1857429
-1.140526	م #	-0.1857429
-0.8652288	а #	-0.1857429
-0.8096043	у #	-0.1857429
-1.1908344	о #	-0.1857429
-0.8931192	л #	-0.1857429
-1.1117995	е #	-0.1857429
-1.1497759	н #	-0.1857429
-0.3977366	া #	-0.1857429
-0.4078243	ی #	-0.24431607
-0.43079448	ް #	-0.1857429
-0.3977366	ο #	-0.1857429
-0.3977366	ा #	-0.1857429
-0.8227204	व #	-0.1857429
-0.3977366	ի #	-0.1857429
-0.67191595	ն #	-0.1857429
-0.3977366	í #	-0.1857429
-0.8227204	ო #	-0.1857429
-0.8346223	ი #	-0.1857429
-0.67191595	î #	-0.1857429
-0.67191595	് #	-0.1857429
-0.43079448	ы #	-0.1857429
-0.8227204	х #	-0.1857429
-0.92376393	й #	-0.1857429
-0.3977366	ာ #	-0.1857429
-0.3977366	प #	-0.1857429
-0.3977366	ڈ #	-0.1857429
-0.3977366	ை #	-0.1857429
-0.8227204	ч #	-0.1857429
-0.3752159	я #	-0.1857429
-0.3977366	ế #	-0.1857429
-0.67191595	ẹ #	-0.1857429
-0.8227204	é #	-0.1857429
-0.67191595	° #	-0.1857429
-0.8346223	? #	-0.1857429
-0.41094038	” #	-0.1857429
-0.3977366	® #	-0.1857429
-0.26478216	ة #	-0.1857429
-0.67191595	ء #	-0.1857429
-0.8346223	↑ #	-0.1857429
-1.454723	# a	-0.7983493
-1.7204617	a a	-0.2993183
-1.3945616	| a	-0.3474594
-1.4060942	+ a	-0.1857429
-0.9375156	b a	-0.38264963
-1.6862915	i a	-0.26339033
-0.89978224	g a	-0.4685576
-1.6661987	> a	-0.1857429
-0.9987669	r a	-0.5785007
-1.1626971	n a	-0.47168988
-1.2319564	s a	-0.48787206
-1.8574818	- a	-0.1857429
-1.171423	w a	-0.1857429
-1.8047059	' a	-0.1857429
-1.650512	[ a	-0.1857429
-0.85257566	v a	-0.6002286
-0.9294643	l a	-0.56719416
-1.152877	t a	-0.5705321
-2.1098444	o a	-0.23195238
-1.0548683	d a	-0.5131359
-0.96695167	p a	-0.41992068
-1.3802799	/ a	-0.24431607
-2.297242	ā a	-0.1857429
-0.99282086	k a	-0.48426652
-1.5857981	e a	-0.27908462
-1.0521833	f a	-0.23430458
-0.97831243	m a	-0.5090756
-0.93336576	j a	-0.41614836
-1.6423899	. a	-0.23195238
-1.1120119	c a	-0.26157418
-1.6099471	x a	-0.1857429
-2.0609977	u a	-0.1857429
-0.80014485	š a	-0.5796348
-1.0187604	z a	-0.28558615
-0.76418555	ļ a	-0.3444709
-1.4464096	( a	-0.22390126
-0.8467108	h a	-0.32343024
-0.8747721	ņ a	-0.35401893
-1.2628549	_ a	-0.1857429
-1.2091405	č a	-0.1857429
-1.1487474	= a	-0.22596233
-1.6780101	: a	-0.1857429
-1.2100332	ķ a	-0.26573807
-1.5785108	{ a	-0.1857429
-1.646215	" a	-0.24431607
-1.0858841	y a	-0.1857429
-0.7826456	ž a	-0.26145837
-1.4794337	! a	-0.1857429
-1.2200944	* a	-0.1857429
-1.0036749	q a	-0.1857429
-1.3555868	& a	-0.1857429
-0.27221122	‘ a	-0.31203902
-0.27221122	ʿ a	-0.31203902
-0.41108507	ʒ a	-0.1857429
-1.5124669	# |	-0.4463234
-1.7411841	a |	-0.22712456
-1.299123	| |	-0.26397863
-2.3242981	b |	-0.1857429
-1.8715547	i |	-0.21080574
-1.900357	g |	-0.24186663
-2.1612425	r |	-0.1857429
-2.1761754	n |	-0.1857429
-1.5471442	s |	-0.3047651
-2.1179347	' |	-0.1857429
-2.1083324	l |	-0.1857429
-2.1950936	t |	-0.21824045
-2.3819284	d |	-0.1857429
-1.8873378	] |	-0.1857429
-2.0314536	p |	-0.1857429
-2.2800004	ē |	-0.1857429
-2.07408	ā |	-0.1857429
-1.7505789	e |	-0.26091033
-1.5638441	8 |	-0.1857429
-2.0407	0 |	-0.1857429
-2.0693917	. |	-0.1857429
-1.8778485	5 |	-0.1857429
-1.8865422	3 |	-0.1857429
-1.6826333	x |	-0.1857429
-1.8646196	š |	-0.1857429
-1.704558	1 |	-0.1857429
-1.1047331	) |	-0.2223088
-1.3273106	2 |	-0.22390126
-1.8723332	9 |	-0.1857429
-1.8751717	4 |	-0.1857429
-1.3967147	" |	-0.25133994
-0.9891341	% |	-0.1857429
-1.9069895	} |	-0.1857429
-0.41619843	↔ |	-0.1857429
-0.41619843	↓ |	-0.1857429
-0.44750923	↑ |	-0.31203902
-3.1081145	# +	-0.1857429
-2.2734609	| +	-0.1857429
-2.7602196	r +	-0.1857429
-2.6600046	n +	-0.1857429
-1.996404	w +	-0.1857429
-2.573215	v +	-0.1857429
-2.7079768	l +	-0.1857429
-2.8198502	e +	-0.1857429
-2.6384172	m +	-0.1857429
-1.8758183	0 +	-0.1857429
-2.502804	c +	-0.1857429
-2.5402143	a <	-0.26573807
-2.3971462	| <	-0.1857429
-1.4952967	+ <	-0.1857429
-2.6985369	i <	-0.1857429
-1.2877371	> <	-0.26573807
-2.3726864	s <	-0.1857429
-1.5675328	- <	-0.30257347
-2.2220635	' <	-0.1857429
-1.5377427	] <	-0.1857429
-2.0659404	/ <	-0.1857429
-2.2631948	ā <	-0.31203902
-2.2272072	m <	-0.1857429
-1.8708978	7 <	-0.1857429
-1.4044552	. <	-0.5056141
-1.962605	3 <	-0.1857429
-1.6376368	, <	-0.31203902
-2.211333	1 <	-0.1857429
-1.0381051	) <	-0.4786647
-2.1496522	2 <	-0.1857429
-1.7657104	: <	-0.1857429
-1.9519236	4 <	-0.1857429
-2.1868122	" <	-0.1857429
-1.9446515	} <	-0.1857429
-1.6763773	<s> b	-0.1857429
-1.5508337	# b	-0.79279524
-1.631263	a b	-0.39996278
-1.646685	| b	-0.34182504
-1.4498453	+ b	-0.1857429
-0.41945142	< b	-0.84432137
-1.7710614	b b	-0.24431607
-1.5875729	i b	-0.2530108
-2.2572725	g b	-0.1857429
-1.8048279	r b	-0.28663126
-2.0525658	n b	-0.23195238
-2.3022542	s b	-0.21404277
-1.944522	- b	-0.1857429
-2.1039193	' b	-0.1857429
-1.7224829	[ b	-0.1857429
-2.1004176	l b	-0.23195238
-1.9302891	t b	-0.22507782
-1.5756907	o b	-0.30812827
-2.3661814	d b	-0.1857429
-2.3480875	p b	-0.1857429
-2.2670116	ē b	-0.1857429
-1.5776035	/ b	-0.28367054
-1.7935138	ā b	-0.26713362
-2.3676174	k b	-0.1857429
-1.645883	e b	-0.26137117
-1.600677	m b	-0.29821664
-1.6728129	. b	-0.23202454
-2.0151849	c b	-0.1857429
-1.913436	ū b	-0.1857429
-1.5297332	u b	-0.28338778
-1.954463	z b	-0.24431607
-1.0489697	ī b	-0.71308863
-1.7729053	( b	-0.1857429
-1.6129318	_ b	-0.1857429
-1.555773	= b	-0.24431607
-1.642351	{ b	-0.1857429
-1.821996	" b	-0.24431607
-0.87205243	“ b	-0.1857429
-0.565923	<s> i	-0.7285422
-1.5447881	# i	-0.80679274
-1.3532976	a i	-0.5315777
-1.6274375	| i	-0.30826145
-1.0300635	b i	-0.39053088
-2.1019807	i i	-0.1857429
-1.4307024	g i	-0.2919752
-1.0540235	r i	-0.5479616
-0.994996	n i	-0.46401387
-1.3509308	s i	-0.42870504
-0.7448702	w i	-0.3467344
-2.0459094	' i	-0.1857429
-1.6805434	[ i	-0.1857429
-0.83772004	v i	-0.55995715
-1.0744896	l i	-0.566417
-1.1555718	t i	-0.5414519
-1.9929415	o i	-0.24431607
-1.0205548	d i	-0.46795607
-1.8535014	] i	-0.1857429
-1.080632	p i	-0.4604591
-1.1864358	/ i	-0.28376535
-2.3405666	ā i	-0.1857429
-1.3078938	k i	-0.41037506
-1.3764611	e i	-0.3488775
-0.86472905	f i	-0.36526218
-1.0918933	m i	-0.45991588
-1.0950972	j i	-0.39080673
-1.9099294	. i	-0.1857429
-0.97820616	c i	-0.4284167
-1.6367877	x i	-0.1857429
-1.6830599	u i	-0.21080574
-1.322944	š i	-0.380251
-0.83725613	z i	-0.44986278
-0.4286741	ģ i	-0.30637023
-0.89368516	ļ i	-0.35028774
-1.723683	( i	-0.1857429
-1.1184052	h i	-0.21599665
-0.87738335	ņ i	-0.40095896
-1.2714317	_ i	-0.24431607
-1.053998	č i	-0.24431607
-0.8594975	ķ i	-0.24857506
-1.6052942	{ i	-0.1857429
-1.0338374	ž i	-0.38551623
-1.5012684	! i	-0.1857429
-0.41306645	ớ i	-0.1857429
-0.44467837	? i	-0.31203902
-0.8647672	“ i	-0.1857429
-1.5974162	# g	-0.6261643
-1.6349405	a g	-0.36543626
-1.6555212	| g	-0.22390126
-1.4615083	+ g	-0.1857429
-2.0848422	b g	-0.1857429
-1.6275331	i g	-0.29539865
-1.9019592	r g	-0.2947042
-1.7995781	n g	-0.25575918
-2.4317596	s g	-0.26573807
-2.1324177	' g	-0.1857429
-1.742507	[ g	-0.1857429
-2.1085098	v g	-0.1857429
-1.9610424	l g	-0.21761495
-2.517082	t g	-0.1857429
-1.5796912	o g	-0.3292399
-2.398268	d g	-0.1857429
-2.0389855	p g	-0.1857429
-2.0226915	ē g	-0.23195238
-1.9762616	/ g	-0.1857429
-2.081185	ā g	-0.26573807
-2.0305243	k g	-0.26573807
-1.6991171	e g	-0.31429836
-2.3799772	m g	-0.1857429
-1.3929302	. g	-0.29767215
-1.8670844	u g	-0.22754239
-2.1397483	š g	-0.1857429
-1.8322104	z g	-0.1857429
-1.0160152	ī g	-0.7285422
-1.5047746	( g	-0.26573807
-2.145822	h g	-0.1857429
-1.4725424	_ g	-0.30257347
-1.9769496	= g	-0.1857429
-1.6598933	{ g	-0.1857429
-0.70842034	à g	-0.1857429
-2.8732855	# >	-0.1857429
-2.5196536	g >	-0.1857429
-2.724161	l >	-0.1857429
-2.810019	t >	-0.1857429
-2.6482797	p >	-0.1857429
-2.203249	/ >	-0.1857429
-2.8380628	e >	-0.1857429
-2.3445575	f >	-0.1857429
-2.2561922	2 >	-0.1857429
-1.569763	" >	-0.2702901
-1.6470132	<s> r	-0.1857429
-1.5877357	# r	-0.7539984
-1.2365294	a r	-0.57639474
-1.4493656	| r	-0.30683246
-0.56825566	< r	-0.8668449
-0.9604749	b r	-0.4999512
-1.3691329	i r	-0.29717895
-1.074934	g r	-0.5068547
-1.6951203	> r	-0.1857429
-1.979083	r r	-0.23195238
-2.0184631	n r	-0.1857429
-2.3617864	s r	-0.1857429
-1.3414465	- r	-0.2702901
-1.5092202	w r	-0.31203902
-2.0459094	' r	-0.1857429
-1.6805434	[ r	-0.1857429
-2.2972198	v r	-0.1857429
-1.7340276	l r	-0.22390126
-1.2876239	t r	-0.6209654
-1.1081256	o r	-0.43796498
-1.3882487	d r	-0.38546354
-1.2618908	p r	-0.50073904
-1.0652446	ē r	-0.36214432
-1.5519054	/ r	-0.26573807
-1.4060552	ā r	-0.36247158
-1.271281	k r	-0.5059246
-1.198909	e r	-0.49665365
-1.0555184	f r	-0.36033496
-2.1036172	m r	-0.1857429
-1.7114832	c r	-0.1857429
-1.2729342	ū r	-0.27685884
-1.2578325	u r	-0.34166566
-1.8261468	š r	-0.1857429
-1.9219323	z r	-0.27685884
-1.3399626	ī r	-0.27538776
-1.8517748	ļ r	-0.1857429
-1.723683	( r	-0.1857429
-1.5315367	h r	-0.1857429
-1.8624194	_ r	-0.1857429
-1.5331247	= r	-0.1857429
-1.7904239	" r	-0.1857429
-1.3899655	y r	-0.1857429
-1.4994106	ž r	-0.1857429
-0.8647672	ê r	-0.1857429
-0.70120025	ë r	-0.1857429
-1.3688076	& r	-0.1857429
-0.70120025	„ r	-0.1857429
-1.1425493	<s> n	-0.30257347
-1.5715216	# n	-0.8707506
-1.3871078	a n	-0.5178592
-1.6232736	| n	-0.263169
-1.6345873	b n	-0.1857429
-1.2273252	i n	-0.5472036
-1.979757	g n	-0.1857429
-1.6866586	> n	-0.1857429
-1.6546177	r n	-0.4022563
-1.7677505	n n	-0.25336787
-1.7625821	s n	-0.33166766
-1.8828566	- n	-0.1857429
-1.7969612	w n	-0.1857429
-2.0340066	' n	-0.1857429
-1.671749	[ n	-0.1857429
-1.9300817	v n	-0.30257347
-2.059291	l n	-0.23951909
-1.5508057	t n	-0.4621942
-1.2558371	o n	-0.4570666
-1.6655338	d n	-0.24024136
-1.7342854	p n	-0.1857429
-1.2713988	ē n	-0.25944537
-1.666269	/ n	-0.31203902
-1.3286871	ā n	-0.43796504
-1.8318679	k n	-0.23195238
-1.198056	e n	-0.52227104
-1.8488474	m n	-0.23195238
-2.0098538	. n	-0.31203902
-2.16155	c n	-0.1857429
-1.2705228	ū n	-0.22390126
-1.2328315	u n	-0.3850575
-1.8195038	š n	-0.1857429
-1.6317149	z n	-0.25336787
-1.2732526	ī n	-0.3655644
-1.713463	( n	-0.1857429
-1.6928865	h n	-0.24431607
-1.4440074	_ n	-0.30257347
-1.6550515	= n	-0.1857429
-2.0093908	" n	-0.1857429
-1.7814119	y n	-0.1857429
-1.798057	ž n	-0.1857429
-0.41249943	ü n	-0.1857429
-0.41249943	ó n	-0.1857429
-0.97545624	á n	-0.1857429
-0.41249943	ż n	-0.1857429
-0.7001	ö n	-0.1857429
-1.3775935	q n	-0.1857429
-0.47278708	& n	-0.52442217
-0.41249943	ṭ n	-0.1857429
-1.6315188	<s> s	-0.1857429
-1.4448427	# s	-0.85013974
-1.3678725	a s	-0.5653852
-1.3182765	| s	-0.39166138
-1.4113281	+ s	-0.1857429
-1.4819059	< s	-0.31203902
-1.2970983	b s	-0.2797628
-1.3267918	i s	-0.5385069
-1.4254911	g s	-0.32559416
-1.6742674	> s	-0.1857429
-1.4019105	r s	-0.40306884
-1.405719	n s	-0.3341969
-1.5652871	s s	-0.34149215
-1.2143095	- s	-0.23195238
-1.4985056	w s	-0.21404277
-1.6943355	' s	-0.20823336
-1.6588826	[ s	-0.1857429
-1.5530399	v s	-0.35401893
-1.5954021	l s	-0.30826145
-1.2850146	t s	-0.476807
-1.1741488	o s	-0.51248175
-1.3450845	d s	-0.31643012
-1.8389515	] s	-0.1857429
-1.5722691	p s	-0.25257012
-1.3257495	ē s	-0.3459497
-1.2704506	/ s	-0.24024136
-1.2065033	ā s	-0.57543975
-1.3444189	k s	-0.34708098
-1.2665509	e s	-0.47371513
-1.3985847	f s	-0.36720014
-1.377104	m s	-0.33940867
-1.442817	j s	-0.29240897
-1.5607898	. s	-0.21824045
-1.8081807	3 s	-0.1857429
-1.7005881	c s	-0.24431607
-0.9679637	ū s	-0.25944537
-1.0933844	u s	-0.53023994
-1.4095998	š s	-0.23202454
-1.280546	z s	-0.23778696
-1.1203413	ī s	-0.41865987
-1.6985701	( s	-0.1857429
-1.7318497	2 s	-0.31203902
-1.8118254	h s	-0.1857429
-1.2652881	_ s	-0.24431607
-1.8689334	= s	-0.1857429
-1.6831639	: s	-0.1857429
-1.5859962	{ s	-0.1857429
-1.992902	" s	-0.1857429
-1.7863175	ž s	-0.1857429
-1.4855609	! s	-0.1857429
-1.2293897	– s	-0.1857429
-1.3593231	& s	-0.1857429
-2.6295803	# -	-0.1857429
-2.1110775	a -	-0.20823336
-2.5918448	i -	-0.1857429
-2.4999027	r -	-0.1857429
-2.0727367	n -	-0.23195238
-2.4376397	s -	-0.1857429
-1.9757346	- -	-0.1857429
-2.1121998	v -	-0.1857429
-1.9638968	l -	-0.21824045
-2.0548954	t -	-0.1857429
-2.3082068	o -	-0.1857429
-2.1843483	d -	-0.1857429
-2.3886232	p -	-0.1857429
-1.9836907	/ -	-0.1857429
-2.5402927	e -	-0.1857429
-2.2368722	j -	-0.1857429
-1.8180687	7 -	-0.1857429
-1.9016193	8 -	-0.1857429
-2.0609038	0 -	-0.1857429
-2.0843732	. -	-0.1857429
-2.2745798	c -	-0.1857429
-1.6960248	x -	-0.1857429
-1.6036804	6 -	-0.1857429
-2.4697936	u -	-0.1857429
-2.238071	z -	-0.1857429
-2.1397777	1 -	-0.1857429
-2.0824544	2 -	-0.1857429
-2.1525593	h -	-0.1857429
-1.6125869	č -	-0.1857429
-1.4141177	9 -	-0.24431607
-1.4270492	4 -	-0.1857429
-1.8685592	y -	-0.1857429
-1.548536	! -	-0.1857429
-2.1190884	# w	-0.44433528
-2.2721314	a w	-0.1857429
-2.0732238	| w	-0.26573807
-2.7498257	i w	-0.1857429
-2.5296054	s w	-0.1857429
-1.7381848	- w	-0.1857429
-1.2077901	w w	-0.23195238
-2.2598693	' w	-0.1857429
-2.676112	t w	-0.1857429
-1.8505176	o w	-0.21404277
-2.545513	d w	-0.1857429
-1.6374301	/ w	-0.23195238
-2.3089576	e w	-0.1857429
-2.615301	u w	-0.1857429
-2.352976	z w	-0.1857429
-2.093467	= w	-0.1857429
-1.6130817	y w	-0.31203902
-1.6015832	! w	-0.1857429
-0.42108366	ś w	-0.1857429
-0.94943815	<s> '	-0.4275122
-1.5421281	# '	-1.316814
-1.619522	a '	-0.753493
-1.6978575	| '	-0.52442217
-2.2293174	b '	-0.1857429
-1.9126267	i '	-0.6036035
-1.972395	g '	-0.1857429
-1.6783587	> '	-0.1857429
-2.2026782	r '	-0.31203902
-2.0041254	n '	-0.30257347
-1.5076147	s '	-1.0295722
-1.7886248	w '	-0.1857429
-0.39859205	' '	-0.5212862
-2.2750971	v '	-0.1857429
-2.3164837	l '	-0.1857429
-2.2321014	t '	-0.1857429
-2.2208266	o '	-0.31203902
-2.275761	d '	-0.1857429
-1.8418227	] '	-0.1857429
-2.19091	ē '	-0.1857429
-2.0242023	ā '	-0.30257347
-1.8546526	e '	-0.6036035
-1.8438904	m '	-0.4275122
-1.3023866	7 '	-0.26573807
-1.8209542	8 '	-0.1857429
-1.4376869	0 '	-0.36720014
-1.8965374	. '	-0.30257347
-1.3902341	5 '	-0.26573807
-1.2284576	3 '	-0.24431607
-2.149285	c '	-0.1857429
-1.849664	ū '	-0.1857429
-1.6212476	x '	-0.1857429
-1.2431836	6 '	-0.2702901
-1.6773255	u '	-0.6705502
-2.0360363	š '	-0.1857429
-1.9088618	ī '	-0.31203902
-1.7034779	( '	-0.1857429
-1.3851258	1 '	-0.30633497
-1.1827854	) '	-0.6036035
-1.2164731	2 '	-0.36952025
-1.6881996	h '	-0.30257347
-1.874279	= '	-0.1857429
-1.685764	: '	-0.1857429
-0.9833339	9 '	-0.3981406
-1.8007524	4 '	-0.1857429
-1.4934208	" '	-0.4275122
-1.7716522	y '	-0.1857429
-1.4886572	! '	-0.1857429
-1.8672401	} '	-0.1857429
-0.9733896	й '	-0.1857429
-1.0066043	q '	-0.31203902
-2.1427283	| [	-0.30257347
-1.1079705	> [	-0.30633497
-2.384877	' [	-0.1857429
-0.77902895	[ [	-0.34637317
-2.2288334	/ [	-0.1857429
-1.9947811	( [	-0.1857429
-0.98325944	= [	-0.7796947
-2.336237	" [	-0.1857429
-1.6630809	<s> v	-0.1857429
-1.4287854	# v	-1.1604369
-1.6603122	a v	-0.34510407
-1.638025	| v	-0.26904386
-2.0533855	b v	-0.1857429
-1.8006535	i v	-0.30002773
-2.2300124	g v	-0.1857429
-1.7170253	> v	-0.1857429
-1.7254993	r v	-0.41800636
-1.6952791	n v	-0.25710896
-1.7239151	s v	-0.34568542
-1.6595978	- v	-0.1857429
-2.0771763	' v	-0.1857429
-1.7033415	[ v	-0.1857429
-2.3265586	v v	-0.1857429
-1.461702	l v	-0.2834379
-1.763832	t v	-0.39226836
-1.6200842	o v	-0.34531835
-1.8767309	d v	-0.1857429
-2.1230173	p v	-0.1857429
-1.8614712	ē v	-0.1857429
-1.9210033	/ v	-0.1857429
-1.6219683	ā v	-0.26833338
-1.7315657	k v	-0.25710896
-1.6411294	e v	-0.34384686
-2.1266246	m v	-0.1857429
-1.9032294	j v	-0.1857429
-1.8927983	ū v	-0.1857429
-1.7627884	u v	-0.3066861
-1.8432133	š v	-0.1857429
-1.5247314	z v	-0.33624762
-1.5165247	ī v	-0.3706854
-1.8720562	ļ v	-0.1857429
-1.4804795	( v	-0.1857429
-1.8789138	ņ v	-0.1857429
-1.2776634	_ v	-0.36720014
-1.6254898	{ v	-0.1857429
-2.050489	" v	-0.1857429
-1.1688483	! v	-0.24431607
-1.2424932	* v	-0.1857429
-1.3940148	q v	-0.1857429
-0.703963	„ v	-0.1857429
-1.6438698	<s> l	-0.1857429
-1.457988	# l	-0.8914944
-1.305325	a l	-0.49493995
-1.3603649	| l	-0.35573888
-1.4052212	b l	-0.26145837
-1.3898748	i l	-0.35006452
-1.4296552	g l	-0.25704208
-1.6908689	> l	-0.1857429
-1.871598	r l	-0.1857429
-2.0148342	n l	-0.1857429
-1.5380977	s l	-0.52940285
-1.6412382	- l	-0.1857429
-2.0399172	' l	-0.1857429
-1.6761239	[ l	-0.1857429
-2.2915826	v l	-0.1857429
-1.6003336	l l	-0.277229
-1.8244754	t l	-0.32632533
-1.2347238	o l	-0.46108568
-2.295019	d l	-0.1857429
-1.2612566	p l	-0.4039664
-1.3286893	ē l	-0.31395
-1.3916316	/ l	-0.2702901
-1.3293209	ā l	-0.6479307
-1.3471851	k l	-0.40578791
-1.2879891	e l	-0.4131229
-1.525139	f l	-0.24431607
-1.9937644	m l	-0.1857429
-1.7618791	. l	-0.23195238
-1.5978249	c l	-0.25201258
-1.5897597	ū l	-0.1857429
-1.3689747	u l	-0.3629466
-1.8228127	š l	-0.1857429
-1.7942631	z l	-0.26755315
-1.791175	ī l	-0.23195238
-1.7185429	( l	-0.1857429
-2.061062	h l	-0.1857429
-1.2701961	_ l	-0.25201258
-1.6583104	= l	-0.26573807
-1.6013654	{ l	-0.1857429
-1.7870533	" l	-0.21824045
-1.3879664	y l	-0.24431607
-1.4980812	! l	-0.1857429
-1.2311494	* l	-0.1857429
-0.86396515	ê l	-0.1857429
-1.2364367	– l	-0.1857429
-0.70064974	ö l	-0.1857429
-1.366894	& l	-0.1857429
-0.86396515	“ l	-0.1857429
-1.4715438	# t	-0.87127584
-1.2779449	a t	-0.52618796
-1.5057286	| t	-0.2957276
-2.045865	b t	-0.1857429
-1.4147921	i t	-0.46579877
-1.7172027	g t	-0.2551417
-1.7081304	> t	-0.1857429
-1.6071593	r t	-0.41002595
-1.5581864	n t	-0.30749556
-1.1807861	s t	-0.74317694
-1.223372	- t	-0.23195238
-2.0643983	' t	-0.1857429
-1.6940781	[ t	-0.1857429
-1.7391179	l t	-0.28567922
-2.022448	t t	-0.1857429
-1.1418957	o t	-0.6077117
-2.3221014	d t	-0.1857429
-1.4655607	p t	-0.35750622
-1.1008584	ē t	-0.6522919
-1.6846931	/ t	-0.1857429
-1.1846211	ā t	-0.5391056
-1.4991529	k t	-0.44937462
-1.4035901	e t	-0.3771061
-1.7044793	f t	-0.1857429
-2.1172748	m t	-0.23740394
-1.7543423	j t	-0.26573807
-1.6611531	. t	-0.29158854
-1.8379318	5 t	-0.1857429
-1.872199	c t	-0.23195238
-0.90544283	ū t	-0.2695682
-1.6488189	x t	-0.1857429
-1.4411302	u t	-0.27794906
-1.4199843	š t	-0.25710896
-1.9325074	z t	-0.1857429
-1.046319	ī t	-0.5415516
-1.4746124	( t	-0.21824045
-1.024576	h t	-0.30904785
-1.4533123	_ t	-0.1857429
-1.6715963	= t	-0.26573807
-1.7044137	: t	-0.1857429
-1.6172986	{ t	-0.1857429
-1.800695	" t	-0.1857429
-1.5365129	y t	-0.1857429
-1.2386788	* t	-0.1857429
-1.6213046	# o	-0.6349733
-2.4070108	a o	-0.1857429
-1.9473803	| o	-0.26573807
-1.3523097	b o	-0.27124107
-1.6559193	i o	-0.35529152
-1.2638278	g o	-0.24503137
-1.4045877	> o	-0.1857429
-1.1867261	r o	-0.40284175
-1.1027051	n o	-0.42274886
-1.5125108	s o	-0.31838596
-1.9098065	- o	-0.1857429
-1.0527241	w o	-0.52442217
-2.0643983	' o	-0.1857429
-1.6940781	[ o	-0.1857429
-1.3111317	v o	-0.3388997
-1.1495646	l o	-0.35143703
-1.3119073	t o	-0.4799657
-1.8925854	o o	-0.1857429
-1.1936907	d o	-0.39354992
-1.1763874	p o	-0.35157993
-1.6846931	/ o	-0.1857429
-2.3605444	ā o	-0.1857429
-0.97766405	k o	-0.5103008
-1.738581	e o	-0.25944537
-0.97010297	f o	-0.34855708
-1.3081273	m o	-0.3482423
-0.90396386	j o	-0.36655393
-1.6611531	. o	-0.36720014
-1.1175971	c o	-0.3414204
-2.382123	u o	-0.1857429
-1.3261075	š o	-0.29340526
-1.4287746	z o	-0.29535365
-1.5808543	ģ o	-0.1857429
-1.0763774	ļ o	-0.2838331
-1.7394786	( o	-0.1857429
-0.9117374	h o	-0.3559176
-0.96037865	ņ o	-0.34181562
-1.4533123	_ o	-0.26573807
-1.9136624	= o	-0.1857429
-1.2224643	ķ o	-0.1857429
-1.6172986	{ o	-0.1857429
-2.0383444	" o	-0.1857429
-1.5365129	y o	-0.1857429
-1.165842	ž o	-0.1857429
-1.6501795	<s> d	-0.1857429
-1.448034	# d	-0.76872414
-1.5938382	a d	-0.38058114
-1.710336	| d	-0.39861447
-1.0681125	+ d	-0.1857429
-2.2587287	b d	-0.1857429
-1.5475513	i d	-0.3636124
-1.6994139	> d	-0.1857429
-1.7195553	r d	-0.26904386
-1.6884078	n d	-0.34182006
-1.8790375	s d	-0.25944537
-1.1260345	- d	-0.22390126
-2.0519853	' d	-0.1857429
-1.6850083	[ d	-0.1857429
-1.6527822	v d	-0.23195238
-1.6642053	l d	-0.26078618
-2.0168004	t d	-0.25336787
-1.4162171	o d	-0.45848647
-2.3083491	d d	-0.1857429
-1.9956363	p d	-0.1857429
-1.4725808	ē d	-0.26573807
-1.8958051	/ d	-0.1857429
-1.450608	ā d	-0.47974303
-2.3130217	k d	-0.1857429
-1.3771042	e d	-0.3304145
-2.1081223	m d	-0.1857429
-2.1683016	j d	-0.1857429
-1.913343	. d	-0.26573807
-1.8658562	c d	-0.1857429
-0.97157323	ū d	-0.28372228
-1.3286111	x d	-0.1857429
-1.5216973	u d	-0.2592265
-1.7011098	š d	-0.26573807
-1.7994854	z d	-0.23195238
-1.2754865	ī d	-0.26078618
-1.7288846	( d	-0.1857429
-2.072204	h d	-0.1857429
-1.0501798	_ d	-0.34181562
-1.6649026	= d	-0.31203902
-1.6092589	{ d	-0.1857429
-2.0265303	" d	-0.1857429
-1.7964752	y d	-0.1857429
-0.70175135	ë d	-0.1857429
-0.86557066	é d	-0.1857429
-1.3707294	& d	-0.1857429
-0.70175135	‹ d	-0.1857429
-1.7519283	a ]	-0.8668449
-2.0534835	i ]	-0.36720014
-2.3424783	g ]	-0.1857429
-2.4591143	n ]	-0.1857429
-1.6969311	s ]	-0.8668449
-2.2131689	o ]	-0.30257347
-2.4608452	d ]	-0.1857429
-0.19835438	] ]	-0.6051579
-2.343797	ē ]	-0.1857429
-1.9364606	ā ]	-0.4275122
-2.192806	k ]	-0.31203902
-1.8285376	e ]	-0.6705502
-2.2040098	m ]	-0.31203902
-1.340417	7 ]	-0.30257347
-1.5846997	8 ]	-0.31203902
-2.1043706	0 ]	-0.1857429
-1.5924588	5 ]	-0.31203902
-1.9377514	3 ]	-0.1857429
-1.9302177	c ]	-0.30257347
-1.6207081	6 ]	-0.31203902
-2.5263045	u ]	-0.1857429
-2.2875152	ī ]	-0.1857429
-2.181282	1 ]	-0.1857429
-1.8074982	2 ]	-0.31203902
-1.9215431	9 ]	-0.1857429
-1.9268312	4 ]	-0.1857429
-2.1543422	" ]	-0.1857429
-1.4351822	# p	-0.9343462
-1.4656961	a p	-0.37132704
-1.3994842	| p	-0.3341205
-1.4166257	+ p	-0.1857429
-1.6114045	i p	-0.27896956
-1.9760603	g p	-0.1857429
-1.6824888	> p	-0.1857429
-1.7136914	r p	-0.22596233
-2.1083932	n p	-0.1857429
-1.3892534	s p	-0.48183018
-1.8776616	- p	-0.1857429
-2.0281756	' p	-0.1857429
-1.6674178	[ p	-0.1857429
-1.647666	v p	-0.23195238
-1.7289965	l p	-0.24256514
-1.8208869	t p	-0.20613994
-1.4134675	o p	-0.32407802
-2.10548	d p	-0.1857429
-2.087621	p p	-0.1857429
-2.1963131	ē p	-0.1857429
-1.871989	/ p	-0.1857429
-1.8811088	ā p	-0.24431607
-2.0932963	k p	-0.1857429
-1.678026	e p	-0.2837447
-2.0757384	f p	-0.1857429
-1.6552498	m p	-0.30724645
-1.5687652	j p	-0.24431607
-1.2284787	0 p	-0.6036035
-1.3287585	. p	-0.42323533
-1.8534418	c p	-0.26573807
-1.8542504	ū p	-0.1857429
-1.625081	x p	-0.1857429
-1.5177343	u p	-0.28055286
-1.6911851	š p	-0.26573807
-2.130086	z p	-0.1857429
-2.139382	ī p	-0.1857429
-1.4574718	( p	-0.1857429
-2.0400147	1 p	-0.1857429
-1.8180668	h p	-0.1857429
-1.8498684	ņ p	-0.1857429
-1.2677351	_ p	-0.28376535
-1.6518168	= p	-0.1857429
-1.78039	" p	-0.1857429
-1.3839955	y p	-0.26573807
-1.491776	! p	-0.1857429
-1.6420984	; p	-0.1857429
-1.2274331	* p	-0.1857429
-0.86236566	é p	-0.1857429
-0.8456237	– p	-0.1857429
-1.3630921	& p	-0.1857429
-2.0900447	# ē	-0.4085928
-2.6725502	a ē	-0.1857429
-2.1192205	| ē	-0.1857429
-1.7851473	b ē	-0.25710896
-2.4170063	i ē	-0.1857429
-1.7444028	g ē	-0.23195238
-1.5727193	r ē	-0.47309896
-1.574921	n ē	-0.33858725
-1.6926502	s ē	-0.36497325
-1.7581552	[ ē	-0.1857429
-0.97135854	v ē	-0.5492907
-1.4717283	l ē	-0.3248185
-1.4914901	t ē	-0.42966557
-2.5385575	o ē	-0.1857429
-1.4014646	d ē	-0.42308936
-1.3841529	p ē	-0.3543255
-2.4217603	k ē	-0.1857429
-1.7331094	f ē	-0.26573807
-1.2517595	m ē	-0.40647233
-1.9334068	j ē	-0.1857429
-2.3242218	. ē	-0.1857429
-1.4559921	c ē	-0.2702901
-2.4878256	u ē	-0.1857429
-1.8833013	š ē	-0.26573807
-1.5403581	z ē	-0.29033965
-1.2073892	ģ ē	-0.1857429
-1.9203188	ļ ē	-0.1857429
-2.166356	h ē	-0.1857429
-1.3991895	ņ ē	-0.30257347
-1.2391757	ķ ē	-0.1857429
-1.5325502	ž ē	-0.31203902
-2.0404649	# /	-0.8254522
-2.024447	a /	-0.21080574
-2.288769	| /	-0.1857429
-1.4644736	+ /	-0.1857429
-0.98920995	< /	-0.52442217
-2.3460684	b /	-0.1857429
-2.4045377	i /	-0.1857429
-2.0436301	g /	-0.1857429
-2.4999027	r /	-0.1857429
-2.0727367	n /	-0.26573807
-2.324486	s /	-0.1857429
-2.1121998	v /	-0.1857429
-2.2402592	l /	-0.1857429
-2.3240988	t /	-0.1857429
-2.3082068	o /	-0.1857429
-2.1843483	d /	-0.1857429
-1.8970425	] /	-0.1857429
-2.3886232	p /	-0.1857429
-1.728207	/ /	-0.1857429
-2.40559	k /	-0.1857429
-2.5402927	e /	-0.1857429
-1.7747096	m /	-0.21080574
-1.8180687	7 /	-0.1857429
-1.7866066	0 /	-0.1857429
-2.0843732	. /	-0.1857429
-1.6960248	x /	-0.1857429
-1.913686	6 /	-0.1857429
-2.1401436	u /	-0.1857429
-2.1397777	1 /	-0.1857429
-1.7354409	: /	-0.1857429
-1.4270492	4 /	-0.1857429
-1.8685592	y /	-0.1857429
-0.41705656	χ /	-0.1857429
-1.8995004	# ā	-0.6705502
-2.4845521	a ā	-0.1857429
-2.1192205	| ā	-0.1857429
-1.5652531	b ā	-0.2673078
-1.880656	i ā	-0.30257347
-1.186604	g ā	-0.26864588
-1.3027523	r ā	-0.42457882
-1.2818878	n ā	-0.484774
-1.616058	s ā	-0.3702251
-2.1550899	' ā	-0.1857429
-1.0420363	v ā	-0.43841863
-1.2993205	l ā	-0.36099017
-1.2741624	t ā	-0.5753974
-1.4014646	d ā	-0.34936678
-1.306384	p ā	-0.30897772
-1.0825003	k ā	-0.42189446
-2.096138	e ā	-0.24431607
-2.1832073	f ā	-0.1857429
-1.1441491	m ā	-0.5100412
-1.013355	j ā	-0.37505853
-1.9158525	c ā	-0.25710896
-1.873749	u ā	-0.24024136
-1.2606349	š ā	-0.33753568
-1.2396264	z ā	-0.26713362
-1.2184951	ļ ā	-0.23740394
-1.8154619	( ā	-0.1857429
-2.166356	h ā	-0.1857429
-1.5643736	ņ ā	-0.31203902
-1.6202117	ķ ā	-0.1857429
-1.5325502	ž ā	-0.22390126
-0.41762957	ḫ ā	-0.1857429
-1.4969965	# k	-0.87148595
-1.569589	a k	-0.4046052
-1.5104967	| k	-0.35204068
-2.290277	b k	-0.1857429
-1.4658219	i k	-0.45165902
-1.7994728	r k	-0.254508
-1.7844346	n k	-0.22084397
-1.4876829	s k	-0.4878037
-1.5242506	- k	-0.26573807
-1.8320054	w k	-0.1857429
-2.0837092	' k	-0.1857429
-1.7080483	[ k	-0.1857429
-2.3326719	v k	-0.1857429
-2.0888095	l k	-0.1857429
-2.2807908	t k	-0.23195238
-1.3595504	o k	-0.3960883
-2.1276517	p k	-0.24431607
-1.6943597	ē k	-0.3154911
-1.2685189	ā k	-0.6362069
-2.0077102	k k	-0.1857429
-1.4325273	e k	-0.40278548
-2.0188348	m k	-0.26573807
-2.1934104	j k	-0.1857429
-2.2438703	. k	-0.1857429
-1.60988	c k	-0.1857429
-1.4610069	ū k	-0.26573807
-1.4073633	u k	-0.28834903
-1.8467085	š k	-0.31203902
-2.183902	z k	-0.1857429
-1.6393387	ī k	-0.27711484
-1.8762288	ļ k	-0.1857429
-1.4834431	( k	-0.23195238
-1.8923802	_ k	-0.1857429
-1.225564	č k	-0.31203902
-1.9316994	= k	-0.1857429
-1.6296442	{ k	-0.1857429
-2.056691	" k	-0.1857429
-1.8228033	y k	-0.1857429
-1.8310081	ž k	-0.1857429
-1.5208995	! k	-0.1857429
-1.2490512	– k	-0.1857429
-1.7093483	# e	-0.5437758
-2.3040833	a e	-0.28367054
-1.710336	| e	-0.21824045
-1.0059471	b e	-0.3834123
-1.2762706	i e	-0.66039324
-1.2180054	g e	-0.3086377
-1.1151422	r e	-0.42402786
-1.0280174	n e	-0.3901247
-1.3327347	s e	-0.36147556
-1.6472722	- e	-0.31203902
-1.3622842	w e	-0.1857429
-2.0519853	' e	-0.1857429
-1.6850083	[ e	-0.1857429
-0.9463326	v e	-0.5056572
-1.1102064	l e	-0.39379737
-1.1399751	t e	-0.49414515
-1.7310119	o e	-0.25704208
-1.0983428	d e	-0.46513206
-1.1497844	p e	-0.39226365
-1.6772294	/ e	-0.26573807
-2.3471243	ā e	-0.1857429
-1.308528	k e	-0.40095896
-2.0483243	e e	-0.21404277
-0.9693179	f e	-0.30055708
-1.0716801	m e	-0.41848126
-1.0955095	j e	-0.25005442
-2.2086587	. e	-0.1857429
-1.0029054	c e	-0.3989579
-1.8730968	ū e	-0.1857429
-2.1939807	u e	-0.1857429
-2.0640557	š e	-0.1857429
-1.0222563	z e	-0.39095902
-0.68638885	ģ e	-0.2906631
-1.855756	ļ e	-0.1857429
-1.7288846	( e	-0.1857429
-1.1190333	h e	-0.29958004
-1.1916119	ņ e	-0.3311938
-1.0548663	č e	-0.31203902
-1.902041	= e	-0.1857429
-0.86004454	ķ e	-0.1857429
-1.6092589	{ e	-0.1857429
-2.0265303	" e	-0.1857429
-1.2178624	y e	-0.1857429
-1.3493042	ž e	-0.1857429
-0.44493493	@ e	-0.31203902
-1.3845553	q e	-0.1857429
-1.6971177	<s> f	-0.1857429
-1.4555731	# f	-0.79724824
-1.7459265	a f	-0.28716958
-1.8567008	| f	-0.23195238
-1.4674593	+ f	-0.1857429
-1.8788204	i f	-0.3651801
-2.5088954	r f	-0.1857429
-2.1976573	n f	-0.1857429
-1.9764104	s f	-0.26573807
-1.6920346	- f	-0.24431607
-2.1474001	' f	-0.1857429
-1.7528762	[ f	-0.1857429
-2.1246083	l f	-0.24431607
-2.3298292	t f	-0.1857429
-1.6312531	o f	-0.25280264
-2.4152465	d f	-0.1857429
-2.3972049	p f	-0.1857429
-1.4234388	/ f	-0.1857429
-1.6345917	ā f	-0.3651801
-2.4136	k f	-0.1857429
-1.7018269	e f	-0.27252832
-1.5483106	f f	-0.1857429
-1.893436	m f	-0.24431607
-2.3154838	. f	-0.1857429
-2.2827246	c f	-0.1857429
-1.6295451	_ f	-0.1857429
-1.7140818	= f	-0.1857429
-1.7383746	: f	-0.1857429
-1.6689376	{ f	-0.1857429
-1.8746332	y f	-0.1857429
-1.2620838	* f	-0.1857429
-0.99343073	á f	-0.1857429
-1.3201582	<s> m	-0.1857429
-1.5515107	# m	-0.8442014
-1.4121819	a m	-0.5744885
-1.6488773	| m	-0.30458635
-1.5244651	i m	-0.32516605
-1.8972759	g m	-0.1857429
-1.8066278	r m	-0.25257012
-2.1709669	n m	-0.1857429
-1.5773678	s m	-0.46153548
-2.1108704	' m	-0.1857429
-1.7274029	[ m	-0.1857429
-1.8403444	l m	-0.30826145
-1.771738	t m	-0.25944537
-1.456197	o m	-0.33617973
-2.045371	d m	-0.26573807
-2.027736	p m	-0.26573807
-1.1039242	ē m	-0.38997763
-1.580555	/ m	-0.26573807
-1.1878144	ā m	-0.6018477
-1.8580565	k m	-0.26573807
-1.3360808	e m	-0.32744402
-2.1463141	f m	-0.1857429
-2.0338385	m m	-0.21824045
-2.0645106	. m	-0.1857429
-2.2434473	c m	-0.1857429
-1.6782596	x m	-0.1857429
-1.2160304	u m	-0.66630596
-1.6536828	z m	-0.27711484
-1.5956991	ģ m	-0.1857429
-1.4272008	ī m	-0.25280264
-1.7787354	( m	-0.1857429
-1.8609809	h m	-0.1857429
-1.0569232	_ m	-0.29158854
-1.6958718	= m	-0.1857429
-1.6466706	{ m	-0.1857429
-2.0824246	" m	-0.1857429
-0.87760365	@ m	-0.1857429
-1.6301455	# j	-0.7878106
-1.5488884	a j	-0.68101066
-2.1064284	| j	-0.1857429
-1.781076	b j	-0.24431607
-1.4459331	i j	-0.6768303
-1.759474	> j	-0.1857429
-2.4999027	r j	-0.1857429
-2.4026382	n j	-0.1857429
-1.8701277	w j	-0.1857429
-2.1398442	' j	-0.1857429
-1.7476606	[ j	-0.1857429
-2.384948	v j	-0.1857429
-2.1204817	l j	-0.25201258
-2.0548954	t j	-0.1857429
-1.4252752	o j	-0.72876966
-2.1843483	d j	-0.1857429
-2.0428011	p j	-0.1857429
-1.0387139	ē j	-0.7072887
-1.3046939	ā j	-0.512688
-2.40559	k j	-0.1857429
-1.6082178	e j	-0.36033496
-2.170558	f j	-0.1857429
-2.049379	m j	-0.30257347
-1.0732183	. j	-0.90463346
-1.9406939	ū j	-0.1857429
-2.4697936	u j	-0.1857429
-2.1466944	š j	-0.1857429
-2.238071	z j	-0.1857429
-1.2853019	ī j	-0.5006581
-1.8028715	( j	-0.1857429
-1.9838166	= j	-0.1857429
-1.7354409	: j	-0.1857429
-1.6643919	{ j	-0.1857429
-2.5112202	# 7	-0.22596233
-2.4635186	| 7	-0.1857429
-2.0856187	- 7	-0.1857429
-2.2698584	' 7	-0.1857429
-2.6773653	o 7	-0.1857429
-1.7955852	/ 7	-0.1857429
-1.6066077	8 7	-0.1857429
-1.6864439	0 7	-0.22390126
-2.457468	. 7	-0.1857429
-1.6175497	5 7	-0.1857429
-1.6325817	3 7	-0.1857429
-1.6475708	6 7	-0.1857429
-2.0589082	, 7	-0.1857429
-1.7504964	1 7	-0.23195238
-2.1876006	2 7	-0.1857429
-2.0313165	_ 7	-0.1857429
-1.4419901	9 7	-0.1857429
-1.9854761	4 7	-0.1857429
-2.3007197	# 8	-0.38692647
-2.4224916	| 8	-0.1857429
-2.3971248	g 8	-0.1857429
-2.2405553	' 8	-0.1857429
-1.882281	7 8	-0.1857429
-1.5991815	8 8	-0.26573807
-1.6777985	0 8	-0.21824045
-2.4228935	. 8	-0.1857429
-1.444501	5 8	-0.26573807
-1.4600265	3 8	-0.1857429
-2.3841314	c 8	-0.1857429
-1.9878625	6 8	-0.1857429
-2.5912848	u 8	-0.1857429
-2.0509198	, 8	-0.1857429
-1.7424946	1 8	-0.26573807
-1.6680447	2 8	-0.1857429
-1.0038347	9 8	-0.21080574
-1.9650352	4 8	-0.1857429
-2.2040052	" 8	-0.1857429
-1.9507469	} 8	-0.1857429
-1.2872531	– 8	-0.1857429
-2.235734	# 0	-0.23202454
-2.2050676	| 0	-0.1857429
-1.2529762	- 0	-0.1857429
-2.1037621	/ 0	-0.1857429
-1.0197513	7 0	-0.1857429
-0.78421795	8 0	-0.26078618
-0.9988348	0 0	-0.3031713
-2.0173984	. 0	-0.1857429
-1.1167308	5 0	-0.32632533
-0.9477603	3 0	-0.21404277
-1.6445026	6 0	-0.1857429
-2.056229	, 0	-0.1857429
-1.0128679	1 0	-0.2797628
-0.81761	2 0	-0.62247264
-1.6078566	= 0	-0.26573807
-1.7328173	{ 0	-0.1857429
-1.4400753	9 0	-0.1857429
-1.2589952	4 0	-0.1857429
-1.9569291	} 0	-0.1857429
-1.5376748	a .	-0.43219835
-2.1645024	| .	-0.1857429
-2.0312037	b .	-0.1857429
-1.4122823	i .	-0.64727384
-1.594853	g .	-0.21824045
-1.6908689	> .	-0.1857429
-1.9764085	r .	-0.2702901
-2.1174524	n .	-0.1857429
-1.3699226	s .	-0.5846596
-1.5070561	w .	-0.1857429
-2.0399172	' .	-0.1857429
-1.932525	v .	-0.26573807
-1.9229343	l .	-0.26573807
-1.8244754	t .	-0.32287234
-1.6670732	o .	-0.30826145
-2.0065262	d .	-0.1857429
-1.8505521	] .	-0.1857429
-1.7361729	p .	-0.25201258
-1.2219445	ē .	-0.5412713
-1.4052991	ā .	-0.60821813
-1.4952329	k .	-0.34116897
-1.5537852	e .	-0.4733252
-1.5253518	m .	-0.33572522
-2.1586509	j .	-0.1857429
-0.997386	7 .	-0.25336787
-1.0789759	8 .	-0.365949
-1.1537945	0 .	-0.22278668
-2.0141547	. .	-0.1857429
-0.9936953	5 .	-0.3981406
-1.1066808	3 .	-0.21824045
-1.7092822	c .	-0.23195238
-1.8635714	ū .	-0.1857429
-1.3247377	x .	-0.1857429
-0.8790426	6 .	-0.31810305
-1.282636	u .	-0.65564835
-1.6961191	š .	-0.30257347
-1.791175	ī .	-0.30257347
-1.8478298	ļ .	-0.1857429
-1.2944056	1 .	-0.25710896
-0.69362104	) .	-0.71736264
-1.0172501	2 .	-0.27500346
-2.061062	h .	-0.1857429
-1.5678847	č .	-0.1857429
-1.0830219	9 .	-0.28367054
-1.0004416	4 .	-0.22754239
-1.2879503	" .	-0.6036035
-1.3879664	y .	-0.26573807
-0.70064974	› .	-0.1857429
-2.5112202	# 5	-0.1857429
-2.4635186	| 5	-0.1857429
-2.2698584	' 5	-0.1857429
-1.3555833	7 5	-0.26573807
-1.9825879	8 5	-0.1857429
-1.6864439	0 5	-0.1857429
-2.1681764	. 5	-0.1857429
-1.1176376	5 5	-0.1857429
-1.6325817	3 5	-0.1857429
-1.6475708	6 5	-0.1857429
-1.9076186	( 5	-0.1857429
-1.1125604	1 5	-0.24726015
-1.6752977	2 5	-0.24431607
-1.4419901	9 5	-0.1857429
-1.4569845	4 5	-0.1857429
-2.231143	" 5	-0.1857429
-1.9600534	} 5	-0.1857429
-1.7202876	; 5	-0.1857429
-2.0575035	# 3	-0.27538776
-1.7670529	| 3	-0.25336787
-1.4889547	+ 3	-0.1857429
-2.6749985	i 3	-0.1857429
-2.0308692	- 3	-0.1857429
-2.2043273	' 3	-0.1857429
-2.6053774	t 3	-0.1857429
-2.4625535	p 3	-0.1857429
-1.7628379	/ 3	-0.1857429
-2.4637828	m 3	-0.1857429
-1.5075172	7 3	-0.1857429
-1.9429189	8 3	-0.1857429
-1.6665326	0 3	-0.1857429
-2.1270504	. 3	-0.1857429
-1.9395133	5 3	-0.1857429
-1.6265357	6 3	-0.1857429
-2.0404918	, 3	-0.1857429
-1.8555834	( 3	-0.1857429
-1.5461593	1 3	-0.1857429
-1.8141601	2 3	-0.1857429
-2.043052	= 3	-0.1857429
-1.9332795	9 3	-0.1857429
-1.602521	4 3	-0.1857429
-2.1702738	" 3	-0.1857429
-1.7019404	; 3	-0.1857429
-1.6411923	# c	-0.55919224
-1.6978	a c	-0.2584601
-1.965222	| c	-0.26833338
-1.8743541	< c	-0.1857429
-2.0610387	b c	-0.1857429
-1.6603271	i c	-0.33994976
-2.2434287	g c	-0.1857429
-1.7285022	r c	-0.26755315
-1.8967489	n c	-0.24979962
-1.72621	s c	-0.27944484
-1.9326391	- c	-0.1857429
-2.090342	' c	-0.1857429
-1.7128067	[ c	-0.1857429
-1.9442993	l c	-0.24431607
-1.9257157	t c	-0.21824045
-1.7396381	o c	-0.24431607
-2.3509855	d c	-0.1857429
-2.3328764	p c	-0.1857429
-2.0013525	ē c	-0.1857429
-1.7000166	/ c	-0.31203902
-1.3344244	ā c	-0.5533213
-2.010897	k c	-0.26573807
-1.6434997	e c	-0.3084612
-1.7130893	f c	-0.24431607
-1.5053142	. c	-0.42831916
-1.865587	3 c	-0.1857429
-1.8851697	c c	-0.26573807
-1.4628754	ū c	-0.26573807
-1.665397	x c	-0.1857429
-2.223008	u c	-0.21404277
-1.9470205	z c	-0.24431607
-1.5191334	ī c	-0.22130507
-1.7614748	( c	-0.1857429
-1.6853014	= c	-0.1857429
-1.6338385	{ c	-0.1857429
-1.8540471	4 c	-0.1857429
-2.0629828	" c	-0.1857429
-1.828266	y c	-0.1857429
-1.5242594	! c	-0.1857429
-0.70507306	° c	-0.1857429
-2.0662801	# ū	-0.8254522
-2.7870872	a ū	-0.1857429
-1.4969697	b ū	-0.35141003
-2.7234247	i ū	-0.1857429
-1.5393641	g ū	-0.35071215
-1.836488	r ū	-0.24857506
-2.2628798	n ū	-0.1857429
-2.515214	s ū	-0.1857429
-2.2405553	' ū	-0.1857429
-1.7016845	l ū	-0.32144263
-1.7980506	t ū	-0.32287234
-2.522749	d ū	-0.1857429
-2.5048456	p ū	-0.1857429
-2.223006	k ū	-0.1857429
-2.2392879	m ū	-0.1857429
-1.4722526	j ū	-0.24857506
-2.3841314	c ū	-0.1857429
-1.581686	š ū	-0.4275122
-2.33458	z ū	-0.1857429
-1.9693959	ļ ū	-0.1857429
-1.965928	ņ ū	-0.1857429
-2.0027459	# x	-0.53305453
-2.2734609	| x	-0.1857429
-2.5665212	i x	-0.1857429
-2.6600046	n x	-0.1857429
-2.573215	v x	-0.1857429
-2.6330974	p x	-0.1857429
-2.3553545	e x	-0.1857429
-2.5507846	. x	-0.1857429
-2.502804	c x	-0.1857429
-2.7273629	u x	-0.1857429
-1.9667481	( x	-0.1857429
-2.91444	# 6	-0.1857429
-2.1895292	| 6	-0.26573807
-2.2405553	' 6	-0.1857429
-2.5725927	l 6	-0.1857429
-2.522749	d 6	-0.1857429
-2.0844395	/ 6	-0.1857429
-1.1532845	7 6	-0.1857429
-1.2346581	8 6	-0.24431607
-1.4899542	0 6	-0.23202454
-2.4228935	. 6	-0.1857429
-1.9643011	5 6	-0.1857429
-1.9755863	3 6	-0.1857429
-1.3801911	x 6	-0.1857429
-1.4753759	6 6	-0.1857429
-2.0509198	, 6	-0.1857429
-1.8845505	( 6	-0.1857429
-1.5529385	1 6	-0.1857429
-1.4765027	2 6	-0.24431607
-1.7720258	: 6	-0.1857429
-1.4362707	9 6	-0.1857429
-1.2563838	4 6	-0.2702901
-1.6748337	# u	-0.62288445
-1.3907758	a u	-0.5233342
-1.7205834	| u	-0.24431607
-1.181124	b u	-0.31159663
-2.1175673	i u	-0.2702901
-1.0201367	g u	-0.384469
-1.7170253	> u	-0.1857429
-1.249655	r u	-0.43878782
-1.3056166	n u	-0.41056454
-1.5425974	s u	-0.35490546
-1.9210727	- u	-0.1857429
-2.0771763	' u	-0.1857429
-1.7033415	[ u	-0.1857429
-1.5633882	v u	-0.35071215
-1.2925539	l u	-0.41776013
-1.19148	t u	-0.58088607
-1.8967353	o u	-0.1857429
-1.2511631	d u	-0.40361294
-1.2338539	p u	-0.41598257
-1.403288	/ u	-0.1857429
-1.1793197	k u	-0.42369473
-2.2984104	e u	-0.1857429
-1.2336688	f u	-0.28325936
-1.3095651	m u	-0.42233923
-0.8199259	j u	-0.38671115
-2.0408957	. u	-0.1857429
-1.3232173	c u	-0.26755315
-2.3968024	u u	-0.1857429
-1.1279163	š u	-0.44850162
-1.8101221	z u	-0.23195238
-0.82729864	ļ u	-0.45192665
-1.7503374	( u	-0.1857429
-1.3228561	h u	-0.24024136
-0.6984647	ņ u	-0.5456115
-0.72716886	č u	-0.44638136
-1.0588447	ķ u	-0.2702901
-1.6254898	{ u	-0.1857429
-1.8076798	" u	-0.31203902
-0.93709123	ž u	-0.29001647
-1.5175655	! u	-0.1857429
-1.2424932	* u	-0.1857429
-1.0155133	q u	-0.1857429
-1.7538764	# š	-0.6667229
-2.139631	a š	-0.24295358
-2.4276974	b š	-0.1857429
-2.064578	i š	-0.26833338
-1.7620295	g š	-0.27711484
-1.8326412	r š	-0.21461886
-2.5013077	n š	-0.1857429
-2.1636252	l š	-0.24431607
-2.6276996	t š	-0.1857429
-1.4669129	o š	-0.53240883
-2.2208385	p š	-0.1857429
-1.2366081	ē š	-0.7096228
-1.8221391	ā š	-0.38551623
-1.5203344	k š	-0.28352326
-1.7708113	e š	-0.37102583
-2.0908532	m š	-0.30257347
-1.795758	j š	-0.24024136
-1.657468	ū š	-0.1857429
-1.5452136	u š	-0.47027427
-2.014762	z š	-0.1857429
-1.6715646	ī š	-0.4275122
-1.8698255	( š	-0.1857429
-1.956848	ņ š	-0.1857429
-1.5687954	a ,	-0.898679
-2.2837815	b ,	-0.1857429
-1.4651146	i ,	-1.0559012
-2.2450867	r ,	-0.31203902
-2.145822	n ,	-0.31203902
-1.3533618	s ,	-1.18718
-1.9210727	- ,	-0.1857429
-2.0771763	' ,	-0.1857429
-2.3265586	v ,	-0.1857429
-1.6006941	t ,	-0.8254522
-1.7367436	o ,	-0.6705502
-2.0272827	d ,	-0.30257347
-1.8685557	] ,	-0.1857429
-2.009611	p ,	-0.30257347
-1.5713946	ē ,	-0.52442217
-1.2113097	ā ,	-1.0559012
-2.1253862	k ,	-0.31203902
-1.8724023	e ,	-0.6036035
-1.7561961	m ,	-0.52442217
-1.4527175	0 ,	-0.24431607
-1.5026438	. ,	-0.6705502
-1.4197402	3 ,	-0.26573807
-1.7226585	c ,	-0.4275122
-1.6050732	ū ,	-0.31203902
-1.3364632	x ,	-0.31203902
-1.8653392	6 ,	-0.1857429
-1.34218	u ,	-1.0015435
-1.7112666	š ,	-0.30257347
-1.806115	ī ,	-0.30257347
-1.8720562	ļ ,	-0.1857429
-1.8265911	1 ,	-0.31203902
-0.7247569	) ,	-1.0015435
-1.7097006	h ,	-0.30257347
-1.5465664	9 ,	-0.1857429
-1.8438579	4 ,	-0.1857429
-1.0943425	" ,	-0.7796947
-1.8906506	} ,	-0.1857429
-0.6276681	” ,	-0.30257347
-0.27408844	ˁ ,	-0.31203902
-0.27408844	ˠ ,	-0.31203902
-0.4144873	ħ ,	-0.1857429
-0.4144873	ḥ ,	-0.1857429
-1.6162161	# z	-0.74621075
-1.8953892	a z	-0.30167288
-1.6645409	| z	-0.44638136
-1.378871	i z	-0.42929983
-2.3175342	g z	-0.1857429
-1.8194398	r z	-0.25201258
-2.4299588	n z	-0.1857429
-2.6609046	s z	-0.1857429
-2.162918	' z	-0.1857429
-1.7634991	[ z	-0.1857429
-2.1329808	l z	-0.1857429
-2.3415215	t z	-0.1857429
-1.8303732	o z	-0.30540815
-1.2010293	d z	-0.55411494
-2.1821895	p z	-0.1857429
-1.8927495	ē z	-0.26573807
-2.0067725	/ z	-0.1857429
-1.7144535	ā z	-0.31971768
-1.8231126	e z	-0.23544915
-2.4152448	m z	-0.1857429
-2.299487	c z	-0.1857429
-1.4820151	ū z	-0.30257347
-1.4933121	u z	-0.2837447
-2.260263	z z	-0.1857429
-1.6587467	ī z	-0.23195238
-1.5174516	( z	-0.26573807
-2.0050945	= z	-0.1857429
-1.6781741	{ z	-0.1857429
-2.1314895	" z	-0.1857429
-1.2661102	* z	-0.1857429
-2.2558382	# ģ	-0.52442217
-2.6216226	a ģ	-0.1857429
-2.1097512	| ģ	-0.30257347
-2.5490303	i ģ	-0.31203902
-2.4193504	r ģ	-0.31203902
-1.8661331	[ ģ	-0.1857429
-2.5523024	v ģ	-0.1857429
-2.4317772	o ģ	-0.26573807
-2.604238	p ģ	-0.1857429
-1.6105007	ē ģ	-0.52442217
-2.491205	e ģ	-0.26573807
-2.6965222	u ģ	-0.1857429
-1.9712029	ž ģ	-0.1857429
-1.9821774	# ī	-0.64285505
-2.774175	a ī	-0.1857429
-2.0560513	| ī	-0.30257347
-1.803956	b ī	-0.23195238
-2.7108026	i ī	-0.1857429
-1.3340733	r ī	-0.39625648
-1.2879454	n ī	-0.42658156
-1.9201853	s ī	-0.31003505
-2.231211	' ī	-0.1857429
-1.3242158	v ī	-0.27356207
-1.3049362	l ī	-0.34872144
-1.3489335	t ī	-0.4055547
-1.454742	d ī	-0.41145036
-1.5463026	p ī	-0.25710896
-2.6579554	e ī	-0.1857429
-1.7984642	m ī	-0.23195238
-1.3416532	c ī	-0.32531688
-1.4498929	š ī	-0.25710896
-1.1943363	z ī	-0.31692976
-1.6293284	ģ ī	-0.1857429
-1.2511337	ķ ī	-0.1857429
-1.3845724	ž ī	-0.1857429
-2.193836	# ļ	-0.5470068
-1.9945052	a ļ	-0.3059773
-2.408191	i ļ	-0.1857429
-2.4946492	g ļ	-0.1857429
-2.776492	t ļ	-0.1857429
-2.2833524	o ļ	-0.24431607
-2.1113534	ē ļ	-0.1857429
-2.6634355	ā ļ	-0.1857429
-1.6834377	k ļ	-0.35371953
-1.7886996	e ļ	-0.3720382
-1.9185134	u ļ	-0.27685884
-2.0188718	ļ ļ	-0.1857429
-1.634689	# (	-0.5156832
-3.0255272	a (	-0.1857429
-2.954682	i (	-0.1857429
-1.9122872	> (	-0.1857429
-2.9835215	s (	-0.1857429
-2.3982494	' (	-0.1857429
-2.3482928	" (	-0.1857429
-2.0301456	# 1	-0.3206523
-2.6072416	a 1	-0.1857429
-1.4145956	| 1	-0.27473554
-2.546949	i 1	-0.1857429
-1.7353811	> 1	-0.1857429
-2.58816	s 1	-0.1857429
-1.1334159	- 1	-0.1857429
-2.1039193	' 1	-0.1857429
-1.7224829	[ 1	-0.1857429
-2.4096403	l 1	-0.1857429
-2.4829485	t 1	-0.1857429
-2.4788773	o 1	-0.1857429
-2.0416927	d 1	-0.1857429
-2.3480875	p 1	-0.1857429
-1.9477543	/ 1	-0.1857429
-2.1404588	f 1	-0.1857429
-2.34736	m 1	-0.1857429
-1.3225721	7 1	-0.1857429
-1.4045331	8 1	-0.1857429
-1.3365648	0 1	-0.1857429
-2.0596838	. 1	-0.1857429
-1.8675201	5 1	-0.1857429
-1.4271312	3 1	-0.1857429
-2.236001	c 1	-0.1857429
-1.6739297	x 1	-0.1857429
-1.1312572	6 1	-0.25201258
-1.622618	, 1	-0.1857429
-1.4924573	( 1	-0.1857429
-1.1582061	1 1	-0.24431607
-1.629086	2 1	-0.1857429
-2.1198711	h 1	-0.1857429
-1.9081733	_ 1	-0.1857429
-1.3837852	= 1	-0.24431607
-1.347626	: 1	-0.31203902
-1.566505	4 1	-0.1857429
-2.075847	" 1	-0.1857429
-1.2545717	– 1	-0.1857429
-0.41562733	— 1	-0.1857429
-1.7064214	a )	-0.40030742
-2.0930755	b )	-0.1857429
-1.7615328	i )	-0.43873507
-2.301667	g )	-0.1857429
-1.5814705	s )	-0.5756142
-1.0620799	' )	-0.6459537
-2.2457047	l )	-0.1857429
-2.5352104	t )	-0.1857429
-2.3136177	o )	-0.1857429
-1.9003263	] )	-0.1857429
-2.3972049	p )	-0.1857429
-2.3072047	ē )	-0.1857429
-1.6345917	ā )	-0.2906631
-2.3557162	e )	-0.1857429
-1.8796104	f )	-0.1857429
-2.397253	m )	-0.1857429
-2.067853	0 )	-0.1857429
-1.4513714	. )	-0.38692647
-1.8992727	5 )	-0.1857429
-1.90856	3 )	-0.1857429
-2.2827246	c )	-0.1857429
-1.6064724	6 )	-0.1857429
-1.8715161	u )	-0.25201258
-2.2507408	ī )	-0.1857429
-1.7143548	1 )	-0.1857429
-2.088725	2 )	-0.1857429
-2.159403	h )	-0.1857429
-1.8935192	9 )	-0.1857429
-1.8973767	4 )	-0.1857429
-1.402216	" )	-0.3311938
-1.9182339	} )	-0.1857429
-0.70954186	› )	-0.1857429
-1.9218562	# 2	-0.5099186
-2.6159914	a 2	-0.1857429
-1.3339546	| 2	-0.32315123
-1.4527318	+ 2	-0.1857429
-2.5555644	i 2	-0.1857429
-1.4201834	> 2	-0.1857429
-2.4656856	r 2	-0.1857429
-2.4145825	s 2	-0.31203902
-1.3567361	- 2	-0.25201258
-1.8506484	w 2	-0.1857429
-2.1108704	' 2	-0.1857429
-1.7274029	[ 2	-0.1857429
-2.4912338	t 2	-0.1857429
-2.4869173	o 2	-0.1857429
-2.1467006	p 2	-0.1857429
-1.580555	/ 2	-0.30257347
-2.5043423	e 2	-0.1857429
-2.1463141	f 2	-0.1857429
-2.3552873	m 2	-0.1857429
-1.3241645	7 2	-0.1857429
-1.2180171	8 2	-0.1857429
-1.6343892	0 2	-0.1857429
-1.7893257	. 2	-0.23202454
-1.4147177	5 2	-0.1857429
-1.4289987	3 2	-0.24431607
-1.4434408	6 2	-0.26573807
-2.4358308	u 2	-0.1857429
-1.7787354	( 2	-0.1857429
-1.8429323	1 2	-0.1857429
-1.4524977	2 2	-0.2702901
-2.126215	h 2	-0.1857429
-1.262225	= 2	-0.26573807
-1.8671943	9 2	-0.1857429
-1.8697934	4 2	-0.1857429
-2.0824246	" 2	-0.1857429
-1.534498	! 2	-0.1857429
-1.6721861	; 2	-0.1857429
-1.8431346	# h	-0.44807565
-2.1194482	a h	-0.1857429
-2.1257608	| h	-0.1857429
-2.101468	b h	-0.1857429
-2.0453446	i h	-0.23195238
-1.9193176	g h	-0.26573807
-1.7745985	> h	-0.1857429
-2.308959	r h	-0.1857429
-2.4299588	n h	-0.1857429
-2.0704932	s h	-0.22687638
-1.6988232	- h	-0.26573807
-2.162918	' h	-0.1857429
-1.4312309	[ h	-0.1857429
-1.9725742	l h	-0.1857429
-1.6138048	t h	-0.26198775
-2.5477943	o h	-0.1857429
-2.199885	d h	-0.1857429
-1.8904158	p h	-0.1857429
-1.4275837	/ h	-0.1857429
-2.4682748	ā h	-0.1857429
-2.0441198	k h	-0.1857429
-2.099521	e h	-0.1857429
-2.4152448	m h	-0.1857429
-1.4537437	. h	-0.45613256
-1.2836688	c h	-0.32014498
-2.1527264	u h	-0.1857429
-2.1600342	1 h	-0.1857429
-1.5769469	= h	-0.24431607
-2.1314895	" h	-0.1857429
-0.7106663	î h	-0.1857429
-2.2490327	# ņ	-0.45246303
-2.4637527	a ņ	-0.21824045
-1.6474979	i ņ	-0.49639845
-2.6997945	r ņ	-0.1857429
-2.113851	t ņ	-0.2702901
-1.8580809	o ņ	-0.26004112
-2.4467084	ē ņ	-0.1857429
-1.8382143	ā ņ	-0.25201258
-2.2554638	k ņ	-0.1857429
-1.8509413	e ņ	-0.29485497
-2.6677275	u ņ	-0.1857429
-1.949134	š ņ	-0.28367054
-2.0507083	z ņ	-0.31203902
-2.391031	ī ņ	-0.1857429
-2.001746	ļ ņ	-0.1857429
-1.9178221	a _	-0.31852746
-2.51603	i _	-0.1857429
-2.1185446	g _	-0.1857429
-2.6724677	r _	-0.1857429
-2.1444077	n _	-0.1857429
-1.9292713	s _	-0.21599665
-2.6218042	l _	-0.1857429
-2.28396	t _	-0.23195238
-1.8165116	d _	-0.23195238
-2.1460779	e _	-0.1857429
-2.2838671	f _	-0.1857429
-2.2645063	m _	-0.26573807
-2.1881502	0 _	-0.1857429
-2.4277902	c _	-0.1857429
-2.356701	u _	-0.1857429
-2.3721862	z _	-0.1857429
-1.9776994	y _	-0.1857429
-2.1968193	# č	-0.50728506
-2.6399097	a č	-0.1857429
-2.5776908	| č	-0.1857429
-2.5665212	i č	-0.1857429
-2.3320901	n č	-0.31203902
-2.77579	o č	-0.1857429
-2.6330974	p č	-0.1857429
-2.3553545	e č	-0.1857429
-2.0525596	u č	-0.24431607
-2.0610476	ī č	-0.1857429
-2.301956	" č	-0.1857429
-2.1706789	# =	-0.24762903
-2.1034782	g =	-0.1857429
-1.9346035	r =	-0.21824045
-1.9556379	n =	-0.23195238
-2.2184494	s =	-0.24431607
-2.5843828	l =	-0.1857429
-2.6634936	t =	-0.1857429
-2.5339818	d =	-0.1857429
-2.516095	p =	-0.1857429
-2.5233884	k =	-0.1857429
-2.1348825	e =	-0.25535908
-1.9822254	3 =	-0.1857429
-1.7593603	x =	-0.1857429
-1.4226844	1 =	-0.25201258
-1.8312758	2 =	-0.1857429
-2.2512364	h =	-0.1857429
-1.604954	= =	-0.24431607
-1.9717425	4 =	-0.1857429
-1.6097453	y =	-0.1857429
-1.4500813	q =	-0.1857429
-2.772293	# :	-0.1857429
-1.9160547	a :	-0.7285422
-1.9052525	i :	-0.6705502
-2.659423	r :	-0.1857429
-2.28251	n :	-0.31203902
-1.5931687	s :	-0.57814485
-2.2698584	' :	-0.1857429
-2.689108	t :	-0.1857429
-2.1219268	d :	-0.30257347
-1.9491129	] :	-0.1857429
-2.5395074	p :	-0.1857429
-2.5882134	ā :	-0.1857429
-2.5447226	k :	-0.1857429
-2.4512568	e :	-0.1857429
-1.9339385	m :	-0.2702901
-2.114537	c :	-0.31203902
-2.6278262	u :	-0.1857429
-2.231143	" :	-0.1857429
-2.7466493	# ķ	-0.26573807
-2.9823575	a ķ	-0.1857429
-2.616702	| ķ	-0.1857429
-2.4271936	i ķ	-0.26573807
-2.4499798	r ķ	-0.1857429
-2.8085585	o ķ	-0.1857429
-2.8570728	e ķ	-0.1857429
-1.4685855	š ķ	-0.2967962
-2.0247972	ņ ķ	-0.1857429
-2.3224146	| {	-0.31203902
-0.8651384	> {	-0.6036035
-2.412047	' {	-0.1857429
-1.602432	( {	-0.31203902
-0.854642	{ {	-0.22660542
-0.72439146	‹ {	-0.1857429
-2.5174391	# 9	-0.24431607
-2.221183	| 9	-0.1857429
-2.2800825	' 9	-0.1857429
-2.1239843	/ 9	-0.1857429
-1.5274323	7 9	-0.1857429
-1.9885627	8 9	-0.1857429
-1.8496152	0 9	-0.26573807
-1.4522773	5 9	-0.1857429
-2.0027745	3 9	-0.1857429
-1.2865342	6 9	-0.1857429
-1.5614105	( 9	-0.31203902
-1.1131805	1 9	-0.27285945
-2.1956053	2 9	-0.1857429
-2.1116624	= 9	-0.1857429
-1.4439135	9 9	-0.21080574
-1.4590557	4 9	-0.1857429
-1.2953141	– 9	-0.1857429
-2.91444	# 4	-0.1857429
-2.5553207	a 4	-0.1857429
-2.4224916	| 4	-0.1857429
-1.8234148	> 4	-0.1857429
-2.6224873	r 4	-0.1857429
-2.5240483	n 4	-0.1857429
-2.2405553	' 4	-0.1857429
-2.0844395	/ 4	-0.1857429
-2.5069413	m 4	-0.1857429
-1.1774809	0 4	-0.27424258
-2.4228935	. 4	-0.1857429
-1.609024	5 4	-0.1857429
-1.6237006	3 4	-0.1857429
-2.3841314	c 4	-0.1857429
-1.4753759	6 4	-0.24431607
-1.8845505	( 4	-0.1857429
-1.2388487	1 4	-0.21824045
-1.8277982	2 4	-0.1857429
-2.0760036	= 4	-0.1857429
-1.2406778	9 4	-0.22390126
-1.7123294	; 4	-0.1857429
-1.7421603	# "	-0.36018172
-1.8887135	a "	-0.32343024
-1.9476624	i "	-0.26573807
-2.286359	g "	-0.1857429
-2.286608	r "	-0.1857429
-2.3939004	n "	-0.1857429
-1.7331686	s "	-0.39226836
-1.8651754	w "	-0.1857429
-2.1324177	' "	-0.1857429
-2.2348814	l "	-0.1857429
-1.9395832	t "	-0.23195238
-2.3028626	o "	-0.1857429
-2.1792908	d "	-0.24431607
-1.8937835	] "	-0.1857429
-2.2933896	ē "	-0.1857429
-1.9762616	/ "	-0.1857429
-2.4346747	ā "	-0.1857429
-2.0305243	k "	-0.24431607
-2.3436341	e "	-0.1857429
-1.4665291	0 "	-0.28376535
-2.2985182	. "	-0.1857429
-1.5738991	5 "	-0.31203902
-2.266585	c "	-0.1857429
-1.691515	x "	-0.1857429
-1.9080406	6 "	-0.1857429
-2.254115	u "	-0.26573807
-1.8530407	1 "	-0.1857429
-1.7849553	2 "	-0.1857429
-2.145822	h "	-0.1857429
-1.2661852	= "	-0.20293891
-1.8861322	4 "	-0.1857429
-1.8625691	y "	-0.1857429
-0.9912771	% "	-0.1857429
-1.6794357	; "	-0.1857429
-2.368194	# y	-0.30633497
-1.9038806	a y	-0.1857429
-2.0395317	| y	-0.26573807
-1.6707582	b y	-0.22390126
-2.6749985	i y	-0.1857429
-2.3599408	g y	-0.1857429
-2.2086244	r y	-0.1857429
-2.1070955	n y	-0.26573807
-2.7134545	s y	-0.1857429
-2.4443889	v y	-0.1857429
-2.2858622	l y	-0.1857429
-1.9612517	t y	-0.23195238
-2.5971775	o y	-0.1857429
-2.4625535	p y	-0.1857429
-2.4742315	k y	-0.1857429
-2.6225786	e y	-0.1857429
-2.4637828	m y	-0.1857429
-2.3444636	c y	-0.1857429
-2.546903	u y	-0.1857429
-2.210589	h y	-0.1857429
-1.7021635	{ y	-0.1857429
-1.8720785	" y	-0.1857429
-1.9197099	y y	-0.1857429
-1.0010538	á y	-0.1857429
-0.4193532	̀ y	-0.1857429
-2.8326132	# ž	-0.1857429
-2.0722604	a ž	-0.26713362
-2.4020371	i ž	-0.26573807
-2.6291952	n ž	-0.1857429
-2.677313	l ž	-0.1857429
-2.7453213	o ž	-0.1857429
-1.7248675	d ž	-0.25336787
-2.1637814	ā ž	-0.28367054
-2.0336964	e ž	-0.24256514
-2.608745	m ž	-0.1857429
-2.070934	ū ž	-0.1857429
-2.3848188	u ž	-0.1857429
-2.0520291	ī ž	-0.1857429
-2.082193	8 %	-0.1857429
-1.9134125	0 %	-0.1857429
-2.0976079	5 %	-0.1857429
-1.9064497	# !	-0.47540954
-2.6893103	a !	-0.31203902
-1.5301244	< !	-0.31203902
-2.2716076	s !	-0.24431607
-2.3907301	h !	-0.1857429
-1.2260183	! !	-0.23195238
-2.6546152	# }	-0.31203902
-2.2301784	a }	-0.2702901
-2.4233775	i }	-0.31203902
-1.8194398	r }	-0.6036035
-1.7165706	n }	-0.6036035
-1.885333	w }	-0.1857429
-2.4788065	l }	-0.1857429
-2.2212436	t }	-0.30257347
-2.324646	o }	-0.31203902
-2.4329157	d }	-0.1857429
-2.4148946	p }	-0.1857429
-2.0067725	/ }	-0.1857429
-2.4682748	ā }	-0.1857429
-2.5693538	e }	-0.1857429
-2.18739	m }	-0.31203902
-2.0820937	0 }	-0.1857429
-1.9579095	ū }	-0.1857429
-1.9310765	6 }	-0.1857429
-1.9926813	u }	-0.4275122
-1.8859742	h }	-0.31203902
-1.5777186	y }	-0.31203902
-0.14868866	} }	-0.68718666
-1.5650359	ا }	-0.1857429
-1.279324	ن }	-0.1857429
-0.99559516	á }	-0.1857429
-1.084673	د }	-0.1857429
-0.24545148	ي }	-0.8668449
-1.4236964	q }	-0.1857429
-0.4179164	‎ }	-0.1857429
-0.4179164	ḍ }	-0.1857429
-2.7954257	# ;	-0.1857429
-2.8581228	a ;	-0.1857429
-2.0104616	s ;	-0.6036035
-2.2905533	' ;	-0.1857429
-1.9565524	] ;	-0.1857429
-2.5642543	p ;	-0.1857429
-2.6118689	ā ;	-0.1857429
-2.7387385	e ;	-0.1857429
-2.2710466	m ;	-0.31203902
-1.9946208	8 ;	-0.1857429
-1.9086982	u ;	-0.52442217
-1.81988	) ;	-0.31203902
-1.9855244	y ;	-0.1857429
-1.0110558	% ;	-0.1857429
-1.9663705	} ;	-0.1857429
-0.4219515	ẖ ;	-0.1857429
-2.6171687	# *	-0.21080574
-2.8112445	n ê	-0.1857429
-2.0532596	w ê	-0.1857429
-2.772661	p ê	-0.1857429
-3.3775632	# ك	-0.1857429
-2.760549	| أ	-0.1857429
-0.42573225	ك أ	-0.1857429
-1.5325369	ل أ	-0.1857429
-2.7071292	| س	-0.1857429
-0.8998619	أ س	-0.1857429
-1.5253998	ل س	-0.1857429
-0.4251485	إ س	-0.1857429
-0.6765741	ح س	-0.31203902
-2.7061286	# ا	-0.30257347
-2.541897	| ا	-0.1857429
-1.1853307	س ا	-0.1857429
-0.5777701	ع ا	-0.31203902
-1.3019316	م ا	-0.1857429
-1.1079268	ج ا	-0.1857429
-0.27865902	ه ا	-0.31203902
-0.5771693	ف ا	-0.1857429
-0.8929548	ب ا	-0.1857429
-1.1869576	ر ا	-0.1857429
-1.1079268	د ا	-0.1857429
-1.2002723	ي ا	-0.1857429
-0.42282107	ش ا	-0.1857429
-2.6595662	| ل	-0.1857429
-0.6715009	ا ل	-0.1857429
-1.518378	ل ل	-0.1857429
-1.1955442	ر ل	-0.1857429
-1.1164407	د ل	-0.1857429
-0.72381085	ق ل	-0.1857429
-0.42456543	خ ل	-0.1857429
-3.3674207	# ع	-0.1857429
-2.760549	| ع	-0.1857429
-1.5325369	ل ع	-0.1857429
-2.7071292	| م	-0.1857429
-1.6425297	ا م	-0.1857429
-1.5253998	ل م	-0.1857429
-1.6475174	ي م	-0.1857429
-0.4251485	ث م	-0.1857429
-2.7946923	d ü	-0.1857429
-2.4770107	# п	-0.28367054
-0.72594506	м п	-0.1857429
-3.1081145	# а	-0.1857429
-1.0167136	п а	-0.1857429
-1.252531	б а	-0.1857429
-1.4003305	л а	-0.1857429
-0.78925294	в а	-0.26573807
-1.476605	р а	-0.1857429
-0.87474495	н а	-0.1857429
-0.57840145	г а	-0.1857429
-0.7214961	ш а	-0.1857429
-0.8946714	ч а	-0.1857429
-0.7214961	з а	-0.1857429
-2.8183656	# ф	-0.26573807
-0.72439146	ф у	-0.1857429
-1.3182853	у у	-0.1857429
-0.75475097	т у	-0.31203902
-1.2617608	б у	-0.1857429
-1.4129711	л у	-0.1857429
-1.0533512	р у	-0.1857429
-1.5548285	а т	-0.1857429
-1.3182853	у т	-0.1857429
-1.2617608	е т	-0.1857429
-1.1178759	с т	-0.1857429
-1.3201774	и т	-0.1857429
-0.72439146	і т	-0.1857429
-2.9342172	# б	-0.1857429
-1.1962866	т б	-0.1857429
-1.4129711	л б	-0.1857429
-1.022446	д б	-0.1857429
-0.72439146	м б	-0.1857429
-1.0235842	я б	-0.1857429
-3.1883006	# о	-0.1857429
-1.2580453	б о	-0.1857429
-0.9734218	в о	-0.31203902
-1.0512725	р о	-0.1857429
-1.3140173	н о	-0.1857429
-1.020144	д о	-0.1857429
-1.3166224	и о	-0.1857429
-0.72323096	к о	-0.1857429
-0.93688905	а л	-0.1857429
-1.3182853	у л	-0.1857429
-1.3686737	о л	-0.1857429
-1.2617608	е л	-0.1857429
-1.022446	ө л	-0.1857429
-0.42485684	э л	-0.1857429
-1.3204352	у е	-0.1857429
-1.1978744	т е	-0.1857429
-0.97566044	л е	-0.1857429
-0.9759894	в е	-0.1857429
-0.8998619	ч е	-0.1857429
-2.9682207	# с	-0.1857429
-1.4188235	в с	-0.1857429
-1.3225956	н с	-0.1857429
-1.3237619	и с	-0.1857429
-1.4207361	л ь	-0.1857429
-1.1222106	с ь	-0.1857429
-1.324767	н ь	-0.1857429
-2.757399	# в	-0.26573807
-2.384877	' в	-0.1857429
-1.5481458	а в	-0.1857429
-1.193128	т в	-0.1857429
-0.92783606	о в	-0.1857429
-1.11501	с в	-0.1857429
-0.8972589	ь в	-0.1857429
-1.0512725	р в	-0.31203902
-1.0261853	п ъ	-0.1857429
-2.8877358	# р	-0.1857429
-1.0189974	п р	-0.1857429
-1.1156008	а р	-0.1857429
-1.2561995	б р	-0.1857429
-1.3618594	о р	-0.1857429
-1.2561995	е р	-0.1857429
-0.4239832	ъ р	-0.1857429
-0.4239832	ю р	-0.1857429
-0.7226519	з р	-0.1857429
-3.2513783	# н	-0.1857429
-0.92949843	о н	-0.1857429
-0.8211645	е н	-0.1857429
-0.8989925	ь н	-0.1857429
-1.022446	ө н	-0.1857429
-1.022446	й н	-0.1857429
-3.3529916	# ফ	-0.1857429
-0.42563564	ি ফ	-0.1857429
-0.72626996	ফ ি	-0.1857429
-0.72626996	ফ া	-0.1857429
-2.7876713	m ó	-0.1857429
-2.9682207	# ج	-0.1857429
-1.3237619	ن ج	-0.1857429
-1.6497438	ي ج	-0.1857429
-1.1211953	ح ج	-0.1857429
-1.6391494	ا ی	-0.1857429
-1.3175857	م ی	-0.1857429
-1.1178759	ج ی	-0.1857429
-1.2636594	ی ی	-0.1857429
-1.3201774	ن ی	-0.1857429
-1.0231552	ف ی	-0.1857429
-1.1217304	ج ه	-0.1857429
-1.2676914	ی ه	-0.1857429
-2.6826968	| ن	-0.1857429
-0.8989925	أ ن	-0.1857429
-0.8123183	ا ن	-0.24431607
-1.3175857	م ن	-0.1857429
-0.42485684	ۇ ن	-0.1857429
-1.6453025	ي ن	-0.1857429
-2.8155432	# ف	-0.2702901
-1.2681938	ی ف	-0.1857429
-0.90160596	ص ف	-0.1857429
-3.3775632	# ވ	-0.1857429
-0.4257983	ވ ޯ	-0.1857429
-0.4257983	ޯ ލ	-0.1857429
-0.42573225	ލ ް	-0.1857429
-0.42573225	ޑ ް	-0.1857429
-0.42573225	ޕ ް	-0.1857429
-0.90207	ް ޑ	-0.1857429
-3.3775632	# ކ	-0.1857429
-0.4257983	ކ ަ	-0.1857429
-0.4257983	ަ ޕ	-0.1857429
-3.3775632	# κ	-0.1857429
-0.4257983	κ ύ	-0.1857429
-0.4257983	ύ π	-0.1857429
-0.4257983	π ε	-0.1857429
-0.42563564	ε λ	-0.1857429
-0.72594506	λ λ	-0.1857429
-0.72626996	λ ο	-0.1857429
-3.3251998	# و	-0.1857429
-1.1994681	س و	-0.1857429
-1.3221639	م و	-0.1857429
-1.0251957	ف و	-0.1857429
-1.0264513	و ت	-0.1857429
-2.760549	| ب	-0.1857429
-0.42573225	ت ب	-0.1857429
-0.7565813	ر ب	-0.31203902
-3.3251998	# á	-0.1857429
-2.6444283	b á	-0.1857429
-2.7699788	d á	-0.1857429
-0.42544025	ḩ á	-0.1857429
-2.9862761	# फ	-0.1857429
-0.42573225	ी फ	-0.1857429
-0.726138	ि फ	-0.1857429
-1.0264513	फ ी	-0.1857429
-0.58091277	फ ा	-0.31203902
-2.9802184	# व	-0.31203902
-0.42563564	् व	-0.1857429
-1.0258806	फ ि	-0.1857429
-0.9013169	व ि	-0.1857429
-0.72626996	ि श	-0.1857429
-0.4257983	श ्	-0.1857429
-2.9862761	# ա	-0.1857429
-0.42573225	խ ա	-0.1857429
-0.42573225	ռ ա	-0.1857429
-1.0261853	ա շ	-0.1857429
-0.4257983	շ խ	-0.1857429
-1.0261853	ա ր	-0.1857429
-0.4257983	ր հ	-0.1857429
-0.4257983	հ ի	-0.1857429
-1.0261853	ա ռ	-0.1857429
-1.0261853	ա ջ	-0.1857429
-0.42563564	ջ ն	-0.1857429
-0.72594506	ւ ն	-0.1857429
-0.72594506	ն ո	-0.1857429
-0.42563564	յ ո	-0.1857429
-0.2802823	ո ւ	-0.1857429
-0.72626996	ւ թ	-0.1857429
-0.4257983	թ յ	-0.1857429
-3.3775632	# í	-0.1857429
-3.3529916	# მ	-0.1857429
-0.42563564	ე მ	-0.1857429
-0.72626996	მ ს	-0.1857429
-0.42563564	ს ო	-0.1857429
-0.45602703	ი ო	-0.1857429
-0.90180355	ო ფ	-0.1857429
-0.4257983	ფ ლ	-0.1857429
-0.42573225	ლ ი	-0.1857429
-0.42573225	პ ი	-0.1857429
-0.42573225	ტ ი	-0.1857429
-3.3775632	# ჩ	-0.1857429
-0.4257983	ჩ ე	-0.1857429
-0.72626996	მ პ	-0.1857429
-0.90180355	ო ნ	-0.1857429
-0.4257983	ნ ა	-0.1857429
-0.4257983	ა ტ	-0.1857429
-2.8038254	n î	-0.1857429
-2.6225562	c î	-0.1857429
-2.9862761	# д	-0.1857429
-1.324767	у д	-0.1857429
-0.42573225	ё д	-0.1857429
-3.3775632	# ല	-0.1857429
-0.4257983	ല ോ	-0.1857429
-0.42563564	ോ ക	-0.1857429
-0.72594506	ക ക	-0.1857429
-0.72594506	ക പ	-0.1857429
-0.72594506	് പ	-0.1857429
-0.2802823	പ ്	-0.1857429
-1.2010678	т ы	-0.1857429
-1.2673943	б ы	-0.1857429
-1.324767	н ы	-0.1857429
-3.3674207	# х	-0.1857429
-1.5650494	а х	-0.1857429
-1.4207361	л х	-0.1857429
-0.8231987	б ө	-0.1857429
-1.0259222	д ө	-0.1857429
-0.90160596	х ө	-0.1857429
-1.2667694	е м	-0.1857429
-1.0255375	ө м	-0.1857429
-1.4207361	л г	-0.1857429
-1.0564878	р г	-0.1857429
-1.0259222	ө г	-0.1857429
-1.0212935	п и	-0.1857429
-1.4117426	в и	-0.1857429
-1.4877911	р и	-0.1857429
-0.8981248	х и	-0.1857429
-0.5796671	г и	-0.1857429
-0.72381085	ш и	-0.1857429
-0.72381085	к и	-0.1857429
-0.48689753	и й	-0.28367054
-0.72594506	і й	-0.1857429
-1.0261853	д э	-0.1857429
-3.3529916	# ш	-0.1857429
-1.3240473	у ш	-0.1857429
-3.3529916	# ဖ	-0.1857429
-0.42563564	ီ ဖ	-0.1857429
-0.72626996	ဖ ီ	-0.1857429
-0.72626996	ဖ ာ	-0.1857429
-0.90180355	व क	-0.1857429
-0.4257983	क प	-0.1857429
-2.9904642	# ś	-0.31203902
-2.9300225	o ż	-0.1857429
-0.5803013	ع ر	-0.1857429
-1.0241742	و ر	-0.1857429
-0.72497284	غ ر	-0.1857429
-1.1198871	ح ر	-0.1857429
-0.8998619	ص ر	-0.1857429
-1.5333511	ل ڈ	-0.1857429
-2.9452822	t ë	-0.1857429
-2.4115214	f ë	-0.1857429
-3.3775632	# உ	-0.1857429
-0.42563564	உ ல	-0.1857429
-0.42563564	ெ ல	-0.1857429
-0.726138	ல க	-0.1857429
-0.90160596	க க	-0.1857429
-0.90160596	் க	-0.1857429
-0.90160596	க ்	-0.1857429
-0.726138	ப ்	-0.1857429
-0.42573225	த ்	-0.1857429
-0.90180355	க ோ	-0.1857429
-0.9013169	் ப	-0.1857429
-0.42563564	ோ ப	-0.1857429
-0.72626996	ப ை	-0.1857429
-3.3674207	# ч	-0.1857429
-1.324767	н ч	-0.1857429
-1.3255653	и ч	-0.1857429
-1.5616157	а я	-0.1857429
-1.3732766	о я	-0.1857429
-0.900733	ь я	-0.1857429
-1.4963739	р я	-0.1857429
-3.3251998	# د	-0.1857429
-1.1207609	ج د	-0.1857429
-1.3237619	ن د	-0.1857429
-0.5804623	و د	-0.1857429
-1.122539	د ۇ	-0.1857429
-2.541897	| ي	-0.1857429
-1.1853307	س ي	-0.1857429
-1.0778911	ل ي	-0.1857429
-1.3019316	م ي	-0.1857429
-1.1079268	ج ي	-0.1857429
-0.48437145	ن ي	-0.2702901
-0.8929548	ب ي	-0.1857429
-0.7513526	ر ي	-0.1857429
-1.1079268	د ي	-0.1857429
-1.1095603	ح ي	-0.1857429
-0.7203433	ق ي	-0.1857429
-0.42282107	ز ي	-0.1857429
-0.42282107	ط ي	-0.1857429
-1.4204187	в і	-0.1857429
-1.4983115	р і	-0.1857429
-2.4303942	h ế	-0.1857429
-3.0582993	i ớ	-0.1857429
-3.3529916	# ẹ	-0.1857429
-2.0992239	y ẹ	-0.1857429
-0.72626996	ẹ ̀	-0.1857429
-3.3529916	# à	-0.1857429
-1.856987	x à	-0.1857429
-2.9142268	r é	-0.1857429
-2.9532278	t é	-0.1857429
-2.1026316	y é	-0.1857429
-3.2513783	# –	-0.1857429
-3.0488358	a –	-0.1857429
-2.3224146	| –	-0.1857429
-2.8860047	t –	-0.1857429
-2.9196718	e –	-0.1857429
-2.3907301	h –	-0.1857429
-2.6642828	v ö	-0.1857429
-2.8509638	l ö	-0.1857429
-2.9142268	r @	-0.1857429
-3.075916	s @	-0.1857429
-2.6686764	v @	-0.1857429
-2.9622822	a q	-0.1857429
-2.5967586	| q	-0.1857429
-2.575538	i q	-0.1857429
-2.7767375	r q	-0.1857429
-2.359307	' q	-0.1857429
-2.665937	d q	-0.1857429
-2.1733804	e q	-0.4275122
-2.2561922	2 q	-0.1857429
-1.7832813	{ q	-0.1857429
-1.4781734	q q	-0.1857429
-2.9904642	# إ	-0.31203902
-3.1598947	# &	-0.1857429
-2.9131107	i &	-0.1857429
-2.7409713	l &	-0.1857429
-1.9576623	7 &	-0.1857429
-1.8849162	0 &	-0.1857429
-2.06286	3 &	-0.1857429
-2.1679237	c &	-0.1857429
-2.2655811	2 &	-0.1857429
-2.1931832	= &	-0.1857429
-2.3374069	0 °	-0.1857429
-1.7614499	; °	-0.1857429
-3.075916	s ?	-0.1857429
-2.772661	p ?	-0.1857429
-2.6898131	. ?	-0.1857429
-2.480201	# “	-0.28367054
-3.0734665	a ”	-0.1857429
-3.000658	i ”	-0.1857429
-3.0272663	s ”	-0.1857429
-2.7716913	ā ”	-0.1857429
-1.8461615	x ”	-0.1857429
-2.8183656	# „	-0.26573807
-3.3775632	# ச	-0.1857429
-0.4257983	ச ெ	-0.1857429
-0.72626996	ல வ	-0.1857429
-0.4257983	வ ு	-0.1857429
-0.4257983	ு த	-0.1857429
-3.3775632	# ю	-0.1857429
-1.5639102	а з	-0.1857429
-1.3748275	о з	-0.1857429
-3.3529916	# ‘	-0.1857429
-1.7614499	; ‘	-0.1857429
-2.9904642	# ®	-0.31203902
-2.9802184	# ʿ	-0.31203902
-2.4511762	' ʿ	-0.1857429
-2.8839426	u ş	-0.1857429
-0.4257983	ş ḩ	-0.1857429
-1.531348	ل غ	-0.1857429
-1.3237065	م غ	-0.1857429
-1.6512399	ي ة	-0.1857429
-0.72594506	غ ة	-0.1857429
-2.8839426	u ṭ	-0.1857429
-3.1338975	a ḫ	-0.1857429
-2.7330182	| ح	-0.1857429
-0.900733	أ ح	-0.1857429
-1.5289537	ل ح	-0.1857429
-0.900733	ب ح	-0.1857429
-2.751245	| ء	-0.1857429
-1.6482311	ا ء	-0.1857429
-0.72626996	ء ‎	-0.1857429
-2.7670228	| ث	-0.1857429
-2.760549	| ص	-0.1857429
-1.5325369	ل ص	-0.1857429
-1.3244712	م ص	-0.1857429
-2.7670228	| ش	-0.1857429
-1.6482311	ا ق	-0.1857429
-0.9013169	ص ق	-0.1857429
-2.7670228	| خ	-0.1857429
-1.6501504	ا ز	-0.1857429
-1.5333511	ل ط	-0.1857429
-2.3038101	/ χ	-0.1857429
-3.0674818	s ˁ	-0.1857429
-2.7832913	d ˁ	-0.1857429
-3.0674818	s ˠ	-0.1857429
-2.7832913	d ˠ	-0.1857429
-3.3529916	# ‹	-0.1857429
-2.0423636	( ‹	-0.1857429
-2.7832913	d ›	-0.1857429
-2.0086737	} ›	-0.1857429
-2.7670228	| ḍ	-0.1857429
-2.7946923	d ʒ	-0.1857429
-3.3775632	# ħ	-0.1857429
-3.3775632	# ḥ	-0.1857429
-3.3775632	# ẖ	-0.1857429
-3.3775632	# ả	-0.1857429
-2.2738867	. ↔	-0.31203902
-1.7484083	. ↓	-0.52442217
-2.4511762	' ↑	-0.1857429
-2.0916317	. ↑	-0.26573807
-0.72626996	ф ё	-0.1857429
-1.1217304	с к	-0.1857429
-0.90166056	ы к	-0.1857429
-2.694469	. —	-0.1857429

\3-grams:
-2.2532272	n a </s>	0
-2.3518353	s a </s>	0
-1.730401	f a </s>	0
-2.1013095	s | </s>	0
-0.45633623	á n </s>	0
-2.347683	a s </s>	0
-1.9090298	s s </s>	0
-1.6314601	ā s </s>	0
-1.9603395	e s </s>	0
-2.1174939	e t </s>	0
-2.0117903	l ā </s>	0
-1.9615508	d ā </s>	0
-2.1808288	m e </s>	0
-1.4798591	t m </s>	0
-1.6724472	š u </s>	0
-0.6635407	إ س </s>	0
-0.43466252	з а </s>	0
-0.39866376	и с </s>	0
-0.3855792	і й </s>	0
-0.36461127	த ் </s>	0
-0.32548794	x à </s>	0
-0.22565585	# ả </s>	0
-2.7721493	a # #	-0.13458118
-1.0063622	a a #	-0.13458118
-1.1880232	b a #	-0.17952128
-0.879748	i a #	-0.17129242
-1.0408993	g a #	-0.17965269
-1.0146188	r a #	-0.38779056
-0.8621652	n a #	-0.3608215
-1.0113895	s a #	-0.25030667
-1.0115955	v a #	-0.24074912
-0.99622035	l a #	-0.30786872
-0.9638801	t a #	-0.5246655
-0.97876555	d a #	-0.3636843
-1.192955	p a #	-0.19955496
-0.9782222	k a #	-0.3307666
-1.3373337	f a #	-0.13458118
-0.9740657	m a #	-0.30670592
-0.87457275	j a #	-0.34068185
-1.0994322	c a #	-0.15623355
-0.91882247	š a #	-0.17129242
-0.8842852	z a #	-0.18425313
-0.60538346	ļ a #	-0.20850632
-1.123708	h a #	-0.13458118
-0.5263703	ņ a #	-0.2325801
-0.68425417	č a #	-0.13458118
-1.1337814	= a #	-0.13458118
-0.43292385	ķ a #	-0.13458118
-1.0414468	y a #	-0.13458113
-0.9467076	ž a #	-0.13458113
-0.82711875	! a #	-0.13458118
-1.0103756	| | #	-0.13458118
-1.6366066	s | #	-0.13458118
-1.3437796	t | #	-0.13458118
-0.4317609	ē | #	-0.13458118
-1.4958501	e | #	-0.13458118
-1.119749	" | #	-0.19088143
-0.4317609	% | #	-0.13458118
-0.3847783	v + #	-0.13458118
-0.6228485	0 + #	-0.13458118
-1.1793371	i b #	-0.13458118
-1.2451413	s b #	-0.13458118
-1.488678	e b #	-0.13458118
-1.8881847	ī b #	-0.13458118
-0.7722354	a i #	-0.4397028
-1.2352922	b i #	-0.13458118
-0.66295326	g i #	-0.16181962
-1.1585348	r i #	-0.20575163
-1.0016824	n i #	-0.27606153
-1.040068	s i #	-0.22464927
-1.2453161	v i #	-0.19088143
-1.0969746	l i #	-0.17478897
-0.9472619	t i #	-0.42523575
-0.9079673	o i #	-0.13458118
-1.0622684	d i #	-0.21832086
-0.6657752	] i #	-0.13458118
-1.4994884	p i #	-0.13458118
-0.8235522	k i #	-0.24497192
-1.2007526	e i #	-0.17129242
-1.0054818	m i #	-0.22008295
-0.82011366	j i #	-0.2450168
-1.3635191	c i #	-0.17902234
-0.81407166	u i #	-0.13458118
-0.5842634	š i #	-0.255746
-1.1754986	z i #	-0.17129242
-1.282303	ģ i #	-0.13458118
-0.5543002	ļ i #	-0.19955496
-0.8897817	( i #	-0.13458118
-0.677753	ņ i #	-0.2479851
-0.9079673	č i #	-0.13458118
-0.823496	ķ i #	-0.13458118
-0.3526168	ž i #	-0.19638087
-0.40907013	! i #	-0.13458118
-0.40907013	ớ i #	-0.13458118
-1.2159286	a g #	-0.13458118
-1.438736	i g #	-0.13458118
-1.2053788	r g #	-0.13458118
-0.8786211	n g #	-0.16585414
-1.1800468	p g #	-0.13458118
-0.97227573	. g #	-0.13458118
-1.2478113	u g #	-0.13458118
-1.6791939	a r #	-0.13458113
-1.6884065	b r #	-0.13458118
-1.2948226	i r #	-0.13458118
-0.9613168	s r #	-0.13458118
-0.7183293	l r #	-0.13458118
-1.7562095	o r #	-0.13458118
-1.6389964	ē r #	-0.13458118
-1.6739756	ā r #	-0.13458118
-1.1339903	e r #	-0.16181962
-1.3815259	u r #	-0.22932473
-0.43144023	_ r #	-0.13458118
-1.162629	a n #	-0.17478897
-1.2976023	| n #	-0.13458118
-1.0094993	b n #	-0.13458118
-1.3492827	i n #	-0.13458118
-1.3573767	o n #	-0.13458118
-1.0643067	p n #	-0.13458118
-1.5096356	ā n #	-0.13458118
-1.4536741	e n #	-0.13458118
-1.2483828	u n #	-0.13458113
-0.95205265	h n #	-0.13458118
-0.4245523	ó n #	-0.13458118
-0.7674943	a s #	-0.7269601
-0.8781452	b s #	-0.17129242
-0.78589725	i s #	-0.4699745
-0.67097396	g s #	-0.16369775
-0.7943908	r s #	-0.30330956
-0.6841148	n s #	-0.25656477
-0.68090665	s s #	-0.21941195
-1.0927656	w s #	-0.13458118
-0.8530234	' s #	-0.13458113
-0.4230456	v s #	-0.15870738
-0.8092531	l s #	-0.18097651
-0.6854661	t s #	-0.46417862
-0.6521563	o s #	-0.50321054
-0.5533335	d s #	-0.23389672
-0.8969674	] s #	-0.13458113
-0.9113205	p s #	-0.13458113
-0.7110175	ē s #	-0.17129242
-1.0311216	/ s #	-0.13458118
-0.46077752	ā s #	-0.56935334
-0.8323398	k s #	-0.20890157
-0.805464	e s #	-0.50311
-0.27797723	f s #	-0.19088143
-0.6043785	m s #	-0.2910353
-0.6461687	j s #	-0.22889769
-0.89703834	ū s #	-0.13458113
-0.69408697	u s #	-0.43274996
-0.60066694	š s #	-0.13458118
-0.9071591	z s #	-0.13458118
-0.7385012	ī s #	-0.20386477
-0.6700509	h s #	-0.13458118
-0.41641486	- - #	-0.13458118
-0.67913115	v - #	-0.13458118
-0.41641486	/ - #	-0.13458118
-0.67913115	. - #	-0.13458118
-0.8671829	a w #	-0.13458118
-0.94519	w w #	-0.13458118
-1.049641	o w #	-0.13458118
-0.783114	e w #	-0.13458118
-0.78204715	' ' #	-0.35984966
-0.8405133	5 ' #	-0.13458118
-0.9325226	3 ' #	-0.13458118
-0.9390057	6 ' #	-0.13458118
-1.1509918	9 ' #	-0.13458118
-0.6817063	4 ' #	-0.13458118
-1.1486503	l v #	-0.13458118
-1.5580043	ā v #	-0.13458118
-1.3499551	e v #	-0.13458118
-1.385875	z v #	-0.13458118
-1.1615148	a l #	-0.17129242
-1.4820104	i l #	-0.13458118
-1.6767395	s l #	-0.13458118
-1.2350806	l l #	-0.13458118
-1.7491263	o l #	-0.13458118
-1.3170346	p l #	-0.13458118
-1.2465911	ē l #	-0.15114017
-1.5337042	e l #	-0.13458118
-0.95792	m l #	-0.13458118
-0.4304347	– l #	-0.13458118
-1.3693049	a t #	-0.13458118
-0.6781028	b t #	-0.13458118
-1.3911645	i t #	-0.13458118
-0.83460504	g t #	-0.18425313
-1.3028324	r t #	-0.17129242
-1.4314578	n t #	-0.13458118
-1.0571417	s t #	-0.30981475
-1.378138	l t #	-0.13458118
-0.82963705	o t #	-0.41039926
-1.4129658	p t #	-0.13458118
-0.8504315	ē t #	-0.23072778
-1.1455072	ā t #	-0.1873597
-1.2758113	k t #	-0.15114017
-1.279087	e t #	-0.21342255
-1.02757	f t #	-0.13458118
-1.1518371	m t #	-0.13458118
-0.41585293	5 t #	-0.13458118
-0.9634275	ū t #	-0.17902234
-1.3872904	u t #	-0.13458118
-0.8999469	ī t #	-0.23638904
-1.3634025	b o #	-0.13458118
-1.0452281	i o #	-0.13458113
-0.9546144	g o #	-0.13458118
-1.1243181	r o #	-0.20642157
-1.2369006	n o #	-0.15870738
-1.4464692	s o #	-0.13458118
-0.8554636	v o #	-0.13458118
-1.0689623	l o #	-0.17129242
-0.88952565	t o #	-0.30728438
-1.3280226	d o #	-0.16181962
-1.2852751	p o #	-0.16181962
-0.9472102	k o #	-0.23238836
-1.2049136	e o #	-0.13458118
-1.1136662	m o #	-0.16835566
-1.2434005	j o #	-0.19405684
-1.3842719	c o #	-0.13458118
-0.5914304	š o #	-0.17610748
-0.8559538	ņ o #	-0.13458118
-1.0248623	ž o #	-0.13458118
-1.0586106	a d #	-0.21053152
-1.3336432	r d #	-0.13458118
-0.90506476	s d #	-0.13458118
-0.9876371	v d #	-0.13458118
-1.1690252	l d #	-0.13458118
-0.81524295	p d #	-0.13458118
-1.158241	ē d #	-0.13458118
-1.0084438	e d #	-0.13458118
-0.81524295	c d #	-0.13458118
-1.2133584	ū d #	-0.13458118
-1.3271489	u d #	-0.13458118
-1.2517492	ī d #	-0.13458118
-1.1903405	_ d #	-0.13458118
-0.41452393	y d #	-0.13458118
-1.6387465	a p #	-0.13458118
-1.3482233	r p #	-0.13458118
-1.506944	s p #	-0.13458118
-1.0344077	v p #	-0.13458118
-1.2532388	t p #	-0.13458113
-1.1360354	m p #	-0.13458118
-0.44038376	c p #	-0.13458118
-0.9494637	x p #	-0.13458118
-1.1288798	u p #	-0.2113959
-0.64074415	i ē #	-0.13458118
-1.1379149	r ē #	-0.13458118
-0.92922175	n ē #	-0.13458118
-0.7745248	s ē #	-0.17129242
-1.2953488	v ē #	-0.13458118
-1.0689079	l ē #	-0.18425313
-0.8335238	t ē #	-0.15254904
-1.0956675	d ē #	-0.17902234
-0.39503193	k ē #	-0.13458118
-1.1124959	m ē #	-0.15623355
-0.7677742	. ē #	-0.13458118
-1.1306286	c ē #	-0.13458118
-0.9703807	z ē #	-0.13458118
-0.9696153	g / #	-0.13458118
-1.1955289	/ / #	-0.13458118
-0.783133	b ā #	-0.17129242
-1.0017798	g ā #	-0.13458113
-0.9667712	r ā #	-0.2748978
-0.893421	n ā #	-0.22387625
-0.9067347	s ā #	-0.17902234
-0.9890403	v ā #	-0.2735906
-0.96642303	l ā #	-0.20983529
-0.80866414	t ā #	-0.3977588
-0.8376386	d ā #	-0.26956272
-0.853022	p ā #	-0.21139586
-0.8608255	k ā #	-0.32002333
-0.8376477	m ā #	-0.26557177
-0.94202685	j ā #	-0.22706206
-0.7732272	c ā #	-0.13458118
-0.57301706	š ā #	-0.17555356
-1.1785935	z ā #	-0.13458118
-0.8062979	ļ ā #	-0.13458118
-0.26110128	ņ ā #	-0.17129242
-0.65432566	ķ ā #	-0.13458118
-1.5736574	a k #	-0.13458118
-1.0998242	i k #	-0.18865024
-1.391604	r k #	-0.13458118
-1.2713631	n k #	-0.13458118
-1.0060478	l k #	-0.13458118
-0.87329173	ā k #	-0.36239803
-1.459801	e k #	-0.13458118
-0.42365208	j k #	-0.13458118
-1.0603931	c k #	-0.13458118
-1.2063564	ī k #	-0.13458118
-0.6361784	a e #	-0.13458118
-1.4952039	b e #	-0.13458113
-1.0695969	i e #	-0.31230885
-1.4389001	r e #	-0.19088143
-1.0321301	n e #	-0.15623355
-1.2895471	s e #	-0.15623355
-1.3662513	v e #	-0.13458113
-1.0144787	l e #	-0.22451939
-1.0801688	t e #	-0.2506588
-1.2037401	o e #	-0.13458118
-1.3738813	d e #	-0.15870738
-1.0366344	p e #	-0.13458113
-1.4174589	k e #	-0.13458118
-1.1299292	e e #	-0.13458118
-1.104847	m e #	-0.17129242
-1.2229984	j e #	-0.13458118
-1.1209452	c e #	-0.19088143
-1.0458375	z e #	-0.16585414
-1.1599777	ģ e #	-0.13458118
-1.3406911	h e #	-0.13458118
-1.347989	a f #	-0.13458118
-0.9706899	l f #	-0.13458118
-1.3775015	e f #	-0.13458118
-0.95913076	f f #	-0.13458118
-0.93789923	a m #	-0.27335304
-0.91997415	i m #	-0.2523619
-1.2958189	r m #	-0.13458118
-0.7785651	t m #	-0.13458118
-1.2397199	o m #	-0.21724823
-0.9768652	ē m #	-0.13458118
-0.5063162	ā m #	-0.42766052
-1.13347	e m #	-0.19055386
-0.4166514	f m #	-0.13458118
-1.3749378	u m #	-0.15870738
-1.1729988	z m #	-0.13458118
-0.93727934	ī m #	-0.13458118
-1.1120634	_ m #	-0.13458118
-1.8120362	a j #	-0.13458118
-1.8625226	ē j #	-0.13458113
-1.6592361	ā j #	-0.13458118
-1.4217374	e j #	-0.13458118
-1.0757011	u j #	-0.13458118
-0.7172887	6 7 #	-0.13458118
-0.8842411	0 8 #	-0.13458118
-0.38285798	5 8 #	-0.13458118
-0.69227254	3 8 #	-0.13458118
-0.3614122	, 8 #	-0.13458118
-0.38285798	1 8 #	-0.13458113
-0.3614122	} 8 #	-0.13458118
-0.3614122	– 8 #	-0.13458118
-0.6782164	| 0 #	-0.13458118
-0.9771853	7 0 #	-0.13458118
-0.86125845	8 0 #	-0.13458113
-0.9771853	4 0 #	-0.13458118
-0.41591507	} 0 #	-0.13458118
-0.38464496	a . #	-0.3365095
-0.1351643	i . #	-0.4867402
-0.7693118	g . #	-0.13458113
-0.3208259	> . #	-0.13458118
-0.31594923	r . #	-0.2113959
-0.6095414	n . #	-0.13458118
-0.29832262	s . #	-0.48047802
-0.3208259	' . #	-0.13458113
-0.34718633	v . #	-0.13458118
-0.7801335	l . #	-0.13458118
-0.35150328	t . #	-0.17129242
-0.42456502	o . #	-0.13458118
-0.6640781	d . #	-0.13458118
-0.38464004	p . #	-0.16585414
-0.16579494	ē . #	-0.20310342
-0.13787155	ā . #	-0.37866592
-0.3185913	k . #	-0.15870738
-0.2680686	e . #	-0.15114017
-0.38667133	m . #	-0.25244153
-0.51751536	j . #	-0.13458118
-0.6699858	8 . #	-0.13458118
-0.7748489	0 . #	-0.17902234
-0.6095414	. . #	-0.13458118
-0.23633718	5 . #	-0.13458113
-0.5737908	3 . #	-0.13458118
-0.49262166	c . #	-0.13458118
-0.43735895	6 . #	-0.17902234
-0.17442098	u . #	-0.3683325
-0.22119151	š . #	-0.13458113
-0.22119151	ī . #	-0.13458118
-0.3208259	ļ . #	-0.13458118
-0.52543294	1 . #	-0.13458113
-0.10323103	) . #	-0.2787416
-0.525275	2 . #	-0.13458118
-0.51751536	h . #	-0.13458118
-0.3208259	č . #	-0.13458118
-0.51067275	9 . #	-0.13458113
-0.67568654	4 . #	-0.13458118
-0.096663415	" . #	-0.23591502
-0.3208259	› . #	-0.13458118
-0.849658	5 5 #	-0.13458118
-0.85035694	1 5 #	-0.25558284
-0.49624938	2 5 #	-0.13458118
-0.7263897	4 5 #	-0.13458118
-0.37700558	} 5 #	-0.13458118
-0.37700558	; 5 #	-0.13458118
-0.5913986	p 3 #	-0.13458118
-0.5913986	7 3 #	-0.13458118
-0.3663235	, 3 #	-0.13458118
-0.77155674	1 3 #	-0.13458118
-0.5913986	2 3 #	-0.13458118
-0.5913986	4 3 #	-0.13458118
-0.3663235	; 3 #	-0.13458118
-0.8323611	b c #	-0.13458118
-1.1963454	i c #	-0.18790905
-1.2503655	o c #	-0.13458118
-1.0500674	ē c #	-0.13458118
-1.4708725	ā c #	-0.13458118
-1.4395769	e c #	-0.13458118
-0.942393	f c #	-0.13458118
-1.1387701	u c #	-0.13458118
-1.2937952	t ū #	-0.13458113
-0.7077657	d ū #	-0.13458118
-0.56580853	| x #	-0.13458118
-0.8075204	i x #	-0.13458118
-0.6700611	p x #	-0.13458118
-0.3509022	. x #	-0.13458118
-0.6700611	u x #	-0.13458118
-0.90594697	8 6 #	-0.13458118
-1.0556968	0 6 #	-0.13458118
-0.40833604	, 6 #	-0.13458118
-0.38578254	4 6 #	-0.13458113
-1.5233353	a u #	-0.13458113
-1.0475587	| u #	-0.13458118
-0.7219638	b u #	-0.22057095
-0.81825054	g u #	-0.16424821
-0.673105	r u #	-0.31602836
-0.45617908	n u #	-0.35547704
-0.5797255	s u #	-0.23828086
-0.69244796	v u #	-0.22457582
-0.6509459	l u #	-0.27273473
-0.72143185	t u #	-0.51848376
-0.63871884	d u #	-0.32407296
-0.94089687	p u #	-0.16585414
-0.85453564	/ u #	-0.13458118
-0.8450454	k u #	-0.27947244
-0.64127624	m u #	-0.3073054
-0.7500765	j u #	-0.29883012
-0.71162075	c u #	-0.19088143
-0.3276103	š u #	-0.25844583
-0.59779453	z u #	-0.13458118
-0.30691895	ļ u #	-0.26278886
-0.41970605	ņ u #	-0.33771667
-0.21240652	č u #	-0.14993621
-0.37697652	ķ u #	-0.13458118
-0.45015472	ž u #	-0.15870738
-0.39709878	! u #	-0.13458118
-1.154321	r š #	-0.13458118
-0.66736865	p š #	-0.13458118
-1.3192466	k š #	-0.13458118
-1.3837627	e š #	-0.13458118
-0.54190296	j š #	-0.19088143
-0.8038296	ū š #	-0.13458113
-0.892454	ņ š #	-0.13458118
-0.02096656	a , #	-0.43733877
-0.06432155	b , #	-0.13458118
-0.0081376145	i , #	-0.4659583
-0.047170237	r , #	-0.13458118
-0.047170237	n , #	-0.13458113
-0.006000025	s , #	-0.60326815
-0.06432155	- , #	-0.13458118
-0.06432155	' , #	-0.13458118
-0.06432155	v , #	-0.13458118
-0.013926026	t , #	-0.25902075
-0.020033801	o , #	-0.15421993
-0.048269536	d , #	-0.13458118
-0.048269536	p , #	-0.13458118
-0.028313467	ē , #	-0.23432988
-0.0081376145	ā , #	-0.37783808
-0.047170237	k , #	-0.17129242
-0.0234645	e , #	-0.19309814
-0.028313467	m , #	-0.28681242
-0.15137029	0 , #	-0.13458118
-0.020033801	. , #	-0.20724665
-0.11378983	3 , #	-0.13458118
-0.03568995	c , #	-0.15870738
-0.047170237	ū , #	-0.25558284
-0.047170237	x , #	-0.13458118
-0.009234243	u , #	-0.49858326
-0.048269536	š , #	-0.17902234
-0.048269536	ī , #	-0.19940805
-0.06432155	ļ , #	-0.13458118
-0.047170237	1 , #	-0.13458118
-0.009234243	) , #	-0.28149575
-0.048269536	h , #	-0.18425313
-0.06432155	4 , #	-0.13458118
-0.015501322	" , #	-0.20828028
-0.06432155	} , #	-0.13458118
-0.048269536	” , #	-0.13458113
-0.047170237	ˁ , #	-0.13458113
-0.047170237	ˠ , #	-0.13458118
-0.06432155	ħ , #	-0.13458118
-0.06432155	ḥ , #	-0.13458118
-1.3814971	a z #	-0.13458118
-1.1197944	| z #	-0.13458118
-1.5026991	i z #	-0.17478897
-1.1284211	d z #	-0.21772191
-1.2680689	e z #	-0.13458118
-1.0387025	u z #	-0.14428957
-1.0047218	ī z #	-0.13458118
-1.2999951	r ī #	-0.1926023
-1.1666657	n ī #	-0.13458118
-1.088784	s ī #	-0.13458118
-1.3485012	v ī #	-0.13458118
-1.2968975	t ī #	-0.13458113
-0.81788963	š ī #	-0.15421993
-1.3293062	a ļ #	-0.13458118
-0.99658364	ē ļ #	-0.13458118
-1.4131067	e ļ #	-0.13458118
-0.39326313	a 1 #	-0.13458118
-1.1855	| 1 #	-0.13458118
-0.39326313	i 1 #	-0.13458113
-0.39326313	p 1 #	-0.13458118
-0.39326313	f 1 #	-0.13458118
-0.45663303	6 1 #	-0.13458113
-0.8707768	1 1 #	-0.13458118
-0.843628	2 1 #	-0.13458118
-0.63763446	h 1 #	-0.13458118
-0.4400609	a ) #	-0.17478897
-0.47544414	b ) #	-0.13458118
-0.35630956	i ) #	-0.17129242
-0.31990772	s ) #	-0.19559775
-0.46164858	' ) #	-0.28949693
-0.47544414	o ) #	-0.13458118
-0.60620266	] ) #	-0.13458113
-0.29361004	p ) #	-0.13458118
-0.29361004	ē ) #	-0.13458118
-0.5026267	ā ) #	-0.2113959
-0.47544414	f ) #	-0.13458118
-0.47544414	m ) #	-0.13458118
-0.25837013	. ) #	-0.15870738
-0.47544414	6 ) #	-0.13458118
-0.3575729	u ) #	-0.13458113
-0.29361004	h ) #	-0.13458118
-0.29361004	9 ) #	-0.13458118
-0.27370614	" ) #	-0.19088143
-0.60620266	} ) #	-0.13458118
-0.35079083	a 2 #	-0.13458118
-0.35079083	i 2 #	-0.13458118
-0.2323247	s 2 #	-0.13458118
-0.66982895	p 2 #	-0.13458118
-0.35079083	e 2 #	-0.13458118
-0.66982895	7 2 #	-0.13458118
-0.66982895	5 2 #	-0.13458118
-0.4662373	3 2 #	-0.13458118
-0.70462316	6 2 #	-0.13458118
-0.34017912	2 2 #	-0.2113959
-0.35079083	h 2 #	-0.13458118
-0.85568774	= 2 #	-0.13458118
-0.35079083	; 2 #	-0.13458118
-1.0940808	s h #	-0.14889552
-1.3213992	t h #	-0.13458118
-0.93475556	p h #	-0.13458118
-1.0051949	/ h #	-0.13458118
-1.0238584	c h #	-0.13458118
-0.62361336	i č #	-0.13458118
-0.38522023	p č #	-0.13458118
-0.7449734	e č #	-0.13458118
-1.0025539	= = #	-0.13458118
-0.039406423	a : #	-0.16835566
-0.04533956	i : #	-0.19638087
-0.15658705	r : #	-0.13458118
-0.111441195	n : #	-0.13458118
-0.10751633	s : #	-0.1597325
-0.15658705	' : #	-0.13458118
-0.114249654	d : #	-0.13458118
-0.15658705	] : #	-0.13458118
-0.15658705	ā : #	-0.13458118
-0.15658705	k : #	-0.13458118
-0.2812523	e : #	-0.13458118
-0.17793514	m : #	-0.19088143
-0.111441195	c : #	-0.13458118
-0.15658705	u : #	-0.13458118
-0.15658705	" : #	-0.13458118
-0.9516888	6 9 #	-0.13458118
-0.4285757	– 9 #	-0.13458118
-0.6714995	' 4 #	-0.13458118
-0.96589935	0 4 #	-0.13458118
-0.3515914	c 4 #	-0.13458118
-0.46714997	6 4 #	-0.13458113
-0.62617075	1 4 #	-0.25558284
-0.6714995	2 4 #	-0.13458118
-0.8329863	9 4 #	-0.13458118
-0.3515914	; 4 #	-0.13458118
-0.41299024	a " #	-0.13458118
-0.48680764	i " #	-0.13458118
-0.27204734	g " #	-0.13458118
-0.27204734	n " #	-0.13458118
-0.41389513	s " #	-0.17129242
-0.27204734	w " #	-0.13458118
-0.563016	' " #	-0.13458118
-0.4430788	l " #	-0.13458118
-0.42864078	t " #	-0.13458118
-0.4430788	o " #	-0.13458118
-0.6020887	d " #	-0.13458118
-0.5192522	] " #	-0.13458113
-0.27204734	ē " #	-0.13458118
-0.27204734	/ " #	-0.13458118
-0.27204734	ā " #	-0.13458118
-0.37753242	k " #	-0.13458118
-0.5192522	e " #	-0.13458118
-0.49529403	0 " #	-0.13458118
-0.27204734	. " #	-0.13458118
-0.27204734	c " #	-0.13458118
-0.27204734	x " #	-0.13458118
-0.27204734	6 " #	-0.13458118
-0.30380136	u " #	-0.13458113
-0.4430788	1 " #	-0.13458118
-0.4430788	2 " #	-0.13458118
-0.4430788	h " #	-0.13458118
-0.27204734	4 " #	-0.13458118
-0.27204734	% " #	-0.13458118
-0.27204734	; " #	-0.13458113
-0.9876543	a y #	-0.13458118
-0.75601864	r y #	-0.13458118
-0.7814899	n y #	-0.13458118
-0.75601864	l y #	-0.13458118
-0.39000988	e y #	-0.13458118
-1.0620949	i ž #	-0.13458118
-1.0127062	ā ž #	-0.13458118
-1.2587886	e ž #	-0.13458118
-0.37089774	8 % #	-0.13458118
-0.8743298	s ! #	-0.13458118
-0.39656296	h ! #	-0.13458118
-0.13712104	a ; #	-0.13458118
-0.047422107	s ; #	-0.16181962
-0.13712104	' ; #	-0.13458118
-0.13712104	] ; #	-0.13458113
-0.32950833	p ; #	-0.13458118
-0.13712104	ā ; #	-0.13458118
-0.13712104	e ; #	-0.13458118
-0.0982288	m ; #	-0.13458118
-0.13712104	8 ; #	-0.13458118
-0.057561122	u ; #	-0.16585414
-0.0982288	) ; #	-0.13458118
-0.13712104	y ; #	-0.13458118
-0.13712104	} ; #	-0.13458118
-0.13712104	ẖ ; #	-0.13458118
-0.35061076	n ê #	-0.13458118
-0.32129216	أ س #	-0.13458118
-0.5182489	إ س #	-0.13458118
-0.7748631	ف ا #	-0.13458118
-0.6460242	ي ا #	-0.13458118
-1.0729738	ا ل #	-0.13458118
-0.6552739	ل م #	-0.13458118
-0.3596064	п а #	-0.13458118
-0.5801784	г а #	-0.13458118
-0.3596064	ч а #	-0.13458118
-0.23055877	т у #	-0.13458118
-0.34769288	л у #	-0.13458118
-0.26445732	в о #	-0.2113959
-0.76855326	а л #	-0.13458118
-0.5894127	о л #	-0.13458118
-0.6489849	л е #	-0.13458118
-0.40431792	й н #	-0.13458118
-0.21544428	ফ া #	-0.13458118
-0.21973838	ا ی #	-0.13458118
-0.21973838	م ی #	-0.13458118
-0.21973838	ی ی #	-0.13458118
-0.36761373	ن ی #	-0.13458118
-0.22930314	ޑ ް #	-0.13458118
-0.22930314	ޕ ް #	-0.13458118
-0.21544428	λ ο #	-0.13458118
-0.15021186	फ ा #	-0.13458118
-0.56533056	् व #	-0.13458118
-0.21544428	հ ի #	-0.13458118
-0.31267592	ւ ն #	-0.13458118
-0.21544428	# í #	-0.13458118
-0.56533056	ი ო #	-0.13458118
-0.35319966	ტ ი #	-0.13458118
-0.31267592	n î #	-0.13458118
-0.5047646	പ ് #	-0.13458118
-0.22930314	т ы #	-0.13458118
-0.22930314	н ы #	-0.13458118
-0.35061076	а х #	-0.13458118
-0.5734384	и й #	-0.13458113
-0.21544428	ဖ ာ #	-0.13458118
-0.21544428	क प #	-0.13458118
-0.21544428	ل ڈ #	-0.13458118
-0.21544428	ப ை #	-0.13458118
-0.35061076	и ч #	-0.13458118
-0.20565054	а я #	-0.13458118
-0.20565054	ь я #	-0.13458118
-0.20565054	р я #	-0.13458118
-0.21544428	h ế #	-0.13458118
-0.31267592	y ẹ #	-0.13458118
-0.35061076	y é #	-0.13458118
-0.31267592	0 ° #	-0.13458118
-0.35319966	. ? #	-0.13458118
-0.36946312	a ” #	-0.13458118
-0.36946312	i ” #	-0.13458118
-0.22105321	ā ” #	-0.13458118
-0.22105321	x ” #	-0.13458118
-0.15021186	# ® #	-0.13458118
-0.1534338	ي ة #	-0.13458118
-0.1534338	غ ة #	-0.13458118
-0.31267592	| ء #	-0.13458118
-0.7091595	. ↑ #	-0.13458118
-0.43077844	<s> # a	-0.13458118
-1.2739431	a # a	-0.58586353
-1.2604116	i # a	-0.5143479
-0.9521023	g # a	-0.17902234
-1.405768	r # a	-0.19088143
-1.100637	n # a	-0.24531993
-1.3512154	s # a	-0.6446112
-1.5098298	' # a	-0.13458113
-1.1337622	l # a	-0.13458118
-1.1284785	t # a	-0.43735692
-1.139498	o # a	-0.33119643
-1.3352723	d # a	-0.22853503
-1.392988	p # a	-0.13458118
-1.2172945	ē # a	-0.17902234
-1.235399	ā # a	-0.6000135
-1.3549007	k # a	-0.19955496
-1.392258	e # a	-0.19088143
-1.0339463	f # a	-0.13458118
-1.2469013	m # a	-0.28891653
-1.1490691	0 # a	-0.13458118
-1.1884809	. # a	-0.57267886
-1.2584335	c # a	-0.23045549
-0.95907915	ū # a	-0.13458118
-1.2608651	u # a	-0.57716763
-1.1135453	š # a	-0.17129242
-1.2500356	, # a	-0.5522225
-1.3930975	z # a	-0.20724665
-1.4130883	ī # a	-0.17129242
-1.1390852	ļ # a	-0.13458118
-1.1666746	) # a	-0.26372406
-1.4393164	2 # a	-0.13458118
-1.3981197	h # a	-0.13458118
-0.43077844	= # a	-0.13458118
-1.2319043	: # a	-0.19088143
-1.2927132	4 # a	-0.13458118
-1.1863941	" # a	-0.17902234
-1.2796197	; # a	-0.13458118
-0.8573623	й # a	-0.13458118
-2.0609112	# a a	-0.13458118
-1.0821205	a a a	-0.2113959
-2.0221026	s a a	-0.13458118
-2.0783706	l a a	-0.13458118
-2.1210477	t a a	-0.13458118
-1.0928298	o a a	-0.13458118
-1.6908085	p a a	-0.13458118
-2.0058544	k a a	-0.13458118
-2.035794	m a a	-0.13458118
-1.6133028	z a a	-0.13458118
-0.72954583	q a a	-0.13458118
-0.9929791	# | a	-0.32037967
-1.3107256	a | a	-0.25558284
-1.1197567	| | a	-0.25558284
-1.1973945	i | a	-0.13458118
-1.324652	s | a	-0.22853503
-1.0968889	e | a	-0.19088143
-1.2371767	x | a	-0.13458118
-1.4192889	) | a	-0.13458118
-1.0858102	2 | a	-0.13458118
-1.3774543	" | a	-0.13458118
-0.427615	c + a	-0.13458118
-0.85232055	# b a	-0.444492
-0.61420447	a b a	-0.2215547
-0.43684456	| b a	-0.3422299
-1.0819578	i b a	-0.13458118
-0.94449806	r b a	-0.13458118
-0.86236644	n b a	-0.13458118
-0.9429458	s b a	-0.13458118
-0.8752078	' b a	-0.13458113
-0.71831685	[ b a	-0.13458118
-0.75376207	t b a	-0.28954282
-1.1048532	o b a	-0.13458118
-0.37337586	p b a	-0.13458118
-0.576594	/ b a	-0.25558284
-0.7490488	ā b a	-0.13458113
-0.37337586	k b a	-0.13458118
-1.0771322	e b a	-0.13458118
-0.8622039	m b a	-0.13458113
-0.93036085	. b a	-0.13458118
-1.086823	u b a	-0.13458118
-0.5086535	ī b a	-0.61750495
-0.49207813	" b a	-0.13458113
-0.37337586	“ b a	-0.13458118
-1.5401825	g i a	-0.13458118
-1.4758375	r i a	-0.17902234
-1.9216994	n i a	-0.13458118
-1.638789	s i a	-0.25558284
-1.4171807	w i a	-0.13458118
-1.9543065	v i a	-0.13458118
-2.0489314	l i a	-0.13458118
-1.8831546	t i a	-0.13458118
-1.221745	d i a	-0.23088674
-1.5683311	c i a	-0.13458118
-0.50518525	# g a	-0.774633
-0.69820464	a g a	-0.13458113
-0.6089669	| g a	-0.13458118
-0.7626403	i g a	-0.13458118
-0.78485245	r g a	-0.13458118
-0.94133276	n g a	-0.13458118
-0.3872308	s g a	-0.13458118
-0.70307136	[ g a	-0.13458113
-0.64426905	l g a	-0.13458113
-1.1168135	o g a	-0.13458118
-0.91796905	p g a	-0.13458118
-0.5546424	ē g a	-0.13458118
-0.734464	ā g a	-0.13458118
-0.734464	k g a	-0.13458118
-0.9678845	e g a	-0.13458113
-0.36641982	m g a	-0.13458118
-0.82714653	. g a	-0.25558284
-0.77527606	u g a	-0.13458118
-0.853492	z g a	-0.13458118
-0.79843783	ī g a	-0.39993957
-0.734464	( g a	-0.13458118
-0.24831434	_ g a	-0.28954282
-1.3401082	/ > a	-0.13458118
-0.38365835	<s> r a	-0.13458118
-0.67862475	# r a	-0.49462286
-0.80531776	a r a	-0.32013425
-0.8700012	| r a	-0.13458113
-0.7336699	b r a	-0.28347614
-1.1344979	i r a	-0.2113959
-0.7032383	g r a	-0.21139586
-0.38365835	> r a	-0.13458118
-0.57873666	r r a	-0.13458113
-0.81706274	s r a	-0.13458118
-0.36637977	- r a	-0.13458113
-0.74140567	' r a	-0.13458118
-0.81706274	[ r a	-0.13458118
-0.92854315	l r a	-0.13458118
-0.6526694	t r a	-0.32757118
-1.058569	o r a	-0.2113959
-1.0130694	d r a	-0.17902234
-0.8704504	p r a	-0.23045549
-0.99215245	ē r a	-0.23591502
-0.76857567	/ r a	-0.13458118
-1.1493737	ā r a	-0.17902234
-0.79586244	k r a	-0.24871401
-0.893348	e r a	-0.3230652
-0.9828086	f r a	-0.13458118
-0.74198365	ū r a	-0.15870738
-1.144983	u r a	-0.16181962
-0.62091273	š r a	-0.13458118
-0.74198365	z r a	-0.19088143
-0.8792932	ī r a	-0.19088143
-0.81706274	( r a	-0.13458118
-0.74140567	= r a	-0.13458118
-0.81706274	" r a	-0.13458118
-0.62091273	ž r a	-0.13458118
-0.38365835	& r a	-0.13458118
-0.38365835	„ r a	-0.13458118
-0.9338385	# n a	-0.3051903
-1.2857028	a n a	-0.18790905
-0.81444985	| n a	-0.13458113
-0.9414744	b n a	-0.13458118
-0.93265235	i n a	-0.38816682
-0.8800005	g n a	-0.13458118
-0.8504478	r n a	-0.19436994
-0.7333029	n n a	-0.13458118
-1.1779876	l n a	-0.13458118
-1.049789	t n a	-0.13458113
-0.9575448	o n a	-0.29361835
-0.8826742	ē n a	-0.13458118
-0.8728705	ā n a	-0.22853503
-0.9589969	k n a	-0.13458118
-1.2180622	e n a	-0.2383198
-0.26278174	. n a	-0.13458118
-0.67387563	ū n a	-0.2113959
-1.2627059	u n a	-0.2113959
-0.6043014	ī n a	-0.19436994
-0.8962259	# s a	-0.64004785
-1.2088435	a s a	-0.15623355
-1.394048	| s a	-0.13458118
-1.4074311	i s a	-0.19638087
-1.3371185	g s a	-0.13458118
-1.2540728	r s a	-0.13458118
-1.4505041	n s a	-0.13458118
-1.2582533	s s a	-0.13458113
-0.9831331	- s a	-0.13458118
-1.1481884	' s a	-0.13458118
-1.0558475	[ s a	-0.13458118
-1.2418536	l s a	-0.13458118
-1.4855125	t s a	-0.13458118
-1.1929073	o s a	-0.16181962
-1.3554997	d s a	-0.13458118
-1.2737658	p s a	-0.13458118
-1.3223071	ā s a	-0.17129242
-1.2285197	k s a	-0.13458113
-1.297206	e s a	-0.19088143
-1.4310272	m s a	-0.13458118
-1.3077699	j s a	-0.13458118
-1.0696751	. s a	-0.13458118
-1.194566	ū s a	-0.13458118
-1.4797021	u s a	-0.22079787
-1.0753613	š s a	-0.13458118
-1.2646072	z s a	-0.13458118
-0.8118702	( s a	-0.13458118
-0.9023356	{ s a	-0.13458118
-1.0167414	" s a	-0.13458118
-0.4131803	ž s a	-0.13458118
-0.73744094	o - a	-0.13458118
-0.9477983	# w a	-0.2113959
-0.4067991	i w a	-0.13458118
-1.0723022	o w a	-0.13458118
-0.26331234	y w a	-0.13458118
-1.9597576	' ' a	-0.19955496
-0.73467445	t ' a	-0.13458118
-1.2207788	[ [ a	-0.28167248
-0.63049436	# v a	-0.88191116
-0.65614134	a v a	-0.3853574
-0.6727988	| v a	-0.28954282
-0.5758574	b v a	-0.13458118
-1.0566502	i v a	-0.13458118
-0.9292395	r v a	-0.13458118
-0.91657144	n v a	-0.13458118
-0.5490869	s v a	-0.3422299
-0.74823695	' v a	-0.13458118
-0.74823695	[ v a	-0.13458118
-0.35700098	v v a	-0.13458118
-0.65662396	l v a	-0.13458113
-0.48605582	t v a	-0.17129242
-0.46219975	o v a	-0.17129242
-0.8315581	ā v a	-0.2113959
-0.57536936	k v a	-0.28954282
-0.65960836	e v a	-0.16181962
-0.5758574	m v a	-0.13458118
-0.5758574	j v a	-0.13458118
-0.8017578	u v a	-0.2113959
-0.682877	š v a	-0.13458118
-0.53387845	z v a	-0.22079787
-0.7622551	ī v a	-0.23591502
-0.74823695	( v a	-0.13458118
-0.35700098	{ v a	-0.13458118
-0.777284	! v a	-0.13458118
-0.35700098	„ v a	-0.13458118
-0.63246435	# l a	-0.74410844
-1.0637126	a l a	-0.13458118
-0.6080143	| l a	-0.29997912
-1.0295266	b l a	-0.13458118
-1.1572562	i l a	-0.13458113
-0.77575195	g l a	-0.13458113
-0.87064147	r l a	-0.13458118
-0.71513	n l a	-0.13458118
-0.69552636	s l a	-0.20828028
-0.83476543	' l a	-0.13458118
-0.785962	[ l a	-0.13458118
-0.9932986	l l a	-0.25558284
-1.0044188	t l a	-0.13458118
-0.89254403	o l a	-0.23994896
-0.7064543	p l a	-0.25300413
-0.8140277	ē l a	-0.13458118
-0.35707888	/ l a	-0.2113959
-0.75308955	ā l a	-0.39806098
-0.74224627	k l a	-0.19955496
-0.8899112	e l a	-0.26219058
-0.49042115	f l a	-0.25558284
-0.785962	m l a	-0.13458118
-0.85837793	. l a	-0.13458118
-0.868246	c l a	-0.13458118
-0.9186725	u l a	-0.13458118
-0.6008588	š l a	-0.13458118
-0.779804	z l a	-0.19088143
-0.85837793	ī l a	-0.13458118
-0.785962	( l a	-0.13458118
-0.868246	_ l a	-0.13458118
-0.74522996	= l a	-0.13458118
-0.6008588	{ l a	-0.13458118
-0.9176385	" l a	-0.13458113
-0.8124263	y l a	-0.13458118
-0.37193277	! l a	-0.13458118
-0.37193277	* l a	-0.13458118
-0.96332896	# t a	-0.3672503
-1.0342971	a t a	-0.3035144
-0.9633232	| t a	-0.13458118
-0.92686254	i t a	-0.26219058
-0.9283723	g t a	-0.13458113
-0.94936943	r t a	-0.26429313
-0.973775	n t a	-0.17129242
-0.82029414	s t a	-0.38355336
-0.9553697	- t a	-0.13458118
-0.7908885	[ t a	-0.13458118
-1.02537	l t a	-0.17129242
-1.1107578	t t a	-0.13458118
-1.058965	o t a	-0.3823142
-0.75219667	p t a	-0.17902234
-0.8881382	ē t a	-0.4356544
-0.6578791	/ t a	-0.13458118
-0.8555613	ā t a	-0.39163965
-0.9876479	k t a	-0.29472968
-0.9286598	e t a	-0.24304238
-0.81077933	m t a	-0.13458113
-0.7390481	. t a	-0.2113959
-1.2508782	ū t a	-0.13458118
-0.9084269	u t a	-0.19955496
-1.0840517	š t a	-0.13458118
-0.885	ī t a	-0.42160252
-0.7235812	( t a	-0.19088143
-0.7908885	_ t a	-0.13458118
-1.8201488	r o a	-0.13458118
-1.7445437	n o a	-0.13458118
