\data\
ngram 1=151
ngram 2=1672
ngram 3=7518
ngram 4=18474
ngram 5=29458

\1-grams:
-3.6564507	<unk>	0
0	<s>	-0.58461213
-2.2092714	</s>	0
-1.7273206	|	-0.4920116
-1.6876032	v	-0.6813804
-1.8553815	å	-0.5777407
-1.6876032	p	-0.660138
-1.596621	e	-0.86024916
-1.5574042	n	-0.7353978
-1.894311	=	-0.5274045
-1.6285479	s	-0.8501949
-1.6397339	k	-0.75989026
-1.5574042	i	-0.79450285
-1.9601501	_	-0.33908182
-1.6285479	o	-0.79944324
-1.6630094	m	-0.6266027
-1.5574042	a	-0.91510487
-1.6512158	r	-0.7319529
-1.596621	t	-0.8106336
-1.3950484	#	-1.0510328
-1.6397339	f	-0.75336224
-1.8028386	y	-0.5951971
-1.596621	l	-0.7343827
-1.7004429	h	-0.68844086
-1.6751323	u	-0.8108966
-2.1323867	[	-0.34594488
-1.6397339	d	-0.7321154
-1.8028386	1	-0.47589952
-2.1323867	6	-0.34008583
-2.0670877	5	-0.37807038
-1.9601501	ø	-0.5327282
-1.9601501	w	-0.41585016
-1.6751323	.	-0.5675977
-1.6751323	g	-0.673593
-1.7866478	c	-0.5382818
-1.6751323	,	-0.7215208
-1.6176428	'	-0.5212226
-2.5870717	ò	-0.2868389
-1.6751323	b	-0.71802175
-1.7559719	-	-0.457771
-1.8744102	j	-0.64833754
-2.5870717	(	-0.2363302
-1.7866478	)	-0.6283876
-2.0670877	0	-0.44987047
-3.1178358	മ	-0.3867754
-3.3648574	ല	-0.20565161
-3.3648574	യ	-0.20565161
-3.3648574	ാ	-0.20565161
-3.3648574	ള	-0.20565161
-3.3648574	ം	-0.20565161
-2.0985112	9	-0.3569985
-2.0103357	]	-0.51277274
-1.8744102	2	-0.36751518
-2.2092714	&	-0.5077059
-2.1323867	;	-0.3482333
-2.4967716	<	-0.38677543
-2.4967716	ā	-0.26934174
-3.3648574	ḷ	-0.20565161
-2.0670877	æ	-0.5396751
-2.5870717	«	-0.25252244
-2.0377855	»	-0.67101026
-2.1691298	z	-0.33384454
-2.2092714	7	-0.28900784
-2.4220536	x	-0.22457036
-1.8371516	/	-0.34237328
-2.0670877	3	-0.30582932
-2.2092714	"	-0.4946131
-2.5870717	*	-0.24124846
-1.8553815	:	-0.53550035
-2.4967716	>	-0.25805682
-2.4220536	%	-0.27039033
-2.0985112	4	-0.35556072
-3.1178358	+	-0.20565161
-3.3648574	°	-0.20565161
-2.4220536	?	-0.20565161
-3.3648574	ë	-0.20565161
-2.1691298	8	-0.3097387
-3.1178358	š	-0.3867754
-3.3648574	ý	-0.20565161
-3.3648574	п	-0.20565161
-2.5870717	а	-0.20565161
-2.7012124	с	-0.31766462
-3.1178358	т	-0.20565161
-3.1178358	и	-0.20565161
-2.5870717	р	-0.2868389
-2.5870717	к	-0.2868389
-2.7012124	à	-0.20565161
-3.3648574	‘	-0.20565161
-3.1178358	ה	-0.20565161
-3.3648574	ע	-0.20565161
-3.3648574	ב	-0.20565161
-3.3648574	ו	-0.20565161
-3.3648574	ד	-0.20565161
-2.5870717	ا	-0.2868389
-3.1178358	ل	-0.20565161
-3.3648574	ع	-0.20565161
-3.1178358	م	-0.20565161
-3.3648574	ک	-0.20565161
-3.1178358	ر	-0.20565161
-3.3648574	گ	-0.20565161
-3.1178358	н	-0.20565161
-3.3648574	ş	-0.20565161
-3.3648574	ç	-0.20565161
-2.7012124	{	-0.20565161
-3.1178358	!	-0.20565161
-2.2535045	ô	-0.31327787
-2.7012124	â	-0.20565161
-2.3027592	q	-0.4192468
-2.7012124	’	-0.26934174
-2.7012124	ù	-0.20565161
-3.3648574	û	-0.20565161
-2.4220536	é	-0.26052994
-3.3648574	è	-0.20565161
-3.3648574	ब	-0.20565161
-3.1178358	्	-0.20565161
-3.3648574	र	-0.20565161
-3.3648574	ह	-0.20565161
-3.3648574	म	-0.20565161
-3.3648574	ा	-0.20565161
-3.3648574	ö	-0.20565161
-2.7012124	ó	-0.31766462
-3.3648574	ğ	-0.20565161
-3.3648574	ü	-0.20565161
-3.3648574	ث	-0.20565161
-3.1178358	ن	-0.20565161
-3.1178358	ي	-0.20565161
-3.3648574	ة	-0.20565161
-3.3648574	و	-0.20565161
-3.3648574	π	-0.20565161
-3.3648574	ό	-0.20565161
-3.3648574	λ	-0.20565161
-3.3648574	ε	-0.20565161
-3.3648574	μ	-0.20565161
-3.3648574	ο	-0.20565161
-3.3648574	ς	-0.20565161
-3.3648574	전	-0.20565161
-3.3648574	쟁	-0.20565161
-3.3648574	г	-0.20565161
-3.3648574	е	-0.20565161
-3.3648574	о	-0.20565161
-3.3648574	у	-0.20565161
-3.3648574	ц	-0.20565161
-3.3648574	я	-0.20565161
-3.3648574	ı	-0.20565161
-3.3648574	в	-0.20565161
-3.3648574	і	-0.20565161
-3.3648574	й	-0.20565161
-3.1178358	í	-0.20565161
-3.3648574	ñ	-0.20565161
-3.3648574	ł	-0.20565161
-3.3648574	đ	-0.20565161

\2-grams:
-2.7180526	s </s>	0
-2.664256	i </s>	0
-2.2770648	o </s>	0
-2.1727974	a </s>	0
-2.5484557	d </s>	0
-1.993375	, </s>	0
-1.5645115	x </s>	0
-0.7156894	ý </s>	0
-1.1007998	а </s>	0
-0.7156894	и </s>	0
-1.1164895	<s> |	-0.2701915
-1.6375942	| |	-0.22771183
-2.1659508	e |	-0.18228364
-1.7830892	n |	-0.22771183
-2.0015957	s |	-0.27845314
-1.9956985	k |	-0.22092386
-2.0891254	i |	-0.22092386
-2.046148	o |	-0.25234187
-1.9580473	m |	-0.18228364
-2.5047805	a |	-0.18228364
-2.0436168	r |	-0.22092386
-2.3939168	t |	-0.18228364
-1.4059153	# |	-0.4556417
-2.2259305	f |	-0.18228364
-2.093266	y |	-0.18228364
-2.104927	l |	-0.18228364
-2.2877035	d |	-0.18228364
-1.9118543	1 |	-0.18228364
-1.5899346	6 |	-0.18228364
-1.7968647	w |	-0.18228364
-2.07526	. |	-0.18228364
-1.9115217	g |	-0.24397567
-1.9690906	c |	-0.18228364
-2.2204077	b |	-0.18228364
-1.9482033	) |	-0.18228364
-1.7161427	] |	-0.18228364
-1.7324508	2 |	-0.18228364
-1.4590895	x |	-0.18228364
-1.5196959	3 |	-0.18228364
-1.2769144	8 |	-0.33591688
-0.86200607	{ |	-0.18228364
-1.626833	| v	-0.25234187
-1.6953416	å v	-0.27845314
-2.1606426	p v	-0.18228364
-1.5585052	e v	-0.4640115
-2.0147815	n v	-0.27845314
-2.0459118	= v	-0.18228364
-1.336033	s v	-0.49459326
-1.5684925	k v	-0.42888775
-1.5194248	i v	-0.39689615
-1.7137597	_ v	-0.18228364
-1.375477	o v	-0.4214592
-1.9416456	m v	-0.27845314
-1.3742092	a v	-0.38135368
-1.7096934	r v	-0.36174604
-1.9516175	t v	-0.2511287
-1.4775985	# v	-0.8921896
-2.0694015	y v	-0.18228364
-1.7594357	l v	-0.23819964
-1.8944377	h v	-0.33591688
-1.4885924	u v	-0.25166744
-1.6982375	[ v	-0.18228364
-2.0424647	d v	-0.18228364
-1.3578786	ø v	-0.30181202
-1.7785213	w v	-0.18228364
-2.050877	. v	-0.18228364
-1.9880654	g v	-0.18228364
-1.9759787	' v	-0.18228364
-1.5795345	- v	-0.27845314
-1.611054	( v	-0.18228364
-1.9322271	) v	-0.18228364
-1.5180098	« v	-0.18228364
-1.7604856	/ v	-0.18228364
-0.8584883	í v	-0.18228364
-0.40895033	đ v	-0.18228364
-2.076632	| å	-0.18228364
-1.6118448	v å	-0.2511287
-1.865745	p å	-0.23739688
-2.5384424	e å	-0.18228364
-2.407498	n å	-0.18228364
-2.1522067	= å	-0.18228364
-1.7551031	s å	-0.32395747
-2.1356134	k å	-0.18228364
-2.466686	i å	-0.18228364
-1.3931669	m å	-0.33030996
-1.6012025	r å	-0.25187486
-1.7903966	t å	-0.2751296
-1.844456	# å	-0.47352466
-2.2924652	f å	-0.18228364
-1.7007283	l å	-0.23819964
-1.8294806	h å	-0.18228364
-1.8412876	d å	-0.30053484
-1.5797056	g å	-0.33254406
-2.066135	' å	-0.18228364
-1.3413403	b å	-0.5521587
-1.7311037	- å	-0.33591688
-1.6422918	j å	-0.27845314
-1.5741391	« å	-0.18228364
-1.8086162	<s> p	-0.18228364
-1.7265551	| p	-0.18228364
-2.1341584	v p	-0.18228364
-1.9938247	å p	-0.18228364
-1.5546789	p p	-0.27704287
-1.6009054	e p	-0.31026766
-2.2904878	n p	-0.18228364
-1.8191353	= p	-0.18228364
-1.3628523	s p	-0.4766624
-2.0725536	k p	-0.18228364
-1.5194248	i p	-0.251475
-1.3393906	o p	-0.33952913
-1.7066364	m p	-0.21223177
-1.6156737	a p	-0.2908815
-1.894304	r p	-0.25166744
-1.8477232	t p	-0.22092386
-1.5284774	# p	-0.67794967
-2.0694015	y p	-0.18228364
-2.0870118	l p	-0.25234187
-2.1586297	h p	-0.18228364
-1.4885924	u p	-0.29531574
-1.6982375	[ p	-0.18228364
-1.640805	ø p	-0.23739688
-1.3306926	. p	-0.27845314
-2.204215	g p	-0.18228364
-1.9759787	' p	-0.18228364
-1.5795345	- p	-0.25234187
-1.9625545	j p	-0.18228364
-1.611054	( p	-0.18228364
-1.535763	0 p	-0.27845314
-1.588749	æ p	-0.18228364
-1.0606128	/ p	-0.22771183
-1.4201403	" p	-0.18228364
-1.1860571	é p	-0.18228364
-1.5993757	| e	-0.30053484
-0.7824606	v e	-0.53286266
-1.6689198	å e	-0.18228364
-0.9497688	p e	-0.53027356
-1.9870582	e e	-0.25234187
-1.1056703	n e	-0.49207205
-1.7802503	= e	-0.18228364
-1.1980588	s e	-0.5605704
-1.1858522	k e	-0.50056195
-1.508533	i e	-0.33448252
-1.6671168	_ e	-0.18228364
-1.9984419	o e	-0.25234187
-0.980554	m e	-0.52130795
-1.868093	a e	-0.23032038
-0.97939587	r e	-0.6350458
-1.1228443	t e	-0.63437444
-1.4415779	# e	-0.64659554
-1.1874192	f e	-0.3439688
-1.251943	y e	-0.28678656
-1.0148394	l e	-0.5983453
-0.90020573	h e	-0.40270168
-1.3766005	u e	-0.2989218
-1.6538221	[ e	-0.18228364
-1.0342801	d e	-0.5597228
-1.6184968	5 e	-0.18228364
-1.8923562	ø e	-0.18228364
-1.0242016	w e	-0.21590161
-1.9918478	. e	-0.18228364
-1.1615853	g e	-0.44986752
-1.1378076	c e	-0.27371296
-1.920472	' e	-0.18228364
-1.0632207	b e	-0.42605317
-1.552866	- e	-0.27845314
-0.6993159	j e	-0.42927027
-1.5644064	( e	-0.18228364
-1.7966954	0 e	-0.18228364
-1.57147	z e	-0.18228364
-1.4126352	x e	-0.18228364
-1.4365566	/ e	-0.18228364
-1.5371053	* e	-0.18228364
-1.7551892	: e	-0.18228364
-1.1688956	é e	-0.18228364
-1.5862716	| n	-0.2701915
-1.8136865	v n	-0.18228364
-1.3931932	å n	-0.30053484
-1.5308928	p n	-0.23886971
-1.1255189	e n	-0.7110774
-1.5973775	n n	-0.3487155
-1.4401404	= n	-0.2511287
-1.949621	s n	-0.23032038
-1.3903564	k n	-0.3230755
-1.0003157	i n	-0.6192062
-1.3592975	_ n	-0.33591688
-1.1399055	o n	-0.44028527
-1.4878641	m n	-0.30734733
-1.168169	a n	-0.70908606
-1.7578497	r n	-0.25133067
-1.6130903	t n	-0.38813794
-1.519219	# n	-0.76441586
-2.1233828	f n	-0.18228364
-1.2472548	y n	-0.2582106
-1.9484259	l n	-0.18228364
-2.0751624	h n	-0.18228364
-1.0860174	u n	-0.47795263
-1.6332092	[ n	-0.18228364
-1.5868812	d n	-0.34104046
-1.1276014	ø n	-0.2751296
-1.7120348	w n	-0.18228364
-1.1238394	. n	-0.5935514
-1.7169927	g n	-0.25166744
-1.8749986	c n	-0.18228364
-1.8951706	' n	-0.18228364
-1.5401217	- n	-0.23739688
-1.2566092	( n	-0.18228364
-0.2821943	& n	-0.5132295
-1.0441084	ā n	-0.18228364
-1.5551821	æ n	-0.18228364
-1.2217604	z n	-0.18228364
-1.3216363	/ n	-0.30394903
-1.5170424	* n	-0.18228364
-1.7382917	: n	-0.18228364
-0.22115786	š n	-0.33591688
-0.84469557	à n	-0.18228364
-1.032938	! n	-0.18228364
-0.8814535	ô n	-0.18228364
-0.84469557	â n	-0.18228364
-0.4040009	û n	-0.18228364
-0.39105815	ó n	-0.33591688
-2.242364	v =	-0.18228364
-2.092187	å =	-0.18228364
-1.6198992	e =	-0.3017521
-1.8130913	n =	-0.1998889
-0.9337773	= =	-0.43980983
-2.2959964	s =	-0.18228364
-2.0428755	k =	-0.18228364
-2.1435905	i =	-0.27845314
-2.1987545	o =	-0.18228364
-2.2906563	m =	-0.18228364
-2.3760602	a =	-0.18228364
-1.9463779	r =	-0.24651682
-2.0010433	t =	-0.22404358
-1.7187741	# =	-0.41120973
-2.3108234	f =	-0.18228364
-1.7967672	l =	-0.21203516
-1.7292225	d =	-0.2856012
-1.3342972	1 =	-0.23739688
-1.9589428	g =	-0.18228364
-1.1020513	2 =	-0.23739688
-1.694189	8 =	-0.18228364
-1.4203234	<s> s	-0.18228364
-1.3449036	| s	-0.26117498
-1.5778039	v s	-0.26581946
-1.1144542	å s	-0.33254406
-1.5446093	p s	-0.21223177
-1.2908484	e s	-0.516333
-1.4532682	n s	-0.3631624
-1.3691103	= s	-0.26117498
-1.3869449	s s	-0.3194314
-1.3553029	k s	-0.32558814
-1.128817	i s	-0.5749352
-1.0942738	_ s	-0.2511287
-1.2426308	o s	-0.31670228
-1.5012794	m s	-0.21371073
-1.2014848	a s	-0.5652218
-1.5199687	r s	-0.3477018
-1.3782792	t s	-0.36497062
-1.3506111	# s	-0.9305097
-1.1917937	y s	-0.35100654
-1.5354227	l s	-0.32118624
-1.874054	h s	-0.18228364
-1.1392177	u s	-0.39908817
-1.6699502	[ s	-0.18228364
-1.467985	d s	-0.29895535
-1.6244596	ø s	-0.18228364
-1.7495723	w s	-0.18228364
-1.6786159	. s	-0.23739688
-1.4765829	g s	-0.26933974
-1.8713717	, s	-0.18228364
-1.6820526	' s	-0.206472
-1.6656821	b s	-0.18228364
-1.2058129	- s	-0.22771183
-1.2760911	( s	-0.22771183
-1.5744462	æ s	-0.18228364
-1.4947125	« s	-0.18228364
-1.3393261	/ s	-0.22771183
-1.5527852	* s	-0.18228364
-1.1053987	: s	-0.2701915
-1.175252	é s	-0.18228364
-1.7915533	<s> k	-0.18228364
-1.2571785	| k	-0.3579608
-1.5739032	å k	-0.22092386
-2.128935	p k	-0.18228364
-1.3891189	e k	-0.52654755
-1.7632563	n k	-0.22771183
-1.7992578	= k	-0.18228364
-1.2003795	s k	-0.5661218
-1.5006682	k k	-0.3792007
-1.3982732	i k	-0.46417227
-0.9725325	_ k	-0.3671015
-1.3027508	o k	-0.36917865
-1.920698	m k	-0.18228364
-1.3948553	a k	-0.4750135
-1.6320095	r k	-0.31448928
-2.0691876	t k	-0.18228364
-1.474833	# k	-0.8126282
-1.3315809	y k	-0.26334074
-1.5370686	l k	-0.23446907
-2.1289887	h k	-0.18228364
-1.4836737	u k	-0.40979537
-1.6754622	[ k	-0.18228364
-2.0217369	d k	-0.18228364
-1.1358547	ø k	-0.29212204
-1.5280142	. k	-0.2701915
-1.9671445	g k	-0.18228364
-1.2363249	c k	-0.18228364
-1.9473392	' k	-0.18228364
-2.1661313	b k	-0.18228364
-1.1326722	- k	-0.31232747
-1.5871042	( k	-0.18228364
-1.5490913	; k	-0.18228364
-1.1631863	æ k	-0.18228364
-1.1440322	« k	-0.18228364
-1.7340945	/ k	-0.18228364
-1.5581402	* k	-0.18228364
-0.8538419	{ k	-0.18228364
-1.3110228	ô k	-0.18228364
-1.5862716	| i	-0.30053484
-0.803025	v i	-0.5574001
-1.9193444	å i	-0.18228364
-1.3126293	p i	-0.23325494
-1.3080972	e i	-0.49793994
-1.0839998	n i	-0.3880042
-1.9535989	= i	-0.18228364
-1.278466	s i	-0.40740103
-1.3903564	k i	-0.31309727
-1.896199	i i	-0.18228364
-1.6455486	_ i	-0.18228364
-2.238553	o i	-0.18228364
-1.1123172	m i	-0.46324432
-1.6862038	a i	-0.31021765
-1.1255374	r i	-0.5012533
-1.1383975	t i	-0.48686296
-1.469354	# i	-0.58369434
-0.99853706	f i	-0.3769067
-1.7599313	y i	-0.18228364
-1.0298834	l i	-0.57879066
-1.0117192	h i	-0.38739458
-1.6912677	u i	-0.21590161
-1.6332092	[ i	-0.18228364
-1.2103946	d i	-0.40935346
-1.6007895	5 i	-0.18228364
-1.6025627	ø i	-0.18228364
-1.3099241	w i	-0.30394903
-1.4002057	. i	-0.2511287
-1.3068205	g i	-0.2951081
-1.343577	c i	-0.18228364
-1.6564884	' i	-0.18228364
-1.2623885	b i	-0.34963876
-1.5401217	- i	-0.27845314
-1.2977555	j i	-0.18228364
-1.5428361	( i	-0.18228364
-1.4640632	« i	-0.18228364
-1.5538744	z i	-0.18228364
-1.3969033	x i	-0.18228364
-1.6856852	/ i	-0.18228364
-1.5170424	* i	-0.18228364
-1.7382917	: i	-0.18228364
-1.1478744	? i	-0.18228364
-0.84469557	à i	-0.18228364
-0.4040009	ç i	-0.18228364
-1.3768985	q i	-0.18228364
-1.0441084	’ i	-0.18228364
-2.3426144	e _	-0.18228364
-2.2057118	n _	-0.18228364
-2.214448	s _	-0.18228364
-2.1676128	k _	-0.18228364
-2.5324795	i _	-0.18228364
-1.4430771	_ _	-0.18228364
-2.3281841	m _	-0.18228364
-2.6610878	a _	-0.18228364
-2.480671	r _	-0.18228364
-1.8955244	t _	-0.18228364
-2.8424218	# _	-0.18228364
-1.2320455	6 _	-0.18228364
-2.3747296	g _	-0.18228364
-2.0712767	c _	-0.18228364
-1.6109343	7 _	-0.18228364
-1.885777	/ _	-0.18228364
-1.1491728	3 _	-0.18228364
-1.6871779	4 _	-0.18228364
-1.2556686	| o	-0.30581647
-1.1733654	v o	-0.30086064
-1.064351	p o	-0.4240957
-1.9976202	e o	-0.25234187
-1.1278377	n o	-0.4286723
-1.7062287	= o	-0.18228364
-1.4497625	s o	-0.32133678
-1.008472	k o	-0.4725529
-1.432385	i o	-0.37044364
-1.6840264	_ o	-0.18228364
-2.0109417	o o	-0.18228364
-1.3695422	m o	-0.30435604
-1.8751428	a o	-0.3103533
-1.242386	r o	-0.39337233
-1.2219983	t o	-0.42705598
-1.5245957	# o	-0.7228717
-0.8490695	f o	-0.63801545
-1.689526	y o	-0.23739688
-1.2879065	l o	-0.37248123
-1.0494726	h o	-0.29018095
-2.2759616	u o	-0.18228364
-1.6699502	[ o	-0.18228364
-1.3239025	d o	-0.3922018
-1.9105687	ø o	-0.18228364
-1.1509784	w o	-0.18228364
-1.6786159	. o	-0.27845314
-1.3622608	g o	-0.24397567
-0.84553576	c o	-0.35431084
-0.97689486	b o	-0.44852036
-1.900197	- o	-0.18228364
-1.0821223	j o	-0.26117498
-1.5813175	( o	-0.18228364
-1.380927	& o	-0.18228364
-1.1420135	« o	-0.18228364
-1.2360389	z o	-0.18228364
-1.1640908	? o	-0.18228364
-1.0453291	! o	-0.18228364
-1.0550702	’ o	-0.18228364
-0.4068812	ł o	-0.18228364
-1.4256946	<s> m	-0.18228364
-1.4645993	| m	-0.23739688
-1.9804902	å m	-0.18228364
-1.4192455	e m	-0.37564355
-1.8710588	n m	-0.2701915
-1.57141	= m	-0.25234187
-1.4528726	s m	-0.42237213
-2.2723172	k m	-0.18228364
-1.5166762	i m	-0.2789652
-1.701621	_ m	-0.18228364
-1.1683822	o m	-0.46820027
-1.507158	m m	-0.39650816
-1.396426	a m	-0.3825563
-1.704786	r m	-0.3215991
-1.8421017	t m	-0.2511287
-1.4605467	# m	-0.8249596
-1.4256467	y m	-0.23032038
-1.6705523	l m	-0.25166744
-1.8861691	h m	-0.18228364
-1.2986872	u m	-0.3223656
-1.6867006	[ m	-0.18228364
-1.6921479	d m	-0.18228364
-1.5238872	ø m	-0.2511287
-1.977479	g m	-0.33591688
-1.9354101	c m	-0.18228364
-1.9614229	' m	-0.18228364
-0.97664803	ò m	-0.18228364
-1.6719589	- m	-0.18228364
-1.5989139	( m	-0.18228364
-1.5759101	) m	-0.33591688
-1.1811457	; m	-0.33591688
-1.5085404	« m	-0.18228364
-1.7470896	/ m	-0.18228364
-1.5690525	* m	-0.18228364
-1.2932684	: m	-0.30394903
-0.40812147	ö m	-0.18228364
-1.4408736	| a	-0.18228364
-0.8503835	v a	-0.51763606
-1.9193444	å a	-0.18228364
-0.9009919	p a	-0.4698946
-1.629191	e a	-0.3551433
-1.0655758	n a	-0.5334381
-1.4401404	= a	-0.2511287
-1.2351419	s a	-0.534834
-1.0433651	k a	-0.45293605
-1.3580049	i a	-0.5331664
-1.5426668	o a	-0.303608
-0.8243799	m a	-0.5737096
-1.7933866	a a	-0.21203516
-1.0704185	r a	-0.56836855
-1.103729	t a	-0.5411485
-1.4390318	# a	-0.7481358
-0.9418647	f a	-0.41161907
-1.2472548	y a	-0.28161252
-0.936522	l a	-0.5759337
-0.7700587	h a	-0.34275988
-1.3298508	u a	-0.31861424
-1.6332092	[ a	-0.18228364
-0.8760437	d a	-0.56623715
-1.8692031	ø a	-0.18228364
-0.72463953	w a	-0.22092386
-1.7463224	. a	-0.30053484
-1.1280572	g a	-0.49106136
-0.88658834	c a	-0.29379267
-1.5603579	' a	-0.25234187
-0.9480098	b a	-0.4397191
-1.1957519	- a	-0.30581647
-0.7358631	j a	-0.2884169
-1.5428361	( a	-0.18228364
-1.8736218	) a	-0.18228364
-1.6579851	] a	-0.18228364
-0.6864358	ḷ a	-0.18228364
-1.4640632	« a	-0.18228364
-0.79912317	z a	-0.22771183
-1.1614053	/ a	-0.27845314
-1.5170424	* a	-0.18228364
-1.1478744	? a	-0.18228364
-0.4040009	‘ a	-0.18228364
-1.3768985	q a	-0.18228364
-1.0441084	’ a	-0.18228364
-0.84469557	í a	-0.18228364
-0.4040009	ñ a	-0.18228364
-1.7133844	| r	-0.33591688
-1.8466059	v r	-0.18228364
-0.6956896	å r	-0.43881238
-1.1756413	p r	-0.4806336
-1.231117	e r	-0.6145439
-1.8675234	n r	-0.2511287
-2.0209298	= r	-0.18228364
-1.6671636	s r	-0.35808498
-1.2821873	k r	-0.53519154
-1.4731079	i r	-0.35801253
-1.0972404	_ r	-0.25234187
-1.1028986	o r	-0.43648112
-1.8390105	m r	-0.25234187
-1.1723759	a r	-0.6317445
-1.7023529	r r	-0.3623198
-1.2947274	t r	-0.543717
-1.6043714	# r	-0.7626884
-1.1909621	f r	-0.30476505
-1.1938505	y r	-0.2898653
-2.069806	l r	-0.18228364
-1.882093	h r	-0.18228364
-1.1403255	u r	-0.35705948
-1.681045	[ r	-0.18228364
-1.2866987	d r	-0.48005342
-0.88570327	ø r	-0.34690544
-2.0277908	. r	-0.18228364
-0.98517376	g r	-0.5585245
-1.6369146	c r	-0.33591688
-1.9543239	' r	-0.18228364
-1.005315	b r	-0.44774038
-1.6677262	- r	-0.18228364
-1.2818216	( r	-0.18228364
-0.6867862	< r	-0.33591688
-1.0582536	ā r	-0.18228364
-0.2887912	æ r	-0.36745647
-1.4529964	/ r	-0.33591688
-1.3136145	ô r	-0.18228364
-1.4502089	| t	-0.23739688
-1.8280102	v t	-0.18228364
-1.0466895	å t	-0.31874204
-1.4517517	p t	-0.29742497
-1.2887532	e t	-0.6099294
-1.5466441	n t	-0.28831232
-1.554497	= t	-0.25234187
-1.1446887	s t	-0.6416688
-1.4420192	k t	-0.4391376
-1.2772479	i t	-0.4946971
-1.2596914	_ t	-0.27845314
-1.188556	o t	-0.41942823
-1.6823442	m t	-0.2751296
-1.324838	a t	-0.5277535
-1.5661355	r t	-0.37854236
-1.4426415	t t	-0.4089004
-1.3490605	# t	-0.8668854
-1.432054	f t	-0.2875039
-1.1887264	y t	-0.27453172
-1.5893021	l t	-0.3113948
-1.6129011	h t	-0.2701915
-1.1120632	u t	-0.33716303
-1.6538221	[ t	-0.18228364
-1.5241808	d t	-0.36507204
-1.5088788	ø t	-0.27845314
-1.9918478	. t	-0.18228364
-1.728629	g t	-0.27845314
-1.5148937	c t	-0.18228364
-1.920472	' t	-0.18228364
-1.2014725	- t	-0.27845314
-1.5644064	( t	-0.18228364
-1.5623143	) t	-0.33591688
-0.9390697	& t	-0.18228364
-1.5660853	æ t	-0.18228364
-1.4813113	« t	-0.18228364
-1.4126352	x t	-0.18228364
-1.5371053	* t	-0.18228364
-1.7551892	: t	-0.18228364
-1.1570666	? t	-0.18228364
-0.84924465	â t	-0.18228364
-0.84924465	ù t	-0.18228364
-0.40564448	è t	-0.18228364
-0.9490588	| #	-0.25459674
-1.2650883	v #	-0.31456402
-0.8423608	å #	-0.4340695
-1.3466051	p #	-0.24269354
-1.2318226	e #	-0.70949894
-1.174791	n #	-0.51146936
-1.0274681	= #	-0.35656396
-1.2866998	s #	-0.49504113
-1.1688724	k #	-0.46683636
-1.1900358	i #	-0.36493617
-1.5471262	_ #	-0.18228364
-1.3443291	o #	-0.29141793
-1.2378266	m #	-0.3404877
-1.2353771	a #	-0.72279143
-1.3295728	r #	-0.483159
-1.203639	t #	-0.69142306
-1.9783267	# #	-0.39725673
-1.5912411	f #	-0.18228364
-0.9491863	y #	-0.30767757
-1.3622408	l #	-0.37332383
-1.3081532	h #	-0.2182381
-1.2400193	u #	-0.33862296
-1.1942893	d #	-0.49596518
-1.7111356	1 #	-0.18228364
-0.9528352	5 #	-0.25234187
-1.5428067	ø #	-0.18228364
-1.269158	w #	-0.18228364
-0.6572177	. #	-0.68132
-1.1734312	g #	-0.48937035
-1.2002802	c #	-0.22771183
-0.16129729	, #	-0.740945
-1.5044287	' #	-0.20991662
-0.50087094	ò #	-0.18228364
-1.8148739	b #	-0.27845314
-1.0984261	- #	-0.24420848
-1.5420868	j #	-0.18228364
-0.41463754	) #	-0.3259393
-1.4421556	0 #	-0.18228364
-0.39547294	ം #	-0.18228364
-1.530374	9 #	-0.18228364
-1.2000797	2 #	-0.25234187
-0.6207926	; #	-0.219177
-0.514406	» #	-0.2582106
-1.1815426	z #	-0.18228364
-1.4027574	7 #	-0.18228364
-1.3225353	x #	-0.18228364
-1.1268582	/ #	-0.18228364
-0.95261145	3 #	-0.27845314
-0.24642883	" #	-0.25234187
-0.36182746	: #	-0.29786786
-1.0732869	% #	-0.18228364
-0.89232486	4 #	-0.18228364
-1.1978644	8 #	-0.33591688
-0.67023903	ý #	-0.18228364
-0.9977541	а #	-0.18228364
-0.82156456	à #	-0.18228364
-0.67023903	ה #	-0.18228364
-0.82156456	ل #	-0.18228364
-0.67023903	ر #	-0.18228364
-0.9977541	! #	-0.18228364
-0.73404115	ô #	-0.18228364
-0.62691444	q #	-0.25234187
-0.58890635	é #	-0.18228364
-0.39547294	ة #	-0.18228364
-0.39547294	ς #	-0.18228364
-0.39547294	쟁 #	-0.18228364
-0.39547294	я #	-0.18228364
-1.7915533	<s> f	-0.18228364
-1.6128874	| f	-0.25234187
-2.105645	v f	-0.18228364
-1.9005916	p f	-0.18228364
-1.641572	e f	-0.26218432
-1.7632563	n f	-0.27371296
-1.5656987	= f	-0.25234187
-1.4860651	s f	-0.35803384
-2.0517178	k f	-0.18228364
-1.6127348	i f	-0.28468814
-1.6898124	_ f	-0.18228364
-1.6860232	o f	-0.26117498
-1.920698	m f	-0.18228364
-1.8093781	a f	-0.23886971
-2.007864	r f	-0.22401707
-1.836552	t f	-0.25234187
-1.415472	# f	-0.90726644
-1.4370404	f f	-0.25930882
-2.0394945	y f	-0.18228364
-1.748566	l f	-0.23032038
-2.1289887	h f	-0.18228364
-1.8177838	u f	-0.2701915
-1.6754622	[ f	-0.18228364
-1.7938755	d f	-0.21590161
-1.9168134	ø f	-0.18228364
-1.7552097	w f	-0.18228364
-1.7788712	. f	-0.18228364
-1.8811613	g f	-0.23739688
-1.6858306	' f	-0.22771183
-2.1661313	b f	-0.18228364
-1.297393	- f	-0.33030993
-1.5871042	( f	-0.18228364
-1.9118006	) f	-0.18228364
-1.7340945	/ f	-0.18228364
-1.5581402	* f	-0.18228364
-1.7727708	: f	-0.18228364
-1.1664575	? f	-0.18228364
-1.0471286	! f	-0.18228364
-2.1975021	v y	-0.18228364
-2.0466127	e y	-0.22771183
-1.7978312	n y	-0.2971514
-2.1205442	= y	-0.18228364
-1.499756	s y	-0.3610697
-1.7476693	k y	-0.291014
-2.1155047	i y	-0.27845314
-1.7660216	_ y	-0.18228364
-2.2345252	m y	-0.18228364
-1.7180078	a y	-0.34081125
-1.5412052	r y	-0.30807894
-1.647372	t y	-0.31652227
-1.9671636	# y	-0.24397567
-1.1533248	f y	-0.6153322
-1.5024626	l y	-0.25187486
-1.6493098	h y	-0.25234187
-2.3877075	u y	-0.18228364
-1.550723	d y	-0.45524865
-0.73207945	ø y	-0.32812175
-1.9345853	g y	-0.33591688
-1.3780926	c y	-0.42888775
-1.2305145	b y	-0.36631608
-1.7167225	- y	-0.18228364
-2.0076582	j y	-0.18228364
-1.6499864	z y	-0.18228364
-0.90111184	ô y	-0.18228364
-1.5993757	| l	-0.291014
-2.0788887	v l	-0.18228364
-1.5637251	å l	-0.23208739
-1.1319433	p l	-0.48600847
-1.2473756	e l	-0.5785179
-1.7523171	n l	-0.321344
-1.554497	= l	-0.25234187
-1.4815959	s l	-0.46434715
-1.394816	k l	-0.39677006
-1.3317647	i l	-0.3818697
-1.370321	_ l	-0.18228364
-1.1647528	o l	-0.41380313
-1.6823442	m l	-0.26334074
-1.1847491	a l	-0.6286011
-1.5661355	r l	-0.3671015
-1.6781552	t l	-0.41919875
-1.4415779	# l	-0.78120905
-1.3568314	f l	-0.31652227
-1.4152251	y l	-0.31232747
-1.6573019	l l	-0.3547205
-1.766058	h l	-0.18228364
-1.0879794	u l	-0.37300485
-1.6538221	[ l	-0.18228364
-1.463764	d l	-0.43625763
-1.5088788	ø l	-0.18228364
-1.733086	w l	-0.18228364
-1.9918478	. l	-0.18228364
-1.4716603	g l	-0.3357797
-1.5148937	c l	-0.18228364
-1.920472	' l	-0.18228364
-1.2660427	b l	-0.45865604
-1.4020158	- l	-0.18228364
-1.5644064	( l	-0.18228364
-1.5623143	) l	-0.18228364
-1.7966954	0 l	-0.18228364
-1.375146	& l	-0.18228364
-1.1588418	æ l	-0.18228364
-1.4813113	« l	-0.18228364
-1.4126352	x l	-0.18228364
-1.5371053	* l	-0.18228364
-1.4062005	: l	-0.33591688
-0.84924465	ù l	-0.18228364
-1.3561549	| h	-0.23886971
-2.1415892	v h	-0.18228364
-1.6987603	å h	-0.18228364
-1.8259257	p h	-0.18228364
-1.5210668	e h	-0.31379718
-1.8818411	n h	-0.33591688
-1.58012	= h	-0.18228364
-1.6207967	s h	-0.23819964
-2.0779226	k h	-0.18228364
-1.8366234	i h	-0.26334074
-1.7199588	_ h	-0.18228364
-2.126875	o h	-0.18228364
-1.9470444	m h	-0.33591688
-1.5427197	a h	-0.30811805
-1.6424516	r h	-0.2724291
-1.2979065	t h	-0.3079551
-1.4946256	# h	-0.7898519
-1.867772	l h	-0.18228364
-1.6277987	u h	-0.26781943
-1.0722417	[ h	-0.23886971
-1.8091116	d h	-0.25234187
-1.3322006	. h	-0.44628274
-1.9934568	g h	-0.18228364
-1.0025233	c h	-0.26129922
-1.9834437	' h	-0.18228364
-1.942224	b h	-0.18228364
-1.94566	- h	-0.18228364
-1.6172537	( h	-0.18228364
-1.582871	) h	-0.18228364
-1.6138779	z h	-0.18228364
-1.3550844	/ h	-0.18228364
-1.5859528	* h	-0.18228364
-1.1315352	> h	-0.18228364
-1.2617401	| u	-0.28433895
-1.3747088	v u	-0.30181202
-1.325659	p u	-0.27598816
-1.7585287	e u	-0.37991923
-1.4587283	n u	-0.28641453
-1.6705854	s u	-0.31959173
-1.2839202	k u	-0.35294685
-1.9338998	i u	-0.2701915
-1.8853493	o u	-0.18228364
-1.5091355	m u	-0.25166744
-1.4774226	a u	-0.40963182
-1.3007827	r u	-0.40272748
-1.3516048	t u	-0.36148584
-1.5460411	# u	-0.6467298
-1.2424636	f u	-0.3371383
-1.5435734	y u	-0.26334074
-1.3245736	l u	-0.3215103
-0.9861691	h u	-0.46342248
-1.535594	d u	-0.24780452
-1.449375	w u	-0.18228364
-1.7917347	. u	-0.18228364
-1.2005342	g u	-0.31322148
-1.9419405	c u	-0.18228364
-1.9686399	' u	-0.18228364
-1.035726	b u	-0.3545401
-1.004804	j u	-0.2884726
-1.6049415	( u	-0.18228364
-0.6951672	ḷ u	-0.18228364
-1.5132493	« u	-0.18228364
-1.1205626	z u	-0.18228364
-1.753736	/ u	-0.18228364
-1.5746132	* u	-0.18228364
-0.5056524	q u	-0.18228364
-0.6069562	’ u	-0.18228364
-0.4085357	ğ u	-0.18228364
-2.203195	| [	-0.18228364
-1.3406215	= [	-0.67192584
-2.9514284	# [	-0.18228364
-0.6012941	[ [	-0.32703373
-2.1800454	' [	-0.18228364
-1.7733548	( [	-0.18228364
-1.8031263	] [	-0.18228364
-1.225794	; [	-0.33591688
-1.2001069	« [	-0.18228364
-1.3046687	* [	-0.27845314
-1.1743379	> [	-0.18228364
-1.0967383	! [	-0.18228364
-1.4597492	| d	-0.25234187
-1.3708799	v d	-0.25234187
-1.4069963	å d	-0.219177
-1.8073064	p d	-0.25234187
-1.4800582	e d	-0.3813881
-1.3741918	n d	-0.37931323
-1.3709183	= d	-0.18228364
-2.108351	s d	-0.25234187
-2.2557333	k d	-0.18228364
-1.280417	i d	-0.42307907
-1.6898124	_ d	-0.18228364
-1.4105713	o d	-0.33170488
-1.920698	m d	-0.22771183
-1.446352	a d	-0.3707009
-1.6999333	r d	-0.31425992
-2.0691876	t d	-0.27845314
-1.444139	# d	-0.8638114
-1.4221449	y d	-0.26334074
-1.6660905	l d	-0.43107182
-1.3367699	u d	-0.3063084
-1.6754622	[ d	-0.18228364
-1.4694012	d d	-0.35101256
-1.3509872	ø d	-0.24420848
-2.0203602	. d	-0.18228364
-1.5494008	g d	-0.41383955
-1.8750551	, d	-0.18228364
-1.6858306	' d	-0.25234187
-2.1661313	b d	-0.18228364
-1.9416457	j d	-0.18228364
-1.5871042	( d	-0.18228364
-1.9118006	) d	-0.18228364
-1.4992731	« d	-0.18228364
-1.4289585	x d	-0.18228364
-1.3419132	/ d	-0.18228364
-1.5581402	* d	-0.18228364
-1.1664575	? d	-0.18228364
-0.4072942	ë d	-0.18228364
-1.5985271	8 d	-0.18228364
-1.3696609	| 1	-0.30053484
-2.2319813	p 1	-0.18228364
-2.283701	e 1	-0.33591688
-1.4848583	= 1	-0.21534339
-2.4860997	s 1	-0.18228364
-2.4116871	o 1	-0.18228364
-2.2220225	t 1	-0.18228364
-1.77159	# 1	-0.54128015
-2.1362078	y 1	-0.18228364
-2.365522	l 1	-0.18228364
-1.7477183	[ 1	-0.18228364
-1.3250232	1 1	-0.18228364
-1.6136578	6 1	-0.18228364
-1.6975703	5 1	-0.18228364
-2.119211	. 1	-0.18228364
-1.319491	- 1	-0.30581647
-1.6633217	( 1	-0.18228364
-1.4421633	0 1	-0.18228364
-1.3588246	9 1	-0.18228364
-1.2793137	2 1	-0.18228364
-1.5693793	7 1	-0.18228364
-1.8186287	/ 1	-0.18228364
-1.134922	3 1	-0.18228364
-1.1453393	> 1	-0.18228364
-0.70244396	+ 1	-0.18228364
-1.2891264	8 1	-0.18228364
-2.293252	= 6	-0.18228364
-2.6772964	# 6	-0.18228364
-1.6740462	1 6	-0.18228364
-1.6879354	6 6	-0.18228364
-1.7809794	5 6	-0.18228364
-2.1279979	c 6	-0.18228364
-1.4794433	0 6	-0.18228364
-1.3969693	9 6	-0.18228364
-1.8651608	2 6	-0.18228364
-1.672263	; 6	-0.18228364
-1.1428853	4 6	-0.18228364
-1.3252681	8 6	-0.18228364
-1.9350008	= 5	-0.33591688
-2.5432205	r 5	-0.18228364
-2.2807271	# 5	-0.23739688
-2.3819773	f 5	-0.18228364
-1.5369959	1 5	-0.25234187
-1.2402236	6 5	-0.18228364
-2.2474039	. 5	-0.18228364
-1.6041913	0 5	-0.18228364
-1.2572688	9 5	-0.18228364
-1.8491218	2 5	-0.18228364
-1.661444	; 5	-0.18228364
-1.0611814	7 5	-0.18228364
-1.7100666	4 5	-0.18228364
-1.7406535	8 5	-0.18228364
-1.8844833	<s> ø	-0.18228364
-1.8044634	| ø	-0.33591688
-1.8225117	n ø	-0.33591688
-1.8419267	s ø	-0.31288534
-2.0580895	k ø	-0.18228364
-2.5324795	i ø	-0.18228364
-2.0372891	m ø	-0.25234187
-1.4201185	r ø	-0.34955493
-1.7267218	t ø	-0.28831232
-1.8162191	# ø	-0.7282499
-1.2562993	f ø	-0.45498383
-1.4647906	l ø	-0.31021765
-1.4444805	h ø	-0.2724291
-1.8583161	d ø	-0.26334074
-1.4935988	b ø	-0.36380842
-2.0858586	- ø	-0.18228364
-0.9458404	j ø	-0.25497597
-1.6022661	« ø	-0.18228364
-2.1296442	| w	-0.18228364
-2.3426144	e w	-0.18228364
-2.4732776	n w	-0.18228364
-1.9092227	= w	-0.33591688
-2.5867712	s w	-0.18228364
-2.2649806	i w	-0.18228364
-1.8222523	o w	-0.23739688
-1.7314116	a w	-0.3766062
-2.1190052	r w	-0.30394903
-2.5474837	t w	-0.18228364
-1.8923163	# w	-0.30476505
-2.1618612	u w	-0.18228364
-1.1816796	w w	-0.23032038
-1.755466	. w	-0.27845314
-1.6953012	z w	-0.18228364
-1.3971791	/ w	-0.18228364
-1.6819994	* w	-0.18228364
-0.8775877	â w	-0.18228364
-1.4676552	v .	-0.33030993
-1.9143635	p .	-0.18228364
-1.5572106	e .	-0.60684645
-1.8746232	n .	-0.30581647
-1.6705854	s .	-0.5064012
-1.5668241	k .	-0.45524865
-1.7477666	i .	-0.33030993
-1.8853493	o .	-0.23739688
-1.5955436	m .	-0.31645525
-1.4774226	a .	-0.5664278
-1.578728	r .	-0.40637693
-1.3516048	t .	-0.520207
-2.1961322	f .	-0.18228364
-1.6728005	l .	-0.3579608
-1.8902837	h .	-0.18228364
-1.4194974	d .	-0.504213
-1.3088131	1 .	-0.25234187
-1.6513356	5 .	-0.18228364
-1.3329098	w .	-0.18228364
-1.4832344	g .	-0.36380842
-1.9419405	c .	-0.18228364
-1.697366	' .	-0.33591688
-1.9572322	j .	-0.18228364
-1.0481743	) .	-0.60497904
-1.4197841	0 .	-0.18228364
-1.2159439	9 .	-0.18228364
-1.7090206	2 .	-0.18228364
-0.70649433	» .	-0.5257977
-1.6040896	z .	-0.18228364
-1.0300443	7 .	-0.18228364
-1.0640101	x .	-0.18228364
-0.99112326	3 .	-0.18228364
-1.1276704	> .	-0.18228364
-1.2332182	4 .	-0.18228364
-1.1461048	8 .	-0.18228364
-1.8042872	<s> g	-0.18228364
-1.9708556	| g	-0.18228364
-1.8542731	v g	-0.18228364
-1.4122876	å g	-0.22771183
-1.8183819	p g	-0.22771183
-1.5186943	e g	-0.3495841
-1.3420874	n g	-0.3836224
-1.7222021	= g	-0.18228364
-2.1227052	s g	-0.18228364
-2.0672503	k g	-0.33591688
-1.4014138	i g	-0.414539
-1.3903124	_ g	-0.33591688
-1.3384911	o g	-0.33423197
-1.8475661	m g	-0.18228364
-1.5758789	a g	-0.35945427
-1.8905455	r g	-0.2763729
-2.1655743	t g	-0.18228364
-1.5276984	# g	-0.7510516
-1.4274081	y g	-0.25234187
-1.6025199	l g	-0.295283
-1.4873574	u g	-0.2702504
-1.6924307	[ g	-0.18228364
-2.2518806	d g	-0.18228364
-1.5264398	ø g	-0.20896661
-2.0430446	. g	-0.18228364
-1.555295	g g	-0.3187641
-1.9686399	' g	-0.18228364
-0.9779215	ò g	-0.18228364
-1.9336048	b g	-0.33591688
-1.57611	- g	-0.18228364
-1.6049415	( g	-0.18228364
-1.5132493	« g	-0.18228364
-1.5746132	* g	-0.18228364
-0.8667784	ó g	-0.18228364
-0.85732204	í g	-0.18228364
-2.0384383	| c	-0.18228364
-1.9533778	p c	-0.18228364
-1.9342148	e c	-0.21590161
-2.0508337	n c	-0.18228364
-1.4825095	= c	-0.2511287
-2.0165746	s c	-0.2511287
-1.6941811	i c	-0.29252136
-1.7591345	_ c	-0.18228364
-2.0648828	o c	-0.18228364
-2.22412	m c	-0.18228364
-1.8323746	a c	-0.25234187
-2.1540732	r c	-0.27845314
-1.9184519	# c	-0.42209372
-2.127273	y c	-0.18228364
-2.0378122	l c	-0.18228364
-2.1123433	u c	-0.18228364
-1.741216	[ c	-0.18228364
-2.326749	d c	-0.18228364
-1.5549133	. c	-0.2701915
-2.2707603	g c	-0.18228364
-2.0311477	' c	-0.18228364
-2.2547684	b c	-0.18228364
-1.4357339	" c	-0.18228364
-1.144869	% c	-0.18228364
-0.4118637	° c	-0.18228364
-1.2016506	é c	-0.18228364
-0.4118637	ü c	-0.18228364
-1.7493923	v ,	-0.2511287
-1.5816966	å ,	-0.30394903
-2.152496	p ,	-0.18228364
-1.5572106	e ,	-0.7473127
-1.618685	n ,	-0.67192584
-1.8839394	s ,	-0.5257977
-1.4508538	k ,	-0.622374
-1.6178927	i ,	-0.72991776
-1.3744996	o ,	-0.7820748
-1.5955436	m ,	-0.5257977
-1.4490081	a ,	-1.0309477
-1.8905455	r ,	-0.42888775
-1.5316843	t ,	-0.82682776
-1.9217542	f ,	-0.33591688
-1.2602712	y ,	-0.67192584
-1.7566926	l ,	-0.5257977
-1.8902837	h ,	-0.33591688
-1.5504973	u ,	-0.67192584
-1.535594	d ,	-0.67192584
-1.5887238	1 ,	-0.18228364
-1.571847	6 ,	-0.18228364
-1.7725751	w ,	-0.18228364
-1.7917347	. ,	-0.33591688
-1.4832344	g ,	-0.67192584
-1.697366	' ,	-0.33591688
-1.929971	- ,	-0.18228364
-0.7898746	) ,	-0.82682776
-1.8391088	0 ,	-0.18228364
-1.7090206	2 ,	-0.18228364
-0.5202406	» ,	-0.67192584
-1.4416167	x ,	-0.18228364
-1.6139493	8 ,	-0.18228364
-1.3188448	ô ,	-0.18228364
-1.4036216	q ,	-0.18228364
-0.4085357	ा ,	-0.18228364
-0.31580144	<s> '	-1.1055814
-2.0920608	v '	-0.18228364
-1.9549899	å '	-0.18228364
-2.1139092	p '	-0.18228364
-1.5507945	e '	-0.86822045
-1.7577523	n '	-0.44628274
-1.9973072	= '	-0.18228364
-1.9696708	s '	-0.3671015
-1.7136794	k '	-0.44628274
-2.045339	i '	-0.30394903
-1.9105912	m '	-0.33591688
-1.5350738	a '	-0.7282499
-1.8722258	r '	-0.42888775
-1.6820014	t '	-0.5712215
-1.5063775	# '	-0.9835224
-1.7833239	y '	-0.33591688
-2.2325833	l '	-0.18228364
-1.958898	u '	-0.18228364
-1.6827735	d '	-0.5257977
-1.8523365	1 '	-0.18228364
-1.6276287	5 '	-0.18228364
-1.5232975	. '	-0.42888775
-1.872863	g '	-0.27845314
-0.34039608	' '	-0.57702357
-1.575607	( '	-0.18228364
-1.9019367	) '	-0.18228364
-1.5171736	0 '	-0.33591688
-1.6499692	9 '	-0.18228364
-1.6803224	] '	-0.18228364
-1.6814057	2 '	-0.18228364
-1.5409191	; '	-0.18228364
-1.4901993	« '	-0.18228364
-1.5805426	z '	-0.18228364
-1.5050395	7 '	-0.18228364
-1.4207201	x '	-0.18228364
-1.5474955	* '	-0.18228364
-1.2873607	: '	-0.30394903
-0.6781083	> '	-0.33591688
-1.1617367	? '	-0.18228364
-1.5885417	8 '	-0.18228364
-2.739199	n ò	-0.18228364
-2.9339736	a ò	-0.18228364
-2.8125372	t ò	-0.18228364
-1.9183115	# ò	-0.86822045
-1.4274998	<s> b	-0.18228364
-1.3523719	| b	-0.27845314
-1.9871063	å b	-0.18228364
-1.4833173	e b	-0.32027653
-1.618685	n b	-0.21534339
-1.7222021	= b	-0.18228364
-1.6177442	s b	-0.26565987
-2.0672503	k b	-0.33591688
-1.6779929	i b	-0.22401707
-1.7076479	_ b	-0.18228364
-1.6920664	o b	-0.29212204
-1.5091355	m b	-0.28468814
-1.5758789	a b	-0.31112063
-1.7072328	r b	-0.28237
-1.761621	t b	-0.2856012
-1.4035693	# b	-0.85187805
-1.8607662	l b	-0.23739688
-1.4873574	u b	-0.21590161
-1.6924307	[ b	-0.18228364
-1.9477966	d b	-0.22092386
-1.9361048	ø b	-0.18228364
-1.7725751	w b	-0.18228364
-2.0430446	. b	-0.18228364
-1.9827399	g b	-0.18228364
-1.9686399	' b	-0.18228364
-1.8331645	b b	-0.27845314
-1.57611	- b	-0.18228364
-1.6049415	( b	-0.18228364
-1.9270297	) b	-0.18228364
-1.5616456	; b	-0.18228364
-0.687824	< b	-0.33591688
-1.5132493	« b	-0.18228364
-1.2405146	* b	-0.25234187
-1.1295775	% b	-0.18228364
-0.85732204	ù b	-0.18228364
-2.1726532	v -	-0.18228364
-2.0348063	e -	-0.18228364
-1.8966469	n -	-0.18228364
-2.0090206	s -	-0.33030993
-2.0047328	k -	-0.23739688
-1.9559324	i -	-0.18228364
-1.7044111	o -	-0.26334074
-2.2040284	m -	-0.18228364
-2.3198051	a -	-0.18228364
-2.140555	r -	-0.18228364
-2.2023797	t -	-0.25234187
-2.4457562	# -	-0.18228364
-2.1099367	y -	-0.18228364
-1.882132	l -	-0.18228364
-2.1987739	h -	-0.18228364
-2.069848	d -	-0.18228364
-1.9262661	1 -	-0.18228364
-1.081053	6 -	-0.18228364
-2.0157185	g -	-0.18228364
-2.0146573	' -	-0.18228364
-0.8882108	0 -	-0.3628756
-1.7100307	9 -	-0.18228364
-1.7245204	] -	-0.18228364
-1.3949131	2 -	-0.18228364
-1.6341424	z -	-0.18228364
-1.6298237	4 -	-0.18228364
-1.6465408	8 -	-0.18228364
-0.4110293	о -	-0.18228364
-0.4110293	ı -	-0.18228364
-2.5510027	e j	-0.18228364
-2.0785503	n j	-0.22771183
-1.4024137	s j	-0.5038569
-1.4677534	k j	-0.46705514
-2.4790714	i j	-0.18228364
-2.4564633	o j	-0.18228364
-2.2788348	m j	-0.18228364
-2.6067457	a j	-0.18228364
-2.189833	r j	-0.18228364
-1.7928829	t j	-0.28433895
-1.7463069	# j	-0.62422717
-1.5547931	f j	-0.39725673
-1.9084648	l j	-0.22771183
-1.9476564	h j	-0.25234187
-2.4288042	u j	-0.18228364
-2.1113396	d j	-0.33591688
-2.0312955	ø j	-0.18228364
-0.9718216	. j	-0.9407711
-1.4407644	g j	-0.42888778
-2.0753405	' j	-0.18228364
-1.8795768	b j	-0.27845314
-1.6720531	z j	-0.18228364
-2.9339736	a (	-0.18228364
-1.6598449	# (	-0.4544186
-2.6857853	u (	-0.18228364
-2.2869	' (	-0.18228364
-2.1890602	v )	-0.18228364
-2.1874802	e )	-0.27845314
-1.7948425	n )	-0.30581647
-2.4750106	s )	-0.18228364
-2.355947	k )	-0.18228364
-1.9635322	i )	-0.22771183
-2.0648828	o )	-0.27845314
-2.22412	m )	-0.18228364
-1.9911475	a )	-0.219177
-2.1540732	r )	-0.27845314
-1.9775307	t )	-0.25234187
-1.8387939	y )	-0.18228364
-2.3545523	l )	-0.18228364
-2.1123433	u )	-0.33591688
-1.983358	d )	-0.27845314
-1.9411726	1 )	-0.18228364
-1.8225938	w )	-0.18228364
-1.8280252	. )	-0.18228364
-1.9298735	g )	-0.18228364
-1.6180284	' )	-0.25234187
-1.4396191	0 )	-0.25234187
-1.733063	] )	-0.18228364
-1.7572175	2 )	-0.18228364
-1.0745306	ā )	-0.18228364
-1.2616645	z )	-0.33591688
-1.5370386	3 )	-0.18228364
-1.639704	4 )	-0.18228364
-2.02536	p 0	-0.18228364
-2.9119737	# 0	-0.18228364
-1.347623	1 0	-0.2511287
-0.77010274	6 0	-0.23739688
-0.687523	5 0	-0.31232747
-1.7773459	- 0	-0.18228364
-0.7405775	0 0	-0.34456486
-1.3913107	9 0	-0.18228364
-0.79426605	2 0	-0.35808498
-1.661444	; 0	-0.18228364
-0.86372435	7 0	-0.18228364
-1.1564773	3 0	-0.18228364
-0.80736357	4 0	-0.18228364
-1.3199172	8 0	-0.18228364
-2.50475	= മ	-0.18228364
-1.8855304	( മ	-0.18228364
-0.22932406	മ ല	-0.33591688
-0.42311853	ല യ	-0.18228364
-0.42311853	യ ാ	-0.18228364
-0.42311853	ാ ള	-0.18228364
-0.42311853	ള ം	-0.18228364
-2.2783608	= 9	-0.18228364
-2.9312532	# 9	-0.18228364
-2.393165	f 9	-0.18228364
-0.85402185	1 9	-0.39191976
-2.2600117	. 9	-0.18228364
-1.9790419	, 9	-0.18228364
-2.144847	- 9	-0.18228364
-2.0081496	0 9	-0.18228364
-1.2593383	9 9	-0.20965569
-1.3077877	2 9	-0.18228364
-1.6390818	7 9	-0.18228364
-1.9337139	/ 9	-0.18228364
-1.7477164	8 9	-0.18228364
-2.2528613	e ]	-0.27845314
-2.2213318	n ]	-0.18228364
-2.2266355	s ]	-0.30394903
-2.4864485	k ]	-0.18228364
-2.173619	i ]	-0.30394903
-2.5336888	o ]	-0.18228364
-2.3551345	m ]	-0.18228364
-2.3096716	a ]	-0.30394903
-2.1318593	r ]	-0.30394903
-2.2374067	y ]	-0.18228364
-2.493833	l ]	-0.18228364
-2.4988108	u ]	-0.18228364
-2.456753	d ]	-0.18228364
-2.0383039	) ]	-0.18228364
-1.7937256	9 ]	-0.18228364
-0.30939075	] ]	-0.3347514
-2.2725878	p 2	-0.18228364
-2.3121595	e 2	-0.33591688
-1.4943821	= 2	-0.2511287
-1.7947173	_ 2	-0.18228364
-2.4564633	o 2	-0.18228364
-2.494206	t 2	-0.18228364
-2.1616728	# 2	-0.31232747
-1.774747	[ 2	-0.18228364
-1.106466	1 2	-0.22771183
-1.633616	6 2	-0.18228364
-1.7198128	5 2	-0.18228364
-1.9386798	, 2	-0.18228364
-2.0753405	' 2	-0.18228364
-1.9309039	0 2	-0.18228364
-1.3693856	9 2	-0.18228364
-1.5896599	7 2	-0.18228364
-1.5064157	/ 2	-0.18228364
-1.5597388	3 2	-0.18228364
-0.5497274	% 2	-0.30394903
-1.6654354	4 2	-0.18228364
-0.7057176	+ 2	-0.18228364
-1.687939	8 2	-0.18228364
-2.7395124	e &	-0.18228364
-2.61632	r &	-0.18228364
-2.6998422	# &	-0.33591688
-1.6823229	1 &	-0.33591688
-1.6996648	6 &	-0.18228364
-1.3496993	5 &	-0.33591688
-1.2903099	0 &	-0.42888775
-1.8133839	] &	-0.18228364
-1.4509422	2 &	-0.18228364
-1.6833584	; &	-0.18228364
-2.3946562	p ;	-0.18228364
-2.7018528	e ;	-0.18228364
-2.2543652	n ;	-0.33591688
-2.4146392	m ;	-0.18228364
-2.7579646	a ;	-0.18228364
-2.271619	r ;	-0.33591688
-2.6421082	t ;	-0.18228364
-2.3722231	h ;	-0.18228364
-2.1784675	d ;	-0.33591688
-2.4610872	g ;	-0.18228364
-2.1279979	c ;	-0.18228364
-1.6449372	7 ;	-0.18228364
-2.8510313	e <	-0.18228364
-1.8109007	. <	-0.30394903
-2.0183675	, <	-0.18228364
-2.0906622	0 <	-0.18228364
-1.3656095	] <	-0.18228364
-2.42827	v ā	-0.18228364
-2.713756	n ā	-0.18228364
-2.5436385	m ā	-0.18228364
-2.3853211	y ā	-0.18228364
-2.7001128	l ā	-0.18228364
-0.6269672	ā ḷ	-0.18228364
-2.314148	v æ	-0.18228364
-1.8353986	n æ	-0.44628274
-2.64747	s æ	-0.18228364
-2.515048	k æ	-0.18228364
-2.3838685	m æ	-0.18228364
-2.2539833	r æ	-0.18228364
-2.6082237	t æ	-0.18228364
-2.9119737	# æ	-0.18228364
-2.3819773	f æ	-0.18228364
-1.8182824	l æ	-0.5257977
-2.3478386	h æ	-0.18228364
-2.111129	g æ	-0.33591688
-1.9108175	b æ	-0.27845314
-2.0855346	j æ	-0.18228364
-2.4353542	= «	-0.18228364
-1.8762635	# «	-0.26328227
-1.8515487	( «	-0.18228364
-1.7960825	* «	-0.18228364
-2.6508582	e »	-0.18228364
-2.120589	n »	-0.27845314
-2.2328598	s »	-0.30394903
-2.5005128	k »	-0.18228364
-2.577342	i »	-0.18228364
-2.369264	m »	-0.18228364
-2.7068305	a »	-0.18228364
-2.5267186	r »	-0.18228364
-2.248955	y »	-0.18228364
-2.5090237	l »	-0.18228364
-2.3361413	h »	-0.18228364
-2.4707544	d »	-0.18228364
-2.1040733	g »	-0.27845314
-2.145902	' »	-0.18228364
-1.347484	] »	-0.33591688
-2.2861795	e z	-0.18228364
-2.5861955	n z	-0.18228364
-2.029653	i z	-0.18228364
-2.6105347	o z	-0.18228364
-2.343146	a z	-0.27845314
-2.219691	t z	-0.22771183
-2.2941568	# z	-0.23739688
-2.5672326	u z	-0.18228364
-2.1920505	' z	-0.18228364
-1.782393	( z	-0.18228364
-1.307685	* z	-0.33591688
-2.9948287	# 7	-0.18228364
-1.3554254	1 7	-0.18228364
-1.6996648	6 7	-0.18228364
-1.9169741	. 7	-0.18228364
-1.5339013	, 7	-0.33591688
-2.037286	0 7	-0.18228364
-0.932746	9 7	-0.22771183
-1.6196117	3 7	-0.18228364
-1.1460805	4 7	-0.27845314
-1.3306859	8 7	-0.33591688
-2.0764275	p x	-0.18228364
-1.7541212	e x	-0.26801705
-2.7489862	i x	-0.18228364
-1.9333168	_ x	-0.18228364
-2.8828485	a x	-0.18228364
-2.0111864	/ x	-0.18228364
-1.9689618	p /	-0.33591688
-2.1619642	n /	-0.18228364
-2.129487	k /	-0.18228364
-2.126522	i /	-0.18228364
-2.1796389	o /	-0.206472
-1.9989134	m /	-0.18228364
-2.354102	a /	-0.33591688
-2.0825794	r /	-0.27845314
-2.469833	t /	-0.18228364
-2.7553596	# /	-0.18228364
-2.283569	f /	-0.18228364
-2.149849	l /	-0.18228364
-2.2430105	h /	-0.18228364
-1.7085491	5 /	-0.18228364
-1.842943	w /	-0.18228364
-2.0452528	g /	-0.18228364
-2.2824495	b /	-0.18228364
-2.019706	j /	-0.18228364
-1.7462004	] /	-0.18228364
-0.6935766	< /	-0.33591688
-1.4914677	x /	-0.18228364
-1.8344678	/ /	-0.18228364
-1.5505158	3 /	-0.18228364
-1.442382	: /	-0.33591688
-2.2639635	= 3	-0.18228364
-2.9119737	# 3	-0.18228364
-2.3478386	h 3	-0.18228364
-1.5369959	1 3	-0.27845314
-1.7680376	5 3	-0.18228364
-2.1082563	c 3	-0.18228364
-1.9743675	, 3	-0.18228364
-2.1323907	- 3	-0.18228364
-1.9988563	0 3	-0.18228364
-1.3913107	9 3	-0.18228364
-1.8491218	2 3	-0.18228364
-1.6333045	7 3	-0.18228364
-1.7100666	4 3	-0.18228364
-1.1852387	8 3	-0.18228364
-2.7395124	e "	-0.18228364
-1.8380605	= "	-0.18228364
-2.6276815	o "	-0.18228364
-2.61632	r "	-0.18228364
-2.9948287	# "	-0.18228364
-2.094103	1 "	-0.18228364
-2.14868	c "	-0.18228364
-1.8385643	9 "	-0.18228364
-1.2297304	; "	-0.33591688
-1.5645115	x "	-0.18228364
-1.516065	# *	-0.4768634
-1.5441387	, *	-0.18228364
-1.8515487	( *	-0.18228364
-1.7960825	* *	-0.18228364
-1.3169422	<s> :	-0.30394903
-2.2238595	v :	-0.18228364
-1.734514	å :	-0.33591688
-1.865745	p :	-0.27845314
-1.9467119	e :	-0.5257977
-2.407498	n :	-0.18228364
-2.185397	s :	-0.27845314
-2.466686	i :	-0.18228364
-2.4448292	o :	-0.18228364
-2.2673264	m :	-0.18228364
-2.2667594	a :	-0.27845314
-2.1824417	r :	-0.18228364
-2.1463106	t :	-0.30394903
-2.768711	# :	-0.18228364
-2.1566632	l :	-0.18228364
-1.7678305	[ :	-0.18228364
-1.7141445	5 :	-0.18228364
-2.3139303	g :	-0.18228364
-2.066135	' :	-0.18228364
-1.988089	b :	-0.18228364
-1.9939241	) :	-0.18228364
-1.7506695	] :	-0.18228364
-1.8458762	: :	-0.18228364
-2.4948592	f >	-0.18228364
-2.4702942	h >	-0.18228364
-2.0234745	/ >	-0.18228364
-1.4887398	" >	-0.18228364
-1.7664543	4 >	-0.18228364
-2.8023753	s %	-0.18228364
-2.7042637	r %	-0.18228364
-2.5689888	g %	-0.18228364
-2.0132525	, %	-0.18228364
-1.9171714	2 %	-0.18228364
-1.6415558	3 %	-0.18228364
-1.6431314	= 4	-0.18228364
-2.6248355	t 4	-0.18228364
-1.539996	1 4	-0.18228364
-1.1045676	6 4	-0.18228364
-1.7744603	5 4	-0.18228364
-2.4023879	b 4	-0.18228364
-1.6079129	0 4	-0.18228364
-1.8155665	9 4	-0.18228364
-1.4416006	2 4	-0.18228364
-1.6668198	; 4	-0.18228364
-1.6390818	7 4	-0.18228364
-1.5477921	x 4	-0.18228364
-1.7477164	8 4	-0.18228364
-2.3357687	' +	-0.18228364
-1.4992497	" +	-0.18228364
-1.7409914	; °	-0.18228364
-2.4887147	p ?	-0.18228364
-2.4493668	e ?	-0.18228364
-2.5226939	m ?	-0.18228364
-2.763264	t ?	-0.18228364
-1.5878552	x ?	-0.18228364
-2.0111864	/ ?	-0.18228364
-3.2999864	# ë	-0.18228364
-2.308672	= 8	-0.18228364
-2.6884232	# 8	-0.33591688
-1.118845	1 8	-0.20440404
-1.0112296	5 8	-0.18228364
-2.2863817	. 8	-0.18228364
-2.428259	b 8	-0.18228364
-2.1708848	- 8	-0.18228364
-2.0273552	0 8	-0.18228364
-1.3998265	9 8	-0.23739688
-1.8734081	2 8	-0.18228364
-1.6508725	7 8	-0.18228364
-2.8869112	i š	-0.18228364
-3.0258358	a š	-0.18228364
-2.7851086	k ý	-0.18228364
-3.2999864	# п	-0.18228364
-0.4215763	п а	-0.18228364
-1.0193743	р а	-0.18228364
-0.52851945	к а	-0.18228364
-0.7207625	н а	-0.18228364
-3.194001	# с	-0.18228364
-1.1153221	а с	-0.18228364
-1.0207796	р с	-0.18228364
-2.3323836	- т	-0.18228364
-0.40514064	с т	-0.18228364
-0.8989123	т и	-0.18228364
-1.023678	к и	-0.18228364
-0.89501774	т р	-0.18228364
-0.7207625	и р	-0.18228364
-0.4215763	г р	-0.18228364
-0.4215763	у р	-0.18228364
-0.8962691	с к	-0.18228364
-0.7207625	н к	-0.18228364
-0.7207625	е к	-0.18228364
-0.4215763	ц к	-0.18228364
-2.7187383	k à	-0.18228364
-2.8394425	t à	-0.18228364
-2.7509868	l à	-0.18228364
-3.0447764	a ‘	-0.18228364
-2.8196976	# ה	-0.33591688
-0.42288163	ד ה	-0.18228364
-0.72383934	ה ע	-0.18228364
-0.42311853	ע ב	-0.18228364
-0.42311853	ב ו	-0.18228364
-0.42311853	ו ד	-0.18228364
-2.647137	# ا	-0.30394903
-0.7207625	م ا	-0.18228364
-0.4215763	ک ا	-0.18228364
-0.7207625	ن ا	-0.18228364
-1.023678	ا ل	-0.18228364
-0.723366	م ل	-0.18228364
-0.8996216	ل ع	-0.18228364
-0.723366	ع م	-0.18228364
-0.42288163	ث م	-0.18228364
-3.2999864	# ک	-0.18228364
-1.023678	ا ر	-0.18228364
-0.42288163	گ ر	-0.18228364
-0.72383934	ر گ	-0.18228364
-1.1196731	а н	-0.18228364
-0.42288163	й н	-0.18228364
-2.9050527	i ş	-0.18228364
-0.42311853	ş ç	-0.18228364
-3.194001	# {	-0.18228364
-1.8055031	* {	-0.18228364
-0.89628994	{ {	-0.18228364
-2.640661	m !	-0.18228364
-2.6795993	# !	-0.18228364
-2.439144	p ô	-0.18228364
-2.5960608	k ô	-0.18228364
-2.8159332	a ô	-0.18228364
-2.6984746	t ô	-0.18228364
-2.4410422	f ô	-0.18228364
-2.6133678	l ô	-0.18228364
-2.0137787	h ô	-0.18228364
-2.2171042	' ô	-0.18228364
-2.4557693	b ô	-0.18228364
-2.9619856	a â	-0.18228364
-2.7843194	r â	-0.18228364
-2.7509868	l â	-0.18228364
-2.7807505	e q	-0.18228364
-2.7045581	i q	-0.18228364
-2.0543232	a q	-0.30053484
-2.6580694	r q	-0.18228364
-3.0430527	# q	-0.18228364
-2.6141407	u q	-0.18228364
-2.2131257	- q	-0.18228364
-1.7603191	* q	-0.18228364
-2.3354256	o ’	-0.18228364
-2.5379453	a ’	-0.18228364
-2.5506124	b ’	-0.18228364
-2.5446813	p ù	-0.18228364
-3.194001	# ù	-0.18228364
-2.5506124	b ù	-0.18228364
-2.599259	b û	-0.18228364
-2.6897218	n é	-0.18228364
-2.8023753	s é	-0.18228364
-2.3292794	r é	-0.18228364
-2.676749	l é	-0.18228364
-2.6224911	d é	-0.18228364
-1.8306413	( é	-0.18228364
-3.2999864	# è	-0.18228364
-3.2999864	# ब	-0.18228364
-0.42288163	ब ्	-0.18228364
-0.42288163	ह ्	-0.18228364
-0.72383934	् र	-0.18228364
-0.42311853	र ह	-0.18228364
-0.72383934	् म	-0.18228364
-0.42311853	म ा	-0.18228364
-2.7535214	d ö	-0.18228364
-2.825521	i ó	-0.18228364
-2.5888252	m ó	-0.18228364
-2.7894828	# ó	-0.33591688
-2.7623572	u ğ	-0.18228364
-2.868271	r ü	-0.18228364
-0.72383934	ع ث	-0.18228364
-0.5299047	ا ن	-0.33591688
-0.42288163	و ن	-0.18228364
-0.8989123	ل ي	-0.18228364
-0.723366	ن ي	-0.18228364
-0.72383934	ي ة	-0.18228364
-0.72383934	ي و	-0.18228364
-3.2999864	# π	-0.18228364
-0.42311853	π ό	-0.18228364
-0.42311853	ό λ	-0.18228364
-0.42311853	λ ε	-0.18228364
-0.42311853	ε μ	-0.18228364
-0.42311853	μ ο	-0.18228364
-0.42311853	ο ς	-0.18228364
-3.2999864	# 전	-0.18228364
-0.42311853	전 쟁	-0.18228364
-3.2999864	# г	-0.18228364
-0.53015614	р е	-0.18228364
-1.0244622	к о	-0.18228364
-0.8996216	т у	-0.18228364
-0.72383934	е ц	-0.18228364
-1.1208531	а я	-0.18228364
-2.8276787	l ı	-0.18228364
-3.2999864	# в	-0.18228364
-0.42311853	в і	-0.18228364
-0.42311853	і й	-0.18228364
-2.3845766	r í	-0.18228364
-2.8102298	l í	-0.18228364
-2.8400886	o ñ	-0.18228364
-2.655755	m ł	-0.18228364
-2.7623572	u đ	-0.18228364

\3-grams:
-1.9946651	r s </s>	0
-0.46319497	ç i </s>	0
-1.6564814	g o </s>	0
-1.9112216	b o </s>	0
-2.2384186	n a </s>	0
-2.1501815	s a </s>	0
-2.3047554	l a </s>	0
-2.2252257	d a </s>	0
-0.46264637	ë d </s>	0
-1.1293074	v , </s>	0
-1.3864515	e x </s>	0
-0.52597725	k ý </s>	0
-0.4035338	н а </s>	0
-0.32859293	к и </s>	0
-1.2019132	k | |	-0.14524387
-0.54947156	o | |	-0.23548041
-1.3907686	# | |	-0.14524387
-1.8906586	n e |	-0.14524387
-2.0501676	r e |	-0.14524387
-2.269347	d e |	-0.14524387
-1.8940709	e n |	-0.20327291
-2.160207	i n |	-0.14524387
-1.9792613	o n |	-0.14524387
-1.5484719	m n |	-0.14524387
-2.272813	a n |	-0.14524387
-1.7498145	e s |	-0.14524387
-2.1449106	a s |	-0.14524387
-1.8620714	r s |	-0.14524387
-1.9015607	u s |	-0.14524387
-1.5148989	å k |	-0.14524387
-1.8589317	o k |	-0.14524387
-1.3055339	c k |	-0.14524387
-1.9798732	n i |	-0.14524387
-1.04074	i i |	-0.14524387
-2.1687515	l i |	-0.14524387
-1.9963437	t o |	-0.14524387
-1.512245	l o |	-0.14524387
-1.8668332	b o |	-0.14524387
-1.5116289	m m |	-0.14524387
-1.9959751	a m |	-0.14524387
-2.3256595	n a |	-0.14524387
-2.14497	o r |	-0.14524387
-1.9546726	a r |	-0.14524387
-1.7940999	y r |	-0.14524387
-0.93214625	c t |	-0.14524387
-1.4346842	| # |	-0.14524387
-1.7342246	å # |	-0.14524387
-1.8638369	e # |	-0.17912321
-1.4498256	n # |	-0.21134925
-0.4782527	= # |	-0.25030324
-1.6398017	s # |	-0.14524387
-1.781225	k # |	-0.14524387
-1.3959827	i # |	-0.20327291
-1.3339653	o # |	-0.14524387
-1.7605417	a # |	-0.14524387
-1.5109011	r # |	-0.16917071
-1.8820138	t # |	-0.14524387
-1.2669166	y # |	-0.14524387
-1.279983	l # |	-0.17912321
-1.3315074	h # |	-0.14524387
-1.8030412	d # |	-0.14524387
-0.4334655	1 # |	-0.14524387
-0.5357152	5 # |	-0.23548041
-1.1262254	w # |	-0.14524387
-1.858562	. # |	-0.14524387
-1.6588942	g # |	-0.14524387
-1.4432228	' # |	-0.14524387
-1.0251887	0 # |	-0.14524387
-0.7051007	ം # |	-0.14524387
-0.4334655	9 # |	-0.14524387
-0.5357152	2 # |	-0.14524387
-0.7051007	7 # |	-0.14524387
-1.0812393	x # |	-0.14524387
-0.4205061	3 # |	-0.14524387
-0.95271087	4 # |	-0.14524387
-0.25436744	8 # |	-0.14524387
-0.85366124	ô # |	-0.14524387
-1.3329027	d f |	-0.14524387
-1.2082804	e y |	-0.14524387
-2.056087	i l |	-0.14524387
-1.2736788	m l |	-0.14524387
-2.0879781	n d |	-0.14524387
-0.9125437	2 1 |	-0.14524387
-0.98890007	4 6 |	-0.14524387
-1.2338803	w w |	-0.14524387
-1.2785583	l . |	-0.14524387
-1.1912103	p g |	-0.14524387
-1.888301	e g |	-0.14524387
-1.679662	n g |	-0.14524387
-0.9160881	l c |	-0.14524387
-1.4990821	m b |	-0.14524387
-0.7476554	] ) |	-0.14524387
-1.1882783	] ] |	-0.24453817
-0.44984406	5 2 |	-0.14524387
-0.862983	p x |	-0.14524387
-0.8725095	8 3 |	-0.14524387
-0.24950571	# 8 |	-0.23548041
-0.91926295	5 8 |	-0.14524387
-0.3634357	# { |	-0.14524387
-0.40872627	<s> | v	-0.24453817
-1.1995174	i | v	-0.14524387
-1.6524781	# | v	-0.14524387
-1.0956663	p å v	-0.14524387
-1.3599637	g å v	-0.14524387
-1.4510126	m p v	-0.14524387
-1.6224817	n e v	-0.14524387
-1.8634042	k e v	-0.14524387
-1.5766716	i e v	-0.14524387
-1.7778976	r e v	-0.14524387
-1.8249817	t e v	-0.14524387
-1.6308669	# e v	-0.21750657
-1.3885019	l e v	-0.21110368
-1.2861193	h e v	-0.20327291
-1.7302885	d e v	-0.23548041
-1.7851346	g e v	-0.14524387
-1.4045184	j e v	-0.14524387
-1.9033897	n n v	-0.14524387
-2.2775528	i n v	-0.14524387
-1.7055172	r n v	-0.14524387
-1.9187613	= = v	-0.14524387
-1.1666788	| s v	-0.14524387
-1.2257918	p s v	-0.14524387
-1.5754224	n s v	-0.14524387
-0.79607165	= s v	-0.23548041
-1.787602	i s v	-0.14524387
-1.3514163	m s v	-0.14524387
-1.523195	r s v	-0.14524387
-1.1579881	# s v	-0.68823564
-1.4134392	y s v	-0.14524387
-1.4595029	l s v	-0.14524387
-1.4741576	d s v	-0.14524387
-0.61593115	. s v	-0.14524387
-1.4259076	g s v	-0.14524387
-0.42818832	, s v	-0.14524387
-1.2230412	' s v	-0.14524387
-0.68437135	/ s v	-0.23548041
-0.39547864	: s v	-0.20327291
-1.4555485	n k v	-0.14524387
-1.93874	s k v	-0.14524387
-1.6819081	k k v	-0.14524387
-1.6404331	r k v	-0.14524387
-1.0612102	# k v	-0.64247817
-1.4448541	l k v	-0.14524387
-1.1256363	' k v	-0.14524387
-1.5820274	e i v	-0.23548041
-1.4582067	n i v	-0.14524387
-1.324703	k i v	-0.23548041
-1.682059	m i v	-0.14524387
-1.2854626	r i v	-0.2025145
-1.2514933	t i v	-0.24184841
-1.9127399	# i v	-0.14524387
-1.377832	l i v	-0.19449306
-1.5370301	g i v	-0.14524387
-0.9764711	j i v	-0.14524387
-1.2553087	t _ v	-0.14524387
-1.5442452	p o v	-0.14524387
-1.2562054	n o v	-0.1880227
-1.4709496	s o v	-0.14524387
-1.6874584	k o v	-0.14524387
-1.4318749	i o v	-0.14524387
-1.4379271	m o v	-0.14524387
-1.6482468	t o v	-0.14524387
-1.1885715	# o v	-0.6125149
-1.2547861	l o v	-0.14524387
-1.0986876	h o v	-0.21750657
-1.503685	d o v	-0.14524387
-1.5954406	b o v	-0.14524387
-1.9884808	a m v	-0.14524387
-1.7523526	u m v	-0.14524387
-1.071122	| a v	-0.14524387
-1.4892792	v a v	-0.14524387
-1.6443812	p a v	-0.14524387
-1.7910728	n a v	-0.14524387
-1.5465707	s a v	-0.14524387
-1.716077	k a v	-0.14524387
-1.7061898	i a v	-0.14524387
-1.3632803	r a v	-0.1971084
-1.8162192	t a v	-0.14524387
-1.1053407	# a v	-0.2587956
-1.5952528	f a v	-0.14524387
-1.5986266	l a v	-0.17912321
-1.3063695	h a v	-0.16185325
-1.4364296	u a v	-0.14524387
-1.071122	[ a v	-0.14524387
-1.0471996	. a v	-0.14524387
-1.369809	g a v	-0.20327291
-0.8005802	' a v	-0.23548041
-0.43116826	‘ a v	-0.14524387
-1.5912011	e r v	-0.21134925
-1.7156746	o r v	-0.1880227
-2.1807141	a r v	-0.14524387
-1.6688586	y r v	-0.14524387
-1.7951529	u r v	-0.14524387
-1.7244669	ø r v	-0.14524387
-1.8439169	n t v	-0.14524387
-2.2707849	s t v	-0.14524387
-2.3590004	# t v	-0.14524387
-1.4732149	u t v	-0.24453817
-1.4758625	| # v	-0.14524387
-1.358945	v # v	-0.14524387
-1.0557456	å # v	-0.3002236
-1.3154011	e # v	-0.5512359
-1.6920356	n # v	-0.23127252
-1.3526099	s # v	-0.22138377
-1.4635319	k # v	-0.24225596
-1.4247915	i # v	-0.20327291
-1.363574	o # v	-0.14524387
-1.4344524	m # v	-0.19205941
-1.2856855	a # v	-0.54390717
-1.2407401	r # v	-0.30382317
-1.2454687	t # v	-0.502308
-1.3014364	l # v	-0.21750657
-1.6102676	u # v	-0.14524387
-1.1458812	d # v	-0.31749308
-0.7138371	ø # v	-0.14524387
-1.2058495	. # v	-0.3587872
-1.3894393	g # v	-0.20885748
-1.2542315	, # v	-0.5931702
-1.2389827	' # v	-0.20327291
-0.8660119	j # v	-0.14524387
-0.96601707	» # v	-0.23548041
-1.1888945	z # v	-0.14524387
-1.5757148	: # v	-0.14524387
-0.54072744	q # v	-0.23548041
-0.9682829	é # v	-0.14524387
-1.789262	ø y v	-0.14524387
-1.6885065	e l v	-0.14524387
-1.8944492	i l v	-0.14524387
-1.5422084	o l v	-0.23548041
-1.749093	a l v	-0.14524387
-1.0969617	ø l v	-0.14524387
-1.5536875	# h v	-0.21750657
-1.1138762	' h v	-0.14524387
-1.3975413	s u v	-0.14524387
-1.6435467	a u v	-0.14524387
-1.4280007	r u v	-0.14524387
-1.6399399	t u v	-0.14524387
-1.6134695	h u v	-0.14524387
-0.71506804	. u v	-0.14524387
-1.0529538	j u v	-0.23548041
-0.43876967	/ u v	-0.14524387
-1.7880751	[ [ v	-0.14524387
-2.0087786	n d v	-0.14524387
-1.9642687	a d v	-0.14524387
-0.7282733	r ø v	-0.17912321
-1.1842173	t ø v	-0.14524387
-1.5079031	# ø v	-0.14524387
-0.79397655	h ø v	-0.21750657
-1.5275631	# w v	-0.14524387
-0.6581112	m . v	-0.23548041
-1.9191123	e g v	-0.14524387
-2.0319839	n g v	-0.14524387
-1.8465289	' ' v	-0.17328994
-0.9981789	t - v	-0.14524387
-0.98717	# - v	-0.14524387
-0.98717	d - v	-0.14524387
-1.8934448	# ( v	-0.14524387
-1.1934953	i ) v	-0.14524387
-1.519168	# « v	-0.14524387
-0.45077586	] / v	-0.14524387
-0.36269978	l í v	-0.14524387
-0.22251382	u đ v	-0.14524387
-2.1315098	# | å	-0.14524387
-1.0027696	| v å	-0.14524387
-1.6554458	e v å	-0.14524387
-1.647895	i v å	-0.14524387
-1.4620721	# v å	-0.23548041
-1.3399239	r p å	-0.14524387
-1.242921	t p å	-0.14524387
-1.6174808	# p å	-0.1880227
-1.9608592	r e å	-0.24453817
-1.2383553	# n å	-0.22341564
-1.9450997	= = å	-0.14524387
-1.8474703	n s å	-0.14524387
-1.7208804	k s å	-0.14524387
-1.5675607	m s å	-0.14524387
-1.7797666	t s å	-0.14524387
-1.3834175	# s å	-0.4183472
-1.3067253	g s å	-0.14524387
-0.9002917	* s å	-0.14524387
-2.0669134	a k å	-0.14524387
-1.6121118	l k å	-0.14524387
-2.2500288	t i å	-0.14524387
-1.0363718	| m å	-0.14524387
-0.4325605	å m å	-0.14524387
-1.1591309	e m å	-0.21750657
-0.62954265	s m å	-0.16610676
-0.4325605	k m å	-0.14524387
-1.3903111	r m å	-0.14524387
-1.0866593	# m å	-0.456757
-0.7034106	* m å	-0.14524387
-1.6222737	p r å	-0.14524387
-1.0012898	m r å	-0.14524387
-1.4839925	t r å	-0.14524387
-1.384695	# r å	-0.3144166
-0.9714472	f r å	-0.21750657
-1.6148125	y r å	-0.14524387
-1.7337612	u r å	-0.14524387
-1.2783403	g r å	-0.14524387
-2.126345	e t å	-0.14524387
-1.9021481	s t å	-0.1880227
-1.796915	o t å	-0.14524387
-2.0439045	a t å	-0.14524387
-1.8709269	t t å	-0.14524387
-1.9516333	# t å	-0.14524387
-1.4614998	v # å	-0.14524387
-1.8930267	e # å	-0.3144166
-1.8394326	n # å	-0.23548041
-2.1039116	s # å	-0.14524387
-2.0953965	k # å	-0.14524387
-1.9419959	m # å	-0.14524387
-2.0616195	a # å	-0.1880227
-2.1456041	r # å	-0.14524387
-1.9955826	t # å	-0.21750657
-2.3201985	. # å	-0.14524387
-2.121134	g # å	-0.14524387
-2.402528	, # å	-0.14524387
-1.5989937	# f å	-0.24453817
-1.2702506	s l å	-0.14524387
-1.5998465	k l å	-0.14524387
-1.3910729	# l å	-0.28124136
-1.389642	f l å	-0.14524387
-1.7943714	u l å	-0.14524387
-1.5260817	b l å	-0.14524387
-1.1826174	| h å	-0.14524387
-1.4081624	r h å	-0.14524387
-2.2264879	# h å	-0.14524387
-1.9197055	n d å	-0.14524387
-1.8816321	a d å	-0.14524387
-1.7436011	r d å	-0.14524387
-1.1649373	# d å	-0.56968915
-1.138411	p g å	-0.14524387
-1.4536383	e g å	-0.14524387
-1.5731297	n g å	-0.14524387
-1.4515827	r g å	-0.14524387
-0.9871987	t g å	-0.14524387
-1.0215834	# g å	-0.29029563
-2.3123798	' ' å	-0.14524387
-0.8410174	å b å	-0.14524387
-1.4353406	e b å	-0.14524387
-1.3359182	s b å	-0.14524387
-1.282147	m b å	-0.14524387
-1.3880343	r b å	-0.14524387
-1.2614651	t b å	-0.14524387
-1.2737314	# b å	-0.45310932
-0.6960822	g b å	-0.14524387
-0.754889	0 - å	-0.24453817
-0.44979775	9 - å	-0.14524387
-0.99953437	s j å	-0.21750657
-1.0068343	h j å	-0.14524387
-1.548961	# « å	-0.14524387
-1.0921055	e | p	-0.14524387
-1.4070284	# | p	-0.36947688
-1.4509509	l v p	-0.14524387
-0.5118742	v å p	-0.24453817
-1.1527876	e p p	-0.23548041
-1.0335393	i p p	-0.14524387
-0.68017113	o p p	-0.20327291
-1.2994971	a p p	-0.14524387
-0.9505813	u p p	-0.14524387
-0.6420933	| e p	-0.14524387
-1.9405673	n e p	-0.14524387
-1.942905	s e p	-0.14524387
-1.8899428	k e p	-0.14524387
-1.3635962	r e p	-0.20885748
-1.3807886	t e p	-0.20327291
-1.8410459	l e p	-0.23548041
-0.7261652	[ e p	-0.14524387
-1.7471464	d e p	-0.14524387
-1.2054123	c e p	-0.14524387
-2.1959338	o n p	-0.14524387
-1.4797919	= = p	-0.23548041
-1.7309777	# = p	-0.14524387
-0.6992154	<s> s p	-0.14524387
-1.2383492	p s p	-0.14524387
-1.5534112	e s p	-0.14524387
-1.3202822	n s p	-0.1880227
-1.4920214	s s p	-0.14524387
-1.0046728	k s p	-0.1880227
-1.4849995	o s p	-0.14524387
-1.3682102	m s p	-0.14524387
-1.5029016	a s p	-0.14524387
-1.5569757	t s p	-0.14524387
-1.2785914	# s p	-0.5237038
-1.476321	l s p	-0.14524387
-1.2641711	d s p	-0.14524387
-1.1991447	g s p	-0.17912321
-1.2356871	' s p	-0.14524387
-0.94235617	b s p	-0.14524387
-2.0479279	a k p	-0.14524387
-1.6004212	l k p	-0.14524387
-1.3350037	p i p	-0.14524387
-1.8273546	e i p	-0.14524387
-1.7095913	n i p	-0.14524387
-1.324703	k i p	-0.14524387
-1.8643966	r i p	-0.14524387
-1.8426517	t i p	-0.14524387
-1.6671228	# i p	-0.23548041
-1.8993526	l i p	-0.14524387
-1.2129625	u i p	-0.14524387
-1.7122158	d i p	-0.14524387
-1.1450688	| o p	-0.14524387
-1.5238309	p o p	-0.14524387
-1.1646388	e o p	-0.14524387
-1.5837148	n o p	-0.14524387
-0.8406118	= o p	-0.14524387
-1.4168873	m o p	-0.14524387
-1.3124377	r o p	-0.14524387
-0.9025271	t o p	-0.34818813
-0.8950875	# o p	-0.59670013
-1.0220375	y o p	-0.14524387
-1.3340037	l o p	-0.14524387
-1.4359386	h o p	-0.14524387
-1.3454149	g o p	-0.14524387
-1.4008441	e m p	-0.21750657
-1.9162549	o m p	-0.14524387
-1.593163	a m p	-0.20327291
-1.3203448	u m p	-0.14524387
-1.8668115	v a p	-0.14524387
-1.9624729	n a p	-0.14524387
-1.5582545	k a p	-0.16917071
-1.7041178	m a p	-0.14524387
-2.0149407	r a p	-0.14524387
-1.6840962	t a p	-0.14524387
-1.7718366	# a p	-0.1880227
-2.0174348	l a p	-0.14524387
-1.4874735	h a p	-0.14524387
-1.1210084	c a p	-0.23548041
-1.5626563	j a p	-0.14524387
-2.2891374	e r p	-0.14524387
-1.7016788	i r p	-0.14524387
-1.6648283	o r p	-0.14524387
-1.9220304	a r p	-0.14524387
-2.2182393	s t p	-0.14524387
-1.8180597	r t p	-0.14524387
-1.8969022	t t p	-0.14524387
-1.6475686	l t p	-0.14524387
-1.8860432	u t p	-0.14524387
-1.6302998	å # p	-0.17912321
-1.6243439	e # p	-0.21931162
-1.5874575	n # p	-0.1880227
-1.5896333	= # p	-0.14524387
-1.8938518	s # p	-0.14524387
-1.479694	k # p	-0.18505453
-1.4435389	i # p	-0.14524387
-1.7347447	m # p	-0.14524387
-1.5624738	a # p	-0.21134925
-1.4583285	r # p	-0.20891057
-1.4912643	t # p	-0.30387887
-1.3068806	y # p	-0.14524387
-1.4671277	l # p	-0.20327291
-1.3896675	h # p	-0.14524387
-1.7095221	d # p	-0.14524387
-1.7126551	. # p	-0.1880227
-1.4023292	g # p	-0.2590062
-1.5056925	, # p	-0.26235455
-1.5216626	' # p	-0.14524387
-0.87379885	j # p	-0.14524387
-1.2520849	; # p	-0.14524387
-1.3455454	" # p	-0.14524387
-1.6071352	: # p	-0.14524387
-0.71930766	ה # p	-0.14524387
-1.4525543	t y p	-0.14524387
-1.8697014	e l p	-0.20327291
-1.9311677	a l p	-0.14524387
-1.0445328	p h p	-0.14524387
-1.5510755	k u p	-0.14524387
-1.3264015	r u p	-0.14524387
-1.3794159	t u p	-0.14524387
-1.8678998	# u p	-0.14524387
-1.5262699	l u p	-0.14524387
-1.4272274	d u p	-0.14524387
-0.71506804	' u p	-0.14524387
-1.617191	b u p	-0.14524387
-1.7880751	[ [ p	-0.14524387
-0.6568584	l ø p	-0.1880227
-1.4667953	j ø p	-0.14524387
-0.8387845	p . p	-0.14524387
-1.4077274	d . p	-0.14524387
-1.2582531	w . p	-0.14524387
-0.8387845	x . p	-0.14524387
-0.8387845	3 . p	-0.14524387
-0.69448173	4 . p	-0.14524387
-1.8440546	o g p	-0.14524387
-1.9602098	' ' p	-0.14524387
-0.7740629	o - p	-0.23548041
-1.0662105	a - p	-0.14524387
-1.1282287	r - p	-0.14524387
-0.052253842	. j p	-0.8813603
-1.406593	# ( p	-0.1880227
-0.87329984	5 0 p	-0.14524387
-1.1176515	4 0 p	-0.14524387
-0.4440431	v æ p	-0.14524387
-0.23752835	p / p	-0.14524387
-0.641024	k / p	-0.14524387
-0.8451065	m / p	-0.14524387
-0.7957052	r / p	-0.14524387
-0.39801276	t / p	-0.14524387
-0.43444663	# " p	-0.14524387
-0.4138711	( é p	-0.14524387
-0.44453782	t | e	-0.14524387
-1.6420729	# | e	-0.14524387
-0.9904409	b | e	-0.14524387
-0.44177616	| v e	-0.14524387
-0.35068843	å v e	-0.14524387
-0.34560388	p v e	-0.14524387
-0.498811	e v e	-0.20760301
-0.35068843	n v e	-0.14524387
-0.55308664	= v e	-0.14524387
-0.42094642	s v e	-0.40249178
-0.6322601	i v e	-0.2282014
-0.4126828	o v e	-0.36815065
-1.0053349	a v e	-0.14524387
-0.4386013	r v e	-0.2025145
-0.40387928	t v e	-0.21750657
-0.667506	# v e	-0.6398433
-0.8978572	l v e	-0.14524387
-0.4616289	h v e	-0.23548041
-0.5846498	u v e	-0.2020601
-0.66351897	ø v e	-0.14524387
-0.7520001	' v e	-0.14524387
-0.35068843	- v e	-0.23548041
-0.34560388	( v e	-0.14524387
-0.34560388	« v e	-0.14524387
-1.340539	t å e	-0.14524387
-1.3948264	b å e	-0.14524387
-0.61053747	| p e	-0.14524387
-0.38032967	å p e	-0.14524387
-0.74752474	p p e	-0.19449306
-1.1367362	e p e	-0.14524387
-0.8219229	s p e	-0.16610676
-0.7675735	i p e	-0.14524387
-0.93172735	o p e	-0.14524387
-0.685833	m p e	-0.14524382
-1.1618842	a p e	-0.14524387
-0.9957941	r p e	-0.14524387
-0.8026916	# p e	-0.3763055
-0.38032967	y p e	-0.14524387
-0.47874826	l p e	-0.14524387
-0.8102278	u p e	-0.14524387
-0.552182	ø p e	-0.14524387
-0.7257528	' p e	-0.14524387
-0.7257528	( p e	-0.14524387
-0.9080437	/ p e	-0.14524387
-1.72434	k e e	-0.14524387
-2.012555	r e e	-0.14524387
-2.291465	t e e	-0.14524387
-2.1981149	d e e	-0.14524387
-0.89354074	| n e	-0.14524387
-0.593999	å n e	-0.14524387
-0.98986095	p n e	-0.14524387
-0.9702708	e n e	-0.34281433
-0.77906483	n n e	-0.25674978
-1.021819	s n e	-0.14524387
-0.93279076	k n e	-0.14524387
-1.1251533	i n e	-0.26235455
-1.2113053	o n e	-0.19449306
-0.894621	m n e	-0.1880227
-0.95444036	a n e	-0.418065
-0.97113305	r n e	-0.18305603
-0.7656752	t n e	-0.2020601
-0.87332547	# n e	-0.32337797
-0.7718549	y n e	-0.14524387
-0.78045344	l n e	-0.14524387
-1.4701279	u n e	-0.14524387
-0.7287257	d n e	-0.20327291
-1.1198304	ø n e	-0.14524387
-0.6742727	g n e	-0.17912321
-0.78045344	' n e	-0.14524387
-0.94331825	- n e	-0.14524387
-1.5634837	e = e	-0.14524387
-1.4773033	n = e	-0.14524387
-0.771129	| s e	-0.14524387
-1.1835833	v s e	-0.14524387
-0.55210435	å s e	-0.36947688
-0.75410354	p s e	-0.14524387
-0.9646463	e s e	-0.25030324
-1.1207027	n s e	-0.20891057
-0.74301904	s s e	-0.21931162
-1.3908477	k s e	-0.14524387
-0.89025724	i s e	-0.40618008
-0.47165233	_ s e	-0.20327291
-0.8192946	o s e	-0.21587075
-0.9560353	m s e	-0.20327291
-1.4334652	a s e	-0.14524387
-1.1594397	r s e	-0.20327291
-1.0296311	t s e	-0.21750657
-1.1455197	# s e	-0.5814738
-1.0708945	y s e	-0.14524387
-1.1539853	l s e	-0.14524387
-0.6715392	h s e	-0.14524387
-0.86000884	u s e	-0.20327291
-0.6715392	ø s e	-0.14524387
-1.130863	g s e	-0.14524387
-0.8950114	b s e	-0.14524387
-0.9350316	å k e	-0.14524387
-1.2880268	e k e	-0.17912321
-1.006871	n k e	-0.14524387
-0.9154837	s k e	-0.28892696
-0.81672215	k k e	-0.20327291
-0.9342512	i k e	-0.16373858
-1.4273529	o k e	-0.14524387
-0.98982465	a k e	-0.20891057
-0.9858426	r k e	-0.18257326
-1.6351507	# k e	-0.14524387
-1.0730677	y k e	-0.14524387
-0.89682186	l k e	-0.17987396
-0.6691254	h k e	-0.14524387
-1.0124034	u k e	-0.17912321
-0.77490675	ø k e	-0.1880227
-1.0670805	c k e	-0.14524387
-1.3145432	e i e	-0.21587075
-1.4543039	n i e	-0.14524387
-1.1194448	s i e	-0.3144166
-1.5940406	k i e	-0.14524387
-1.6765736	m i e	-0.14524387
-1.5532992	r i e	-0.20327291
-1.8351499	t i e	-0.14524387
-1.5816655	f i e	-0.14524387
-1.6433022	l i e	-0.14524387
-1.0509354	c i e	-0.14524387
-0.891428	n _ e	-0.14524387
-2.0119627	k o e	-0.14524387
-1.6869724	m o e	-0.14524387
-1.9620857	r o e	-0.14524387
-0.88908976	| m e	-0.14524387
-0.86013734	e m e	-0.29036242
-0.7068112	s m e	-0.14524387
-0.9077935	i m e	-0.20327291
-1.122483	o m e	-0.1880227
-0.41016582	m m e	-0.21687673
-1.0766279	a m e	-0.14524387
-0.84088755	r m e	-0.14524387
-0.44289446	t m e	-0.20327291
-0.763674	# m e	-0.5485132
-0.6451867	l m e	-0.24453817
-0.7375733	h m e	-0.14524387
-0.9841659	u m e	-0.20327291
-0.90010834	d m e	-0.14524387
-0.44289446	ø m e	-0.14524387
-0.23147461	g m e	-0.14524387
-0.6195747	- m e	-0.14524387
-0.7375733	( m e	-0.14524387
-0.38562584	ö m e	-0.14524387
-2.040298	k a e	-0.14524387
-2.1052694	m a e	-0.14524387
-2.168989	r a e	-0.14524387
-2.154074	t a e	-0.14524387
-1.778412	d a e	-0.14524387
-1.8556491	b a e	-0.14524387
-0.23137927	| r e	-0.23548041
-0.6879343	å r e	-0.31699812
-0.7117083	p r e	-0.2025145
-0.97515	e r e	-0.41522357
-0.4427059	n r e	-0.14524387
-0.38543218	= r e	-0.14524387
-0.40123188	s r e	-0.19449306
-0.6446111	k r e	-0.19576518
-0.82226807	i r e	-0.17328994
-1.1089069	o r e	-0.17987396
-0.93254066	a r e	-0.42990404
-0.3414802	r r e	-0.20272121
-0.6802809	t r e	-0.23714806
-0.55970407	# r e	-0.48762512
-0.8345825	f r e	-0.21750657
-0.86181456	y r e	-0.1971084
-0.6192429	l r e	-0.14524387
-1.1580118	u r e	-0.14524387
-0.7371379	[ r e	-0.14524387
-0.720706	d r e	-0.17588697
-0.8227225	ø r e	-0.16610676
-0.38543218	. r e	-0.14524387
-0.45908886	g r e	-0.22740011
-0.23137927	c r e	-0.23548041
-0.8107653	' r e	-0.14524387
-1.0568308	b r e	-0.21587075
-0.6192429	- r e	-0.14524387
-0.7371379	( r e	-0.14524387
-0.23137927	< r e	-0.23548041
-0.6859928	æ r e	-0.21134925
-0.23137927	/ r e	-0.14524387
-0.9795808	å t e	-0.1880227
-0.5391019	p t e	-0.1880227
-1.0216576	e t e	-0.3002236
-0.8194377	n t e	-0.2744014
-0.8166544	s t e	-0.43584344
-0.8163167	k t e	-0.24265103
-0.7335532	i t e	-0.2823238
-0.39929417	_ t e	-0.23548041
-0.8894881	o t e	-0.17912321
-0.7189628	m t e	-0.14524387
-0.8947667	a t e	-0.1869268
-0.89829373	r t e	-0.26303717
-0.782464	t t e	-0.26599976
-0.8822106	# t e	-0.37857628
-0.7292671	f t e	-0.14524387
-1.2113001	y t e	-0.14524387
-0.8213518	l t e	-0.16917071
-0.921658	u t e	-0.22164446
-0.86894846	[ t e	-0.14524387
-0.8277693	d t e	-0.14524387
-0.8126227	ø t e	-0.14524387
-1.0140325	g t e	-0.14524387
-0.97200245	' t e	-0.14524387
-0.65577245	& t e	-0.14524387
-0.86894846	* t e	-0.14524387
-1.5876942	å # e	-0.14524387
-1.3875711	e # e	-0.3809537
-1.385011	n # e	-0.24221669
-1.5434499	= # e	-0.14524387
-1.3436935	s # e	-0.3144166
-1.5816765	k # e	-0.24089234
-1.6801366	i # e	-0.14524387
-1.2570919	o # e	-0.14524387
-1.4191977	m # e	-0.21587075
-1.4373143	a # e	-0.36855832
-1.355494	r # e	-0.21134925
-1.2410132	t # e	-0.37803328
-1.1974958	# # e	-0.14524387
-1.2811639	f # e	-0.14524387
-1.2909662	l # e	-0.1880227
-1.3400706	u # e	-0.14524387
-1.6652677	d # e	-0.14524387
-1.2396665	. # e	-0.3826972
-1.3796165	g # e	-0.25366703
-1.1048914	c # e	-0.14524387
-1.3942782	, # e	-0.33239335
-1.4668636	' # e	-0.14524387
-1.3754015	) # e	-0.20327291
-1.2223895	; # e	-0.14524387
-1.092027	x # e	-0.14524387
-1.3115959	" # e	-0.14524387
-1.3098301	: # e	-0.23548041
-0.9607094	4 # e	-0.14524387
-0.9607094	é # e	-0.14524387
-1.2338462	e f e	-0.14524387
-1.3129753	s f e	-0.14524387
-0.6694383	k f e	-0.14524387
-1.1054468	o f e	-0.14524387
-1.1802149	a f e	-0.14524387
-1.052905	# f e	-0.38311642
-0.87394696	f f e	-0.14524387
-1.0595597	l f e	-0.14524387
-1.0196503	' f e	-0.14524387
-0.41402218	! f e	-0.14524387
-0.86613154	n y e	-0.20327291
-0.9773737	m y e	-0.14524387
-1.3400412	a y e	-0.14524387
-1.438589	f y e	-0.14524387
-1.238726	l y e	-0.14524387
-1.1886277	ø y e	-0.20327291
-1.1227475	b y e	-0.23548041
-0.75013596	v l e	-0.14524387
-0.8109038	å l e	-0.14524387
-0.9703585	p l e	-0.14524387
-0.86602026	e l e	-0.26121086
-0.48810795	n l e	-0.28124136
-0.50000966	s l e	-0.17692652
-0.50270677	k l e	-0.21134925
-0.9474744	i l e	-0.24152271
-1.0530797	o l e	-0.18305603
-0.99281365	m l e	-0.14524387
-0.8106854	a l e	-0.28405413
-0.46575695	r l e	-0.38702038
-0.41596702	t l e	-0.20891057
-0.8265823	# l e	-0.3791682
-0.83997196	f l e	-0.1880227
-0.7921324	l l e	-0.26555803
-0.92466545	u l e	-0.18613148
-0.82620794	[ l e	-0.14524387
-0.8438981	d l e	-0.14524387
-0.6737845	g l e	-0.14524387
-0.75013596	c l e	-0.14524387
-0.75013596	' l e	-0.14524387
-0.6969135	b l e	-0.14524387
-0.6291154	( l e	-0.14524387
-0.6291154	æ l e	-0.14524387
-0.39116746	x l e	-0.14524387
-0.48908967	| h e	-0.20327291
-0.595018	v h e	-0.14524387
-0.7736738	p h e	-0.14524387
-1.0676405	e h e	-0.14524387
-0.62416923	n h e	-0.23548041
-0.98350513	s h e	-0.14524387
-0.595018	k h e	-0.14524387
-0.9296377	i h e	-0.14524387
-0.3711285	_ h e	-0.14524387
-0.22427733	m h e	-0.14524387
-0.6546874	t h e	-0.1880227
-0.7439752	# h e	-0.56661135
-0.854401	l h e	-0.14524387
-0.9905764	u h e	-0.14524387
-0.80667114	d h e	-0.14524387
-0.705626	g h e	-0.14524387
-0.6051406	c h e	-0.14524387
-0.705626	/ h e	-0.14524387
-1.1764665	n u e	-0.14524387
-1.4901103	k u e	-0.14524387
-1.5777233	a u e	-0.14524387
-1.6123996	r u e	-0.14524387
-1.3382102	t u e	-0.23548041
-1.0650976	g u e	-0.14524387
-1.5472095	b u e	-0.14524387
-1.3518842	j u e	-0.14524387
-0.8481085	z u e	-0.14524387
-1.1158818	q u e	-0.14524387
-1.4949255	[ [ e	-0.14524387
-0.8620781	| d e	-0.14524387
-0.7297052	v d e	-0.20327291
-0.65058374	å d e	-0.16917071
-0.95262367	e d e	-0.21134925
-0.86885804	n d e	-0.23897023
-0.92862177	= d e	-0.14524387
-0.789058	i d e	-0.23452434
-0.69911736	o d e	-0.14524387
-0.6303501	m d e	-0.14524387
-0.81870914	a d e	-0.2279661
-0.9003606	r d e	-0.19576518
-0.5976644	# d e	-0.63528526
-0.6897782	y d e	-0.14524387
-0.78449255	l d e	-0.21134925
-0.8883505	u d e	-0.20327291
-0.63428676	[ d e	-0.14524387
-0.5350037	d d e	-0.32049367
-0.6910761	ø d e	-0.20327291
-0.69256425	g d e	-0.19449306
-0.49351704	' d e	-0.20327291
-0.63428676	( d e	-0.14524387
-0.4453994	. 5 e	-0.14524387
-1.5444502	j ø e	-0.14524387
-0.39261785	s w e	-0.14524387
-0.90901405	o w e	-0.14524387
-0.88772213	a w e	-0.14524387
-0.8499717	# w e	-0.14524387
-0.39261785	z w e	-0.14524387
-0.91737974	3 . e	-0.14524387
-1.0686128	e g e	-0.2025145
-1.0962867	n g e	-0.26109836
-0.7970744	= g e	-0.14524387
-0.818678	i g e	-0.2490614
-0.9370532	o g e	-0.21587075
-0.6939691	a g e	-0.16917071
-0.8832034	r g e	-0.18305603
-1.3719202	# g e	-0.2020601
-1.0893717	y g e	-0.14524387
-1.1366156	l g e	-0.14524387
-0.921335	u g e	-0.14524387
-0.882741	[ g e	-0.14524387
-0.4110844	. g e	-0.14524387
-0.94860554	g g e	-0.19449306
-0.74729985	e c e	-0.23548041
-0.8743697	n c e	-0.14524387
-0.96101356	s c e	-0.14524387
-1.1656656	i c e	-0.14524387
-0.93402	[ c e	-0.14524387
-0.40824056	" c e	-0.14524387
-1.835043	' ' e	-0.14524387
-0.9705884	e b e	-0.20327291
-1.1654685	s b e	-0.14524387
-1.024753	i b e	-0.14524387
-0.74770355	o b e	-0.14524387
-0.7677123	m b e	-0.20327291
-0.7911295	a b e	-0.14524387
-1.0044369	r b e	-0.14524387
-1.0937905	# b e	-0.37953866
-0.92590874	l b e	-0.14524387
-1.0202999	u b e	-0.14524387
-0.901794	' b e	-0.14524387
-0.6476933	b b e	-0.14524387
-0.6416748	( b e	-0.14524387
-0.87274146	* b e	-0.14524387
-0.9941638	t - e	-0.14524387
-0.9825732	d - e	-0.14524387
-0.7217332	' - e	-0.14524387
-0.52603453	n j e	-0.23548041
-0.57395697	s j e	-0.1727235
-0.21852642	k j e	-0.2965644
-0.32411852	o j e	-0.14524387
-0.66347235	r j e	-0.14524387
-0.49545234	t j e	-0.21750657
-1.232612	# j e	-0.14524387
-0.88931084	f j e	-0.14524387
-0.52603453	l j e	-0.14524387
-0.4189936	h j e	-0.23548041
-0.32411852	ø j e	-0.14524387
-0.3465216	g j e	-0.26897997
-0.33318737	b j e	-0.23548041
-1.6437399	# ( e	-0.23548041
-1.3842696	2 0 e	-0.14524387
-0.9858045	i z e	-0.14524387
-1.3257945	e x e	-0.14524387
-0.8591475	i / e	-0.14524387
-0.95961386	/ / e	-0.14524387
-1.8441927	# * e	-0.14524387
-1.0121486	[ : e	-0.14524387
-0.41193146	d é e	-0.14524387
-1.1900643	k | n	-0.14524387
-1.6369623	# | n	-0.14524387
-0.724862	l | n	-0.14524387
-1.7246213	i v n	-0.14524387
-1.8781948	a v n	-0.14524387
-1.4208525	m å n	-0.14524387
-1.2633783	l å n	-0.14524387
-0.8512887	h å n	-0.14524387
-0.86788154	j å n	-0.14524387
-1.3873293	i p n	-0.14524387
-1.5469931	o p n	-0.14524387
-1.3077914	m p n	-0.14524387
-0.70986986	. p n	-0.23548041
-0.44113803	æ p n	-0.14524387
-0.8904842	v e n	-0.2318329
-0.8021226	p e n	-0.19800292
-1.0719155	e e n	-0.14524387
-1.0526757	n e n	-0.35265476
-0.6746409	s e n	-0.3403005
-0.877797	k e n	-0.2691273
-0.5933313	i e n	-0.2590062
-0.8941982	o e n	-0.14524387
-0.7963955	m e n	-0.26109836
-0.5853727	a e n	-0.20327291
-1.019292	r e n	-0.31572795
-0.90446496	t e n	-0.44864574
-0.8306314	# e n	-0.52574354
-0.9753852	f e n	-0.14524387
-0.6851185	y e n	-0.1880227
-1.0091785	l e n	-0.2756319
-0.90483266	h e n	-0.26934117
-1.1938254	u e n	-0.14524387
-0.6563707	[ e n	-0.14524387
-0.85983217	d e n	-0.39285356
-0.4067163	ø e n	-0.14524387
-0.74422574	w e n	-0.14524387
-0.8187946	g e n	-0.29039943
-0.5924352	c e n	-0.20327291
-1.201833	b e n	-0.14524387
-0.9110107	j e n	-0.17328994
-0.6563707	/ e n	-0.14524387
-0.4067163	: e n	-0.14524387
-0.4067163	é e n	-0.14524387
-1.2802777	e n n	-0.42835993
-1.1498749	i n n	-0.2571974
-1.3747259	o n n	-0.14524387
-1.2899152	a n n	-0.3587872
-1.5459238	r n n	-0.14524387
-0.8740768	u n n	-0.26934117
-0.9167454	ø n n	-0.14524387
-1.4299154	e = n	-0.14524387
-1.6581088	= = n	-0.14524387
-0.96039677	m = n	-0.14524387
-1.3462201	r = n	-0.14524387
-1.219243	l = n	-0.14524387
-1.8051739	i s n	-0.14524387
-1.6347387	m s n	-0.14524387
-1.8444526	r s n	-0.14524387
-1.8007334	# s n	-0.22888617
-1.4555901	e k n	-0.17912321
-1.8171804	s k n	-0.14524387
-1.4386569	i k n	-0.17912321
-1.5699563	o k n	-0.14524387
-1.5298144	r k n	-0.14524387
-1.551404	# k n	-0.17912321
-1.357671	l k n	-0.14524387
-1.0763373	' k n	-0.14524387
-0.4323576	b k n	-0.14524387
-0.85075194	* k n	-0.14524387
-0.5760037	| i n	-0.14524387
-0.8388639	v i n	-0.2025145
-0.3888647	å i n	-0.14524387
-0.7346171	p i n	-0.1880227
-0.74943733	e i n	-0.26247004
-0.661168	n i n	-0.65683925
-1.176754	s i n	-0.17912321
-0.66642046	k i n	-0.22164446
-0.819966	i i n	-0.14524387
-0.3888647	o i n	-0.14524387
-0.5342145	m i n	-0.22682151
-0.58823144	a i n	-0.17912321
-0.87276745	r i n	-0.44543242
-0.92727673	t i n	-0.3043836
-0.58441687	# i n	-0.5345706
-0.7521341	f i n	-0.19449306
-0.6251402	y i n	-0.14524387
-0.74017197	l i n	-0.34889764
-0.6251739	h i n	-0.16917071
-0.3888647	[ i n	-0.14524387
-0.73612285	d i n	-0.29419896
-0.44604778	. i n	-0.24453817
-0.8208748	g i n	-0.1880227
-0.819966	' i n	-0.14524387
-0.95079243	b i n	-0.17912321
-0.77757776	- i n	-0.14524387
-0.819966	j i n	-0.14524387
-0.8721524	( i n	-0.14524387
-0.6251402	« i n	-0.14524387
-0.3888647	/ i n	-0.14524387
-0.7448909	* i n	-0.14524387
-0.3888647	à i n	-0.14524387
-0.84468615	s _ n	-0.14524387
-0.69870675	_ _ n	-0.14524387
-1.2486682	v o n	-0.14524387
-1.172724	p o n	-0.14524387
-1.256877	n o n	-0.14524387
-1.0223835	s o n	-0.20327291
-0.6242311	k o n	-0.20991305
-0.40610784	i o n	-0.20272121
-0.70885116	m o n	-0.14524387
-0.7227479	a o n	-0.14524387
-0.9226642	r o n	-0.16185325
-1.3167218	t o n	-0.14524387
-1.7632214	# o n	-0.14524387
-0.8431941	l o n	-0.2025145
-1.1047076	h o n	-0.14524387
-0.66296446	d o n	-0.16373858
-0.87512016	w o n	-0.14524387
-0.9949918	g o n	-0.14524387
-1.2174484	c o n	-0.14524387
-1.2332945	b o n	-0.14524387
-1.0832396	j o n	-0.14524387
-0.65953976	z o n	-0.14524387
-1.4420812	e m n	-0.14524387
-1.4856197	i m n	-0.14524387
-1.455515	o m n	-0.17912321
-1.4221385	a m n	-0.16610676
-2.0794392	# m n	-0.14524387
-1.1668415	y m n	-0.14524387
-0.80365276	v a n	-0.22002918
-0.41184783	å a n	-0.14524387
-0.87610847	p a n	-0.20272121
-0.90536094	e a n	-0.14524387
-1.0909702	n a n	-0.18613148
-0.9721012	= a n	-0.14524387
-0.8797375	s a n	-0.25461498
-0.97333175	k a n	-0.1971084
-0.93610466	i a n	-0.22682151
-0.90829176	o a n	-0.14524387
-0.9553227	m a n	-0.2122151
-0.7976668	r a n	-0.34598106
-0.939019	t a n	-0.24904849
-0.8247518	# a n	-0.4973281
-0.7662001	f a n	-0.25366703
-0.8191383	y a n	-0.1880227
-0.70185786	l a n	-0.44751137
-1.0913119	h a n	-0.2025145
-1.0762659	u a n	-0.1880227
-0.9924638	[ a n	-0.14524387
-0.87610984	d a n	-0.24863672
-0.928983	w a n	-0.14524387
-0.7314894	g a n	-0.3337962
-0.90888274	c a n	-0.20327291
-1.0924776	' a n	-0.14524387
-0.7077798	b a n	-0.29419896
-0.9973951	j a n	-0.1880227
-0.665531	) a n	-0.14524387
-1.0118037	z a n	-0.14524387
-0.665531	* a n	-0.14524387
-1.7761078	å r n	-0.14524387
-1.5997126	e r n	-0.2590062
-1.63154	o r n	-0.14524387
-1.7208266	a r n	-0.17588697
-1.7462187	ø r n	-0.14524387
-1.6697385	e t n	-0.21750657
-1.582756	s t n	-0.14524387
-1.8455911	i t n	-0.14524387
-1.2804797	o t n	-0.14524387
-1.687634	a t n	-0.14524387
-1.7108878	r t n	-0.14524387
-1.5609889	l t n	-0.14524387
-1.7524925	u t n	-0.14524387
-1.3738341	v # n	-0.23548041
-1.5422052	å # n	-0.2025145
-1.5005357	p # n	-0.14524387
-1.4969957	e # n	-0.36288652
-1.3367571	n # n	-0.25853735
-1.3622358	s # n	-0.39359784
-1.6165446	k # n	-0.1880227
-1.7368269	i # n	-0.14524387
-1.2815323	o # n	-0.14524387
-1.5345938	m # n	-0.14524387
-1.560562	a # n	-0.3037472
-1.3750992	r # n	-0.2757206
-1.4299586	t # n	-0.30433863
-1.3147242	f # n	-0.14524387
-1.5498173	l # n	-0.23548041
-1.4799778	d # n	-0.19205941
-1.1620893	w # n	-0.14524387
-1.2916516	. # n	-0.29036242
-1.5050448	g # n	-0.21659704
-1.6309633	, # n	-0.24304646
-0.88541806	b # n	-0.14524387
-1.405225	) # n	-0.14524387
-1.1134399	x # n	-0.14524387
-1.3371073	: # n	-0.14524387
-1.4521763	f f n	-0.14524387
-1.2754549	n y n	-0.14524387
-0.58729565	s y n	-0.21134925
-0.97573054	m y n	-0.14524387
-1.2813033	r y n	-0.14524387
-1.152714	# y n	-0.14524387
-1.2361734	l y n	-0.14524387
-1.410877	ø y n	-0.14524387
-1.991283	i l n	-0.14524387
-1.9070091	u l n	-0.14524387
-0.45571795	& l n	-0.14524387
-1.7051063	t h n	-0.14524387
-1.0381504	| u n	-0.14524387
-0.7554985	v u n	-0.23548041
-0.59753036	p u n	-0.21750657
-1.2464024	n u n	-0.14524387
-0.83220893	s u n	-0.2020601
-0.8639252	k u n	-0.24089234
-1.0755198	m u n	-0.14524387
-1.1963847	a u n	-0.23548041
-0.8698139	r u n	-0.18505453
-0.90070915	t u n	-0.20327291
-0.64249	# u n	-0.3958058
-0.66347456	f u n	-0.22341564
-0.70198035	y u n	-0.23548041
-0.7319403	l u n	-0.19205941
-0.6953294	h u n	-0.39359784
-1.1843786	d u n	-0.14524387
-1.1001496	b u n	-0.20327291
-0.845001	j u n	-0.1880227
-0.98766464	q u n	-0.14524387
-1.2135353	[ [ n	-0.2020601
-1.74717	e d n	-0.14524387
-1.7826667	i d n	-0.14524387
-1.481362	a d n	-0.14524387
-1.626842	r d n	-0.14524387
-1.3054746	l d n	-0.23548041
-1.31252	u d n	-0.14524387
-0.89951634	s ø n	-0.23548041
-0.8728936	r ø n	-0.17328994
-1.0903114	t ø n	-0.14524387
-1.18672	l ø n	-0.14524387
-1.1243547	b ø n	-0.14524387
-1.2016015	j ø n	-0.14524387
-1.098056	o w n	-0.14524387
-1.3657731	e . n	-0.14524387
-1.064743	n . n	-0.14524387
-1.2110187	s . n	-0.14524387
-0.95046484	o . n	-0.14524387
-1.4350113	a . n	-0.14524387
-1.0790589	r . n	-0.23548041
-1.379457	t . n	-0.14524387
-1.1313512	w . n	-0.14524387
-1.122735	g . n	-0.14524387
-1.4949061	e g n	-0.21587075
-1.3068644	i g n	-0.20327291
-0.83749485	y g n	-0.14524387
-1.4357467	u g n	-0.14524387
-0.7443656	u c n	-0.14524387
-1.9380999	' ' n	-0.1880227
-1.1680233	n - n	-0.14524387
-1.1187412	i - n	-0.14524387
-0.980293	# - n	-0.14524387
-0.4211637	a ( n	-0.14524387
-1.0050533	# ( n	-0.3995069
-0.10817106	# & n	-0.23548041
-0.10817106	1 & n	-0.23548041
-0.16370654	6 & n	-0.14524387
-0.10817106	5 & n	-0.23548041
-0.08512222	0 & n	-0.36947688
-0.16370654	] & n	-0.14524387
-0.16370654	; & n	-0.14524387
-0.39561504	v ā n	-0.14524387
-0.72195727	r æ n	-0.14524387
-0.9859193	# z n	-0.14524387
-0.6760727	' z n	-0.14524387
-1.2160823	o / n	-0.14524387
-0.4270005	b / n	-0.14524387
-0.9316972	/ / n	-0.14524387
-1.5150262	# * n	-0.14524387
-1.0101072	[ : n	-0.14524387
-0.13209875	i š n	-0.14524387
-0.13209875	a š n	-0.14524387
-0.3597687	l à n	-0.14524387
-0.83382016	# ! n	-0.14524387
-0.3674196	a ô n	-0.14524387
-0.3674196	b ô n	-0.14524387
-0.3597687	a â n	-0.14524387
-0.22038941	b û n	-0.14524387
-0.21476853	i ó n	-0.14524387
-0.21476853	m ó n	-0.14524387
-1.6211997	a v =	-0.14524387
-1.5101066	r å =	-0.14524387
-1.9538524	n e =	-0.14524387
-1.954288	s e =	-0.14524387
-1.6347152	k e =	-0.1880227
-1.2660401	i e =	-0.14524387
-1.8943936	m e =	-0.14524387
-2.0815105	t e =	-0.14524387
-2.0641284	l e =	-0.14524387
-1.4918014	d e =	-0.17328994
-1.8208013	g e =	-0.14524387
-0.44546115	z e =	-0.14524387
-2.2873046	e n =	-0.14524387
-1.9961083	o n =	-0.14524387
-1.5568756	m n =	-0.14524382
-2.2906687	a n =	-0.14524387
-1.3306789	g n =	-0.14524387
-0.6056627	v = =	-0.14524387
-0.9281798	e = =	-0.20327291
-1.0161064	n = =	-0.14524387
-0.73615015	= = =	-0.2564026
-0.71940774	k = =	-0.14524387
-0.37633067	i = =	-0.14524387
-0.6056627	o = =	-0.14524387
-0.7898372	a = =	-0.14524387
-0.7597374	r = =	-0.24089234
-1.0181898	t = =	-0.14524387
-0.36206222	# = =	-0.3451051
-0.6056627	f = =	-0.14524387
-0.9603233	l = =	-0.14524387
-0.8006056	d = =	-0.23548041
-0.87394166	g = =	-0.14524387
-0.37745395	8 = =	-0.14524387
-2.2693243	i s =	-0.14524387
-1.9752164	u s =	-0.14524387
-1.9891725	i k =	-0.14524387
-2.0383139	a k =	-0.14524387
-1.8481646	r k =	-0.14524387
-1.7904845	f i =	-0.14524387
-1.9822787	d i =	-0.14524387
-1.760637	g i =	-0.14524387
-2.0262594	r o =	-0.14524387
-2.0415335	t o =	-0.14524387
-1.1563545	r m =	-0.14524387
-1.8205106	k a =	-0.14524387
-2.3639014	t a =	-0.14524387
-1.752293	e r =	-0.17328994
-2.097306	o r =	-0.14524387
-1.5303667	a r =	-0.19576518
-1.9057415	u r =	-0.14524387
-2.2936058	s t =	-0.14524387
-1.5511265	k t =	-0.14524387
-1.7889324	a t =	-0.14524387
-1.47774	r t =	-0.14524387
-1.5928563	| # =	-0.14524387
-1.5984281	p # =	-0.14524387
-2.2927895	e # =	-0.14524387
-1.8838443	n # =	-0.14524387
-2.0147161	k # =	-0.14524387
-1.8657849	m # =	-0.14524387
-2.1037285	a # =	-0.23548041
-1.8546247	r # =	-0.23548041
-1.9554842	t # =	-0.14524387
-1.8865288	l # =	-0.14524387
-1.6943986	d # =	-0.14524387
-1.361443	. # =	-0.7216594
-1.7189951	g # =	-0.20327291
-2.3160694	, # =	-0.14524387
-1.3104348	' # =	-0.23548041
-1.0909098	/ # =	-0.14524387
-0.99732894	f f =	-0.14524387
-2.1066647	e l =	-0.14524387
-2.1629615	a l =	-0.14524387
-1.527121	r l =	-0.14524387
-1.5324631	# l =	-0.3144166
-1.5196885	g l =	-0.14524387
-1.2498106	i d =	-0.1880227
-1.1664001	m d =	-0.14524387
-1.4115939	a d =	-0.14524387
-1.5629474	d d =	-0.14524387
-0.44973296	? d =	-0.14524387
-0.42804703	p 1 =	-0.14524387
-0.2518405	e 1 =	-0.14524387
-0.42804703	o 1 =	-0.14524387
-0.69502723	t 1 =	-0.14524387
-1.9077712	e g =	-0.14524387
-1.69069	n g =	-0.14524387
-0.9154912	ò g =	-0.14524387
-0.4036987	p 2 =	-0.14524387
-0.2402776	e 2 =	-0.14524387
-0.4036987	o 2 =	-0.14524387
-0.4036987	t 2 =	-0.14524387
-1.0954983	9 8 =	-0.14524387
-0.74217933	i | s	-0.14524387
-1.1183726	r | s	-0.14524387
-1.211732	# | s	-0.24089234
-1.1947976	g | s	-0.14524387
-0.9378065	b | s	-0.14524387
-1.6421999	e v s	-0.14524387
-1.1769984	i v s	-0.14524387
-1.3852395	a v s	-0.14524387
-1.3331398	l v s	-0.14524387
-0.8717072	s å s	-0.23548041
-0.6538772	k å s	-0.14524387
-1.2599963	m å s	-0.14524387
-1.1587212	r å s	-0.14524387
-0.9597323	# å s	-0.20327291
-0.74070877	l å s	-0.14524387
-0.5953411	d å s	-0.23548041
-1.5030621	p p s	-0.14524387
-1.3928007	i p s	-0.14524387
-1.5534526	o p s	-0.14524387
-1.2966094	a p s	-0.14524387
-1.179632	t p s	-0.14524387
-0.9774253	v e s	-0.31699812
-1.0544204	p e s	-0.17912321
-0.95607394	n e s	-0.25030324
-1.5489379	s e s	-0.14524387
-1.2794849	k e s	-0.1971084
-1.4270525	i e s	-0.14524387
-1.1425159	m e s	-0.17912321
-1.1160277	r e s	-0.31602538
-1.8356669	t e s	-0.14524387
-1.3971527	# e s	-0.36947688
-0.7204954	f e s	-0.3144166
-1.2649174	l e s	-0.19044022
-1.2142199	h e s	-0.20327291
-1.2832906	u e s	-0.14524387
-1.3016939	d e s	-0.22138377
-1.1775887	g e s	-0.14524387
-1.1443194	' e s	-0.14524387
-1.1681157	b e s	-0.2020601
-1.3172901	j e s	-0.14524387
-0.42433602	* e s	-0.14524387
-1.134489	e n s	-0.3922516
-1.3827475	n n s	-0.17912321
-1.3247466	i n s	-0.23102647
-1.3390921	o n s	-0.1633691
-1.0444264	a n s	-0.3384327
-1.0826987	r n s	-0.14524387
-1.9831047	# n s	-0.14524387
-1.3187908	y n s	-0.14524387
-1.7098261	u n s	-0.14524387
-0.89822364	ø n s	-0.20327291
-1.005287	n = s	-0.14524387
-1.3650501	= = s	-0.20327291
-1.3123394	r = s	-0.14524387
-0.9650565	t = s	-0.23548041
-1.2481091	# = s	-0.23548041
-1.1916599	l = s	-0.14524387
-0.920199	v s s	-0.23548041
-1.1291511	e s s	-0.34835434
-1.3295891	n s s	-0.20327291
-1.5423801	i s s	-0.1880227
-1.2446574	o s s	-0.14524387
-1.3829637	m s s	-0.14524387
-1.0823716	a s s	-0.2697509
-1.573085	t s s	-0.14524387
-2.205453	# s s	-0.14524387
-1.1250709	y s s	-0.14524387
-1.4910964	l s s	-0.14524387
-1.3635459	u s s	-0.14524387
-1.5086656	d s s	-0.14524387
-1.45891	g s s	-0.14524387
-0.43210974	æ s s	-0.14524387
-0.81919146	e k s	-0.25030324
-1.3452116	n k s	-0.14524387
-1.7914671	s k s	-0.14524387
-1.5536151	k k s	-0.14524387
-1.6517928	i k s	-0.14524387
-0.8412212	o k s	-0.21134925
-1.2247348	a k s	-0.16917071
-1.1902108	r k s	-0.14524387
-1.338372	l k s	-0.14524387
-1.0506698	u k s	-0.14524387
-0.6981309	æ k s	-0.14524387
-0.59748644	| i s	-0.14524387
-0.61222935	v i s	-0.2347366
-1.1426185	p i s	-0.14524387
-1.1100334	e i s	-0.21110368
-1.0824207	n i s	-0.18305603
-0.40712908	= i s	-0.14524387
-0.8313344	s i s	-0.25817773
-1.1624734	k i s	-0.23548041
-0.9929169	m i s	-0.19449306
-0.9433962	r i s	-0.32209387
-1.0144444	t i s	-0.4573326
-0.85459733	# i s	-0.2722467
-0.6889413	f i s	-0.28124136
-0.65710443	y i s	-0.14524387
-0.8293854	l i s	-0.34827676
-0.64482987	h i s	-0.39359784
-1.0552148	u i s	-0.14524387
-0.8887868	d i s	-0.17987396
-0.65710443	ø i s	-0.14524387
-1.0084248	g i s	-0.2020601
-0.87112665	' i s	-0.14524387
-0.65710443	« i s	-0.14524387
-0.7875165	* i s	-0.14524387
-0.40712908	: i s	-0.14524387
-0.77687913	n _ s	-0.14524387
-0.8582641	k _ s	-0.14524387
-1.0188847	t _ s	-0.14524387
-0.40266696	7 _ s	-0.14524387
-1.3118258	v o s	-0.14524387
-0.8194637	p o s	-0.29036242
-1.5180436	n o s	-0.14524387
-0.81859004	= o s	-0.14524387
-1.1525549	s o s	-0.23548041
-1.5915104	k o s	-0.14524387
-1.0745965	i o s	-0.14524387
-1.2730981	r o s	-0.14524387
-1.3714437	t o s	-0.14524387
-0.85450435	# o s	-0.7060074
-1.6220644	f o s	-0.14524387
-1.2908187	l o s	-0.14524387
-0.41980213	[ o s	-0.14524387
-1.2868787	g o s	-0.14524387
-0.77990395	j o s	-0.14524387
-0.9090932	« o s	-0.14524387
-1.3493464	e m s	-0.20327291
-1.1775502	o m s	-0.1603168
-1.4268699	a m s	-0.21587075
-0.63027674	y m s	-0.20327291
-1.2537686	l m s	-0.14524387
-1.1615325	u m s	-0.14524387
-1.0067606	| a s	-0.14524387
-1.5964432	v a s	-0.14524387
-0.97092986	p a s	-0.17912321
-1.3082099	e a s	-0.14524387
-1.0989028	n a s	-0.19336812
-0.47201186	= a s	-0.24453817
-1.4630713	s a s	-0.23548041
-1.2681435	k a s	-0.14524387
-1.221021	m a s	-0.20327291
-1.1153395	a a s	-0.14524387
-1.0252478	r a s	-0.31831354
-1.1663535	t a s	-0.29036242
-1.0434456	# a s	-0.5278515
-1.27803	f a s	-0.23548041
-1.020035	l a s	-0.2132275
-1.10369	h a s	-0.17912321
-1.3324062	u a s	-0.14524387
-1.4526548	d a s	-0.14524387
-0.60745484	. a s	-0.14524387
-1.0565107	g a s	-0.19205941
-0.91795146	c a s	-0.20327291
-1.1078135	' a s	-0.14524387
-0.93849117	b a s	-0.21587075
-0.4092987	- a s	-0.17912321
-1.1012695	j a s	-0.23548041
-0.6722069	( a s	-0.14524387
-0.41555762	« a s	-0.14524387
-0.6723362	/ a s	-0.23548041
-1.2459986	å r s	-0.20327291
-1.1942009	e r s	-0.21893099
-1.5602548	i r s	-0.14524387
-1.5525068	o r s	-0.17328994
-1.3995773	a r s	-0.17958504
-1.2890338	y r s	-0.14524387
-1.4354497	u r s	-0.23548041
-1.0584289	ø r s	-0.17912321
-1.5985832	æ r s	-0.14524387
-1.4476912	å t s	-0.14524387
-1.4450512	e t s	-0.17328994
-1.521183	n t s	-0.14524387
-1.7356431	s t s	-0.14524387
-1.4011279	k t s	-0.14524387
-1.701914	i t s	-0.14524387
-1.2285812	o t s	-0.14524387
-1.2480335	m t s	-0.14524387
-1.5898268	a t s	-0.14524387
-1.234199	r t s	-0.14524382
-1.411558	t t s	-0.14524387
-1.3793304	f t s	-0.14524387
-1.4435378	l t s	-0.14524387
-1.589678	u t s	-0.14524387
-1.0434775	| # s	-0.14524387
-0.9522592	v # s	-0.23102647
-1.035664	å # s	-0.23487179
-1.4002123	p # s	-0.14524387
-1.232486	e # s	-0.48130262
-1.2430735	n # s	-0.24012086
-1.2253257	= # s	-0.14524387
-1.1142764	s # s	-0.25030324
-1.0750782	k # s	-0.22666107
-0.9229754	i # s	-0.19044022
-1.3091416	o # s	-0.1880227
-1.0716295	m # s	-0.21523085
-1.156459	a # s	-0.43231702
-1.213507	r # s	-0.24503607
-1.2282263	t # s	-0.40614015
-1.237469	f # s	-0.14524387
-1.246325	y # s	-0.17328994
-1.0792924	l # s	-0.24345277
-1.5269876	u # s	-0.14524387
-1.0279346	d # s	-0.2756319
-0.9560818	5 # s	-0.14524387
-1.0672228	. # s	-0.37171873
-1.154304	g # s	-0.31034303
-1.1570973	, # s	-0.50664616
-1.405292	' # s	-0.14524387
-0.41730544	b # s	-0.14524387
-0.75343966	- # s	-0.14524387
-0.9884777	) # s	-0.16610676
-0.9560818	2 # s	-0.14524387
-0.82260454	» # s	-0.20327291
-1.1416886	z # s	-0.14524387
-1.2715411	" # s	-0.14524387
-1.273741	: # s	-0.14524387
-0.42935485	% # s	-0.14524387
-0.93926847	4 # s	-0.14524387
-0.9560818	q # s	-0.14524387
-0.7092196	s y s	-0.2020601
-0.54580414	k y s	-0.24453817
-1.3054067	a y s	-0.14524387
-1.2509153	r y s	-0.14524387
-1.2063209	t y s	-0.14524387
-0.8176996	l y s	-0.17912321
-1.1631924	ø y s	-0.1880227
-1.3566966	b y s	-0.14524387
-1.3165826	å l s	-0.14524387
-1.1824818	e l s	-0.23452434
-1.5305928	i l s	-0.14524387
-1.4785528	o l s	-0.14524387
-1.411571	a l s	-0.14524387
-1.6595845	l l s	-0.14524387
-1.440275	u l s	-0.14524387
-1.4400483	g l s	-0.14524387
-1.0246773	= h s	-0.14524387
-1.4974914	c h s	-0.14524387
-1.1738912	p u s	-0.14524387
-1.2855762	n u s	-0.14524387
-0.9043065	i u s	-0.14524387
-0.87487435	o u s	-0.14524387
-0.6810227	m u s	-0.24453817
-0.8810898	a u s	-0.39359784
-1.2741457	r u s	-0.14524387
-1.0180374	t u s	-0.19449306
-1.444236	# u s	-0.14524387
-1.2375029	f u s	-0.14524387
-1.310711	l u s	-0.14524387
-0.50332683	h u s	-0.25599483
-0.9034032	d u s	-0.20327291
-1.0855675	g u s	-0.14524387
-0.40841302	c u s	-0.14524387
-0.7933385	b u s	-0.22640052
-0.40841302	« u s	-0.14524387
-1.3950114	[ [ s	-0.19205941
-1.2318286	å d s	-0.14524387
-1.6718886	e d s	-0.14524387
-1.4800203	n d s	-0.16185325
-1.4688749	i d s	-0.16917071
-1.6676921	a d s	-0.14524387
-1.185609	r d s	-0.16610676
-1.2797374	l d s	-0.14524387
-1.278011	u d s	-0.14524387
-0.44566077	i ø s	-0.14524387
-1.4606361	j ø s	-0.14524387
-0.7373481	i w s	-0.14524387
-1.6573718	a . s	-0.14524387
-1.4172668	w . s	-0.14524387
-0.8926799	x . s	-0.14524387
-1.6502609	e g s	-0.14524387
-1.2949082	n g s	-0.17945671
-1.6503205	i g s	-0.14524387
-1.1818132	o g s	-0.20327291
-1.5969051	a g s	-0.14524387
-1.4079854	r g s	-0.14524387
-1.2603893	ø g s	-0.14524387
-1.5438153	o , s	-0.14524387
-1.610433	' ' s	-0.17328994
-0.8930484	( ' s	-0.14524387
-1.3239595	n b s	-0.14524387
-1.2538496	i b s	-0.14524387
-1.2686788	o b s	-0.14524387
-1.2519592	u b s	-0.14524387
-0.67304444	m - s	-0.14524387
-1.0085721	r - s	-0.14524387
-0.8975325	# - s	-0.14524387
-0.41602123	y - s	-0.14524387
-1.0085721	l - s	-0.14524387
-0.8091807	] - s	-0.14524387
-1.0665393	# ( s	-0.21659704
-0.42299652	' ( s	-0.14524387
-1.1761184	n æ s	-0.14524387
-1.506273	# « s	-0.14524387
-1.2246162	o / s	-0.14524387
-0.25203136	a / s	-0.14524387
-0.4166039	r / s	-0.14524387
-1.5265692	# * s	-0.14524387
-0.4041379	i : s	-0.14524387
-0.6517997	l : s	-0.14524387
-0.8624767	[ : s	-0.14524387
-0.8624767	b : s	-0.14524387
-0.41265783	n é s	-0.14524387
-1.0849936	i | k	-0.14524387
-0.93318975	o | k	-0.14524387
-0.6824829	m | k	-0.14524387
-1.284245	# | k	-0.21750657
-0.42121834	. | k	-0.14524387
-0.42121834	2 | k	-0.14524387
-1.009678	r å k	-0.15796354
-1.3148495	t å k	-0.14524387
-0.8801227	h å k	-0.14524387
-1.6935942	p p k	-0.14524387
-1.5283161	v e k	-0.1880227
-1.4624214	p e k	-0.14524387
-1.1825788	e e k	-0.14524387
-1.5513333	n e k	-0.14524387
-1.5072777	s e k	-0.14524387
-1.7481266	k e k	-0.14524387
-1.4359708	m e k	-0.14524387
-1.3284374	r e k	-0.20891057
-1.2740561	t e k	-0.21659704
-1.5788867	# e k	-0.20327291
-1.1562464	f e k	-0.14524387
-1.3545483	l e k	-0.29036242
-1.3442523	h e k	-0.14524387
-1.6528287	d e k	-0.14524387
-1.1876597	' e k	-0.14524387
-1.2517812	j e k	-0.14524387
-1.8890043	e n k	-0.14524387
-1.3662807	i n k	-0.14524387
-1.6896921	o n k	-0.14524387
-1.896487	a n k	-0.20327291
-1.3973142	u n k	-0.20327291
-1.4831858	n = k	-0.14524387
-1.4764229	= = k	-0.20327291
-0.8790693	v s k	-0.14524387
-1.1559434	p s k	-0.14524387
-1.1720996	e s k	-0.19044022
-1.0231023	n s k	-0.2199699
-0.6511	= s k	-0.20327291
-1.0939474	s s k	-0.1880227
-1.3925557	k s k	-0.14524387
-0.7852808	i s k	-0.5500914
-1.2607261	m s k	-0.14524387
-0.89389277	a s k	-0.31831354
-0.9094782	r s k	-0.19940986
-0.8359729	t s k	-0.19449306
-1.0763118	# s k	-0.6327899
-1.0716648	y s k	-0.14524387
-0.9098987	l s k	-0.19576518
-1.4721259	u s k	-0.14524387
-0.8957691	[ s k	-0.14524387
-1.1916991	d s k	-0.14524387
-0.9786102	. s k	-0.14524387
-1.3315995	g s k	-0.14524387
-1.1527443	' s k	-0.14524387
-1.0248176	- s k	-0.14524387
-1.0248176	( s k	-0.14524387
-0.89747155	e k k	-0.26410192
-0.77649736	i k k	-0.34823397
-1.3623474	o k k	-0.14524387
-1.0404221	a k k	-0.17328994
-0.76674396	y k k	-0.17912321
-1.0751932	u k k	-0.14524387
-0.82170594	ø k k	-0.14524387
-1.2719108	- k k	-0.14524387
-0.9704822	v i k	-0.19044022
-1.2846298	p i k	-0.14524387
-1.2897503	e i k	-0.17328994
-1.3204172	n i k	-0.20327291
-1.2126781	s i k	-0.17328994
-0.98680246	r i k	-0.2251188
-1.0678906	t i k	-0.4573326
-0.7726816	# i k	-0.48766416
-1.2349919	f i k	-0.20327291
-1.0705687	l i k	-0.20891057
-1.4032868	d i k	-0.14524387
-0.28133217	w i k	-0.24453817
-1.198277	g i k	-0.23548041
-0.8076927	k _ k	-0.14524387
-0.38427573	i _ k	-0.14524387
-0.38427573	a _ k	-0.14524387
-0.38427573	r _ k	-0.14524387
-0.9474589	t _ k	-0.14524387
-0.63566613	v o k	-0.23933919
-1.5594016	n o k	-0.14524387
-0.83271617	= o k	-0.14524387
-1.4262645	s o k	-0.14524387
-1.4350473	k o k	-0.14524387
-0.83271617	o o k	-0.14524387
-1.029887	m o k	-0.14524387
-1.168477	t o k	-0.21750657
-1.4521778	# o k	-0.23548041
-1.2300705	l o k	-0.20327291
-1.4121258	h o k	-0.14524387
-1.0803753	d o k	-0.14524387
-0.90624255	b o k	-0.20272121
-1.1540288	j o k	-0.14524387
-2.0211365	o m k	-0.14524387
-1.7457955	u m k	-0.14524387
-1.4013436	v a k	-0.19205941
-1.5440358	n a k	-0.14524387
-1.0402458	= a k	-0.14524387
-0.9628833	s a k	-0.22232038
-1.7319775	k a k	-0.14524387
-1.719066	i a k	-0.14524387
-1.313474	o a k	-0.14524387
-1.3794589	m a k	-0.21587075
-1.2849655	r a k	-0.22888617
-1.0976661	t a k	-0.20272121
-1.1562792	# a k	-0.2132275
-1.3569278	f a k	-0.23548041
-1.2802094	l a k	-0.29036242
-1.3142745	h a k	-0.24453817
-0.9705927	b a k	-0.19449306
-1.1618493	- a k	-0.14524387
-1.0635345	j a k	-0.14524387
-1.0916461	z a k	-0.14524387
-1.5757496	e r k	-0.19957723
-1.6105759	i r k	-0.14524387
-1.4348159	o r k	-0.14524387
-1.8405383	a r k	-0.14524382
-1.0193644	y r k	-0.22640052
-1.7518686	u r k	-0.14524387
-1.2603433	ø r k	-0.14524387
-2.169964	a t k	-0.14524387
-1.6097438	f t k	-0.14524387
-1.9833565	u t k	-0.14524387
-1.0741744	| # k	-0.24453817
-1.2599547	v # k	-0.14524387
-1.2745104	å # k	-0.2025145
-1.4756612	p # k	-0.14524387
-1.3931252	e # k	-0.42897993
-1.3274027	n # k	-0.2170248
-1.5616344	= # k	-0.14524387
-1.4577551	s # k	-0.17912321
-1.3601176	k # k	-0.21134925
-1.4237324	i # k	-0.14524387
-1.5936309	o # k	-0.14524387
-1.4333069	m # k	-0.17912321
-1.3572061	a # k	-0.3356059
-1.2402117	r # k	-0.33622876
-1.283118	t # k	-0.38847342
-1.2959555	f # k	-0.14524387
-1.5597625	y # k	-0.14524387
-1.3006542	l # k	-0.20327291
-1.2504375	u # k	-0.14524387
-1.2062705	d # k	-0.2132275
-1.3846469	. # k	-0.3424453
-1.3887061	g # k	-0.25775847
-1.1137087	c # k	-0.14524387
-1.3583004	, # k	-0.25599483
-1.4883115	' # k	-0.14524387
-1.6235653	) # k	-0.14524387
-1.5739669	: # k	-0.14524387
-1.0720358	e y k	-0.14524387
-1.0035605	m y k	-0.14524387
-1.3241272	r y k	-0.14524387
-0.9627534	l y k	-0.14524387
-1.2278003	d y k	-0.14524387
-1.4668072	ø y k	-0.14524387
-1.3171645	å l k	-0.14524387
-1.5312676	i l k	-0.14524387
-1.4791089	o l k	-0.20327291
-2.002409	a l k	-0.14524387
-1.2820737	y l k	-0.14524387
-1.3853495	l l k	-0.14524387
-1.7007596	u l k	-0.14524387
-1.0573108	ø l k	-0.14524387
-1.9097239	# h k	-0.14524387
-1.5049952	n u k	-0.14524387
-1.6408035	a u k	-0.14524387
-1.0326228	r u k	-0.19576518
-1.6369015	t u k	-0.14524387
-1.2179309	l u k	-0.14524387
-1.1056762	d u k	-0.20327291
-1.3439902	b u k	-0.23548041
-1.4006612	j u k	-0.14524387
-1.7747393	[ [ k	-0.14524387
-2.0006523	n d k	-0.14524387
-1.7925227	u d k	-0.14524387
-0.90187526	s ø k	-0.1880227
-0.8975648	m ø k	-0.14524387
-1.0941916	t ø k	-0.14524387
-1.4374046	# ø k	-0.14524387
-1.1913302	l ø k	-0.14524387
-0.32752964	b ø k	-0.4663869
-1.1488285	i . k	-0.14524387
-1.6131793	a . k	-0.14524387
-1.5410699	r . k	-0.14524387
-1.3568558	w . k	-0.14524387
-1.6925049	n g k	-0.14524387
-1.7845812	o g k	-0.14524387
-1.1070914	e c k	-0.14524387
-0.5887562	i c k	-0.23548041
-1.1231744	a c k	-0.14524387
-0.6787606	u c k	-0.14524387
-0.4191748	ü c k	-0.14524387
-1.9527141	' ' k	-0.14524387
-1.2166593	b b k	-0.14524387
-0.65795666	v - k	-0.14524387
-1.0114877	n - k	-0.14524387
