\data\
ngram 1=275
ngram 2=3282
ngram 3=18118
ngram 4=49220
ngram 5=87376

\1-grams:
-3.3701477	<unk>	0
0	<s>	-0.6992527
-1.9446467	</s>	0
-1.7977916	p	-0.8125741
-1.7432203	a	-1.1499326
-1.7657739	l	-0.89292526
-1.7148627	c	-0.8217241
-1.7581252	i	-1.0739939
-1.8147315	o	-0.985926
-1.7288101	d	-0.8205444
-2.0495472	j	-0.6511918
-1.7977916	u	-0.9633668
-1.7288101	s	-0.9728581
-1.7506088	t	-0.95474285
-1.832359	1	-0.8540591
-1.832359	.	-0.8827313
-1.8699175	g	-0.7547321
-1.9110343	|	-0.77477103
-1.8061789	h	-0.74019265
-1.7814878	m	-0.86522084
-1.8147315	b	-0.79643077
-1.8234558	r	-0.8408952
-1.8061789	2	-0.77781475
-2.0208528	0	-0.7266537
-2.209041	x	-0.41323203
-1.7217804	'	-0.7761116
-1.7080534	e	-1.0578837
-1.418252	#	-1.1338178
-1.8414485	y	-0.80332714
-2.0802724	ı	-0.8818574
-1.8147315	,	-0.5696735
-3.1579418	á	-0.21171671
-2.0964904	ç	-0.6307191
-1.8234558	)	-0.95265394
-1.8234558	f	-0.7486228
-1.7217804	n	-0.86719096
-2.1308653	ş	-0.60496306
-1.7657739	k	-0.8904948
-1.9939374	ü	-0.80016804
-1.9685931	z	-0.7016471
-2.034963	ö	-0.6657593
-1.9003844	v	-0.6310193
-2.598036	ğ	-0.37700212
-1.9939374	=	-0.69767106
-3.0000825	*	-0.21171671
-2.598036	{	-0.3410053
-1.9939374	:	-0.53471726
-1.8899895	/	-0.8160752
-1.9810804	w	-0.6335312
-2.2785602	%	-0.4563594
-1.9446467	3	-0.75438106
-1.9810804	_	-0.6915245
-2.0802724	7	-0.66239923
-2.3613687	(	-0.30237475
-2.7180839	í	-0.21171671
-1.860219	]	-0.60853064
-2.3613687	[	-0.36813623
-1.9003844	"	-0.59583485
-2.1133378	5	-0.69468474
-2.0495472	8	-0.6693527
-2.0208528	6	-0.64181983
-2.0646381	4	-0.67634284
-3.0000825	“	-0.2280792
-2.3928955	”	-0.57961434
-1.8234558	-	-0.7742895
-2.0802724	’	-0.73772216
-2.3044474	+	-0.24350888
-3.2580574	پ	-0.21171671
-2.598036	ی	-0.328345
-3.1579418	ش	-0.21171671
-2.6539252	ر	-0.27719247
-2.884555	ف	-0.21171671
-3.0000825	ت	-0.21171671
-3.0937986	ہ	-0.305446
-3.2580574	ط	-0.21171671
-2.884555	ز	-0.24681991
-3.2580574	ф	-0.21171671
-2.7933915	к	-0.25605765
-2.6539252	с	-0.265258
-2.5040874	и	-0.28677562
-2.7180839	л	-0.25090134
-2.3928955	е	-0.27401194
-2.7180839	–	-0.38171747
-3.1579418	‏	-0.41458568
-3.0000825	‎	-0.3024168
-3.2580574	أ	-0.21171671
-2.884555	ح	-0.24076882
-3.1579418	م	-0.21171671
-3.0000825	د	-0.24681991
-2.7180839	ن	-0.2800502
-3.2580574	ب	-0.21171671
-2.884555	ل	-0.21171671
-2.6539252	â	-0.30198577
-2.5485263	ا	-0.265258
-2.7933915	б	-0.2913516
-2.7180839	н	-0.3680387
-3.1579418	²	-0.305446
-2.034963	<	-0.9220272
-2.3928955	>	-0.38150573
-2.0802724	9	-0.7036181
-2.0495472	;	-0.7433392
-3.0937986	ث	-0.21171671
-3.0000825	ي	-0.35432255
-3.2580574	ع	-0.21171671
-3.0937986	ى	-0.21171671
-3.2580574	중	-0.21171671
-3.2580574	동	-0.21171671
-2.884555	î	-0.63643444
-3.2580574	«	-0.21171671
-2.7933915	»	-0.5304138
-2.6539252	!	-0.27574384
-2.3928955	?	-0.29472634
-2.1681967	&	-0.46051365
-2.5040874	q	-0.4587893
-2.884555	°	-0.24076882
-3.2580574	…	-0.21171671
-2.7933915	м	-0.2913516
-3.1579418	у	-0.21171671
-3.0000825	з	-0.21171671
-2.7933915	я	-0.30141175
-2.7933915	و	-0.21171671
-3.1579418	ه	-0.21171671
-2.3613687	é	-0.31841245
-3.2580574	살	-0.21171671
-3.2580574	아	-0.21171671
-3.2580574	있	-0.21171671
-3.2580574	다	-0.21171671
-3.0937986	й	-0.25605765
-2.6539252	д	-0.24350888
-2.2785602	а	-0.37871596
-3.2580574	מ	-0.21171671
-3.0937986	א	-0.21171671
-3.2580574	ל	-0.21171671
-3.0937986	י	-0.21171671
-3.2580574	축	-0.21171671
-3.2580574	구	-0.21171671
-3.2580574	ų	-0.21171671
-3.2580574	і	-0.21171671
-3.0937986	ể	-0.21171671
-2.7933915	ä	-0.25090134
-2.884555	´	-0.2850119
-3.2580574	ß	-0.21171671
-3.0937986	자	-0.21171671
-3.2580574	들	-0.21171671
-3.2580574	의	-0.21171671
-2.7933915	}	-0.4043585
-3.2580574	إ	-0.21171671
-3.0937986	خ	-0.21171671
-2.884555	п	-0.23332152
-3.0937986	щ	-0.21171671
-3.1579418	č	-0.21171671
-3.1579418	γ	-0.27190447
-3.1579418	ρ	-0.21171671
-3.1579418	ί	-0.25605765
-3.0937986	π	-0.21171671
-3.2580574	η	-0.21171671
-3.0937986	ς	-0.21171671
-3.0937986	ج	-0.21171671
-3.0937986	آ	-0.27190447
-3.0937986	ک	-0.21171671
-3.2580574	ה	-0.21171671
-3.2580574	ש	-0.21171671
-3.2580574	פ	-0.21171671
-3.2580574	ע	-0.21171671
-3.1579418	ת	-0.27190447
-3.0937986	թ	-0.21171671
-3.2580574	գ	-0.21171671
-3.2580574	ր	-0.21171671
-3.2580574	ի	-0.21171671
-3.2580574	պ	-0.21171671
-3.2580574	გ	-0.21171671
-3.0937986	რ	-0.21171671
-2.884555	ი	-0.24681991
-3.0937986	პ	-0.21171671
-3.2580574	ს	-0.21171671
-2.884555	ა	-0.2850119
-3.2580574	ნ	-0.21171671
-3.2580574	დ	-0.21171671
-3.1579418	ე	-0.21171671
-3.0937986	მ	-0.21171671
-3.2580574	인	-0.21171671
-3.2580574	플	-0.21171671
-3.2580574	루	-0.21171671
-3.2580574	엔	-0.21171671
-3.2580574	ă	-0.21171671
-3.1579418	г	-0.21171671
-2.7180839	р	-0.28269807
-2.884555	ы	-0.21171671
-2.884555	х	-0.31707075
-2.884555	т	-0.31707075
-3.2580574	ị	-0.21171671
-3.0937986	ú	-0.21171671
-3.1579418	û	-0.21171671
-3.0937986	ê	-0.21171671
-3.0937986	è	-0.21171671
-3.2580574	ō	-0.21171671
-3.2580574	͘	-0.21171671
-3.2580574	ב	-0.21171671
-3.2580574	ן	-0.21171671
-3.1579418	ق	-0.21171671
-3.2580574	ۇ	-0.21171671
-3.2580574	đ	-0.21171671
-3.2580574	ạ	-0.21171671
-3.2580574	ồ	-0.21171671
-2.884555	`	-0.24076882
-3.2580574	τ	-0.21171671
-3.1579418	ω	-0.27190447
-3.0937986	ν	-0.21171671
-3.0937986	α	-0.21171671
-3.0937986	σ	-0.305446
-3.0937986	ε	-0.21171671
-3.0000825	ο	-0.2850119
-3.2580574	υ	-0.21171671
-3.0937986	κ	-0.21171671
-3.2580574	ι	-0.21171671
-2.884555	в	-0.2627785
-3.2580574	ś	-0.21171671
-3.2580574	ص	-0.21171671
-3.2580574	ђ	-0.21171671
-3.0937986	‘	-0.21171671
-3.2580574	−	-0.21171671
-3.2580574	—	-0.21171671
-3.0000825	×	-0.24681991
-3.1579418	$	-0.24681991
-3.1579418	à	-0.21171671
-3.1579418	ó	-0.21171671
-3.2580574	발	-0.21171671
-3.2580574	광	-0.21171671
-3.2580574	ж	-0.21171671
-3.2580574	ஊ	-0.21171671
-3.2580574	த	-0.21171671
-3.2580574	ா	-0.21171671
-3.2580574	க	-0.21171671
-3.2580574	்	-0.21171671
-3.2580574	ô	-0.21171671
-3.2580574	온	-0.21171671
-3.2580574	ו	-0.21171671
-3.2580574	ר	-0.21171671
-3.2580574	ئ	-0.21171671
-3.2580574	س	-0.21171671
-2.598036	о	-0.2938804
-3.2580574	́	-0.21171671
-3.0937986	′	-0.21171671
-3.2580574	~	-0.21171671
-3.2580574	µ	-0.21171671
-3.2580574	έ	-0.21171671
-3.2580574	μ	-0.21171671
-3.2580574	ό	-0.21171671
-3.0937986	λ	-0.21171671
-3.1579418	€	-0.27190447
-3.2580574	ტ	-0.21171671
-3.2580574	უ	-0.21171671
-3.0937986	ლ	-0.21171671
-3.2580574	წ	-0.21171671
-3.2580574	ყ	-0.21171671
-3.2580574	ქ	-0.21171671
-3.2580574	ვ	-0.21171671
-3.2580574	შ	-0.21171671
-3.0937986	ã	-0.305446
-3.2580574	ầ	-0.21171671
-3.0937986	å	-0.21171671
-3.0937986	ć	-0.21171671
-3.2580574	ą	-0.21171671
-3.1579418	ч	-0.21171671
-3.1579418	\	-0.21171671
-3.2580574	φ	-0.21171671
-3.2580574	ة	-0.21171671
-3.1579418	ž	-0.21171671
-3.2580574	ł	-0.21171671
-3.2580574	„	-0.21171671
-3.2580574	ï	-0.21171671
-3.2580574	ň	-0.21171671
-3.2580574	→	-0.21171671
-3.2580574	ț	-0.21171671
-3.2580574	њ	-0.21171671

\2-grams:
-1.9938021	a </s>	0
-2.2772346	l </s>	0
-2.228189	i </s>	0
-2.4962707	o </s>	0
-2.5700073	d </s>	0
-2.692544	u </s>	0
-2.5378492	s </s>	0
-2.7002254	t </s>	0
-1.9885613	. </s>	0
-2.4734666	g </s>	0
-2.4979527	| </s>	0
-2.4604087	h </s>	0
-2.2459567	r </s>	0
-2.2222579	e </s>	0
-2.5272222	y </s>	0
-2.3604426	ı </s>	0
-2.2005188	, </s>	0
-2.0818925	) </s>	0
-1.9089243	n </s>	0
-2.252066	ş </s>	0
-2.483646	ü </s>	0
-2.1682851	z </s>	0
-2.4074259	= </s>	0
-2.5040567	/ </s>	0
-1.3169143	ی </s>	0
-1.5820898	и </s>	0
-1.5962601	е </s>	0
-1.0777819	د </s>	0
-0.69919753	ى </s>	0
-0.40581307	동 </s>	0
-0.9881813	й </s>	0
-1.3605132	а </s>	0
-1.217575	х </s>	0
-0.40581307	͘ </s>	0
-0.40581307	ồ </s>	0
-0.86777556	à </s>	0
-0.40581307	் </s>	0
-0.40581307	온 </s>	0
-2.159275	<s> p	-0.19102447
-1.6483933	p p	-0.24608186
-1.5859709	a p	-0.452828
-2.1001184	l p	-0.2483402
-1.6373091	i p	-0.43667722
-1.4779154	o p	-0.38067734
-2.3046198	d p	-0.19102447
-2.0888555	j p	-0.19102447
-1.6577623	u p	-0.35288465
-1.3990462	s p	-0.5100107
-2.0420072	t p	-0.25718242
-2.2269993	1 p	-0.26925927
-1.4724133	. p	-0.5523588
-2.3803396	g p	-0.19102447
-1.8146241	| p	-0.2533686
-2.018513	h p	-0.19102447
-1.7907606	m p	-0.2487098
-2.4018612	b p	-0.19102447
-1.7625519	r p	-0.21873747
-2.1553814	2 p	-0.26925927
-1.7163969	0 p	-0.52410483
-1.6045461	x p	-0.26925927
-2.2144406	' p	-0.21556945
-1.6326547	e p	-0.35721028
-1.5499713	# p	-0.8908217
-1.8446554	y p	-0.19102447
-1.6668075	ı p	-0.36744377
-2.3553145	n p	-0.22838259
-2.2025898	k p	-0.19102447
-1.7616365	ü p	-0.20723271
-2.310107	z p	-0.19102447
-1.6633866	ö p	-0.19102447
-1.7102242	= p	-0.27166572
-1.5504189	* p	-0.19102447
-2.0701325	: p	-0.19102447
-1.6992362	/ p	-0.19102447
-1.4795269	_ p	-0.21197693
-1.87372	( p	-0.19102447
-1.2364737	í p	-0.19102447
-1.8666655	[ p	-0.19102447
-1.9694228	" p	-0.19102447
-1.6868534	5 p	-0.22838259
-2.2230778	8 p	-0.19102447
-1.5560347	“ p	-0.19102447
-2.0134814	- p	-0.24158522
-1.574614	+ p	-0.19102447
-1.5877466	> p	-0.19102447
-2.23965	9 p	-0.19102447
-1.1021113	? p	-0.24158522
-1.09199	& p	-0.21556945
-1.5987643	é p	-0.19102447
-0.9737004	ó p	-0.19102447
-0.8588766	\ p	-0.19102447
-1.0981256	<s> a	-0.30063766
-0.99325293	p a	-0.5081107
-1.8480239	a a	-0.3066397
-1.0499913	l a	-0.7953558
-0.957945	c a	-0.48998198
-1.6104867	i a	-0.40845218
-1.7095048	o a	-0.27581403
-1.0671576	d a	-0.6075246
-1.0113208	j a	-0.32583895
-1.487973	u a	-0.34294188
-1.2452871	s a	-0.60240585
-1.1423515	t a	-0.62226564
-2.4043941	1 a	-0.19102447
-1.4990374	. a	-0.3293188
-1.0949143	g a	-0.4976812
-1.4121914	| a	-0.33366597
-0.8756294	h a	-0.6123289
-1.0194635	m a	-0.72104543
-0.89511377	b a	-0.62700725
-1.1154039	r a	-0.65198606
-2.3308024	2 a	-0.19102447
-1.5903894	x a	-0.19102447
-1.4375713	' a	-0.33135936
-1.6801589	e a	-0.3816998
-1.4873252	# a	-0.97907853
-0.98467046	y a	-0.5731094
-2.4600363	ı a	-0.19102447
-1.6909983	, a	-0.19102447
-0.95362204	ç a	-0.32285428
-1.0910078	f a	-0.3936277
-1.0965928	n a	-0.6124917
-0.95356333	ş a	-0.37274247
-1.0858612	k a	-0.5779382
-1.0777247	z a	-0.4123665
-1.0395263	v a	-0.4052183
-1.094022	ğ a	-0.26513466
-1.3435189	= a	-0.28802553
-1.5306704	* a	-0.19102447
-1.4720572	: a	-0.19102447
-1.2206303	/ a	-0.2817766
-0.93227273	w a	-0.2707617
-1.7529148	% a	-0.19102447
-2.06934	3 a	-0.19102447
-1.190795	_ a	-0.39949661
-1.9034306	7 a	-0.19102447
-1.840502	( a	-0.19102447
-1.8384122	[ a	-0.19102447
-1.9480625	" a	-0.20723271
-2.191133	8 a	-0.19102447
-2.1562285	6 a	-0.19102447
-1.7530694	- a	-0.22064947
-1.7561902	’ a	-0.26925927
-1.4301537	> a	-0.21556945
-1.3501896	! a	-0.19102447
-1.6197302	? a	-0.19102447
-1.3722814	& a	-0.3022561
-0.40128517	… a	-0.19102447
-1.0542319	č a	-0.19102447
-0.6903441	ć a	-0.19102447
-0.40128517	ł a	-0.19102447
-1.1511766	p l	-0.57221335
-1.3129271	a l	-0.70360947
-1.5399451	l l	-0.33969945
-1.6141115	c l	-0.32103762
-1.3339529	i l	-0.6808153
-1.212239	o l	-0.6078274
-1.64969	d l	-0.3270501
-2.0745924	j l	-0.19102447
-1.2131217	u l	-0.5765934
-1.6998155	s l	-0.41538903
-1.4944837	t l	-0.5010946
-2.418724	1 l	-0.19102447
-1.8758754	. l	-0.31003565
-1.4650695	g l	-0.30564255
-1.5423188	| l	-0.2926121
-1.4538686	h l	-0.25602895
-1.5858915	m l	-0.39720237
-1.2704993	b l	-0.41624644
-1.7581549	r l	-0.37483507
-2.314625	0 l	-0.19102447
-1.861154	x l	-0.19102447
-1.3649077	' l	-0.46488285
-1.3418671	e l	-0.69091064
-1.6768236	# l	-0.77840555
-1.4085809	y l	-0.4625985
-1.3254555	ı l	-0.58791304
-1.8824826	, l	-0.19102447
-1.2780023	ç l	-0.3010417
-1.1146425	f l	-0.49333167
-1.7033191	n l	-0.36797282
-1.334327	ş l	-0.30562416
-1.3898315	k l	-0.5979363
-1.1706593	ü l	-0.45459563
-1.3657963	z l	-0.39814907
-0.9172839	ö l	-0.38753194
-1.5498472	v l	-0.2483402
-1.2635313	ğ l	-0.24158522
-1.9485275	= l	-0.22064947
-1.4957318	{ l	-0.19102447
-2.0523417	: l	-0.19102447
-1.3416432	/ l	-0.3171795
-1.8911604	w l	-0.19102447
-1.5650427	_ l	-0.25429502
-1.4617356	( l	-0.27166572
-1.230906	í l	-0.19102447
-2.0573478	] l	-0.19102447
-1.8502964	[ l	-0.19102447
-1.5255883	" l	-0.22064947
-2.3614435	- l	-0.19102447
-1.5357404	’ l	-0.22838259
-1.093091	â l	-0.19102447
-1.753354	> l	-0.24158522
-1.8947437	; l	-0.19102447
-1.134874	q l	-0.19102447
-1.5887859	é l	-0.19102447
-0.91414416	ä l	-0.19102447
-0.67588276	´ l	-0.19102447
-1.5020161	<s> c	-0.22838259
-2.1919253	p c	-0.19102447
-1.4472752	a c	-0.54108214
-1.7780972	l c	-0.23816675
-1.9230348	c c	-0.22838259
-1.5077192	i c	-0.54981995
-1.4734199	o c	-0.44243878
-1.8195915	d c	-0.19102447
-1.5772376	u c	-0.42622304
-1.4740995	s c	-0.50202817
-2.024567	t c	-0.33347625
-2.3859944	1 c	-0.19102447
-1.3414998	. c	-0.55558723
-2.1573331	g c	-0.19102447
-1.6484734	| c	-0.2533686
-2.309358	h c	-0.19102447
-1.8462229	m c	-0.2178712
-1.8683455	b c	-0.21556945
-1.7505655	r c	-0.28436333
-2.3122923	2 c	-0.19102447
-2.280161	0 c	-0.19102447
-1.8359199	x c	-0.19102447
-2.1762352	' c	-0.19102447
-1.560763	e c	-0.43664533
-1.6495993	# c	-0.8302151
-2.212463	y c	-0.19102447
-1.5581616	ı c	-0.6032861
-1.6840552	, c	-0.19102447
-0.8524647	á c	-0.19102447
-2.1119428	ç c	-0.19102447
-1.5592003	f c	-0.23525798
-1.6970137	n c	-0.32122898
-2.1212468	ş c	-0.19102447
-1.7412434	k c	-0.34150538
-1.6637446	ü c	-0.23399176
-1.6762267	z c	-0.19102447
-1.8488177	ö c	-0.26925927
-1.649689	v c	-0.19102447
-1.7450473	ğ c	-0.19102447
-1.695494	= c	-0.19102447
-1.482702	{ c	-0.19102447
-1.8032707	: c	-0.19102447
-1.4132375	/ c	-0.32631966
-1.2145978	% c	-0.3022561
-1.3355762	_ c	-0.27166572
-1.8226022	( c	-0.19102447
-1.221331	í c	-0.19102447
-1.8230561	[ c	-0.19102447
-1.6246693	" c	-0.23525798
-2.1738813	8 c	-0.19102447
-2.1825702	4 c	-0.19102447
-1.5261155	“ c	-0.19102447
-1.8520079	- c	-0.33347625
-1.5444845	+ c	-0.19102447
-2.0244546	< c	-0.19102447
-1.732077	> c	-0.19102447
-1.8818116	; c	-0.19102447
-1.608685	? c	-0.19102447
-0.9927642	& c	-0.22838259
-1.4890971	q c	-0.19102447
-0.9098993	ä c	-0.26925927
-0.40046692	ị c	-0.19102447
-0.40046692	ą c	-0.19102447
-0.8524647	\ c	-0.19102447
-1.1724672	p i	-0.37256345
-1.7233418	a i	-0.33608955
-1.1041605	l i	-0.64825
-1.0722233	c i	-0.44798678
-1.8111395	i i	-0.2516383
-2.260769	o i	-0.22838259
-1.0676248	d i	-0.61063266
-1.1338227	j i	-0.3060654
-1.796327	u i	-0.23399176
-1.258765	s i	-0.5834415
-1.2458379	t i	-0.6020667
-2.4138947	1 i	-0.19102447
-1.6481901	. i	-0.27604508
-1.0767827	g i	-0.461147
-1.5415447	| i	-0.27053377
-1.0478377	h i	-0.47394162
-1.1453699	m i	-0.55391777
-1.0435681	b i	-0.5132654
-1.1975834	r i	-0.563503
-2.309531	0 i	-0.19102447
-1.2260147	x i	-0.19102447
-1.3009014	' i	-0.47251403
-1.654972	e i	-0.44915414
-1.5671458	# i	-0.90783596
-1.408048	y i	-0.30578235
-2.0999908	, i	-0.19102447
-1.1090537	ç i	-0.29120103
-2.3348153	) i	-0.19102447
-1.2195042	f i	-0.33660096
-1.1093078	n i	-0.5606283
-1.1676942	ş i	-0.3023662
-1.2455649	k i	-0.50241816
-2.3717067	ü i	-0.19102447
-1.0783544	z i	-0.36786133
-0.9585046	v i	-0.38832662
-1.478515	ğ i	-0.23008211
-1.7034667	= i	-0.25597703
-1.4938463	{ i	-0.19102447
-1.4595057	/ i	-0.32069743
-0.77117276	w i	-0.33459798
-1.564055	_ i	-0.23399176
-1.4598299	( i	-0.20723271
-2.0536442	] i	-0.19102447
-1.8462988	[ i	-0.19102447
-1.954059	" i	-0.19102447
-1.319	- i	-0.34150538
-1.0017283	’ i	-0.6238482
-1.5606592	+ i	-0.19102447
-1.7502499	> i	-0.19102447
-1.8928725	; i	-0.19102447
-1.1815186	« i	-0.19102447
-1.0978857	? i	-0.22838259
-1.3744467	& i	-0.24158522
-0.40169483	ạ i	-0.19102447
-1.0602099	$ i	-0.19102447
-0.8559504	à i	-0.19102447
-0.69114155	ć i	-0.19102447
-0.8559504	ž i	-0.19102447
-1.513079	<s> o	-0.22838259
-1.1322602	p o	-0.49304456
-2.1641338	a o	-0.21556945
-1.3447891	l o	-0.38029337
-1.1644069	c o	-0.4548254
-1.5921506	i o	-0.40436542
-1.8778036	o o	-0.25062084
-1.2599918	d o	-0.4760468
-1.0140586	j o	-0.32931304
-2.4265134	u o	-0.19102447
-1.3323385	s o	-0.5336402
-1.2625068	t o	-0.46956718
-1.3929082	. o	-0.6490534
-1.2584456	g o	-0.36091518
-1.5469927	| o	-0.24731633
-1.1483378	h o	-0.42836493
-1.3253073	m o	-0.4319584
-1.0632974	b o	-0.37226093
-1.2823359	r o	-0.4559065
-2.3755813	2 o	-0.19102447
-2.346512	0 o	-0.19102447
-1.8840151	x o	-0.19102447
-2.2217631	' o	-0.19102447
-1.776137	e o	-0.27908713
-1.5506619	# o	-0.8674691
-1.1781482	y o	-0.47703123
-2.139493	ı o	-0.24158522
-1.281541	ç o	-0.31632766
-1.1933011	f o	-0.39795172
-1.2581613	n o	-0.42058796
-1.9557898	ş o	-0.24158522
-1.2843289	k o	-0.44814405
-1.4718438	z o	-0.30063766
-1.1837453	v o	-0.3093288
-1.9629097	= o	-0.21556945
-1.5562303	* o	-0.19102447
-1.8364309	: o	-0.19102447
-1.8979679	/ o	-0.22838259
-1.0461287	w o	-0.35108978
-1.4067354	_ o	-0.31003565
-1.8836972	( o	-0.19102447
-1.2392845	í o	-0.19102447
-1.8750874	[ o	-0.19102447
-2.191074	" o	-0.19102447
-1.39783	- o	-0.2970869
-1.5803239	+ o	-0.19102447
-1.5920229	> o	-0.22838259
-1.9061432	; o	-0.19102447
-1.6456597	? o	-0.19102447
-1.3821117	& o	-0.19102447
-0.29018664	ã o	-0.26925927
-1.6646267	<s> d	-0.24158522
-2.0365064	p d	-0.24158522
-1.393367	a d	-0.5870161
-1.6417826	l d	-0.3450664
-1.4289451	c d	-0.24581958
-1.3575268	i d	-0.5959488
-1.4742339	o d	-0.38554087
-1.599311	d d	-0.24581958
-2.0573978	j d	-0.19102447
-1.3475338	u d	-0.51792955
-2.0748124	s d	-0.21556945
-2.1260257	t d	-0.19102447
-1.7429422	. d	-0.30063766
-1.7728484	g d	-0.19102447
-1.4110445	| d	-0.40491843
-1.8631321	h d	-0.26925927
-1.7221202	m d	-0.3270501
-2.1740942	b d	-0.19102447
-1.7020222	r d	-0.34752554
-2.3214488	2 d	-0.19102447
-2.289732	0 d	-0.19102447
-1.8429812	x d	-0.19102447
-0.92721313	' d	-0.7523316
-1.4220061	e d	-0.53232586
-1.5288255	# d	-1.0191865
-1.521881	y d	-0.29760537
-1.3504258	ı d	-0.8707787
-1.8690947	, d	-0.19102447
-2.3222387	) d	-0.19102447
-2.1246505	f d	-0.19102447
-1.4766362	n d	-0.40685093
-1.7468762	ş d	-0.19102447
-1.9507205	k d	-0.3165101
-1.4797561	ü d	-0.47530332
-1.4633524	z d	-0.3532223
-2.1050563	ö d	-0.19102447
-1.6524606	v d	-0.23399176
-1.0926448	ğ d	-0.22064947
-1.4847842	= d	-0.2641718
-1.525189	* d	-0.19102447
-1.4142854	/ d	-0.44077748
-2.1120324	w d	-0.19102447
-2.273392	3 d	-0.19102447
-1.3367438	_ d	-0.32103762
-1.8988448	7 d	-0.19102447
-1.8314599	( d	-0.19102447
-1.7829721	] d	-0.19102447
-1.8306663	[ d	-0.19102447
-1.4338892	" d	-0.27166572
-2.2129583	5 d	-0.19102447
-2.1476622	6 d	-0.19102447
-2.1911442	4 d	-0.19102447
-1.5314044	“ d	-0.19102447
-1.5351101	- d	-0.27853912
-0.6447663	’ d	-0.52289045
-1.4332647	â d	-0.19102447
-1.9290034	> d	-0.19102447
-1.6141725	? d	-0.19102447
-1.5804935	& d	-0.24158522
-1.2605536	é d	-0.19102447
-1.272873	ä d	-0.19102447
-0.6895481	′ d	-0.19102447
-2.569438	p j	-0.19102447
-2.001255	a j	-0.27967924
-2.711722	l j	-0.19102447
-2.3418226	c j	-0.19102447
-2.1551418	i j	-0.27166572
-2.3368225	o j	-0.19102447
-2.6339478	d j	-0.19102447
-2.5158238	u j	-0.19102447
-2.797258	s j	-0.19102447
-1.2373756	. j	-0.8672812
-1.9642683	| j	-0.22064947
-2.6691592	m j	-0.19102447
-2.5460398	b j	-0.19102447
-2.4562721	r j	-0.19102447
-2.307176	' j	-0.19102447
-2.076663	e j	-0.26192963
-1.8596394	# j	-0.7686585
-2.2482996	, j	-0.19102447
-2.2740283	n j	-0.19102447
-2.6922975	k j	-0.19102447
-2.017366	= j	-0.19102447
-2.0943196	/ j	-0.24158522
-2.3770683	_ j	-0.19102447
-1.7287601	( j	-0.22838259
-1.9750504	[ j	-0.19102447
-2.317145	" j	-0.19102447
-2.3580074	4 j	-0.19102447
-2.069768	- j	-0.3022561
-1.6396643	> j	-0.22838259
-1.6610665	é j	-0.19102447
-2.159275	<s> u	-0.19102447
-1.5867866	p u	-0.3012843
-1.566486	a u	-0.36134624
-1.2232382	l u	-0.46336454
-1.2287602	c u	-0.3879373
-1.8529286	i u	-0.29119778
-1.4060446	o u	-0.36771232
-1.3235672	d u	-0.42965978
-0.8772435	j u	-0.3462993
-2.4188926	u u	-0.19102447
-1.3990462	s u	-0.4136558
-1.2932553	t u	-0.48600587
-1.3920524	. u	-0.54503274
-1.2576023	g u	-0.37511924
-1.7301695	| u	-0.2494851
-1.3059413	h u	-0.35957944
-1.2265413	m u	-0.48266223
-1.1665176	b u	-0.4326917
-1.3195668	r u	-0.44411367
-1.4027917	' u	-0.46202657
-1.774756	e u	-0.36786094
-1.6786757	# u	-0.69095004
-1.410719	y u	-0.34233266
-2.4966023	ı u	-0.19102447
-2.1230264	, u	-0.19102447
-1.3555206	ç u	-0.24258712
-1.4045937	f u	-0.30059594
-1.4531435	n u	-0.33556134
-1.3371747	ş u	-0.24510556
-1.2470661	k u	-0.4697563
-1.4162767	z u	-0.28848138
-1.6651565	v u	-0.2319437
-1.2676265	ğ u	-0.23493373
-1.9580624	= u	-0.19102447
-1.8311616	: u	-0.19102447
-2.0400918	/ u	-0.19102447
-1.900847	w u	-0.19102447
-1.5690166	_ u	-0.28875512
-1.87372	( u	-0.19102447
-2.072486	] u	-0.19102447
-1.8666655	[ u	-0.19102447
-2.180776	" u	-0.19102447
-1.5560347	“ u	-0.19102447
-1.7619812	- u	-0.25244418
-1.3666716	’ u	-0.42719483
-1.574614	+ u	-0.19102447
-1.1877347	« u	-0.19102447
-1.8833147	& u	-0.19102447
-0.33547044	q u	-0.44077748
-1.5987643	é u	-0.19102447
-0.6931416	ể u	-0.19102447
-1.133969	` u	-0.19102447
-0.8588766	ž u	-0.19102447
-2.1262171	<s> s	-0.19102447
-1.3977697	p s	-0.3356278
-1.4063492	a s	-0.648733
-1.6417826	l s	-0.25026727
-1.6100286	c s	-0.22503161
-1.3208733	i s	-0.67745036
-1.2402734	o s	-0.50512826
-1.599311	d s	-0.27432334
-1.3015171	j s	-0.19102447
-1.2267548	u s	-0.519796
-1.5453918	s s	-0.35943645
-1.5467765	t s	-0.25950918
-1.4396272	. s	-0.35171834
-2.164073	g s	-0.19102447
-1.2576015	| s	-0.37458023
-1.6095203	h s	-0.24278773
-1.5093082	m s	-0.22838256
-1.682006	b s	-0.2055844
-1.6566285	r s	-0.3080348
-2.289732	0 s	-0.19102447
-1.5864279	x s	-0.19102447
-1.3977791	' s	-0.37766808
-1.3660744	e s	-0.6270921
-1.5030808	# s	-1.0028833
-1.405923	y s	-0.26358896
-1.4095732	ı s	-0.44619977
-2.0824034	, s	-0.19102447
-2.1200328	ç s	-0.19102447
-1.7162493	f s	-0.21197693
-1.6115098	n s	-0.3436882
-1.9243101	ş s	-0.19102447
-1.49762	k s	-0.33758995
-1.1691093	ü s	-0.41219217
-2.2642689	z s	-0.19102447
-1.8528705	ö s	-0.19102447
-1.3858554	v s	-0.3116129
-1.3036481	= s	-0.34779936
-1.525189	* s	-0.19102447
-1.8082104	: s	-0.19102447
-1.1479399	/ s	-0.38946345
-1.8793484	w s	-0.22064947
-1.3367438	_ s	-0.2319437
-1.6283022	( s	-0.20723271
-1.2240453	í s	-0.19102447
-2.0391383	] s	-0.19102447
-1.8306663	[ s	-0.19102447
-1.6275067	" s	-0.20723271
-1.2280864	“ s	-0.22838259
-1.3171487	- s	-0.3100357
-1.7534374	’ s	-0.24158522
-1.2473944	+ s	-0.26925927
-1.2602546	< s	-0.27166572
-1.7380505	> s	-0.19102447
-1.1766088	« s	-0.19102447
-1.3470595	! s	-0.19102447
-1.086922	& s	-0.25718242
-1.4919441	q s	-0.19102447
-1.2605536	é s	-0.19102447
-1.272873	ä s	-0.19102447
-0.6895481	è s	-0.19102447
-1.1247544	` s	-0.19102447
-0.96686995	ó s	-0.19102447
-1.0485448	<s> t	-0.66960573
-1.4811488	p t	-0.28676277
-1.4343026	a t	-0.67901397
-1.7316914	l t	-0.2598464
-1.7433193	c t	-0.35886043
-1.4273549	i t	-0.5832975
-1.3239164	o t	-0.42736703
-1.6996206	d t	-0.22064947
-1.3290042	u t	-0.41066408
-1.2585094	s t	-0.5754167
-1.5200866	t t	-0.393518
-2.4091184	1 t	-0.19102447
-1.5672419	. t	-0.3003147
-2.0157654	g t	-0.19102447
-1.3772991	| t	-0.39633638
-1.30303	h t	-0.30062273
-1.8526026	m t	-0.27053377
-2.37098	b t	-0.19102447
-1.7049152	r t	-0.33349627
-2.304496	0 t	-0.19102447
-1.3869371	x t	-0.22064947
-1.3310137	' t	-0.4824034
-1.408222	e t	-0.62082714
-1.5479064	# t	-0.9774902
-1.9385352	y t	-0.2055844
-1.5613129	ı t	-0.41160864
-2.0955267	, t	-0.19102447
-1.3513279	ç t	-0.2585182
-1.563499	f t	-0.23216471
-1.4782543	n t	-0.36085802
-1.4059734	ş t	-0.27815923
-1.5669943	k t	-0.3962024
-1.3906275	ü t	-0.31606433
-2.093696	z t	-0.19102447
-1.2856255	ö t	-0.26192963
-1.9785614	v t	-0.19102447
-2.1055527	= t	-0.20930196
-1.6264381	: t	-0.19102447
-1.5067298	/ t	-0.23714644
-2.1241472	w t	-0.19102447
-2.2867093	3 t	-0.19102447
-1.0814252	_ t	-0.4202612
-1.6367927	( t	-0.20930196
-1.2281487	í t	-0.19102447
-2.049972	] t	-0.19102447
-1.8423376	[ t	-0.19102447
-1.9510504	" t	-0.19102447
-2.1605759	6 t	-0.19102447
-1.5394602	“ t	-0.19102447
-1.3543588	- t	-0.26140562
-1.363306	’ t	-0.28875512
-0.85184807	â t	-0.22838259
-1.7471677	> t	-0.22064947
-1.1802859	« t	-0.19102447
-1.6225361	? t	-0.19102447
-0.99502355	& t	-0.28451297
-1.2770691	ä t	-0.19102447
-0.6907426	ß t	-0.19102447
-0.40148994	~ t	-0.19102447
-2.4453468	p 1	-0.19102447
-2.0969048	a 1	-0.23399176
-2.571394	l 1	-0.19102447
-2.759986	i 1	-0.19102447
-2.4951024	d 1	-0.19102447
-2.1990287	s 1	-0.22838259
-1.2211299	1 1	-0.28988752
-1.6125288	. 1	-0.28351343
-2.403287	g 1	-0.19102447
-1.5485619	| 1	-0.29476124
-2.028678	h 1	-0.3022561
-2.5328832	m 1	-0.19102447
-2.039324	b 1	-0.19102447
-1.4971368	2 1	-0.20723271
-1.2444352	0 1	-0.24999388
-2.4229977	' 1	-0.19102447
-2.4333375	e 1	-0.19102447
-1.6805356	# 1	-0.5164341
-2.2666218	y 1	-0.19102447
-2.518968	ı 1	-0.19102447
-1.9048007	, 1	-0.19102447
-2.1766436	ç 1	-0.19102447
-2.3748217	f 1	-0.19102447
-2.2141907	n 1	-0.19102447
-2.5565956	k 1	-0.19102447
-2.4185488	ü 1	-0.19102447
-2.2315726	v 1	-0.19102447
-1.2412434	= 1	-0.35886043
-1.2024151	: 1	-0.21873747
-1.3815259	/ 1	-0.31422815
-1.226125	% 1	-0.24158522
-1.2621686	3 1	-0.23157752
-2.2696393	_ 1	-0.19102447
-1.5636482	7 1	-0.2483402
-1.6663566	( 1	-0.20723271
-1.8836758	[ 1	-0.19102447
-1.7972339	" 1	-0.19102447
-1.2940723	5 1	-0.24233636
-1.3117226	8 1	-0.27022022
-1.6120591	6 1	-0.24158522
-1.2179905	4 1	-0.23322958
-1.1770241	- 1	-0.45953584
-1.2651078	+ 1	-0.19102447
-0.5366735	– 1	-0.42719483
-1.5963415	> 1	-0.22838259
-1.3725835	9 1	-0.23625593
-1.1381279	° 1	-0.19102447
-0.6770436	× 1	-0.26925927
-1.0680294	$ 1	-0.19102447
-1.7245071	p .	-0.21197693
-1.6519716	a .	-0.40956634
-1.6515397	l .	-0.26637113
-1.4753166	c .	-0.27581403
-1.7823851	i .	-0.35419914
-1.6351396	o .	-0.27581403
-1.7699544	d .	-0.24608186
-1.4299843	j .	-0.42719483
-1.8655815	u .	-0.34639513
-1.5029693	s .	-0.45648485
-1.553553	t .	-0.35451525
-1.1263807	1 .	-0.2906106
-1.970375	. .	-0.40042302
-1.705352	g .	-0.22605988
-2.028678	h .	-0.22064947
-1.5169553	m .	-0.35272053
-1.7828517	b .	-0.19102447
-1.5195692	r .	-0.39121577
-1.1793605	2 .	-0.2513288
-1.397054	0 .	-0.29013404
-1.891911	x .	-0.19102447
-2.2292113	' .	-0.21556945
-1.6346475	e .	-0.40781724
-1.9989659	# .	-0.60643536
-1.5787494	y .	-0.25367713
-1.5243273	ı .	-0.41543108
-1.0097178	) .	-0.60328615
-1.5099015	f .	-0.24258712
-1.8931888	n .	-0.28969637
-1.771407	ş .	-0.27166572
-1.5733229	k .	-0.4393137
-1.6053405	ü .	-0.43155265
-1.3272314	z .	-0.38137442
-1.6686829	ö .	-0.24158522
-1.469634	v .	-0.22064947
-1.7940302	ğ .	-0.19102447
-2.3385744	= .	-0.19102447
-1.3379817	w .	-0.22607909
-1.222056	3 .	-0.24803133
-1.0217806	7 .	-0.2710394
-1.80947	] .	-0.26925927
-2.201622	" .	-0.19102447
-1.1605209	5 .	-0.27502087
-1.3117226	8 .	-0.28062853
-1.0065415	6 .	-0.27669558
-1.2179905	4 .	-0.22122198
-1.9943706	> .	-0.19102447
-1.1584406	9 .	-0.3189453
-0.6947483	թ .	-0.19102447
-1.9029635	<s> g	-0.19102447
-2.2567532	p g	-0.24158522
-1.5888697	a g	-0.4839214
-1.7978398	l g	-0.2928754
-2.1028366	c g	-0.22838259
-1.5733021	i g	-0.3875818
-1.6014243	o g	-0.36735672
-1.7746913	d g	-0.24258712
-1.5876966	u g	-0.34779936
-2.2080314	s g	-0.21556945
-2.3005745	t g	-0.24158522
-1.5762951	. g	-0.31920436
-1.9056432	g g	-0.19102447
-1.5517174	| g	-0.35507882
-2.3703327	m g	-0.19102447
-2.2313857	b g	-0.19102447
-1.7186763	r g	-0.31651008
-2.1813977	2 g	-0.19102447
-2.244502	' g	-0.20930196
-1.5902888	e g	-0.48526216
-1.5621835	# g	-0.9659814
-1.8564574	y g	-0.23399176
-2.5425487	ı g	-0.19102447
-1.9164051	, g	-0.19102447
-2.3978012	f g	-0.19102447
-1.5495511	n g	-0.30605578
-1.7792424	ş g	-0.19102447
-2.0837183	k g	-0.19102447
-1.7714335	ü g	-0.25244418
-1.4765465	z g	-0.3103439
-1.5074852	ö g	-0.25244418
-2.0218925	v g	-0.19102447
-2.1557293	= g	-0.22064947
-1.5741462	* g	-0.19102447
-1.6337892	/ g	-0.24731633
-1.4860734	_ g	-0.21197693
-1.9150817	( g	-0.19102447
-1.9013797	[ g	-0.19102447
-1.5393105	" g	-0.22064947
-1.5791663	“ g	-0.19102447
-1.6109476	- g	-0.21197693
-1.6051098	> g	-0.19102447
-1.6638479	? g	-0.19102447
-1.9122841	& g	-0.19102447
-1.6194363	é g	-0.19102447
-1.6910748	<s> |	-0.24158522
-2.0448906	a |	-0.22064947
-2.1264904	l |	-0.24158522
-1.9054091	i |	-0.24472794
-2.5482645	d |	-0.19102447
-2.466763	u |	-0.19102447
-1.8408712	s |	-0.23816675
-2.1693392	t |	-0.22284493
-2.0717971	1 |	-0.19102447
-1.9835254	. |	-0.3685757
-1.913201	g |	-0.23047966
-2.089854	| |	-0.20820522
-2.0497503	h |	-0.19102447
-2.387608	m |	-0.19102447
-2.0582502	b |	-0.19905297
-1.9920717	r |	-0.20723271
-2.1950145	2 |	-0.19102447
-2.4054856	0 |	-0.19102447
-1.9250135	x |	-0.19102447
-2.4726832	' |	-0.19102447
-2.061724	e |	-0.21197693
-1.5181755	# |	-0.79981494
-2.119744	y |	-0.24158522
-1.6765949	ı |	-0.3023662
-0.9530981	) |	-0.24016319
-2.0081553	f |	-0.19102447
-2.2383888	n |	-0.19102447
-1.8973413	k |	-0.22064947
-2.0437796	ü |	-0.19102447
-1.8381039	= |	-0.22838259
-1.5270694	{ |	-0.19102447
-2.204926	w |	-0.19102447
-2.1246386	3 |	-0.19102447
-2.2262027	7 |	-0.19102447
-2.1213493	] |	-0.19102447
-1.3147546	" |	-0.23318386
-2.0635731	5 |	-0.26925927
-1.9879111	6 |	-0.19102447
-2.2931623	4 |	-0.19102447
-2.0401077	> |	-0.19102447
-2.0336862	9 |	-0.26925927
-1.6770204	<s> h	-0.19102447
-1.2737195	p h	-0.45329112
-1.5481688	a h	-0.4222415
-1.9189587	l h	-0.31003565
-1.090289	c h	-0.46416682
-1.8537247	i h	-0.31934443
-1.815965	o h	-0.26088223
-2.0201495	d h	-0.22838259
-1.9329511	u h	-0.24158522
-1.5253122	s h	-0.46178105
-1.327283	t h	-0.4550804
-1.3924801	. h	-0.6686144
-1.7018232	g h	-0.20723271
-1.599611	| h	-0.32370028
-2.3726351	h h	-0.19102447
-2.1833718	m h	-0.22838259
-2.4072285	b h	-0.19102447
-1.9719296	r h	-0.27086204
-2.3410325	0 h	-0.19102447
-2.2180865	' h	-0.21197693
-1.8104978	e h	-0.36788353
-1.5061888	# h	-0.9653335
-2.2552361	y h	-0.24158522
-1.8962964	, h	-0.19102447
-2.1629093	ç h	-0.19102447
-2.358351	f h	-0.19102447
-2.0727315	n h	-0.23399176
-2.1767838	ş h	-0.19102447
-1.8828002	k h	-0.31003565
-2.4023669	ü h	-0.19102447
-1.9438616	z h	-0.22838259
-1.8737222	ö h	-0.19102447
-2.21603	v h	-0.19102447
-1.818443	= h	-0.22838259
-1.5533149	* h	-0.19102447
-1.8337883	: h	-0.24158522
-1.463013	/ h	-0.29073912
-1.2603785	w h	-0.38686842
-1.6831591	_ h	-0.25244418
-1.3200226	( h	-0.23274517
-0.96161824	[ h	-0.39015993
-1.6419789	" h	-0.26925927
-1.5588597	“ h	-0.19102447
-1.4886943	- h	-0.23625593
-1.5774596	+ h	-0.19102447
-1.4515471	â h	-0.19102447
-1.9783891	> h	-0.19102447
-1.9042224	; h	-0.19102447
-1.329964	? h	-0.19102447
-1.8868319	& h	-0.19102447
-0.69354266	‘ h	-0.19102447
-0.4029262	„ h	-0.19102447
-1.8823103	<s> m	-0.19102447
-2.0523024	p m	-0.22838259
-1.4080241	a m	-0.60907525
-1.5736305	l m	-0.3405494
-2.0782661	c m	-0.22838259
-1.4137912	i m	-0.565024
-1.4770947	o m	-0.37890595
-2.0139086	d m	-0.22064947
-1.3497831	u m	-0.46385217
-1.6035748	s m	-0.41938558
-1.5807723	t m	-0.43255132
-2.4285471	1 m	-0.19102447
-2.1952324	. m	-0.21197693
-1.7826147	g m	-0.21197693
-1.5969669	| m	-0.297386
-1.8756032	h m	-0.28451297
-1.6763561	m m	-0.31422815
-2.025652	b m	-0.22838259
-1.6627312	r m	-0.36150494
-1.9630167	0 m	-0.19102447
-2.389141	' m	-0.19102447
-1.3951496	e m	-0.5452026
-1.540112	# m	-0.95015264
-1.5740411	y m	-0.27118334
-1.4127066	ı m	-0.5590308
-2.1136649	, m	-0.19102447
-0.8577038	á m	-0.19102447
-1.3541186	ç m	-0.33780885
-1.724933	f m	-0.21197693
-1.5106908	n m	-0.33878848
-1.4093338	ş m	-0.30562416
-1.4709493	k m	-0.3143469
-1.1967953	ü m	-0.47047678
-1.6876068	z m	-0.31257603
-1.49839	ö m	-0.3685757
-1.9905069	v m	-0.19102447
-1.2655741	ğ m	-0.26925927
-1.9532688	= m	-0.25429502
-1.5446843	* m	-0.19102447
-2.061146	: m	-0.19102447
-1.3425317	/ m	-0.36833203
-1.4779055	_ m	-0.28107664
-1.6483779	( m	-0.20930196
-1.8584039	[ m	-0.19102447
-1.963212	" m	-0.22838259
-1.8359038	5 m	-0.24158522
-1.2871659	- m	-0.33105323
-1.2568425	+ m	-0.19102447
-2.0397997	< m	-0.19102447
-1.5835122	> m	-0.19102447
-1.8763645	& m	-0.19102447
-1.0370895	é m	-0.24158522
-0.69234043	ú m	-0.19102447
-0.8577038	û m	-0.19102447
-0.40231007	ầ m	-0.19102447
-1.22322	<s> b	-0.6702329
-1.5305932	a b	-0.5334742
-2.0027084	l b	-0.23816675
-1.8381417	c b	-0.22064947
-1.66332	i b	-0.46550527
-1.5343573	o b	-0.3678962
-2.1564355	d b	-0.19102447
-1.5513375	u b	-0.3583691
-2.0936213	s b	-0.20930196
-1.8923593	t b	-0.24258712
-1.70075	. b	-0.31003565
-1.8945477	g b	-0.21556945
-1.2889863	| b	-0.45948595
-1.7768102	h b	-0.25244418
-1.6326282	m b	-0.32385927
-1.6209198	b b	-0.22539198
-1.7647673	r b	-0.39720237
-2.3755813	2 b	-0.19102447
-2.346512	0 b	-0.19102447
-2.2217631	' b	-0.22838259
-1.63365	e b	-0.44667834
-1.4900213	# b	-1.0293286
-2.0931551	y b	-0.24158522
-1.9959482	ı b	-0.19102447
-2.1325939	, b	-0.19102447
-1.9207052	ç b	-0.26925927
-1.7087977	n b	-0.32370028
-1.9557898	ş b	-0.19102447
-2.071503	k b	-0.27166572
-1.8738701	ü b	-0.19102447
-1.946179	z b	-0.25429502
-1.5020052	ö b	-0.27166572
-2.0027905	v b	-0.26925927
-1.6270249	= b	-0.24158522
-1.5562303	* b	-0.19102447
-1.50722	{ b	-0.19102447
-1.6397145	: b	-0.19102447
-1.3443143	/ b	-0.3685757
-1.2386994	_ b	-0.36777207
-1.3214029	( b	-0.22064947
-1.8750874	[ b	-0.19102447
-1.9757239	" b	-0.24158522
-1.9993738	8 b	-0.26925927
-2.1970165	6 b	-0.19102447
-2.009344	4 b	-0.19102447
-1.5617031	“ b	-0.19102447
-1.39783	- b	-0.31669256
-0.58800256	< b	-1.0012261
-1.4436833	> b	-0.22838259
-1.9061432	; b	-0.19102447
-1.6001177	& b	-0.19102447
-2.1708782	<s> r	-0.19102447
-1.2473675	p r	-0.5545491
-1.3250711	a r	-0.72362155
-2.565128	l r	-0.19102447
-1.5179349	c r	-0.2516383
-1.4612767	i r	-0.60752934
-1.1863246	o r	-0.5853437
-1.6559856	d r	-0.37731737
-2.099869	j r	-0.19102447
-1.2296767	u r	-0.5275691
-1.8845527	s r	-0.3425049
-1.364545	t r	-0.58872676
-1.9687588	. r	-0.22838259
-1.1824462	g r	-0.5448664
-1.4179717	| r	-0.34283903
-1.5601566	h r	-0.36783433
-1.9481189	m r	-0.24308887
-1.1674494	b r	-0.41793895
-1.7658792	r r	-0.37962428
-2.2254713	' r	-0.23399176
-1.3827386	e r	-0.716689
-1.6107619	# r	-0.8801545
-1.6315463	y r	-0.2319437
-1.2556422	ı r	-0.5284191
-2.137458	, r	-0.19102447
-2.172017	ç r	-0.19102447
-1.2226461	f r	-0.55421233
-2.0770009	n r	-0.19102447
-1.958768	ş r	-0.19102447
-1.5370373	k r	-0.4441136
-1.1728387	ü r	-0.44735348
-1.948509	z r	-0.24158522
-0.823263	ö r	-0.43149495
-1.6694722	v r	-0.22838259
-1.1009744	ğ r	-0.24158522
-1.6281509	= r	-0.51470375
-1.7022803	/ r	-0.33347625
-1.9082564	w r	-0.19102447
-1.3438164	_ r	-0.42719483
-2.1846364	7 r	-0.19102447
-1.6633079	( r	-0.22064947
-1.8793604	[ r	-0.19102447
-1.978909	" r	-0.19102447
-1.6788682	- r	-0.21556945
-0.4113724	< r	-1.1675576
-1.9889778	> r	-0.19102447
-1.6486386	? r	-0.19102447
-1.5094304	q r	-0.19102447
-1.2746793	é r	-0.19102447
-0.86064196	û r	-0.19102447
-2.1631083	<s> 2	-0.19102447
-2.4286299	p 2	-0.19102447
-2.245356	a 2	-0.25244418
-2.0854924	c 2	-0.24158522
-2.7411366	i 2	-0.19102447
-2.3086724	d 2	-0.19102447
-2.4746404	s 2	-0.26925927
-1.194565	1 2	-0.3680094
-1.8127078	. 2	-0.22064947
-1.5462102	| 2	-0.34079745
-2.0479867	m 2	-0.22838259
-2.4072285	b 2	-0.19102447
-2.5088992	r 2	-0.19102447
-1.3481413	2 2	-0.21755841
-1.2431293	0 2	-0.26140562
-1.8801204	x 2	-0.19102447
-2.4057395	' 2	-0.19102447
-2.5716906	e 2	-0.19102447
-1.9245174	# 2	-0.45401633
-2.2552361	y 2	-0.19102447
-2.5020866	ı 2	-0.19102447
-1.8962964	, 2	-0.19102447
-2.1629093	ç 2	-0.19102447
-1.9824712	f 2	-0.19102447
-2.5256724	n 2	-0.19102447
-2.5385725	k 2	-0.19102447
-2.4023669	ü 2	-0.19102447
-2.21603	v 2	-0.19102447
-1.2398577	= 2	-0.33758995
-1.4813191	: 2	-0.22605988
-1.2233258	/ 2	-0.52253854
-0.5301399	% 2	-0.3503646
-1.3539958	3 2	-0.23157752
-2.2548661	_ 2	-0.19102447
-1.3520314	7 2	-0.23525798
-1.6572742	( 2	-0.26925927
-1.870856	[ 2	-0.19102447
-2.1858943	" 2	-0.19102447
-1.411202	5 2	-0.22838256
-1.3099837	8 2	-0.2055844
-1.4039054	6 2	-0.19102447
-1.3846025	4 2	-0.2055844
-1.3578953	- 2	-0.3134393
-1.5774596	+ 2	-0.19102447
-0.7189661	– 2	-0.19102447
-1.5898795	> 2	-0.19102447
-1.4457645	9 2	-0.24208586
-1.1889887	« 2	-0.19102447
-1.135005	° 2	-0.19102447
-0.6775132	´ 2	-0.19102447
-1.0654073	× 2	-0.19102447
-0.67597586	$ 2	-0.24158522
-2.2478752	<s> 0	-0.19102447
-2.5748296	c 0	-0.19102447
-2.3988533	d 0	-0.19102447
-2.5680342	s 0	-0.19102447
-2.7468235	t 0	-0.19102447
-1.1096374	1 0	-0.40837613
-1.9988117	. 0	-0.40042302
-2.5171366	g 0	-0.19102447
-2.542096	| 0	-0.19102447
-2.6526272	m 0	-0.19102447
-2.2809405	b 0	-0.19102447
-0.9832618	2 0	-0.41857806
-1.1130335	0 0	-0.41881132
-2.316598	# 0	-0.30063766
-1.3636866	, 0	-0.29324993
-2.030362	f 0	-0.24158522
-1.5738236	= 0	-0.22406939
-1.6157019	* 0	-0.19102447
-2.1777768	: 0	-0.19102447
-1.4303167	/ 0	-0.27086204
-1.0172923	3 0	-0.30649704
-2.0875394	_ 0	-0.19102447
-1.2872775	7 0	-0.2042404
-1.9920307	( 0	-0.19102447
-1.0341204	5 0	-0.29825455
-1.0914707	8 0	-0.24690166
-1.0461631	6 0	-0.35809362
-1.1400751	4 0	-0.22271967
-1.5586221	- 0	-0.23936538
-1.6386771	+ 0	-0.19102447
-1.0866071	9 0	-0.26771918
-1.1562617	° 0	-0.19102447
-1.8501753	p x	-0.27046078
-2.7851381	a x	-0.19102447
-2.26152	i x	-0.21197693
-2.8512597	o x	-0.19102447
-2.2238114	j x	-0.19102447
-2.560545	u x	-0.19102447
-2.8479073	t x	-0.19102447
-2.360441	| x	-0.19102447
-2.4860945	m x	-0.19102447
-2.5707836	2 x	-0.19102447
-2.2658656	0 x	-0.19102447
-0.8889128	x x	-0.41918012
-2.6294591	' x	-0.19102447
-1.9688919	e x	-0.27669558
-2.2378862	# x	-0.2859353
-2.2580788	= x	-0.26925927
-2.439018	_ x	-0.19102447
-2.0261106	[ x	-0.19102447
-2.3848484	" x	-0.19102447
-2.6009858	- x	-0.19102447
-2.1813583	> x	-0.19102447
-0.50449896	<s> '	-1.3436488
-2.034296	p '	-0.19102447
-1.6238188	a '	-0.7847264
-1.6823726	l '	-0.3918131
-2.216985	c '	-0.19102447
-1.683386	i '	-0.6688021
-1.7540164	o '	-0.47969878
-1.6443655	d '	-0.36802763
-2.054039	j '	-0.19102447
-1.9195875	u '	-0.3679885
-1.6289287	s '	-0.5281429
-1.7690208	t '	-0.27604508
-1.6185907	1 '	-0.2585182
-1.8681296	. '	-0.6032861
-2.0062165	g '	-0.22064947
-1.9014792	| '	-0.42719483
-1.9940956	h '	-0.22838259
-1.5087255	m '	-0.40936553
-2.1709485	b '	-0.26925927
-1.6147468	r '	-0.37574342
-1.3427627	2 '	-0.42163053
-1.4357752	0 '	-0.41948837
-1.8394362	x '	-0.19102447
-0.71415687	' '	-0.5656322
-1.6523634	e '	-0.57506835
-1.6740603	# '	-0.6083677
-1.5678418	y '	-0.35108978
-1.4091275	ı '	-0.74180746
-1.6857806	, '	-0.3022561
-1.8907982	ç '	-0.19102447
-1.4465668	) '	-0.27086204
-2.3027997	f '	-0.19102447
-1.7490495	n '	-0.34855577
-1.4026388	ş '	-0.24308887
-1.6443102	k '	-0.39502794
-1.5326313	ü '	-0.47834736
-1.6774765	z '	-0.31003565
-2.1633732	v '	-0.19102447
-1.7481465	ğ '	-0.19102447
-1.5224742	* '	-0.19102447
-0.872924	: '	-0.9712629
-1.877024	w '	-0.24158522
-1.4027624	3 '	-0.29324993
-1.3449659	7 '	-0.27166572
-1.8270084	( '	-0.19102447
-2.0355864	] '	-0.19102447
-1.5188864	" '	-0.52410483
-1.3413064	5 '	-0.34907985
-1.4393282	8 '	-0.42719483
-1.3221529	6 '	-0.32281822
-1.5381018	4 '	-0.22064947
-1.5287519	“ '	-0.19102447
-1.2138636	” '	-0.26925927
-1.3981272	с '	-0.19102447
-1.2389163	‎ '	-0.19102447
-0.58182883	² '	-0.19102447
-1.425736	> '	-0.42719483
-1.4377995	9 '	-0.30063766
-1.3455029	! '	-0.19102447
-1.314458	? '	-0.26925927
-1.0514783	č '	-0.19102447
-0.68915063	λ '	-0.19102447
-0.40067136	φ '	-0.19102447
-1.8625947	<s> e	-0.19102447
-1.108866	p e	-0.4073623
-1.7478976	a e	-0.30341855
-1.0490423	l e	-0.72036433
-1.1221858	c e	-0.39669722
-1.631538	i e	-0.45143855
-1.7060179	o e	-0.27053377
-1.0177107	d e	-0.6401296
-0.7144311	j e	-0.34963024
-1.6117913	u e	-0.2838652
-1.2840539	s e	-0.5485451
-1.1083237	t e	-0.62801856
-2.0222967	1 e	-0.19102447
-1.7983084	. e	-0.24258712
-0.9920907	g e	-0.5372056
-1.5361642	| e	-0.28848138
-0.96627957	h e	-0.46908078
-1.0643277	m e	-0.66710705
-0.9921451	b e	-0.57434624
-1.0563794	r e	-0.64811903
-2.3077855	2 e	-0.19102447
-1.9407914	0 e	-0.19102447
-1.220037	x e	-0.27166572
-1.4767067	' e	-0.36754462
-1.8381319	e e	-0.25383157
-1.5646409	# e	-0.86187017
-1.0382825	y e	-0.5309315
-1.6823366	, e	-0.19102447
-1.0623492	ç e	-0.33402544
-0.9740399	f e	-0.5374179
-1.0954722	n e	-0.5423453
-0.98101217	ş e	-0.35735357
-1.1788855	k e	-0.5222175
-2.3384743	ü e	-0.19102447
-1.1252428	z e	-0.38969696
-2.0942752	ö e	-0.19102447
-0.8109311	v e	-0.5118554
-1.2554549	ğ e	-0.27086204
-1.6941794	= e	-0.22406939
-1.5170946	* e	-0.19102447
-1.8008218	: e	-0.19102447
-1.6167349	/ e	-0.23525798
-0.8996202	w e	-0.3128541
-2.0558867	3 e	-0.19102447
-1.3972245	_ e	-0.36802763
-1.6199745	( e	-0.22838259
-2.0285683	] e	-0.19102447
-1.8193004	[ e	-0.19102447
-1.764811	" e	-0.19102447
-1.9950212	5 e	-0.19102447
-2.1696734	8 e	-0.19102447
-2.1351216	6 e	-0.19102447
-2.178346	4 e	-0.19102447
-1.5931482	- e	-0.33780885
-1.0659639	’ e	-0.6702329
-1.5418464	+ e	-0.19102447
-1.4228156	> e	-0.19102447
-2.1882563	9 e	-0.19102447
-1.3669149	& e	-0.24158522
-1.5694917	é e	-0.19102447
-0.6883568	ß e	-0.19102447
-1.0496522	č e	-0.19102447
-1.1217258	` e	-0.19102447
-0.4002626	— e	-0.19102447
-0.4002626	ț e	-0.19102447
-1.2733376	p #	-0.38265774
-1.4042482	a #	-0.8437067
-1.447532	l #	-0.57099354
-1.4316918	c #	-0.24043807
-1.3415551	i #	-0.8978152
-1.3813456	o #	-0.42929864
-1.363933	d #	-0.39137995
-1.3727078	j #	-0.21197693
-1.3274922	u #	-0.64486915
-1.2956165	s #	-0.6021642
-1.3047862	t #	-0.6130885
-1.0329831	1 #	-0.3570201
-0.98792046	. #	-0.78287446
-1.3464351	g #	-0.3869962
-1.2577118	| #	-0.32010654
-1.5509675	h #	-0.28373203
-1.2975831	m #	-0.5554409
-1.4566499	b #	-0.23399176
-1.4460942	r #	-0.5790839
-1.0592479	2 #	-0.37720793
-1.2121018	0 #	-0.31285724
-0.9101526	x #	-0.22660531
-1.3992579	' #	-0.258752
-1.3246546	e #	-0.8280829
-1.9529036	# #	-0.3144114
-1.2627406	y #	-0.4533039
-1.2119108	ı #	-0.7685966
-0.38474268	, #	-0.89636457
-1.1289546	ç #	-0.3966909
-0.51041144	) #	-0.6335897
-1.2871466	f #	-0.29879364
-1.3264812	n #	-0.60414314
-1.2311771	ş #	-0.44525832
-1.3854107	k #	-0.66665554
-1.1996666	ü #	-0.58004916
-1.1569337	z #	-0.48815346
-1.2345709	v #	-0.23207118
-1.5864263	ğ #	-0.19102447
-0.98105544	= #	-0.3490018
-1.3786452	* #	-0.19102447
-0.65837765	: #	-0.41261247
-1.3455926	/ #	-0.26151982
-1.370538	w #	-0.20723271
-1.6073854	% #	-0.19102447
-1.04308	3 #	-0.4421901
-0.9638201	7 #	-0.3261704
-1.1446404	í #	-0.19102447
-1.6359631	[ #	-0.19102447
-0.697435	" #	-0.48300713
-1.2101103	5 #	-0.40457326
-1.094344	8 #	-0.3673826
-1.0504029	6 #	-0.40131995
-1.1053205	4 #	-0.31189725
-1.3877424	“ #	-0.19102447
-0.2541444	” #	-0.26458767
-1.4888395	- #	-0.21197693
-1.9059808	’ #	-0.19102447
-1.4053074	+ #	-0.19102447
-0.47619182	ی #	-0.19102447
-0.8179951	ش #	-0.19102447
-0.6006665	ر #	-0.19102447
-0.9973525	ف #	-0.19102447
-0.280709	ہ #	-0.19102447
-0.83140504	к #	-0.19102447
-0.93242806	и #	-0.19102447
-0.94858736	е #	-0.19102447
-0.8377647	‎ #	-0.19102447
-0.65043706	د #	-0.19102447
-1.1783895	ل #	-0.19102447
-1.3315768	â #	-0.19102447
-1.0068898	ا #	-0.19102447
-0.769251	н #	-0.19102447
-0.56635463	² #	-0.19102447
-1.0575564	9 #	-0.35037598
-0.21966751	; #	-0.30335262
-0.3204241	ي #	-0.19102447
-0.6648176	ى #	-0.19102447
-0.109108895	î #	-0.19102447
-1.1217026	» #	-0.19102447
-0.72591406	! #	-0.19102447
-1.4659092	? #	-0.19102447
-1.6822389	& #	-0.19102447
-1.4089891	q #	-0.19102447
-0.72060734	° #	-0.19102447
-1.2049053	м #	-0.19102447
-0.4859972	я #	-0.19102447
-0.83073395	é #	-0.19102447
-0.38797793	다 #	-0.19102447
-0.5627289	й #	-0.19102447
-1.2451532	д #	-0.19102447
-0.9017448	а #	-0.21556945
-0.6648176	י #	-0.19102447
-0.38797793	구 #	-0.19102447
-0.38797793	ų #	-0.19102447
-0.38797793	і #	-0.19102447
-1.1918418	ä #	-0.19102447
-0.6648176	자 #	-0.19102447
-0.38797793	의 #	-0.19102447
-0.9973525	č #	-0.19102447
-0.6648176	ς #	-0.19102447
-0.6648176	ک #	-0.19102447
-0.44719118	ת #	-0.19102447
-0.38797793	պ #	-0.19102447
-1.0052822	ი #	-0.19102447
-0.38797793	ს #	-0.19102447
-0.65398645	ა #	-0.19102447
-0.38797793	ă #	-0.19102447
-0.5497769	х #	-0.24158522
-0.6648176	ú #	-0.19102447
-0.38797793	ן #	-0.19102447
-0.8179951	ق #	-0.19102447
-1.0643252	` #	-0.19102447
-0.6648176	ν #	-0.19102447
-0.65398645	ο #	-0.19102447
-0.6648176	υ #	-0.19102447
-0.38797793	ι #	-0.19102447
-0.6648176	‘ #	-0.19102447
-0.9211687	ó #	-0.19102447
-0.38797793	광 #	-0.19102447
-0.38797793	ô #	-0.19102447
-1.2637702	о #	-0.19102447
-0.44719118	€ #	-0.19102447
-0.38797793	ة #	-0.19102447
-0.38797793	ï #	-0.19102447
-0.38797793	ň #	-0.19102447
-0.38797793	→ #	-0.19102447
-1.6820787	<s> y	-0.19102447
-1.9222088	p y	-0.22838259
-1.4663677	a y	-0.53174853
-1.5452609	l y	-0.28131774
-1.9506278	c y	-0.27166572
-1.532157	i y	-0.78428245
-1.6357299	o y	-0.34331697
-1.9249039	d y	-0.24158522
-1.8169717	j y	-0.26925927
-1.5528774	u y	-0.43057597
-1.8867177	s y	-0.3503646
-1.7348359	t y	-0.2602585
-1.7033688	. y	-0.23274517
-1.90006	g y	-0.19102447
-1.34995	| y	-0.51470375
-2.0312567	h y	-0.19102447
-1.6823941	m y	-0.27022022
-1.5611733	b y	-0.20930196
-1.6267018	r y	-0.30258504
-1.4056016	' y	-0.4432934
-1.5090808	e y	-0.5118108
-1.5906739	# y	-1.080393
-2.1009622	y y	-0.19102447
-1.2791184	ı y	-0.62534463
-1.9285153	ç y	-0.26925927
-2.1710818	f y	-0.24158522
-1.6644304	n y	-0.35074157
-1.9647865	ş y	-0.19102447
-1.8173189	k y	-0.22605988
-1.4400687	ü y	-0.3991661
-1.6966689	z y	-0.23525798
-1.2147931	ö y	-0.30100262
-1.8246682	v y	-0.22838259
-1.7170885	= y	-0.28451297
-2.0934477	: y	-0.19102447
-2.051318	/ y	-0.24158522
-1.3450065	_ y	-0.26088223
-1.4792739	( y	-0.25429502
-2.092182	] y	-0.19102447
-1.8880346	[ y	-0.19102447
-1.9853501	" y	-0.19102447
-2.0079455	8 y	-0.19102447
-1.570347	“ y	-0.19102447
-1.7684609	- y	-0.22064947
-1.0707805	’ y	-0.3064278
-1.5890322	+ y	-0.19102447
-1.7823372	> y	-0.19102447
-1.6546586	? y	-0.19102447
-2.2670116	<s> ı	-0.19102447
-1.8401903	p ı	-0.23090294
-1.314615	l ı	-0.59025836
-1.5823904	c ı	-0.31768653
-1.358578	d ı	-0.45849925
-2.1904993	j ı	-0.19102447
-1.5367948	s ı	-0.40017498
-1.5354329	t ı	-0.52363956
-1.7308903	g ı	-0.28676277
-2.5742326	| ı	-0.19102447
-1.811253	h ı	-0.22503161
-1.5663707	m ı	-0.3406681
-1.9285483	b ı	-0.2319437
-1.7359947	r ı	-0.3039666
-1.4574392	' ı	-0.7487869
-2.1108983	# ı	-0.5685138
-1.3903033	y ı	-0.3790908
-1.1718466	ç ı	-0.31309542
-1.7601548	f ı	-0.30063766
-1.5971793	n ı	-0.3316541
-1.4327234	ş ı	-0.30590603
-1.3777326	k ı	-0.4747736
-1.6311688	z ı	-0.2704921
-2.0810795	v ı	-0.19102447
-1.2941358	ğ ı	-0.2483402
-2.1813362	] ı	-0.19102447
-2.5428996	- ı	-0.19102447
-1.0765164	’ ı	-0.42719483
-1.8089111	p ,	-0.44775695
-1.6071289	a ,	-0.78809994
-1.9203659	l ,	-0.6032861
-2.4516692	c ,	-0.19102447
-1.5310184	i ,	-0.953265
-1.9487162	o ,	-0.51470375
-1.7676053	d ,	-0.57269573
-2.0961668	j ,	-0.19102447
-1.5513375	u ,	-0.75944495
-1.6058424	s ,	-0.8737257
-1.7795001	t ,	-0.77937734
-1.6279237	1 ,	-0.24258712
-1.6111104	. ,	-0.44688037
-1.7882957	g ,	-0.52410483
-1.8828937	h ,	-0.42719483
-1.6326282	m ,	-0.6345062
-2.412663	b ,	-0.19102447
-1.7647673	r ,	-0.5063303
-1.4957523	2 ,	-0.22503161
-1.8274091	0 ,	-0.22064947
-1.608677	x ,	-0.26925927
-2.4114165	' ,	-0.19102447
-1.5459535	e ,	-0.8628776
-2.5467272	# ,	-0.19102447
-1.5771743	y ,	-0.77937734
-1.4477954	ı ,	-0.6968308
-1.7221267	ç ,	-0.3022561
-0.7255351	) ,	-1.017723
-1.7299742	f ,	-0.52410483
-1.6619486	n ,	-0.5024773
-1.5021402	ş ,	-0.52410483
-1.6534133	k ,	-0.7109984
-1.39477	ü ,	-0.86652756
-1.5337768	z ,	-0.6702329
-2.0027905	v ,	-0.26925927
-1.787171	ğ ,	-0.19102447
-2.1582093	w ,	-0.19102447
-1.6374872	3 ,	-0.24308887
-1.7219349	7 ,	-0.24158522
-2.0802574	] ,	-0.19102447
-1.2043816	" ,	-0.8251349
-1.4862779	5 ,	-0.24158522
-1.8074007	8 ,	-0.19102447
-1.9595022	6 ,	-0.19102447
-1.8178918	4 ,	-0.19102447
-1.2207583	” ,	-0.26925927
-1.9836513	> ,	-0.19102447
-1.8097103	9 ,	-0.19102447
-0.19019061	» ,	-0.52410483
-1.2734845	é ,	-0.26925927
-0.86390114	€ ,	-0.19102447
-3.0508833	l á	-0.19102447
-2.828082	g á	-0.19102447
-3.0121686	k á	-0.19102447
-2.3286211	p ç	-0.19102447
-1.8336194	a ç	-0.3962024
-1.955586	l ç	-0.22838259
-1.8741174	i ç	-0.32196897
-2.5461698	o ç	-0.19102447
-1.7692069	u ç	-0.3165101
-2.5948973	s ç	-0.19102447
-1.9956793	t ç	-0.23399176
-2.714462	. ç	-0.19102447
-1.9704535	| ç	-0.24158522
-2.2910385	h ç	-0.22838259
-2.6952002	m ç	-0.19102447
-2.2846189	r ç	-0.19102447
-2.5762174	' ç	-0.19102447
-2.01763	e ç	-0.27069792
-1.8081198	# ç	-0.9408806
-2.0393457	ı ç	-0.24308887
-2.2676656	, ç	-0.19102447
-2.1293738	n ç	-0.27853912
-2.0335944	ş ç	-0.19102447
-1.7774312	k ç	-0.33780885
-2.0775197	ü ç	-0.2319437
-2.2557857	ö ç	-0.19102447
-2.4892876	= ç	-0.19102447
-2.1043272	_ ç	-0.26925927
-2.025681	( ç	-0.19102447
-1.636211	“ ç	-0.19102447
-2.063948	p )	-0.27166572
-1.9358004	a )	-0.50292534
-1.9217778	l )	-0.3165101
-2.0903776	c )	-0.3022561
-1.8974053	i )	-0.5041033
-2.0349903	o )	-0.33347625
-2.1593127	d )	-0.22064947
-2.1256409	u )	-0.3685757
-1.8845527	s )	-0.46493763
-1.893507	t )	-0.34639513
-1.9022923	1 )	-0.23399176
-1.8850901	. )	-0.24158522
-2.0380507	g )	-0.22838259
-2.0261142	h )	-0.19102447
-1.9481189	m )	-0.24308887
-2.2137368	b )	-0.19102447
-1.975523	r )	-0.28834462
-1.9819851	2 )	-0.3022561
-1.5609732	0 )	-0.31257603
-1.6107574	x )	-0.19102447
-2.4171686	' )	-0.19102447
-1.8922371	e )	-0.46443582
-1.9551065	y )	-0.22838259
-1.6692338	ı )	-0.3358038
-2.172017	ç )	-0.19102447
-2.0610192	) )	-0.26925927
-2.0770009	n )	-0.2483402
-1.8854082	k )	-0.40042302
-2.2031507	ü )	-0.26925927
-1.8029104	z )	-0.22838259
-2.2263298	v )	-0.19102447
-1.790587	ğ )	-0.19102447
-2.162661	w )	-0.19102447
-1.779932	% )	-0.19102447
-1.9063697	3 )	-0.19102447
-1.3533283	7 )	-0.44775695
-1.2168124	] )	-0.39015993
-1.371432	" )	-0.51470375
-1.577102	5 )	-0.27086204
-1.6539882	8 )	-0.28875512
-1.4961019	6 )	-0.22064947
-1.4606029	4 )	-0.2585182
-1.5645653	“ )	-0.19102447
-1.2213379	” )	-0.19102447
-2.3988068	- )	-0.19102447
-1.5832074	+ )	-0.19102447
-1.2475163	к )	-0.19102447
-1.9889778	> )	-0.19102447
-1.6537455	9 )	-0.26925927
-0.40333742	− )	-0.19102447
-2.063948	p f	-0.19102447
-1.6289716	a f	-0.3772992
-2.1065629	l f	-0.24258712
-1.9470813	c f	-0.19102447
-1.7817094	i f	-0.3756519
-1.5987031	o f	-0.3165101
-1.7087305	d f	-0.22064947
-1.9354256	u f	-0.22406939
-2.196807	s f	-0.19102447
-1.963461	t f	-0.3165101
-2.209036	. f	-0.21197693
-2.3974354	g f	-0.19102447
-1.6625499	| f	-0.28510487
-2.3841393	h f	-0.19102447
-2.52677	m f	-0.19102447
-2.4181664	b f	-0.19102447
-1.975523	r f	-0.24731633
-2.1649556	2 f	-0.19102447
-2.149981	0 f	-0.19102447
-2.4171686	' f	-0.19102447
-1.6857398	e f	-0.37792084
-1.6107619	# f	-0.776919
-2.2627933	y f	-0.19102447
-2.1418943	ı f	-0.23399176
-2.137458	, f	-0.19102447
-1.4063952	f f	-0.28676027
-1.9745939	n f	-0.24158522
-2.3722587	k f	-0.19102447
-1.7652844	ü f	-0.21556945
-2.3265285	z f	-0.19102447
-2.2263298	v f	-0.19102447
-1.8219521	= f	-0.25244418
-1.5091647	{ f	-0.19102447
-1.8390896	: f	-0.24158522
-1.5671186	/ f	-0.22838259
-1.9082564	w f	-0.19102447
-1.9063697	3 f	-0.19102447
-2.0319679	_ f	-0.19102447
-1.6633079	( f	-0.19102447
-1.8793604	[ f	-0.19102447
-1.978909	" f	-0.24158522
-2.0022123	8 f	-0.19102447
-1.4418123	- f	-0.25429502
-1.5832074	+ f	-0.19102447
-1.7757273	> f	-0.19102447
-2.2535083	9 f	-0.19102447
-1.9080726	; f	-0.19102447
-1.6486386	? f	-0.19102447
-0.40333742	µ f	-0.19102447
-0.86064196	\ f	-0.19102447
-2.1226945	<s> n	-0.19102447
-1.8973832	p n	-0.22064947
-1.3563854	a n	-0.79305863
-1.7791141	l n	-0.30063766
-1.924709	c n	-0.27166572
-1.2868578	i n	-0.77219796
-1.2400358	o n	-0.5753509
-1.8209139	d n	-0.24308887
-2.054039	j n	-0.19102447
-1.1570961	u n	-0.6660031
-1.7744007	s n	-0.3010417
-1.8788182	t n	-0.23399176
-2.3905218	1 n	-0.19102447
-1.6904302	. n	-0.32370028
-2.0062165	g n	-0.23625593
-1.4910222	| n	-0.30959082
-1.7598689	h n	-0.23625593
-2.0263622	m n	-0.25244418
-2.0080674	b n	-0.19102447
-1.6557636	r n	-0.36052006
-1.8394362	x n	-0.19102447
-1.3291184	' n	-0.47691223
-1.2825401	e n	-0.68437964
-1.5197513	# n	-0.89424527
-1.8303403	y n	-0.22503161
-1.1713926	ı n	-0.7626392
-2.0781157	, n	-0.19102447
-0.8530437	á n	-0.19102447
-1.9582216	f n	-0.19102447
-1.9531054	n n	-0.26199153
-1.9215583	ş n	-0.19102447
-2.0480576	k n	-0.2585182
-1.0603503	ü n	-0.59203887
-2.0808342	z n	-0.19102447
-0.99322	ö n	-0.3606605
-1.794723	v n	-0.22838259
-1.5440264	= n	-0.32973728
-1.5224742	* n	-0.19102447
-2.0269516	: n	-0.19102447
-1.5575284	/ n	-0.24158522
-1.877024	w n	-0.19102447
-1.8167129	_ n	-0.3022561
-1.8270084	( n	-0.19102447
-1.222686	í n	-0.19102447
-2.0355864	] n	-0.19102447
-1.8268445	[ n	-0.19102447
-1.5188864	" n	-0.21197693
-1.2267652	“ n	-0.19102447
-1.5778828	” n	-0.19102447
-1.5343479	- n	-0.3165101
-0.94322455	’ n	-0.3679363
-0.8499747	â n	-0.21556945
-1.7350534	> n	-0.19102447
-1.2051018	& n	-0.42719483
-1.5742356	é n	-0.19102447
-0.68915063	ể n	-0.19102447
-1.2714833	ä n	-0.19102447
-0.68915063	ê n	-0.19102447
-0.68915063	è n	-0.19102447
-0.8530437	à n	-0.19102447
-0.96611756	ó n	-0.19102447
-0.68915063	å n	-0.19102447
-0.8530437	ž n	-0.19102447
-1.8009127	a ş	-0.42899895
-2.5167878	l ş	-0.26925927
-1.6267159	i ş	-0.5165153
-1.981503	o ş	-0.23274517
-1.6764921	u ş	-0.44775695
-2.4847383	. ş	-0.19102447
-2.1359532	| ş	-0.24158522
-2.5616724	h ş	-0.19102447
-2.4645293	m ş	-0.19102447
-2.2920337	r ş	-0.19102447
-2.5932496	' ş	-0.19102447
-1.831196	e ş	-0.42934704
-1.7466565	# ş	-0.9367774
-2.3703735	y ş	-0.19102447
-1.4978305	ı ş	-0.49608845
-2.134241	n ş	-0.22838259
-2.3360095	ş ş	-0.19102447
-2.7363806	k ş	-0.19102447
-1.9166806	ü ş	-0.31478882
-1.9356014	ö ş	-0.26925927
-2.092416	v ş	-0.19102447
-2.5059838	= ş	-0.19102447
-2.0399067	( ş	-0.19102447
-2.566849	- ş	-0.19102447
-1.505138	â ş	-0.19102447
-1.0491366	<s> k	-0.66960573
-1.8011087	p k	-0.22064947
-1.4491159	a k	-0.57091665
-1.9926039	l k	-0.26721388
-1.6141115	c k	-0.32377467
-1.4132129	i k	-0.6031578
-1.3627268	o k	-0.4261821
-2.1395612	d k	-0.22838259
-1.3910277	u k	-0.42364126
-1.5478715	s k	-0.38554087
-1.885536	t k	-0.20930196
-1.9576112	. k	-0.2585182
-2.1813946	g k	-0.19102447
-1.5423188	| k	-0.26627338
-2.168836	h k	-0.19102447
-2.0380237	m k	-0.19102447
-2.3810318	b k	-0.19102447
-1.7068546	r k	-0.37693682
-2.3452218	2 k	-0.19102447
-2.314625	0 k	-0.19102447
-2.200156	' k	-0.20930196
-1.4879986	e k	-0.5416125
-1.5130756	# k	-1.0278378
-1.6855652	y k	-0.29476124
-1.4806843	ı k	-0.40510437
-1.544734	, k	-0.22064947
-1.9054943	ç k	-0.19102447
-1.9712806	f k	-0.24158522
-1.8820926	n k	-0.25838134
-1.4959192	ş k	-0.2533686
-1.8763484	k k	-0.23747995
-1.2829863	ü k	-0.3987676
-1.6850519	z k	-0.21556945
-1.3791065	ö k	-0.2319437
-1.984493	v k	-0.22838259
-1.7048098	= k	-0.2494851
-1.5390244	* k	-0.19102447
-1.4957318	{ k	-0.19102447
-1.820811	: k	-0.24158522
-1.8884851	/ k	-0.27166572
-2.1324155	w k	-0.19102447
-2.29582	3 k	-0.19102447
-1.19205	_ k	-0.3832745
-1.6425467	( k	-0.21197693
-2.0573478	] k	-0.19102447
-1.8502964	[ k	-0.19102447
-2.1608844	" k	-0.19102447
-2.1694036	6 k	-0.19102447
-1.5449151	“ k	-0.19102447
-1.6001807	- k	-0.21197693
-1.753354	> k	-0.24158522
-2.2218344	9 k	-0.19102447
-1.8947437	; k	-0.19102447
-1.3228471	? k	-0.19102447
-1.5893037	& k	-0.19102447
-0.6915408	′ k	-0.19102447
-0.6915408	å k	-0.19102447
-1.8318108	p ü	-0.23399176
-2.9290981	a ü	-0.19102447
-1.4663386	l ü	-0.45043308
-1.8621556	c ü	-0.27967924
-1.331648	d ü	-0.44908893
-1.6156515	j ü	-0.26925927
-1.6156137	s ü	-0.29725406
-1.3510818	t ü	-0.48325437
-2.6557424	. ü	-0.19102447
-1.1881523	g ü	-0.4854321
-2.1094232	| ü	-0.24158522
-1.6378485	h ü	-0.30018193
-1.3318453	m ü	-0.3895973
-1.5720868	b ü	-0.2531793
-1.6381649	r ü	-0.27465248
-1.7404524	' ü	-0.6032861
-2.8572161	e ü	-0.19102447
-1.8384142	# ü	-0.85262346
-1.3872466	y ü	-0.38262254
-1.5836489	ç ü	-0.2055844
-2.025328	f ü	-0.19102447
-1.7247062	n ü	-0.29401895
-1.8015485	ş ü	-0.19102447
-1.452528	k ü	-0.4019994
-1.7153808	z ü	-0.25597703
-2.059257	v ü	-0.19102447
-1.8492483	ğ ü	-0.19102447
-2.435441	= ü	-0.19102447
-2.240901	w ü	-0.19102447
-1.9541513	[ ü	-0.19102447
-1.6131284	“ ü	-0.19102447
-2.498632	- ü	-0.19102447
-1.0839237	´ ü	-0.19102447
-0.75900733	` ü	-0.19102447
-1.6345901	a z	-0.48685062
-2.1379693	l z	-0.22064947
-2.1262052	c z	-0.19102447
-1.6456182	i z	-0.57061946
-1.5726864	o z	-0.2641718
-2.2017336	d z	-0.19102447
-1.4714336	u z	-0.37827247
-2.2289968	s z	-0.22064947
-2.0704184	t z	-0.25960624
-2.5349638	1 z	-0.19102447
-2.487541	g z	-0.19102447
-2.1037414	| z	-0.22064947
-2.0634594	h z	-0.19102447
-2.4102159	m z	-0.19102447
-2.265082	b z	-0.19102447
-2.252735	r z	-0.22064947
-2.2810116	' z	-0.19102447
-1.6411881	e z	-0.40199563
-1.9610782	# z	-0.71360457
-2.3197308	y z	-0.19102447
-1.5319457	ı z	-0.37456802
-2.4544349	f z	-0.19102447
-1.9118476	n z	-0.26513466
-2.6447	k z	-0.19102447
-1.4026455	ü z	-0.399032
-2.1761053	z z	-0.19102447
-1.0969353	ö z	-0.33684233
-2.05222	v z	-0.24158522
-1.8414675	ğ z	-0.19102447
-2.5171542	/ z	-0.19102447
-1.9446101	w z	-0.19102447
-2.34019	_ z	-0.19102447
-1.9668702	( z	-0.19102447
-1.9440671	[ z	-0.19102447
-2.2772422	" z	-0.19102447
-1.4825008	â z	-0.19102447
-2.9536538	a ö	-0.19102447
-2.14976	l ö	-0.22064947
-2.8943784	i ö	-0.19102447
-2.7636707	o ö	-0.19102447
-2.0665436	d ö	-0.2585182
-1.9683247	s ö	-0.26239333
-2.079141	t ö	-0.52410483
-2.6799426	. ö	-0.19102447
-1.5324773	g ö	-0.2709862
-1.962226	| ö	-0.24308887
-1.9213033	h ö	-0.19102447
-1.8065734	b ö	-0.34440246
-2.0112305	r ö	-0.19102447
-2.5440347	' ö	-0.19102447
-2.8829744	e ö	-0.19102447
-1.7291588	# ö	-0.7653415
-2.3420212	y ö	-0.22838259
-2.2420316	, ö	-0.19102447
-1.5872257	ç ö	-0.23399176
-2.2350788	f ö	-0.19102447
-2.4556344	n ö	-0.26925927
-2.2952433	ş ö	-0.19102447
-1.624956	k ö	-0.32411873
-2.196295	z ö	-0.19102447
-2.457706	= ö	-0.19102447
-1.5478697	{ ö	-0.19102447
-2.1836333	: ö	-0.19102447
-2.0908456	_ ö	-0.19102447
-1.9985554	( ö	-0.19102447
-1.6228712	“ ö	-0.19102447
-2.520202	- ö	-0.19102447
-2.4870532	p v	-0.19102447
-1.5334637	a v	-0.4792351
-2.2645965	l v	-0.22838259
-2.2921786	c v	-0.19102447
-1.8228549	i v	-0.38492954
-1.482458	o v	-0.5057489
-2.3514264	d v	-0.19102447
-2.0324385	u v	-0.27086204
-2.2149081	s v	-0.22064947
-2.1671758	t v	-0.19102447
-2.4029715	. v	-0.19102447
-2.2379355	g v	-0.19102447
-1.8308794	| v	-0.21556945
-2.2256532	h v	-0.19102447
-2.5782669	m v	-0.19102447
-2.4649	b v	-0.19102447
-1.8355118	r v	-0.33347625
-2.4661527	' v	-0.19102447
-1.5701305	e v	-0.51574755
-1.6474757	# v	-0.8388351
-2.1170106	y v	-0.24158522
-2.344795	ı v	-0.22838259
-2.1784654	, v	-0.19102447
-2.3891146	) v	-0.19102447
-2.0945103	n v	-0.22838259
-2.229193	ş v	-0.19102447
-2.6018076	k v	-0.19102447
-2.041467	ü v	-0.3022561
-1.6781099	ö v	-0.22838259
-2.2701602	v v	-0.19102447
-2.381109	= v	-0.19102447
-1.5833892	* v	-0.19102447
-1.5731273	/ v	-0.30063766
-2.3710232	3 v	-0.19102447
-1.9316677	( v	-0.19102447
-1.9151479	[ v	-0.19102447
-2.2406993	" v	-0.19102447
-2.2420359	6 v	-0.19102447
-2.2877207	4 v	-0.19102447
-1.5506425	- v	-0.2483402
-1.673236	? v	-0.19102447
-1.9236661	& v	-0.19102447
-1.6691227	a ğ	-0.5337824
-1.9862154	i ğ	-0.5185962
-1.5244505	o ğ	-0.5444271
-1.9100406	u ğ	-0.41918012
-1.7393348	e ğ	-0.7181685
-1.7711718	ı ğ	-0.3958008
-1.8184795	ü ğ	-0.44775695
-1.9769157	ö ğ	-0.24158522
-1.5403259	â ğ	-0.19102447
-2.2992435	p =	-0.19102447
-2.0522249	a =	-0.4255764
-1.8721051	l =	-0.2319437
-1.7926475	i =	-0.45960468
-2.1722207	o =	-0.21197693
-1.8611268	d =	-0.23532219
-2.0450304	u =	-0.25429502
-1.7558993	s =	-0.30529585
-1.9856184	t =	-0.22838256
-1.5206294	1 =	-0.25602895
-2.6557424	. =	-0.19102447
-2.2713985	g =	-0.19102447
-2.2592974	h =	-0.22838259
-1.8859878	m =	-0.24308887
-2.5172756	b =	-0.19102447
-2.1141644	r =	-0.23372062
-1.5076641	2 =	-0.2648467
-1.8241864	e =	-0.26077524
-1.803766	# =	-0.5405735
-2.1393747	y =	-0.19102447
-1.4561553	ı =	-0.42580724
-2.2526999	ç =	-0.19102447
-2.4190423	) =	-0.19102447
-2.0025895	n =	-0.21363139
-2.0094266	ş =	-0.26925927
-1.8332609	k =	-0.25659457
-2.2603	ü =	-0.19102447
-2.4264479	z =	-0.19102447
-2.318916	v =	-0.19102447
-1.0867882	= =	-0.41924408
-2.240901	w =	-0.19102447
-2.4171817	3 =	-0.19102447
-2.1526175	] =	-0.19102447
-1.5338975	q =	-0.19102447
-2.8297994	' *	-0.19102447
-1.773461	# *	-0.5402927
-2.592675	5 *	-0.19102447
-2.3531566	> *	-0.19102447
-2.794449	c {	-0.19102447
-2.0405118	. {	-0.52410483
-2.4263647	| {	-0.26925927
-3.3789818	# {	-0.19102447
-2.669369	= {	-0.19102447
-1.7006471	* {	-0.19102447
-0.517168	{ {	-0.24731633
-1.5130748	> {	-0.42719483
-0.8377437	} {	-0.19102447
-2.5402052	p :	-0.19102447
-2.3866804	a :	-0.20067662
-2.1426473	l :	-0.27166572
-2.5600932	c :	-0.19102447
-1.9599955	i :	-0.55335826
-2.3889446	d :	-0.26925927
-2.1638484	j :	-0.19102447
-2.0450304	u :	-0.3685757
-2.1243932	s :	-0.3679363
-2.1847935	t :	-0.24308887
-2.290804	1 :	-0.26925927
-2.2713985	g :	-0.26925927
-2.48913	h :	-0.19102447
-1.974531	m :	-0.23274517
-1.7840683	r :	-0.49260136
-2.4752975	2 :	-0.19102447
-2.2100694	0 :	-0.19102447
-2.5213723	' :	-0.19102447
-2.0092683	e :	-0.3121818
-2.4360564	# :	-0.19758216
-2.32851	y :	-0.19102447
-1.6824076	ı :	-0.6238482
-1.458701	) :	-0.43488312
-2.4405117	n :	-0.22064947
-2.107046	k :	-0.42719483
-2.2603	ü :	-0.26925927
-1.8305004	z :	-0.28875512
-2.318916	v :	-0.19102447
-2.240901	w :	-0.19102447
-2.1526175	] :	-0.19102447
-1.9541513	[ :	-0.19102447
-2.3564591	5 :	-0.19102447
-2.3332927	4 :	-0.19102447
-0.8701798	ه :	-0.19102447
-1.9308096	p /	-0.19102447
-2.175212	a /	-0.19102447
-1.860899	l /	-0.22406939
-2.2882867	c /	-0.19102447
-2.3230448	i /	-0.2042404
-2.4753554	o /	-0.19102447
-2.1800056	d /	-0.19102447
-2.1267085	j /	-0.19102447
-2.03089	u /	-0.24158522
-1.7487322	s /	-0.23936538
-1.9016271	t /	-0.21873747
-1.798944	1 /	-0.22406939
-2.2291298	. /	-0.19102447
-1.9094057	g /	-0.2055844
-1.8978524	h /	-0.19102447
-1.686759	m /	-0.24043807
-1.7906158	b /	-0.22064947
-1.9044709	r /	-0.23956196
-1.9970661	2 /	-0.20930196
-2.1752534	0 /	-0.19102447
-1.945799	e /	-0.21604097
-2.4863834	# /	-0.52410483
-2.2903297	y /	-0.19102447
-2.5548372	ı /	-0.19102447
-2.3855145	) /	-0.19102447
-1.852172	f /	-0.22838259
-1.9866205	n /	-0.22838259
-2.2306237	k /	-0.19102447
-1.9651781	z /	-0.19102447
-1.6797124	v /	-0.19102447
-2.1180856	: /	-0.19102447
-2.4729433	/ /	-0.19102447
-1.9260529	w /	-0.19102447
-1.4789338	3 /	-0.22539198
-1.4511352	7 /	-0.21197693
-2.112814	] /	-0.19102447
-1.4928792	5 /	-0.21054824
-1.6630224	8 /	-0.19102447
-1.5027754	6 /	-0.19102447
-1.6738857	4 /	-0.22503161
-1.6039455	+ /	-0.19102447
-0.78162146	< /	-0.43941492
-1.8234404	9 /	-0.22064947
-2.2743242	a w	-0.229476
-2.2869604	l w	-0.22838259
-2.5529082	c w	-0.19102447
-2.4869642	i w	-0.19102447
-1.831448	o w	-0.25734347
-1.9473491	d w	-0.22064947
-2.7143614	u w	-0.19102447
-2.23139	s w	-0.27086204
-2.7228997	t w	-0.19102447
-1.9936562	. w	-0.3685757
-2.494753	g w	-0.19102447
-1.7522136	| w	-0.3066397
-2.066254	h w	-0.19102447
-2.6289527	m w	-0.19102447
-2.429806	r w	-0.24158522
-2.4687533	2 w	-0.19102447
-2.5140734	' w	-0.19102447
-2.0080867	e w	-0.26140562
-1.7711045	# w	-0.6695499
-2.5487695	y w	-0.19102447
-2.4355855	n w	-0.19102447
-2.195488	= w	-0.26925927
-1.6057532	* w	-0.19102447
-1.6675504	: w	-0.24158522
-1.7178289	/ w	-0.21197693
-1.5624714	w w	-0.25429502
-1.7058058	_ w	-0.22838259
-1.973025	( w	-0.19102447
-1.94908	[ w	-0.19102447
-1.5510864	" w	-0.2585182
-1.6099288	“ w	-0.19102447
-1.9005132	- w	-0.22838259
-2.0778778	> w	-0.19102447
-1.3913469	! w	-0.19102447
-0.40643418	ś w	-0.19102447
-2.5576062	l %	-0.19102447
-3.0262823	i %	-0.19102447
-2.647882	s %	-0.19102447
-2.6675258	1 %	-0.19102447
-2.596156	2 %	-0.19102447
-1.7641633	0 %	-0.28875512
-2.6587462	' %	-0.19102447
-2.5681121	# %	-0.24258712
-2.8029313	n %	-0.19102447
-2.556449	z %	-0.19102447
-2.2026293	3 %	-0.19102447
-2.0937219	( %	-0.19102447
-2.4664555	5 %	-0.19102447
-2.4318366	8 %	-0.19102447
-2.3915522	6 %	-0.19102447
-1.8830357	4 %	-0.19102447
-1.3105136	+ %	-0.26925927
-2.2071483	> %	-0.19102447
-2.2833073	p 3	-0.19102447
-2.8983784	a 3	-0.19102447
-2.1209025	c 3	-0.19102447
-2.711419	o 3	-0.19102447
-2.3697805	d 3	-0.19102447
-2.692544	u 3	-0.19102447
-2.7002254	t 3	-0.19102447
-1.2814621	1 3	-0.31982046
-1.7122138	. 3	-0.2392434
-1.9481926	| 3	-0.2494851
-2.4902987	b 3	-0.19102447
-2.6050534	r 3	-0.19102447
-1.3147933	2 3	-0.20218085
-1.3197408	0 3	-0.25181338
-2.272629	' 3	-0.19102447
-2.2222579	e 3	-0.21556945
-2.1696997	# 3	-0.34639513
-2.5871713	ı 3	-0.19102447
-2.2005188	, 3	-0.19102447
-2.483646	ü 3	-0.19102447
-1.8436241	= 3	-0.21556945
-1.6621935	: 3	-0.22838259
-1.9192533	/ 3	-0.19102447
-1.8147407	% 3	-0.19102447
-1.3614277	3 3	-0.2042404
-1.7421271	7 3	-0.22838259
-1.7013847	( 3	-0.19102447
-1.9342119	[ 3	-0.19102447
-2.2647164	" 3	-0.19102447
-1.4209554	5 3	-0.20723271
-1.3181587	8 3	-0.22838259
-1.4147514	6 3	-0.30063766
-1.4703745	4 3	-0.20930196
-1.4051207	- 3	-0.22346151
-1.3635079	– 3	-0.19102447
-1.8169858	> 3	-0.19102447
-1.2576263	9 3	-0.248947
-1.1497747	° 3	-0.19102447
-2.1008837	p _	-0.22064947
-1.9965819	a _	-0.22524454
-2.2869604	l _	-0.21556945
-2.3204439	c _	-0.19102447
-2.0131416	i _	-0.27035144
-2.1701934	o _	-0.22838259
-2.0573158	d _	-0.19102447
-2.1554842	u _	-0.24158522
-1.9010593	s _	-0.23090294
-1.911097	t _	-0.25062084
-2.5413573	1 _	-0.19102447
-2.494753	g _	-0.19102447
-2.4817698	h _	-0.19102447
-1.8846018	m _	-0.30803478
-2.5103726	b _	-0.19102447
-2.1116889	r _	-0.22539198
-2.4687533	2 _	-0.19102447
-2.4451413	0 _	-0.19102447
-1.4179082	x _	-0.19102447
-2.0698087	e _	-0.21363139
-2.3240983	y _	-0.19102447
-2.3725595	ı _	-0.19102447
-2.0228329	f _	-0.19102447
-1.7782356	n _	-0.23157752
-2.0060813	ş _	-0.19102447
-2.1048727	k _	-0.19102447
-2.256499	ü _	-0.19102447
-2.1800687	z _	-0.19102447
-2.195488	= _	-0.26925927
-2.4111364	3 _	-0.19102447
-2.346123	_ _	-0.19102447
-2.2563024	7 _	-0.19102447
-2.3504279	5 _	-0.19102447
-2.327328	4 _	-0.19102447
-2.0510042	9 _	-0.26925927
-2.9796817	a 7	-0.19102447
-2.6515205	d 7	-0.19102447
-2.8152907	s 7	-0.19102447
-1.4291542	1 7	-0.23157752
-2.4691443	. 7	-0.19102447
-2.5742326	| 7	-0.19102447
-2.5611694	b 7	-0.19102447
-1.3193738	2 7	-0.27604508
-1.3249568	0 7	-0.2998864
-2.5679455	' 7	-0.19102447
-2.4522789	# 7	-0.27046078
-1.9695065	, 7	-0.26925927
-2.4811745	= 7	-0.19102447
-2.2016916	: 7	-0.19102447
-2.5738924	/ 7	-0.19102447
-1.8460435	% 7	-0.19102447
-1.4238784	3 7	-0.22911125
-2.3900914	_ 7	-0.19102447
-1.7583246	7 7	-0.24158522
-2.018739	( 7	-0.19102447
-1.9858897	[ 7	-0.19102447
-1.4280587	5 7	-0.22911125
-1.389901	8 7	-0.22605988
-1.5174309	6 7	-0.19102447
-1.6940851	4 7	-0.21556945
-1.7953912	- 7	-0.19102447
-2.1265433	> 7	-0.19102447
-1.3857478	9 7	-0.2063644
-2.8208432	a (	-0.19102447
-2.8673236	l (	-0.19102447
-2.777629	i (	-0.19102447
-2.8971055	u (	-0.19102447
-2.9148998	t (	-0.19102447
-2.832104	r (	-0.19102447
-2.690152	' (	-0.19102447
-1.592989	# (	-0.69041675
-2.4633367	ı (	-0.19102447
-2.8385942	n (	-0.19102447
-2.8407767	k (	-0.19102447
-1.6768367	* (	-0.19102447
-2.1474822	_ (	-0.19102447
-1.8875461	] (	-0.19102447
-1.6772076	> (	-0.19102447
-2.98072	l í	-0.19102447
-3.014202	o í	-0.19102447
-2.7228746	s í	-0.19102447
-3.024136	t í	-0.19102447
-2.7695415	g í	-0.19102447
-2.9511008	n í	-0.19102447
-1.1060002	č í	-0.19102447
-2.462733	p ]	-0.19102447
-1.8216496	a ]	-0.8157338
-1.857227	l ]	-0.6702329
-2.2768164	c ]	-0.26925927
-1.6169058	i ]	-0.9706357
-2.0409572	o ]	-0.52410483
-1.7735022	d ]	-0.51470375
-1.8687626	u ]	-0.6702329
-1.7888837	s ]	-0.7109984
-1.8981285	t ]	-0.57269573
-1.9082477	1 ]	-0.42719483
-2.5705242	. ]	-0.19102447
-2.0483346	g ]	-0.27166572
-1.8921824	h ]	-0.42719483
-2.2002118	m ]	-0.3022561
-2.4409049	b ]	-0.19102447
-1.8998994	r ]	-0.51470375
-1.9905386	2 ]	-0.3022561
-1.8358343	0 ]	-0.42719483
-1.9040308	x ]	-0.19102447
-2.4409704	' ]	-0.19102447
-2.0550995	e ]	-0.57269573
-2.904392	# ]	-0.19102447
-1.7687263	y ]	-0.44775695
-1.5696151	ı ]	-0.8251349
-1.933801	ç ]	-0.26925927
-1.5491222	) ]	-0.3685757
-2.3919413	f ]	-0.19102447
-1.8974241	n ]	-0.6032861
-2.2074647	ş ]	-0.19102447
-1.8195608	k ]	-0.51470375
-1.8817817	ü ]	-0.42719483
-2.1383407	z ]	-0.26925927
-2.01865	v ]	-0.26925927
-1.8045263	ğ ]	-0.19102447
-2.1809397	w ]	-0.19102447
-2.349662	3 ]	-0.19102447
-2.202621	7 ]	-0.19102447
-0.30478653	] ]	-0.6606454
-1.8527105	5 ]	-0.27166572
-2.25756	8 ]	-0.19102447
-1.9734744	6 ]	-0.26925927
-1.8271556	4 ]	-0.3022561
-1.5616815	и ]	-0.19102447
-2.0197642	9 ]	-0.26925927
-0.6959572	ê ]	-0.19102447
-2.150842	. [	-0.42719483
-1.7780955	| [	-0.6032861
-2.3804452	' [	-0.26925927
-3.2579157	# [	-0.19102447
-1.7778738	, [	-0.24158522
-1.4670554	= [	-0.77937734
-1.6768367	* [	-0.19102447
-2.6855943	/ [	-0.19102447
-1.7852626	( [	-0.24158522
-2.2509573	] [	-0.19102447
-0.6435587	[ [	-0.4966501
-1.8754005	" [	-0.27166572
-1.9374303	- [	-0.42719483
-1.2027713	> [	-0.52410483
-2.0422752	& [	-0.19102447
-2.4870532	p "	-0.19102447
-2.176617	a "	-0.44775695
-2.1242304	l "	-0.22838259
-2.5056906	c "	-0.19102447
-2.1364102	i "	-0.28309494
-2.4794586	o "	-0.26925927
-2.041625	d "	-0.22838259
-2.4625661	u "	-0.26925927
-2.0249755	s "	-0.2585182
-2.1671758	t "	-0.25429502
-2.4984612	1 "	-0.19102447
-2.2379355	g "	-0.24158522
-2.2647617	| "	-0.2042404
-2.0470595	h "	-0.27166572
-2.5782669	m "	-0.19102447
-2.094744	r "	-0.2494851
-2.4255135	2 "	-0.19102447
-1.842694	0 "	-0.42719483
-2.4661527	' "	-0.19102447
-2.2145975	e "	-0.29324993
-1.8901124	# "	-0.41295034
-1.9703867	y "	-0.24308887
-2.0117185	ı "	-0.33347625
-2.4158707	f "	-0.19102447
-1.7707531	n "	-0.38453248
-2.229193	ş "	-0.19102447
-2.233529	k "	-0.3022561
-2.4588308	ü "	-0.19102447
-1.9676125	z "	-0.27166572
-1.6372662	= "	-0.21556945
-1.9286559	w "	-0.24158522
-1.055132	% "	-0.42719483
-1.9216574	3 "	-0.19102447
-1.9316677	( "	-0.19102447
-1.8244375	] "	-0.24158522
-2.06049	5 "	-0.22838259
-2.2785676	8 "	-0.19102447
-2.2420359	6 "	-0.19102447
-2.03412	> "	-0.19102447
-2.2927833	9 "	-0.19102447
-0.82856786	; "	-0.51470375
-1.3794243	! "	-0.19102447
-2.430013	d 5	-0.19102447
-1.2857314	1 5	-0.28125387
-1.8430234	. 5	-0.23274517
-2.591239	| 5	-0.19102447
-1.2167686	2 5	-0.3277623
-1.4615865	0 5	-0.2552579
-1.9599053	' 5	-0.21197693
-2.5402493	# 5	-0.24258712
-1.9762031	, 5	-0.19102447
-2.486602	z 5	-0.19102447
-2.234676	= 5	-0.19102447
-1.5128616	: 5	-0.19102447
-2.1044827	/ 5	-0.19102447
-1.4894185	% 5	-0.19102447
-1.1591434	3 5	-0.2709862
-1.1664702	7 5	-0.2055844
-1.5253866	( 5	-0.3022561
-1.9970063	[ 5	-0.19102447
-1.3635678	5 5	-0.27853912
-1.2174067	8 5	-0.24218604
-1.4242686	6 5	-0.22838259
-1.3365643	4 5	-0.2042404
-2.2893703	- 5	-0.19102447
-2.1415117	> 5	-0.19102447
-1.320799	9 5	-0.24393465
-1.0886769	$ 5	-0.19102447
-2.711722	l 8	-0.19102447
-2.5900836	c 8	-0.19102447
-2.4089935	d 8	-0.19102447
-2.763538	t 8	-0.19102447
-1.3503026	1 8	-0.32185683
-2.0022829	. 8	-0.21556945
-2.557867	| 8	-0.19102447
-1.4039527	2 8	-0.21864714
-1.5148958	0 8	-0.22838259
-2.5518596	' 8	-0.19102447
-2.8919115	e 8	-0.19102447
-2.269091	# 8	-0.24731633
-2.3466198	y 8	-0.19102447
-2.2482996	, 8	-0.19102447
-2.2391539	f 8	-0.24158522
-2.4653888	= 8	-0.19102447
-1.8960003	: 8	-0.19102447
-1.9328902	/ 8	-0.19102447
-1.483744	% 8	-0.19102447
-1.488154	3 8	-0.20312358
-1.3665165	7 8	-0.2042404
-1.9750504	[ 8	-0.19102447
-2.317145	" 8	-0.19102447
-1.503825	5 8	-0.2494851
-1.3229002	8 8	-0.2358447
-1.6361942	6 8	-0.19102447
-1.2771839	4 8	-0.23625593
-2.2723777	- 8	-0.19102447
-2.1120737	> 8	-0.19102447
-1.5568007	9 8	-0.21755841
-2.6170588	d 6	-0.19102447
-2.7799442	s 6	-0.19102447
-2.7468235	t 6	-0.19102447
-1.4719385	1 6	-0.2585182
-1.8358374	. 6	-0.36802763
-2.542096	| 6	-0.19102447
-2.6526272	m 6	-0.19102447
-1.5738772	2 6	-0.22150856
-1.3632201	0 6	-0.2743686
-2.5363483	' 6	-0.19102447
-2.8742175	e 6	-0.19102447
-2.520466	# 6	-0.23525798
-1.9564154	, 6	-0.19102447
-2.4821887	f 6	-0.19102447
-2.4407234	z 6	-0.19102447
-2.0118752	= 6	-0.19102447
-1.8899616	: 6	-0.19102447
-2.2911081	/ 6	-0.19102447
-1.8332504	% 6	-0.19102447
-1.3646522	3 6	-0.24543233
-1.7517729	7 6	-0.22064947
-1.9920307	( 6	-0.19102447
-1.9644752	[ 6	-0.19102447
-2.3034327	" 6	-0.19102447
-1.5021229	5 6	-0.23714644
-1.4641795	8 6	-0.20067662
-1.419484	6 6	-0.21556945
-1.475344	4 6	-0.20930196
-1.9058547	- 6	-0.19102447
-2.0980706	> 6	-0.19102447
-1.2604787	9 6	-0.22064947
-1.0831952	× 6	-0.19102447
-2.5979164	c 4	-0.19102447
-2.6426454	d 4	-0.19102447
-1.3507177	1 4	-0.21873747
-2.004029	. 4	-0.21363139
-2.3214672	| 4	-0.19102447
-2.6776671	m 4	-0.19102447
-1.3596076	2 4	-0.22605988
-1.3244324	0 4	-0.24287376
-2.559828	' 4	-0.19102447
-2.9010363	e 4	-0.19102447
-2.1446981	# 4	-0.21054824
-1.7489386	, 4	-0.19102447
-2.3524249	v 4	-0.19102447
-1.552152	{ 4	-0.19102447
-2.3031251	/ 4	-0.19102447
-1.3159039	3 4	-0.22539198
-1.2889543	7 4	-0.2055844
-2.0119064	( 4	-0.19102447
-1.9804362	[ 4	-0.19102447
-2.324167	" 4	-0.19102447
-1.7192208	5 4	-0.19102447
-1.4666617	8 4	-0.21627696
-1.3442564	6 4	-0.26088223
-1.3347526	4 4	-0.22605988
-1.9112626	- 4	-0.22838259
-1.3750811	– 4	-0.19102447
-1.8507246	> 4	-0.19102447
-1.3851117	9 4	-0.22107875
-1.0859274	× 4	-0.19102447
-2.9486642	d “	-0.19102447
-2.3188088	# “	-0.23046356
-2.6224298	n “	-0.19102447
-2.2267482	( “	-0.19102447
-2.1814446	i ”	-0.51470375
-2.8504648	. ”	-0.19102447
-2.6708016	h ”	-0.19102447
-2.6324701	2 ”	-0.19102447
-2.7011464	' ”	-0.19102447
-2.5601058	e ”	-0.24158522
-2.2385974	ı ”	-0.24158522
-2.3632772	, ”	-0.19102447
-2.8511636	n ”	-0.19102447
-2.323949	k ”	-0.24158522
-2.6726193	ü ”	-0.19102447
-2.596093	z ”	-0.19102447
-2.560057	3 ”	-0.19102447
-2.4636037	8 ”	-0.19102447
-1.723428	p -	-0.21556945
-1.8933476	a -	-0.24528489
-1.8523788	l -	-0.24278773
-1.6198927	c -	-0.57269573
-1.8553214	i -	-0.23462442
-2.0349903	o -	-0.19102447
-1.9215515	d -	-0.24158522
-2.099869	j -	-0.19102447
-1.7501673	u -	-0.2055844
-1.7047836	s -	-0.20820522
-1.7803849	t -	-0.22911125
-1.6287105	1 -	-0.39015993
-1.7897277	g -	-0.19102447
-2.4212043	| -	-0.19102447
-2.0261142	h -	-0.19102447
-1.7336946	m -	-0.2178712
-2.2137368	b -	-0.19102447
-1.975523	r -	-0.20930196
-1.4964441	2 -	-0.41918012
-1.3530253	0 -	-0.44296944
-1.8879452	x -	-0.19102447
-2.4171686	' -	-0.19102447
-1.8119977	e -	-0.24773134
-2.7665248	# -	-0.19102447
-2.2627933	y -	-0.19102447
-1.9976724	ı -	-0.19102447
-1.923293	ç -	-0.19102447
-2.361117	) -	-0.19102447
-1.6439769	f -	-0.3165101
-1.7623566	n -	-0.21755841
-2.1867719	ş -	-0.19102447
-1.8150885	k -	-0.20312358
-2.4130876	ü -	-0.19102447
-1.5346768	z -	-0.20723271
-2.2263298	v -	-0.19102447
-1.790587	ğ -	-0.19102447
-1.5591655	* -	-0.19102447
-2.162661	w -	-0.19102447
-1.3550497	3 -	-0.40228796
-1.2127061	7 -	-0.36752582
-2.084196	] -	-0.19102447
-1.1601343	5 -	-0.40228796
-1.3111422	8 -	-0.36752582
-1.330472	6 -	-0.41918012
-1.3222781	4 -	-0.57269573
-2.0204225	- -	-0.26925927
-1.9889778	> -	-0.19102447
-1.3719665	9 -	-0.32973728
-1.3661876	! -	-0.19102447
-0.86064196	û -	-0.19102447
-2.4005954	a ’	-0.27086204
-2.7295187	l ’	-0.19102447
-2.158344	i ’	-0.40042302
-2.2279747	d ’	-0.24158522
-2.1701455	u ’	-0.25429502
-2.8152907	s ’	-0.19102447
-2.3535593	t ’	-0.22838259
-2.5889595	1 ’	-0.19102447
-2.255044	m ’	-0.24158522
-2.2809584	r ’	-0.22838259
-1.8675944	0 ’	-0.23399176
-2.5679455	' ’	-0.19102447
-2.3538623	e ’	-0.22838259
-2.0374484	ı ’	-0.27086204
-1.9845129	ç ’	-0.19102447
-1.8620024	) ’	-0.24158522
-2.2808347	n ’	-0.22838259
-2.0300584	ş ’	-0.19102447
-2.27639	k ’	-0.26925927
-2.283831	ü ’	-0.24158522
-2.0810795	v ’	-0.19102447
-2.4553351	3 ’	-0.19102447
-1.9842694	7 ’	-0.19102447
-2.1813362	] ’	-0.19102447
-2.1057827	5 ’	-0.19102447
-2.0278597	6 ’	-0.19102447
-2.370913	4 ’	-0.19102447
-2.3714275	9 ’	-0.19102447
-2.8430638	l +	-0.19102447
-2.704927	c +	-0.19102447
-2.764455	i +	-0.19102447
-2.9305959	s +	-0.19102447
-2.891402	t +	-0.19102447
-2.5292861	. +	-0.19102447
-2.6505294	g +	-0.19102447
-2.638219	h +	-0.19102447
-2.6553633	b +	-0.19102447
-2.8069139	r +	-0.19102447
-2.2871225	2 +	-0.19102447
-2.2845829	0 +	-0.19102447
-2.7575269	e +	-0.19102447
-2.8144965	n +	-0.19102447
-2.5660257	z +	-0.19102447
-2.6664264	/ +	-0.19102447
-2.4450738	9 +	-0.19102447
-3.5638456	# پ	-0.19102447
-3.3789818	# ی	-0.19102447
-0.41185474	پ ی	-0.19102447
-1.1039304	ف ی	-0.19102447
-1.1045948	ز ی	-0.19102447
-1.3049233	ن ی	-0.19102447
-1.5079417	ا ی	-0.19102447
-0.8861848	آ ی	-0.19102447
-0.7111508	ک ی	-0.19102447
-0.8855151	ق ی	-0.19102447
-1.3645444	ی ش	-0.19102447
-1.5220515	ا ش	-0.19102447
-0.71366554	ع ش	-0.19102447
-0.88614	ش ر	-0.19102447
-0.41206458	ط ر	-0.19102447
-1.1055496	د ر	-0.19102447
-0.71156895	ب ر	-0.19102447
-1.5102618	ا ر	-0.19102447
-1.0112603	ي ر	-0.19102447
-0.71156895	ج ر	-0.19102447
-0.41206458	ۇ ر	-0.19102447
-3.4837425	# ف	-0.19102447
-1.3105247	ر ف	-0.19102447
-1.1867154	ح ف	-0.19102447
-0.8963703	ن ف	-0.26925927
-1.2524265	و ف	-0.19102447
-3.5144198	# ت	-0.19102447
-1.1091235	ف ت	-0.19102447
-1.0128996	م ت	-0.19102447
-0.41290498	س ت	-0.19102447
-1.3640224	ی ہ	-0.19102447
-1.0134332	ت ہ	-0.19102447
-3.5638456	# ط	-0.19102447
-1.3105247	ر ز	-0.19102447
-0.8963703	ن ز	-0.26925927
-1.517297	ا ز	-0.19102447
-1.2524265	و ز	-0.19102447
-0.8880198	ه ز	-0.19102447
-3.5638456	# ф	-0.19102447
-0.4124846	ф к	-0.19102447
-0.8452528	с к	-0.22838259
-1.6749221	и к	-0.19102447
-1.358785	л к	-0.19102447
-1.6957656	е к	-0.19102447
-1.4437617	д к	-0.19102447
-2.511199	# с	-0.23525798
-1.3057458	к с	-0.19102447
-1.2866243	е с	-0.19102447
-1.4801221	н с	-0.19102447
-1.0095637	з с	-0.19102447
-1.3051656	п с	-0.19102447
-1.2480884	ы с	-0.19102447
-1.2492521	в с	-0.19102447
-3.076394	# и	-0.19102447
-0.8927839	к и	-0.19102447
-1.1001681	с и	-0.19102447
-0.9431212	л и	-0.19102447
-0.68483746	м и	-0.19102447
-1.3005067	п и	-0.19102447
-0.88426816	г и	-0.19102447
-1.3955837	р и	-0.19102447
-1.2469598	х и	-0.19102447
-0.836207	т и	-0.19102447
-0.88426816	ч и	-0.19102447
-3.428211	# л	-0.19102447
-1.5125942	с л	-0.19102447
-1.6716998	и л	-0.19102447
-1.3570919	л л	-0.19102447
-1.358037	б л	-0.19102447
-1.4017476	а л	-0.19102447
-1.2495296	ы л	-0.19102447
-3.275892	# е	-0.19102447
-1.2969339	к е	-0.19102447
-1.4965241	с е	-0.19102447
-0.9411713	л е	-0.19102447
-1.6686716	е е	-0.19102447
-1.4699644	н е	-0.19102447
-1.347369	м е	-0.19102447
-1.0046073	з е	-0.19102447
-1.4272904	д е	-0.19102447
-0.70906633	щ е	-0.19102447
-0.72903496	р е	-0.19102447
-0.83412665	в е	-0.19102447
-0.88240445	ч е	-0.19102447
-0.41080704	њ е	-0.19102447
-2.7743928	1 –	-0.19102447
-2.7043927	2 –	-0.19102447
-2.089137	0 –	-0.24158522
-2.5623698	5 –	-0.19102447
-2.101332	6 –	-0.19102447
-2.157238	4 –	-0.19102447
-2.524952	9 –	-0.19102447
-2.8450375	' ‏	-0.19102447
-1.313577	‎ ‏	-0.19102447
-1.3635347	ل ‏	-0.19102447
-2.8126907	g ‎	-0.19102447
-3.5144198	# ‎	-0.19102447
-0.21082416	‏ ‎	-0.3022561
-0.63612723	‎ ‎	-0.23525798
-1.3142152	‎ أ	-0.19102447
-3.1522043	# ح	-0.19102447
-1.0120633	ت ح	-0.19102447
-0.41269472	أ ح	-0.19102447
-1.517297	ا ح	-0.19102447
-1.2524265	و ح	-0.19102447
-3.1807306	# م	-0.19102447
-0.77275085	ح م	-0.26925927
-1.3635347	ل م	-0.19102447
-3.5144198	# د	-0.19102447
-1.3119559	ر د	-0.19102447
-1.1878854	ح د	-0.19102447
-1.0128996	م د	-0.19102447
-3.428211	# ن	-0.19102447
-1.1843848	ح ن	-0.19102447
-1.5125942	ا ن	-0.19102447
-1.2495296	و ن	-0.19102447
-0.41227454	إ ن	-0.19102447
-0.7119875	خ ن	-0.19102447
-0.4714318	آ ن	-0.19102447
-0.89772326	ن ب	-0.19102447
-1.1080799	ف ل	-0.19102447
-0.7128257	ب ل	-0.19102447
-0.8457562	ا ل	-0.19102447
-0.7128257	ث ل	-0.19102447
-0.7128257	ع ل	-0.19102447
-2.0829504	l â	-0.22064947
-2.8070576	c â	-0.19102447
-2.7560613	g â	-0.19102447
-2.7443662	h â	-0.19102447
-3.4028993	# â	-0.19102447
-2.7011147	f â	-0.19102447
-2.5933027	n â	-0.26925927
-2.0417042	k â	-0.24308887
-2.5978858	# ا	-0.28875512
-1.3545913	ی ا	-0.19102447
-1.3034388	ر ا	-0.19102447
-1.0079054	ت ا	-0.19102447
-0.69116825	ز ا	-0.19102447
-1.0079054	م ا	-0.19102447
-1.3035244	ن ا	-0.19102447
-1.3505906	ل ا	-0.19102447
-0.88489115	ه ا	-0.19102447
-0.411645	ئ ا	-0.19102447
-3.1386142	# б	-0.19102447
-1.6749221	и б	-0.19102447
-1.3595825	м б	-0.19102447
-0.8873923	у б	-0.19102447
-1.4031451	а б	-0.19102447
-1.0331699	о б	-0.19102447
-3.428211	# н	-0.19102447
-1.692285	е н	-0.19102447
-1.358037	б н	-0.19102447
-1.4818383	н н	-0.19102447
-1.0318849	д н	-0.19102447
-0.8277195	а н	-0.21556945
-1.2495296	ы н	-0.19102447
-3.2550535	i ²	-0.19102447
-2.599091	m ²	-0.19102447
-3.54743	# ²	-0.19102447
-2.1185145	a <	-0.51470375
-2.2416053	i <	-0.25244418
-2.7636707	o <	-0.19102447
-2.5111275	u <	-0.26925927
-2.7885149	s <	-0.19102447
-2.531009	t <	-0.26925927
-2.3017938	1 <	-0.19102447
-1.3323867	. <	-0.76298696
-2.5248618	g <	-0.19102447
-2.5499098	| <	-0.19102447
-2.245411	m <	-0.24158522
-2.121677	r <	-0.28309494
-2.024204	2 <	-0.24158522
-2.222324	0 <	-0.24158522
-2.5440347	' <	-0.19102447
-2.4939146	e <	-0.24158522
-1.8246142	ı <	-0.33780885
-1.5784979	, <	-0.42719483
-2.269651	ç <	-0.19102447
-1.255637	) <	-0.4808076
-2.4556344	n <	-0.24158522
-2.4560895	k <	-0.19102447
-2.4480412	z <	-0.19102447
-2.1836333	: <	-0.19102447
-1.9985554	( <	-0.19102447
-1.227136	] <	-0.40042302
-1.83686	" <	-0.3022561
-2.3422003	8 <	-0.19102447
-1.475349	> <	-0.28451297
-1.230947	} <	-0.19102447
-0.7020529	ς <	-0.19102447
-2.7112095	p >	-0.19102447
-3.1273417	a >	-0.19102447
-2.8799815	l >	-0.19102447
-2.7996783	d >	-0.19102447
-2.6253445	t >	-0.19102447
-2.6708016	h >	-0.19102447
-2.3352456	r >	-0.22462353
-2.5601058	e >	-0.19102447
-2.6352093	f >	-0.19102447
-2.8527412	k >	-0.19102447
-2.4719741	v >	-0.19102447
-2.6955051	/ >	-0.19102447
-2.3819246	7 >	-0.19102447
-1.2758819	" >	-0.5185962
-2.6058931	c 9	-0.19102447
-2.6515205	d 9	-0.19102447
-1.1769826	1 9	-0.5340564
-2.2755988	. 9	-0.19102447
-2.1269286	| 9	-0.24158522
-2.686345	m 9	-0.19102447
-2.5611694	b 9	-0.19102447
-1.360113	2 9	-0.2358447
-1.4102625	0 9	-0.26721388
-2.3838425	# 9	-0.23714644
-1.7509426	, 9	-0.19102447
-2.2474205	f 9	-0.19102447
-1.745685	= 9	-0.22064947
-1.9021239	: 9	-0.19102447
-2.5738924	/ 9	-0.19102447
-1.4865719	% 9	-0.19102447
-1.5670481	3 9	-0.22406939
-2.3900914	_ 9	-0.19102447
-1.3678576	7 9	-0.20312358
-1.9858897	[ 9	-0.19102447
-1.5998967	5 9	-0.22064947
-1.4674922	8 9	-0.21873747
-1.4226679	6 9	-0.2533686
-1.1825618	4 9	-0.28848138
-2.2807908	- 9	-0.19102447
-1.3763862	– 9	-0.19102447
-2.1265433	> 9	-0.19102447
-1.1253868	9 9	-0.27362138
-2.1139283	p ;	-0.22064947
-2.9621577	a ;	-0.19102447
-2.4898152	l ;	-0.19102447
-2.5900836	c ;	-0.19102447
-2.5044343	i ;	-0.3022561
-2.7716763	o ;	-0.19102447
-2.6339478	d ;	-0.19102447
-2.7533522	u ;	-0.19102447
-2.6883187	. ;	-0.19102447
-2.519886	h ;	-0.19102447
-2.6691592	m ;	-0.19102447
-2.5460398	b ;	-0.19102447
-2.1242104	r ;	-0.42719483
-1.975088	x ;	-0.19102447
-2.5518596	' ;	-0.19102447
-2.6789408	e ;	-0.19102447
-2.5872421	y ;	-0.19102447
-2.3935375	ı ;	-0.26925927
-2.4967604	f ;	-0.19102447
-2.1221735	n ;	-0.42719483
-2.3017774	ş ;	-0.19102447
-2.6922975	k ;	-0.19102447
-2.5379834	ü ;	-0.19102447
-2.4554844	z ;	-0.19102447
-1.8395998	% ;	-0.19102447
-2.4422414	3 ;	-0.19102447
-2.1715508	] ;	-0.19102447
-2.3484755	8 ;	-0.19102447
-2.1120737	> ;	-0.19102447
-2.3592825	9 ;	-0.19102447
-1.3628536	ل ث	-0.19102447
-1.5211843	ا ث	-0.19102447
-1.3119559	ر ي	-0.19102447
-1.1093898	ز ي	-0.19102447
-1.3616617	ل ي	-0.19102447
-0.71324545	ث ي	-0.19102447
-3.1877108	# ع	-0.19102447
-1.0134332	ت ى	-0.19102447
-1.3628536	ل ى	-0.19102447
-3.5638456	# 중	-0.19102447
-0.41321412	중 동	-0.19102447
-3.0143864	l î	-0.19102447
-2.9573498	m î	-0.19102447
-2.9861298	r î	-0.19102447
-2.7382417	f î	-0.19102447
-2.9844556	n î	-0.19102447
-2.9385164	# «	-0.20930196
-3.0136824	u »	-0.19102447
-2.7855496	1 »	-0.19102447
-3.1920736	e »	-0.19102447
-2.9625769	k »	-0.19102447
-2.4249604	w »	-0.19102447
-1.0330064	! »	-0.26925927
-2.8271637	i !	-0.26925927
-3.0548375	s !	-0.19102447
-2.7443662	h !	-0.19102447
-2.9339333	r !	-0.19102447
-3.157445	e !	-0.19102447
-2.0704043	# !	-0.62112784
-2.9324062	k !	-0.19102447
-2.1301448	< !	-0.19102447
-2.3890882	p ?	-0.2042404
-2.8799815	l ?	-0.19102447
-2.7363753	c ?	-0.19102447
-2.9251335	o ?	-0.19102447
-2.9681942	s ?	-0.19102447
-2.9271436	t ?	-0.19102447
-2.6708016	h ?	-0.19102447
-2.830561	m ?	-0.19102447
-2.8452687	r ?	-0.19102447
-2.0600903	x ?	-0.19102447
-2.739924	y ?	-0.19102447
-2.6726193	ü ?	-0.19102447
-2.6955051	/ ?	-0.19102447
-2.4739103	4 ?	-0.19102447
-3.0268598	a &	-0.19102447
-2.528064	l &	-0.19102447
-2.648134	c &	-0.19102447
-2.8322716	o &	-0.19102447
-2.2611868	s &	-0.23399176
-2.8276913	t &	-0.19102447
-2.1130166	1 &	-0.20723271
-2.7519639	. &	-0.19102447
-2.5921729	g &	-0.19102447
-2.5795817	h &	-0.19102447
-2.7390785	r &	-0.19102447
-2.2622004	2 &	-0.19102447
-2.256801	0 &	-0.26925927
-2.5238116	e &	-0.22838259
-2.6475635	y &	-0.19102447
-2.749318	n &	-0.19102447
-2.5233474	= &	-0.19102447
-2.20681	] &	-0.19102447
-1.7277042	5 &	-0.26925927
-1.5672266	8 &	-0.19102447
-2.3558753	6 &	-0.19102447
-1.8725152	4 &	-0.19102447
-1.8597941	9 &	-0.19102447
-2.8052392	i q	-0.26925927
-2.9610944	o q	-0.19102447
-2.8392644	d q	-0.19102447
-2.9451034	u q	-0.19102447
-2.29318	s q	-0.27166572
-2.8688533	m q	-0.19102447
-2.5747602	r q	-0.26925927
-1.7008072	x q	-0.19102447
-2.7992258	e q	-0.26925927
-2.2103493	# q	-0.7109984
-1.1393296	? q	-0.24158522
-2.727337	2 °	-0.19102447
-2.7275097	0 °	-0.19102447
-2.6437604	3 °	-0.19102447
-2.5823364	5 °	-0.19102447
-2.15407	8 °	-0.19102447
-3.0343714	r …	-0.19102447
-2.4389696	# м	-0.43488312
-1.6749221	и м	-0.19102447
-1.6957656	е м	-0.19102447
-0.8873923	у м	-0.19102447
-1.1448499	а м	-0.19102447
-1.444977	о м	-0.19102447
-1.3642527	м у	-0.19102447
-1.450103	д у	-0.19102447
-1.3130431	п у	-0.19102447
-3.5144198	# з	-0.19102447
-1.6814396	и з	-0.19102447
-1.7028116	е з	-0.19102447
-0.8886483	у з	-0.19102447
-3.4550898	# я	-0.19102447
-1.5149393	с я	-0.19102447
-1.2676426	и я	-0.26925927
-1.6957656	е я	-0.19102447
-1.8093122	а я	-0.19102447
-1.251825	в я	-0.19102447
-2.205063	( و	-0.19102447
-1.1070387	ف و	-0.19102447
-1.0112286	م و	-0.19102447
-1.3579398	ل و	-0.19102447
-0.7124064	خ و	-0.19102447
-0.4124846	ص و	-0.19102447
-3.54743	# ه	-0.19102447
-1.1103551	ز ه	-0.19102447
-0.71366554	ج ه	-0.19102447
-2.8673236	l é	-0.19102447
-3.0633912	i é	-0.19102447
-2.2743175	d é	-0.19102447
-2.9552963	s é	-0.19102447
-2.9148998	t é	-0.19102447
-2.6718645	g é	-0.19102447
-2.659667	h é	-0.19102447
-2.818512	m é	-0.19102447
-2.6749227	b é	-0.19102447
-2.0437589	r é	-0.33780885
-3.2579157	# é	-0.19102447
-2.7286367	y é	-0.19102447
-2.3053687	f é	-0.19102447
-2.8385942	n é	-0.19102447
-2.5858376	z é	-0.19102447
-3.5638456	# 살	-0.19102447
-0.41321412	살 아	-0.19102447
-0.41321412	아 있	-0.19102447
-0.41321412	있 다	-0.19102447
-1.7050797	е й	-0.19102447
-1.4499466	о й	-0.19102447
-3.4028993	# д	-0.19102447
-1.668501	и д	-0.19102447
-1.2866243	е д	-0.19102447
-0.94550383	б д	-0.26925927
-1.0095637	з д	-0.19102447
-1.0101513	й д	-0.19102447
-1.4007627	р д	-0.19102447
-0.77245724	о д	-0.19102447
-1.291157	к а	-0.19102447
-1.3388908	л а	-0.19102447
-0.6825514	б а	-0.22838259
-0.6209667	н а	-0.22838259
-1.233933	« а	-0.19102447
-0.9395769	м а	-0.19102447
-1.0230342	д а	-0.19102447
-1.3866639	а а	-0.19102447
-0.88826203	п а	-0.26925927
-0.70740587	щ а	-0.19102447
-0.8799318	г а	-0.19102447
-1.233933	ы а	-0.19102447
-0.8331566	х а	-0.26925927
-1.2391485	т а	-0.19102447
-0.83215845	в а	-0.19102447
-0.40997073	ђ а	-0.19102447
-0.40997073	ж а	-0.19102447
-0.8799318	ч а	-0.19102447
-3.5638456	# מ	-0.19102447
-0.4130389	מ א	-0.19102447
-0.71351296	ה א	-0.19102447
-0.7138631	א ל	-0.19102447
-3.535152	# י	-0.19102447
-0.4130389	ל י	-0.19102447
-3.5638456	# 축	-0.19102447
-0.41321412	축 구	-0.19102447
-3.0343714	r ų	-0.19102447
-1.3647113	л і	-0.19102447
-3.247824	i ể	-0.19102447
-2.8826363	y ể	-0.19102447
-2.3942673	l ä	-0.24158522
-3.0880382	s ä	-0.19102447
-2.6779943	t ä	-0.19102447
-2.9412909	m ä	-0.19102447
-2.9680247	r ä	-0.19102447
-2.3505576	f ä	-0.19102447
-3.1056416	s ´	-0.19102447
-3.2104816	e ´	-0.19102447
-2.9784863	k ´	-0.19102447
-2.6437604	3 ´	-0.19102447
-2.5009112	6 ´	-0.19102447
-3.082414	o ß	-0.19102447
-3.535152	# 자	-0.19102447
-0.4130389	엔 자	-0.19102447
-0.7138631	자 들	-0.19102447
-0.41321412	들 의	-0.19102447
-3.1986485	i }	-0.19102447
-3.0399456	t }	-0.19102447
-2.9680247	r }	-0.19102447
-2.7144494	0 }	-0.19102447
-3.4550898	# }	-0.19102447
-0.3903198	} }	-0.27166572
-3.5638456	# إ	-0.19102447
-3.535152	# خ	-0.19102447
-1.3628536	ل خ	-0.19102447
-3.1522043	# п	-0.19102447
-2.5396962	" п	-0.19102447
-1.2689106	и п	-0.24158522
-1.2907305	е п	-0.19102447
-1.309875	п п	-0.19102447
-3.535152	# щ	-0.19102447
-1.3636848	б щ	-0.19102447
-2.8663592	i č	-0.19102447
-3.2498178	e č	-0.19102447
-3.54743	# č	-0.19102447
-3.54743	# γ	-0.19102447
-0.8892776	ρ γ	-0.19102447
-0.8892776	α γ	-0.19102447
-0.8894636	γ ρ	-0.19102447
-0.8892776	ε ρ	-0.19102447
-0.71366554	κ ρ	-0.19102447
-0.47227058	γ ί	-0.19102447
-0.8892776	ρ ί	-0.19102447
-0.8892776	ε ί	-0.19102447
-1.0136484	ί π	-0.19102447
-1.1102194	ο π	-0.19102447
-0.7138631	π η	-0.19102447
-0.4130389	η ς	-0.19102447
-0.88926446	ω ς	-0.19102447
-3.535152	# ج	-0.19102447
-1.1886321	ح ج	-0.19102447
-3.1754105	# آ	-0.19102447
-1.2548119	و آ	-0.19102447
-1.3640224	ی ک	-0.19102447
-1.2548119	و ک	-0.19102447
-3.1877108	# ה	-0.19102447
-0.7138631	ה ש	-0.19102447
-0.41321412	ש פ	-0.19102447
-0.41321412	פ ע	-0.19102447
-0.41311532	ע ת	-0.19102447
-0.41311532	ו ת	-0.19102447
-0.41311532	ר ת	-0.19102447
-3.535152	# թ	-0.19102447
-0.71351296	թ թ	-0.19102447
-3.5638456	# գ	-0.19102447
-0.41321412	գ ր	-0.19102447
-0.41321412	ր ի	-0.19102447
-0.41321412	ի պ	-0.19102447
-3.1877108	# გ	-0.19102447
-0.71351296	გ რ	-0.19102447
-0.88904893	ე რ	-0.19102447
-0.7128257	რ ი	-0.19102447
-0.7128257	პ ი	-0.19102447
-0.7128257	მ ი	-0.19102447
-0.41269472	ტ ი	-0.19102447
-0.7128257	ლ ი	-0.19102447
-3.535152	# პ	-0.19102447
-0.69361836	ი პ	-0.26925927
-1.1108093	ი ს	-0.19102447
-1.1084266	ი ა	-0.19102447
-0.7128257	პ ა	-0.19102447
-0.7128257	მ ა	-0.19102447
-0.41269472	ყ ა	-0.19102447
-0.41269472	შ ა	-0.19102447
-0.69398326	ა ნ	-0.19102447
-0.7138631	ნ დ	-0.19102447
-0.71366554	გ ე	-0.19102447
-0.41311532	დ ე	-0.19102447
-0.41311532	ვ ე	-0.19102447
-0.71351296	რ მ	-0.19102447
-0.88904893	ე მ	-0.19102447
-3.5638456	# 인	-0.19102447
-0.41321412	인 플	-0.19102447
-0.41321412	플 루	-0.19102447
-0.41321412	루 엔	-0.19102447
-2.851906	p ă	-0.19102447
-3.1807306	# г	-0.26925927
-1.189408	я г	-0.19102447
-1.4095339	р г	-0.19102447
-3.428211	# р	-0.19102447
-1.5125942	с р	-0.19102447
-1.2879887	е р	-0.19102447
-1.4017476	а р	-0.19102447
-1.3067298	п р	-0.19102447
-0.8867657	г р	-0.19102447
-0.41227454	́ р	-0.19102447
-3.4837425	# ы	-0.19102447
-1.517297	с ы	-0.19102447
-1.4060042	р ы	-0.19102447
-1.2524265	ы ы	-0.19102447
-0.5780382	т ы	-0.19102447
-3.4837425	# х	-0.19102447
-2.372716	: х	-0.19102447
-1.0097243	и х	-0.19102447
-1.8128935	а х	-0.19102447
-1.2524265	ы х	-0.19102447
-3.1522043	# т	-0.19102447
-1.517297	с т	-0.19102447
-1.6992743	е т	-0.19102447
-1.1873678	я т	-0.19102447
-1.2524265	ы т	-0.19102447
-2.975604	d ị	-0.19102447
-2.870841	c ú	-0.19102447
-3.1360917	s ú	-0.19102447
-3.2550535	i û	-0.19102447
-2.9668114	d û	-0.19102447
-3.0121686	k û	-0.19102447
-3.1360917	s ê	-0.19102447
-2.8112066	h ê	-0.19102447
-3.1360917	s è	-0.19102447
-2.8224301	g è	-0.19102447
-2.9997582	m ō	-0.19102447
-0.41321412	ō ͘	-0.19102447
-0.7138631	א ב	-0.19102447
-0.41321412	ב ן	-0.19102447
-3.54743	# ق	-0.19102447
-0.8892776	ش ق	-0.19102447
-1.2553428	و ق	-0.19102447
-0.8895736	ق ۇ	-0.19102447
-3.1877108	# đ	-0.19102447
-0.7138631	đ ạ	-0.19102447
-0.7138631	đ ồ	-0.19102447
-3.0143864	l `	-0.19102447
-3.216648	i `	-0.19102447
-2.9861298	r `	-0.19102447
-3.4837425	# `	-0.19102447
-2.313313	] `	-0.19102447
-3.5638456	# τ	-0.19102447
-1.0139234	ί ω	-0.19102447
-0.41311532	τ ω	-0.19102447
-0.8892776	ε ω	-0.19102447
-3.535152	# ν	-0.19102447
-0.47219437	ω ν	-0.26925927
-3.1754105	# α	-0.19102447
-0.71351296	κ α	-0.19102447
-3.535152	# σ	-0.19102447
-0.71351296	υ σ	-0.19102447
-0.29631564	σ ε	-0.19102447
-0.71351296	λ ε	-0.19102447
-0.8886483	ρ ο	-0.19102447
-0.59673595	ί ο	-0.19102447
-0.41290498	έ ο	-0.19102447
-0.41290498	μ ο	-0.19102447
-0.69398326	ο υ	-0.19102447
-3.535152	# κ	-0.19102447
-0.88904893	α κ	-0.19102447
-0.8895736	α ι	-0.19102447
-1.517297	с в	-0.19102447
-1.0120633	з в	-0.19102447
-1.4458652	д в	-0.19102447
-1.2537688	т в	-0.19102447
-1.0338964	о в	-0.19102447
-3.5638456	# ś	-0.19102447
-3.5638456	# ص	-0.19102447
-1.410367	р ђ	-0.19102447
-2.960134	d ‘	-0.19102447
-3.1754105	# ‘	-0.26925927
-2.2434034	( −	-0.19102447
-2.8960698	y —	-0.19102447
-2.8087623	1 ×	-0.19102447
-2.7409751	0 ×	-0.19102447
-2.5549684	8 ×	-0.19102447
-2.566055	4 ×	-0.19102447
-3.1431456	s $	-0.19102447
-2.93457	# $	-0.19102447
-3.0121686	k $	-0.19102447
-3.0911517	t à	-0.19102447
-2.828082	g à	-0.19102447
-2.8154228	b à	-0.19102447
-3.2550535	i ó	-0.19102447
-2.8154228	b ó	-0.19102447
-3.0247743	r ó	-0.19102447
-3.5638456	# 발	-0.19102447
-0.41321412	발 광	-0.19102447
-1.4511044	д ж	-0.19102447
-3.5638456	# ஊ	-0.19102447
-0.41321412	ஊ த	-0.19102447
-0.41321412	த ா	-0.19102447
-0.41321412	ா க	-0.19102447
-0.41321412	க ்	-0.19102447
-3.0599184	l ô	-0.19102447
-3.5638456	# 온	-0.19102447
-0.7138631	י ו	-0.19102447
-0.8897213	ת ר	-0.19102447
-3.5638456	# ئ	-0.19102447
-1.5231756	ا س	-0.19102447
-3.1002235	# о	-0.19102447
-1.3537254	л о	-0.19102447
-1.3549621	б о	-0.19102447
-1.0692667	н о	-0.19102447
-1.2466519	« о	-0.19102447
-1.4375116	д о	-0.19102447
-1.3036071	п о	-0.19102447
-0.9900068	р о	-0.26925927
-1.2479713	в о	-0.19102447
-1.8218666	а ́	-0.19102447
-2.5614934	8 ′	-0.19102447
-2.5168593	6 ′	-0.19102447
-3.2595966	e ~	-0.19102447
-3.5638456	# µ	-0.19102447
-0.7138631	ν έ	-0.19102447
-3.5638456	# μ	-0.19102447
-0.7138631	π ό	-0.19102447
-2.8394425	' λ	-0.19102447
-0.4130389	ό λ	-0.19102447
-2.8208508	1 €	-0.19102447
-2.7548714	0 €	-0.19102447
-2.6032655	5 €	-0.19102447
-3.5638456	# ტ	-0.19102447
-0.7138631	ნ უ	-0.19102447
-1.1102194	ა ლ	-0.19102447
-0.4130389	უ ლ	-0.19102447
-3.5638456	# წ	-0.19102447
-0.41321412	წ ყ	-0.19102447
-0.7138631	ლ ქ	-0.19102447
-0.41321412	ქ ვ	-0.19102447
-0.8895736	ე შ	-0.19102447
-2.9849904	m ã	-0.19102447
-2.468025	ç ã	-0.19102447
-2.835504	g ầ	-0.19102447
-3.017498	r å	-0.19102447
-3.535152	# å	-0.19102447
-3.0688658	o ć	-0.19102447
-3.0547428	u ć	-0.19102447
-3.2645876	i ą	-0.19102447
-1.6847353	и ч	-0.19102447
-1.189408	я ч	-0.19102447
-1.4506354	о ч	-0.19102447
-3.54743	# \	-0.19102447
-1.6120439	{ \	-0.19102447
-2.5764434	4 \	-0.19102447
-2.8523836	' φ	-0.19102447
-1.1108093	د ة	-0.19102447
-3.2936676	a ž	-0.19102447
-3.0607135	u ž	-0.19102447
-2.586831	v ž	-0.19102447
-3.082414	o ł	-0.19102447
-2.2434034	( „	-0.19102447
-3.3024087	a ï	-0.19102447
-3.2595966	e ň	-0.19102447
-2.2434034	( →	-0.19102447
-3.0343714	r ț	-0.19102447
-1.8218666	а њ	-0.19102447

\3-grams:
-2.0875883	d a </s>	0
-2.3701296	t a </s>	0
-2.460659	m a </s>	0
-2.185814	r a </s>	0
-2.3029964	y a </s>	0
-1.562846	ç a </s>	0
-2.2694814	k a </s>	0
-2.007714	v a </s>	0
-1.7809709	w a </s>	0
-2.3058984	a l </s>	0
-2.0784724	l l </s>	0
-2.490411	e l </s>	0
-1.86931	a i </s>	0
-2.194137	c i </s>	0
-2.4451203	s i </s>	0
-2.451106	r i </s>	0
-0.44408876	à i </s>	0
-1.6430597	i o </s>	0
-2.3367445	t o </s>	0
-2.2366002	n d </s>	0
-0.44711956	ể u </s>	0
-2.5658257	e s </s>	0
-2.0085435	k s </s>	0
-2.1674967	n t </s>	0
-1.4759917	i . </s>	0
-1.3956554	u . </s>	0
-1.4820777	r . </s>	0
-1.2791659	ı . </s>	0
-1.4418623	ü . </s>	0
-2.1306977	n g </s>	0
-1.4259883	a | </s>	0
-2.2996259	c h </s>	0
-2.4250455	i r </s>	0
-2.16645	o r </s>	0
-2.4023373	e r </s>	0
-2.6030428	l e </s>	0
-2.18103	c e </s>	0
-2.1096613	i e </s>	0
-2.5013928	d e </s>	0
-1.7745564	u e </s>	0
-2.4595954	a y </s>	0
-1.954092	m ı </s>	0
-2.0388901	r ı </s>	0
-1.8210559	e , </s>	0
-1.0275128	g ) </s>	0
-1.1162944	' ) </s>	0
-2.5163698	a n </s>	0
-2.4625108	i n </s>	0
-2.274342	u n </s>	0
-1.1017268	b n </s>	0
-2.279682	ı n </s>	0
-0.43912387	ể n </s>	0
-2.043426	ı ş </s>	0
-2.1172352	l ü </s>	0
-2.1142273	a z </s>	0
-2.026675	e z </s>	0
-2.2222009	= = </s>	0
-1.2769046	k / </s>	0
-0.4123822	ز ی </s>	0
-0.42860785	ч и </s>	0
-0.42923898	к е </s>	0
-0.63491565	م د </s>	0
-0.31459317	ت ى </s>	0
-0.2154601	중 동 </s>	0
-0.7332684	е й </s>	0
-0.6860954	д а </s>	0
-0.41572392	ђ а </s>	0
-0.8022991	и х </s>	0
-0.2154601	ō ͘ </s>	0
-0.2154601	đ ồ </s>	0
-0.35339597	t à </s>	0
-0.2154601	க ் </s>	0
-0.2154601	# 온 </s>	0
-1.4182835	p p p	-0.14636663
-1.0512667	a p p	-0.22777398
-1.6016612	i p p	-0.14636663
-1.7870053	o p p	-0.14636663
-1.3784473	u p p	-0.14636663
-2.3003786	# p p	-0.14636663
-1.1895643	_ p p	-0.14636663
-1.9156848	p a p	-0.14636663
-1.7392992	c a p	-0.14636663
-1.782937	i a p	-0.14636663
-1.9181442	d a p	-0.14636663
-1.233166	j a p	-0.20952202
-1.647172	s a p	-0.14636663
-2.095019	t a p	-0.14636663
-1.5962961	. a p	-0.14636663
-1.8661188	h a p	-0.14636663
-1.9425128	m a p	-0.18314797
-1.5761261	r a p	-0.17679735
-1.6131791	' a p	-0.14636663
-1.9254829	# a p	-0.23910508
-1.533831	y a p	-0.29887992
-1.6774561	ç a p	-0.14636663
-2.0545053	n a p	-0.14636663
-1.476208	k a p	-0.19733495
-1.788302	z a p	-0.14636663
-1.5959505	v a p	-0.14636663
-1.2981715	= a p	-0.24491502
-1.5371192	/ a p	-0.14636663
-1.2152741	w a p	-0.3141544
-1.9576927	p l p	-0.14636663
-2.101368	a l p	-0.14636663
-2.0193868	l l p	-0.14636663
-2.2385302	u l p	-0.14636663
-1.7566772	p i p	-0.14636663
-1.6692715	a i p	-0.14636663
-1.5923976	l i p	-0.19542834
-1.7133056	c i p	-0.14636663
-1.3926842	d i p	-0.24968065
-1.8558047	t i p	-0.18314797
-1.1209409	h i p	-0.21587944
-1.9541279	b i p	-0.14636663
-1.3291867	r i p	-0.1989091
-1.8149649	e i p	-0.14636663
-1.4428574	# i p	-0.7050848
-1.4547542	y i p	-0.20952202
-1.701644	ç i p	-0.14636663
-1.9044994	n i p	-0.14636663
-1.6755497	ş i p	-0.14636663
-1.6819258	k i p	-0.14636663
-1.8291892	v i p	-0.14636663
-1.4157863	/ i p	-0.14636663
-0.96404177	<s> o p	-0.14636663
-1.2564126	p o p	-0.14636663
-1.4590082	l o p	-0.18314797
-1.4246962	c o p	-0.14636663
-1.0468756	o o p	-0.14636663
-1.8108431	d o p	-0.14636663
-1.6429621	s o p	-0.14636663
-1.0676038	t o p	-0.27399817
-1.4163084	h o p	-0.20952202
-1.294023	r o p	-0.21793765
-1.1803122	e o p	-0.19285153
-1.1780592	# o p	-0.6862631
-1.613854	n o p	-0.14636663
-1.0324492	k o p	-0.24075714
-0.7003502	: o p	-0.14636663
-0.85370386	" o p	-0.14636663
-0.42331448	? o p	-0.14636663
-1.1286165	g d p	-0.14636663
-2.1746943	n d p	-0.14636663
-0.08729242	. j p	-1.0950558
-1.6981841	a u p	-0.14636663
-1.465887	l u p	-0.23910508
-1.4002643	s u p	-0.19991782
-1.5772992	t u p	-0.19285153
-1.2625521	r u p	-0.18608586
-2.1323366	# u p	-0.14636663
-1.8060468	n u p	-0.14636663
-1.5531697	ş u p	-0.14636663
-1.4877685	k u p	-0.20952202
-0.986608	/ u p	-0.14636663
-0.705275	- u p	-0.14636663
-1.7402486	a s p	-0.14636663
-1.2368338	l s p	-0.14636663
-1.6344571	i s p	-0.18314797
-1.532092	o s p	-0.14636663
-1.4503951	d s p	-0.14636663
-1.0137964	j s p	-0.14636663
-1.6123145	s s p	-0.14636663
-1.5075846	t s p	-0.14636663
-1.5025352	. s p	-0.14636663
-1.0705252	g s p	-0.14636663
-1.2186815	b s p	-0.14636663
-1.4230875	r s p	-0.24491502
-1.4828347	' s p	-0.14636663
-1.6247796	e s p	-0.2657521
-1.2225009	# s p	-0.5460774
-1.6033405	n s p	-0.14636663
-1.3942538	k s p	-0.24491502
-1.3443446	ü s p	-0.14636663
-1.0012705	/ s p	-0.28512117
-0.680216	w s p	-0.24491502
-1.1917951	( s p	-0.14636663
-1.1854823	[ s p	-0.14636663
-1.4378766	- s p	-0.14636663
-0.84066707	« s p	-0.14636663
-2.4174151	a t p	-0.14636663
-1.284016	l t p	-0.20952202
-1.9841747	o t p	-0.14636663
-1.1734798	d t p	-0.14636663
-1.9297304	t t p	-0.14636663
-2.1663694	# 1 p	-0.14636663
-1.5879626	: 1 p	-0.14636663
-1.1455666	p . p	-0.14636663
-1.3858863	a . p	-0.14636663
-1.4112927	c . p	-0.14636663
-0.9733051	o . p	-0.20952202
-1.0699271	d . p	-0.14636663
-1.674818	s . p	-0.14636663
-1.5415584	1 . p	-0.14636663
-1.5649679	m . p	-0.14636663
-1.5089332	r . p	-0.14636663
-1.4848039	0 . p	-0.14636663
-0.69975543	x . p	-0.14636663
-1.120438	e . p	-0.23910508
-1.094765	y . p	-0.14636663
-0.42300004	= . p	-0.14636663
-1.496424	w . p	-0.14636663
-2.6148367	# g p	-0.14636663
-1.5168227	| | p	-0.14636663
-1.2200861	e | p	-0.14636663
-1.417159	# | p	-0.4054518
-1.7630459	ı | p	-0.14636663
-1.6373388	) | p	-0.14636663
