\data\
ngram 1=696
ngram 2=4701
ngram 3=19485
ngram 4=48339
ngram 5=82780

\1-grams:
-3.7510254	<unk>	0
0	<s>	-0.52911603
-2.211741	</s>	0
-1.8737457	|	-0.79787505
-1.8037212	c	-0.65367776
-1.9328539	o	-0.7973738
-1.6641433	n	-0.7857981
-2.093893	f	-0.6098468
-1.9831464	l	-0.5435468
-1.8037212	i	-0.85676396
-1.7864325	t	-0.6904798
-2.0202327	=	-0.58834255
-1.9831464	r	-0.548343
-2.562606	ậ	-0.6053383
-1.2940283	#	-1.0487994
-2.040035	k	-0.5356554
-1.738348	m	-0.6273631
-1.7864325	a	-0.9638068
-2.0502856	g	-0.5287004
-1.8601453	u	-0.7139983
-1.9831464	e	-0.8816241
-1.8601453	p	-0.72757185
-2.4200618	[	-0.3510863
-2.0607839	h	-0.5456798
-2.562606	ờ	-0.48554033
-3.4535244	ỳ	-0.22028455
-2.9035401	ỉ	-0.28811646
-1.9572726	s	-0.68279064
-2.5977335	ộ	-0.47215104
-2.4716089	ắ	-0.67593205
-1.9831464	b	-0.5372249
-2.040035	1	-0.7064973
-2.2765117	q	-0.47488427
-2.4200618	â	-0.7155863
-2.4200618	đ	-0.3572178
-2.040035	2	-0.64910614
-2.082574	d	-0.52744925
-1.9921253	]	-0.6836262
-1.9657271	<	-0.87516546
-2.4998746	>	-0.33292872
-2.3526645	z	-0.41467375
-2.117457	w	-0.5196587
-1.9657271	y	-0.64201343
-1.8405113	'	-0.55837816
-3.4535244	小	-0.3040504
-3.6072326	牧	-0.1990459
-3.4535244	・	-0.1990459
-3.4535244	長	-0.3040504
-3.6072326	久	-0.1990459
-3.084461	手	-0.2809201
-2.5301087	の	-0.2230139
-3.4535244	戦	-0.1990459
-3.4535244	い	-0.1990459
-2.0012937	-	-0.5604971
-2.3739889	à	-0.62290806
-2.3526645	á	-0.64151317
-2.4716089	ă	-0.8057629
-2.677866	ữ	-0.39296108
-2.5977335	(	-0.2289912
-2.082574	v	-0.460773
-2.5301087	ê	-0.501691
-2.4716089	ã	-0.56109434
-2.8352232	ể	-0.33693802
-2.6359541	ề	-0.41540867
-2.445071	ố	-0.57456315
-2.677866	ị	-0.4427808
-2.5977335	ự	-0.42838064
-2.7242587	ù	-0.43229485
-2.5977335	ọ	-0.40079808
-1.7333196	.	-0.78910434
-2.4200618	ô	-0.5704001
-2.4716089	ó	-0.45415708
-2.5977335	ò	-0.47891003
-2.4200618	ư	-0.651976
-2.677866	ợ	-0.35843512
-3.2142837	“	-0.2125795
-2.562606	ế	-0.39895493
-2.5977335	”	-0.49974597
-3.6072326	役	-0.1990459
-1.753792	)	-1.0236505
-2.4716089	ả	-0.59601665
-2.7762065	ủ	-0.3002772
-1.6996627	,	-0.7616951
-2.5301087	ứ	-0.4799093
-2.4200618	ạ	-0.604926
-2.5301087	ớ	-0.4110814
-2.6359541	ì	-0.42899734
-2.312921	x	-0.33407268
-2.3964145	ấ	-0.69036466
-2.562606	ệ	-0.39217085
-2.6359541	ỏ	-0.4163417
-2.4998746	í	-0.43718487
-2.7762065	ẽ	-0.49730116
-2.7762065	ỡ	-0.45099086
-2.677866	ẫ	-0.3921655
-2.5977335	ồ	-0.5760329
-2.5977335	ở	-0.4696108
-2.562606	ầ	-0.72315425
-2.677866	ử	-0.35370743
-2.9846468	ễ	-0.26615712
-2.562606	ặ	-0.47703272
-2.0715423	"	-0.5015365
-1.9743495	:	-0.487755
-2.0012937	/	-0.6193429
-2.1826513	0	-0.6026738
-2.2270508	j	-0.50639284
-2.3323383	7	-0.49213803
-2.259391	_	-0.4659822
-2.24292	4	-0.58230585
-2.4716089	ú	-0.45045727
-2.677866	ổ	-0.46520954
-2.7242587	ừ	-0.39983833
-2.7762065	ằ	-0.5056703
-2.677866	ỗ	-0.4206875
-2.677866	ẻ	-0.5489325
-2.5301087	ụ	-0.44040388
-2.7242587	ũ	-0.38357058
-2.445071	é	-0.437271
-2.4998746	?	-0.2850874
-2.562606	ơ	-0.45505843
-2.2765117	;	-0.5784961
-3.6072326	陣	-0.1990459
-3.6072326	岩	-0.1990459
-3.6072326	崎	-0.1990459
-3.6072326	口	-0.1990459
-3.6072326	合	-0.1990459
-3.4535244	…	-0.1990459
-2.7242587	ĩ	-0.32176343
-3.4535244	村	-0.3040504
-3.6072326	上	-0.1990459
-3.6072326	愛	-0.1990459
-2.445071	!	-0.3766447
-3.2142837	*	-0.21210578
-2.24292	6	-0.49756163
-2.1553884	5	-0.5421586
-2.168806	3	-0.55402076
-3.084461	ý	-0.3129895
-2.5977335	ẩ	-0.46376607
-3.2142837	ẳ	-0.28382158
-3.4535244	ẵ	-0.3040504
-2.3323383	8	-0.52385074
-2.9846468	ẹ	-0.25776434
-2.8352232	è	-0.34184638
-2.259391	9	-0.56844926
-3.084461	ب	-0.1990459
-3.4535244	ل	-0.1990459
-3.084461	ا	-0.1990459
-2.9846468	د	-0.2479025
-3.4535244	ع	-0.1990459
-3.2142837	ج	-0.26615718
-3.6072326	ئ	-0.1990459
-2.7242587	с	-0.34796214
-2.8352232	т	-0.30510587
-2.677866	р	-0.33071834
-2.5977335	а	-0.29834637
-2.677866	н	-0.30226558
-3.6072326	ř	-0.1990459
-3.4535244	š	-0.1990459
-3.4535244	π	-0.1990459
-3.084461	ε	-0.1990459
-3.4535244	ρ	-0.1990459
-3.4535244	ι	-0.1990459
-3.6072326	έ	-0.1990459
-3.2142837	τ	-0.1990459
-3.4535244	ς	-0.3040504
-3.2142837	α	-0.26615718
-3.6072326	λ	-0.1990459
-3.6072326	ί	-0.1990459
-3.4535244	κ	-0.1990459
-3.4535244	η	-0.1990459
-3.6072326	σ	-0.1990459
-3.6072326	χ	-0.1990459
-3.6072326	ώ	-0.1990459
-3.6072326	ω	-0.1990459
-3.2142837	ν	-0.26615718
-2.8352232	ر	-0.2265485
-3.084461	س	-0.24838229
-3.4535244	ز	-0.1990459
-3.2142837	م	-0.1990459
-3.6072326	ی	-0.1990459
-3.084461	ن	-0.2479025
-3.6072326	એ	-0.1990459
-3.6072326	ડ	-0.1990459
-3.6072326	વ	-0.1990459
-3.6072326	ે	-0.1990459
-3.4535244	ન	-0.1990459
-3.4535244	્	-0.1990459
-3.6072326	ચ	-0.1990459
-3.6072326	ર	-0.1990459
-3.6072326	સ	-0.1990459
-3.6072326	ઇ	-0.1990459
-3.4535244	나	-0.1990459
-3.6072326	라	-0.1990459
-3.6072326	의	-0.1990459
-3.6072326	ए	-0.1990459
-3.4535244	ड	-0.1990459
-2.9846468	व	-0.2479025
-2.9035401	े	-0.24261546
-2.8352232	ं	-0.39403057
-3.2142837	च	-0.1990459
-2.9035401	र	-0.23936848
-2.7762065	्	-0.2230139
-3.2142837	स	-0.1990459
-3.6072326	इ	-0.1990459
-2.8352232	न	-0.32864165
-3.4535244	א	-0.1990459
-3.6072326	ל	-0.1990459
-3.6072326	י	-0.1990459
-3.6072326	ס	-0.1990459
-3.6072326	ב	-0.1990459
-3.6072326	ר	-0.1990459
-3.6072326	ץ	-0.1990459
-3.6072326	ಅ	-0.1990459
-3.6072326	ಡ	-0.1990459
-2.9035401	್	-0.30631524
-3.4535244	ವ	-0.1990459
-3.6072326	ೆ	-0.1990459
-3.6072326	ಂ	-0.1990459
-3.6072326	ಚ	-0.1990459
-3.6072326	ರ	-0.1990459
-3.4535244	ಸ	-0.3040504
-3.6072326	ಇ	-0.1990459
-3.6072326	ನ	-0.1990459
-3.6072326	ထ	-0.1990459
-3.6072326	ူ	-0.1990459
-3.4535244	း	-0.1990459
-3.6072326	ဆ	-0.1990459
-3.6072326	န	-0.1990459
-3.6072326	်	-0.1990459
-3.6072326	သ	-0.1990459
-3.6072326	ေ	-0.1990459
-3.6072326	ာ	-0.1990459
-3.6072326	ț	-0.1990459
-2.677866	е	-0.2546584
-3.6072326	அ	-0.1990459
-3.6072326	ற	-0.1990459
-3.6072326	்	-0.1990459
-3.6072326	ப	-0.1990459
-3.6072326	ு	-0.1990459
-3.6072326	த	-0.1990459
-3.6072326	ఎ	-0.1990459
-3.6072326	డ	-0.1990459
-3.084461	్	-0.23805644
-3.6072326	వ	-0.1990459
-3.6072326	ె	-0.1990459
-3.4535244	న	-0.3040504
-3.6072326	చ	-0.1990459
-3.6072326	ర	-0.1990459
-3.6072326	స	-0.1990459
-3.6072326	ఇ	-0.1990459
-2.8352232	к	-0.2640976
-3.6072326	ї	-0.1990459
-3.4535244	і	-0.1990459
-2.445071	%	-0.390918
-3.6072326	ß	-0.1990459
-3.6072326	ä	-0.1990459
-2.9846468	õ	-0.28740403
-3.084461	$	-0.26321793
-3.6072326	~	-0.1990459
-3.6072326	葵	-0.1990459
-3.2142837	花	-0.1990459
-3.6072326	寶	-0.1990459
-3.6072326	典	-0.1990459
-3.2142837	ノ	-0.28382158
-3.6072326	ワ	-0.1990459
-3.4535244	ー	-0.1990459
-3.2142837	ル	-0.1990459
-3.084461	ō	-0.24838229
-3.4535244	黒	-0.1990459
-3.6072326	き	-0.1990459
-3.4535244	処	-0.1990459
-3.6072326	女	-0.1990459
-3.6072326	た	-0.1990459
-3.6072326	ち	-0.1990459
-3.6072326	日	-0.1990459
-3.6072326	々	-0.1990459
-3.6072326	糧	-0.1990459
-3.6072326	暗	-0.1990459
-3.4535244	殺	-0.1990459
-3.6072326	遊	-0.1990459
-3.6072326	戯	-0.1990459
-3.6072326	波	-0.1990459
-3.6072326	音	-0.1990459
-3.2142837	レ	-0.1990459
-3.4535244	ソ	-0.3040504
-3.6072326	ダ	-0.1990459
-3.6072326	迷	-0.1990459
-3.6072326	猫	-0.1990459
-3.4535244	イ	-0.1990459
-3.6072326	ン	-0.1990459
-3.6072326	ト	-0.1990459
-3.6072326	ッ	-0.1990459
-3.4535244	カ	-0.1990459
-3.6072326	ビ	-0.1990459
-3.6072326	真	-0.1990459
-3.6072326	月	-0.1990459
-3.6072326	下	-0.1990459
-3.6072326	之	-0.1990459
-3.6072326	茶	-0.1990459
-3.6072326	宴	-0.1990459
-3.6072326	刺	-0.1990459
-3.6072326	客	-0.1990459
-3.6072326	行	-0.1990459
-3.6072326	地	-0.1990459
-3.6072326	獄	-0.1990459
-3.6072326	季	-0.1990459
-3.6072326	節	-0.1990459
-3.6072326	ミ	-0.1990459
-3.6072326	ユ	-0.1990459
-3.4535244	に	-0.1990459
-3.6072326	束	-0.1990459
-3.6072326	を	-0.1990459
-3.6072326	冷	-0.1990459
-3.6072326	眼	-0.1990459
-3.6072326	コ	-0.1990459
-3.6072326	シ	-0.1990459
-3.6072326	還	-0.1990459
-3.6072326	る	-0.1990459
-3.6072326	私	-0.1990459
-3.6072326	闇	-0.1990459
-3.6072326	両	-0.1990459
-3.4535244	罪	-0.1990459
-3.6072326	中	-0.1990459
-3.4535244	無	-0.1990459
-3.6072326	明	-0.1990459
-3.4535244	朝	-0.3040504
-3.6072326	旅	-0.1990459
-3.6072326	路	-0.1990459
-3.6072326	果	-0.1990459
-3.6072326	て	-0.1990459
-3.6072326	残	-0.1990459
-3.6072326	有	-0.1990459
-3.6072326	情	-0.1990459
-3.6072326	回	-0.1990459
-3.6072326	帰	-0.1990459
-3.4535244	業	-0.1990459
-3.6072326	火	-0.1990459
-3.6072326	淵	-0.1990459
-3.6072326	誕	-0.1990459
-3.6072326	生	-0.1990459
-3.6072326	ζ	-0.1990459
-3.6072326	أ	-0.1990459
-3.2142837	ك	-0.1990459
-2.9035401	в	-0.24261546
-3.2142837	я	-0.24838229
-2.7762065	л	-0.29318118
-2.9846468	м	-0.24838229
-3.6072326	ч	-0.1990459
-3.4535244	گ	-0.1990459
-3.2142837	ص	-0.26615718
-3.2142837	و	-0.26615718
-3.2142837	ت	-0.1990459
-3.4535244	დ	-0.1990459
-3.6072326	ა	-0.1990459
-3.6072326	თ	-0.1990459
-3.6072326	ვ	-0.1990459
-3.2142837	ი	-0.26615718
-3.6072326	į	-0.1990459
-3.4535244	ž	-0.1990459
-3.4535244	д	-0.23130646
-2.5977335	и	-0.24535684
-3.4535244	ц	-0.1990459
-3.6072326	ҥ	-0.1990459
-2.9846468	у	-0.2809201
-3.6072326	ľ	-0.1990459
-2.9035401	ī	-0.25591123
-2.259391	&	-0.5518959
-3.6072326	申	-0.1990459
-3.2142837	仁	-0.1990459
-3.6072326	忠	-0.1990459
-3.2142837	ỷ	-0.23936848
-3.084461	ỹ	-0.3058109
-2.7762065	{	-0.35527334
-3.6072326	－	-0.1990459
-3.084461	म	-0.2230139
-3.4535244	छ	-0.3040504
-2.9035401	ल	-0.23337376
-3.2142837	ी	-0.1990459
-3.6072326	ಫ	-0.1990459
-3.6072326	ಿ	-0.1990459
-3.6072326	ಷ	-0.1990459
-3.4535244	ñ	-0.1990459
-2.5301087	}	-0.55001855
-3.2142837	ỵ	-0.28382158
-3.2142837	²	-0.23805644
-3.6072326	،	-0.1990459
-3.4535244	ь	-0.1990459
-2.677866	о	-0.2867697
-3.2142837	千	-0.28382158
-2.24292	島	-1.1061245
-3.6072326	列	-0.1990459
-3.6072326	北	-0.1990459
-3.6072326	占	-0.1990459
-3.6072326	守	-0.1990459
-3.6072326	阿	-0.1990459
-3.6072326	頼	-0.1990459
-3.6072326	度	-0.1990459
-3.6072326	幌	-0.1990459
-3.6072326	筵	-0.1990459
-3.4535244	志	-0.1990459
-3.4535244	林	-0.1990459
-3.6072326	規	-0.1990459
-3.4535244	磨	-0.1990459
-3.6072326	勘	-0.1990459
-3.4535244	留	-0.3040504
-3.6072326	温	-0.1990459
-3.6072326	禰	-0.1990459
-3.084461	古	-0.4087603
-3.4535244	丹	-0.3040504
-3.6072326	春	-0.1990459
-3.6072326	牟	-0.1990459
-3.6072326	越	-0.1990459
-3.6072326	渇	-0.1990459
-3.084461	知	-0.24838229
-3.6072326	捨	-0.1990459
-3.6072326	子	-0.1990459
-3.6072326	雷	-0.1990459
-3.6072326	公	-0.1990459
-3.4535244	計	-0.1990459
-3.6072326	松	-0.1990459
-3.6072326	輪	-0.1990459
-3.4535244	羅	-0.1990459
-3.6072326	和	-0.1990459
-3.6072326	宇	-0.1990459
-3.6072326	吐	-0.1990459
-3.6072326	夷	-0.1990459
-3.6072326	新	-0.1990459
-3.4535244	武	-0.1990459
-3.6072326	魯	-0.1990459
-3.6072326	頓	-0.1990459
-3.6072326	理	-0.1990459
-3.6072326	保	-0.1990459
-3.6072326	以	-0.1990459
-3.4535244	南	-0.1990459
-3.6072326	得	-0.1990459
-3.6072326	撫	-0.1990459
-3.6072326	択	-0.1990459
-3.6072326	捉	-0.1990459
-3.6072326	国	-0.1990459
-3.6072326	後	-0.1990459
-3.6072326	色	-0.1990459
-3.6072326	歯	-0.1990459
-3.6072326	舞	-0.1990459
-3.6072326	諸	-0.1990459
-3.6072326	海	-0.1990459
-3.6072326	馬	-0.1990459
-3.6072326	多	-0.1990459
-3.6072326	楽	-0.1990459
-3.6072326	発	-0.1990459
-3.2142837	勇	-0.26615718
-3.6072326	秋	-0.1990459
-3.6072326	苅	-0.1990459
-3.6072326	水	-0.1990459
-3.6072326	晶	-0.1990459
-3.6072326	貝	-0.1990459
-3.6072326	殻	-0.1990459
-3.6072326	周	-0.1990459
-3.6072326	考	-0.1990459
-3.6072326	王	-0.1990459
-3.6072326	姬	-0.1990459
-3.6072326	嵬	-0.1990459
-2.8352232	–	-0.22550742
-3.6072326	ಗ	-0.1990459
-3.6072326	ು	-0.1990459
-3.6072326	ತ	-0.1990459
-3.6072326	ಾ	-0.1990459
-3.6072326	ґ	-0.1990459
-3.2142837	ज	-0.23130646
-3.084461	ग	-0.24295157
-3.6072326	ण	-0.1990459
-3.6072326	अ	-0.1990459
-3.084461	ध	-0.23805644
-3.084461	ि	-0.23337376
-2.6359541	ा	-0.2650687
-3.084461	य	-0.23130646
-3.4535244	क	-0.1990459
-3.4535244	ह	-0.26615718
-3.4535244	भ	-0.1990459
-3.084461	त	-0.23130646
-3.6072326	प	-0.1990459
-3.4535244	ब	-0.1990459
-3.084461	ु	-0.1990459
-3.6072326	ठ	-0.1990459
-3.4535244	द	-0.1990459
-3.6072326	़	-0.1990459
-3.6072326	उ	-0.1990459
-3.4535244	श	-0.1990459
-3.6072326	आ	-0.1990459
-3.6072326	ष	-0.1990459
-3.6072326	थ	-0.1990459
-3.6072326	ṇ	-0.1990459
-2.7242587	ā	-0.25545523
-3.4535244	ṃ	-0.26615718
-3.6072326	ṭ	-0.1990459
-3.6072326	ḍ	-0.1990459
-3.4535244	ś	-0.1990459
-3.4535244	ṣ	-0.3040504
-2.9846468	জ	-0.25591123
-2.9035401	ন	-0.23337376
-2.9035401	গ	-0.22278756
-3.6072326	ণ	-0.1990459
-2.9846468	ম	-0.2265485
-3.6072326	অ	-0.1990459
-3.084461	ধ	-0.23805644
-2.9846468	ি	-0.22893147
-2.6359541	া	-0.24295157
-3.084461	য	-0.23805644
-3.4535244	়	-0.23805644
-3.4535244	ক	-0.1990459
-3.4535244	হ	-0.26615718
-3.2142837	ে	-0.2809201
-3.2142837	ভ	-0.26615718
-2.9846468	র	-0.2479025
-2.9035401	ত	-0.23130646
-2.7762065	্	-0.2230139
-2.9846468	ব	-0.27489957
-3.6072326	প	-0.1990459
-3.6072326	ঞ	-0.1990459
-3.2142837	স	-0.1990459
-3.084461	ু	-0.1990459
-3.6072326	ট	-0.1990459
-3.6072326	ঠ	-0.1990459
-3.4535244	দ	-0.1990459
-3.4535244	ড	-0.1990459
-3.6072326	উ	-0.1990459
-3.6072326	‍	-0.1990459
-3.6072326	‌	-0.1990459
-2.9846468	ল	-0.23805644
-3.084461	ঙ	-0.4087603
-3.4535244	চ	-0.1990459
-3.6072326	ছ	-0.1990459
-3.4535244	শ	-0.1990459
-3.6072326	আ	-0.1990459
-3.6072326	থ	-0.1990459
-3.6072326	।	-0.1990459
-3.6072326	॥	-0.1990459
-3.6072326	ގ	-0.1990459
-3.4535244	ަ	-0.1990459
-3.6072326	ނ	-0.1990459
-3.6072326	γ	-0.1990459
-3.6072326	ά	-0.1990459
-3.6072326	ગ	-0.1990459
-3.6072326	ણ	-0.1990459
-3.2142837	х	-0.26615718
-3.6072326	ਗ	-0.1990459
-3.6072326	ਣ	-0.1990459
-3.6072326	க	-0.1990459
-3.6072326	ண	-0.1990459
-3.4535244	ค	-0.1990459
-3.6072326	ณ	-0.1990459
-3.6072326	ะ	-0.1990459
-3.4535244	\	-0.1990459
-3.6072326	趙	-0.1990459
-3.6072326	擴	-0.1990459
-3.4535244	寧	-0.1990459
-3.6072326	宗	-0.1990459
-3.6072326	法	-0.1990459
-3.6072326	天	-0.1990459
-3.6072326	備	-0.1990459
-3.6072326	道	-0.1990459
-3.6072326	純	-0.1990459
-3.6072326	德	-0.1990459
-3.6072326	茂	-0.1990459
-3.6072326	功	-0.1990459
-3.2142837	文	-0.26615718
-3.6072326	哲	-0.1990459
-3.6072326	聖	-0.1990459
-3.6072326	睿	-0.1990459
-3.4535244	恭	-0.1990459
-3.6072326	孝	-0.1990459
-3.084461	皇	-0.24838229
-3.084461	帝	-0.3579365
-3.6072326	ö	-0.1990459
-3.084461	ü	-0.1990459
-3.6072326	ş	-0.1990459
-3.4535244	ı	-0.26615718
-3.6072326	б	-0.1990459
-3.084461	п	-0.2809201
-3.4535244	ы	-0.1990459
-3.2142837	ç	-0.1990459
-3.6072326	金	-0.1990459
-3.6072326	田	-0.1990459
-3.4535244	一	-0.1990459
-3.6072326	七	-0.1990459
-3.6072326	瀬	-0.1990459
-3.6072326	美	-0.1990459
-3.6072326	雪	-0.1990459
-3.6072326	剣	-0.1990459
-3.6072326	持	-0.1990459
-3.6072326	ū	-0.1990459
-3.6072326	ხ	-0.1990459
-3.6072326	ე	-0.1990459
-3.6072326	ო	-0.1990459
-3.6072326	ბ	-0.1990459
-3.6072326	ს	-0.1990459
-3.6072326	კ	-0.1990459
-3.6072326	ლ	-0.1990459
-3.6072326	ফ	-0.1990459
-3.6072326	φ	-0.1990459
-3.6072326	ο	-0.1990459
-3.6072326	ف	-0.1990459
-3.6072326	폰	-0.1990459
-3.2142837	ф	-0.26615718
-3.6072326	ð	-0.1990459
-2.9846468	ي	-0.1990459
-2.7242587	°	-0.32797328
-3.6072326	¾	-0.1990459
-3.6072326	‘	-0.1990459
-3.2142837	’	-0.26615718
-3.6072326	ш	-0.1990459
-3.6072326	첼	-0.1990459
-3.6072326	레	-0.1990459
-3.6072326	스	-0.1990459
-3.6072326	티	-0.1990459
-3.6072326	노	-0.1990459
-3.6072326	ट	-0.1990459
-3.4535244	º	-0.1990459
-3.6072326	ো	-0.1990459
-3.6072326	พ	-0.1990459
-3.6072326	่	-0.1990459
-3.6072326	อ	-0.1990459
-3.6072326	ร	-0.1990459
-3.4535244	ั	-0.3040504
-3.6072326	ว	-0.1990459
-3.6072326	ต	-0.1990459
-3.6072326	จ	-0.1990459
-3.6072326	ี	-0.1990459
-3.6072326	๊	-0.1990459
-3.6072326	ด	-0.1990459
-3.4535244	′	-0.1990459
-3.6072326	•	-0.1990459
-3.4535244	£	-0.26615718
-3.6072326	­	-0.1990459
-3.4535244	隋	-0.26615718
-3.6072326	年	-0.1990459
-3.6072326	號	-0.1990459
-3.6072326	楊	-0.1990459
-3.6072326	堅	-0.1990459
-3.6072326	開	-0.1990459
-3.6072326	壽	-0.1990459
-3.6072326	煬	-0.1990459
-3.6072326	廣	-0.1990459
-3.6072326	大	-0.1990459
-3.6072326	侑	-0.1990459
-3.6072326	義	-0.1990459
-3.4535244	샤	-0.3040504
-3.6072326	이	-0.1990459
-3.6072326	니	-0.1990459
-3.6072326	누	-0.1990459
-3.6072326	너	-0.1990459
-3.6072326	무	-0.1990459
-3.6072326	예	-0.1990459
-3.6072326	뻐	-0.1990459
-3.4535244	≤	-0.24838229
-3.4535244	≥	-0.3040504
-3.6072326	∆	-0.1990459
-3.6072326	+	-0.1990459
-3.6072326	ё	-0.1990459
-3.6072326	ح	-0.1990459
-3.6072326	ʻ	-0.1990459
-3.6072326	ḥ	-0.1990459
-3.6072326	ʿ	-0.1990459
-3.6072326	ǧ	-0.1990459
-3.6072326	星	-0.1990459
-3.6072326	彩	-0.1990459
-3.6072326	三	-0.1990459
-3.6072326	國	-0.1990459
-3.6072326	雙	-0.1990459
-3.4535244	刘	-0.1990459
-3.6072326	禅	-0.1990459
-3.6072326	劉	-0.1990459
-3.6072326	禪	-0.1990459
-3.6072326	饞	-0.1990459
-3.6072326	敬	-0.1990459
-3.6072326	哀	-0.1990459
-3.6072326	后	-0.1990459
-3.6072326	張	-0.1990459
-3.6072326	杨	-0.1990459
-3.6072326	坚	-0.1990459
-3.6072326	那	-0.1990459
-3.6072326	延	-0.1990459
-3.6072326	普	-0.1990459
-3.6072326	六	-0.1990459
-3.6072326	茹	-0.1990459
-3.2142837	й	-0.24838229
-3.6072326	з	-0.1990459
-3.6072326	하	-0.1990459
-3.6072326	계	-0.1990459
-3.6072326	올	-0.1990459
-3.6072326	림	-0.1990459
-3.6072326	픽	-0.1990459
-3.6072326	헝	-0.1990459
-3.6072326	가	-0.1990459
-3.6072326	리	-0.1990459
-3.6072326	њ	-0.1990459
-3.6072326	г	-0.1990459

\2-grams:
-2.4343822	c </s>	0
-2.5238798	o </s>	0
-1.921701	n </s>	0
-2.5216038	i </s>	0
-2.5300996	t </s>	0
-2.4468813	k </s>	0
-2.3334882	m </s>	0
-2.6778147	a </s>	0
-2.2725735	g </s>	0
-2.572161	e </s>	0
-2.5990644	h </s>	0
-2.4668975	s </s>	0
-2.543736	y </s>	0
-1.8218715	à </s>	0
-1.7198551	ủ </s>	0
-2.153586	, </s>	0
-1.3977922	ử </s>	0
-2.1492372	j </s>	0
-1.7637085	а </s>	0
-1.5327917	н </s>	0
-1.1135024	ن </s>	0
-0.7265105	і </s>	0
-1.3529764	в </s>	0
-1.0205421	я </s>	0
-0.4299963	، </s>	0
-0.89813244	স </s>	0
-0.9000466	ı </s>	0
-0.4299963	폰 </s>	0
-0.4299963	ด </s>	0
-1.7216182	<s> |	-0.17143044
-1.7449564	| |	-0.198738
-1.8104235	c |	-0.23191597
-1.7209904	o |	-0.2587307
-1.6995276	n |	-0.3114326
-1.9643726	f |	-0.17143044
-1.9543885	l |	-0.19561765
-1.9998839	i |	-0.21977371
-1.691822	t |	-0.23011692
-2.29557	= |	-0.17143044
-1.9003193	r |	-0.19207878
-1.755244	# |	-0.6679117
-1.9632491	k |	-0.20823592
-1.9195204	a |	-0.3166287
-1.6386974	g |	-0.2632748
-1.8351183	u |	-0.18944341
-1.8073139	e |	-0.24496718
-1.832664	p |	-0.18740462
-2.1663327	h |	-0.17143044
-1.3106576	ỳ |	-0.17143044
-1.7311617	s |	-0.27745065
-1.9258296	ộ |	-0.17143044
-1.8955106	b |	-0.17143044
-1.7612776	1 |	-0.19561765
-1.4024413	q |	-0.20823592
-2.0673568	2 |	-0.17143044
-1.9152113	d |	-0.17981412
-2.0956545	] |	-0.17143044
-1.871195	w |	-0.17143044
-1.6084582	y |	-0.19207878
-2.18394	' |	-0.17143044
-0.88270056	い |	-0.17143044
-1.6551602	ữ |	-0.17143044
-2.0159886	v |	-0.20823592
-1.6110312	ề |	-0.17143044
-1.967748	ố |	-0.17143044
-1.8013216	ự |	-0.17143044
-2.224661	. |	-0.17143044
-1.5869244	ế |	-0.17143044
-0.9560445	) |	-0.35032782
-1.8169358	ứ |	-0.17143044
-1.9799678	x |	-0.1714304
-1.399579	ỏ |	-0.17143044
-1.7090771	ử |	-0.17143044
-1.3131521	" |	-0.24396692
-1.9604096	0 |	-0.19561765
-2.0293927	j |	-0.17143044
-1.1504002	7 |	-0.22018982
-1.9580768	4 |	-0.17143044
-1.6041703	ú |	-0.24845184
-1.7147107	ổ |	-0.17143044
-1.8528094	; |	-0.17143044
-0.7160561	愛 |	-0.17143044
-1.5877019	6 |	-0.19561765
-1.5384592	5 |	-0.19561765
-1.4333959	3 |	-0.20823592
-1.4499177	8 |	-0.18944341
-1.9558045	9 |	-0.17143044
-1.3236336	ỹ |	-0.17143044
-1.6360245	} |	-0.17143044
-0.88673323	勇 |	-0.17143044
-0.7160561	一 |	-0.17143044
-0.424683	雪 |	-0.17143044
-1.251961	<s> c	-0.23191597
-1.2769883	| c	-0.44704586
-1.9432935	c c	-0.2719861
-1.4764577	o c	-0.3039332
-1.994131	n c	-0.27243763
-1.6536518	f c	-0.17143044
-2.0559294	l c	-0.20823592
-1.5046475	i c	-0.47874892
-1.9709785	t c	-0.2913384
-1.7180705	= c	-0.20062105
-1.8013554	r c	-0.245546
-1.8672916	ậ c	-0.17143044
-1.423943	# c	-1.0601987
-2.0402484	m c	-0.1714304
-1.5322446	a c	-0.41025048
-2.226444	g c	-0.17143044
-1.5475359	u c	-0.2787584
-1.5390613	e c	-0.36639175
-1.8473923	[ c	-0.1714304
-2.1258523	h c	-0.17143044
-1.4695586	s c	-0.47605205
-1.1302661	ộ c	-0.35769436
-0.8229717	ắ c	-0.4113039
-2.0856974	b c	-0.20062105
-2.331622	1 c	-0.17143044
-2.229258	d c	-0.17143044
-2.1992433	< c	-0.17143044
-1.5549737	> c	-0.17143044
-1.9145136	z c	-0.17143044
-2.0869694	w c	-0.17143044
-2.2973883	y c	-0.17143044
-2.1430206	' c	-0.1714304
-1.2363554	- c	-0.38658434
-1.0598744	á c	-0.51707566
-1.594361	( c	-0.18242663
-2.1385872	v c	-0.17143044
-0.8237489	ố c	-0.40169096
-0.7282019	ị c	-0.7005776
-0.86509097	ự c	-0.34351406
-0.9311031	ọ c	-0.3088577
-1.3389901	. c	-0.5914043
-1.5433058	ô c	-0.22123179
-0.89612824	ó c	-0.5365976
-1.6772718	ợ c	-0.17143044
-1.0885482	“ c	-0.24845184
-1.8609407	ế c	-0.17143044
-2.310197	, c	-0.17143044
-0.7108624	ứ c	-0.41768906
-0.88651335	ạ c	-0.45169464
-1.6559392	ớ c	-0.17143044
-1.7214807	x c	-0.17143044
-1.9702592	ấ c	-0.17143044
-1.4331787	ệ c	-0.17143044
-0.82737595	í c	-0.8097221
-0.7515179	ặ c	-0.46245646
-1.8274479	" c	-0.1714304
-1.6447277	: c	-0.22771306
-1.2802268	/ c	-0.257328
-2.2314992	0 c	-0.17143044
-1.9967661	j c	-0.17143044
-1.7468702	7 c	-0.17143044
-1.1681805	_ c	-0.41214922
-0.75856066	ú c	-0.45850685
-0.7278146	ụ c	-0.40576768
-1.8047125	é c	-0.17143044
-1.225069	? c	-0.17143044
-1.651308	* c	-0.1714304
-2.1430883	5 c	-0.17143044
-1.8201758	3 c	-0.17143044
-2.1360197	8 c	-0.17143044
-1.2972653	& c	-0.23657663
-1.5024529	{ c	-0.17143044
-1.5945212	ā c	-0.17143044
-0.59678745	° c	-0.3399972
-2.2672677	| o	-0.20062105
-1.1392634	c o	-0.50008565
-1.6831943	o o	-0.28045994
-1.5000285	n o	-0.36088678
-1.1317149	f o	-0.35070145
-1.1008512	l o	-0.3835755
-1.6337814	i o	-0.4267993
-1.3955481	t o	-0.42212477
-2.3349667	= o	-0.17143044
-1.1651692	r o	-0.4523
-2.0485315	# o	-0.48351824
-1.1952788	k o	-0.28938726
-1.4874237	m o	-0.32556626
-1.8328035	a o	-0.4035629
-1.2680706	g o	-0.3065553
-2.3484576	u o	-0.24845184
-1.6790863	e o	-0.3500327
-1.2725477	p o	-0.40230972
-1.9062424	[ o	-0.17143044
-1.2987188	h o	-0.4211719
-1.3811947	s o	-0.45022237
-1.1536806	b o	-0.31865573
-2.094438	đ o	-0.17143044
-1.2846719	d o	-0.37806243
-1.9716347	> o	-0.17143044
-0.9514992	z o	-0.27106917
-0.9952837	w o	-0.5015414
-1.4418784	y o	-0.23662245
-2.2163246	' o	-0.17143044
-2.100265	- o	-0.17143044
-0.93245757	à o	-0.48593757
-1.164311	á o	-0.42558247
-1.957821	( o	-0.17143044
-1.3866687	v o	-0.2870324
-0.85638905	ã o	-0.40119797
-1.8191247	ự o	-0.17143044
-1.5321121	. o	-0.7634865
-2.1748185	ư o	-0.17143044
-1.513724	ả o	-0.22771306
-2.377171	, o	-0.17143044
-1.1601571	ạ o	-0.39245647
-1.6547179	x o	-0.20062105
-2.1910086	: o	-0.17143044
-2.1494167	/ o	-0.17143044
-2.3134398	0 o	-0.17143044
-0.7831614	j o	-0.3300826
-2.1214082	_ o	-0.17143044
-1.3972542	ẻ o	-0.17143044
-1.153703	é o	-0.45753962
-1.8669361	; o	-0.17143044
-1.3993479	ẹ o	-0.17143044
-1.1121795	è o	-0.22123179
-0.7184934	ž o	-0.17143044
-0.7184934	ñ o	-0.17143044
-0.7184934	‘ o	-0.17143044
-1.1386596	<s> n	-0.37614346
-1.2312089	| n	-0.50855756
-2.0904827	c n	-0.17143044
-1.234078	o n	-0.54220384
-2.1132684	n n	-0.28721055
-2.1368966	l n	-0.17143044
-1.2398521	i n	-0.6809303
-2.164512	t n	-0.17143044
-1.9996666	= n	-0.17143044
-1.9076461	r n	-0.25600743
-0.8282207	ậ n	-0.38366944
-1.4437352	# n	-1.033233
-1.8761569	k n	-0.22123179
-2.0807981	m n	-0.20062105
-1.2895063	a n	-0.68904066
-1.6588291	g n	-0.23665807
-1.2028658	u n	-0.4427997
-1.1996802	e n	-0.5588195
-2.1175654	p n	-0.24845184
-1.7730311	[ n	-0.17143044
-2.0371716	h n	-0.17143044
-1.3390139	ờ n	-0.20062105
-1.268416	ỳ n	-0.17143044
-0.94319355	ỉ n	-0.3326009
-2.0142317	s n	-0.20823592
-1.0173043	ộ n	-0.44944745
-0.63327605	ắ n	-0.44580102
-2.1179419	b n	-0.17143044
-0.5656748	â n	-0.47699064
-2.1153944	d n	-0.17143044
-2.0113497	] n	-0.17143044
-1.8147452	> n	-0.17143044
-1.8395942	z n	-0.17143044
-1.6989393	w n	-0.17143044
-1.5763261	y n	-0.18578053
-2.0535107	' n	-0.17143044
-1.5017099	- n	-0.26699492
-0.76129377	à n	-0.63608235
-0.8490023	á n	-0.61644626
-0.28258222	ă n	-0.56563807
-1.263305	ữ n	-0.24845184
-1.7715789	( n	-0.17143044
-1.9027429	v n	-0.17143044
-0.6076448	ê n	-0.41361633
-0.8479024	ã n	-0.30196905
-1.0002788	ể n	-0.22123179
-0.86418647	ề n	-0.30811828
-0.76637083	ố n	-0.6066111
-0.80744183	ị n	-0.52940327
-1.4236954	ự n	-0.24845184
-0.6117156	ù n	-0.7005776
-0.735006	ọ n	-0.3399972
-1.8180348	. n	-0.25188574
-0.6315028	ô n	-0.641333
-1.0391619	ó n	-0.41472557
-0.46078855	ò n	-0.37234652
-1.2663566	ư n	-0.6336309
-0.9858351	ợ n	-0.3399972
-1.402925	“ n	-0.17143044
-1.1032591	ế n	-0.25417212
-0.68560493	ả n	-0.51807463
-0.9321359	ủ n	-0.45753962
-0.86091846	ứ n	-0.6336309
-0.7541945	ạ n	-0.5337903
-1.2824194	ớ n	-0.19207878
-0.61160725	ì n	-0.5010822
-0.75287956	ấ n	-0.44308454
-0.94689375	ệ n	-0.25096738
-1.2370077	ỏ n	-0.3326009
-0.94876134	í n	-0.39692482
-1.3140631	ỡ n	-0.17143044
-0.48693976	ẫ n	-0.44944745
-0.55597115	ồ n	-0.48593757
-1.6445818	ở n	-0.17143044
-0.7006416	ầ n	-0.40003443
-0.90790415	ễ n	-0.24845184
-0.7466782	ặ n	-0.37614346
-1.8609787	" n	-0.17143044
-1.8448862	: n	-0.17143044
-1.5474105	/ n	-0.30811828
-1.2202564	_ n	-0.36952043
-1.0156163	ú n	-0.6336309
-0.73283064	ổ n	-0.39954764
-0.543496	ừ n	-0.6336309
-0.25908428	ằ n	-0.45753962
-0.9545289	ỗ n	-0.22123179
-0.85223675	ụ n	-0.5873952
-0.742494	ũ n	-0.5544497
-0.9962232	é n	-0.406944
-1.3260406	? n	-0.17143044
-0.76441884	ơ n	-0.3211273
-1.4623196	; n	-0.24845184
-1.0846087	ĩ n	-0.3326009
-1.5854499	* n	-0.17143044
-0.48225343	ẩ n	-0.4913305
-0.3088626	ẳ n	-0.24845184
-0.28884673	ẵ n	-0.17143044
-0.9850215	ẹ n	-0.22123179
-0.5925541	è n	-0.38327524
-2.0666766	9 n	-0.17143044
-0.58560526	& n	-0.7848985
-1.4675884	{ n	-0.17143044
-1.707598	| f	-0.4674297
-2.3868947	c f	-0.17143044
-1.9149507	o f	-0.18578053
-2.4235117	n f	-0.20823592
-1.2372218	f f	-0.20979768
-2.4682798	l f	-0.17143044
-1.9681838	i f	-0.28354037
-2.476125	t f	-0.17143044
-2.0761552	= f	-0.26081598
-2.2247276	r f	-0.20823592
-1.9231541	# f	-0.6789388
-2.3839028	k f	-0.17143044
-2.293157	m f	-0.17143044
-1.9984639	a f	-0.20062105
-2.435327	g f	-0.17143044
-2.42204	u f	-0.17143044
-1.8851527	e f	-0.2793438
-1.9666442	[ f	-0.17143044
-2.4190562	s f	-0.17143044
-2.1218624	b f	-0.22123179
-2.4158475	2 f	-0.17143044
-2.1413705	d f	-0.17143044
-1.9264545	w f	-0.17143044
-2.2943857	' f	-0.17143044
-1.6371722	- f	-0.2733562
-1.7940261	( f	-0.19561765
-2.4024138	. f	-0.17143044
-2.0964837	x f	-0.17143044
-2.2946484	" f	-0.17143044
-2.005929	: f	-0.17143044
-1.6006442	/ f	-0.24612565
-2.1141598	j f	-0.17143044
-1.441928	_ f	-0.20062105
-1.7539724	* f	-0.17143044
-2.3016214	3 f	-0.17143044
-1.6724526	& f	-0.24845184
-0.9722518	° f	-0.3326009
-0.4285835	+ f	-0.17143044
-1.7422482	<s> l	-0.17143044
-1.4013879	| l	-0.48420495
-1.6196551	c l	-0.39286548
-1.3921554	o l	-0.44644845
-2.232248	n l	-0.20062105
-1.2329342	f l	-0.34245598
-1.7897987	l l	-0.34662795
-1.5150372	i l	-0.46427143
-1.9471977	t l	-0.44944745
-1.6545626	= l	-0.23665807
-1.9304262	r l	-0.27187493
-1.474755	# l	-0.9767851
-2.1014774	k l	-0.17143044
-1.9966286	m l	-0.21382761
-1.3961874	a l	-0.53556323
-1.5362717	g l	-0.34042534
-1.4416956	u l	-0.3134812
-1.3298317	e l	-0.55761325
-1.4965706	p l	-0.40576768
-1.926615	[ l	-0.17143044
-2.2953565	h l	-0.17143044
-2.0240936	s l	-0.23657663
-1.3179673	b l	-0.39788926
-2.1014853	d l	-0.22123179
-1.7163715	> l	-0.17143044
-1.9944469	z l	-0.17143044
-2.1819096	w l	-0.17143044
-2.0924654	y l	-0.17143044
-2.2423031	' l	-0.17143044
-1.7210814	- l	-0.20062105
-1.820706	á l	-0.17143044
-1.9885721	( l	-0.1714304
-1.9682196	v l	-0.22123179
-1.8200327	ê l	-0.17143044
-2.575612	. l	-0.17143044
-1.9750925	ó l	-0.17143044
-2.5435941	) l	-0.17143044
-2.400663	, l	-0.17143044
-1.9637991	í l	-0.17143044
-1.9905429	" l	-0.22123179
-1.9736497	: l	-0.17143044
-2.064366	/ l	-0.20823592
-1.7562246	_ l	-0.17143044
-1.5084621	é l	-0.17143044
-1.762892	ơ l	-0.17143044
-1.7199526	* l	-0.17143044
-1.659242	& l	-0.24845184
-1.5361388	{ l	-0.17143044
-1.0066192	ç l	-0.17143044
-1.994207	<s> i	-0.17143044
-1.5131664	| i	-0.3832752
-1.4937054	c i	-0.37443686
-1.5954348	o i	-0.3088577
-1.4686981	n i	-0.36847225
-0.8946161	f i	-0.36463377
-1.1458262	l i	-0.46831173
-2.1346545	i i	-0.24025299
-1.3055974	t i	-0.4924959
-1.6284627	= i	-0.3399972
-1.2087631	r i	-0.4643249
-1.7779834	# i	-0.65805435
-1.0264614	k i	-0.31433353
-1.2543157	m i	-0.43749827
-1.3899815	a i	-0.5272844
-1.0624461	g i	-0.37719426
-1.7100849	u i	-0.2513557
-1.6321502	e i	-0.36670387
-1.3983583	p i	-0.27433875
-1.8473923	[ i	-0.17143044
-1.366036	h i	-0.42329505
-0.59721357	ờ i	-0.40181527
-1.3310765	s i	-0.44895577
-0.81223786	ộ i	-0.48263308
-1.1691096	b i	-0.340249
-1.5254307	q i	-0.24845184
-1.4659743	đ i	-0.3135036
-1.1993783	d i	-0.35710663
-1.3306451	z i	-0.19561765
-0.8266902	w i	-0.4083216
-1.7636782	y i	-0.17143044
-2.1430206	' i	-0.17143044
-1.6888769	- i	-0.24458171
-0.92889214	à i	-0.46344656
-1.0178596	á i	-0.488584
-1.8727205	( i	-0.17143044
-0.9503852	v i	-0.45996416
-0.8529383	ã i	-0.39692482
-0.7704127	ố i	-0.6110164
-1.1650152	ù i	-0.3326009
-1.2783906	ọ i	-0.22123179
-2.0470562	. i	-0.22123179
-0.7030867	ô i	-0.6357313
-1.0492262	ó i	-0.3414917
-1.0916611	ò i	-0.26081598
-0.9969446	ợ i	-0.31523922
-0.83254004	ả i	-0.45850685
-1.286929	ủ i	-0.22123179
-0.88651335	ạ i	-0.44017795
-0.61512256	ớ i	-0.3835755
-1.1516277	x i	-0.19561765
-0.9043993	ỏ i	-0.34030297
-0.9301695	ỡ i	-0.24845184
-0.7456099	ồ i	-0.41214922
-0.8278748	ở i	-0.5544497
-1.6866338	ử i	-0.17143044
-1.8274479	" i	-0.17143044
-2.1103504	: i	-0.17143044
-1.5061692	/ i	-0.3838487
-1.1711929	j i	-0.23274983
-1.3144851	_ i	-0.3399972
-1.1286782	ú i	-0.46245646
-0.9873382	ổ i	-0.3211273
-0.7442319	ỗ i	-0.45753962
-1.2453195	ũ i	-0.22123179
-1.355439	? i	-0.24845184
-0.8764914	ơ i	-0.40446454
-1.6714661	! i	-0.17143044
-1.651308	* i	-0.17143044
-2.1430883	5 i	-0.17143044
-0.71272695	š i	-0.17143044
-0.8182864	õ i	-0.24845184
-0.9966119	ō i	-0.17143044
-0.9704576	& i	-0.52940327
-0.7201099	<s> t	-0.35662112
-1.0966866	| t	-0.5807422
-1.8590112	c t	-0.29480132
-1.5018816	o t	-0.3618811
-1.9896764	n t	-0.29853845
-1.5246884	f t	-0.1714304
-1.922295	l t	-0.18094426
-1.4831748	i t	-0.44466352
-1.7991426	t t	-0.25969833
-1.6254336	= t	-0.21222262
-1.7964208	r t	-0.28591728
-0.6456112	ậ t	-0.38872686
-1.414886	# t	-1.0975477
-1.9299406	k t	-0.17143044
-2.1519275	m t	-0.17143044
-1.4372113	a t	-0.5506219
-2.0777428	g t	-0.17143044
-1.5131464	u t	-0.29582328
-1.4386425	e t	-0.3610854
-2.1783156	p t	-0.20062105
-1.8387882	[ t	-0.17143044
-1.7416946	h t	-0.27068055
-1.2574102	s t	-0.49492708
-0.9419508	ộ t	-0.4068964
-0.75083685	ắ t	-0.3963589
-1.9005036	â t	-0.17143044
-1.7044015	d t	-0.19207878
-2.0634763	] t	-0.17143044
-1.3721725	> t	-0.1714304
-1.9058398	z t	-0.17143044
-1.4307932	w t	-0.26081598
-1.5966482	y t	-0.25724727
-2.132499	' t	-0.17143044
-1.2350435	- t	-0.20938067
-1.0172007	á t	-0.45929623
-1.7477201	ă t	-0.17143044
-1.6785069	( t	-0.17143044
-1.6426176	v t	-0.22123179
-1.7692789	ê t	-0.17143044
-1.0390459	ố t	-0.39692482
-1.4038048	ị t	-0.22123179
-1.7718211	ự t	-0.17143044
-0.9301644	ọ t	-0.46245646
-1.843451	. t	-0.1714304
-1.8967617	ó t	-0.17143044
-0.85559046	ợ t	-0.406944
-1.4402866	“ t	-0.17143044
-1.1151099	ế t	-0.3267559
-0.9723499	ứ t	-0.5544497
-1.0693274	ạ t	-0.44308618
-0.80719936	ớ t	-0.46245646
-1.9262078	x t	-0.17143044
-0.87046623	ấ t	-0.39990819
-0.9552581	ệ t	-0.28354037
-1.5961992	í t	-0.17143044
-0.6431708	ặ t	-0.34030297
-1.8216174	" t	-0.18163188
-1.9009104	: t	-0.17143044
-1.3556006	/ t	-0.20938067
-2.2198658	0 t	-0.17143044
-1.9882776	j t	-0.17143044
-1.5334965	_ t	-0.17143044
-1.9283899	4 t	-0.24845184
-1.1273592	ú t	-0.406944
-1.3868128	ụ t	-0.3326009
-0.8997762	é t	-0.48607767
-1.6653014	? t	-0.17143044
-1.6437547	* t	-0.17143044
-1.5289927	ý t	-0.17143044
-1.6197238	ẩ t	-0.17143044
-2.1248186	8 t	-0.17143044
-1.3720652	ẹ t	-0.17143044
-0.9950625	ō t	-0.17143044
-1.2104675	ī t	-0.17143044
-1.6273236	& t	-0.17143044
-0.42251393	－ t	-0.17143044
-1.1278058	ā t	-0.17143044
-1.6671648	c =	-0.35662112
-1.7351664	o =	-0.3414917
-1.6767294	n =	-0.30115592
-1.8805416	f =	-0.17143044
-1.9994762	l =	-0.17143044
-1.770697	i =	-0.55827725
-1.7088313	t =	-0.29669848
-0.8138559	= =	-0.5863878
-1.779583	r =	-0.19111861
-1.8566409	# =	-0.7450344
-2.1152928	k =	-0.17143044
-1.7270814	m =	-0.38824844
-1.9915156	a =	-0.5160885
-2.1046834	g =	-0.19561765
-2.140209	u =	-0.2863652
-1.6130543	e =	-0.26935965
-1.7562245	p =	-0.3399972
-2.0038245	h =	-0.21382761
-1.3316317	ỳ =	-0.17143044
-1.5061585	ỉ =	-0.17143044
-1.8053991	s =	-0.21133348
-1.631586	ộ =	-0.24845184
-2.386953	b =	-0.17143044
-2.0954294	1 =	-0.17143044
-1.9959562	2 =	-0.17143044
-1.8423927	d =	-0.20938067
-2.140872	] =	-0.17143044
-2.1992292	w =	-0.17143044
-1.498971	y =	-0.26183507
-2.2605278	' =	-0.17143044
-1.9550734	á =	-0.24845184
-2.289647	v =	-0.17143044
-2.010947	ố =	-0.17143044
-2.5988243	. =	-0.17143044
-2.0556114	ô =	-0.17143044
-1.4790721	ế =	-0.3326009
-2.1046937	ạ =	-0.17143044
-1.7923315	x =	-0.17143044
-1.7315142	ở =	-0.17143044
-1.7485049	ử =	-0.17143044
-1.9691509	ú =	-0.17143044
-1.9055469	ụ =	-0.17143044
-1.6395453	ĩ =	-0.17143044
-1.5805476	ý =	-0.17143044
-1.1021086	² =	-0.17143044
-1.6489323	| r	-0.3622827
-1.7667289	c r	-0.3199058
-1.3139329	o r	-0.47351214
-2.381486	n r	-0.17143044
-1.1804123	f r	-0.2888447
-1.53686	i r	-0.3283257
-1.417093	t r	-0.4101848
-2.3670526	= r	-0.17143044
-1.9304262	r r	-0.27509567
-1.6209579	# r	-0.7143506
-1.999326	k r	-0.17143044
-2.2484636	m r	-0.20823592
-1.3386451	a r	-0.6009256
-1.3004398	g r	-0.47703677
-1.325798	u r	-0.4125651
-1.3849401	e r	-0.54003155
-1.4507568	p r	-0.42690778
-1.926615	[ r	-0.17143044
-2.0935311	h r	-0.19207878
-2.1344702	s r	-0.20823592
-1.2294637	b r	-0.55769515
-2.4419413	1 r	-0.17143044
-2.1258113	đ r	-0.17143044
-1.5029861	d r	-0.35304806
-0.51529235	< r	-1.3026376
-1.9964547	> r	-0.17143044
-1.6822859	z r	-0.24845184
-1.9012703	w r	-0.24845184
-1.6205983	y r	-0.21375808
-2.2423031	' r	-0.1714304
-2.3385644	- r	-0.17143044
-1.9475322	á r	-0.17143044
-1.758217	( r	-0.20062105
-2.0651095	v r	-0.17143044
-1.8200327	ê r	-0.17143044
-2.3625822	. r	-0.17143044
-1.9750925	ó r	-0.17143044
-1.4863424	“ r	-0.17143044
-1.9637991	í r	-0.17143044
-2.235723	" r	-0.17143044
-1.9736497	: r	-0.17143044
-1.466553	/ r	-0.36639175
-2.1784801	7 r	-0.17143044
-1.5648172	_ r	-0.17143044
-1.8621757	é r	-0.17143044
-1.7199526	* r	-0.17143044
-1.6481159	ā r	-0.17143044
-1.0066192	ü r	-0.17143044
-0.42686296	ū r	-0.17143044
-2.8377578	c ậ	-0.17143044
-2.7256963	l ậ	-0.17143044
-3.030993	i ậ	-0.17143044
-2.094493	t ậ	-0.39829493
-2.4749782	r ậ	-0.17143044
-2.8353796	m ậ	-0.17143044
-2.6786304	g ậ	-0.17143044
-2.430231	u ậ	-0.3055811
-1.9971128	h ậ	-0.35189992
-2.35233	b ậ	-0.20062105
-2.3850346	đ ậ	-0.17143044
-2.688995	d ậ	-0.17143044
-1.8832673	v ậ	-0.38327524
-1.1502656	| #	-0.336873
-1.1026131	c #	-0.7878759
-1.1740494	o #	-0.70429665
-1.0103033	n #	-0.9615494
-1.3386023	f #	-0.19670044
-1.3126253	l #	-0.35694215
-1.1158473	i #	-0.9039251
-1.1142354	t #	-0.8046409
-1.1987097	= #	-0.2401299
-1.4143441	r #	-0.34855625
-2.2643988	# #	-0.20062105
-1.3366672	k #	-0.22621161
-0.91504556	m #	-0.8398515
-1.1040579	a #	-0.8220148
-1.3183464	g #	-0.2254737
-1.0129055	u #	-0.7741403
-1.3153137	e #	-0.5585467
-0.90466315	p #	-0.7070491
-1.4658246	h #	-0.35025698
-0.577935	ờ #	-0.34983653
-0.8462499	ỳ #	-0.20062105
-0.6980722	ỉ #	-0.22746553
-1.385049	s #	-0.48664367
-0.9750224	ộ #	-0.3367271
-1.4193085	b #	-0.20062107
-1.1712041	1 #	-0.28089252
-1.3810707	q #	-0.19207878
-1.7165155	â #	-0.17143044
-1.1968832	2 #	-0.21174186
-1.330126	d #	-0.33992887
-1.4396273	z #	-0.17143044
-1.5404674	w #	-0.22787853
-0.852898	y #	-0.764725
-1.3903084	' #	-0.19149174
-0.6420718	手 #	-0.17143044
-0.6656295	戦 #	-0.17143044
-0.8105581	い #	-0.17143044
-1.6832633	- #	-0.1714304
-0.814797	à #	-0.39972693
-0.9475624	á #	-0.46387464
-0.5721837	ữ #	-0.26627797
-1.3043087	v #	-0.21873757
-0.7980257	ê #	-0.22282735
-0.69909155	ã #	-0.31324816
-0.62278324	ể #	-0.30652785
-0.59657943	ề #	-0.280677
-0.9974886	ố #	-0.3686716
-0.779081	ị #	-0.3484079
-0.82530373	ự #	-0.28494975
-0.9036504	ù #	-0.20823592
-1.2784089	ọ #	-0.17820469
-0.7071766	. #	-0.9708914
-0.80491996	ô #	-0.3280204
-0.80073106	ó #	-0.35952726
-0.70358175	ò #	-0.198738
-1.2171675	ư #	-0.3044795
-0.93523306	ợ #	-0.23101877
-1.2410401	“ #	-0.17143044
-0.8817843	ế #	-0.3863647
-0.2902965	” #	-0.22967644
-0.39817232	役 #	-0.17143044
-0.4834882	) #	-0.6327365
-0.6703209	ả #	-0.41567236
-0.88104117	ủ #	-0.22967641
-0.25975013	, #	-0.96551275
-0.9281654	ứ #	-0.27274138
-1.1030393	ạ #	-0.257328
-1.1972343	ớ #	-0.19561765
-0.7735027	ì #	-0.31591028
-1.0069103	x #	-0.198738
-0.7318287	ệ #	-0.33012646
-0.6839324	ỏ #	-0.34459615
-0.69876313	í #	-0.29349282
-0.2574455	ẽ #	-0.26399416
-0.2913655	ỡ #	-0.23042168
-0.8049497	ồ #	-0.27745065
-0.54433286	ở #	-0.32043198
-0.82423216	ử #	-0.3086355
-0.8557008	ễ #	-0.22123179
-0.6733668	" #	-0.41680226
-0.48274958	: #	-0.5984305
-1.646125	/ #	-0.17143044
-1.2032247	0 #	-0.2760656
-1.1919551	j #	-0.17143044
-1.0375671	7 #	-0.27021456
-0.9741805	4 #	-0.2357283
-1.061493	ú #	-0.21080415
-0.5606936	ổ #	-0.3492196
-1.0800356	ừ #	-0.19207878
-0.47316235	ỗ #	-0.23549722
-0.18158056	ẻ #	-0.27519095
-0.897192	ụ #	-0.27577916
-0.6144342	ũ #	-0.2398102
-0.9526425	é #	-0.20938067
-1.2053858	? #	-0.17143044
-0.5912252	ơ #	-0.31848484
-0.22373949	; #	-0.39136368
-0.39817232	陣 #	-0.17143044
-0.6656295	… #	-0.17143044
-0.60872877	ĩ #	-0.28805318
-0.39817232	上 #	-0.17143044
-0.6656295	愛 #	-0.17143044
-0.4450007	! #	-0.257328
-1.0862181	6 #	-0.24458171
-1.1181413	5 #	-0.21375808
-1.2613677	3 #	-0.20646773
-0.7741517	ý #	-0.23946887
-1.0161934	8 #	-0.23792104
-0.92224383	ẹ #	-0.1906712
-0.899838	è #	-0.20062105
-1.2116593	9 #	-0.22449256
-1.0296209	ب #	-0.17143044
-0.4995075	د #	-0.2863652
-1.3092283	с #	-0.17143044
-1.3166115	р #	-0.17143044
-0.8017628	а #	-0.17143044
-1.2873907	н #	-0.17143044
-0.90642124	ε #	-0.17143044
-0.27679437	ς #	-0.17143044
-0.4398852	α #	-0.17143044
-0.6656295	η #	-0.17143044
-0.4398852	ν #	-0.17143044
-0.7594341	ر #	-0.17143044
-0.8105581	م #	-0.17143044
-0.4995075	ن #	-0.17143044
-0.6656295	ન #	-0.17143044
-0.39817232	સ #	-0.17143044
-0.6656295	나 #	-0.17143044
-0.39817232	의 #	-0.17143044
-0.99036485	व #	-0.17143044
-0.85094965	े #	-0.17143044
-0.90642124	स #	-0.17143044
-0.4831175	न #	-0.17143044
-0.39817232	ס #	-0.17143044
-0.39817232	ץ #	-0.17143044
-0.4276157	್ #	-0.17143044
-0.39817232	ာ #	-0.17143044
-0.9272728	е #	-0.17143044
-0.39817232	த #	-0.17143044
-0.63684535	్ #	-0.17143044
-0.5332893	% #	-0.43646407
-0.7693894	õ #	-0.20062105
-0.90642124	ル #	-0.17143044
-0.5522014	ō #	-0.17143044
-0.39817232	ち #	-0.17143044
-0.39817232	糧 #	-0.17143044
-0.39817232	戯 #	-0.17143044
-0.39817232	音 #	-0.17143044
-0.8105581	レ #	-0.17143044
-0.6656295	ダ #	-0.17143044
-0.39817232	猫 #	-0.17143044
-0.39817232	宴 #	-0.17143044
-0.39817232	行 #	-0.17143044
-0.39817232	節 #	-0.17143044
-0.39817232	を #	-0.17143044
-0.39817232	る #	-0.17143044
-0.39817232	闇 #	-0.17143044
-0.6656295	罪 #	-0.17143044
-0.27679437	朝 #	-0.17143044
-0.39817232	て #	-0.17143044
-0.39817232	情 #	-0.17143044
-0.39817232	帰 #	-0.17143044
-0.39817232	淵 #	-0.17143044
-0.39817232	生 #	-0.17143044
-0.39817232	ζ #	-0.17143044
-1.1554321	в #	-0.17143044
-0.5522014	я #	-0.17143044
-1.0315248	л #	-0.17143044
-1.1270427	м #	-0.17143044
-0.6656295	گ #	-0.17143044
-0.8105581	ت #	-0.17143044
-0.82367086	ი #	-0.17143044
-1.3070962	и #	-0.17143044
-0.76438326	ī #	-0.17143044
-0.56996155	ỷ #	-0.22157633
-0.5284598	ỹ #	-0.24291836
-0.628353	ल #	-0.17143044
-0.8105581	ी #	-0.17143044
-0.29565766	ỵ #	-0.20823592
-0.6656295	王 #	-0.17143044
-1.1482381	– #	-0.17143044
-0.39817232	ण #	-0.17143044
-1.0850685	ि #	-0.17143044
-1.3374088	ा #	-0.17143044
-0.7040975	य #	-0.22123179
-0.6656295	क #	-0.17143044
-0.6656295	भ #	-0.17143044
-0.7040975	त #	-0.17143044
-0.6656295	ब #	-0.17143044
-0.90642124	ु #	-0.17143044
-0.39817232	़ #	-0.17143044
-0.39817232	ष #	-0.17143044
-1.0850685	ন #	-0.17143044
-1.1727132	গ #	-0.17143044
-0.99563515	া #	-0.17143044
-0.9875772	য #	-0.17143044
-0.63684535	় #	-0.17143044
-0.6656295	ক #	-0.17143044
-0.6420718	ে #	-0.17143044
-0.82367086	ভ #	-0.17143044
-0.7104029	ব #	-0.17143044
-0.8105581	স #	-0.17143044
-0.90642124	ু #	-0.17143044
-0.39817232	ট #	-0.17143044
-0.63684535	ল #	-0.17143044
-0.39817232	। #	-0.17143044
-0.39817232	॥ #	-0.17143044
-0.6656295	ަ #	-0.17143044
-0.39817232	ણ #	-0.17143044
-0.4398852	х #	-0.22123179
-0.39817232	ਣ #	-0.17143044
-0.39817232	ண #	-0.17143044
-0.39817232	ะ #	-0.17143044
-1.0185567	帝 #	-0.17143044
-0.90642124	ü #	-0.17143044
-0.39817232	ş #	-0.17143044
-0.4398852	ı #	-0.24845184
-0.90642124	ы #	-0.17143044
-0.6656295	一 #	-0.17143044
-0.39817232	瀬 #	-0.17143044
-0.39817232	持 #	-0.17143044
-0.39817232	ს #	-0.17143044
-1.0296209	ي #	-0.17143044
-0.89725685	° #	-0.22123179
-0.39817232	¾ #	-0.17143044
-0.4398852	’ #	-0.17143044
-0.39817232	노 #	-0.17143044
-0.9760807	º #	-0.17143044
-0.6656295	′ #	-0.17143044
-0.39817232	• #	-0.17143044
-0.6656295	니 #	-0.17143044
-0.39817232	무 #	-0.17143044
-0.39817232	뻐 #	-0.17143044
-0.5522014	≤ #	-0.2159867
-0.27679437	≥ #	-0.17143044
-0.5522014	й #	-0.17143044
-0.39817232	계 #	-0.17143044
-0.39817232	픽 #	-0.17143044
-0.39817232	리 #	-0.17143044
-1.7513987	<s> k	-0.17143044
-1.652884	| k	-0.2896743
-2.0030088	c k	-0.22649042
-1.6918021	o k	-0.2584504
-2.133559	n k	-0.18335567
-2.1608179	l k	-0.17143044
-1.6698489	i k	-0.40142894
-2.3678312	t k	-0.22123179
-2.1694522	= k	-0.22123179
-1.9439967	r k	-0.24025299
-1.51636	# k	-0.9294231
-2.0157547	k k	-0.22123179
-2.5278277	m k	-0.17143044
-1.6130413	a k	-0.4181147
-2.3995838	g k	-0.17143044
-1.7394367	u k	-0.23274983
-1.7271614	e k	-0.19370854
-2.5212362	p k	-0.17143044
-1.9479907	[ k	-0.17143044
-2.3276775	h k	-0.17143044
-1.6588776	s k	-0.40090904
-2.1227856	d k	-0.17143044
-1.6055619	> k	-0.20823592
-1.9148258	w k	-0.17143044
-2.216438	y k	-0.17143044
-2.2699351	' k	-0.1714304
-2.1404905	- k	-0.17143044
-1.7773824	( k	-0.18578053
-2.6109128	. k	-0.17143044
-1.4968807	“ k	-0.17143044
-2.4254982	, k	-0.17143044
-2.0079787	" k	-0.17143044
-1.9909586	: k	-0.17143044
-1.6760916	/ k	-0.3399972
-2.004701	0 k	-0.3326009
-2.0958312	j k	-0.17143044
-1.8890271	; k	-0.17143044
-1.7381779	* k	-0.17143044
-2.2756727	5 k	-0.17143044
-2.2726884	8 k	-0.17143044
-0.72217524	š k	-0.17143044
-0.4278006	ľ k	-0.17143044
-2.0224648	& k	-0.17143044
-1.9630058	<s> m	-0.17143044
-1.5074489	| m	-0.23665807
-1.7245045	c m	-0.2824156
-1.5560907	o m	-0.39887
-2.0530324	n m	-0.23334645
-1.9187841	f m	-0.17143044
-1.9028492	l m	-0.18740462
-1.4244751	i m	-0.39896312
-2.0211194	t m	-0.24612565
-1.9575757	= m	-0.19561765
-1.8549844	r m	-0.27106917
-1.5082123	ậ m	-0.20823592
-1.4947402	# m	-0.8902162
-1.7654157	k m	-0.2733562
-1.5613738	m m	-0.31410566
-1.4697385	a m	-0.40936124
-2.0492616	g m	-0.17143044
-1.4780499	u m	-0.3268912
-1.355484	e m	-0.4448445
-2.1554544	p m	-0.17143044
-1.8139533	[ m	-0.17143044
-2.085611	h m	-0.17143044
-1.6965348	ờ m	-0.17143044
-1.6633418	s m	-0.30220866
-1.8692814	ộ m	-0.17143044
-0.82141924	ắ m	-0.5873952
-2.0481699	b m	-0.17143044
-2.2872095	1 m	-0.17143044
-1.1829832	q m	-0.45753962
-0.84470284	â m	-0.3922537
-2.0149822	2 m	-0.17143044
-2.0554433	d m	-0.17143044
-2.1764703	< m	-0.17143044
-1.5368712	> m	-0.17143044
-1.8808116	z m	-0.17143044
-2.047851	w m	-0.17143044
-2.0053742	y m	-0.17143044
-1.8909124	' m	-0.18944341
-1.5872483	- m	-0.18944341
-1.428093	à m	-0.23334645
-1.281448	á m	-0.5873952
-0.5046907	ă m	-0.4179476
-1.6557086	( m	-0.18335567
-0.93292415	ê m	-0.2913384
-1.5032523	ể m	-0.17143044
-1.2217414	ề m	-0.22123179
-1.9181492	ố m	-0.17143044
-2.1702852	. m	-0.17143044
-1.5330132	ô m	-0.26081598
-1.4739536	ó m	-0.19207878
-1.5949266	ò m	-0.17143044
-1.4264634	“ m	-0.17143044
-1.5553449	ế m	-0.24845184
-1.2878424	ả m	-0.2913384
-1.5846976	ạ m	-0.2863652
-1.2935523	ớ m	-0.24845184
-1.2960051	ì m	-0.24845184
-1.0253695	ấ m	-0.46493596
-1.4211626	ệ m	-0.23191597
-1.7059488	ỏ m	-0.17143044
-1.8618385	í m	-0.17143044
-0.9577532	ẫ m	-0.3326009
-1.4279389	ồ m	-0.22123179
-0.7020473	ầ m	-0.4913305
-1.2945865	ễ m	-0.17143044
-1.2484394	ặ m	-0.20823592
-1.8045812	" m	-0.17143044
-1.7879003	: m	-0.17143044
-1.2751787	/ m	-0.23296958
-1.7577851	0 m	-0.20823592
-1.963764	j m	-0.17143044
-1.8276218	7 m	-0.17143044
-1.228733	_ m	-0.31814745
-1.8592585	ú m	-0.17143044
-0.82495666	ằ m	-0.22123179
-1.5060511	ụ m	-0.24845184
-1.0016103	é m	-0.3399972
-1.3595203	ơ m	-0.22123179
-1.8145814	; m	-0.17143044
-1.6218525	* m	-0.17143044
-1.802766	5 m	-0.17143044
-0.7489766	ẩ m	-0.36952043
-1.0956224	è m	-0.24845184
-0.8974864	& m	-0.46493596
-1.252485	ā m	-0.17143044
-0.7091241	\ m	-0.17143044
-1.3911284	| a	-0.365502
-1.1910466	c a	-0.5030461
-1.6678432	o a	-0.275321
-1.3882241	n a	-0.47071362
-0.920454	f a	-0.28686744
-1.1269944	l a	-0.4435447
-1.4831748	i a	-0.45158982
-1.2758901	t a	-0.47025567
-1.5516641	= a	-0.34245598
-1.173077	r a	-0.47110847
-1.6746556	# a	-0.66085744
-0.9830352	k a	-0.3974449
-1.2042556	m a	-0.52776706
-1.961096	a a	-0.17143044
-1.2854099	g a	-0.35905612
-1.4030794	u a	-0.43144786
-1.3579668	e a	-0.3974449
-1.1426923	p a	-0.43758965
-1.8387882	[ a	-0.17143044
-1.2375083	h a	-0.47737336
-1.4598738	ỉ a	-0.17143044
-1.3500127	s a	-0.44762605
-1.1034635	b a	-0.39587176
-2.0284765	1 a	-0.22123179
-1.8402534	q a	-0.17143044
-1.3724618	đ a	-0.22942694
-1.1146477	d a	-0.4452182
-0.8851121	z a	-0.19370854
-0.95135593	w a	-0.30950227
-1.1871133	y a	-0.3853607
-1.909171	' a	-0.18445623
-1.3553646	- a	-0.22893246
-0.7879424	ữ a	-0.39829493
-1.6785069	( a	-0.17143044
-1.1703931	v a	-0.3512057
-1.741021	ị a	-0.17143044
-0.86433405	ự a	-0.44944745
-0.808043	ù a	-0.46245646
-1.276305	ọ a	-0.26081598
-1.4510872	. a	-0.32017958
-1.6065075	ó a	-0.18944341
-1.2334045	ò a	-0.24845184
-1.1238245	ư a	-0.45354193
-1.2842497	ủ a	-0.24845184
-2.056074	, a	-0.24845184
-1.1125968	ứ a	-0.26081598
-0.9502048	ì a	-0.45753962
-1.6141466	x a	-0.18740462
-1.38731	ỏ a	-0.24845184
-1.4729397	í a	-0.22123179
-0.76532286	ử a	-0.46493596
-1.9173222	" a	-0.17143044
-1.6407676	: a	-0.18944341
-1.2451781	/ a	-0.277444
-2.0264163	0 a	-0.17143044
-0.7793343	j a	-0.33476534
-1.4091115	_ a	-0.34030297
-1.9283899	4 a	-0.24845184
-1.4611351	ú a	-0.24458171
-0.79867685	ừ a	-0.26081598
-1.8268522	ụ a	-0.17143044
-1.5995737	ũ a	-0.17143044
-1.7983011	é a	-0.17143044
-1.2355151	ĩ a	-0.22123179
-1.6437547	* a	-0.17143044
-2.1321695	5 a	-0.17143044
-2.1248186	8 a	-0.17143044
-2.146285	9 a	-0.17143044
-0.42251393	ț a	-0.17143044
-0.71182346	ñ a	-0.17143044
-0.42251393	ṇ a	-0.17143044
-0.42251393	ḍ a	-0.17143044
-0.29108256	ṣ a	-0.17143044
-0.9903207	ç a	-0.17143044
-1.0763881	ð a	-0.17143044
-0.42251393	ʻ a	-0.17143044
-0.42251393	ʿ a	-0.17143044
-1.7529427	<s> g	-0.24845184
-1.76248	| g	-0.31814745
-2.120051	c g	-0.2863652
-1.6925272	o g	-0.2584504
-0.9812093	n g	-0.6860491
-2.3052704	f g	-0.17143044
-2.2554271	l g	-0.17143044
-1.7360454	i g	-0.31459206
-2.1182475	t g	-0.17143044
-1.6621606	= g	-0.245546
-2.0575638	r g	-0.21375802
-1.5166312	# g	-0.7692593
-2.3585987	k g	-0.17143044
-2.1243923	m g	-0.22123179
-1.6395923	a g	-0.3759951
-1.9521146	g g	-0.20062105
-1.9377054	u g	-0.18944341
-1.8239791	e g	-0.22001642
-2.2807956	p g	-0.17143044
-1.9516578	[ g	-0.1714304
-2.4808965	h g	-0.17143044
-2.038521	s g	-0.19207878
-1.9422019	b g	-0.20823592
-2.2201884	d g	-0.22123179
-2.0273266	> g	-0.17143044
-2.019743	z g	-0.17143044
-2.2199194	y g	-0.17143044
-2.2747164	' g	-0.17143044
-1.7305437	- g	-0.17143044
-2.0274372	( g	-0.17143044
-1.8176154	v g	-0.17143044
-1.5802437	. g	-0.41068995
-1.9861046	í g	-0.17143044
-1.8950597	" g	-0.20062105
-1.8777101	: g	-0.17143044
-1.5295694	/ g	-0.20823592
-1.5730135	_ g	-0.19561765
-1.3916703	? g	-0.17143044
-1.3563604	! g	-0.24845184
-1.7412912	* g	-0.17143044
-1.2948582	ā g	-0.17143044
-0.4679222	ṃ g	-0.17143044
-1.7187495	<s> u	-0.24845184
-1.8070084	| u	-0.31152847
-1.6485116	c u	-0.34156817
-1.6006892	o u	-0.33406132
-2.0904994	n u	-0.20529127
-1.2856297	f u	-0.2387787
-1.4545732	l u	-0.29241243
-1.9973226	i u	-0.29222047
-1.5151778	t u	-0.29040432
-1.2706645	r u	-0.30607033
-1.1699387	ậ u	-0.34030297
-1.9048673	# u	-0.57224387
-1.3964962	k u	-0.2530446
-1.5783678	m u	-0.34091744
-1.4948931	a u	-0.38846588
-1.3916243	g u	-0.26612243
-2.2328124	u u	-0.20823592
-1.7131485	e u	-0.253405
-1.5381311	p u	-0.26183507
-1.4667884	h u	-0.3434947
-1.3991265	s u	-0.37260267
-1.4178699	b u	-0.3337326
-0.41885448	q u	-0.41569984
-0.6113813	â u	-0.5294032
-2.0467145	đ u	-0.17143044
-1.4892343	d u	-0.22018982
-1.5331239	z u	-0.17143044
-1.6827068	y u	-0.23665807
-2.1762075	' u	-0.17143044
-2.0693746	- u	-0.22123179
-1.3030664	à u	-0.31523922
-1.7989302	á u	-0.26081598
-1.651794	ữ u	-0.17143044
-1.910963	( u	-0.1714304
-1.5708517	v u	-0.2913384
-0.93819255	ê u	-0.3399972
-1.1593592	ể u	-0.24845184
-0.873901	ề u	-0.34053242
-1.7636294	ị u	-0.17143044
-1.3234848	ự u	-0.3326009
-1.6611475	. u	-0.3838487
-1.2806556	ư u	-0.41214922
-1.6949519	ợ u	-0.17143044
-1.457402	ế u	-0.25527734
-1.8129395	ứ u	-0.17143044
-1.6358054	x u	-0.18578053
-0.81068105	ấ u	-0.57438624
-1.7763857	ệ u	-0.17143044
-1.9167459	í u	-0.17143044
-0.9649475	ẫ u	-0.2863652
-0.58779347	ầ u	-0.52414435
-1.2260562	ử u	-0.2863652
-1.3158098	ễ u	-0.17143044
-2.1621692	" u	-0.17143044
-1.8284587	: u	-0.17143044
-2.3116064	/ u	-0.17143044
-1.4127687	j u	-0.2733562
-2.081513	_ u	-0.17143044
-1.1647613	ừ u	-0.22123179
-1.6747895	* u	-0.17143044
-1.1151371	ẩ u	-0.24458171
-0.7154489	ž u	-0.17143044
-0.7154489	ś u	-0.17143044
-0.997231	ç u	-0.17143044
-0.42437246	ḥ u	-0.17143044
-1.7565598	| e	-0.2785131
-1.3968627	c e	-0.44180843
-1.9018291	o e	-0.20062105
-1.3463986	n e	-0.40691814
-1.3620076	f e	-0.30776268
-1.1028559	l e	-0.46295565
-1.6371112	i e	-0.39238542
-1.4366622	t e	-0.43367392
-2.148822	= e	-0.17143044
-1.1066066	r e	-0.48188818
-1.9026306	# e	-0.54333496
-1.0570725	k e	-0.32928666
-1.3859463	m e	-0.45970708
-1.5628924	a e	-0.37870786
-1.1076827	g e	-0.37853116
-1.6403165	u e	-0.28557566
-1.6453524	e e	-0.27656725
-1.1494728	p e	-0.36369523
-1.926615	[ e	-0.17143044
-1.3602413	h e	-0.4650786
-1.3414758	s e	-0.37917313
-1.1130974	b e	-0.4702127
-2.4419413	1 e	-0.17143044
-1.5521847	q e	-0.24845184
-2.1258113	đ e	-0.17143044
-2.102634	2 e	-0.17143044
-1.187333	d e	-0.37514997
-1.9964547	> e	-0.17143044
-0.83965963	z e	-0.2587307
-0.95840234	w e	-0.3166287
-1.3208917	y e	-0.27509567
-1.9714454	' e	-0.17143044
-1.5467292	- e	-0.52940327
-1.9885721	( e	-0.17143044
-1.1224223	v e	-0.39379466
-2.0910401	. e	-0.2913384
-1.4863424	“ e	-0.17143044
-1.0985774	x e	-0.2785131
-1.7782332	ỏ e	-0.17143044
-2.235723	" e	-0.17143044
-1.466553	/ e	-0.27106917
-1.0977238	j e	-0.22967644
-1.875128	_ e	-0.17143044
-1.8621757	é e	-0.17143044
-1.7199526	* e	-0.17143044
-1.9857675	5 e	-0.24845184
-1.4352429	% e	-0.17143044
-0.42686296	ß e	-0.17143044
-2.0063863	& e	-0.17143044
-2.0191731	<s> p	-0.17143044
-1.259605	| p	-0.5572667
-2.4080014	c p	-0.17143044
-1.6761491	o p	-0.26477602
-2.4006503	n p	-0.17143044
-1.9602128	f p	-0.17143044
-1.949656	l p	-0.17143044
-2.150714	i p	-0.22123179
-1.9871366	t p	-0.18740462
-1.7294266	= p	-0.20062105
-1.8961838	r p	-0.22123179
-0.7622527	ậ p	-0.40576768
-1.5898387	# p	-0.97936493
-1.9583313	k p	-0.17143044
-1.8148761	m p	-0.27243763
-1.6857741	a p	-0.373505
-2.2700133	g p	-0.17143044
-1.7717954	u p	-0.20529127
-1.5719861	e p	-0.3235077
-1.5381311	p p	-0.26783893
-1.8742777	[ p	-0.17143044
-2.219353	h p	-0.17143044
-1.503094	s p	-0.41129735
-1.6057007	ộ p	-0.24845184
-1.0183346	ắ p	-0.5544497
-1.8913149	b p	-0.20062105
-2.2901478	2 p	-0.17143044
-2.1263661	d p	-0.17143044
-2.2171423	< p	-0.17143044
-1.9416256	z p	-0.17143044
-2.1188092	w p	-0.17143044
-1.8918871	y p	-0.20823592
-2.1762075	' p	-0.17143044
-1.9765877	- p	-0.20823592
-1.473827	á p	-0.28234833
-1.910963	( p	-0.17143044
-1.6304312	ố p	-0.17143044
-1.7636294	ị p	-0.17143044
-1.4206152	ọ p	-0.24845184
-1.367821	. p	-0.49634194
-1.4947488	ó p	-0.3326009
-1.6949519	ợ p	-0.17143044
-1.1209153	ế p	-0.3424909
-2.3406389	, p	-0.17143044
-1.2615285	ạ p	-0.31774357
-1.1678967	ớ p	-0.25724727
-1.9718683	x p	-0.17143044
-1.0295858	ấ p	-0.37475932
-1.7763857	ệ p	-0.1714304
-1.6124886	í p	-0.24845184
-1.2600543	ặ p	-0.22123179
-1.9472047	" p	-0.17143044
-1.6568295	: p	-0.22123179
-1.5773859	/ p	-0.26699492
-1.6646893	0 p	-0.46245646
-1.4127687	j p	-0.18944341
-1.2401156	_ p	-0.2863652
-1.4726484	ú p	-0.26081598
-1.5292248	ụ p	-0.24845184
-1.0087838	é p	-0.38327524
-1.2323714	? p	-0.3326009
-1.6747895	* p	-0.17143044
-0.8586309	ẹ p	-0.23334645
-1.3019162	& p	-0.20823592
-0.42437246	∆ p	-0.17143044
-1.8537822	| [	-0.7005776
-2.9669628	i [	-0.17143044
-1.2223887	= [	-1.0315709
-0.54543155	[ [	-0.48682576
-2.2189755	] [	-0.17143044
-1.2932826	> [	-0.39954764
-2.4088311	' [	-0.17143044
-2.2385867	- [	-0.24845184
-2.2310581	à [	-0.17143044
-2.1955495	( [	-0.17143044
-2.5476768	, [	-0.17143044
-2.4278955	" [	-0.17143044
-2.0715747	: [	-0.24845184
-2.4273307	4 [	-0.17143044
-1.4311614	* [	-0.22123179
-1.6899107	} [	-0.17143044
-1.3653995	– [	-0.17143044
-1.5521072	° [	-0.17143044
-2.0937524	<s> h	-0.17143044
-1.4945312	| h	-0.25458986
-1.1573493	c h	-0.4175703
-1.9113326	o h	-0.23665807
-1.2597708	n h	-0.4746877
-2.260212	l h	-0.24845184
-2.0291028	i h	-0.23191597
-1.2888855	t h	-0.40711638
-1.7612468	= h	-0.25724727
-2.2117677	r h	-0.22123179
-1.5169026	# h	-0.96085143
-1.110805	k h	-0.35230017
-2.0142787	m h	-0.19561765
-1.9382734	a h	-0.22771306
-1.5438582	g h	-0.21977371
-1.9487641	e h	-0.23334645
-1.1974336	p h	-0.33728996
-1.2864714	[ h	-0.20646773
-1.3249221	s h	-0.4732802
-2.1113408	b h	-0.22123179
-2.1301246	d h	-0.17143044
-2.0319216	> h	-0.17143044
-1.5632707	z h	-0.17143044
-1.5947313	w h	-0.20062105
-2.4632647	y h	-0.17143044
-1.9910113	' h	-0.18242663
-1.4280771	- h	-0.24612565
-2.0332847	( h	-0.17143044
-1.2792691	. h	-0.70222795
-1.500451	“ h	-0.17143044
-2.2777689	" h	-0.17143044
-1.996885	: h	-0.1714304
-1.5979975	/ h	-0.22123179
-1.894514	_ h	-0.17143044
-1.3928527	? h	-0.17143044
-1.7361618	! h	-0.17143044
-1.744427	* h	-0.17143044
-2.2205243	6 h	-0.17143044
-1.5474944	{ h	-0.17143044
-1.666764	ā h	-0.17143044
-0.42811358	ṭ h	-0.17143044
-2.8377578	c ờ	-0.17143044
-2.7256963	l ờ	-0.17143044
-3.030993	i ờ	-0.17143044
-2.6465864	t ờ	-0.24845184
-2.4749782	r ờ	-0.22123179
-2.8353796	m ờ	-0.17143044
-2.6786304	g ờ	-0.17143044
-2.4212973	h ờ	-0.19207878
-2.6722896	b ờ	-0.17143044
-2.3850346	đ ờ	-0.17143044
-2.688995	d ờ	-0.17143044
-2.556468	v ờ	-0.17143044
-0.9767804	ư ờ	-0.6336309
-2.7241693	k ỳ	-0.17143044
-2.48779	u ỳ	-0.23191597
-2.111205	t ỉ	-0.38824844
-2.667868	k ỉ	-0.17143044
-2.6087117	h ỉ	-0.20823592
-2.7709527	b ỉ	-0.17143044
-2.4601114	đ ỉ	-0.17143044
-2.3139298	x ỉ	-0.17143044
-1.7377442	<s> s	-0.17143044
-1.7540472	| s	-0.2352061
-2.0938215	c s	-0.1714304
-1.3502944	o s	-0.38749295
-1.790914	n s	-0.2977259
-1.7123494	l s	-0.19370854
-1.4930575	i s	-0.44432327
-1.6340003	t s	-0.37586427
-1.5734258	= s	-0.2155251
-1.9237968	r s	-0.24221988
-1.4885566	# s	-0.9212687
-1.991339	k s	-0.20062105
-2.2370327	m s	-0.20823592
-1.3657641	a s	-0.50768965
-1.8155398	g s	-0.20062105
-1.3048341	u s	-0.36686254
-1.3290545	e s	-0.46802592
-1.6705072	p s	-0.2159867
-1.9163092	[ s	-0.17143044
-2.2800558	h s	-0.24845184
-1.7969062	s s	-0.3085977
-1.6399661	b s	-0.23334645
-1.6040775	d s	-0.21846326
-1.2798566	< s	-0.46245646
-1.7097214	> s	-0.17143044
-1.9840411	z s	-0.17143044
-1.894648	w s	-0.17143044
-1.6179681	y s	-0.31152847
-1.2166691	' s	-0.27620238
-1.622009	- s	-0.22771306
-2.2386358	á s	-0.17143044
-1.7489424	( s	-0.18242663
-1.7970973	v s	-0.17143044
-1.5336485	. s	-0.3815821
-2.0362828	ô s	-0.17143044
-1.4811677	“ s	-0.17143044
-1.4987707	í s	-0.22123179
-1.9820807	" s	-0.19561765
-1.6749274	: s	-0.24612565
-1.3272216	/ s	-0.2629514
-2.3279176	0 s	-0.17143044
-1.7539855	j s	-0.17143044
-1.3290662	_ s	-0.19561765
-1.3800199	? s	-0.17143044
-0.71941096	… s	-0.17143044
-1.7135087	! s	-0.17143044
-1.7111189	* s	-0.17143044
-1.1675549	& s	-0.17143044
-1.5319557	{ s	-0.17143044
-1.0048435	ü s	-0.17143044
-0.71941096	‘ s	-0.17143044
-0.890996	’ s	-0.17143044
-2.541317	c ộ	-0.22123179
-2.5427885	n ộ	-0.2863652
-2.4285164	l ộ	-0.19561765
-2.9450169	t ộ	-0.17143044
-2.4828515	r ộ	-0.20823592
-1.897696	m ộ	-0.4664305
-2.3697596	g ộ	-0.17143044
-1.9867647	u ộ	-0.27473062
-2.428291	h ộ	-0.25724727
-2.3584075	b ộ	-0.18445623
-1.3538032	đ ộ	-0.37275606
-2.568139	v ộ	-0.17143044
-2.7973528	c ắ	-0.17143044
-2.8949666	o ắ	-0.17143044
-2.928427	n ắ	-0.17143044
-2.6854625	l ắ	-0.17143044
-2.6222312	t ắ	-0.20823592
-2.45218	r ắ	-0.23191597
-3.359342	# ắ	-0.17143044
-2.7927938	m ắ	-0.17143044
-2.3448591	g ắ	-0.24845184
-2.8339803	u ắ	-0.17143044
-2.2172222	h ắ	-0.2785131
-2.8293295	s ắ	-0.17143044
-1.7679054	b ắ	-0.42067295
-2.356448	đ ắ	-0.17143044
-2.6505451	d ắ	-0.17143044
-2.5232263	v ắ	-0.17143044
-2.0674438	<s> b	-0.17143044
-1.4589504	| b	-0.34862128
-2.250528	c b	-0.22123179
-1.6471165	o b	-0.3811136
-2.1213856	n b	-0.25724727
-2.274328	f b	-0.17143044
-2.138442	l b	-0.22123179
-1.6371112	i b	-0.34862128
-2.2052474	t b	-0.17143044
-2.045982	= b	-0.18740462
-1.9304262	r b	-0.18944341
-1.5095328	# b	-0.9017701
-2.1014774	k b	-0.17143044
-1.7224569	m b	-0.24513246
-1.6936374	a b	-0.31227696
-2.090982	g b	-0.17143044
-1.6844579	u b	-0.22510672
-1.9402224	e b	-0.19561765
-2.2582736	p b	-0.17143044
-1.926615	[ b	-0.17143044
-2.0935311	h b	-0.17143044
-2.0240936	s b	-0.17143044
-1.6434916	b b	-0.23665807
-1.8348278	d b	-0.19561765
-0.5492921	< b	-1.270453
-1.7163715	> b	-0.17143044
-1.9944469	z b	-0.17143044
-2.1819096	w b	-0.17143044
-2.1961157	y b	-0.17143044
-2.2423031	' b	-0.17143044
-1.5467292	- b	-0.18944341
-1.9885721	( b	-0.17143044
-2.0910401	. b	-0.21174186
-1.7818443	x b	-0.17143044
-1.9905429	" b	-0.20823592
-1.8621207	: b	-0.20823592
-1.466553	/ b	-0.23274983
-2.3428946	0 b	-0.17143044
-1.7562246	_ b	-0.20823592
-1.8778411	; b	-0.17143044
-1.7195706	! b	-0.17143044
-1.7199526	* b	-0.17143044
-2.2426634	8 b	-0.17143044
-2.2571635	9 b	-0.17143044
-1.4352429	% b	-0.17143044
-0.42686296	~ b	-0.17143044
-1.5361388	{ b	-0.17143044
-1.6481159	ā b	-0.17143044
-0.7203304	\ b	-0.17143044
-1.9070401	| 1	-0.24612565
-2.1173556	c 1	-0.17143044
-2.459927	o 1	-0.17143044
-2.6737263	n 1	-0.17143044
-2.0293663	t 1	-0.24458171
-1.4561576	= 1	-0.26201752
-2.4534194	r 1	-0.17143044
-1.9615657	# 1	-0.590218
-2.5278277	m 1	-0.17143044
-2.5173175	a 1	-0.2863652
-2.5891829	u 1	-0.17143044
-2.7255988	e 1	-0.17143044
-1.9479907	[ 1	-0.17143044
-2.4730103	h 1	-0.17143044
-2.5728893	s 1	-0.17143044
-1.2951742	1 1	-0.2790087
-1.2660247	2 1	-0.21846326
-2.2156587	d 1	-0.17143044
-2.264278	< 1	-0.17143044
-1.9148258	w 1	-0.17143044
-2.2699351	' 1	-0.17143044
-1.073741	- 1	-0.44502646
-1.4842448	( 1	-0.24122985
-1.801448	. 1	-0.20823592
-2.5623455	) 1	-0.17143044
-1.5552206	, 1	-0.23334645
-1.7976716	x 1	-0.17143044
-2.2668698	" 1	-0.17143044
-1.9909586	: 1	-0.17143044
-1.331486	/ 1	-0.3268912
-1.3805063	0 1	-0.19918564
-2.2062716	7 1	-0.17143044
-1.7671756	_ 1	-0.17143044
-1.1376956	4 1	-0.20598239
-1.2921228	6 1	-0.1714304
-1.5571768	5 1	-0.23334645
-1.1835804	3 1	-0.20529127
-1.2557759	8 1	-0.21222262
-1.0240778	9 1	-0.23135012
-0.9674349	$ 1	-0.17143044
-0.7815805	– 1	-0.22123179
-1.515039	° 1	-0.17143044
-0.46777517	£ 1	-0.17143044
-1.9289654	| q	-0.52940327
-2.6947412	c q	-0.17143044
-2.5440261	o q	-0.24845184
-2.6491473	i q	-0.17143044
-1.9185073	= q	-0.45753962
-2.3901916	r q	-0.24845184
-1.6954433	# q	-1.353867
-2.35269	m q	-0.23191597
-1.9003258	a q	-0.35662112
-2.7362485	u q	-0.17143044
-2.0192628	[ q	-0.17143044
-2.6430004	h q	-0.17143044
-2.1706538	b q	-0.3326009
-2.2980042	w q	-0.17143044
-2.5742533	y q	-0.17143044
-2.365262	' q	-0.17143044
-2.2088146	- q	-0.17143044
-2.1394575	( q	-0.17143044
-2.0649257	" q	-0.24845184
-2.359935	: q	-0.17143044
-2.547372	/ q	-0.17143044
-1.7979475	* q	-0.17143044
-1.5425876	è q	-0.17143044
-2.0746143	& q	-0.17143044
-1.5711374	{ q	-0.17143044
-2.8207405	| â	-0.17143044
-2.500502	c â	-0.22123179
-2.9034967	n â	-0.17143044
-2.6605718	l â	-0.17143044
-2.9669628	i â	-0.17143044
-2.4945042	t â	-0.2733562
-2.695562	r â	-0.17143044
-2.1697037	# â	-0.76067
-2.7665594	m â	-0.17143044
-2.3329248	g â	-0.17143044
-2.212451	u â	-0.38327524
-1.9842436	h â	-0.3611389
-2.0919762	s â	-0.37614346
-2.0149543	đ â	-0.22123179
-1.8972241	d â	-0.46245646
-2.5572283	- â	-0.17143044
-2.5023994	v â	-0.17143044
-1.8706348	x â	-0.22123179
-2.179698	<s> đ	-0.17143044
-1.6224185	| đ	-0.23662245
-2.9669628	i đ	-0.17143044
-2.8553414	t đ	-0.17143044
-2.2678318	= đ	-0.17143044
-1.4588153	# đ	-1.0668848
-2.7338846	a đ	-0.24845184
-2.0504792	[ đ	-0.17143044
-2.1537685	> đ	-0.17143044
-2.4088311	' đ	-0.17143044
-2.2385867	- đ	-0.17143044
-2.1955495	( đ	-0.17143044
-1.5437694	“ đ	-0.17143044
-2.4278955	" đ	-0.17143044
-2.4110038	: đ	-0.17143044
-2.2841575	/ đ	-0.17143044
-1.7877283	! đ	-0.17143044
-1.8236102	* đ	-0.17143044
-2.0870245	<s> 2	-0.17143044
-1.9070401	| 2	-0.43744248
-2.5421875	c 2	-0.17143044
-2.3678312	t 2	-0.22123179
-1.5143374	= 2	-0.2896743
-2.0545897	r 2	-0.20062105
-2.0078912	# 2	-0.48007166
-2.8198247	a 2	-0.17143044
-2.5891829	u 2	-0.17143044
-2.7255988	e 2	-0.17143044
-2.2775056	p 2	-0.17143044
-1.9479907	[ 2	-0.17143044
-2.4730103	h 2	-0.17143044
-2.3054745	s 2	-0.22123179
-1.4218397	1 2	-0.22565585
-1.150141	2 2	-0.2178506
-2.264278	< 2	-0.17143044
-2.0227797	> 2	-0.17143044
-2.2081552	w 2	-0.17143044
-1.2880247	- 2	-0.35362974
-1.7773824	( 2	-0.20062105
-2.3022888	v 2	-0.17143044
-1.8805923	. 2	-0.23665807
-2.221776	) 2	-0.17143044
-1.5552206	, 2	-0.2540283
-2.0079787	" 2	-0.17143044
-1.5573645	: 2	-0.20062105
-1.5288187	/ 2	-0.46493596
-1.5078495	0 2	-0.21174186
-1.8016727	7 2	-0.17143044
-1.7671756	_ 2	-0.20823592
-1.2972168	4 2	-0.2540283
-1.506174	; 2	-0.17143044
-1.6110575	6 2	-0.17143044
-1.8819546	5 2	-0.17143044
-1.4476222	3 2	-0.23274983
-1.4657886	8 2	-0.20398897
-1.140354	9 2	-0.2581836
-1.2998284	% 2	-0.24845184
-0.9674349	$ 2	-0.17143044
-1.3346416	– 2	-0.17143044
-1.1007401	º 2	-0.17143044
-1.0129548	≤ 2	-0.17143044
-1.4632044	| d	-0.4186616
-2.381925	c d	-0.19561765
-1.5817459	o d	-0.31010365
-1.8032395	n d	-0.29157755
-2.0176702	f d	-0.17143044
-1.8063991	l d	-0.22404653
-1.4232466	i d	-0.45500606
-2.6370773	t d	-0.17143044
-2.073324	= d	-0.17143044
-1.8634958	r d	-0.26564172
-1.5174459	# d	-0.82391775
-2.2888985	m d	-0.17143044
-1.5443828	a d	-0.33921093
-2.126082	g d	-0.17143044
-1.6481841	u d	-0.38058707
-1.3686091	e d	-0.39549363
-2.1770184	p d	-0.3326009
-1.9628488	[ d	-0.17143044
-2.2704375	h d	-0.22123179
-2.321258	s d	-0.17143044
-2.118327	b d	-0.20823592
-1.7606555	d d	-0.20398897
-1.9368362	y d	-0.2863652
-2.2893844	' d	-0.1714304
-1.734663	- d	-0.25724727
-2.0452209	( d	-0.17143044
-2.3287327	v d	-0.17143044
-2.1099615	. d	-0.26081598
-2.0911708	x d	-0.17143044
-1.9019731	" d	-0.17143044
-2.0028932	: d	-0.17143044
-1.4731004	/ d	-0.2159867
-1.2546347	_ d	-0.29669848
-1.8966477	; d	-0.17143044
-1.7507672	* d	-0.17143044
-2.293924	8 d	-0.17143044
-0.4284268	ä d	-0.17143044
-0.82846636	ī d	-0.24845184
-1.5503803	{ d	-0.17143044
-1.9928045	c ]	-0.5544497
-1.9030057	o ]	-0.7005776
-1.580604	n ]	-0.88842523
-2.2786157	f ]	-0.17143044
-2.1420922	l ]	-0.3326009
-1.6376687	i ]	-0.88842523
-1.744853	t ]	-0.89687234
-1.9326587	r ]	-0.5544497
-2.3232093	k ]	-0.17143044
-2.1073232	m ]	-0.45753962
-1.9322183	a ]	-0.8097221
-1.9376631	g ]	-0.38327524
-2.288043	u ]	-0.2863652
-1.819152	e ]	-0.8097221
-2.2614202	p ]	-0.24845184
-2.300579	h ]	-0.24845184
-1.746935	s ]	-0.8097221
-1.7772896	1 ]	-0.5544497
-1.950444	d ]	-0.45753962
-0.21582042	] ]	-0.7555591
-1.9979717	z ]	-0.17143044
-1.7966871	y ]	-0.5544497
-2.2535017	á ]	-0.17143044
-1.6812744	ữ ]	-0.17143044
-1.9212192	ã ]	-0.17143044
-2.003442	ố ]	-0.17143044
-1.7978175	ị ]	-0.17143044
-2.5812998	. ]	-0.17143044
-1.9367851	ế ]	-0.17143044
-2.0805006	) ]	-0.22123179
-2.015396	ả ]	-0.17143044
-1.6760198	ủ ]	-0.17143044
-1.7844424	x ]	-0.24845184
-1.9669163	í ]	-0.17143044
-1.7416799	ử ]	-0.17143044
-2.104035	0 ]	-0.24845184
-2.1829903	7 ]	-0.17143044
-2.2669709	4 ]	-0.17143044
-1.7647729	ơ ]	-0.17143044
-1.6338222	ĩ ]	-0.17143044
-1.7216102	! ]	-0.17143044
-2.1876314	6 ]	-0.17143044
-1.8719692	5 ]	-0.3326009
-2.252806	3 ]	-0.17143044
-1.5754458	ý ]	-0.17143044
-1.9918507	8 ]	-0.24845184
-1.6815193	9 ]	-0.45753962
-1.1000867	² ]	-0.17143044
-2.3368478	o <	-0.24845184
-1.8947619	n <	-0.39829493
-2.377481	l <	-0.17143044
-2.0888066	i <	-0.3326009
-2.3340232	t <	-0.20823592
-2.3560917	= <	-0.17143044
-2.3065405	k <	-0.17143044
-2.3201332	m <	-0.17143044
-2.0499504	a <	-0.34030297
-2.347887	g <	-0.17143044
-2.5370014	u <	-0.17143044
-2.482435	e <	-0.22123179
-2.2520475	p <	-0.17143044
-2.2850964	h <	-0.17143044
-2.129274	s <	-0.2863652
-2.0820642	1 <	-0.17143044
-1.7984737	2 <	-0.20823592
-2.352021	d <	-0.17143044
-1.0257967	] <	-0.5160885
-1.5919323	> <	-0.22123179
-2.1735022	w <	-0.17143044
-2.1895478	y <	-0.17143044
-2.2334697	' <	-0.17143044
-2.2537906	v <	-0.17143044
-1.7915854	ị <	-0.17143044
-1.7915614	ọ <	-0.17143044
-1.3219217	. <	-0.63938487
-1.6420348	ó <	-0.24845184
-1.9273269	ế <	-0.17143044
-1.60118	” <	-0.17143044
-1.6257172	) <	-0.3399972
-2.008177	ả <	-0.17143044
-1.6694857	ủ <	-0.17143044
-1.9833777	, <	-0.22123179
-1.6939374	" <	-0.45753962
-2.210081	: <	-0.17143044
-2.095331	0 <	-0.17143044
-1.7868547	7 <	-0.17143044
-2.253765	4 <	-0.17143044
-1.5640281	ừ <	-0.17143044
-1.6281736	ĩ <	-0.17143044
-1.7155199	! <	-0.17143044
-2.1742628	6 <	-0.17143044
-2.2373972	5 <	-0.17143044
-1.9773196	3 <	-0.17143044
-1.5704032	ý <	-0.17143044
-0.9278579	े <	-0.24845184
-1.7889103	% <	-0.17143044
-1.6497531	} <	-0.17143044
-0.8933121	ा <	-0.45753962
-1.6435763	ā <	-0.17143044
-2.4508657	f >	-0.17143044
-2.698464	l >	-0.17143044
-2.4596472	r >	-0.17143044
-2.8463323	u >	-0.17143044
-2.9590786	e >	-0.17143044
-2.3805945	p >	-0.17143044
-2.7773943	h >	-0.17143044
-2.842472	s >	-0.17143044
-2.6477778	b >	-0.17143044
-2.5856454	- >	-0.17143044
-1.1798258	" >	-0.5140692
-2.1621006	/ >	-0.18034351
-2.4447405	5 >	-0.17143044
-2.440454	3 >	-0.17143044
-2.4492438	8 >	-0.17143044
-2.3670974	c z	-0.17143044
-2.0183342	o z	-0.245546
-2.612185	n z	-0.17143044
-2.1388736	i z	-0.20823592
-2.8166096	t z	-0.17143044
-2.6583078	r z	-0.17143044
-2.5576115	# z	-0.31774357
-2.3727803	m z	-0.17143044
-2.085133	a z	-0.20823592
-2.585089	g z	-0.17143044
-2.510685	u z	-0.17143044
-2.0538094	e z	-0.18740462
-2.0368252	[ z	-0.17143044
-2.0849233	s z	-0.17143044
-2.3003283	y z	-0.17143044
-2.5305572	- z	-0.17143044
-2.3698692	á z	-0.17143044
-2.170618	( z	-0.17143044
-2.0707302	ó z	-0.17143044
-2.579868	/ z	-0.17143044
-0.431256	ö z	-0.17143044
-1.7623237	<s> w	-0.24845184
-2.322347	| w	-0.20823592
-1.6556981	o w	-0.30154413
-2.4316099	n w	-0.22123179
-2.484101	l w	-0.17143044
-2.492697	i w	-0.22123179
-2.13335	t w	-0.20062105
-2.081874	= w	-0.17143044
-2.324771	r w	-0.17143044
-2.0138168	# w	-0.53033274
-2.5825589	m w	-0.17143044
-1.7322643	a w	-0.46868187
-2.2381208	g w	-0.17143044
-2.640628	u w	-0.17143044
-1.8288604	e w	-0.2344205
-2.5634334	p w	-0.17143044
-1.9743359	[ w	-0.17143044
-2.5314798	h w	-0.17143044
-1.7099214	s w	-0.3199058
-2.4501634	b w	-0.17143044
-1.8599118	d w	-0.2733562
-2.0426633	z w	-0.17143044
-1.6002572	w w	-0.2863652
-1.9423352	y w	-0.20823592
-2.304565	' w	-0.17143044
-1.7388217	- w	-0.20062105
-2.063764	( w	-0.17143044
-2.1158025	. w	-0.20823592
-2.3062773	" w	-0.17143044
-2.2901433	: w	-0.17143044
-1.5341008	/ w	-0.33628327
-2.4145222	0 w	-0.17143044
-2.1217136	j w	-0.17143044
-1.9070848	_ w	-0.17143044
-1.7604548	* w	-0.17143044
-0.72433746	′ w	-0.17143044
-1.7548832	| y	-0.5873952
-2.0963745	c y	-0.23334645
-1.974523	o y	-0.22404653
-2.2271135	n y	-0.21375808
-1.9902043	f y	-0.24845184
-1.465241	l y	-0.22076699
-2.2876318	i y	-0.2733562
-1.7030873	t y	-0.30847305
-2.3560917	= y	-0.17143044
-1.4905533	r y	-0.24410349
-0.92259395	ậ y	-0.36390495
-2.0012164	# y	-0.63808274
-1.7022789	k y	-0.25724727
-1.7201631	m y	-0.22771306
-1.6926466	a y	-0.32107657
-1.6532189	g y	-0.18445623
-1.5988309	u y	-0.43564406
-1.6814106	e y	-0.2764353
-1.9197174	[ y	-0.17143044
-1.5684426	h y	-0.28416657
-1.8602804	s y	-0.18944341
-2.0780032	b y	-0.17143044
-0.8490777	â y	-0.3857547
-1.7420918	d y	-0.22967644
-1.9880228	> y	-0.17143044
-1.6788777	z y	-0.17143044
-2.4059987	y y	-0.17143044
-1.9666888	' y	-0.17143044
-1.2036339	à y	-0.37716576
-1.8179235	á y	-0.25724727
-2.0577428	v y	-0.24845184
-1.1941109	ã y	-0.45753962
-1.6993122	ù y	-0.1714304
-1.3040442	ả y	-0.38327524
-1.308039	ủ y	-0.19561765
-1.7516268	ạ y	-0.23191597
-1.7766942	x y	-0.22123179
-0.8123907	ấ y	-0.488584
-1.1174185	ẫ y	-0.24845184
-0.777605	ầ y	-0.7005776
-2.3804653	/ y	-0.17143044
-2.253765	4 y	-0.17143044
-1.486478	ú y	-0.26081598
-1.4085805	ụ y	-0.3326009
-1.6409843	ũ y	-0.17143044
-1.7271514	? y	-0.17143044
-1.7155199	! y	-0.17143044
-1.7140436	* y	-0.17143044
-1.1209717	ẩ y	-0.3326009
-2.0011563	& y	-0.17143044
-1.2858481	ā y	-0.24845184
-0.62947243	<s> '	-1.0859286
-1.9677539	| '	-0.5544497
-1.8038466	c '	-0.52940327
-1.8800584	o '	-0.7005776
-1.6279045	n '	-1.0016077
-1.954047	f '	-0.24845184
-1.9426525	l '	-0.38327524
-1.6266531	i '	-1.0595996
-1.8099544	t '	-0.8097221
-1.5593733	= '	-0.7005776
-1.8900535	r '	-0.44309026
-1.701689	# '	-1.2942398
-1.9510578	k '	-0.22123179
-1.8106289	m '	-0.7005776
-1.7485702	a '	-0.83043325
-2.0312226	g '	-0.3326009
-1.9830295	u '	-0.5544497
-1.6716173	e '	-0.7305409
-1.8268198	p '	-0.5544497
-2.0356002	h '	-0.45753962
-1.3050069	ỳ '	-0.17143044
-1.599266	s '	-0.7634865
-1.6019477	ộ '	-0.24845184
-2.146242	1 '	-0.17143044
-2.2781868	2 '	-0.17143044
-1.7170814	d '	-0.31152847
-2.0838866	] '	-0.17143044
-1.9222796	> '	-0.17143044
-1.9323989	z '	-0.17143044
-1.8609394	w '	-0.22123179
-1.389873	y '	-0.7634865
-0.31851864	' '	-0.6832177
-2.075282	à '	-0.17143044
-1.9133981	á '	-0.24845184
-1.8978378	( '	-0.17143044
-2.1658208	v '	-0.17143044
-1.5355158	ã '	-0.24845184
-1.9564735	ố '	-0.17143044
-1.4114729	ị '	-0.24845184
-1.4559364	ự '	-0.24845184
-1.9431988	. '	-0.5544497
-1.6788385	ô '	-0.24845184
-2.1365278	ư '	-0.17143044
-1.4542428	ế '	-0.3326009
-2.0599346	) '	-0.3326009
-1.6342086	ủ '	-0.17143044
-2.0727668	, '	-0.24845184
-2.0422494	ạ '	-0.17143044
-1.9599953	x '	-0.17143044
-1.4393137	ệ '	-0.24845184
-1.9084641	í '	-0.17143044
-1.6987317	ử '	-0.17143044
-1.3127136	ễ '	-0.17143044
-1.4538803	" '	-0.6336309
-1.3582461	: '	-0.7005776
-2.2557452	0 '	-0.17143044
-1.9472399	4 '	-0.17143044
-1.7065825	ổ '	-0.17143044
-1.8475826	ụ '	-0.17143044
-1.7286205	ơ '	-0.17143044
-1.5974822	ĩ '	-0.17143044
-1.3607057	* '	-0.24845184
-1.9395665	5 '	-0.17143044
-2.1593285	8 '	-0.17143044
-2.1789358	9 '	-0.17143044
-0.4239071	典 '	-0.17143044
-1.6304299	} '	-0.17143044
-1.0827024	ь '	-0.17143044
-3.017002	| 小	-0.17143044
-2.3626425	( 小	-0.17143044
-0.29792467	小 牧	-0.20823592
-0.91089284	牧 ・	-0.17143044
-0.91089284	レ ・	-0.17143044
-0.7350641	・ 長	-0.17143044
-2.3626425	( 長	-0.17143044
-0.29792467	長 久	-0.24845184
-0.43394503	久 手	-0.17143044
-0.43394503	き 手	-0.17143044
-0.7343614	殺 手	-0.17143044
-0.43394503	両 手	-0.17143044
-0.905119	牧 の	-0.17143044
-0.69265103	手 の	-0.17143044
-0.43236125	口 の	-0.17143044
-0.43236125	々 の	-0.17143044
-0.43236125	波 の	-0.17143044
-0.731204	ダ の	-0.17143044
-0.731204	真 の	-0.17143044
-0.43236125	獄 の	-0.17143044
-0.43236125	私 の	-0.17143044
-0.731204	罪 の	-0.17143044
-0.43236125	中 の	-0.17143044
-0.43236125	明 の	-0.17143044
-0.43236125	路 の	-0.17143044
-0.43236125	火 の	-0.17143044
-1.1996696	の 戦	-0.24845184
-0.43429673	合 戦	-0.17143044
-0.7350641	戦 い	-0.17143044
-0.43429673	迷 い	-0.17143044
-2.1067383	c -	-0.17143044
-1.7833458	o -	-0.21174186
-1.7956133	n -	-0.19743986
-1.8771092	f -	-0.17143044
-1.8821044	l -	-0.18944341
-1.9575683	i -	-0.20979768
-1.6711295	t -	-0.26210365
-2.0428936	r -	-0.22510672
-2.1083302	k -	-0.17143044
-1.8412703	m -	-0.26783893
-1.760553	a -	-0.24770978
-2.0977788	g -	-0.1714304
-2.135307	u -	-0.19561765
-1.7696534	e -	-0.2387787
-1.6745765	p -	-0.20823592
-2.232894	h -	-0.17143044
-1.748007	s -	-0.22771306
-2.1842773	b -	-0.17143044
-1.7783784	1 -	-0.27625924
-1.4151354	q -	-0.19788477
-1.6728718	2 -	-0.20823592
-1.6734043	d -	-0.22967644
-2.1356091	] -	-0.17143044
-2.0050535	> -	-0.17143044
-2.0015252	z -	-0.17143044
-2.2027848	y -	-0.17143044
-2.25132	' -	-0.17143044
-2.1266637	- -	-0.17143044
-2.1340647	à -	-0.17143044
-2.257299	á -	-0.17143044
-1.9993261	( -	-0.17143044
-2.0726032	v -	-0.17143044
-2.0500007	ô -	-0.17143044
-1.6782199	ủ -	-0.17143044
-2.0508556	x -	-0.17143044
-1.6843072	0 -	-0.18944341
-1.7942007	7 -	-0.20823592
-1.434132	_ -	-0.5544497
-1.8745145	4 -	-0.20823592
-1.2473552	? -	-0.17143044
-1.7236593	! -	-0.17143044
-1.798373	6 -	-0.20062105
-1.5533682	5 -	-0.23334645
-1.6780213	3 -	-0.26081598
-1.6928272	8 -	-0.23191597
-2.2662814	9 -	-0.17143044
-1.2339767	ন -	-0.17143044
-2.3718991	c à	-0.26081598
-2.1218975	o à	-0.26699492
-2.87992	n à	-0.17143044
-1.7583033	l à	-0.3424275
-2.9437792	i à	-0.17143044
-2.3031495	t à	-0.245546
-2.4235322	r à	-0.24845184
-3.2896943	# à	-0.17143044
-2.1934335	m à	-0.25724727
-2.5957375	g à	-0.17143044
-2.7878118	u à	-0.17143044
-1.7755519	h à	-0.3713167
-2.7804077	s à	-0.17143044
-1.761665	b à	-0.28751832
-2.0066328	đ à	-0.18944341
-2.6040614	d à	-0.17143044
-2.5392668	- à	-0.17143044
-1.8664881	v à	-0.20398897
-2.2052593	x à	-0.17143044
-1.1180235	ð à	-0.17143044
-1.8016549	c á	-0.3811136
-2.0183342	o á	-0.29792687
-2.4976978	n á	-0.20823592
-2.368991	l á	-0.19561765
-2.9326358	i á	-0.17143044
-2.1735764	t á	-0.30595458
-2.3065135	r á	-0.20823592
-2.0100987	# á	-0.6229178
-2.5117347	k á	-0.17143044
-1.9629538	m á	-0.3010348
-2.3156164	g á	-0.17143044
-2.7769976	u á	-0.17143044
-2.0368252	[ á	-0.17143044
-1.898144	h á	-0.3667988
-2.2146177	s á	-0.20823592
-2.18684	b á	-0.18944341
-2.0025313	đ á	-0.18740462
-2.5931783	d á	-0.17143044
-2.1058908	z á	-0.17143044
-2.47292	v á	-0.17143044
-2.1984458	x á	-0.17143044
-2.7973528	c ă	-0.17143044
-2.193002	n ă	-0.37614346
-2.6854625	l ă	-0.17143044
-2.8832252	t ă	-0.17143044
-2.45218	r ă	-0.17143044
-2.0487509	# ă	-1.0992786
-2.7927938	m ă	-0.17143044
-2.3448591	g ă	-0.22123179
-2.2172222	h ă	-0.37614346
-2.8293295	s ă	-0.17143044
-2.3345912	b ă	-0.22123179
-2.0234382	đ ă	-0.24845184
-2.6505451	d ă	-0.17143044
-1.6334857	v ă	-0.6336309
-1.7375212	x ă	-0.3326009
-2.4437773	" ă	-0.17143044
-2.5534778	n ữ	-0.19561765
-2.7700417	l ữ	-0.17143044
-3.0744956	i ữ	-0.17143044
-2.8140895	r ữ	-0.17143044
-2.7196503	g ữ	-0.17143044
-2.244053	h ữ	-0.21375808
-2.9149091	s ữ	-0.17143044
-2.7118642	b ữ	-0.17143044
-2.7311826	d ữ	-0.17143044
-2.5924664	v ữ	-0.17143044
-2.983041	n (	-0.17143044
-1.4938319	# (	-0.7355919
-2.8505564	m (	-0.17143044
-2.6918778	g (	-0.17143044
-2.8274212	h (	-0.17143044
-2.6845536	1 (	-0.17143044
-1.443441	> (	-0.17143044
-2.4500053	' (	-0.17143044
-2.263996	x (	-0.17143044
-2.6633165	/ (	-0.17143044
-1.828624	_ (	-0.22123179
-2.467829	9 (	-0.17143044
-1.6210877	<s> v	-0.22123179
-1.5681599	| v	-0.27767298
-2.5717585	c v	-0.17143044
-1.6537026	o v	-0.31597432
-2.7032561	n v	-0.17143044
-1.8063991	l v	-0.23657663
-1.7039555	i v	-0.46245643
-2.6370773	t v	-0.17143044
-2.4264348	= v	-0.17143044
-2.0666096	r v	-0.22510672
-1.5019236	# v	-0.9022815
-2.027063	k v	-0.3326009
-2.5582535	m v	-0.17143044
-1.6146922	a v	-0.38366944
-2.6178303	u v	-0.17143044
-1.6507477	e v	-0.43712118
-1.9628488	[ v	-0.17143044
-2.321258	s v	-0.17143044
-2.428055	b v	-0.17143044
-1.9730426	d v	-0.22123179
-2.2265768	w v	-0.17143044
-2.2893844	' v	-0.17143044
-1.8624189	- v	-0.2863652
-2.0452209	( v	-0.17143044
-2.1039426	v v	-0.17143044
-1.8851783	. v	-0.27625924
-2.5753117	) v	-0.17143044
-2.2889488	" v	-0.17143044
-1.6938125	: v	-0.21880442
-1.9077435	/ v	-0.34030297
-2.1104317	j v	-0.17143044
-2.1940076	_ v	-0.17143044
-1.8874737	é v	-0.17143044
-1.7589678	? v	-0.17143044
-1.7507672	* v	-0.17143044
-2.3047965	9 v	-0.17143044
-1.4455963	% v	-0.24845184
-1.6715539	ā v	-0.17143044
-1.0125917	ü v	-0.17143044
-2.8238676	c ê	-0.17143044
-2.9548762	n ê	-0.17143044
-1.9542553	l ê	-0.36952043
-1.756091	i ê	-0.6752398
-2.009911	t ê	-0.5010822
-2.7507946	r ê	-0.17143044
-3.3988583	# ê	-0.17143044
-2.2405214	k ê	-0.20062105
-2.8207154	m ê	-0.17143044
-2.5531917	u ê	-0.23191597
-2.4144146	h ê	-0.20823592
-2.6598608	b ê	-0.17143044
-2.375295	đ ê	-0.17143044
-2.3308187	y ê	-0.22123179
-2.7973528	c ã	-0.17143044
-2.5930934	o ã	-0.24845184
-2.928427	n ã	-0.17143044
-2.401049	l ã	-0.19561765
-2.9914541	i ã	-0.17143044
-2.3338234	r ã	-0.20062105
-2.518719	m ã	-0.19561765
-2.3448591	g ã	-0.17143044
-2.2172222	h ã	-0.24845184
-2.2306268	s ã	-0.45753962
-2.6360219	b ã	-0.17143044
-1.8891852	đ ã	-0.2863652
-2.6505451	d ã	-0.17143044
-2.5232263	v ã	-0.17143044
-2.2336354	x ã	-0.17143044
-1.0266482	ç ã	-0.17143044
-2.0068717	i ể	-0.52448636
-3.0371351	t ể	-0.17143044
-2.2746005	k ể	-0.20823592
-2.5981598	h ể	-0.17143044
-2.75541	b ể	-0.17143044
-2.4485583	đ ể	-0.17143044
-2.3636124	y ể	-0.17143044
-2.9978395	n ề	-0.17143044
-2.7547512	l ề	-0.17143044
-1.9408777	i ề	-0.52448636
-2.6093626	k ề	-0.17143044
-2.8662827	m ề	-0.17143044
-2.4353993	h ề	-0.22123179
-2.698268	b ề	-0.17143044
-1.9051996	đ ề	-0.23191597
-2.7166598	d ề	-0.17143044
-2.7019732	y ề	-0.17143044
-2.0990112	v ề	-0.2863652
-2.1935236	c ố	-0.31523922
-2.915783	n ố	-0.17143044
-2.6728387	l ố	-0.17143044
-2.9790359	i ố	-0.17143044
-2.5004277	t ố	-0.23334645
-2.1394176	r ố	-0.2863652
-2.6335933	# ố	-0.39829493
-2.7794785	m ố	-0.17143044
-2.338851	g ố	-0.24845184
-1.7656827	u ố	-0.42745534
-2.085294	h ố	-0.3267559
-2.420107	s ố	-0.20398897
-2.3288357	b ố	-0.20062105
-2.3473225	đ ố	-0.17143044
-2.6384494	d ố	-0.17143044
-2.512688	v ố	-0.17143044
-2.2263656	x ố	-0.17143044
-3.01316	n ị	-0.17143044
-1.963875	l ị	-0.46245646
-2.5443213	t ị	-0.24845184
-2.8140895	r ị	-0.17143044
-2.2596667	k ị	-0.22123179
-2.244053	h ị	-0.27106917
-2.7118642	b ị	-0.17143044
-1.4418256	đ ị	-0.41472557
-2.3976965	d ị	-0.20823592
-2.1030464	v ị	-0.26081598
-2.541317	c ự	-0.20062105
-2.983041	n ự	-0.17143044
-2.2993886	l ự	-0.26081598
-2.531321	t ự	-0.24458171
-2.78129	r ự	-0.17143044
-2.8505564	m ự	-0.17143044
-2.6918778	g ự	-0.17143044
-2.428291	h ự	-0.17143044
-2.1064353	s ự	-0.3424909
-2.3949974	đ ự	-0.17143044
-2.2533906	d ự	-0.21375808
-2.568139	v ự	-0.17143044
-2.8982396	c ù	-0.17143044
-2.208676	t ù	-0.406944
-2.5073662	r ù	-0.17143044
-2.572241	m ù	-0.20823592
-2.2486906	h ù	-0.21375808
-2.7259	b ù	-0.17143044
-2.426335	đ ù	-0.17143044
-2.268392	d ù	-0.2863652
-2.1071193	v ù	-0.2863652
-2.852107	c ọ	-0.17143044
-2.4285164	l ọ	-0.22123179
-3.045015	i ọ	-0.17143044
-2.9450169	t ọ	-0.17143044
-2.4828515	r ọ	-0.17143044
-2.8505564	m ọ	-0.17143044
-2.3697596	g ọ	-0.17143044
-2.234924	h ọ	-0.2349585
-2.6850846	b ọ	-0.17143044
-2.0409198	đ ọ	-0.24845184
-2.7026072	d ọ	-0.17143044
-2.568139	v ọ	-0.17143044
-1.2916715	c .	-0.5734676
-1.4458109	o .	-0.4950827
-1.2344129	n .	-0.7052306
-1.6670971	l .	-0.19788477
-1.3600476	i .	-0.6189648
-1.3006748	t .	-0.50810426
-2.1951427	= .	-0.17143044
-1.7803655	r .	-0.32380825
-1.6560209	k .	-0.20062105
-1.2492579	m .	-0.50881195
-1.4694424	a .	-0.51059544
-1.8538975	g .	-0.17143044
-1.3116696	u .	-0.5062399
-1.6995736	e .	-0.4062188
-1.262301	p .	-0.5198344
-1.6814418	h .	-0.22967644
-1.2118185	ờ .	-0.3326009
-1.2841804	ỳ .	-0.17143044
-1.4463661	ỉ .	-0.17143044
-1.5193226	s .	-0.34013098
-1.578903	ộ .	-0.24845184
-1.9755676	b .	-0.22123179
-1.214204	1 .	-0.25724727
-1.8193381	q .	-0.17143044
-1.1374435	2 .	-0.29122305
-1.5164124	d .	-0.31517363
-2.0418692	] .	-0.17143044
-1.1426384	> .	-0.52940327
-1.7204005	w .	-0.18388166
-1.2110343	y .	-0.46403462
-1.8889302	' .	-0.20823592
-1.4275035	à .	-0.45753962
-1.7706667	á .	-0.3326009
-1.2737095	ữ .	-0.24845184
-1.5454233	v .	-0.23665807
-1.1460617	ể .	-0.24845184
-1.2211504	ề .	-0.24845184
-1.6079108	ố .	-0.24845184
-1.4376253	ự .	-0.17143044
-1.7166312	ọ .	-0.17143044
-1.4160092	. .	-0.5047637
-1.6568723	ô .	-0.24845184
-1.4729878	ó .	-0.2863652
-1.8151301	ư .	-0.24845184
-1.3295349	ợ .	-0.24845184
-1.2429271	ế .	-0.45753962
-1.1865643	” .	-0.24845184
-0.83312964	) .	-0.88171375
-1.2873883	ả .	-0.38327524
-1.5979009	ủ .	-0.17143044
-1.931229	, .	-0.3326009
-1.7712493	ứ .	-0.17143044
-1.9966786	ạ .	-0.17143044
-1.6408004	ì .	-0.17143044
-1.5968878	x .	-0.17143044
-1.4201761	ệ .	-0.24845184
-0.90072	ỏ .	-0.5544497
-1.8593892	í .	-0.17143044
-1.4272825	ồ .	-0.24845184
-0.9669479	ở .	-0.45753962
-1.211166	ử .	-0.2863652
-1.1089164	" .	-0.93466085
-1.3567941	0 .	-0.22967644
-1.7002677	j .	-0.17143044
-1.1404216	7 .	-0.24513246
-1.4206235	4 .	-0.18944341
-1.5736785	ú .	-0.24845184
-1.3315377	ổ .	-0.24845184
-1.5180155	ừ .	-0.17143044
-1.376891	ẻ .	-0.17143044
-1.5049777	ụ .	-0.24845184
-1.2366707	ũ .	-0.17143044
-1.6968569	ơ .	-0.17143044
-1.565566	ĩ .	-0.17143044
-1.2675055	6 .	-0.20062105
-1.423576	5 .	-0.17143044
-1.2739649	3 .	-0.22967644
-1.1660897	ý .	-0.24845184
-1.5239799	8 .	-0.22787853
-1.4600235	è .	-0.17143044
-1.6371235	9 .	-0.17143044
-1.7128265	% .	-0.17143044
-1.2072151	õ .	-0.17143044
-1.1431208	ỷ .	-0.17143044
-1.3011261	ỹ .	-0.17143044
-1.6098043	} .	-0.17143044
-1.2515684	ā .	-0.24845184
-1.8745792	c ô	-0.3399972
-2.512214	n ô	-0.17143044
-2.6605718	l ô	-0.17143044
-2.9669628	i ô	-0.17143044
-2.3107896	t ô	-0.25724727
-2.3226926	r ô	-0.17143044
-1.8385392	# ô	-1.1286734
-2.3884826	m ô	-0.25724727
-2.0152707	g ô	-0.24458171
-1.7646433	u ô	-0.460483
-2.6956053	p ô	-0.17143044
-2.0821052	h ô	-0.29679272
-2.5335796	s ô	-0.22123179
-2.3231556	b ô	-0.22123179
-1.5381023	đ ô	-0.3055811
-2.5023994	v ô	-0.17143044
-2.2192156	x ô	-0.17143044
-2.4278955	" ô	-0.17143044
-2.0626829	c ó	-0.32201675
-2.6443155	n ó	-0.19561765
-2.6854625	l ó	-0.17143044
-2.9914541	i ó	-0.17143044
-2.6222312	t ó	-0.22123179
-2.7223008	r ó	-0.17143044
-3.0798445	# ó	-0.22123179
-2.518719	m ó	-0.22123179
-2.6411529	g ó	-0.17143044
-1.8406596	h ó	-0.29967302
-2.8293295	s ó	-0.17143044
-2.6360219	b ó	-0.17143044
-2.356448	đ ó	-0.1714304
-2.6505451	d ó	-0.17143044
-2.5232263	v ó	-0.17143044
-2.2336354	x ó	-0.17143044
-2.541317	c ò	-0.24845184
-2.739981	l ò	-0.17143044
-3.045015	i ò	-0.17143044
-2.9450169	t ò	-0.17143044
-2.78129	r ò	-0.17143044
-2.8505564	m ò	-0.17143044
-2.238058	g ò	-0.22123179
-2.428291	h ò	-0.20062105
-2.2256286	b ò	-0.3326009
-2.3949974	đ ò	-0.17143044
-2.3842034	d ò	-0.24845184
-2.230359	v ò	-0.22123179
-2.3816652	c ư	-0.20398897
-2.9034967	n ư	-0.17143044
-2.0773206	l ư	-0.23274983
-2.1820889	t ư	-0.23274983
-2.3226926	r ư	-0.2387787
-2.124802	# ư	-0.7517666
-2.5045648	m ư	-0.19207878
-2.3329248	g ư	-0.19207878
-2.0821052	h ư	-0.31459206
-2.4150903	s ư	-0.21940999
-2.6134238	b ư	-0.17143044
-1.348338	đ ư	-0.35913625
-2.2248578	d ư	-0.22510672
-2.1955495	( ư	-0.17143044
-1.7345448	v ư	-0.34030297
-2.2192156	x ư	-0.17143044
-1.1195594	ð ư	-0.17143044
-0.43172932	­ ư	-0.17143044
-2.8823113	c ợ	-0.17143044
-2.7700417	l ợ	-0.17143044
-2.49904	r ợ	-0.17143044
-2.3827662	g ợ	-0.24845184
-2.4426255	h ợ	-0.20823592
-2.5894399	s ợ	-0.17143044
-2.7118642	b ợ	-0.17143044
-2.049932	đ ợ	-0.22123179
-2.5924664	v ợ	-0.17143044
-1.0802549	ư ợ	-0.42745534
-3.138878	n “	-0.17143044
-2.4519062	# “	-0.2150676
-1.5745424	“ “	-0.17143044
-2.537541	n ế	-0.24458171
-1.9386408	i ế	-0.48930302
-2.9287252	t ế	-0.17143044
-1.8982831	k ế	-0.2733562
-2.8353796	m ế	-0.17143044
-2.5596185	u ế	-0.19561765
-2.0982883	h ế	-0.27675223
-2.8700147	s ế	-0.17143044
-2.6722896	b ế	-0.17143044
-1.686917	đ ế	-0.21940999
-2.3353546	y ế	-0.17143044
-2.556468	v ế	-0.17143044
-2.2562044	x ế	-0.17143044
-2.983041	n ”	-0.17143044
-2.739981	l ”	-0.17143044
-2.7308283	i ”	-0.17143044
-3.0983086	a ”	-0.17143044
-2.6918778	g ”	-0.17143044
-2.6569383	e ”	-0.17143044
-2.5854125	2 ”	-0.17143044
-1.8168222	ợ ”	-0.17143044
-1.6492537	” ”	-0.17143044
-1.5024984	ẽ ”	-0.17143044
-2.5891166	0 ”	-0.17143044
-2.462334	3 ”	-0.17143044
-1.2001015	の 役	-0.24845184
-1.6323825	c )	-0.3564781
-1.8636101	o )	-0.23918763
-1.5608989	n )	-0.55667835
-2.1491663	f )	-0.17143044
-2.0296855	l )	-0.3326009
-1.646461	i )	-0.5188898
-1.7489243	t )	-0.3963589
-1.7867165	r )	-0.46245646
-2.1599016	k )	-0.17143044
-1.5637612	m )	-0.45917243
-1.7755765	a )	-0.5420979
-2.1868496	g )	-0.17143044
-1.8113602	u )	-0.36952043
-1.8451421	e )	-0.41214922
-1.8097445	p )	-0.20062105
-1.8445013	h )	-0.35769436
-1.7010634	ờ )	-0.17143044
-1.2884827	ỳ )	-0.17143044
-1.4517188	ỉ )	-0.17143044
-1.6659999	s )	-0.4519213
-1.5836539	ộ )	-0.22123179
-1.740807	1 )	-0.245546
-1.8275838	q )	-0.17143044
-1.5454371	2 )	-0.2824156
-1.6291906	d )	-0.39829493
-2.0503836	] )	-0.17143044
-1.8715321	> )	-0.17143044
-1.8889952	z )	-0.17143044
-2.0573053	w )	-0.17143044
-1.4744236	y )	-0.26761118
-2.1121907	' )	-0.17143044
-1.6226177	ữ )	-0.17143044
-1.9542437	v )	-0.17143044
-1.7591339	ê )	-0.17143044
-1.6478179	ù )	-0.17143044
-2.0322528	. )	-0.3399972
-1.8816684	ó )	-0.17143044
-1.5593361	ế )	-0.17143044
-1.6052964	ủ )	-0.17143044
-1.6468605	ì )	-0.17143044
-1.7378663	ệ )	-0.17143044
-1.86927	í )	-0.17143044
-1.4407257	ẽ )	-0.17143044
-2.0920305	" )	-0.17143044
-1.4148601	0 )	-0.5365976
-1.9717823	j )	-0.17143044
-1.5613555	7 )	-0.26081598
-1.3448187	4 )	-0.406944
-1.5786141	ú )	-0.24845184
-1.5905533	ũ )	-0.17143044
-1.3457707	? )	-0.24845184
-1.6553749	! )	-0.17143044
-1.3478274	6 )	-0.23657663
-1.4263976	5 )	-0.3055811
-1.5144281	3 )	-0.38327524
-1.1687325	ý )	-0.17143044
-1.6463311	8 )	-0.2863652
-1.3649126	ẹ )	-0.17143044
-1.6414735	9 )	-0.22123179
-1.4017804	% )	-0.17143044
-0.9869063	ル )	-0.17143044
-0.710022	業 )	-0.17143044
-1.3047973	ỹ )	-0.17143044
-0.67453444	² )	-0.20062105
-1.0722289	ь )	-0.17143044
-0.040992223	島 )	-1.115669
-0.42158765	嵬 )	-0.17143044
-0.42158765	擴 )	-0.17143044
-0.710022	寧 )	-0.17143044
-0.42158765	宗 )	-0.17143044
-0.99198014	皇 )	-0.17143044
-0.30486357	帝 )	-0.45753962
-0.42158765	號 )	-0.17143044
-0.710022	堅 )	-0.17143044
-0.42158765	壽 )	-0.17143044
-0.42158765	廣 )	-0.17143044
-0.42158765	侑 )	-0.17143044
-0.42158765	彩 )	-0.17143044
-0.42158765	禪 )	-0.17143044
-0.42158765	后 )	-0.17143044
-0.42158765	坚 )	-0.17143044
-0.42158765	延 )	-0.17143044
-0.42158765	茹 )	-0.17143044
-2.3916562	c ả	-0.21375808
-2.8949666	o ả	-0.17143044
-2.928427	n ả	-0.17143044
-2.9914541	i ả	-0.17143044
-2.6222312	t ả	-0.20062105
-2.45218	r ả	-0.22123179
-2.1489937	# ả	-0.87666893
-2.0745687	m ả	-0.5544497
-2.3448591	g ả	-0.24845184
-2.8339803	u ả	-0.17143044
-1.9086704	h ả	-0.31911367
-2.8293295	s ả	-0.17143044
-1.6842872	b ả	-0.39692482
-1.6810356	đ ả	-0.363573
-2.5232263	v ả	-0.17143044
-2.2336354	x ả	-0.17143044
-2.5708265	c ủ	-0.17143044
-3.017082	t ủ	-0.17143044
-2.84957	r ủ	-0.17143044
-2.6667924	# ủ	-0.45753962
-2.7493207	g ủ	-0.17143044
-2.0103748	h ủ	-0.27276844
-2.4373045	đ ủ	-0.17143044
-2.2908099	( ủ	-0.17143044
-1.3514144	c ,	-1.1342332
-1.4677212	o ,	-1.0859286
-1.196245	n ,	-1.1529106
-1.7964556	l ,	-0.5544497
-1.373076	i ,	-1.1467032
-1.433517	t ,	-1.1776989
-1.9248877	r ,	-0.45753962
-1.8926541	k ,	-0.3326009
-1.3007729	m ,	-1.1979023
-1.3422788	a ,	-1.3606296
-1.9608462	g ,	-0.26081598
-1.3091164	u ,	-1.1979023
-1.62187	e ,	-0.74412024
-1.3201151	p ,	-1.0016077
-1.967086	h ,	-0.3399972
-1.2083888	ờ ,	-0.3326009
-1.2767525	ỳ ,	-0.17143044
-0.94654655	ỉ ,	-0.3326009
-1.7491676	s ,	-0.5873952
-1.4495262	ộ ,	-0.3326009
-2.02484	b ,	-0.24845184
-1.4471228	1 ,	-0.2155251
-1.5051543	q ,	-0.24845184
-1.2915292	2 ,	-0.2787584
-1.6814162	d ,	-0.6336309
-2.0273595	] ,	-0.17143044
-1.525209	> ,	-0.26081598
-1.7102531	w ,	-0.3326009
-1.132196	y ,	-0.98533523
-2.0772593	' ,	-0.17143044
-1.7360038	à ,	-0.24845184
-1.4559886	á ,	-0.5544497
-1.605707	ữ ,	-0.17143044
-1.923688	v ,	-0.22123179
-1.4114866	ê ,	-0.24845184
-1.3822649	ã ,	-0.3326009
-1.1419146	ể ,	-0.24845184
-1.9021447	ố ,	-0.17143044
-1.3896799	ị ,	-0.24845184
-1.1013144	ự ,	-0.45753962
-1.291075	ù ,	-0.24845184
-1.7034512	ọ ,	-0.17143044
-1.8260074	. ,	-0.46245646
-1.5262845	ô ,	-0.3326009
-1.2753692	ó ,	-0.45753962
-1.3699257	ư ,	-0.5544497
-1.3235261	ợ ,	-0.24845184
-1.2384353	ế ,	-0.2863652
-1.0410204	” ,	-0.3326009
-0.6408811	) ,	-1.5182375
-1.6121471	ả ,	-0.24845184
-1.2693714	ủ ,	-0.24845184
-1.310266	ứ ,	-0.3326009
-1.9810257	ạ ,	-0.17143044
-1.6246257	ớ ,	-0.17143044
-1.2905977	ì ,	-0.24845184
-1.6785856	x ,	-0.24845184
-1.286414	ệ ,	-0.3326009
-1.3728633	ỏ ,	-0.24845184
-1.8426211	í ,	-0.17143044
-1.044482	ẽ ,	-0.24845184
-1.0757737	ồ ,	-0.38327524
-0.9649202	ở ,	-0.45753962
-1.2065333	ử ,	-0.3326009
-0.9111554	ễ ,	-0.24845184
-1.1463548	" ,	-0.89687234
-1.304188	0 ,	-0.25458986
-1.3366095	7 ,	-0.30539972
-1.2734411	4 ,	-0.3253069
-1.5651739	ú ,	-0.24845184
-1.3268099	ổ ,	-0.24845184
-1.4705603	ỗ ,	-0.17143044
-1.373148	ụ ,	-0.3326009
-1.5744871	ũ ,	-0.17143044
-1.6857163	ơ ,	-0.17143044
-1.222826	ĩ ,	-0.24845184
-1.2637147	6 ,	-0.19207878
-1.510953	5 ,	-0.22123179
-1.4122267	3 ,	-0.21375808
-0.81472623	ý ,	-0.45753962
-1.2869604	8 ,	-0.38327524
-1.4170513	9 ,	-0.31152847
-1.2817307	े ,	-0.17143044
-1.3914838	% ,	-0.24845184
-0.81205785	õ ,	-0.24845184
-1.4599651	л ,	-0.17143044
-0.41989458	忠 ,	-0.17143044
-1.13797	ỷ ,	-0.17143044
-0.9145099	ỹ ,	-0.24845184
-1.2452061	ā ,	-0.17143044
-1.0702083	় ,	-0.17143044
-0.6739851	ে ,	-0.24845184
-0.7067386	니 ,	-0.17143044
-0.41989458	雙 ,	-0.17143044
-2.8238676	c ứ	-0.17143044
-2.9548762	n ứ	-0.17143044
-2.7118666	l ứ	-0.17143044
-2.518699	t ứ	-0.2863652
-2.467245	r ứ	-0.17143044
-2.3861394	# ứ	-0.6336309
-2.53335	m ứ	-0.24845184
-2.665775	g ứ	-0.17143044
-1.9945083	h ứ	-0.3211273
-2.8560252	s ứ	-0.17143044
-2.6598608	b ứ	-0.17143044
-2.0320911	đ ứ	-0.20062105
-2.6757965	d ứ	-0.17143044
-2.2485504	x ứ	-0.17143044
-2.500502	c ạ	-0.24845184
-2.0229685	o ạ	-0.30196905
-2.9034967	n ạ	-0.17143044
-2.0773206	l ạ	-0.25188574
-2.4945042	t ạ	-0.22404653
-2.43762	r ạ	-0.20062105
-3.3231235	# ạ	-0.17143044
-2.7665594	m ạ	-0.17143044
-2.3329248	g ạ	-0.22123179
-2.810283	u ạ	-0.17143044
-1.9044292	h ạ	-0.2787584
-2.80418	s ạ	-0.17143044
-2.6134238	b ạ	-0.17143044
-1.2775624	đ ạ	-0.4316869
-2.2248578	d ạ	-0.24458171
-2.5023994	v ạ	-0.17143044
-2.2192156	x ạ	-0.17143044
-1.1195594	ð ạ	-0.17143044
-2.8238676	c ớ	-0.17143044
-2.9548762	n ớ	-0.17143044
-2.4145656	l ớ	-0.22123179
-3.0174093	i ớ	-0.17143044
-2.913023	t ớ	-0.17143044
-2.7507946	r ớ	-0.17143044
-3.19743	# ớ	-0.24845184
-2.8207154	m ớ	-0.17143044
-2.225983	h ớ	-0.24458171
-2.8560252	s ớ	-0.17143044
-2.6598608	b ớ	-0.17143044
-2.375295	đ ớ	-0.17143044
-2.2196236	v ớ	-0.24845184
-0.9331132	ư ớ	-0.4774971
-2.7547512	l ì	-0.17143044
-2.6636164	t ì	-0.22123179
-2.4908702	r ì	-0.17143044
-2.6093626	k ì	-0.17143044
-2.8662827	m ì	-0.17143044
-2.705542	g ì	-0.17143044
-1.7899023	h ì	-0.4344315
-2.698268	b ì	-0.17143044
-2.405194	đ ì	-0.17143044
-2.6266809	- ì	-0.17143044
-2.2358282	v ì	-0.22123179
-2.1160853	o x	-0.1714304
-2.30519	n x	-0.20823592
-2.36368	i x	-0.20823592
-2.570211	t x	-0.17143044
-2.5424526	= x	-0.17143044
-1.755826	# x	-0.7760095
-2.398079	a x	-0.21375808
-2.4992669	u x	-0.17143044
-1.698038	e x	-0.3222241
-2.220755	p x	-0.22123179
-2.027955	[ x	-0.17143044
-2.747024	s x	-0.17143044
-2.1242194	> x	-0.17143044
-2.377271	' x	-0.17143044
-2.2171147	- x	-0.17143044
-2.1547582	( x	-0.17143044
-2.754945	. x	-0.17143044
-1.7357765	ô x	-0.17143044
-2.1851313	x x	-0.17143044
-2.3905602	" x	-0.17143044
-2.563316	/ x	-0.17143044
-2.3186972	6 x	-0.17143044
-2.065624	8 x	-0.17143044
-2.5059245	| ấ	-0.24845184
-2.4940577	c ấ	-0.19207878
-2.8915484	n ấ	-0.17143044
-2.6486418	l ấ	-0.17143044
-2.9552164	i ấ	-0.17143044
-2.8420432	t ấ	-0.17143044
-2.430519	r ấ	-0.17143044
-2.3762097	# ấ	-0.5439609
-2.0668762	m ấ	-0.406944
-2.606654	g ấ	-0.17143044
-1.9748119	u ấ	-0.34030297
-1.981715	h ấ	-0.33595374
-2.7921312	s ấ	-0.17143044
-2.602551	b ấ	-0.17143044
-2.0107737	đ ấ	-0.20823592
-2.340029	d ấ	-0.24845184
-2.492349	v ấ	-0.17143044
-1.8674684	x ấ	-0.22123179
-2.4033303	: ấ	-0.17143044
-2.421485	l ệ	-0.19561765
-1.8382866	i ệ	-0.53852105
-2.9287252	t ệ	-0.17143044
-2.7657747	r ệ	-0.17143044
-2.8353796	m ệ	-0.17143044
-2.430231	u ệ	-0.22123179
-1.8461607	h ệ	-0.44716284
-2.8700147	s ệ	-0.17143044
-2.35233	b ệ	-0.24845184
-2.3850346	đ ệ	-0.17143044
-2.688995	d ệ	-0.17143044
-2.6812627	y ệ	-0.17143044
-2.2249582	v ệ	-0.20823592
-2.8669467	c ỏ	-0.17143044
-2.4356635	l ỏ	-0.24845184
-3.0595052	i ỏ	-0.17143044
-2.9619431	t ỏ	-0.17143044
-2.8662827	m ỏ	-0.17143044
-2.104934	h ỏ	-0.2349585
-2.899423	s ỏ	-0.17143044
-2.698268	b ỏ	-0.17143044
-2.405194	đ ỏ	-0.17143044
-2.7166598	d ỏ	-0.17143044
-2.5801325	v ỏ	-0.17143044
-2.8104079	c í	-0.17143044
-2.2838726	l í	-0.17143044
-1.9391474	t í	-0.27106917
-2.3394976	r í	-0.1714304
-2.2239175	# í	-0.6909028
-2.1018958	k í	-0.22123179
-2.8065302	m í	-0.17143044
-2.5468585	u í	-0.24845184
-2.0917425	h í	-0.27549428
-2.6477778	b í	-0.17143044
-2.3657694	đ í	-0.17143044
-2.6629872	d í	-0.17143044
-2.5340266	v í	-0.17143044
-1.880275	x í	-0.17143044
-0.43220317	ř í	-0.17143044
-2.802339	l ẽ	-0.17143044
-2.84957	r ẽ	-0.17143044
-2.643512	k ẽ	-0.17143044
-2.9171975	m ẽ	-0.17143044
-2.9045837	h ẽ	-0.17143044
-2.9476438	s ẽ	-0.17143044
-2.4373045	đ ẽ	-0.17143044
-2.618238	v ẽ	-0.17143044
-2.9147744	c ỡ	-0.17143044
-2.802339	l ỡ	-0.17143044
-2.5804555	m ỡ	-0.24845184
-2.9045837	h ỡ	-0.17143044
-2.4373045	đ ỡ	-0.17143044
-2.7617712	d ỡ	-0.17143044
-2.618238	v ỡ	-0.17143044
-1.5610273	ư ỡ	-0.38327524
-2.7700417	l ẫ	-0.17143044
-2.8825998	m ẫ	-0.17143044
-2.7196503	g ẫ	-0.17143044
-2.9139853	u ẫ	-0.17143044
-2.4426255	h ẫ	-0.17143044
-2.9149091	s ẫ	-0.17143044
-2.7118642	b ẫ	-0.17143044
-2.415636	đ ẫ	-0.17143044
-2.3976965	d ẫ	-0.24845184
-2.5924664	v ẫ	-0.17143044
-2.983041	n ồ	-0.17143044
-2.4285164	l ồ	-0.20823592
-2.9450169	t ồ	-0.17143044
-2.4828515	r ồ	-0.17143044
-3.1214685	# ồ	-0.22123179
-2.8505564	m ồ	-0.17143044
-2.238058	g ồ	-0.22123179
-2.5661418	u ồ	-0.24845184
-1.999733	h ồ	-0.28751832
-2.6850846	b ồ	-0.17143044
-2.0409198	đ ồ	-0.19561765
-2.7026072	d ồ	-0.17143044
-2.983041	n ở	-0.17143044
-2.78129	r ở	-0.17143044
-1.7519	# ở	-1.1824338
-2.5484912	m ở	-0.20823592
-2.6918778	g ở	-0.17143044
-2.8856475	u ở	-0.17143044
-2.428291	h ở	-0.20823592
-2.4460971	s ở	-0.2863652
-2.6850846	b ở	-0.17143044
-2.568139	v ở	-0.17143044
-1.5580404	ư ở	-0.2863652
-2.263996	x ở	-0.17143044
-2.5342424	c ầ	-0.20823592
-2.9687302	n ầ	-0.17143044
-2.7256963	l ầ	-0.17143044
-3.030993	i ầ	-0.17143044
-2.524964	t ầ	-0.26081598
-2.4749782	r ầ	-0.17143044
-2.8353796	m ầ	-0.17143044
-2.2333527	g ầ	-0.26081598
-2.430231	u ầ	-0.3326009
-2.0982883	h ầ	-0.26699492
-2.6722896	b ầ	-0.17143044
-1.8987228	đ ầ	-0.26081598
-2.3776112	d ầ	-0.20823592
-2.423086	c ử	-0.22123179
-2.6862998	n ử	-0.24845184
-2.7700417	l ử	-0.17143044
-2.9795563	t ử	-0.1714304
-2.8140895	r ử	-0.17143044
-2.8825998	m ử	-0.17143044
-2.3827662	g ử	-0.24845184
-2.864291	h ử	-0.17143044
-2.2506511	s ử	-0.2552203
-2.280011	x ử	-0.17143044
-2.1204422	l ễ	-0.26081598
-2.1681404	i ễ	-0.406944
-2.9088995	r ễ	-0.17143044
-2.8121176	d ễ	-0.17143044
-2.770784	y ễ	-0.17143044
-2.8377578	c ặ	-0.17143044
-2.6107635	o ặ	-0.22123179
-2.9687302	n ặ	-0.17143044
-3.030993	i ặ	-0.17143044
-2.9287252	t ặ	-0.17143044
-2.7657747	r ặ	-0.17143044
-2.4159844	m ặ	-0.29696217
-2.2333527	g ặ	-0.22123179
-2.4212973	h ặ	-0.23191597
-1.8987228	đ ặ	-0.2733562
-2.3776112	d ặ	-0.24845184
-2.556468	v ặ	-0.17143044
-1.1234231	ð ặ	-0.17143044
-2.564175	c "	-0.17143044
-2.0845435	o "	-0.26081598
-1.8022789	n "	-0.45354193
-2.2650502	l "	-0.22123179
-1.8150167	i "	-0.5260926
-2.1232235	t "	-0.21375808
-1.6643562	= "	-0.19462386
-2.3032298	r "	-0.17143044
-1.9353471	# "	-0.43322408
-1.9265128	m "	-0.19561765
-2.527346	a "	-0.20823592
-2.4206748	g "	-0.17143044
-2.3166828	u "	-0.17143044
-2.0284696	e "	-0.406944
-2.4971118	h "	-0.17143044
-1.9513235	s "	-0.3010348
-2.420929	b "	-0.17143044
-2.405181	2 "	-0.17143044
-2.1338408	d "	-0.2863652
-2.1543157	] "	-0.17143044
-2.1165807	y "	-0.17143044
-2.2844398	' "	-0.17143044
-1.6958717	ữ "	-0.17143044
-1.5019386	. "	-0.45964003
-1.7133805	ô "	-0.17143044
-1.9630628	ế "	-0.17143044
-2.2261717	) "	-0.22123179
-1.7985408	, "	-0.38327524
-2.2673097	: "	-0.17143044
-2.2208638	7 "	-0.17143044
-2.3042848	4 "	-0.17143044
-1.3940384	? "	-0.17143044
-1.3581275	! "	-0.22123179
-2.0094953	5 "	-0.17143044
-1.8824015	3 "	-0.22123179
-2.0141234	8 "	-0.24845184
-1.4189838	ẹ "	-0.17143044
-2.299791	9 "	-0.17143044
-1.8150923	% "	-0.17143044
-1.1793826	ỷ "	-0.17143044
-2.0642645	<s> :	-0.17143044
-1.6624259	c :	-0.8554796
-2.067006	o :	-0.38327524
-1.7094871	n :	-0.37353113
-2.1348221	l :	-0.2863652
-1.9540867	i :	-0.25899372
-1.9455324	t :	-0.5522347
-2.4043295	r :	-0.17143044
-2.3192492	# :	-0.22370778
-2.312026	k :	-0.17143044
-1.7752085	m :	-0.5873952
-2.2185707	a :	-0.5544497
-2.1764681	g :	-0.24845184
-1.9255077	u :	-0.52940327
-2.1086786	e :	-0.21658945
-1.5471835	p :	-0.5160885
-2.2901962	h :	-0.19561765
-2.362503	s :	-0.24845184
-1.9027466	1 :	-0.17143044
-1.9858094	2 :	-0.22123179
-2.1852086	d :	-0.24845184
-2.1278322	] :	-0.17143044
-1.9922184	> :	-0.17143044
-1.794057	y :	-0.38327524
-2.237864	' :	-0.17143044
-2.125164	à :	-0.17143044
-1.554992	ể :	-0.17143044
-1.793839	ọ :	-0.17143044
-1.6434609	ó :	-0.24845184
-2.190494	ư :	-0.17143044
-1.7261187	ợ :	-0.17143044
-1.6260868	) :	-0.6336309
-2.0903344	ạ :	-0.17143044
-1.7003727	ì :	-0.17143044
-1.8113197	ệ :	-0.17143044
-1.9607041	í :	-0.17143044
-2.2307425	" :	-0.17143044
-1.5498389	: :	-0.24458171
-1.98868	0 :	-0.20823592
-2.2581227	4 :	-0.17143044
-1.7365849	ổ :	-0.17143044
-1.8922713	ụ :	-0.17143044
-1.7610192	ơ :	-0.17143044
-1.6300483	ĩ :	-0.17143044
-1.7928678	6 :	-0.22123179
-2.2420013	5 :	-0.17143044
-1.8631564	3 :	-0.17143044
-1.8734233	8 :	-0.17143044
-1.9861414	9 :	-0.24845184
-0.4267069	饞 :	-0.17143044
-1.9059242	c /	-0.18944341
-2.3498378	o /	-0.17143044
-2.0364237	n /	-0.18578053
-2.1457732	l /	-0.17143044
-1.9575683	i /	-0.18740462
-2.211335	t /	-0.18740462
-1.8484882	r /	-0.18740462
-2.7471786	# /	-0.24845184
-1.8313266	k /	-0.17143044
-1.7791215	m /	-0.22031993
-2.1308522	a /	-0.19207878
-1.9400384	g /	-0.18335567
-2.3815386	u /	-0.17143044
-1.7696534	e /	-0.18836284
-1.8519125	p /	-0.1714304
-1.9163011	h /	-0.18944341
-1.6155747	s /	-0.24106133
-2.1842773	b /	-0.17143044
-2.0909286	1 /	-0.17143044
-1.8037175	2 /	-0.17143044
-1.9528975	d /	-0.17143044
-2.1356091	] /	-0.17143044
-0.7476493	< /	-0.6385477
-2.0015252	z /	-0.17143044
-2.190483	w /	-0.17143044
-2.09771	y /	-0.17143044
-2.0726032	v /	-0.17143044
-2.0500007	ô /	-0.17143044
-1.8186569	ệ /	-0.17143044
-1.8837764	" /	-0.3326009
-2.2300298	: /	-0.17143044
-2.4023259	/ /	-0.17143044
-1.6843072	0 /	-0.24458171
-2.0817053	j /	-0.17143044
-1.6022239	7 /	-0.17143044
-1.9946923	4 /	-0.24845184
-1.6477208	ũ /	-0.17143044
-1.6357216	ĩ /	-0.17143044
-1.798373	6 /	-0.20062105
-1.6847262	5 /	-0.21375808
-1.6780213	3 /	-0.17143044
-1.5771397	ý /	-0.17143044
-1.3813089	8 /	-0.18944341
-1.6827195	9 /	-0.18740462
-1.1007596	² /	-0.17143044
-0.7209445	堅 /	-0.17143044
-0.42717528	禅 /	-0.17143044
-2.7096505	| 0	-0.17143044
-2.6377263	c 0	-0.17143044
-2.769122	n 0	-0.17143044
-2.7079072	t 0	-0.17143044
-2.2139072	= 0	-0.17143044
-2.4322152	# 0	-0.3088577
-2.4320757	k 0	-0.17143044
-2.9077275	a 0	-0.17143044
-2.5786579	h 0	-0.17143044
-2.4897115	b 0	-0.17143044
-1.0964136	1 0	-0.33090532
-0.9210986	2 0	-0.4422546
-2.497145	d 0	-0.17143044
-2.3311083	' 0	-0.17143044
-1.4349415	- 0	-0.34016183
-2.0965455	( 0	-0.17143044
-1.813006	. 0	-0.22967644
-1.6678034	, 0	-0.22510672
-2.3367894	" 0	-0.17143044
-2.0277941	: 0	-0.17143044
-1.6889124	/ 0	-0.2159867
-1.1381841	0 0	-0.31116328
-1.2951605	7 0	-0.19788477
-1.2423325	4 0	-0.19788477
-1.2990861	6 0	-0.18335567
-0.9694758	5 0	-0.2931935
-1.1883307	3 0	-0.26241884
-1.2088759	8 0	-0.18163188
-1.2450386	9 0	-0.19561765
-1.1096716	º 0	-0.17143044
-1.0194501	≤ 0	-0.17143044
-1.6629233	| j	-0.63938487
-2.6652987	c j	-0.17143044
-2.2347746	o j	-0.17143044
-2.4656022	n j	-0.20823592
-2.553869	l j	-0.17143044
